const float w1[sz_hid_1][sz_obs] = {{-8.09893906e-01, 5.80030382e-01,-5.36425066e+00, 1.11040272e-01,
  -3.32023017e-02, 2.45660022e-01, 3.99170208e+00,-4.20746133e-02,
   7.21323267e-02},
 {-7.83200376e-03,-2.76364833e-02, 2.35517547e-02,-1.36658239e+00,
  -3.34591126e+00, 3.82190943e-01, 5.67097031e-03, 2.80565238e+00,
   9.20407251e-02},
 { 3.85728315e-03,-1.10980915e-02, 1.05746523e-01, 1.70291867e-02,
  -2.09391332e+00, 4.16121423e-01,-1.23708984e-02,-5.21942568e+00,
  -1.46825546e-02},
 { 1.35460990e-02, 5.92952855e-02, 1.82900891e-01,-1.14401472e+00,
   8.37888896e-01,-8.96258354e-01,-7.40979761e-02, 2.97502804e+00,
   2.11811066e-01},
 {-8.99800211e-02, 1.13236234e-02,-1.13477123e+00, 2.33787918e+00,
   9.13621604e-01,-1.40930927e+00,-1.37446672e-01,-1.37801981e+00,
   2.86013627e+00},
 { 2.69723218e-02, 2.08742302e-02, 1.24235213e+00, 4.53528076e-01,
  -1.00961983e+00, 1.71858281e-01,-1.58734955e-02,-5.23757839e+00,
  -1.34913743e+00},
 { 7.94423819e-01, 1.60402524e+00,-2.69956160e+00, 1.48067504e-01,
  -1.69724450e-01, 5.74952006e-01, 4.30297947e+00, 9.83066112e-02,
   2.86757648e-01},
 { 2.41344142e+00, 8.92856956e-01,-1.69154286e+00, 9.99601185e-03,
  -6.15790160e-03,-6.05767705e-02, 6.99409914e+00,-2.51853857e-02,
   2.01558694e-03},
 { 6.41139328e-01,-2.46754718e+00, 3.31951618e+00,-2.50010602e-02,
   2.37889383e-02, 2.10267063e-02,-5.96649361e+00, 1.44568901e-03,
  -1.45566361e-02},
 { 2.55610079e-01, 3.22174883e+00,-1.23359728e+00,-1.12605691e-02,
  -2.91369502e-02, 2.69627403e-02, 1.13719988e+00, 2.85655353e-02,
  -4.01863307e-02},
 { 1.27380062e-02,-6.30929135e-03,-8.21884722e-02,-3.17467123e-01,
  -1.70674646e+00,-9.53894332e-02, 7.87031092e-03, 3.61865854e+00,
   9.16422382e-02},
 { 1.15341485e+00,-1.73839736e+00,-1.60040975e+00, 6.47840574e-02,
  -1.36996901e+00, 8.69743600e-02, 2.57277775e+00, 1.27390787e-01,
  -1.96210337e+00},
 {-8.88337381e-03,-9.99777811e-04,-2.97389269e-01, 2.13239694e+00,
  -1.44599274e-01, 6.60482550e+00,-4.82673058e-05,-4.68482018e+00,
   1.83810703e-02},
 { 2.47498798e+00, 1.95173979e+00,-2.15954924e+00,-2.51376927e-02,
   1.92996692e-02,-1.60547066e-02, 6.53604841e+00,-1.94267388e-02,
  -1.75523628e-02},
 { 1.33172953e+00,-1.67936277e+00, 2.96868420e+00,-2.43148766e-02,
  -6.78613558e-02,-4.44393754e-02,-6.06992054e+00, 1.45086542e-01,
   3.79765630e-02},
 { 5.49666137e-02,-1.74432874e-01,-1.28902888e+00, 1.42382860e+00,
  -2.03993034e+00, 2.37207130e-01, 3.21152002e-01, 3.98713899e+00,
  -2.34961486e+00},
 { 2.70259399e-02,-4.88260835e-02, 1.63831782e+00, 2.98637688e-01,
  -2.55250788e+00, 2.39610791e+00, 1.39751792e-01, 4.69520152e-01,
  -2.25517130e+00},
 {-1.02532934e-02,-1.46935165e-01,-1.00050962e+00, 4.21053410e+00,
  -6.47035241e-01,-1.19814575e+00,-1.18820732e-02, 5.15223360e+00,
   1.13587570e+00},
 {-5.87050140e-01,-1.55872655e+00, 3.09408379e+00,-1.15016559e-02,
   2.02258267e-02, 1.07504455e-02,-3.17893267e+00, 6.23455942e-02,
  -1.10749975e-01},
 {-8.49728882e-01, 3.15254903e+00, 2.14973021e+00, 2.22958345e-02,
   1.33528840e-02, 2.17626005e-01,-4.16809702e+00, 1.02567831e-02,
   5.14637753e-02},
 { 3.22896475e-03,-3.04774549e-02,-3.82337809e-01, 1.99545133e+00,
   8.18739653e-01,-1.16366887e+00,-5.80495484e-02,-3.26624703e+00,
  -2.75397182e+00},
 { 7.63407629e-03,-8.42356011e-02, 7.99508154e-01, 1.84572208e+00,
   9.51573789e-01, 9.64459896e-01, 2.59909797e-02,-3.36224985e+00,
  -2.04920816e+00},
 { 1.28173983e+00,-8.99514139e-01,-3.49856257e+00, 1.92119464e-01,
   2.16092587e+00,-2.71368418e-02, 2.75343347e+00, 7.34498262e-01,
  -7.34521449e-01},
 { 2.70270276e+00, 1.76859349e-01,-1.76222229e+00, 2.06216127e-01,
  -2.96254545e-01, 1.36711523e-01, 4.29299402e+00, 6.10359728e-01,
  -5.87073803e-01},
 { 5.35485558e-02, 1.11443019e-02, 2.86724363e-02,-1.95991611e+00,
  -7.67878413e-01,-1.27423263e+00, 6.72894418e-02, 2.05341484e-02,
   2.32163477e+00},
 { 1.91984653e-01,-9.98279639e-03,-5.77578187e-01, 3.25248909e+00,
   1.07135069e+00,-8.05460870e-01, 1.00610666e-01,-2.24678755e+00,
   2.85958672e+00},
 { 2.69253039e+00, 2.12023282e+00, 1.29190719e+00, 8.90740193e-03,
  -2.42249127e-02, 7.99689069e-02,-4.24221849e+00, 4.06667516e-02,
   3.60468850e-02},
 { 9.20676365e-02,-6.99649602e-02,-2.87286949e+00, 6.84938505e-02,
  -1.59655333e+00,-3.77530128e-01, 1.42529577e-01, 1.15855360e+00,
   3.40359068e+00},
 { 2.65846044e-01, 3.17092836e-02,-9.67700291e+00,-2.77652149e-03,
   6.08572131e-03, 1.03374392e-01,-6.25854552e-01, 1.79829374e-02,
  -2.27248985e-02},
 {-5.03490716e-02, 2.66869776e-02, 1.06092536e+00, 7.69811511e-01,
   2.91791081e-01,-9.44833457e-02,-6.07963130e-02, 4.88194227e+00,
  -1.25978959e+00},
 {-5.87174594e-02, 2.76542306e-02, 5.22801495e+00, 3.04146945e-01,
  -1.98685431e+00,-1.14256644e+00, 1.84454858e-01, 7.77854919e-01,
  -2.69269180e+00},
 { 6.88002110e-02, 1.55939209e+00,-3.11787868e+00,-2.69953012e-02,
   4.00692858e-02,-7.36846775e-02, 5.28517485e+00,-7.60216638e-02,
   4.60422225e-03},
 { 1.58655810e+00, 3.23801684e+00, 2.69113851e+00, 5.45129068e-02,
   3.40155400e-02, 2.21848339e-01,-4.06533527e+00, 1.75132558e-01,
  -4.19512503e-02},
 { 7.30131194e-02,-1.11613676e-01,-3.19753289e+00, 2.46755481e+00,
   1.20082819e+00,-9.03421342e-01, 6.76633194e-02, 2.46928477e+00,
   1.10518587e+00},
 { 3.92962294e-03,-6.95045711e-03, 1.92440128e+01, 1.52954096e-02,
  -2.47078184e-02,-2.00547919e-01, 3.18117514e-02,-6.98536728e-03,
   5.53580839e-03},
 {-7.11407512e-03,-8.15863535e-03, 2.28092358e-01,-3.72567713e-01,
  -7.43171751e-01, 9.35905576e-02, 1.04446318e-02,-1.46971977e+00,
   8.63611549e-02},
 { 1.33196309e-01, 2.67283712e-02,-2.46599793e+00,-1.67151833e+00,
   1.57991850e+00, 7.07168579e-01, 6.77904785e-02,-2.66145444e+00,
  -2.95578980e+00},
 { 9.50885657e-03, 3.61057483e-02,-4.38959181e-01, 1.67291117e+00,
   1.85510421e+00, 3.42451394e-01,-1.51524488e-02,-4.61041927e+00,
  -7.74458349e-02},
 { 2.38441750e-02, 2.22619742e-01, 5.94572258e+00, 1.65440932e-01,
   1.69067228e+00, 5.19360065e-01,-2.50379235e-01,-1.22462571e+00,
  -9.57489550e-01},
 {-8.79779533e-02, 3.48053239e-02,-8.79817605e-01,-2.75978535e-01,
   3.30147171e+00,-9.58505750e-01, 1.79746583e-01,-2.60915303e+00,
  -3.01969028e+00},
 { 2.49551296e+00,-1.68257344e+00,-1.41371787e+00, 3.95879941e-03,
   1.97916497e-02, 3.62083167e-02, 7.15633249e+00,-2.17122547e-02,
  -3.64550464e-02},
 { 7.19830245e-02,-7.27088675e-02, 1.21371078e+00, 8.95938091e-03,
   2.26803064e+00,-1.60140502e+00,-2.93707270e-02,-2.88909364e+00,
   2.17659807e+00},
 {-2.91513372e-02, 1.22015681e-02, 9.73650932e+00, 2.06247848e-02,
   1.47079714e-02,-9.20823291e-02,-2.23120162e-03,-2.27659028e-02,
  -7.15497555e-03},
 { 6.02603294e-02, 2.90201860e-03,-3.41599989e+00, 1.17107511e+00,
   2.11619115e+00, 2.40774497e-01, 5.00861630e-02,-1.53343987e+00,
  -3.18225098e+00},
 { 3.56384993e+00, 1.93125844e+00, 2.19309092e+00,-1.30800838e-02,
   3.20584737e-02, 8.45218450e-02,-8.21253109e+00,-3.35417911e-02,
  -2.22173054e-02},
 { 2.17756224e+00,-1.58526266e+00, 4.03989077e+00, 2.57263392e-01,
  -1.30088821e-01, 3.33536834e-01,-2.26921988e+00,-9.39257815e-02,
  -3.62830632e-03},
 { 2.51256749e-02, 3.01626250e-02, 2.78854918e+00,-1.22936714e+00,
   2.17819214e-01, 1.19753838e+00,-3.67567278e-02,-1.51162207e+00,
  -3.22178078e+00},
 { 6.47503555e-01,-4.55961302e-02,-7.94168139e+00,-9.12665725e-02,
   7.77753666e-02,-1.90218911e-01, 4.69520390e-01,-1.82632189e-02,
  -8.18616077e-02},
 {-2.14337558e-02,-1.14991264e-02,-1.22736502e+00, 3.13661671e+00,
  -1.89868259e+00, 8.66822600e-01,-5.52332103e-02, 4.52755642e+00,
  -1.88591862e+00},
 {-2.84574389e+00,-3.16679478e+00, 8.88004363e-01, 2.09816396e-02,
  -1.48446504e-02, 3.25618833e-02, 1.54931247e+00,-4.20000628e-02,
  -3.25636216e-03},
 { 1.92975570e-02,-9.25861076e-02, 4.99014854e+00, 2.16869426e+00,
  -5.63626230e-01, 8.49796355e-01,-2.81910747e-01,-8.30553025e-02,
   2.95287347e+00},
 {-4.65388894e-01,-4.15400076e+00,-5.08070886e-01, 8.25173702e-05,
  -3.14443260e-02,-6.10135030e-04, 3.60936213e+00, 1.33671227e-03,
   1.61371240e-03},
 {-4.00320590e-02,-1.70875527e-02,-1.35360599e+00,-1.36244905e+00,
   1.07371129e-01, 2.22926426e+00,-1.69697911e-01, 1.81678319e+00,
  -2.53287172e+00},
 { 9.51594091e-04, 5.19151101e-03, 2.19644472e-01, 1.91011083e+00,
   1.11555994e+00,-1.47204053e+00,-5.45056071e-03, 5.89248943e+00,
   3.95060070e-02},
 { 2.95201349e+00,-1.63882315e+00,-9.49022397e-02, 2.38917978e-03,
  -1.65762529e-02, 4.32238095e-02, 6.17441893e+00, 4.13808739e-05,
   9.61871967e-02},
 { 2.16327786e+00, 1.45199251e+00,-1.05645685e+01, 2.86863698e-03,
  -1.34500014e-02,-5.47043979e-02, 6.48801517e+00, 1.85829345e-02,
  -2.99372617e-03},
 { 1.31775117e+00, 6.57346547e-01,-7.30961084e+00,-3.11193261e-02,
   1.43646856e-03, 2.30805382e-01,-3.66834974e+00,-1.73539370e-02,
   3.80995274e-02},
 { 9.47652236e-02, 3.91528495e-02, 2.33452249e+00,-3.61542404e-01,
   1.41547990e+00,-2.52344877e-01,-5.92363859e-03,-3.22664261e-01,
   4.19585466e+00},
 { 3.62721235e-02, 2.30672788e-02, 1.91706344e-01, 5.54270625e-01,
   1.12846857e-02, 1.71026990e-01, 3.52748930e-02, 4.90861559e+00,
   1.54267776e+00},
 { 1.79677662e-02,-9.51142833e-02, 1.48491235e-02, 2.20363900e-01,
   2.54845524e+00, 6.12750351e-01, 1.10592820e-01,-4.30506945e+00,
  -2.75742382e-01},
 { 2.55358405e-02,-1.38831481e-01,-2.75037503e+00, 1.57015586e+00,
  -2.74750662e+00, 1.82874799e+00,-3.21769193e-02, 3.19363093e+00,
   1.98601854e+00},
 {-5.33330580e-03, 1.86239481e-01, 4.32540941e+00,-1.30781353e+00,
   1.43459380e+00, 6.40394092e-02,-9.69395414e-02,-1.15433514e+00,
   2.97695684e+00},
 { 3.32011914e+00, 4.76798296e-01, 1.62719810e+00,-6.61791265e-02,
   2.88735274e-02, 7.88912326e-02,-5.67522097e+00,-7.53536448e-02,
   3.86997089e-02},
 {-1.75536238e-02,-4.73589264e-02,-3.11194086e+00,-6.38536096e-01,
   1.04098833e+00,-3.34848821e-01, 3.80559191e-02, 1.78764486e+00,
  -2.53058672e+00},
 { 3.05644202e+00,-3.48524809e-01, 1.43695259e+00,-3.57795716e-03,
   1.26219448e-03, 5.26426770e-02,-7.54438162e+00, 6.79609105e-02,
   4.41349894e-02},
 {-8.40376038e-03,-6.47670589e-03, 7.53857419e-02, 2.89054918e+00,
   6.46699890e-02, 1.32016766e+00,-3.93505348e-03,-7.20264959e+00,
  -2.42894539e-03},
 { 6.46376088e-02, 4.86641973e-02,-1.66412973e+00,-1.03402174e+00,
   4.01113391e-01,-1.10295451e+00,-1.75950482e-01,-3.45110226e+00,
  -1.84289312e+00},
 { 9.54790339e-02,-2.96551269e-02,-5.02663314e-01, 1.73714483e+00,
   1.10469580e+00,-1.46585211e-01,-1.18056297e-01, 8.91553044e-01,
   2.39488578e+00},
 {-3.77088711e-02,-6.46737358e-03,-2.04432130e+00,-1.85395613e-01,
  -7.83194780e-01,-5.92253506e-01, 5.60970865e-02,-4.43897915e+00,
   1.50596166e+00},
 {-2.82513294e-02,-1.04073994e-02,-3.16860986e+00, 1.69680154e+00,
   1.62546515e-01, 1.04574668e+00,-3.49606723e-02,-5.24022341e-01,
  -3.50660729e+00},
 { 3.78694129e+00, 7.85150170e-01,-2.23569250e+00, 1.13898925e-01,
   3.43403444e-02,-2.36771181e-02, 5.34036350e+00,-7.08229467e-02,
   7.27669075e-02},
 {-1.39401162e+00,-2.21886247e-01,-2.41449523e+00,-2.10764986e-02,
   1.07992757e-02, 3.33107039e-02, 3.48684502e+00,-1.90948825e-02,
  -1.67788062e-02},
 { 2.27514315e+00, 1.48009682e+00, 3.20609426e+00,-2.18485698e-01,
  -9.03644711e-02, 3.86374295e-02,-3.18090057e+00,-2.54169762e-01,
   8.30729380e-02},
 { 4.21881151e+00,-1.53537798e+00,-2.17526889e+00,-1.52271641e-02,
   1.71203054e-02,-9.52537060e-02, 6.82225943e+00,-9.35222022e-03,
  -5.53378910e-02},
 {-8.33389163e-02,-1.62618190e-01,-4.04856622e-01, 2.51723361e+00,
  -1.07600641e+00, 1.15287530e+00, 2.70290822e-02, 2.77166033e+00,
   3.00315905e+00},
 {-2.82320619e-01,-1.96743739e+00,-6.62293053e+00,-9.60685909e-02,
   8.91283993e-03, 6.66202083e-02,-1.72980344e+00,-2.81918466e-01,
   2.09188946e-02},
 { 1.79428089e+00, 1.39057910e+00, 1.26549017e+00,-6.38952362e-04,
   6.35589808e-02,-1.31860003e-01, 1.28594565e+00,-3.36336866e-02,
  -1.69192441e-02},
 {-1.10534579e-02, 8.64529517e-03, 1.67942271e-01, 3.58084011e+00,
  -1.66143644e+00,-1.24508727e+00,-4.65721339e-02, 5.84494257e+00,
  -1.55845195e-01},
 { 1.44648710e-02, 5.72298747e-03,-4.50659096e-01, 6.86154664e-01,
   2.08344743e-01, 6.06753969e+00, 9.61170439e-03, 1.05953419e+00,
  -1.04831960e-02},
 { 5.70991868e-03,-2.26246919e-02, 3.56132418e-01,-6.71873316e-02,
  -1.28554264e-02,-4.98794079e+00, 1.50815155e-02,-6.48407117e-02,
  -2.06550322e-02},
 { 2.14311076e-04, 3.23644020e-02,-1.84680019e-02,-2.54819942e+00,
  -2.87268782e+00,-5.91570497e-01,-5.05937636e-02, 9.67963874e-01,
  -1.55426905e-01},
 { 2.99089737e-02,-2.76327524e-02, 6.10888422e-01,-1.45018649e+00,
   5.55954278e-02,-7.17452645e-01,-2.21559107e-02, 1.69068575e+00,
  -9.14509237e-01},
 { 6.18596002e-03, 8.57296586e-03, 7.43864849e-02, 2.82667327e+00,
  -6.92264616e-01,-1.15381336e+00,-9.99496412e-03, 7.45867682e+00,
  -1.36137689e-02},
 { 5.17621875e-01,-3.02306509e+00,-5.07827461e-01,-3.18513922e-02,
   3.09607200e-02, 4.55348892e-03, 8.38465571e-01, 3.06973383e-02,
  -1.06565328e-02},
 {-3.35800499e-02, 3.83804552e-02,-5.34214616e-01,-1.72307551e+00,
   1.24041989e-01, 2.36161566e+00,-3.31861936e-02,-2.76269341e+00,
  -3.07048321e-01},
 { 5.15866019e-02, 1.03974871e-01, 9.30348778e+00, 9.29703489e-02,
   1.83543131e-01,-3.68462689e-02,-1.53824523e-01, 4.07778360e-02,
  -1.76104367e-01},
 { 1.52173815e-02,-2.50544418e-02, 1.52586594e-01, 7.07594395e-01,
   2.35590076e+00, 9.06114399e-01, 3.27675119e-02,-3.74516416e+00,
   3.52879137e-01},
 { 1.64086036e-02,-3.01687955e-03, 3.13721836e-01, 2.94776821e+00,
   3.04258823e-01, 2.38590494e-01, 5.28489100e-03, 1.32735908e+00,
   3.31605785e-03},
 {-1.06547639e-01,-7.45373145e-02,-5.64422488e-01,-2.90979886e+00,
  -1.90154207e+00,-2.08823872e+00,-2.81813070e-02, 3.26411843e-01,
  -1.98648822e+00},
 {-1.54839969e+00,-1.00567508e+00, 3.18054819e+00,-1.50682807e-01,
   2.68963352e-02,-9.84823555e-02,-3.72093463e+00, 5.10384515e-02,
  -9.39510986e-02},
 {-2.09971759e-02, 1.12183973e-01, 1.21646881e+00, 9.23514485e-01,
  -9.31122899e-01, 7.08856404e-01,-9.74522308e-02,-4.91176575e-01,
  -1.70657861e+00},
 {-9.01896600e-03, 5.03497804e-03,-1.32498190e-01, 3.78439903e+00,
  -1.39855826e+00, 1.64610922e-01,-7.11316913e-02, 7.36075449e+00,
  -1.36380419e-02},
 {-1.59102343e-02, 8.24452098e-03,-8.24406385e-01,-1.32971808e-01,
   3.04953344e-02, 3.59963298e-01,-1.87719874e-02,-1.74556625e+00,
   1.66921747e+00},
 { 8.37466270e-02,-1.45470574e-01,-2.53520042e-01,-9.86084819e-01,
   2.87304592e+00, 3.59952021e+00, 1.52298480e-01,-9.75824833e-01,
   3.48567581e+00},
 { 2.83832383e+00,-9.84391630e-01, 1.40786910e+00, 8.65119696e-03,
  -3.14462632e-02, 1.12591321e-02,-7.59162045e+00, 1.58780478e-02,
   3.29332314e-02},
 { 6.81223392e-01, 9.47404206e-01,-4.63371229e+00,-4.13157880e-01,
  -1.25855041e+00,-1.61483109e+00, 2.85757351e+00, 1.50002062e-01,
   1.60709274e+00},
 {-5.43709248e-02, 5.07258251e-02, 3.95206928e+00, 1.26141584e+00,
  -8.05987060e-01,-1.31356180e+00,-1.51557595e-01, 1.95031810e+00,
  -3.23654366e+00},
 {-5.87929226e-03,-3.06686200e-02, 6.72877878e-02, 2.40188384e+00,
   2.11169529e+00,-1.85808111e-02, 3.33349104e-04,-4.31327724e+00,
  -4.68940325e-02},
 { 5.91692608e-03, 4.26986478e-02,-6.26260042e-02, 1.35368216e+00,
   8.70877206e-01,-6.92264020e-01,-3.29970755e-02, 6.16741276e+00,
   7.11785778e-02},
 { 1.09170098e-02,-1.13781102e-01,-4.02291268e-01,-9.89970490e-02,
  -4.31800270e+00,-3.00533175e+00, 1.56431153e-01, 2.21191645e+00,
  -1.79219985e+00},
 { 1.18267220e-02,-4.14415542e-03,-2.57546978e+01,-3.67695987e-02,
  -1.10092880e-02,-7.45955855e-02, 1.43369222e-02, 2.95078494e-02,
  -3.88108343e-02},
 {-1.55423033e+00,-2.60616016e+00,-2.11598015e+00, 4.11750376e-02,
   9.87424478e-02, 8.77784379e-03, 3.70170093e+00,-7.52484649e-02,
  -1.11026084e-02},
 { 1.20432004e-02, 1.81472134e-02, 4.31736887e-01, 7.84943461e-01,
  -1.67082632e+00, 3.95665914e-01,-2.42738407e-02,-5.99081516e+00,
   2.08852440e-01},
 {-9.66088101e-03,-3.08744404e-02, 1.12299301e-01,-1.10197282e+00,
   2.64536905e+00, 1.25450563e+00, 1.03125591e-02, 3.01982498e+00,
  -6.28744438e-02},
 { 8.89430821e-01,-2.01352739e+00, 4.26124525e+00,-1.63510248e-01,
   1.93560272e-02,-1.41850542e-02,-5.70413542e+00, 9.39798728e-02,
  -7.96528980e-02},
 { 2.10309076e+00, 7.80821025e-01, 7.25570023e-02,-3.23692076e-02,
  -1.29180094e-02,-1.83550436e-02, 6.66482449e+00,-1.47469351e-02,
   1.07721254e-01},
 { 1.69470382e+00, 2.89125061e+00, 1.42191455e-01,-2.88142618e-02,
   1.40323490e-02, 7.99304061e-03, 2.59330660e-01,-1.08646834e-02,
  -7.57300202e-03},
 { 6.43972307e-02,-1.26644690e-02,-2.68672633e+00, 4.29812014e-01,
  -1.96818995e+00, 3.06212157e-01,-5.37958182e-02, 3.66462994e+00,
   3.18156528e+00},
 {-5.41333109e-03,-1.56851262e-02,-9.58655924e-02, 1.97560930e+00,
  -1.34163237e+00, 6.70533419e-01, 1.75738223e-02,-6.28437710e+00,
   6.89406693e-02},
 { 1.21418998e-01,-5.09647746e-03, 2.86317229e+00, 3.94815326e-01,
  -1.03922188e+00, 5.90679375e-03,-1.58591121e-01, 2.83465409e+00,
  -2.94247246e+00},
 {-5.61928144e-03,-1.63543653e-02,-8.08503106e-02,-1.82233965e+00,
   3.67845714e-01, 9.58392918e-01,-2.57088318e-02,-1.18841958e+00,
  -1.12203047e-01},
 { 1.41927755e+00,-3.21549010e+00,-1.15084028e+00,-7.27678416e-03,
  -3.29559445e-02,-1.33772656e-01, 4.53729534e+00, 5.90521172e-02,
   1.71879511e-02},
 { 1.86223879e-01,-7.09674209e-02,-2.40929604e+00,-1.70877767e+00,
  -3.76456738e-01,-1.20778859e+00,-1.15713693e-01, 1.84393346e+00,
   3.58416176e+00},
 { 4.76753078e-02,-3.15590091e-02, 5.22209406e-01, 9.81815398e-01,
  -3.77205253e+00, 7.74934590e-01, 5.12747727e-02,-4.40850049e-01,
   3.51936728e-01},
 { 1.48424292e+00,-9.39249516e-01,-2.69567108e+00, 5.81267238e-01,
  -2.13626766e+00,-3.81487817e-01, 2.60346913e+00,-1.00915901e-01,
   7.53195524e-01},
 { 2.67644191e+00,-7.46499479e-01,-9.12216306e-01,-2.72790901e-02,
   1.01951193e-02, 9.62648988e-02,-4.20697331e-02,-1.16777606e-04,
  -6.03809841e-02},
 {-3.89267296e-01, 2.75938678e+00, 1.20777333e+00,-1.53763480e-02,
   1.13050779e-02,-9.81693249e-03,-4.56594181e+00,-1.10299382e-02,
  -6.17516693e-04},
 { 1.35697460e+00,-1.38450444e+00, 2.25940838e-01, 4.93267588e-02,
   1.72658181e+00,-4.87430207e-02, 3.36318207e+00, 1.47246614e-01,
   1.91495728e+00},
 { 8.24688748e-03,-3.62328775e-02,-6.73302189e-02, 1.47725797e+00,
  -1.55279711e-01,-1.66965342e+00, 1.98947601e-02, 2.74517703e+00,
  -5.52277341e-02},
 { 1.10879168e-02,-7.13540148e-03, 5.27631712e+00,-1.33841872e-01,
  -1.40928805e+00,-1.00956213e+00, 7.19435737e-02,-5.48280299e-01,
   1.04692376e+00},
 { 3.52130961e+00,-2.56316996e+00,-3.19676638e+00, 2.47653294e-02,
   1.10031078e-02, 6.35042563e-02, 3.76689267e+00,-1.55592620e-01,
  -5.72056621e-02},
 {-1.71001911e+00, 1.32021260e+00, 2.54184914e+00, 1.28772901e-02,
  -1.83790717e-02, 1.43653257e-02,-4.58481598e+00,-2.62858924e-02,
  -1.49178905e-02},
 { 2.97366530e-02, 5.52804675e-03,-9.84292701e-02, 4.94917244e-01,
  -1.65386903e+00, 5.28104901e-01, 6.58822730e-02,-4.55074310e+00,
   1.06295228e-01},
 { 1.03263116e+00,-3.93424606e+00,-3.67991138e+00,-8.56567994e-02,
  -3.02305166e-02, 3.10960561e-02, 3.53399897e+00,-1.58178538e-01,
   6.08015731e-02},
 { 4.99879883e-04, 1.24203190e-02,-8.00679158e-03, 1.12873900e+00,
  -2.20374203e+00, 2.08466515e-01, 4.76738159e-03, 4.70512676e+00,
  -4.70570667e-04},
 { 9.24773335e-01,-3.38861299e+00,-4.96348047e+00, 2.94333417e-02,
  -1.28448382e-02,-5.83754927e-02, 7.74471998e+00,-7.29731750e-03,
   2.32722163e-02},
 { 2.34936662e-02,-7.74814794e-03,-1.24935627e+00, 3.91345471e-02,
   8.41647923e-01, 1.84919298e-01,-5.88080846e-03, 4.62439680e+00,
  -1.02705145e+00},
 {-9.93120018e-04, 2.81365681e-02, 3.69471133e-01,-6.59251213e-01,
   4.23863292e-01, 2.80065209e-01, 2.04864913e-03,-4.49155188e+00,
  -2.15584606e-01}};

const float b1[sz_hid_1] = {-4.132339  ,-1.7584021 ,-5.066131  ,-0.6587613 ,-2.9385147 ,-4.952702  ,
 -4.226465  ,-4.043159  ,-5.2444787 ,-2.1325076 , 0.6143092 ,-4.780896  ,
 -1.5469218 ,-3.839044  ,-5.1169367 ,-3.6480918 ,-4.005724  ,-5.4050303 ,
 -1.660532  ,-3.2115932 ,-2.6786327 ,-2.8237965 ,-5.8022485 ,-3.6232743 ,
 -1.6341472 ,-5.132217  ,-1.6720377 ,-3.4570718 ,-0.32645202,-3.3154333 ,
 -5.246379  ,-4.3026433 ,-3.8788428 ,-3.6624548 ,-0.00741375, 0.0964995 ,
 -3.1288176 ,-1.1712157 ,-2.7592754 ,-3.5431588 ,-1.9197574 ,-2.7159789 ,
 -0.14923018,-5.325254  ,-1.9240069 ,-5.9264646 ,-3.1728377 ,-2.5627785 ,
 -3.4431028 ,-2.9875054 ,-2.9986358 ,-1.2689111 ,-4.256023  ,-3.4721143 ,
 -3.2611983 ,-3.8578389 ,-2.5691345 ,-4.029461  ,-4.1014295 ,-4.292025  ,
 -4.5134816 ,-2.625997  ,-3.863891  ,-2.6950786 ,-4.531819  ,-3.0159423 ,
 -5.4096484 ,-2.6199188 ,-4.776965  ,-3.4549026 ,-4.67914   ,-1.4881803 ,
 -5.466636  ,-3.3358386 ,-3.2395077 ,-3.4385836 ,-1.1694874 ,-2.7680871 ,
  0.32804066,-0.5483158 ,-2.7229784 ,-1.3968683 ,-2.8835628 ,-0.9253684 ,
 -2.2188969 ,-0.8897356 ,-1.6138332 ,-2.058043  ,-3.384886  ,-0.48875546,
 -0.6346376 ,-4.077214  ,-1.2891661 ,-5.213802  ,-4.2397203 ,-6.08006   ,
 -3.1033041 ,-2.0962222 ,-3.3250895 ,-4.5835705 , 0.61015016,-2.1720014 ,
 -5.3924303 ,-4.093002  ,-3.467401  ,-4.7905593 ,-2.397885  ,-2.8449786 ,
 -4.1207385 ,-2.0485783 ,-0.5556726 ,-2.2274208 ,-5.036627  ,-3.1759098 ,
 -5.229292  , 0.16396585,-4.353265  ,-5.5178385 ,-0.15050198,-2.8561652 ,
 -4.80184   ,-4.046158  ,-2.194599  ,-4.1352825 ,-0.97553515,-0.00877811,
 -4.389491  ,-3.0012155 };

const float w2[sz_hid_2][sz_hid_1] = {{-6.12875986e+00, 1.76858693e-01,-1.67327300e-01,-3.99612159e-01,
  -6.11065291e-02,-3.11882615e+00, 1.35084701e+00, 5.11677980e-01,
  -2.26898289e+01,-5.60734653e+00,-5.15091538e-01, 2.64828825e+00,
   1.72698691e-01, 3.64429295e-01, 1.70469213e+00, 2.06117368e+00,
   5.80964208e-01, 3.39900684e+00,-7.43808889e+00, 3.80537963e+00,
  -6.77334666e-01, 7.93164432e-01,-6.41664696e+00,-1.16339684e-01,
  -9.01681483e-02, 7.28148371e-02,-4.94031399e-01, 5.24855733e-01,
  -2.86085820e+00, 4.11391115e+00, 1.11131084e+00, 2.06792736e+00,
   3.64109588e+00, 1.11752641e+00, 2.11905420e-01,-5.03775954e-01,
  -2.83712006e+00,-9.12695050e-01,-2.47801375e+00,-8.23600888e-01,
   7.46988893e-01,-1.48557663e-01, 8.30004036e-01, 4.91642523e+00,
  -1.41727042e+00, 3.38217688e+00,-2.20531195e-01,-4.36196089e+00,
  -2.45369029e+00, 1.88738251e+00,-2.34217143e+00,-2.01021746e-01,
  -1.64102638e+00,-1.03840637e+00,-5.55641115e-01, 4.05976623e-01,
  -1.09814346e-01, 5.71389675e+00, 1.21504509e+00, 2.52438688e+00,
  -1.30150005e-01,-3.70057130e+00, 6.86074686e+00, 5.92384815e-01,
   5.74077034e+00,-1.62733686e+00, 4.06303263e+00, 1.85349655e+00,
  -3.58339876e-01, 1.04752457e+00, 3.66582572e-01,-2.09746628e+01,
   2.63505983e+00,-2.36644417e-01,-1.26777768e+00,-5.63796639e-01,
  -1.61398697e+00,-2.06031585e+00, 1.29536346e-01, 5.40330768e-01,
  -1.62261927e+00,-1.05596972e+00,-2.01378670e-02, 4.90639448e-01,
  -3.25092554e-01, 2.90316015e-01, 6.30542219e-01, 1.40413165e-01,
   2.81629443e-01, 5.77003050e+00, 2.40571213e+00, 4.91776288e-01,
  -1.72529876e+00, 4.53429908e-01,-1.23290482e+01, 1.64120138e+00,
  -1.51957825e-01, 7.14712262e-01, 3.53951454e-02, 1.24156213e+00,
   1.91236854e+00,-7.86638439e-01, 6.81230366e-01, 3.57096195e-01,
  -1.31388235e+01, 5.93971461e-02, 4.96180326e-01, 5.02814531e-01,
   3.59876704e+00,-4.70807981e+00, 5.47139049e-01,-5.07995427e-01,
   4.69990931e-02,-1.32541454e+00,-2.80144215e+00,-2.08567357e+00,
  -8.35558832e-01, 2.43242741e+00,-5.48148416e-02,-1.31786942e+00,
   1.07526854e-01,-6.87565470e+00,-9.22549486e-01,-1.00117171e+00,
   6.61640048e-01, 2.98298550e+00, 1.87493873e+00, 3.46267891e+00},
 {-5.33021212e+00,-3.73791039e-01, 7.79884386e+00,-6.56950712e-01,
   1.36012506e+00,-5.62705326e+00, 4.80434084e+00,-5.50723219e+00,
   4.41080570e+00,-6.57525599e-01, 8.73634577e-01, 2.86452937e+00,
   4.70617265e-01,-4.79177332e+00,-4.39167786e+00,-3.95598888e+00,
  -8.63641977e-01, 3.67063856e+00,-8.65487099e-01,-4.53173304e+00,
   2.29282308e+00, 8.65017176e-01, 2.47301936e+00, 1.08406794e+00,
   3.99171948e+00,-2.10091281e+00,-1.33583367e-01,-6.45698357e+00,
  -1.56653976e+00,-4.30866480e+00, 4.89367342e+00,-1.71109080e+00,
   1.14132881e+00,-7.04892218e-01,-2.81161547e+00,-2.53755426e+00,
   4.47296286e+00, 5.15601456e-01, 2.15739942e+00, 2.28593445e+00,
  -3.24509025e+00,-9.51208532e-01, 1.95248783e+00,-1.39155502e+01,
   2.10107112e+00, 5.96178818e+00,-9.32269216e-01, 1.51961529e+00,
   1.00685287e+00, 1.07187092e+00,-6.74766421e-01, 4.36261326e-01,
  -9.33505535e-01, 1.69533455e+00, 4.48638391e+00, 5.29819489e-01,
  -1.28119254e+00,-5.03867674e+00,-2.77960730e+00,-5.14110279e+00,
   1.32441238e-01, 1.76974463e+00,-3.51941752e+00,-1.08798361e+01,
  -3.09334898e+00, 1.53019130e+00,-4.25610495e+00, 4.05160999e+00,
   2.15188336e+00, 2.46265793e+00, 7.05095482e+00, 9.66757178e-01,
   5.15434742e+00,-3.02463484e+00,-1.00212324e+00,-1.50863361e+00,
   1.04644036e+00, 2.17740631e+00,-3.87754261e-01,-1.38928518e-01,
  -1.22880781e+00,-4.56242085e+00,-1.58509803e+00,-2.76794839e+00,
  -1.54088962e+00, 5.82161069e-01,-1.93506670e+00,-2.75335789e-01,
   3.13000345e+00,-4.10954666e+00, 2.85594910e-01,-2.38840556e+00,
  -4.10876608e+00, 5.26869953e-01, 5.45724440e+00, 4.21424198e+00,
  -9.96801794e-01,-4.06922191e-01,-2.18504691e+00,-1.29987061e+00,
   8.93535912e-01, 2.51027584e+00,-3.74378991e+00, 1.78784227e+00,
   3.02351522e+00, 2.06541657e+00,-1.45230293e+00, 5.16788149e+00,
  -1.85783267e+00,-1.70981991e+00, 3.30344439e+00, 3.05666518e+00,
  -1.55028737e+00, 8.38267207e-01, 3.93556356e-01,-2.70067906e+00,
  -1.46268880e+00, 2.34415650e+00,-1.91322148e-01, 4.32784706e-01,
   6.84944630e+00,-1.13595867e+00,-8.96874070e-03, 1.23442650e+00,
  -1.81302279e-01,-1.15497935e+00,-9.13148761e-01,-5.59758997e+00},
 {-5.61943576e-02, 1.32415059e-03,-1.52710010e-03,-1.33063840e-02,
   7.11252838e-02,-7.38827735e-02,-2.07106881e-02, 3.40700001e-02,
  -2.90677957e-02, 9.03116912e-03,-3.85921970e-02,-8.00313875e-02,
  -6.04095012e-02, 1.97479650e-02,-5.98865673e-02, 1.12676322e-02,
   4.66532707e-02,-2.39984281e-02,-1.48792267e-02,-3.23441066e-02,
  -6.10232279e-02,-1.07109986e-01,-7.57733434e-02,-9.54456553e-02,
   9.57441609e-03, 2.14300267e-02,-3.24122794e-02,-1.10058993e-01,
  -1.81180034e-02,-7.51170814e-02,-6.34082407e-02,-8.11932981e-02,
  -9.80429500e-02,-4.40565124e-03,-9.25178081e-02,-9.43912640e-02,
   2.06600092e-02,-8.54583234e-02,-8.75813141e-02,-3.79902497e-02,
  -5.75581426e-03,-5.19831330e-02, 5.45431953e-03,-1.62905524e-03,
  -5.51864468e-02, 5.63345524e-03,-1.09650105e-01,-2.00446080e-02,
   1.40529247e-02,-2.29929723e-02,-1.17580123e-01, 3.07232086e-02,
   1.39471106e-02,-9.47782677e-03,-1.88169628e-02, 2.10799389e-02,
  -8.40970427e-02,-6.60751341e-03, 7.96676725e-02,-7.04040080e-02,
  -8.33264738e-02,-5.57586662e-02, 1.30490130e-02,-3.67770530e-02,
  -5.63683212e-02,-1.60470186e-03,-3.08191609e-02,-3.33281383e-02,
  -3.94171514e-02,-9.53842625e-02,-2.64322106e-02,-8.50205868e-03,
  -9.48161408e-02,-1.16791744e-02,-2.07482670e-02,-7.38029629e-02,
  -8.51674452e-02, 9.35891061e-04,-1.24345213e-01,-2.25798525e-02,
  -3.68154645e-02,-1.94679722e-02,-1.29246369e-01,-4.05652449e-02,
  -3.36846374e-02,-8.73592794e-02,-9.11571756e-02, 6.50252998e-02,
  -7.37695536e-03, 2.68233870e-03, 4.67884587e-03,-1.61357000e-02,
   2.68014614e-03, 5.85415140e-02,-3.08769681e-02,-2.12283041e-02,
   6.53787982e-03,-4.48270738e-02,-1.01761729e-01,-8.60514864e-02,
  -2.53985375e-02, 6.16419837e-02, 5.60531653e-02, 3.08752269e-03,
   2.27544550e-02,-1.24214344e-01,-8.24243128e-02,-9.37086493e-02,
   2.03482248e-02,-1.23447040e-02,-5.43096587e-02, 4.30327561e-03,
  -7.42441192e-02,-7.08569735e-02, 2.22596228e-02,-3.99950631e-02,
  -7.32176602e-02,-6.89145252e-02,-5.51433079e-02, 1.06865484e-02,
  -3.16139571e-02,-5.47909997e-02, 2.56086923e-02, 2.28932942e-03,
  -1.34220257e-01,-7.27078915e-02, 4.71043075e-03, 3.13708521e-02},
 { 5.59638701e-02, 1.15401104e-01, 1.91097021e-01, 2.75047898e+00,
  -1.04941120e-02, 4.21335101e-01, 1.85819909e-01,-4.61707078e-02,
  -2.68298592e-02,-5.98860392e-03,-8.04665208e-01, 1.47992462e-01,
   2.39435101e+00,-6.37821201e-03, 2.43862569e-01, 7.63802901e-02,
   1.71152707e-02, 2.43051961e-01, 8.60866997e-03, 1.58765484e-02,
  -8.80646892e-03, 2.85619348e-01,-4.45013881e-01,-1.96886033e-01,
  -2.31334865e-02,-7.89420027e-03,-1.73722152e-02, 3.67845148e-02,
   4.61831689e-02,-9.03509781e-02,-6.93386674e-01,-2.86351088e-02,
  -2.31810376e-01,-1.84646174e-01, 3.35898213e-02, 1.10813513e-01,
  -2.23044619e-01, 1.63286328e-01, 7.23188221e-01,-4.70409918e+00,
  -3.29552703e-02,-8.58975470e-01,-2.63046157e-02,-1.44496632e+00,
  -7.27492897e-03, 6.25031739e-02, 8.41045752e-02, 8.29945281e-02,
  -4.45017181e-02, 2.07493007e-02, 1.95358563e-02,-5.71453664e-03,
  -7.99837255e+00,-3.29317999e+00, 2.80644689e-02, 4.67118062e-02,
   7.65720084e-02,-9.48708057e-01,-2.62839437e+00,-3.87534785e+00,
  -5.17115831e+00,-1.81509405e-01, 5.36660962e-02, 3.62645477e-01,
   1.17451541e-01,-1.06468225e+00,-4.36857986e+00, 3.74138579e-02,
   1.21954925e-01,-1.30187154e-01, 2.14348301e-01, 2.53674723e-02,
   7.08867908e-01, 3.22874449e-02,-1.22877611e-02,-7.48418132e-03,
   1.85576221e-03,-2.82919437e-01, 9.34030786e-02,-1.03790331e+00,
  -1.62953123e-01,-5.68363862e-03,-1.01837647e+00,-3.14310030e-03,
  -4.70045376e+00, 5.61311804e-02,-2.08915310e+01, 1.21296041e-01,
  -2.38639757e-01,-6.44134532e-04,-4.62067255e-04,-7.34819794e+00,
  -1.25099802e-02, 1.70053363e+00,-5.21195829e-02,-1.25061584e+00,
  -5.45066856e-02, 9.40562487e-02,-5.88831043e+00, 6.50559273e-03,
  -6.88527216e-05,-4.95049404e-03, 5.99005175e+00,-8.62500146e-02,
  -1.57034807e-02, 2.10166752e-01, 1.08811446e-02,-4.34907451e-02,
   1.38226217e-02, 4.40976992e-02,-8.10419470e-02, 1.01430360e-02,
   1.58647025e+00, 3.56346816e-02,-4.44140315e-01,-3.02575412e-04,
   1.16183264e-02,-6.31576598e-01, 2.71016598e-01,-1.57623887e-01,
   1.92327186e-01,-5.59925893e-03, 1.14926957e-01, 1.70691404e-02,
  -2.68196017e-01,-1.04384059e-02,-6.82964230e+00,-2.34329605e+01},
 { 2.30552629e-02,-1.09354395e-03,-1.08389342e-02,-3.53418775e-02,
   3.24895829e-02, 3.14877555e-02,-1.49725890e-02,-4.60415147e-02,
  -1.58928032e-03,-5.07137887e-02,-7.83271492e-02, 6.03713095e-03,
  -7.65508041e-02, 3.01361810e-02,-7.20560923e-02,-4.54638340e-02,
  -5.52991666e-02, 5.40145002e-02,-6.55129552e-02, 2.82540955e-02,
  -7.69594498e-03, 4.86747958e-02, 5.87077066e-03, 8.04517651e-04,
   5.92095256e-02,-6.75306767e-02,-5.13382033e-02,-8.58250484e-02,
  -7.67652392e-02,-8.16992018e-03,-3.08220671e-03,-3.83373350e-02,
  -1.59815878e-01,-6.78522438e-02, 1.93617269e-02, 2.93236598e-02,
  -1.24196798e-01,-4.57850769e-02,-1.02677241e-01,-1.28616288e-01,
  -1.32514223e-01,-2.72794906e-02,-2.14480758e-02,-1.16104849e-01,
  -1.78460870e-02, 6.58685043e-02,-4.06801775e-02,-3.69147137e-02,
  -5.46903200e-02,-4.81637120e-02,-5.51085025e-02,-4.58875485e-02,
  -7.85192326e-02,-8.45300928e-02,-2.52013188e-02,-5.58054969e-02,
  -1.64273870e-03,-4.60617952e-02,-2.17723753e-02,-8.52824301e-02,
  -2.18485668e-03,-5.53610772e-02,-2.48731729e-02, 6.13752287e-04,
   2.46804673e-02,-1.77903438e-03,-4.60889824e-02, 2.71979496e-02,
  -1.33489773e-01, 2.99262954e-03, 3.94043550e-02, 3.52697149e-02,
  -5.59351705e-02,-9.17024165e-02,-1.13380784e-02,-1.77218691e-02,
  -3.46956365e-02,-4.39263918e-02,-2.35269219e-02,-7.52484128e-02,
  -1.17879152e-01, 1.37785971e-02,-3.25996242e-02,-5.51894456e-02,
  -1.01984795e-02,-7.97863454e-02,-4.12926339e-02,-5.71780950e-02,
   2.82149017e-02,-1.59449622e-01,-1.16157725e-01,-1.02385595e-01,
  -5.42858317e-02,-9.25870016e-02,-1.46853002e-02,-7.71831125e-02,
  -7.29992762e-02,-1.21504791e-01,-2.76124966e-03, 3.31615619e-02,
  -2.64304373e-02,-1.58291571e-02,-9.70665962e-02,-4.62811925e-02,
  -1.13648020e-01,-9.46289226e-02,-1.45726614e-02,-9.06610023e-03,
  -4.23032716e-02,-1.96680129e-02,-8.41786861e-02,-1.44148385e-02,
  -6.97373077e-02,-6.06633537e-02,-5.96312471e-02,-5.75766228e-02,
  -1.16832495e-01, 9.09014884e-03,-5.68673797e-02,-9.22026783e-02,
   5.04325517e-02,-6.04002029e-02,-2.20357087e-02, 4.21947055e-02,
  -1.44262724e-02,-2.38311850e-02, 1.91191658e-02, 5.07626384e-02},
 { 5.58992960e-02,-3.12345958e+00, 1.82372475e+00,-4.55864477e+00,
  -1.33910441e+00,-7.66762644e-02,-1.33114088e+00, 6.67345077e-02,
  -1.52941287e-01,-4.16894704e-02,-2.53745055e+00,-1.07981646e+00,
   2.54477119e+00, 1.27588257e-01, 6.37960672e-01, 3.25145268e+00,
  -1.54266283e-01,-3.88570762e+00,-8.47555473e-02, 5.14906235e-02,
  -2.86270052e-01, 4.87789541e-01,-1.73233342e+00, 1.39926386e+00,
  -1.07132412e-01,-7.00714159e+00,-4.78541367e-02, 2.42477328e-01,
   1.02422960e-01, 2.03413010e+00, 4.05200338e+00, 1.40121624e-01,
   1.66562006e-01,-3.27019072e+00,-1.74403936e-02, 1.49755490e+00,
   1.92788523e-02,-2.02411711e-01, 1.49072361e+00,-4.09017969e-03,
   9.45558399e-03,-1.74485687e-02, 1.41275913e-01, 4.01508808e+00,
  -1.03410490e-01, 7.98292756e-01, 7.46783614e-02,-4.51640673e-02,
   5.89718401e-01,-3.25283557e-02, 1.93401873e+00, 3.21119316e-02,
  -2.06549406e+00, 3.88679481e+00, 5.50793648e-01, 1.06428310e-01,
   2.24093467e-01, 5.95299043e-02, 3.22646809e+00, 1.00438297e+00,
   5.00551844e+00, 1.04830330e-02, 5.61812580e-01,-1.22113705e+00,
  -1.05551690e-01,-5.00722945e-01, 2.19181497e-02, 2.58942294e+00,
  -3.00826635e-02, 1.67014837e-01,-1.77907753e+00,-1.36485204e-01,
   2.71089487e-02, 1.98222607e-01,-7.98155248e-01, 5.91273084e-02,
   5.15581630e-02,-1.06481540e+00, 1.43735337e+00, 3.80191714e-01,
  -1.16249904e-01, 8.35706329e+00, 5.60692835e+00, 1.16012625e-01,
   1.67213500e-01, 2.76806690e-02, 1.00455545e-02,-2.40299678e+00,
   8.29442516e-02, 1.96864471e-01, 1.56010985e-01,-5.38486052e+00,
  -8.21968615e-02,-2.49099676e-02,-3.46859723e-01, 3.45642972e+00,
  -6.73489857e+00,-3.60405254e+00, 4.24396181e+00,-4.57466412e+00,
  -6.50560632e-02,-9.80353281e-02,-4.01972008e+00, 5.74561894e-01,
  -1.47612482e-01, 7.93375373e-01,-7.25732595e-02, 5.17753288e-02,
   2.50191855e+00,-7.20653713e-01, 5.22677600e-01,-1.41562866e-02,
   2.20641994e+00,-4.02160311e+00, 8.83802474e-01, 6.29699081e-02,
   1.86203480e-01, 8.65163743e-01,-6.59255087e-01,-2.28025749e-01,
  -7.69994557e-01, 1.12857725e-02, 7.99116850e-01,-5.68760633e-01,
  -3.29237342e+00, 8.71460512e-02, 4.70303726e+00,-3.50112796e-01},
 { 4.81393397e-01,-2.76379848e+00,-1.88647497e+00,-7.03990984e+00,
  -5.29389381e+00,-1.14226484e+01,-1.78842139e+00, 1.43073633e-01,
  -2.97414947e+00,-1.71547055e+00, 5.73981762e-01,-2.97111344e+00,
  -5.51444650e-01, 1.73068213e+00, 1.51172662e+00, 1.18432796e+00,
   4.85790634e+00,-2.94310474e+00,-2.55569005e+00, 1.02870905e+00,
   1.22726822e+00,-3.32724482e-01, 9.91291165e-01,-1.04112625e+00,
   2.23438501e+00, 5.99533081e-01,-8.81918371e-01,-3.50164366e+00,
   1.06652290e-01,-2.32627892e+00,-1.16853075e+01, 2.10809779e+00,
   6.87065840e-01, 2.39292622e-01,-2.37936527e-02, 4.65256006e-01,
  -2.87548709e+00,-3.09768105e+00, 9.29446697e-01, 1.00126350e+00,
   2.24998784e+00,-1.86977446e+00, 6.18329525e-01,-3.59306359e+00,
  -8.69437277e-01,-9.65147078e-01,-4.30311966e+00,-1.52473128e+00,
   7.61701226e-01, 6.53334975e-01,-1.77122462e+00, 7.33262971e-02,
  -1.97360766e+00, 2.76252556e+00,-1.18384647e+00, 5.00506938e-01,
   3.83506328e-01,-4.69339514e+00,-8.38504016e-01, 4.13484001e+00,
   4.54725325e-01,-6.33313730e-02, 2.11847115e+00, 7.61897862e-01,
   6.11395979e+00,-3.00214815e+00, 2.03479338e+00,-3.73890281e+00,
  -4.38712311e+00,-8.14044535e-01,-2.24645662e+00,-2.43723464e+00,
  -7.30593741e-01, 6.81110024e-01,-3.04469442e+00,-7.31285512e-01,
   3.14417422e-01, 1.60681319e+00, 2.12222040e-01, 3.07963461e-01,
   6.90382123e-01,-2.39756927e+01, 7.73565292e-01, 2.08851409e+00,
  -1.94342029e+00,-4.36652988e-01, 2.50345945e+00, 4.84743804e-01,
  -7.40736198e+00, 2.82211065e+00,-1.05856633e+00, 3.02750373e+00,
   3.40216875e+00, 2.84790325e+00,-5.95548058e+00,-1.35621452e+00,
   1.52849722e+00, 2.81770682e+00,-1.48715651e+00,-4.35654068e+00,
   3.10361892e-01,-1.73463953e+00, 1.96095543e+01,-3.11173267e+01,
  -1.83754623e+00,-7.06054986e-01,-1.82813942e+00, 8.79430532e-01,
   2.19924378e+00, 7.47479379e-01, 5.44706202e+00,-2.16868091e+00,
   5.06759882e+00, 3.25032783e+00, 9.46339786e-01, 4.88170348e-02,
   1.76837933e+00,-6.99179232e-01,-1.04659200e+00, 6.98250532e-01,
  -1.03090370e+00,-1.68536735e+00,-7.37215471e+00,-1.44191772e-01,
  -1.51091528e+00, 7.09507525e-01,-1.00965939e+01, 2.69080973e+00},
 { 2.62957931e+00, 2.00985059e-01, 7.83938980e+00, 1.31995511e+00,
  -7.31640720e+00,-3.32305717e+00,-6.93579960e+00,-3.36380452e-01,
  -3.66594481e+00,-1.98615384e+00, 4.28031474e-01, 2.14635611e+00,
   1.29566550e-01, 4.71479845e+00, 2.73847723e+00,-6.76371083e-02,
   2.55709100e+00, 2.20548511e+00,-2.32281184e+00, 1.52216959e+00,
   3.49391866e+00,-4.33324814e-01,-2.95335233e-01,-5.68769813e-01,
   6.17461777e+00,-3.11996269e+00, 5.68620712e-02, 9.03566957e-01,
   7.46224761e-01, 2.69973564e+00, 2.68336511e+00, 1.98929095e+00,
   2.46154690e+00,-1.00536251e+00,-3.45514625e-01,-7.51179838e+00,
  -5.96751118e+00, 7.30326712e-01,-1.61092734e+00, 4.27580070e+00,
   1.40089110e-01,-2.65885425e+00, 6.00134373e-01,-3.82848859e+00,
  -1.90057456e+00, 9.53858852e-01, 3.17855096e+00,-1.59439757e-01,
  -1.19980824e+00, 5.34078062e-01,-1.62835026e+00, 2.26905882e-01,
   3.03469092e-01, 1.02428162e+00,-1.18275559e+00, 1.06196463e+00,
   1.54420674e+00, 7.93590724e-01,-1.17735338e+00,-1.15243053e+01,
  -4.36204821e-01,-1.67712852e-01, 1.91001689e+00,-1.44171596e+00,
   4.04329681e+00, 1.29646659e+00,-1.33710976e+01,-4.73642588e+00,
  -1.31780887e+00,-5.30286312e-01,-6.37983084e+00,-2.21848297e+00,
   1.94684005e+00, 2.40340686e+00,-3.57277083e+00, 8.71494949e-01,
  -9.13759649e-01, 5.77383637e-01,-4.50052351e-01, 3.44440877e-01,
   1.97507739e+00,-1.81459486e+00, 8.63112688e-01, 2.56188273e+00,
  -1.85482752e+00, 4.75236177e-01,-1.05360770e+00,-3.58912849e+00,
  -1.61657846e+00, 3.78214979e+00, 2.16424966e+00, 3.63562870e+00,
   9.66631353e-01, 2.29304838e+00,-5.63118267e+00, 8.91990900e-01,
  -2.61150837e+00, 1.76959813e+00,-4.07813931e+00,-7.45591521e-01,
  -2.68567979e-01,-1.61301517e+00,-5.13952541e+00,-2.84085774e+00,
  -1.88787925e+00,-1.19784141e+00,-1.55800688e+00,-1.47654116e+00,
   3.28827357e+00,-2.03880692e+00, 5.94523251e-01,-2.19916105e+00,
  -2.52376008e+00, 3.10453415e-01,-1.93590152e+00, 1.20462716e+00,
   3.59256595e-01, 2.13746214e+00, 5.17393291e-01, 2.86763459e-01,
  -2.68426156e+00,-1.29631913e+00,-1.04878354e+00,-2.47979331e+00,
  -1.21792531e+00, 9.86254215e-01,-3.13575435e+00, 2.49299335e+00},
 {-1.26382515e-01, 1.32402432e+00,-5.92388248e+00, 3.05270165e-01,
   2.85698533e-01, 4.74766445e+00,-3.55124021e+00, 7.11496532e-01,
  -1.82649231e+00,-1.28701913e+00, 1.02110434e+00,-2.46673703e+00,
  -1.79105222e-01, 3.20889926e+00,-1.37621462e+00,-1.78811610e+00,
  -1.54108915e+01, 9.27188683e+00,-1.18717933e+00, 1.04197212e-01,
  -5.22690582e+00, 8.99574220e-01,-1.44707370e+00, 1.18024266e+00,
  -2.65985441e+00,-3.52816057e+00,-1.46687090e+00,-1.23283863e+00,
   5.04521728e-01, 1.71348631e+00, 3.64508915e+00, 1.12216008e+00,
   1.57334852e+00, 1.05325723e+00,-3.36578250e-01,-5.94334459e+00,
   7.43840599e+00, 2.51249695e+00,-1.11506629e+00,-1.85592055e+00,
   1.07668436e+00, 3.91764975e+00,-2.93361634e-01,-2.76420665e+00,
  -7.57687926e-01,-1.92869484e+00, 2.53307891e+00,-6.81943655e-01,
  -6.22046757e+00, 1.76999658e-01, 9.74459112e-01,-1.63866073e-01,
   7.04825521e-01,-2.14509034e+00,-2.95976281e+00, 5.23018181e-01,
   8.75415921e-01,-1.72675812e+00,-5.13350010e+00, 1.47498357e+00,
   5.01568699e+00,-2.05416298e+00, 1.26241064e+00,-2.20755386e+00,
   3.59127522e+00, 5.66062868e-01, 2.14334464e+00, 5.58629274e-01,
  -3.99665356e+00,-8.33931714e-02,-4.68809843e+00,-9.70615327e-01,
   2.93475056e+00, 2.28766990e+00,-1.38476610e+00, 2.67086029e-01,
   3.59774143e-01,-1.62854397e+00, 1.52755827e-01, 5.86365461e-01,
   1.21483397e+00, 3.44035363e+00,-3.44687366e+00, 1.83578527e+00,
   5.97879887e-01, 8.85481119e-01,-3.74717522e+00,-6.17707193e-01,
  -2.12968022e-01, 2.39755559e+00,-7.58757687e+00, 1.06148911e+01,
   2.26478353e-01,-7.72286415e+00,-3.89826322e+00,-4.39109516e+00,
  -1.50855243e+00, 3.53142619e-01,-4.99405336e+00, 5.64313793e+00,
  -1.96547985e-01,-1.10513031e+00, 6.80830181e-01,-3.45433593e+00,
  -1.61713231e+00,-2.62538767e+00,-1.25309587e+00,-2.98541278e-01,
   3.78563762e+00, 3.25206846e-01,-5.96324444e-01,-1.15446746e+00,
  -8.91588688e+00, 3.00316763e+00,-1.35788500e+00, 7.07515955e-01,
   2.24346757e+00,-8.30167198e+00,-4.61570978e+00, 1.95182657e+00,
  -1.64583826e+00,-4.56224561e-01,-6.46737909e+00,-2.43794537e+00,
  -1.35595250e+00, 7.80921221e-01,-9.35659826e-01,-6.24999619e+00},
 {-5.55458784e-01, 4.33814764e+00,-9.03579617e+00,-6.28902495e-01,
  -2.46259069e+00,-8.41451740e+00, 2.99326539e+00,-5.54571450e-01,
  -4.19602245e-01, 2.65352392e+00,-1.25119638e+00, 9.28120434e-01,
  -5.68992317e-01,-4.93273675e-01,-2.46847892e+00,-3.05375099e+00,
   1.53118312e+00,-3.79978156e+00, 1.99298120e+00,-4.82059300e-01,
   1.12991977e+00,-1.37612879e+00, 2.45542860e+00,-2.32891464e+00,
   3.28498542e-01,-6.00888073e-01,-2.04309031e-01, 4.86712599e+00,
  -5.25688946e-01, 5.38893080e+00,-5.72311163e+00,-2.13595223e+00,
   2.54083395e-01,-1.29358470e+00, 7.05699980e-01,-1.12550535e+01,
  -5.54340172e+00, 3.14348173e+00, 8.53843316e-02, 3.40812898e+00,
   1.63148910e-01,-1.27589059e+00,-5.11101484e-02,-7.56965637e+00,
   9.29475665e-01,-1.52870452e+00,-1.11844711e-01,-1.58442825e-01,
  -8.16536903e-01,-2.44467229e-01,-1.43919438e-01,-3.79897445e-01,
   5.61801004e+00,-1.66426907e+01, 1.31753218e+00,-2.91700840e-01,
  -4.21698749e-01,-2.30450010e+00, 5.56681538e+00,-1.54528117e+00,
  -2.52217710e-01, 1.18750668e+00,-2.30147767e+00,-1.87587082e+00,
   1.83121383e+00,-9.58519101e-01,-8.21251106e+00,-1.87208796e+00,
   6.55963480e-01, 1.94808686e+00, 1.37837160e+00, 3.60543966e+00,
  -2.07814193e+00,-2.60404259e-01, 1.00923908e+00, 4.26025502e-02,
   4.44389045e-01,-5.47577715e+00, 1.29515564e+00, 2.14693189e+00,
  -8.64204526e-01,-1.14306115e-01,-9.00168133e+00, 4.55366671e-01,
  -5.43567705e+00,-1.09766412e+00,-1.31827176e+00,-1.89982092e+00,
   1.00545919e+00,-2.01989964e-01, 7.29654133e-01,-8.07361722e-01,
   2.42338324e+00, 3.96778971e-01,-9.37042773e-01,-5.13896513e+00,
  -3.65756130e+00,-1.29616603e-01, 2.24054813e+00,-2.47525907e+00,
   3.20241153e-01, 1.29048908e+00, 4.71944523e+00,-2.11501312e+00,
   9.69183922e-01, 3.38194072e-01, 6.37108445e-01,-3.38214803e+00,
   1.26213634e+00,-3.90489793e+00,-1.35413289e-01, 6.36978745e-01,
  -2.77356958e+00,-6.54877722e-01, 1.42979705e+00, 1.70138073e+00,
  -8.04334432e-02,-1.29706597e+00,-6.08945942e+00, 5.71152568e-01,
   1.35765886e-02,-2.76778519e-01,-9.62610364e-01,-8.71088207e-01,
  -3.38172174e+00,-1.15778553e+00,-9.42566693e-01,-4.90667582e+00},
 {-5.10385847e+00, 3.32761467e-01,-3.83494234e+00,-7.99801290e-01,
   3.81210232e+00, 2.12186408e+00,-2.70556974e+00,-5.99841785e+00,
   6.18963814e+00, 4.75722027e+00,-1.03500199e+00,-1.15637732e+01,
  -9.34763491e-01,-4.45223808e+00,-1.22421780e+01,-5.03003502e+00,
   3.50036812e+00,-3.51139760e+00, 3.42585146e-01,-2.42378068e+00,
  -2.32724833e+00,-2.40530133e+00, 2.96736121e+00, 1.18839240e+00,
  -8.20492387e-01,-4.22432363e-01, 9.27391589e-01,-1.32666242e+00,
  -2.78743005e+00,-4.92042637e+00,-1.73634148e+00,-3.38782358e+00,
  -4.43532515e+00,-4.08756399e+00,-1.71142602e+00,-2.73202866e-01,
  -8.41288948e+00,-2.76485924e-02,-2.13019818e-01,-6.83639109e-01,
  -3.38682914e+00, 6.65953802e-03, 6.52627134e+00, 7.14180660e+00,
   2.84585524e+00,-4.35284042e+00,-3.42399096e+00, 2.55697703e+00,
   3.25360894e+00,-1.71965623e+00, 9.74698365e-01,-1.83628488e+00,
  -3.01054287e+00, 1.79574704e+00, 2.37058568e+00,-3.30141217e-01,
  -1.63702977e+00,-2.83227324e+00, 6.46476316e+00, 1.09758711e+00,
  -1.18102562e+00, 1.32470024e+00, 1.26799846e+00, 2.90706962e-01,
  -1.19125252e+01,-6.23757355e-02,-6.65381718e+00,-1.60646343e+00,
  -4.10854721e+00,-1.11945832e+00, 5.70117092e+00, 5.52657032e+00,
  -6.28979874e+00,-3.63495278e+00,-4.15444374e+00,-2.85077763e+00,
   3.15040421e+00, 6.54952079e-02, 2.57779211e-01, 4.00854439e-01,
   7.98958898e-01, 2.85770893e+00,-8.54839236e-02,-1.42497551e+00,
   2.57506824e+00,-1.92557335e+00, 2.47260109e-01, 4.29889113e-01,
   1.51200926e+00,-1.87790704e+00, 9.08701360e-01, 2.09086680e+00,
   3.66502738e+00,-3.27877626e-02, 9.53170681e+00, 1.59198058e+00,
   5.71166933e-01, 6.03943765e-01,-3.47964019e-02, 1.32981622e+00,
   3.97208989e-01, 5.88930368e+00, 2.57281590e+00, 1.37712944e+00,
   2.49061775e+00, 8.23606110e+00, 1.37767124e+00,-3.18738127e+00,
   1.41824377e+00, 2.31591368e+00, 1.53531492e+00, 3.85315442e+00,
   9.43675756e-01, 1.13696210e-01, 1.70417845e+00, 3.97062063e-01,
  -2.35040736e+00, 3.96307819e-02,-1.25483286e+00,-1.02874553e+00,
   7.31755733e+00,-3.67495030e-01,-1.78843129e+00, 3.52639937e+00,
   1.70076787e-01,-1.83247483e+00,-1.20799417e+01,-4.13512659e+00},
 {-1.29265900e+01,-1.15072250e+00, 8.55458006e-02,-1.05586819e-01,
   1.67352274e-01,-1.19014871e+00, 2.24490428e+00,-1.52342520e+01,
   4.46342564e+00,-8.15758133e+00,-8.90682340e-01, 7.33726788e+00,
  -1.58498779e-01,-1.31647501e+01, 5.78179312e+00, 1.06276810e+00,
   2.44276357e+00, 1.00877273e+00,-1.53776312e+01, 2.53930211e+00,
  -1.27258635e+00,-2.44168520e+00,-1.29594088e+00,-1.85310566e+00,
  -2.06019115e+00,-9.62793648e-01, 1.82528186e+00,-2.34645557e+00,
  -3.45726252e-01, 5.85649312e-01, 3.17081547e+00,-9.31112385e+00,
   8.82306159e-01,-3.60973358e+00,-1.23898256e+00, 5.75353265e-01,
  -2.73756218e+00,-7.79097855e-01,-1.46550751e+00,-2.84926701e+00,
  -7.95070124e+00, 1.67968130e+00, 4.01648045e+00, 4.60336637e+00,
   3.83130282e-01, 5.82040882e+00,-1.54617012e+00,-4.70140010e-01,
  -2.10756207e+00, 3.13649476e-01,-1.37738466e+00, 1.01884520e+00,
  -7.19125748e+00,-1.47341740e+00, 1.05676448e+00,-6.45517015e+00,
  -1.16974199e+00, 1.82932365e+00, 3.52612662e+00, 2.50408196e+00,
  -3.82594323e+00,-2.29223624e-01, 3.48704815e-01, 6.15451373e-02,
   8.40995908e-01,-1.32351410e+00, 5.09575653e+00, 2.34467536e-01,
  -3.23044395e+00, 3.00739145e+00,-8.11662102e+00,-1.44093628e+01,
  -9.61498260e-01,-1.44727507e+01, 3.48413400e-02, 6.22001946e-01,
  -8.13990712e-01,-1.00213516e+00,-3.92538570e-02, 6.23159826e-01,
  -2.09197745e-01,-5.48631608e-01, 1.94509530e+00,-5.22462654e+00,
  -8.18898857e-01, 1.68804258e-01, 1.40081978e+00,-2.43999577e+00,
   1.87036228e+00, 3.13166022e+00, 5.08238411e+00, 1.63126910e+00,
  -3.49323893e+00, 2.00962138e+00, 5.28884411e-01,-1.23638916e+00,
  -6.88125968e-01,-9.59587619e-02, 1.35839403e+00, 2.13261056e+00,
   4.38081622e-01, 3.20852137e+00,-3.01015615e-01,-1.52603269e+00,
  -1.77431333e+00,-1.08331814e+01,-7.05159521e+00,-1.17860281e+00,
   3.27366948e+00,-4.38016891e+00,-1.94914174e+00, 5.56308651e+00,
   1.89324093e+00,-1.78873050e+00,-6.42385244e-01,-8.84414673e+00,
  -3.41982412e+00,-7.13697076e-01,-6.87987447e-01,-1.45210612e+00,
   3.38027763e+00,-1.34848881e+01,-1.87661672e+00,-2.53854632e+00,
   6.86003804e-01, 1.29859829e+00,-5.20766258e-01, 5.38671637e+00},
 {-1.28250733e-01,-7.40634724e-02,-4.86670025e-02,-8.56481344e-02,
  -6.98267967e-02,-7.59754889e-03,-1.99104119e-02,-1.68654397e-02,
   4.14566882e-02,-6.80383295e-02,-5.17713800e-02,-4.44248877e-02,
  -4.86277863e-02,-3.88888014e-03,-7.23067299e-02,-4.84980978e-02,
  -3.24760489e-02, 5.57625480e-02, 1.23717845e-03,-3.99393365e-02,
  -1.00113623e-01,-5.65890782e-03,-1.14425376e-01,-1.77020393e-02,
  -2.74070818e-03,-9.16426182e-02,-1.00855038e-01,-1.35237444e-02,
  -8.36213976e-02,-8.12391117e-02,-1.12532809e-01, 5.53812422e-02,
  -5.28434329e-02,-1.23797596e-01,-1.25956386e-01,-4.61623557e-02,
  -1.03367537e-01,-1.25395376e-02,-2.23985612e-02, 1.77359879e-02,
  -3.44001763e-02,-9.06247050e-02,-1.57831144e-02, 5.65646999e-02,
  -1.51657471e-02,-8.33342876e-03,-7.58226588e-02, 1.28337592e-02,
  -1.74267776e-02,-1.45169437e-01, 1.79788861e-02,-1.53506786e-01,
  -9.07187685e-02,-6.58888742e-02,-6.18921369e-02,-5.33504970e-02,
  -1.09446362e-01,-6.55104220e-02,-3.21321003e-02,-8.80678743e-02,
  -2.76238732e-02, 9.01097152e-03, 5.22815296e-03,-1.49581164e-01,
  -7.10691065e-02,-1.91735476e-02, 1.83623526e-02, 1.59773733e-02,
  -2.64961030e-02, 4.53786440e-02,-4.63124476e-02, 2.02154443e-02,
   2.36423202e-02,-1.30479321e-01,-3.41983922e-02,-6.31548651e-03,
  -3.06919143e-02, 4.46981937e-02,-7.69948959e-02, 2.74085160e-02,
  -4.83282842e-02,-9.86653268e-02, 3.88488248e-02,-4.29391190e-02,
   2.03484315e-02,-2.28862371e-02,-1.51539641e-02, 2.82941423e-02,
  -9.37188882e-03,-3.40954997e-02,-6.59485832e-02,-1.34187013e-01,
  -3.17255147e-02,-1.13165803e-01,-4.24965285e-02,-1.08296715e-01,
  -4.18952703e-02,-1.04627766e-01,-2.32707616e-02, 3.21164615e-02,
  -9.54946131e-02, 2.09016595e-02,-6.86215907e-02,-3.17299068e-02,
   2.97195604e-03,-3.38520743e-02, 5.22459894e-02,-7.66724795e-02,
  -5.91144860e-02,-1.35395348e-01,-1.17526442e-01, 4.67247814e-02,
   3.68218943e-02,-6.89936504e-02,-5.22017069e-02,-1.21554703e-01,
   1.14745693e-02,-6.32815901e-03,-2.25154813e-02,-9.89214852e-02,
   2.15784051e-02,-9.23599675e-03,-1.02109089e-02,-4.18393053e-02,
  -1.29485533e-01,-1.11945318e-02,-1.77564397e-02, 1.09390356e-03},
 { 7.76750743e-01, 2.12572068e-01, 2.39227581e+00,-1.34591961e+00,
   2.33663708e-01, 5.44626617e+00,-3.35299492e-01, 2.38906217e+00,
  -1.76951683e+00,-3.30968118e+00,-5.19088916e-02,-5.47624683e+00,
   3.24461818e-01, 2.96577901e-01, 7.76528645e+00,-1.00959289e+00,
  -2.13845634e+00, 5.78074336e-01,-4.44723988e+00, 1.82254028e+00,
  -1.62181187e+00,-1.50805461e+00, 8.13579273e+00,-1.78856552e+00,
   8.01796496e-01,-3.90914106e+00,-1.28762400e+00, 1.36085796e+00,
   7.62133241e-01,-5.82361603e+00,-3.42110348e+00, 8.28978419e-01,
   3.34211159e+00,-1.46779025e+00, 2.14231777e+00, 5.19061685e-01,
  -2.02975590e-02, 1.07688814e-01, 4.64506805e-01,-1.31518948e+00,
   2.73678827e+00, 1.75510693e+00,-3.16434336e+00, 1.13042917e+01,
  -2.71514535e+00, 3.22786665e+00,-2.74886996e-01, 4.65723181e+00,
   2.76208258e+00, 1.63200751e-01, 1.92418623e+00, 5.74587107e-01,
   2.54818916e+00, 2.69083571e+00,-6.83583140e-01, 2.50471520e+00,
  -3.34683847e+00,-3.46052146e+00,-1.98723471e+00,-5.82137918e+00,
  -2.64618933e-01, 2.65221190e+00, 2.75587153e+00,-5.10806084e+00,
   9.60186481e+00, 2.41203070e+00,-2.34723520e+00,-3.18654299e-01,
  -2.99182558e+00,-2.43593001e+00,-2.46823692e+00,-3.70091224e+00,
   2.72808266e+00,-6.56664371e-02,-2.04389051e-01,-1.65137691e+01,
  -3.78278941e-02, 1.35264361e+00,-3.02427560e-01, 3.68341431e-02,
   3.44255604e-02, 3.73141360e+00,-1.72660625e+00, 1.57175350e+00,
  -6.15074575e-01,-2.72433853e+00,-6.99941099e-01, 1.22482204e+00,
   1.64637387e+00, 2.86794496e+00,-1.04037786e+00,-1.11753047e+00,
  -2.76332915e-01,-1.51305646e-01,-9.01134968e+00, 2.13610744e+00,
   9.76466894e-01, 1.68880463e+00, 1.42971605e-01,-1.36549759e+00,
  -1.46182764e+00,-2.89945936e+00,-5.20450735e+00, 3.97079420e+00,
  -1.91137981e+00,-1.05437493e+00,-2.02691245e+00,-6.86217308e-01,
  -2.58934116e+00, 5.55400133e+00, 1.08914506e+00,-2.76542616e+00,
  -2.09971380e+00,-4.97785449e-01, 9.50454807e+00,-4.09514785e-01,
   8.67288768e-01,-6.65422392e+00, 3.81666839e-01, 4.56022769e-01,
   2.56185627e+00, 4.28625762e-01, 2.51026824e-02,-3.33375621e+00,
  -9.87789035e-01, 1.22109735e+00, 3.62836093e-01,-2.98355722e+00},
 {-1.50670573e-01, 1.63406336e+00,-1.56652756e+01,-6.76946411e+01,
   2.82849550e-01,-3.16144609e+00, 8.86889473e-02,-1.24175154e-01,
   2.02275857e-01, 2.56774664e-01, 6.56737137e+00,-3.91123533e-01,
  -5.94781041e-01,-2.81999439e-01,-1.02533042e+00,-1.53602493e+00,
   9.35254693e-01, 1.57212985e+00, 1.92539692e-01,-2.72946656e-01,
  -3.09061587e-01,-1.37475729e+00, 2.18525910e+00, 2.33087707e+00,
   3.27580094e-01, 4.75971550e-02, 5.10495007e-01,-8.47881809e-02,
   1.68892164e-02,-2.44451380e+00, 4.55127120e-01,-2.80671597e-01,
  -9.43124235e-01, 3.63584578e-01,-8.18517506e-02, 2.11875844e+00,
   9.15477991e-01,-1.20830369e+00,-5.16283751e-01, 3.55784386e-01,
  -1.19263031e-01,-2.59875447e-01, 4.05893736e-02,-7.84296155e-01,
   2.61301041e-01,-2.77951455e+00,-1.74015045e+00,-1.62685886e-01,
   6.76066816e-01, 1.20271347e-01,-2.24988312e-01,-9.13300440e-02,
   2.79673958e+00,-4.00960255e+00, 4.42694128e-01,-4.12987843e-02,
  -1.37396395e-01,-4.10673589e-01,-9.09249115e+00, 4.59479666e+00,
  -4.64585495e+00, 1.95682418e+00,-8.00387561e-01,-2.82243162e-01,
  -4.14481610e-01,-4.93060541e+00, 4.38073158e+00,-3.98386061e-01,
  -1.20794570e+00, 1.16151139e-01,-1.22971487e+00, 2.44350925e-01,
   7.05440223e-01,-4.72629637e-01,-1.18004687e-01, 2.32590605e-02,
  -2.30649766e-02, 3.31921029e+00,-3.13239813e-01, 4.19122982e+00,
   5.76888704e+00, 9.83962595e-01, 5.13725471e+00,-1.22451656e-01,
   2.17554164e+00, 1.72924429e-01,-2.55540729e+00,-7.42846608e-01,
  -3.02828908e-01,-3.02815378e-01, 2.43085802e-01,-5.58251238e+00,
  -1.44551620e-01,-8.25867462e+00, 7.73339510e-01,-2.70917821e+00,
   1.02332354e+00,-2.37786388e+00,-1.39571106e+00,-2.06792188e+00,
   5.51028177e-02, 1.43997088e-01, 5.91133976e+00,-9.58194447e+00,
   2.43188754e-01, 5.05488276e-01, 1.58917412e-01, 6.91110790e-02,
  -2.32056928e+00,-3.53220940e-01,-2.60635257e+00, 5.73736578e-02,
  -3.09018540e+00,-2.62289286e-01,-2.09923953e-01,-1.42270178e-01,
  -1.11131653e-01,-5.57256603e+00,-1.74382091e+00, 4.57392484e-02,
   8.02321851e-01, 5.53533472e-02,-2.16074324e+00, 9.46319103e-02,
  -6.61467493e-01,-1.61057375e-02, 2.00459385e+00, 4.72728205e+00},
 { 2.55289879e-02, 1.25344157e+00,-1.30243731e+01, 2.78127861e+00,
  -5.74508190e+00, 9.72092867e-01,-4.89411354e-02,-4.43517494e+00,
   2.09560466e+00, 1.41910315e+00, 1.76797748e+00, 1.52736306e+00,
  -1.74966574e+00,-1.89896142e+00,-5.77369070e+00,-7.08154976e-01,
   1.22984421e+00, 6.60547018e+00, 9.06949341e-01,-4.44702864e-01,
  -8.82852972e-01,-8.43214703e+00,-7.99610257e-01, 2.87571359e+00,
   1.33879530e+00,-1.42461109e+00, 2.91807652e-01, 4.98859435e-02,
  -5.52465615e-04,-1.35080147e+00, 2.73420289e-02,-1.34501219e+00,
  -1.60244644e+00,-5.40716314e+00,-6.75440073e-01,-2.00695658e+00,
  -3.40186405e+00,-3.44025540e+00, 1.54481995e+00,-4.74012531e-02,
  -1.60348892e+00,-1.84057093e+00,-1.74057603e+00,-8.44881821e+00,
   1.09382904e+00,-1.57086027e+00,-5.15730429e+00, 1.79558218e-01,
   1.81312346e+00, 1.39962316e+00,-3.71464372e+00,-2.32900888e-01,
   3.30388379e+00,-5.17982912e+00, 3.80734968e+00,-2.36630708e-01,
  -4.49698865e-01, 3.03326547e-01,-4.99681711e+00, 5.64740038e+00,
  -2.65974522e+00, 2.69064784e-01,-3.46190393e-01,-4.44399118e+00,
  -4.12173414e+00,-2.20238730e-01,-1.99245048e+00, 1.05630887e+00,
  -5.18010378e+00, 1.79522324e+00, 2.12083507e+00, 1.75098801e+00,
   2.97180891e+00,-1.37270641e+00,-5.83903360e+00, 6.25770688e-01,
  -1.33405566e-01, 2.82726312e+00, 5.48574448e-01, 8.28335047e-01,
   1.22650218e+00,-3.85838723e+00, 7.35441446e-01,-1.77715349e+00,
   1.76880026e+00, 2.70670891e+00, 1.78900337e+00, 2.85826993e+00,
   5.75566813e-02,-2.37608361e+00, 2.33966351e+00, 1.74319267e+00,
   5.65610504e+00, 4.81798202e-01, 3.75150943e+00,-2.30778456e+00,
   9.29419279e-01,-4.42052811e-01,-3.88732886e+00,-1.96126699e+00,
   2.04833195e-01, 2.07795143e+00, 2.03176212e+01,-4.43284416e+00,
   2.59248590e+00, 3.42305923e+00, 9.92114067e-01, 2.50053316e-01,
  -1.06439466e+01, 1.41338956e+00, 3.33328724e+00, 1.57888189e-01,
  -1.03375566e+00, 1.34698701e+00,-1.63463974e+00,-1.79043368e-01,
  -1.49338055e+00, 2.18874049e+00,-3.57972693e+00, 3.49587941e+00,
   3.73087597e+00, 7.60222152e-02,-2.60241413e+00, 1.97249603e+00,
  -1.28406608e+00,-1.03715336e+00,-5.08457661e+00, 4.37689237e-02},
 {-7.49110174e+00,-6.91050351e-01, 2.14212108e+00,-3.20774770e+00,
  -1.30064085e-01,-7.95798823e-02, 2.69082689e+00,-2.19341278e+00,
   4.10519600e+00,-5.96870756e+00,-1.36331725e+00, 1.98755431e+00,
   1.08792388e+00,-3.78005290e+00, 4.56408834e+00,-2.52454495e+00,
  -1.53904152e+00, 4.13157940e+00,-9.48401833e+00, 5.50654459e+00,
   1.24302769e+00, 2.27858925e+00, 2.42914653e+00, 1.77708554e+00,
  -1.01201618e+00,-4.22443241e-01, 4.80184221e+00, 2.36515045e+00,
   2.22022319e+00, 1.90742648e+00,-1.69213891e+00,-3.70043588e+00,
  -2.53252196e+00,-1.16667068e+00, 2.57765651e+00,-2.22253203e+00,
  -1.96520936e+00,-1.74410462e+00, 2.23347116e+00,-5.62810063e-01,
  -1.29408813e+00,-1.48906076e+00,-7.55193758e+00, 4.29256010e+00,
  -2.10007095e+00, 8.24226379e-01, 1.21267986e+00,-1.63340688e+00,
  -2.59927249e+00,-2.25984502e+00,-7.02556467e+00, 1.13141048e+00,
  -1.99366093e-01,-1.43137306e-01,-2.28829578e-01,-4.39671326e+00,
  -1.43737936e+00,-6.38934708e+00, 5.72467518e+00, 1.18691611e+00,
   2.16290689e+00,-1.05344427e+00, 4.04213905e+00, 1.19151938e+00,
  -1.81203708e-01,-1.93395984e+00, 1.52753019e+00,-6.98030329e+00,
   2.27110052e+00,-1.44024754e+00, 6.32651758e+00,-2.75883698e+00,
  -1.50889122e+00, 2.29322001e-01,-2.14147282e+00,-1.50009799e+00,
  -2.17624402e+00, 3.70489880e-02,-2.84486145e-01, 5.02439857e-01,
   2.65923643e+00, 5.84399939e+00,-1.89767659e-01, 9.11958218e-02,
  -2.70406574e-01, 1.40207016e+00, 6.85563982e-01, 4.88279432e-01,
  -4.14242983e+00,-4.99050283e+00,-5.20948935e+00, 4.17082518e-01,
  -6.55185163e-01,-1.65872002e+00,-1.61474049e+00,-1.69850016e+00,
   1.86670506e+00, 6.43502772e-01, 1.96471274e+00,-1.29292214e+00,
   1.40940928e+00, 1.22362328e+00, 4.78126812e+00,-1.03944087e+00,
   2.27772164e+00, 4.11374283e+00, 3.66854692e+00, 7.73700237e-01,
   3.54749680e+00,-2.22004580e+00,-4.17435378e-01, 1.70948410e+00,
   1.29458115e-01, 5.24832904e-01, 4.03925371e+00,-6.55923414e+00,
  -3.18163109e+00, 1.56090021e+00,-5.74144721e-01,-1.50068358e-01,
   7.64916658e+00,-1.15603170e+01,-4.78841066e+00, 1.23479486e+00,
   5.75063646e-01, 3.48305516e-02, 3.27437496e+00, 3.07146239e+00},
 {-1.32597506e+00,-2.35749513e-01, 3.87103677e+00,-7.48371601e-01,
  -5.55224657e+00, 6.24424458e-01, 3.49063778e+00,-3.19372916e+00,
   2.14517617e+00,-1.08650959e+00, 2.31841040e+00, 2.50145197e+00,
   4.81768191e-01,-2.39635944e+00,-4.45071125e+00,-5.92296183e-01,
   2.95802450e+00,-2.87910748e+00, 1.52461386e+00,-1.13138998e+00,
  -1.43302870e+00,-2.95163798e+00,-8.07991564e-01,-3.17605942e-01,
  -7.80070364e-01,-2.12392187e+00,-3.43462884e-01,-2.77401328e+00,
   4.55389023e-01,-3.04634881e+00,-4.94359016e-01,-1.28422165e+00,
   5.01577199e-01,-2.64185452e+00, 4.19307321e-01,-6.07671961e-02,
  -4.42032099e+00, 1.01556301e+00, 6.49377286e-01, 3.33871341e+00,
  -1.69356918e+00,-1.40086484e+00,-5.54344058e-01,-2.81163812e+00,
   6.74126148e-01,-1.21639776e+00,-1.91447449e+00,-1.20428240e+00,
  -5.39280295e-01, 1.26473117e+00,-2.08111525e+00,-5.09459913e-01,
   2.64803529e+00, 7.41824865e-01, 1.34304988e+00, 2.59811878e-01,
   1.62064448e-01,-2.44539857e+00,-1.18504107e-01,-1.73836172e+00,
   4.08223532e-02, 2.01116943e+00,-1.66113460e+00,-3.47365212e+00,
  -3.91783762e+00, 2.44057342e-01, 2.81375504e+00, 3.06827283e+00,
  -4.23874408e-01, 2.50964308e+00, 2.44086099e+00, 3.44877839e-01,
  -3.19787931e+00,-1.85826969e+00,-2.79611874e+00,-3.16926211e-01,
  -2.12286830e-01,-1.23901844e+00,-1.06728411e+00, 6.10666096e-01,
   2.27954984e+00,-6.01313210e+00, 1.10068119e+00,-3.08629394e+00,
   2.94396549e-01, 2.37952694e-02, 3.05134691e-02, 2.04071951e+00,
  -2.36225629e+00,-5.42744970e+00, 3.34627604e+00, 1.97412705e+00,
   5.63662338e+00, 1.03512657e+00, 4.78285837e+00,-7.38372421e+00,
  -2.98254848e-01, 2.71024919e+00, 8.17014635e-01,-2.26120305e+00,
   1.47466570e-01, 2.74005055e+00, 6.29814565e-01, 4.49866533e+00,
   4.30272627e+00, 4.12319040e+00,-5.39856613e-01, 1.32711351e+00,
   3.43181205e+00, 1.18391073e+00, 3.08339119e+00, 3.30664611e+00,
  -2.26675677e+00,-6.86017990e-01,-1.66546941e+00,-1.60293758e+00,
  -2.20858121e+00, 2.69127107e+00, 2.37751510e-02,-2.02432424e-01,
   5.08754873e+00, 3.07152939e+00,-3.36139178e+00, 2.36588979e+00,
   5.87990582e-01,-1.72730303e+00,-4.68005085e+00,-3.57241368e+00},
 {-4.21076547e-03, 4.06936407e+00, 1.23858042e+01, 4.61853075e+00,
  -2.64318496e-01, 9.62205768e-01, 8.10820878e-01,-1.06698588e-01,
  -2.66261607e-01, 9.26059932e-02,-7.76097918e+00, 7.99698412e-01,
   1.65827155e-01,-2.47146741e-01, 5.02481639e-01, 7.48213053e-01,
  -3.95980366e-02,-1.29135160e+01, 3.63307953e-01, 1.22818209e-01,
   4.86933030e-02,-5.75753391e-01,-1.42895091e+00,-2.68375254e+00,
   1.53169653e-03,-4.94031638e-01,-7.79610351e-02,-5.14159918e-01,
  -2.46516652e-02, 3.82276550e-02,-9.99628925e+00,-2.84616083e-01,
   4.83864933e-01,-2.19035482e+00, 1.48096532e-02,-2.73010015e+00,
  -2.58135349e-01,-1.74905634e+00,-2.30836773e+00,-3.90140146e-01,
  -4.84003574e-02,-4.50703114e-01, 4.70994599e-02,-3.67718172e+00,
  -1.63231954e-01,-1.87570810e+00,-3.04247826e-01,-2.55789250e-01,
   8.13315213e-02, 6.95324466e-02, 2.88033932e-01,-5.11039756e-02,
   2.69167018e+00,-2.50459766e+00,-2.13198394e-01, 3.17713059e-02,
   1.97471350e-01, 4.66635883e-01, 1.05745733e+00,-5.25454950e+00,
   2.16192808e-02,-3.47821712e-01,-1.01609617e-01,-8.84959288e-03,
  -2.18535047e-02, 7.64312840e+00,-8.43291187e+00, 7.41094723e-02,
   1.05008042e+00, 3.46020222e-01, 1.75786769e+00, 1.48742437e-01,
   1.29642951e+00, 8.76645222e-02,-2.04789476e-03,-6.87781125e-02,
  -2.02457327e-02,-2.80364823e+00, 9.18501914e-01,-3.91626525e+00,
   1.59025800e+00,-1.85853820e-02,-9.97967243e+00, 2.09492259e-03,
   1.09979379e+00, 1.77681893e-01,-1.41845989e+00, 2.55861425e+00,
   1.32230610e-01,-1.75746948e-01,-2.20150933e-01, 1.59214334e+01,
   1.09077588e-01,-1.40245497e+00,-1.32449791e-01,-8.69558144e+00,
  -3.73101503e-01,-3.65984619e-01,-6.04540491e+00,-7.57495284e-01,
   1.58904754e-02, 5.58481030e-02,-1.42789526e+01, 2.65545869e+00,
  -2.30933085e-01, 1.50085270e-01,-1.90427732e-02, 2.54462957e-01,
   4.25202084e+00, 1.25285909e-01,-4.27381134e+00, 8.08387250e-02,
  -1.33762360e+01, 4.15154546e-01,-7.66884983e-01, 3.72860804e-02,
   1.54700086e-01, 8.80125314e-02, 1.83991265e+00,-3.53882849e-01,
   2.39468887e-01, 1.00995764e-01, 1.66951373e-01, 1.22999601e-01,
  -7.67340374e+00,-1.05634987e-01, 3.38666701e+00, 2.79196048e+00},
 {-1.52121097e-01,-6.06588960e-01, 3.43593335e+00, 8.28800917e-01,
   2.53415465e-01, 1.43755317e+00, 2.04871917e+00,-1.19407617e-01,
   5.45613468e-01, 5.30133724e-01,-4.85905588e-01,-9.56616998e-01,
  -8.74159336e-02,-9.91777956e-01,-8.04753125e-01,-8.98709357e-01,
  -3.67881942e+00,-1.73039150e+00, 7.88504958e-01,-1.64789170e-01,
   4.36884105e-01, 2.60771585e+00,-2.03655958e-01,-2.49464321e+00,
   1.64877310e-01,-3.79758692e+00, 5.45774341e-01,-5.11258888e+00,
  -3.15530300e-01,-9.38745916e-01, 7.04387665e-01,-5.63586533e-01,
   1.28496155e-01,-2.77277088e+00, 9.99311730e-02,-7.32009792e+00,
  -1.94948375e-01,-1.45840073e+00,-3.86484623e-01,-1.65993497e-01,
  -4.82496113e-01,-2.77245659e-02, 3.69086951e-01, 1.98641241e+00,
   2.15436965e-01, 7.94468224e-01,-7.00853407e-01, 6.60838366e-01,
  -4.53789473e+00,-1.44489661e-01,-5.17906618e+00,-8.80194455e-02,
  -1.19453824e+00, 5.19549036e+00, 1.00613880e+00,-1.97430685e-01,
  -2.39485845e-01, 3.56299907e-01, 1.08754802e+00, 6.54135323e+00,
  -2.00707769e+00,-2.49433547e-01,-1.46671200e+00, 1.07924354e+00,
  -8.01325262e-01, 2.36410236e+00, 2.03357744e+00,-4.90982145e-01,
   4.01837349e+00,-3.69697213e+00, 3.31232452e+00, 4.92226452e-01,
   2.54286975e-01,-8.88216257e-01, 1.07139170e+00, 4.21541594e-02,
   1.09947562e-01,-3.84001517e+00, 6.98841870e-01, 2.55341029e+00,
  -1.20805776e+00,-1.40709832e-01, 3.38051152e+00,-4.05898929e-01,
  -1.18229399e+01,-3.65238607e-01, 7.60270000e-01, 1.74447036e+00,
  -2.55573869e-01,-7.52497137e-01,-2.21001543e-02, 1.35506347e-01,
   6.39374208e+00, 1.43711999e-01, 1.43123496e+00, 4.19040632e+00,
  -4.38476372e+00, 2.43080765e-01, 4.81706858e+00, 3.43684411e+00,
   1.19004242e-01, 5.56683242e-01,-1.27539670e+00, 5.23610450e-02,
   1.73295438e-01, 9.79809165e-01, 6.08594194e-02,-1.16367948e+00,
   1.50533688e+00,-6.01778090e-01, 1.67171943e+00, 5.39149880e-01,
  -9.43447113e-01,-5.12640893e-01,-3.25036740e+00,-1.75934538e-01,
  -2.94784158e-01,-1.18765962e+00, 7.47785568e-01, 7.32079554e+00,
   1.41471231e+00, 1.46186769e-01,-2.34328818e+00, 3.19501519e-01,
  -1.80221450e+00,-1.86384797e-01, 1.74629045e+00,-1.88084531e+00},
 {-6.13703094e-02,-1.75074425e+01,-9.73525429e+00,-1.48181498e+00,
   2.62360603e-01,-1.78142440e+00, 7.82608151e-01,-2.37537980e-01,
   2.37214833e-01, 9.67426151e-02,-4.19600576e-01,-7.16047645e-01,
   3.38852972e-01,-5.14491759e-02,-6.82619929e-01,-1.06584072e+01,
  -3.18911719e+00,-8.24054813e+00, 2.14797720e-01,-1.47350430e-01,
   1.01226151e+00,-1.90738797e+00,-4.93271679e-01, 3.19225836e+00,
   4.50940765e-02, 1.12182546e+00,-1.81063432e-02, 7.97620267e-02,
   1.16294354e-01, 9.02625978e-01, 9.68253076e-01,-3.54843646e-01,
  -8.57089236e-02, 2.94232607e-01,-3.24497260e-02, 4.63751650e+00,
   1.82530388e-01, 1.24822140e+00, 2.63723850e+00, 9.10837412e-01,
  -2.42320746e-01, 7.66428858e-02,-3.04913968e-01, 2.77254224e+00,
   1.33112371e-01, 2.96590185e+00, 1.70250833e-02, 7.70649374e-01,
  -2.11741424e+00, 1.20664939e-01,-2.06570461e-01, 1.22818565e-02,
   1.63511360e+00, 5.71671581e+00, 5.84935129e-01, 3.07948086e-02,
  -1.87376931e-01,-1.03314072e-01,-5.11621618e+00, 4.13872337e+00,
  -1.03990679e+01, 2.89834619e-01, 7.45949030e-01,-5.66910803e-01,
  -1.24405015e+00,-5.71867132e+00, 2.02876493e-01,-3.29450488e-01,
  -1.20058465e+00,-4.66514778e+00,-1.79954302e+00, 2.21953213e-01,
   1.49260819e+00,-1.44188851e-01, 2.81218626e-02, 3.96830618e-01,
   1.30057484e-01,-1.84642211e-01,-9.97835696e-01, 6.13784409e+00,
  -9.66406226e-01,-2.77460766e+00, 1.02187614e+01,-1.16855875e-01,
  -2.47982845e-01,-8.21809694e-02, 2.26910520e+00, 3.71349740e+00,
  -2.04482570e-01,-2.52806723e-01, 2.23868176e-01,-6.98221445e+00,
   2.74813265e-01, 9.22584116e-01, 4.82392967e-01, 5.08784437e+00,
   2.54493761e+00,-2.70235896e+00, 5.47397327e+00, 4.05233431e+00,
   5.45824692e-02, 7.78953806e-02, 1.61688251e+01,-1.17203226e+01,
   4.10849720e-01, 6.41941369e-01,-2.19790693e-02, 1.15548939e-01,
  -1.59143791e+01,-1.81031609e+00,-9.15249288e-01,-5.71870282e-02,
  -1.03649788e+01,-1.21348679e+00,-1.69741273e+00, 4.01588157e-02,
  -2.58887738e-01, 1.25283039e+00,-3.63836217e+00, 6.59812152e-01,
   2.19873965e-01,-4.90243286e-02, 3.83204401e-01,-6.06938675e-02,
  -8.16420650e+00, 7.52478912e-02,-4.18556499e+00,-5.36485076e-01},
 {-1.16122637e+01, 8.75858366e-02,-1.00273199e-01, 3.31143513e-02,
  -2.98373640e-01,-7.69819915e-01,-9.82509136e+00,-4.26490545e+00,
  -1.97663474e+00,-9.85810220e-01,-1.38471141e-01, 1.39968944e+00,
   8.73686820e-02,-8.89006928e-02,-1.77386367e+00,-3.68603796e-01,
  -3.47934008e-01, 3.63216758e-01,-1.47368580e-01, 7.62601674e-01,
   2.27530047e-01, 3.83217126e-01,-1.01748276e+01,-1.55160978e-01,
   1.39955774e-01,-4.34706472e-02,-1.04724693e+00,-2.91325245e-02,
  -8.29254806e-01, 1.87931165e-01,-4.43993032e-01, 9.78312492e+00,
   2.71569777e+00, 5.75578511e-02,-1.13082659e+00,-1.64906651e-01,
  -4.35335524e-02, 2.99646333e-02,-9.54277420e+00, 1.71892554e-01,
   7.72514462e-01, 6.09126985e-02,-9.47052956e-01, 7.52320588e-01,
  -1.67359233e+00, 9.84786898e-02, 2.97194749e-01,-1.23472452e+00,
  -2.29866326e-01, 2.80688733e-01, 8.87061376e-03, 6.09299362e-01,
   2.22979903e-01,-8.38405117e-02,-4.71270657e+00,-9.47961712e+00,
  -7.62438893e-01, 1.92867089e-02,-7.62272000e-01, 1.08736312e+00,
   2.33330891e-01,-5.31092323e-02, 7.38308191e-01,-3.82657088e-02,
  -9.25436139e-01,-1.08073831e-01,-6.00526094e-01, 1.60152942e-01,
  -7.49233663e-02,-2.37369120e-01,-1.23757446e+00,-1.02756338e+01,
  -1.96107936e+00, 6.79655194e-01, 2.76614279e-01,-5.04456401e-01,
  -1.43236756e-01, 7.30338469e-02,-3.88815962e-02, 3.26594919e-01,
  -1.48826512e-05,-9.38254520e-02, 1.35883093e-01,-1.01728886e-01,
   4.16850671e-02,-3.97631097e+00, 3.94774750e-02,-4.37353663e-02,
  -3.01239975e-02, 2.56601423e-01,-6.94883093e-02, 3.79232645e-01,
  -1.63365260e-01,-9.73440632e-02,-2.63840652e+00, 2.01883984e+00,
   1.23235375e-01, 4.38563526e-02, 2.07478069e-02,-2.99401700e-01,
   2.39196348e+00, 2.32037425e+00, 2.14749527e+00, 1.50491059e-01,
  -1.85176849e-01,-7.21025085e+00,-9.25393522e-01, 2.96263337e-01,
  -1.42945638e-02,-1.40751302e-01, 3.96601744e-02,-4.37074041e+00,
   7.44364485e-02, 1.32864723e-02,-3.06244659e+00, 5.09492382e-02,
   9.97341633e-01,-1.61887670e+00,-1.79534942e-01,-4.32598877e+00,
   5.07553720e+00, 8.49840820e-01,-1.25596896e-02, 2.14023709e+00,
   2.02378957e-03, 1.07824016e+00, 2.87455887e-01,-1.23653878e-02},
 { 9.72480774e-02, 6.93540797e-02,-4.15293485e-01,-3.95281576e-02,
  -3.29226851e-01,-8.78577769e-01, 1.64195552e-01, 9.43019390e-01,
  -2.20630074e+01, 2.22531676e-01, 5.88597246e-02, 8.53483081e-01,
   9.30328518e-02, 1.28801167e+00, 8.25915051e+00,-5.69560230e-01,
  -2.63314068e-01, 1.72847677e-02, 1.61895645e+00, 2.25994444e+00,
   2.96119601e-01, 3.39393735e-01,-1.09654479e-01, 3.57819706e-01,
   2.06544831e-01,-2.12711558e-01, 1.06730366e+00, 1.13175377e-01,
  -4.87006664e+00, 2.75097430e-01, 5.69696903e-01, 3.82782787e-01,
   4.44495487e+00, 7.88848102e-02,-3.13713163e-01,-1.38493150e-01,
  -8.25930834e-02, 3.27954777e-02, 5.16085744e-01,-6.26989780e-03,
   6.76587343e-01,-2.83809137e-02,-8.48124266e-01, 2.95632213e-01,
  -4.26875687e+00, 2.92198205e+00, 4.40291047e-01,-1.80036640e+00,
  -2.48791337e-01,-5.23356855e-01,-3.76508432e-03,-4.29983407e-01,
   4.18953151e-01,-8.39851499e-02,-2.11825371e+00, 3.40707874e+00,
   2.40597630e+00, 7.36143067e-02,-5.60742021e-01,-8.47913697e-02,
   1.58237159e+00,-1.09068967e-01, 1.00673237e+01,-3.03292908e-02,
   6.28970814e+00,-9.98501182e-02,-1.00435272e-01, 2.18862921e-01,
   1.91569448e-01,-4.30394977e-01,-6.05995178e-01, 2.53434330e-01,
   6.53081036e+00, 1.18546712e+00, 3.22581232e-01,-3.98355198e+00,
  -4.86221254e-01, 4.83315736e-02,-5.56471432e-03, 2.94877589e-01,
   4.32928689e-02,-1.39817089e-01, 8.88529271e-02,-6.46911716e+00,
   5.75693920e-02,-1.37520838e+00, 6.93799257e-02,-8.42304677e-02,
  -7.51447678e-02, 3.58548903e+00,-9.81195867e-02, 4.05336916e-01,
  -2.37333834e-01,-1.24944299e-01,-9.18510246e+00, 5.81234884e+00,
   2.39430666e-01, 2.71967966e-02, 8.76340121e-02,-3.13648552e-01,
   1.69465387e+00,-3.33710492e-01, 2.05678105e+00, 1.17005017e-02,
  -9.27875710e+00,-9.10495472e+00, 3.82218510e-01, 1.35136113e-01,
   7.39964098e-02,-1.51850864e-01, 1.54063478e-01,-5.97644150e-01,
  -4.41250652e-02, 9.58496891e-03,-4.26828766e+00, 1.10944593e+00,
   4.15080690e+00, 4.52599573e+00,-3.35637406e-02,-1.13641584e+00,
  -1.11376057e+01, 1.58749020e+00, 9.12016816e-03, 5.21849728e+00,
  -1.96259052e-01, 5.22580743e-01,-5.73800541e-02,-8.25240538e-02},
 {-2.07317376e+00,-2.39944048e-02, 3.34344506e-02, 1.00241885e-01,
   1.30484557e+00, 4.25295496e+00,-6.63744956e-02,-8.86204338e+00,
  -3.76866126e+00, 4.98298220e-02, 1.20007373e-01, 2.69845653e+00,
   3.36333290e-02,-6.35215950e+00, 7.13039446e+00,-3.76961343e-02,
  -2.40373686e-01, 6.82662785e-01,-2.51145601e+00,-9.78997648e-01,
  -1.87919402e+00, 5.37136555e-01, 1.17702174e+00, 1.44668221e+00,
  -1.28750539e+00, 8.44098330e-01,-3.21037197e+00, 2.84298390e-01,
  -6.36068201e+00,-8.06968868e-01, 3.68202949e+00,-2.70619249e+00,
   3.74890113e+00,-3.72258276e-01, 9.41692352e-01,-2.39538103e-01,
  -5.07156730e-01,-2.97551364e-01,-1.14009805e-01,-3.00081307e-03,
  -4.15948057e+00,-2.33451888e-01, 1.00920701e+00, 7.66897559e-01,
  -3.61640000e+00, 6.48164511e+00,-1.79550111e+00,-3.39396644e+00,
   1.05757844e+00, 1.12677872e+00,-4.48688596e-01, 1.63489604e+00,
  -1.28599632e+00, 5.37679851e-01, 4.45650053e+00,-6.26146793e-01,
   5.14067221e+00,-5.22058606e-01, 1.64881086e+00,-2.18771172e+00,
   2.47886218e-02, 6.38199866e-01,-5.36575675e-01, 5.08042336e-01,
   4.50345874e-01, 2.39843294e-01,-1.21849275e+00,-6.30648673e-01,
  -2.33631301e+00, 1.09783268e+00, 4.75086451e+00,-6.29167408e-02,
   2.63463616e+00,-2.02131510e+00,-1.77927935e+00,-3.98463011e+00,
   6.89471722e-01,-5.11666954e-01, 1.73767686e-01, 1.49970934e-01,
  -6.05016708e-01,-8.52990597e-02, 2.98536301e-01,-5.27123117e+00,
  -1.99107811e-01,-4.58354026e-01, 1.58029437e-01, 9.61147074e-04,
   7.07813859e-01,-4.09684086e+00, 8.63057971e-02, 8.24047253e-02,
   1.03370500e+00, 6.95275009e-01, 1.93521857e-01,-3.45051670e+00,
  -5.31914532e-01, 1.45322180e+00,-5.57833195e-01,-5.88253021e-01,
   2.59698105e+00, 1.75906301e+00,-5.66163003e-01,-1.39505535e-01,
   7.71464109e+00, 9.90474606e+00, 1.10209835e+00,-5.81107795e-01,
  -3.32197756e-01, 3.70588839e-01,-1.02557361e-01, 1.83406997e+00,
  -3.25307637e-01,-5.95850706e-01, 1.56892550e+00,-1.31280482e+00,
   3.56502980e-01, 4.20774698e+00,-2.28054319e-02,-1.33375227e+00,
   2.48558497e+00, 6.58601236e+00, 6.94998622e-01, 4.48508883e+00,
   1.05201513e-01,-4.28495288e-01,-1.03843307e+00, 3.07720184e-01},
 {-9.16306496e-01, 3.45904016e+00, 1.35596180e+01, 9.61421013e-01,
   3.87581944e+00, 3.03582287e+00,-7.70161986e-01,-3.89557338e+00,
   1.84119821e+00,-3.86762023e-01,-7.44876862e-01, 2.54473901e+00,
   3.41888696e-01,-1.25357497e+00,-5.94738674e+00,-1.72943759e+00,
  -8.90779197e-01, 8.63362217e+00, 2.33972096e+00,-1.94824362e+00,
  -4.18370962e+00, 1.90913022e-01,-4.21869963e-01, 9.70652819e-01,
  -5.32733583e+00,-1.90351820e+00,-8.33152056e-01, 7.58830166e+00,
   7.13848710e-01, 2.77273148e-01, 2.66409802e+00,-2.95953846e+00,
   3.76431882e-01, 1.16351020e+00,-1.93786398e-01, 5.32060444e-01,
   1.63373303e+00, 1.17228067e+00,-1.59110236e+00,-1.06440771e+00,
  -2.10565138e+00, 2.58559704e+00,-4.61953580e-01,-5.61871958e+00,
   9.60960567e-01,-1.03817058e+00,-5.24969578e-01,-8.08451295e-01,
  -2.45021939e+00, 1.09717798e+00, 2.04085207e+00,-5.29101908e-01,
  -1.52973735e+00,-4.50877714e+00, 1.42893600e+00,-5.11698782e-01,
  -4.93376851e-02,-6.54180288e+00, 1.75903630e+00, 3.26251316e+00,
  -2.36809039e+00, 3.93203855e+00,-8.74839425e-01,-1.70076564e-01,
  -5.22001410e+00, 1.92071819e+00,-2.70944405e+00, 1.83242595e+00,
  -1.07773232e+00, 5.34081340e-01, 2.32649565e+00, 1.47443008e+00,
   1.30347276e+00,-1.38678801e+00,-3.77042770e+00,-4.80330102e-02,
   1.38603047e-01,-7.01644957e-01,-1.36632308e-01, 6.07625917e-02,
  -1.56600881e+00, 3.71129465e+00, 4.88283783e-01,-3.03853703e+00,
  -1.44248322e-01, 1.14751494e+00,-6.27468586e-01,-1.72170269e+00,
   3.96252680e+00,-5.03323078e+00, 1.08620620e+00, 7.24682665e+00,
  -1.75720528e-02,-6.29956579e+00, 4.98943710e+00, 5.23913264e-01,
  -2.90816879e+00,-9.15491641e-01,-3.83408761e+00, 3.35960126e+00,
   1.67018864e-02, 2.32116342e+00,-8.59161186e+00,-1.81097946e+01,
   4.25419855e+00, 5.22948790e+00,-4.77674365e-01,-3.27543736e+00,
   1.67187846e+00, 1.52906740e+00,-3.01637769e+00, 3.21772766e+00,
  -1.67737746e+00,-2.99869227e+00,-1.09722757e+00,-9.20019031e-01,
  -7.87794769e-01, 6.42794657e+00,-7.06756935e-02,-4.12404150e-01,
   4.30642557e+00, 2.46556807e+00,-1.21005058e+00, 2.11776400e+00,
  -3.27504253e+00,-1.37897420e+00,-2.79410028e+00,-2.26155019e+00},
 { 3.88976522e-02, 9.25270990e-02, 2.02982575e-01, 8.04987252e-02,
  -2.05179509e-02, 5.26974535e+00,-1.50263384e-01,-8.03877562e-02,
  -2.59827469e-02,-2.13500950e-02, 2.88668305e-01,-3.29535186e-01,
  -2.48095584e+00, 2.23388635e-02,-4.67194319e-01, 3.12291086e-02,
   7.10546851e-01,-3.05990607e-01,-1.97372548e-02, 1.60555597e-02,
   9.27933399e-03,-1.02067821e-01, 1.08177483e+00,-1.16051631e-02,
  -2.70816591e-02,-5.56484982e-02,-3.93615067e-02,-3.64589244e-02,
   1.33086201e-02, 1.08413696e-02,-1.97727442e+00, 4.85279784e-03,
   1.01877168e-01,-1.27912676e-02, 4.07118760e-02,-1.23738689e+01,
   1.79129243e-01, 2.19121605e-01, 2.42477655e-01, 1.61090808e-03,
   8.37214291e-03, 2.65385807e-02, 5.64450771e-02,-4.49624985e-01,
  -5.39714145e-03, 1.67704359e-01, 1.92854512e+00, 2.31408849e-01,
   2.36010877e-03,-1.21352552e-02,-4.72804718e-02, 3.65709839e-03,
   3.82596813e-03,-1.61946982e-01,-1.11951716e-01, 4.88388576e-02,
   9.12842900e-02,-1.95419807e-02,-3.13836336e-02,-3.52981639e+00,
  -3.96775842e-01, 1.87243298e-02,-6.22930899e-02,-1.49300462e-02,
  -2.43805990e-01, 1.48391366e+00, 2.10999131e+00,-1.19616240e-02,
   6.77003098e+00, 3.84667702e-02, 1.74700961e-01, 3.61252576e-03,
   3.06747317e-01, 3.51663418e-02, 2.83369664e-02, 2.78716963e-02,
  -5.03350515e-03,-2.02806070e-01, 2.05443859e+00,-3.91762185e+00,
   6.50616288e-02, 2.74343006e-02,-4.62786287e-01, 9.18194931e-03,
  -4.02219343e+00,-8.61855447e-02, 9.14701581e-01,-1.22123554e-01,
   3.67742516e-02, 3.56525891e-02, 1.61775034e-02,-4.20791656e-02,
   1.98404506e-01,-2.18370184e-02,-4.54269983e-02,-5.73523331e+00,
  -1.05685666e-02, 4.29883927e-01,-6.43638015e-01, 1.38344830e-02,
  -6.85590925e-03, 4.62578901e-04, 1.39842308e+00,-7.01844990e-02,
  -1.63255353e-02, 4.54817601e-02,-1.19302869e-02, 3.03556826e-02,
   1.53891623e-01, 1.08671598e-02,-1.18719660e-01, 2.23034211e-02,
   1.02699269e-02, 1.05125589e+01,-2.28507948e+00,-8.55443813e-03,
  -1.75210964e-02, 1.18961740e+00,-6.79757357e-01, 2.51120520e+00,
  -4.47301149e-01,-1.56693570e-02,-1.29288578e+00,-1.84926361e-01,
   2.02297553e-01, 3.98479839e-04,-5.48370183e-02, 2.26331210e+00},
 { 6.03673398e-01, 1.60384130e+00,-2.09692076e-01,-2.59260464e+00,
   9.63939369e-01, 2.15659523e+00, 3.07678628e+00, 1.13916326e+00,
  -3.94696808e+00,-3.20473433e+00, 8.84803057e-01, 1.26507652e+00,
   4.51190285e-02, 3.29157293e-01, 1.47992432e+00, 8.99977863e-01,
  -3.06668591e+00, 2.39646047e-01,-6.19055331e-01, 1.32892489e+00,
  -2.67333865e-01,-2.50613570e-01,-1.05156183e+00,-1.60272896e+00,
   3.00772227e-02,-1.83442354e-01,-1.36167502e+00,-3.34895492e+00,
  -6.05544925e-01,-1.35409307e+00,-1.78162932e+00, 1.75693822e+00,
   1.75500214e+00,-9.36663246e+00,-3.01340520e-01, 3.40736240e-01,
  -3.11751413e+00, 1.70280254e+00,-3.44666338e+00,-1.00720334e+00,
   1.19968760e+00,-8.08153808e-01, 8.57407868e-01,-4.74206257e+00,
  -1.17699122e+00,-5.87349701e+00, 1.64716280e+00, 8.42470706e-01,
   3.82994819e+00, 1.77625525e+00, 2.52309561e+00,-3.27070564e-01,
  -2.17309666e+00, 2.42188454e-01,-1.07710421e+00,-4.81168985e-01,
  -4.38555717e-01, 9.99418259e-01, 3.62180352e+00, 6.32216394e-01,
  -1.30548179e-01, 1.22182310e-01, 3.31428051e+00, 8.47436726e-01,
   7.22076416e+00,-1.14224505e+00,-3.05468297e+00, 2.91759706e+00,
  -2.04033589e+00,-6.29814863e-01,-4.61050838e-01,-4.58480835e+00,
  -7.10404098e-01, 4.43259090e-01,-1.91523755e+00,-4.86786097e-01,
  -2.66355604e-01,-2.30045581e+00,-2.34178329e+00, 4.77315873e-01,
   1.45148206e+00, 1.63790613e-01, 5.92321098e-01, 9.54037368e-01,
   1.89894128e+00, 4.03547525e-01,-1.67025638e+00,-7.60227084e-01,
   1.83446598e+00, 1.08584416e+00,-4.28986430e-01, 7.47473955e-01,
  -1.87921476e+00,-1.75080478e+00,-9.25433159e+00,-1.30599499e+00,
   1.67033911e+00, 2.56042409e+00, 2.24332881e+00,-1.72319651e+00,
   3.24823797e-01,-1.28803885e+00, 2.50157452e+00, 1.79035878e+00,
  -1.87429440e+00,-5.02184153e-01,-1.08969855e+00,-3.90602469e-01,
   2.20714331e+00, 2.31189374e-02, 2.72451043e+00,-1.02141607e+00,
  -4.59915757e-01,-4.54533964e-01,-2.01639414e+00,-5.80857635e-01,
   2.15728045e+00,-6.23442419e-02,-1.44285810e+00,-6.64943159e-01,
  -1.29931319e+00,-1.60275280e+00,-3.57891512e+00,-1.21316338e+00,
   1.93967044e-01, 8.74522626e-01,-5.08402491e+00,-4.77968752e-01},
 { 1.08996844e+00,-7.26521462e-02,-8.79705667e-01, 1.16190957e-02,
  -1.34197867e+00,-4.86022282e+00, 8.06635618e-01, 6.67185831e+00,
  -5.54885054e+00, 1.08993873e-01,-5.61917610e-02, 6.02246094e+00,
  -4.30349866e-03, 5.56574154e+00,-6.02181196e+00,-2.77565551e+00,
  -1.12193143e+00, 5.73397338e-01, 2.05818057e+00, 2.64194250e+00,
   7.33157754e-01,-5.74818179e-02,-1.72325695e+00,-2.63623118e+00,
   5.94189107e-01,-5.56554079e+00, 2.76132011e+00, 2.07772274e-02,
   1.98234129e+00, 8.51002395e-01, 2.35353136e+00, 2.20117712e+00,
   7.48058921e-03, 2.04330117e-01, 3.46275496e+00, 1.65613554e-02,
  -9.79170278e-02, 2.85713702e-01, 2.83837169e-01, 2.21598387e-01,
   9.46597040e-01,-2.14501709e-01,-3.69831729e+00,-6.51983202e-01,
  -1.31297135e+00,-6.33005917e-01, 1.72700834e+00, 2.10537076e+00,
  -1.03879464e+00,-1.60667634e+00,-4.36883479e-01,-8.13135326e-01,
   7.64819011e-02,-5.36134746e-03,-2.14937067e+00, 1.87020445e+00,
  -4.02747393e-01, 2.64274329e-01,-2.18599963e+00,-2.66498208e-01,
   2.61011124e+00,-5.73666871e-01,-1.59276831e+00,-4.39459890e-01,
   4.99869227e-01, 4.26610596e-02,-7.96771228e-01, 7.07478404e-01,
   8.87609124e-01,-2.86916733e-01,-4.74943209e+00, 4.08871740e-01,
   2.97457433e+00, 2.69652247e+00, 9.07604396e-01, 4.22984123e+00,
  -2.37036324e+00,-1.61740512e-01, 3.88846807e-02, 3.69973369e-02,
   6.63120821e-02, 2.29249466e-02,-3.41993719e-01,-2.10828733e+00,
   2.12997958e-01,-4.86011934e+00,-1.58049837e-01,-9.06316489e-02,
  -1.67661875e-01, 3.00353646e+00,-1.65082097e-01, 3.87701333e-01,
  -8.67708921e-01,-1.19772077e+00, 3.62727977e-02,-7.34801245e+00,
   1.47681877e-01, 1.28068432e-01, 1.74833849e-01,-4.69810247e-01,
  -9.96785700e-01,-9.82326150e-01, 2.20350027e+00, 1.97893605e-01,
  -3.52790737e+00,-8.13796806e+00, 1.90975988e+00, 8.78502369e-01,
  -6.62353560e-02,-7.86518812e-01, 2.31367141e-01,-1.20804024e+00,
  -1.23930478e+00, 3.88922513e-01, 5.06136239e-01, 2.00977182e+00,
   3.22074628e+00, 3.75459218e+00, 2.38483399e-01,-6.39840513e-02,
  -5.40990829e+00,-6.02002954e+00,-1.35051444e-01,-1.58224750e+00,
   3.68707590e-02, 1.13719952e+00, 1.45835054e+00,-5.54650187e-01},
 {-4.95057791e-01, 1.85660869e-01,-7.50304878e-01,-9.88919958e-02,
  -1.35383654e+00,-4.58376646e+00, 6.61299765e-01,-6.99932158e-01,
  -7.49040079e+00,-3.83006144e+00, 1.35535836e-01, 2.22738242e+00,
  -2.32345629e-02,-1.05026448e+00, 4.37283516e+00,-2.79778337e+00,
  -1.04221010e+00, 1.63232672e+00,-1.24148905e-01, 2.87326336e+00,
   6.78133249e-01, 4.99022871e-01,-1.34976130e+01,-2.61367083e+00,
   5.34999251e-01,-1.07025480e+01,-3.59521246e+00, 1.40359730e-01,
   2.74417710e+00, 9.41064835e-01, 1.66388440e+00,-4.36371756e+00,
   4.93951368e+00, 5.11452496e-01, 1.70041013e+00, 5.09238020e-02,
  -1.33194685e-01, 1.22640736e-01,-1.62811130e-01, 8.15205693e-01,
   2.69130421e+00, 8.63465443e-02,-4.73134130e-01,-5.97200692e-01,
  -5.76640987e+00, 1.24808693e+00, 1.75235713e+00, 2.97851205e+00,
  -7.18455017e-01, 1.66589952e+00,-5.73236763e-01, 2.90005136e+00,
   7.44036317e-01,-5.50448932e-02,-3.67138410e+00, 2.58661675e+00,
   3.94440269e+00, 2.93013155e-01,-2.73794651e+00,-1.30278587e+00,
   1.98930717e+00,-4.48976129e-01, 8.50063419e+00,-5.16394913e-01,
   6.19997168e+00, 1.35634392e-01,-2.98914671e+00, 4.85347718e-01,
   2.77433366e-01,-4.69221264e-01,-3.12170553e+00,-9.65158367e+00,
   6.92109251e+00, 3.39062476e+00, 1.44276786e+00, 7.94216573e-01,
   6.70033917e-02,-2.75098652e-01, 9.56204459e-02, 1.16678640e-01,
   2.52288487e-02,-8.44467878e-02,-6.40606403e-01, 6.08886480e-01,
   1.08345933e-01,-4.11785507e+00,-7.31789246e-02, 1.50355017e-02,
  -3.22034657e-01, 2.26899552e+00,-1.98802754e-01, 8.86873245e-01,
  -7.79347539e-01,-7.87134111e-01,-1.07301464e+01,-2.87961340e+00,
   5.66571295e-01, 3.63937020e-01, 5.78772902e-01,-7.86540329e-01,
  -1.14752042e+00,-1.30975142e+01, 5.06367397e+00, 2.27103963e-01,
  -2.45160890e+00, 3.49025106e+00,-2.10095811e+00, 1.00180757e+00,
   3.30399007e-01,-8.53328109e-01, 5.47752261e-01,-3.86144567e+00,
  -1.63866028e-01, 2.15514928e-01,-1.39753027e+01, 6.10047221e-01,
   3.05910993e+00,-2.94031572e+00, 2.92156965e-01,-2.54735661e+00,
  -5.18485212e+00, 2.25168610e+00,-4.56799716e-02,-1.68333263e+01,
  -2.59461731e-01, 4.63658094e+00, 1.60928500e+00,-5.08372545e-01},
 { 2.45195961e+00, 8.85713547e-02, 1.17986119e+00,-2.68057976e-02,
   1.71072733e+00, 4.69282579e+00, 5.64604378e+00,-6.02111626e+00,
   6.80147219e+00, 3.61967063e+00, 2.87988842e-01,-4.92502880e+00,
  -5.76818138e-02,-5.35212040e-01,-6.34373093e+00,-1.09284008e+00,
   3.14543545e-01, 1.07705832e+00,-1.56996652e-01,-2.58845830e+00,
  -1.83456349e+00, 1.92991599e-01,-1.13937759e+01, 1.77353191e+00,
  -7.88512647e-01,-5.02197564e-01, 3.06360507e+00, 6.32311046e-01,
   1.80165187e-01,-9.29791927e-01,-1.02475053e-02,-2.76859331e+00,
  -7.21824169e+00,-1.17625582e+00,-7.34693706e-01,-1.96938798e-01,
  -2.98404902e-01, 1.23962775e-01, 1.21965873e+00,-3.03081512e-01,
  -4.48032856e+00,-1.58022210e-01, 6.55430794e+00, 1.35252428e+00,
   4.35303211e+00,-8.58978462e+00,-1.72428107e+00,-2.91055179e+00,
   1.43619215e+00,-4.07867479e+00,-6.29014492e-01,-2.94154596e+00,
  -2.32509279e+00, 8.34821701e-01,-1.85579407e+00,-7.41459036e+00,
  -5.83664274e+00, 7.30722487e-01, 1.85877049e+00, 1.50959158e+00,
  -1.52709186e+00,-7.82419145e-01,-3.54248405e+00, 4.19562191e-01,
  -9.40276241e+00,-1.25506178e-01,-8.64884090e+00,-4.35465962e-01,
  -3.17214727e+00, 9.97208416e-01, 4.13892555e+00, 4.90336943e+00,
  -1.03512545e+01,-1.76473367e+00,-2.14375854e+00,-1.48808420e+00,
   8.32289338e-01,-2.48002037e-01, 4.27257158e-02, 4.93816525e-01,
  -2.43156910e-01,-9.29803476e-02, 3.05762202e-01,-3.46066266e-01,
  -2.12470606e-01,-3.79662299e+00, 2.31393769e-01,-3.38759162e-02,
   6.45060122e-01,-1.33509612e+00, 1.78053394e-01, 1.27450311e+00,
   8.14965129e-01, 5.87700784e-01, 9.57342434e+00, 6.21588945e+00,
  -1.93694007e+00, 6.81282461e-01,-9.70765471e-01, 3.03159744e-01,
   1.60063863e+00, 2.98724961e+00,-1.94378868e-01,-2.67378360e-01,
   1.97858286e+00,-7.39973783e-01, 1.87308609e+00,-6.38847291e-01,
   3.21380138e-01, 4.07993555e-01,-1.68836653e-01,-2.87437979e-02,
  -7.11743784e+00,-2.43246540e-01,-1.90279734e+00, 3.07433754e-01,
  -4.25099850e+00,-1.56675065e+00,-3.32215101e-01,-2.35854793e+00,
   1.37538075e+00,-1.64851344e+00, 6.68382365e-03,-2.65123558e+00,
  -3.09246909e-02,-3.80413318e+00,-6.28924251e-01, 3.55748057e-01},
 {-1.37362242e+00,-1.82971001e+00,-1.02397823e+01,-8.85122204e+00,
   2.13618612e+00,-6.21899939e+00,-6.10231256e+00,-2.73765635e+00,
   2.50652719e+00,-1.46553338e-01, 1.24541903e+00,-1.77090704e-01,
  -9.24738050e-01,-3.89974761e+00,-5.47496891e+00,-2.31276438e-01,
  -6.65742540e+00,-6.46598935e-01, 3.46193600e+00,-1.28645802e+00,
  -3.23668933e+00,-3.27324957e-01,-1.14644766e+00, 1.63196754e+00,
  -2.88775063e+00,-8.05772686e+00,-1.00987375e+00,-2.52756858e+00,
   2.87049636e-02,-4.51691270e-01, 4.13062763e+00,-2.57446170e+00,
  -6.57165647e-01, 2.04285383e+00, 1.99543267e-01, 8.33940029e-01,
   2.74149346e+00,-4.97318649e+00,-1.04970858e-01,-3.34269702e-01,
  -2.39986587e+00,-4.72914904e-01, 4.35022175e-01, 1.01107740e+00,
   1.99933016e+00,-1.20885551e+00,-7.37024486e-01, 2.90802360e-01,
  -2.22820139e+00, 8.05903554e-01,-1.61033678e+00,-5.76889992e-01,
   4.19314814e+00, 5.08011055e+00, 2.01965785e+00,-3.32811296e-01,
  -3.23469967e-01,-3.74871755e+00,-5.40613413e-01, 1.48578227e+00,
   1.81453073e+00,-2.42570281e+00,-1.97811449e+00,-1.21925755e+01,
  -3.73091459e+00,-1.09468269e+00, 8.89855623e-01, 1.69576550e+00,
  -1.33621540e+01,-1.40438282e+00, 4.93272018e+00, 1.67804384e+00,
   1.01664305e+00,-1.87660909e+00, 2.36531526e-01,-5.34765601e-01,
   6.57201529e-01, 1.43862808e+00, 5.28632641e-01,-6.06302202e-01,
   1.74779308e+00, 7.94212103e+00,-2.83830810e+00,-2.47869205e+00,
  -4.11069250e+00,-2.70419180e-01, 4.67399693e+00, 7.93723583e-01,
   3.10345817e+00,-6.05106115e+00,-3.83799696e+00, 2.07869077e+00,
   6.79592907e-01,-2.95451069e+00, 4.75861740e+00, 3.42411160e-01,
  -6.82988882e-01, 3.87793374e+00,-5.47737455e+00,-9.64078665e-01,
   1.01926722e-01, 4.18222809e+00, 1.49300385e+01,-5.43548298e+00,
   3.00487113e+00, 3.59655571e+00, 2.06267267e-01, 2.49833673e-01,
  -4.84702301e+00,-8.15661103e-02, 8.44774818e+00, 3.67180872e+00,
  -1.17326584e+01, 2.45464444e+00,-9.13136482e-01,-1.91220903e+00,
  -3.30636334e+00, 1.80365443e+00,-5.60487211e-01, 6.97094426e-02,
   5.90300322e+00, 3.08233309e+00,-4.49094486e+00, 1.84787321e+00,
   3.15769768e+00,-2.27401185e+00, 5.01908720e-01,-9.23603654e-01},
 {-6.09612465e+00,-5.41863263e-01,-2.91583568e-01,-1.76243448e+00,
  -8.11101437e-01, 1.03541315e-01,-9.28891277e+00,-1.61190689e+00,
   7.37308550e+00,-5.41268635e+00,-4.28628415e-01, 1.82182944e+00,
   1.03423826e-01,-9.83576870e+00, 2.93442369e+00, 1.59852600e+00,
  -1.52694106e+00,-2.62109667e-01,-5.53299904e+00, 2.11447692e+00,
  -5.86747169e-01,-1.79601878e-01, 7.05005980e+00,-2.68275678e-01,
   6.85539782e-01,-2.48648095e+00, 6.05486155e-01,-2.50276148e-01,
   8.59061956e-01,-2.35422182e+00, 1.22953522e+00, 7.44810343e-01,
   1.31044829e+00,-1.20462072e+00, 2.44378638e+00, 2.41254997e+00,
  -2.27288508e+00,-1.71700090e-01,-1.83570981e-01,-3.47832203e-01,
  -3.05022550e+00, 5.63108206e-01,-2.00611997e+00, 5.74071693e+00,
   7.39632785e-01,-5.92760372e+00, 1.84900761e+00,-8.69914532e-01,
  -1.07722402e+00, 3.72215915e+00, 8.79321754e-01,-3.29774594e+00,
   8.50301504e-01,-5.17407898e-04,-1.15368283e+00,-3.73633480e+00,
  -3.06591630e-01, 1.89596605e+00, 5.28220558e+00, 2.32328057e+00,
  -1.24384677e+00,-1.35331482e-01, 5.41100621e-01, 2.01069617e+00,
  -1.44621551e+00,-9.94775355e-01,-2.63695002e+00,-2.53731489e+00,
  -2.56474471e+00,-1.83917904e+00, 2.38065910e+00,-4.61786556e+00,
  -7.50136948e+00,-6.74404430e+00,-1.04417264e+00,-1.07281423e+00,
  -3.89441156e+00, 1.10182488e+00, 9.77266252e-01, 8.75233173e-01,
   2.17816591e+00, 2.60895705e+00, 3.40560764e-01,-3.09737754e+00,
  -1.23256147e+00,-2.21742821e+00, 7.84605145e-01,-1.09450138e+00,
  -2.65627170e+00,-7.91689444e+00,-2.01973009e+00,-4.15083408e-01,
   2.63586068e+00,-2.74269176e+00, 2.60460210e+00, 2.86169910e+00,
   1.33515760e-01, 7.97559500e-01, 1.28006172e+00, 3.49527180e-01,
  -1.33626118e-01, 9.60671329e+00,-1.01957309e+00, 1.37653863e+00,
   2.14758492e+00, 1.41398638e-01,-2.95562482e+00,-1.11431062e+00,
   1.82489991e+00,-3.46573174e-01,-6.86583519e-01, 5.83859825e+00,
  -8.59311759e-01, 2.97013521e+00, 3.09945464e+00,-6.65146971e+00,
  -9.94708157e+00,-5.44965935e+00, 3.26037169e-01,-1.41898108e+00,
  -1.56369853e+00,-1.12528734e+01,-1.65389502e+00, 4.72768307e+00,
   1.09306622e+00,-3.31827068e+00,-1.76637530e+00, 1.63836288e+00}};

const float b2[sz_hid_2] = { -6.07563   , -3.1129153 , -0.10378592, -0.10252906, -0.1650089 ,
  -5.6827893 , -3.985586  ,-10.636938  ,  2.2352335 ,  3.3722405 ,
  -4.1935406 , -1.9819887 , -0.07984941, -3.1929464 , -0.22693802,
   0.6074218 , -1.7971638 , -2.7857978 ,  0.7132229 ,-10.0278225 ,
  -2.1246622 ,  3.1257553 , -3.461475  ,  8.300317  , -2.3398123 ,
   0.34585282, -4.9925327 ,-11.644496  ,  2.3499217 , -4.816156  ,
   0.25349677,  6.3160343 };

const float w3[sz_act][sz_hid_2] = {{ 6.54717028e-01, 3.39107156e-01, 1.46316916e-01,-2.72603962e-03,
   5.71830310e-02, 5.97675622e-04,-5.28650656e-02, 1.31358519e-01,
  -1.44818220e-02, 3.96476313e-03,-2.10512713e-01, 1.19105554e+00,
   7.84151405e-02,-2.65413016e-01,-5.21294307e-04,-7.11296045e-04,
  -4.32505041e-01,-1.39482156e-03,-3.48280650e-03, 4.22967458e-03,
  -1.67906226e-03, 1.31352276e-01, 1.27881274e-01,-1.56656012e-01,
  -5.64958295e-03, 3.88486357e-03, 1.22743636e-01, 1.71643361e-01,
   1.39292836e-01,-1.22238465e-01, 6.97004125e-02,-1.00989270e+00},
 { 5.75961266e-03, 1.26788393e-02, 1.03770837e-01,-1.69179797e-01,
   4.40114439e-02,-1.43450752e-01, 2.11895362e-01, 2.55212665e-01,
  -1.75923347e-01,-2.09003106e-01,-5.81482425e-03, 3.41324583e-02,
  -7.05585927e-02,-8.27749819e-03, 1.94206014e-01,-1.33025602e-01,
   9.99183301e-03,-3.03430557e-01,-1.37678310e-01, 2.00894818e-01,
   1.13362342e-01, 3.14668310e-03, 1.86390488e-03, 1.17311836e-03,
   2.50981480e-01,-1.68257892e-01,-1.99492514e-01, 7.17492588e-03,
  -5.03630436e-05,-7.86399003e-04, 3.92746031e-01,-3.45927593e-03}};

const float b3[sz_act] = {-0.34817657, 0.26836887};

