const float w1[sz_hid_1][sz_obs] = {{ 5.48094660e-02, 2.06278283e-02, 1.98855311e-01,-3.50032997e+00,
  -2.42131782e+00,-8.06259096e-01,-5.68862855e-02, 1.60274923e+00,
  -2.26307772e-02},
 { 1.76957715e-03,-2.27253907e-03, 7.89742172e-01, 1.08487034e+00,
  -7.70542860e+00,-7.61749089e-01,-9.79001354e-03, 9.32540989e+00,
   3.92624736e-02},
 {-5.96732259e-01, 4.46885824e+00, 4.92019415e+00, 2.60513604e-01,
  -1.19070959e+00, 3.28806818e-01,-4.44539070e+00, 1.37166798e+00,
   8.79897833e-01},
 {-2.46715173e-02, 1.99152180e-03, 2.80806035e-01, 5.93843555e+00,
   3.17935658e+00, 9.38013077e-01, 6.20842399e-03,-1.16949005e+01,
  -7.70445308e-03},
 { 4.70171161e-02,-2.22928505e-02, 1.61587751e+00,-2.40923420e-01,
   7.33627915e-01, 6.68649018e-01, 4.77263853e-02, 5.73265076e+00,
  -2.36154437e+00},
 { 2.26661369e-01, 2.51468476e-02, 1.26258383e+01, 7.60114044e-02,
  -1.35878950e-01, 2.14140862e-01,-4.20435190e-01, 1.48777544e-01,
  -5.14723249e-02},
 {-2.46165227e-02, 2.29355767e-02, 2.17758238e-01, 2.33295965e+00,
   2.80891371e+00,-2.97073811e-01, 3.58227547e-03, 9.80932617e+00,
  -7.79000893e-02},
 {-1.85110927e-01, 6.69432953e-02, 2.64497232e+00,-3.50592828e+00,
  -1.70204318e+00,-1.69680452e+00, 1.85501561e-01,-3.40440774e+00,
  -2.41831779e+00},
 { 8.47985968e-02, 6.52775019e-02, 2.15030387e-01, 2.53112483e+00,
   3.07185984e+00,-1.61755478e+00,-1.15723506e-01,-1.50323856e+00,
   1.76056409e+00},
 { 2.82594943e+00, 8.40110898e-01, 7.50861979e+00, 1.84355602e-02,
   1.90305840e-02, 4.99813408e-02,-4.14840555e+00,-3.14993151e-02,
  -7.57179921e-03},
 { 5.04780006e+00, 9.24607277e-01, 3.74932550e-02,-1.05689070e-03,
  -5.63197210e-03, 2.84663588e-02, 1.07411213e+01, 1.26780812e-02,
   3.04233879e-02},
 {-3.57008502e-02, 9.36238393e-02,-3.61142373e+00,-3.98801255e+00,
  -1.71302974e+00,-2.62399173e+00, 1.97493657e-01, 2.17422605e+00,
   3.02425122e+00},
 { 5.34888208e-02, 3.36800143e-02, 4.13787365e+00,-3.14475513e+00,
  -1.60524070e+00, 1.38187301e+00,-3.20307724e-02,-2.02074575e+00,
  -3.34512973e+00},
 {-2.70467132e-01, 3.20451632e-02, 1.35004890e+00, 2.05209804e+00,
   3.44534445e+00,-1.07406831e+00, 4.04142559e-01,-5.22326851e+00,
  -4.33869362e+00},
 {-4.00326878e-01, 4.34235382e+00, 2.11102486e+00,-3.98706794e-01,
   5.36685467e-01,-2.97884077e-01,-5.17070293e+00,-7.06806004e-01,
  -2.04737663e-01},
 { 9.57861900e-01, 1.66364074e+00,-3.41522026e+00,-1.82105422e+00,
   1.05754554e+00, 1.89837193e+00, 3.99840403e+00, 4.72910762e-01,
  -2.18931198e+00},
 {-1.03859174e+00,-3.68263841e-01,-5.44950104e+00,-4.26468775e-02,
   5.08572487e-03,-1.49865776e-01,-5.12993813e+00,-1.23491883e-02,
  -6.77895080e-03},
 { 1.97138842e-02, 3.16582397e-02,-2.78596818e-01, 2.31627488e+00,
   6.50289834e-01,-2.63979506e+00,-3.24084461e-02,-8.62384200e-01,
  -2.49570203e+00},
 {-8.08873996e-02, 1.72397912e-01,-7.11474848e+00, 4.39042598e-02,
   2.45986581e+00,-6.36339262e-02, 1.00830443e-01,-5.65410137e-01,
  -4.79422617e+00},
 { 5.18533681e-03, 2.42071617e-02, 1.19754324e+01,-3.81322354e-02,
  -8.48247111e-03,-6.37929663e-02, 7.56102428e-02,-4.53516754e-04,
   2.56684935e-03},
 {-1.43956859e-02, 4.40844381e-03,-4.55353409e-01, 2.70530367e+00,
  -2.07372952e+00, 5.14272392e-01, 2.77109421e-03,-1.00710258e+01,
  -1.60731487e-02},
 { 3.70456433e+00, 4.69976962e-01,-3.96429324e+00,-8.64271224e-02,
  -2.53410675e-02,-5.83935902e-02, 7.96962309e+00, 8.89150947e-02,
  -4.28497978e-03},
 { 2.53033876e-01, 2.69509625e+00, 7.03851461e-01, 1.80332139e-02,
  -1.26414960e-02,-6.12769015e-02,-1.48589408e+00,-9.55629628e-04,
   2.08409131e-02},
 { 1.92564070e-01,-4.82192449e-02,-2.67840595e+01, 2.88334815e-03,
   1.76864732e-02,-4.11639512e-02, 5.90212107e-01,-5.39361387e-02,
  -3.53798233e-02},
 {-2.00310993e+00,-1.54105037e-01,-2.74335051e+00,-8.56068823e-03,
  -2.29147752e-03,-3.87402214e-02, 4.08066559e+00,-3.69351618e-02,
   1.93149950e-02},
 {-1.31813884e-01, 2.73545146e-01,-5.63498640e+00,-7.64193833e-01,
  -2.26608801e+00, 4.28400636e-02, 4.98055547e-01, 3.34036589e-01,
   4.99737215e+00},
 {-1.59502769e+00,-4.59246731e+00,-1.32163084e+00, 4.26352881e-02,
  -3.29703987e-02, 1.51177913e-01, 2.58598256e+00, 2.71905929e-01,
   3.04900464e-02},
 { 3.34686565e+00,-1.44923306e+00, 1.02348924e+00,-5.87288709e-03,
   5.89199327e-02, 2.25943662e-02,-9.41295147e+00,-1.39125109e-01,
  -2.04000194e-02},
 {-2.13447772e-02, 5.98049443e-03,-1.26595700e+00, 1.00447905e+00,
  -1.55732119e+00,-1.54772788e-01,-2.63077527e-04, 1.45080602e+00,
   3.40682101e+00},
 {-6.63422346e-02,-3.37187983e-02,-1.66246748e+00, 2.63125420e+00,
  -5.08923388e+00, 1.51956213e+00, 2.58040102e-03, 2.56149864e+00,
  -2.83758312e-01},
 {-4.94387350e-04, 3.01147047e-02, 2.63144284e-01,-2.12124467e+00,
   6.55027449e-01, 2.41509154e-01,-6.39407197e-03,-4.53782260e-01,
  -4.46531326e-02},
 { 1.78930402e+00,-2.02030563e+00,-3.15097235e-02, 1.56018045e-02,
  -1.38884410e-02,-1.92739218e-01, 5.85498047e+00,-1.19445622e-02,
   2.96151061e-02},
 { 1.44489454e-02,-7.43127242e-02, 5.08681011e+00, 2.97195339e+00,
   2.07429028e+00, 3.94256890e-01,-7.18442863e-03,-4.78545666e+00,
   3.17719483e+00},
 {-9.34191141e-03,-9.29004513e-03,-2.23831177e+00,-1.99310684e+00,
   1.29285812e+00, 3.20759535e-01, 6.14768490e-02, 3.49944019e+00,
   3.26173162e+00},
 { 3.70607991e-03,-3.89131419e-02, 5.48309786e-03,-2.64534497e+00,
  -5.05812120e+00,-1.05728638e+00, 4.52869423e-02,-3.73671627e+00,
  -4.15630601e-02},
 {-4.48572636e-03,-1.45265600e-02,-2.39611387e+00, 1.04170978e+00,
   1.20396471e+00, 1.55206609e+00,-1.04287025e-02,-3.83227468e+00,
  -2.31022382e+00},
 {-1.09979331e-01, 8.81732926e-02,-5.23867512e+00,-2.47835946e+00,
  -1.32585657e+00, 3.93425554e-01,-3.47004570e-02,-2.89395094e+00,
   3.66401577e+00},
 {-2.41825096e-02,-2.99298554e-03, 4.40482759e+00,-1.69142914e+00,
   2.80746341e+00,-1.81987867e-01,-2.32550222e-02,-2.14429188e+00,
   8.87091681e-02},
 {-1.39276519e-01,-4.52568419e-02,-4.72185522e-01,-4.81786394e+00,
   1.18613589e+00, 1.08644557e+00, 5.65389656e-02, 5.08410111e-02,
   3.29632807e+00},
 { 3.42300272e+00,-2.64494348e+00,-2.72069192e+00, 1.49542615e-02,
  -1.23876417e-02,-5.53029403e-02, 1.07577200e+01, 1.88841694e-03,
  -1.25476718e-02},
 {-7.29324110e-03, 6.05491959e-02,-5.56320786e-01, 2.45378089e+00,
   5.82008481e-01,-2.37484717e+00, 1.29796844e-02,-1.09603679e+00,
   2.86177015e+00},
 { 7.06667826e-03,-6.95960829e-03,-3.53720576e-01, 8.72185603e-02,
  -7.13818800e-03,-7.52785969e+00,-4.44089092e-04, 1.01047501e-01,
   5.94864190e-02},
 { 8.25042725e-01,-3.20474315e+00,-4.22847462e+00,-4.30144593e-02,
  -1.00337025e-02,-1.16424680e-01, 5.81463575e+00, 1.61016919e-02,
  -4.75812005e-03},
 { 8.48497972e-02,-1.43375456e-01, 9.02152443e+00,-1.09853852e+00,
   7.03475416e-01, 1.17049146e+00, 2.65385807e-01,-6.82283640e-01,
   2.78031015e+00},
 { 7.41896808e-01,-5.31802513e-03,-8.48693466e+00, 1.36392102e-01,
   1.40478760e-01, 2.07390472e-01,-4.41240519e-01,-1.37673259e-01,
  -1.80984885e-02},
 { 3.56609225e-02, 6.99501659e-04,-2.83686779e-02,-1.27628839e+00,
   6.01759017e-01,-1.16119671e+00,-4.54847813e-02, 3.57029414e+00,
  -2.29780059e-02},
 {-8.99050664e-03, 3.55331488e-02,-1.49365520e+01, 3.49495211e-03,
   2.88529415e-03, 1.74439568e-02,-7.51227289e-02,-1.55744841e-03,
  -5.89201413e-03},
 { 3.88416147e+00, 2.49721479e+00, 4.05551529e+00, 1.06330030e-02,
  -1.55836828e-02,-6.81112781e-02,-5.74714136e+00, 3.28161046e-02,
  -2.97778100e-02},
 { 3.09145498e+00, 1.99313498e+00,-2.30738640e+00, 1.66631918e-02,
  -4.03149845e-03, 3.32574099e-02,-2.51670551e+00, 3.18472274e-02,
  -2.48276312e-02},
 {-4.37069416e+00,-1.42064810e+00,-9.37020421e-01, 9.25785303e-03,
   9.06083956e-02,-6.89487830e-02, 1.39436030e+00,-8.10154155e-02,
   3.85322794e-02},
 { 4.33404255e+00, 2.35261178e+00, 3.84845519e+00, 1.08027635e-02,
   3.08642071e-02,-1.84037897e-03,-1.23806458e+01,-7.23750293e-02,
   2.57951058e-02},
 {-1.37570247e-01,-2.91419681e-02,-9.33693111e-01, 4.26505423e+00,
  -6.69574618e-01, 9.44260135e-02, 9.62449089e-02,-2.83695728e-01,
  -3.61469340e+00},
 {-4.10096087e-02, 2.40194097e-01, 9.96876895e-01,-2.72087622e+00,
  -3.60134959e-01,-2.86610794e+00, 1.24607749e-01, 3.00204468e+00,
  -4.72126055e+00},
 {-4.98718843e-02, 1.67077348e-01,-4.45105076e+00, 2.59354043e+00,
   9.43080664e-01, 1.02115679e+00,-2.59120408e-02,-2.22282910e+00,
  -3.50261450e+00},
 { 1.90810468e-02,-3.31733860e-02, 3.99326205e-01,-1.21755540e+00,
   1.02437484e+00, 1.75036669e+00, 2.47610092e-01,-5.88067818e+00,
  -7.34796003e-02},
 {-2.50518322e-03, 9.09718126e-02,-1.14953864e+00, 2.37434581e-01,
   3.96191740e+00, 1.09915638e+00,-9.55956616e-03,-9.02685821e-02,
   1.55181611e+00},
 { 3.12690520e+00,-1.70168769e+00, 1.66269517e+00, 1.27375731e-02,
   1.20359426e-02, 5.67599870e-02,-9.77855587e+00, 2.63248980e-02,
   8.27878190e-04},
 { 2.25896883e+00, 2.67441034e+00, 3.24630117e+00,-4.52028029e-02,
  -2.75475737e-02, 2.03503042e-01,-5.96312904e+00, 5.43721369e-04,
  -4.43851985e-02},
 { 8.50837119e-03, 1.01167314e-01,-1.52589309e+00, 2.10875407e-01,
  -6.32920504e-01, 6.98677748e-02,-1.37770586e-02, 2.90627432e+00,
   1.21410918e+00},
 { 3.52804446e+00,-2.18485379e+00,-3.60758686e+00, 1.17060192e-01,
  -2.04866324e-02, 1.27712995e-01, 6.01202965e+00, 1.77420184e-01,
  -2.09417984e-01},
 { 4.63655330e-02, 5.74067496e-02,-3.26674998e-01, 2.94430900e+00,
   3.36520696e+00, 2.11173940e+00,-6.60034269e-02, 2.23101330e+00,
  -6.67486668e-01},
 {-6.59616962e-02,-6.82162493e-02, 2.81197810e+00,-1.74496543e+00,
   7.18828857e-01,-2.67274714e+00, 9.13367122e-02, 3.95069623e+00,
   3.44965506e+00},
 {-1.41592026e-01, 6.36390075e-02,-1.41487050e+00,-2.39646459e+00,
  -1.07265484e+00,-2.52581882e+00, 4.54613194e-02,-1.29646266e+00,
   3.16961336e+00},
 {-2.35946417e+00,-9.81409311e-01, 4.48530197e+00, 4.90898564e-02,
   1.01063289e-01, 1.40245780e-01,-4.63972902e+00,-2.21931823e-02,
  -1.24715000e-01},
 { 5.92957325e-02,-4.34146337e-02,-6.73047721e-01,-2.62143966e-02,
  -3.95990443e+00,-1.42564809e+00,-1.68507081e-02, 5.32495642e+00,
   6.37521803e-01},
 {-5.71947582e-02, 7.39753321e-02, 2.75520921e+00, 2.39939213e+00,
   3.67486298e-01, 1.15064275e+00, 1.43212127e-03,-5.02792776e-01,
   2.38815928e+00},
 {-2.48634664e-04, 1.85454660e-03,-1.03349723e-01, 3.42233205e+00,
  -2.68150187e+00, 5.40952826e+00,-5.61026204e-03,-1.00057878e+01,
   3.24911028e-02},
 {-8.62224307e-03, 5.95485680e-02, 1.30963087e+00,-1.15242479e-02,
  -1.33058429e+00, 3.00444037e-01,-9.36101899e-02,-1.61515784e+00,
  -2.50649190e+00},
 { 1.23970795e+00,-6.10047996e-01, 1.92677593e+01,-2.96247080e-02,
   1.25138497e-03, 3.61097381e-02,-3.08718324e+00, 9.02264193e-03,
   7.05246162e-03},
 { 9.73686799e-02,-1.59356799e-02, 1.32838473e-01, 5.84021854e+00,
   5.02427578e-01, 8.89824867e-01,-4.69947010e-02,-9.86751842e+00,
  -2.02750526e-02},
 { 2.56267858e+00, 1.98815441e+00,-1.80395103e+00,-2.92325299e-02,
   4.24671434e-02, 5.77075891e-02, 9.06790161e+00, 1.38584785e-02,
   3.58051509e-02},
 { 4.07038629e-02, 5.81095926e-02,-4.17920208e+00, 2.85178471e+00,
   2.77422643e+00, 2.03639913e+00,-2.68197581e-02,-4.76884747e+00,
   2.51640964e+00},
 { 2.17878208e-01,-2.57799402e-02, 6.22807503e+00, 5.13872541e-02,
   2.12884307e+00, 1.25509620e-01, 2.71659549e-02, 1.63211655e-02,
   5.16563177e+00},
 {-1.17203072e-02, 2.82337470e-03, 2.32358336e+00, 9.85161602e-01,
   5.14589131e-01, 4.82476592e-01, 3.54084335e-02,-2.74972796e+00,
   4.14570427e+00},
 { 1.68638980e+00, 9.14340377e-01,-1.93718767e+00, 1.14209914e+00,
  -8.93598735e-01, 2.78617889e-01,-3.91850185e+00, 8.86357874e-02,
   2.94073105e+00},
 {-1.31891036e+00, 2.06120658e+00, 1.17701447e+00, 1.74957588e-02,
   1.42145138e-02, 2.26052161e-02,-5.49681759e+00,-4.96612340e-02,
   1.89595353e-02},
 { 2.65833065e-02,-1.43020274e-02, 7.18119681e-01, 2.66246295e+00,
   5.97300529e+00, 1.61499381e+00, 2.50783861e-02,-1.47069855e+01,
  -2.08676085e-02},
 {-6.60528755e-03, 2.32658032e-02,-1.78325832e-01,-2.27759667e-02,
  -4.52532321e-02, 5.25703526e+00,-2.61450745e-02, 1.27379608e-03,
   2.58220127e-04},
 {-6.75309956e-01,-1.12881637e+00, 1.47348583e+00,-1.45474332e-03,
   4.29715887e-02,-3.43131088e-02,-2.49462175e+00,-6.31471053e-02,
   5.02187386e-03},
 { 3.81286666e-02, 3.06683430e-03,-1.55856699e-01,-4.38824832e-01,
  -4.92794752e+00, 7.63945103e-01,-3.63008231e-02,-1.50760233e+00,
   1.77084774e-01},
 { 1.24905872e+00,-2.29077864e+00,-3.22861433e+00,-2.37833690e-02,
  -3.58837247e-02,-9.92018729e-02, 5.70635748e+00, 5.56643903e-02,
  -1.06612429e-01},
 { 7.77096152e-01, 2.87603110e-01, 5.49016333e+00,-3.02112848e-01,
   3.71769398e-01,-5.55347264e-01, 2.53805757e+00,-7.29977489e-01,
  -1.11298203e+00},
 { 2.72439402e-02, 1.01620302e-01,-1.78218424e+00, 1.07133627e-01,
   6.28674150e-01,-4.85533364e-02, 8.58026743e-03,-1.09046197e+00,
  -4.07878256e+00},
 { 2.73544956e-02,-7.40991309e-02,-3.29726505e+00, 1.34834647e+00,
   2.00513887e+00,-2.53860807e+00, 6.53782412e-02,-5.46056271e+00,
   2.87004089e+00},
 { 3.53495926e-02,-8.50120112e-02, 6.12704420e+00, 1.06083572e+00,
  -2.14722514e+00, 1.64282298e+00,-4.17461842e-02,-1.70213413e+00,
  -7.07775295e-01},
 { 4.82009268e+00, 3.99547744e+00, 1.63231051e+00,-1.24368984e-02,
   1.68793220e-02,-4.19231951e-02,-9.71461678e+00,-1.93198007e-02,
   1.77116767e-02},
 { 1.88562483e-01,-1.83885169e+00, 9.50364399e+00, 9.04075708e-03,
  -1.98346041e-02,-8.54623504e-03,-4.82293797e+00, 1.79115795e-02,
   7.17202481e-03},
 {-6.33011162e-02, 2.71729898e+00,-1.02736158e+01,-1.14814378e-01,
  -1.48440404e-02,-3.81331444e-01, 5.29269981e+00, 1.50278449e-01,
   1.36746719e-01},
 { 7.74376965e+00,-4.56788577e-02,-3.75855970e+00,-5.17189987e-02,
   5.68926074e-02,-5.92455305e-02, 3.50929856e+00,-4.72765081e-02,
  -8.93239826e-02},
 { 1.22427189e+00, 3.99987149e+00,-1.98514748e+00,-6.26535295e-03,
   6.26012385e-02,-1.74387485e-01,-2.62151074e+00,-4.30586152e-02,
  -1.70618203e-02},
 {-1.21295042e-02, 3.40101309e-02, 2.43854538e-01, 3.45750999e+00,
  -1.81386602e+00,-1.28860146e-01,-2.57803854e-02, 7.84220314e+00,
  -1.11693837e-01},
 { 5.47134057e-02, 4.41301391e-02, 3.75097036e+00, 1.42494869e+00,
   1.73551053e-01,-1.55768767e-01,-3.80125642e-02,-1.92676353e+00,
  -2.72170663e+00},
 { 3.28552628e+00,-1.81648231e+00, 3.65825582e+00,-2.76292972e-02,
   2.53058057e-02,-7.31692836e-02,-9.49562359e+00,-2.89800111e-02,
   3.98142040e-02},
 { 1.18615804e-04, 1.85233708e-02,-2.20306396e-01, 4.34016371e+00,
   7.47932434e-01,-1.37533081e+00, 1.45733624e-03, 1.15711269e+01,
  -1.00463323e-01},
 { 1.55157864e-03,-1.39858825e-02, 4.18795310e-02,-1.63800395e+00,
  -3.26971084e-01, 9.67666984e-01, 3.49227339e-02,-2.25864983e+00,
   2.65232585e-02},
 {-3.33783603e+00,-3.06961536e+00,-6.10341358e+00,-2.35884804e-02,
  -4.46666889e-02,-4.20623794e-02, 3.88295555e+00,-2.79576071e-02,
   9.56945941e-02},
 { 1.32164940e-01, 1.47051483e-01,-2.76290774e+00, 2.83927870e+00,
  -4.80574512e+00,-1.34536159e+00, 2.92208493e-01, 5.97097492e+00,
   2.41502643e+00},
 {-3.23706344e-02, 1.29740104e-01, 3.01458311e+00, 2.92182493e+00,
  -1.21936536e+00, 5.60697675e-01,-8.87818635e-02, 4.19661427e+00,
  -3.36249638e+00},
 {-3.70855406e-02, 3.33376862e-02,-8.35091114e-01, 2.97922045e-02,
   5.01981592e+00,-2.02047968e+00,-8.31012875e-02, 7.42823458e+00,
   8.09989050e-02},
 {-4.28341180e-02,-1.58148892e-02, 1.47499847e+00,-2.67697394e-01,
   1.70986223e+00, 1.63508013e-01, 6.82566836e-02, 7.45709229e+00,
   2.48988175e+00},
 {-2.99115647e-02, 3.66203906e-03, 1.33984298e-01, 1.26585948e+00,
  -1.13161588e+00, 1.46718013e+00, 1.75973610e-03, 3.93957090e+00,
  -2.12229276e+00},
 { 2.11730227e-02, 1.30614694e-02,-2.03209072e-01, 4.09448481e+00,
  -9.62361842e-02, 7.68297851e-01,-2.94204894e-03,-1.18971176e+01,
   1.74887776e-02},
 { 5.94644714e-03, 6.02065101e-02,-4.29830074e+00,-2.91663456e+00,
   3.71900558e+00,-5.49678355e-02, 8.65442213e-03,-1.59709203e+00,
   2.78615076e-02},
 {-1.37523585e-03,-3.00294603e-03, 7.13995755e-01, 4.54236507e+00,
  -1.63231003e+00, 2.12821412e+00, 3.62069197e-02,-9.69089603e+00,
   1.77307613e-02},
 {-1.14488564e-02, 1.98825002e-02,-1.26986134e+00,-4.53821242e-01,
   4.00857067e+00, 8.54405880e-01,-1.14413323e-02,-3.81485415e+00,
   1.38962880e-01},
 { 3.50809598e+00,-2.98779219e-01, 3.67768139e-01, 7.63363615e-02,
   1.71556234e-01, 2.67730117e-01,-8.06704330e+00,-2.23749608e-01,
   5.48157766e-02},
 {-8.25858042e-02,-5.64316995e-02,-1.09754908e+00, 2.36535883e+00,
  -1.28322756e+00, 3.35543299e+00, 8.50423798e-02, 2.71019197e+00,
   3.51431251e+00},
 { 5.40045500e-02, 3.05118412e-02,-8.95930946e-01,-3.09138441e+00,
   9.55507338e-01, 2.18218422e+00,-1.22704832e-02,-2.12638274e-01,
  -3.80362010e+00},
 {-8.81773699e-03, 1.35574132e-01, 7.14983606e+00,-1.29074526e+00,
   2.25829482e+00,-2.27319360e+00,-1.18348122e-01, 2.13280940e+00,
   2.97186852e+00},
 { 3.87952185e+00,-7.20061123e-01, 3.41541338e+00,-4.33145016e-02,
  -5.77568710e-02,-4.18128259e-02,-9.08929539e+00, 1.07743718e-01,
  -2.59657465e-02},
 {-2.78169531e-02, 2.34153066e-02, 4.02466714e-01, 1.33372855e+00,
   3.28581262e+00, 5.55239558e-01,-1.89735796e-02,-6.78775263e+00,
  -1.29475817e-01},
 { 5.66041693e-02,-1.07798190e-03,-4.02320528e+00, 3.69988561e+00,
  -2.17194653e+00, 1.28728771e+00, 1.49374977e-01,-2.06744170e+00,
   1.97776532e+00},
 { 3.73153687e-02, 2.02047476e-03, 9.36530352e-01, 2.84605241e+00,
  -1.26486325e+00,-1.17167797e+01,-1.32657681e-02, 6.89616632e+00,
   8.04709345e-02},
 { 1.76224429e-02, 1.10374363e-02, 1.78756207e-01, 4.09226227e+00,
  -2.56021070e+00,-7.41025150e-01,-9.61947907e-03, 4.85531044e+00,
   7.33840317e-02},
 {-1.77945077e+00, 3.83208275e+00, 1.22678626e+00,-5.37678692e-03,
   1.64985061e-02, 3.68637778e-02,-2.95735788e+00, 2.72383951e-02,
   2.04066429e-02},
 { 1.07082456e-01,-2.90872365e-01,-1.74452896e+01, 1.46663142e-02,
   4.79110852e-02, 9.82986093e-02,-1.66094735e-01, 4.15919200e-02,
  -4.80936281e-02},
 {-2.23444831e-02, 6.43530041e-02, 6.39329481e+00,-3.46668863e+00,
   1.42164469e+00, 3.48269522e-01, 3.85088450e-03, 3.99514765e-01,
   4.96680975e+00},
 { 4.66745906e-02, 3.25802229e-02,-4.68040991e+00,-3.04175329e+00,
   1.96279347e+00,-8.03358316e-01,-8.64151027e-03, 3.38727760e+00,
  -4.00430202e+00},
 {-5.50189288e-03,-2.27537341e-02, 9.39197600e-01, 5.45783281e+00,
  -2.54305029e+00,-1.21447527e+00,-1.22974338e-02, 1.23643847e+01,
  -2.08275747e-02},
 { 1.48360915e-02, 9.07887816e-02, 2.08788133e+00, 4.58425164e-01,
   2.45849952e-01, 1.45172924e-01, 4.94032204e-02,-1.65904269e-01,
  -4.58028603e+00},
 { 2.11710286e+00,-3.14608240e+00,-4.19303370e+00,-1.19627267e-03,
  -5.17885238e-02,-1.44227788e-01, 4.09183359e+00, 2.90894806e-02,
   1.28689865e-02},
 {-1.54336238e+00, 1.51976311e+00, 3.57981658e+00, 1.98058002e-02,
  -9.26891193e-02, 6.69131950e-02,-4.13736439e+00, 8.87965560e-02,
  -6.58396259e-02},
 { 2.47063732e+00, 2.27629089e+00,-2.11454010e+00,-7.76019692e-03,
  -4.19938937e-03,-2.78330129e-02, 1.00189438e+01,-1.56822540e-02,
   1.21355020e-02},
 {-2.55192232e+00, 1.22613752e+00,-7.40750217e+00,-4.49735820e-02,
  -9.34862047e-02,-3.68391722e-01,-6.29029572e-02, 4.63245325e-02,
   1.78981841e-01},
 { 1.78605374e-02,-3.01159024e-02,-9.67028713e+00,-2.69870877e+00,
  -2.84750581e-01,-2.02807927e+00, 1.45122036e-01,-1.67918131e-01,
  -3.44044638e+00},
 { 3.90344262e+00, 1.98376763e+00,-5.55170059e+00,-3.50802504e-02,
  -2.81532221e-02,-9.05503612e-03, 1.02578640e+01, 7.97203705e-02,
  -3.14512327e-02},
 {-3.11141163e-02, 1.18952096e-01, 3.39283514e+00, 4.33900976e+00,
  -3.84651870e-01,-7.28087842e-01, 1.49441808e-01, 8.07796478e+00,
  -3.13911557e+00},
 { 4.44715357e+00,-1.26198733e+00,-5.30234432e+00,-2.68253908e-02,
  -8.26941337e-03, 3.87720354e-02,-2.61302137e+00, 2.47440320e-02,
  -5.50517999e-02}};

const float b1[sz_hid_1] = {-2.0451503 ,-3.5712447 ,-6.6164412 ,-5.2565217 ,-5.3023844 ,-1.7116106 ,
 -7.4710636 ,-7.9319415 ,-3.1591623 ,-2.3717542 ,-6.9079976 ,-5.9875474 ,
 -5.4821296 ,-6.2189426 ,-6.35493   ,-7.2640314 ,-4.6271358 ,-2.1645741 ,
 -7.129081  ,-0.09020565,-7.062191  ,-5.376197  , 0.5944183 , 0.78969496,
 -1.7274991 ,-7.270718  ,-3.814595  ,-6.388391  ,-0.9544358 ,-3.6611447 ,
 -0.7280386 ,-1.8333303 ,-4.6769586 ,-5.301474  ,-6.7092657 ,-0.9319252 ,
 -6.1353445 ,-1.9986014 ,-5.826506  ,-2.718947  ,-2.828755  ,-0.937299  ,
 -2.8045993 ,-5.335786  ,-2.035999  ,-1.0052094 ,-0.01356806,-3.6541479 ,
 -2.2199843 ,-2.7896671 ,-3.669535  ,-6.385243  ,-5.963699  ,-4.0192204 ,
 -3.90058   ,-4.0119534 ,-6.0754423 ,-3.325733  ,-0.74809146,-3.899688  ,
 -4.982242  ,-5.124024  ,-4.51566   ,-4.453481  ,-5.5512223 ,-2.2105963 ,
 -5.610212  ,-1.6912524 ,-1.8270383 ,-6.627457  ,-6.8104    ,-4.1352854 ,
 -6.879831  ,-1.4835876 ,-5.935112  ,-4.206326  ,-0.7629269 ,-0.65204626,
 -0.05395147,-2.2127202 ,-5.377817  ,-3.5152175 ,-0.80794156,-4.599657  ,
 -3.9157302 ,-4.9257994 ,-4.7987123 ,-5.9770017 ,-7.9955497 ,-1.3838592 ,
 -3.654875  ,-1.3661209 ,-5.0454707 ,-5.9235625 ,-1.0144755 ,-6.533271  ,
 -6.8936853 ,-4.346853  ,-7.8048754 ,-7.214474  ,-1.5444629 ,-5.744245  ,
 -3.851239  ,-6.7241917 ,-2.3344338 ,-6.1875305 ,-3.5971832 ,-3.930824  ,
 -7.2253456 ,-5.8629045 ,-1.9486612 ,-5.5976944 ,-0.45921487,-0.8161683 ,
 -2.9794612 ,-1.3625245 ,-8.989292  ,-6.454473  ,-3.2756684 ,-1.0590063 ,
 -0.23148914,-2.1985488 ,-7.26932   ,-3.8223615 ,-5.93622   ,-5.302411  ,
 -8.582523  ,-3.2371264 };

const float w2[sz_hid_2][sz_hid_1] = {{-2.28447050e-01, 1.19597661e+00,-2.42382407e+00,-2.00006104e+00,
   1.08167458e+01,-1.07552111e+00,-7.87463248e-01,-8.00130963e-01,
  -3.45344782e-01,-1.38781607e-01, 1.48385391e-01,-1.76913147e+01,
  -1.82397500e-01,-4.69787550e+00, 1.12999034e+00, 2.28292942e+00,
   9.36743438e-01,-1.74937797e+00, 5.70103788e+00, 1.30072999e+00,
   3.05505919e+00,-3.23886561e+00,-1.69241691e+00,-6.78238809e-01,
  -4.49094892e-01, 1.27987659e+00,-2.19187045e+00, 3.38864595e-01,
   2.92419195e+00,-4.01963383e-01, 3.52594823e-01,-1.58265984e+00,
  -3.99733901e+00,-1.10691156e+01, 1.65754569e+00, 6.75971061e-02,
  -1.65953457e-01,-3.38657886e-01, 1.95895374e+00, 7.66186059e-01,
   4.48002720e+00,-1.85417795e+00,-1.18033385e+00, 2.69754577e+00,
   1.28620255e+00,-3.96648479e+00,-1.54790747e+00, 2.55825877e+00,
   6.52033091e-01,-2.35275313e-01,-2.38255000e+00,-1.09456644e+01,
  -3.54935074e+00,-7.87144232e+00, 4.28979874e-01,-1.91590503e-01,
  -2.27230525e+00, 2.80061126e+00, 5.14246559e+00,-1.75738144e+00,
  -2.67612934e+00,-2.05268517e+01,-2.17213821e+01,-1.09858465e+00,
   7.14345407e+00, 1.80027977e-01, 2.17857432e+00, 3.66042107e-01,
   2.26024106e-01, 1.26267147e+01,-6.85070562e+00,-7.09384441e-01,
  -2.04955158e+01,-4.52450514e+00,-2.93271255e+00, 2.62682796e+00,
  -5.61327040e-01, 1.38079450e-01, 2.23648810e+00, 1.13387883e+00,
   7.07858741e-01, 1.74060512e+00, 4.87362444e-02,-8.00666511e-01,
  -1.85227370e+00,-6.34176314e-01,-8.47780779e-02, 7.27946758e-01,
  -1.49973214e-01,-3.83413017e-01,-2.74271512e+00, 6.15747511e-01,
  -2.41492558e+00, 9.97889042e-01, 1.69608724e+00,-3.81545313e-02,
  -5.18426943e+00, 1.40866175e-01, 9.22089100e+00,-8.02266884e+00,
  -7.75076818e+00, 9.00397301e+00,-7.17882216e-01,-1.48053904e+01,
  -1.74231195e+00, 3.58705711e+00, 2.34346080e+00, 6.21987641e-01,
  -1.20552616e+01, 2.59989500e+00,-1.06554461e+00, 2.72898495e-01,
  -3.58122915e-01,-2.10264072e-01, 1.35697043e+00, 1.34286976e+00,
   8.16987324e+00, 3.36921883e+00, 4.36988831e+00,-5.81043243e-01,
   1.47177041e+00, 9.54056561e-01, 3.37035894e+00, 5.04284859e-01,
  -4.19714212e+00, 3.33483887e+00, 9.33050573e-01,-8.84073824e-02},
 {-8.80355295e-03,-5.41027896e-02, 2.07102609e+00,-9.75762233e-02,
   1.43668187e+00, 1.04662538e-01, 9.22307432e-01,-3.50231433e+00,
   1.83295906e-01, 1.21854894e-01, 1.21011472e+00, 4.19964582e-01,
  -3.30986977e-01, 9.15631652e-01, 3.08676839e+00, 1.57165134e+00,
   3.82066560e+00, 1.19559638e-01, 1.26437616e+00,-7.80115068e-01,
  -4.83420581e-01,-7.61000299e+00,-2.41678333e+00,-3.26504397e+00,
  -2.93197021e+01, 1.01031959e+00,-5.92827749e+00,-6.89291859e+00,
   6.69180870e-01,-1.72719002e-01,-2.22481247e-02,-1.02319317e+01,
  -2.52200222e+00, 2.28430510e+00,-1.84076607e-01, 6.72499359e-01,
   3.29497069e-01, 6.95578009e-02,-1.72065806e+00, 4.30686522e+00,
  -2.13357300e-01, 3.36602032e-01, 4.30048037e+00, 1.02947176e+00,
   3.93976498e+00,-2.91073829e-01, 3.63846731e+00, 8.03175271e-01,
  -1.69130993e+00,-2.94607043e+00,-9.34094715e+00, 1.18192017e+00,
  -8.32141876e-01, 1.80045271e+00,-3.77294481e-01,-2.35637993e-01,
  -2.15442157e+00, 8.42851162e+00, 9.35674965e-01,-4.54913187e+00,
  -1.58075824e-01, 1.35918939e+00, 2.97588617e-01, 8.14768851e-01,
  -6.03907466e-01, 6.73249811e-02,-1.52184293e-01,-1.00840604e+00,
   2.32750103e-01, 1.15942729e+00,-4.91349220e+00,-4.72395420e-01,
  -1.00538015e+00,-7.95374751e-01, 7.89122224e-01, 8.66361046e+00,
   9.94460806e-02, 2.55097449e-01, 1.80456758e+00, 6.77691847e-02,
  -2.26817107e+00,-2.27448106e-01, 4.06346321e-01, 3.32344979e-01,
  -1.22384810e+00,-1.30975080e+00,-4.70352793e+00,-5.07378674e+00,
   5.30003166e+00,-1.25975907e+00, 8.44014466e-01, 5.98585367e-01,
  -2.49804950e+00, 1.14198722e-01, 3.30440879e-01, 5.29514027e+00,
  -2.11232734e+00,-3.12545538e+00,-3.23562920e-01,-5.06600714e+00,
  -1.61253917e+00, 3.22393663e-02, 5.00619635e-02,-1.17086224e-01,
  -5.15769184e-01, 2.05903263e+01, 1.06380486e+00, 3.75063747e-01,
  -2.59447455e+00,-4.63196707e+00,-2.86357909e-01,-8.06764066e-01,
  -1.39850765e-01,-1.58933893e-01,-1.47864723e+00, 1.66620851e+00,
   6.76774883e+00, 1.89699247e-01,-2.37212665e-02,-2.74681747e-01,
   2.19084549e+00, 1.82510686e+00, 2.14547062e+00, 2.59976673e+00,
  -3.13106030e-02, 4.54016924e+00, 6.67673111e-01, 2.03968525e+00},
 {-9.29926857e-02, 1.25459237e-02,-2.40784548e-02,-2.76602618e-02,
   6.64461702e-02,-1.00491673e-01, 2.43990030e-02, 2.76212972e-02,
  -4.38737310e-02,-2.26482772e-03, 1.57537498e-02,-8.84638056e-02,
  -7.50161707e-02, 1.48939351e-02,-9.66263413e-02,-3.71470191e-02,
   7.28083625e-02, 1.07050873e-02,-6.83348998e-02,-2.83446889e-02,
  -9.35663581e-02,-7.14157969e-02,-9.69851986e-02,-1.01535425e-01,
  -3.02965119e-02,-6.48243353e-02,-5.64383194e-02,-1.81040853e-01,
  -1.40571520e-02,-5.71326651e-02,-8.43500867e-02,-7.38521591e-02,
  -9.63455588e-02,-5.71282394e-03,-8.71601924e-02,-7.35467896e-02,
   6.25519305e-02,-7.44111650e-03,-1.02944903e-01,-6.27446324e-02,
  -4.38724943e-02,-6.71978146e-02,-1.51196541e-02, 4.61558700e-02,
  -7.91608170e-02,-3.62171009e-02,-1.20432325e-01, 4.30054293e-04,
   1.41203951e-03,-1.08087339e-01,-5.55195063e-02,-9.51780565e-03,
  -2.87770610e-02,-1.06556304e-02, 1.31005817e-03,-2.38398444e-02,
  -4.55010869e-02,-4.52080853e-02, 5.45134023e-03,-3.54423076e-02,
  -1.19051740e-01,-5.35465442e-02,-5.98169398e-03,-3.43936868e-02,
  -1.05421022e-01, 2.08843984e-02,-2.58324705e-02,-1.14089958e-02,
  -3.94886583e-02,-5.96202537e-02, 2.93191336e-02,-4.50420007e-02,
  -6.26323223e-02,-8.77276715e-03, 1.07415405e-03,-3.13309729e-02,
  -1.03418440e-01,-1.77490246e-02,-1.68797269e-01,-6.68280199e-02,
  -1.51253294e-03,-4.22972441e-02,-1.64331540e-01,-3.85539606e-02,
  -3.21835540e-02,-1.11903302e-01,-5.90694994e-02, 1.58160813e-02,
   5.68170696e-02,-2.15395377e-03, 1.79594904e-02,-8.50473717e-03,
   6.02000356e-02, 1.48157952e-02,-5.90308830e-02,-5.43470792e-02,
   6.99914843e-02,-3.52830440e-02,-1.40440211e-01,-9.99659598e-02,
   1.33315381e-02, 7.31939971e-02, 5.90073317e-02,-8.62892158e-03,
   1.10722473e-02,-8.93166885e-02,-7.58357719e-02,-1.88160002e-01,
   4.60622832e-03,-3.39070000e-02,-8.68171230e-02,-1.49289258e-02,
  -9.01555866e-02,-8.00100267e-02,-2.89564449e-02,-5.63670062e-02,
  -6.83673173e-02,-1.02786653e-01,-3.41619998e-02, 3.62096839e-02,
   7.93101918e-03,-1.44249469e-01,-1.00409314e-02,-2.25194339e-02,
  -1.20773055e-01,-1.07169695e-01,-4.89187017e-02, 4.22274601e-03},
 {-5.22507429e-01, 2.98436809e+00, 1.39061451e+00,-4.54462576e+00,
   5.62378836e+00,-9.57115889e-01, 4.60805464e+00,-4.35368118e+01,
  -8.06907749e+00, 2.33812898e-01,-9.27373171e-01, 5.07229149e-01,
   6.23095703e+00,-4.21951485e+00, 4.41097409e-01,-3.58634090e+00,
  -1.63329095e-01,-3.28481227e-01,-1.04675446e+01,-5.81741393e-01,
   4.39613533e+00, 2.95399594e+00, 6.67656779e-01, 5.07308960e-01,
   6.75179720e-01,-9.43583202e+00, 5.34767747e-01,-4.28325081e+00,
  -6.55640587e-02,-4.41447163e+00, 9.78610098e-01, 1.05284226e+00,
   3.19730330e+00, 7.20026922e+00, 1.43295503e+00, 1.98016465e-01,
  -3.49424213e-01,-8.66409838e-01, 3.60636055e-01,-1.12420607e+00,
  -1.49656796e+00,-8.90593171e-01, 2.12857580e+00,-1.88826859e+00,
  -8.17406714e-01, 2.42818451e+00, 1.44797219e-02,-3.99682343e-01,
   1.85022891e-01,-1.11241890e-02, 1.42986882e+00,-1.00365906e+01,
  -1.24375000e+01, 1.85790539e+00, 1.80485338e-01,-8.76905024e-01,
   2.53005648e+00,-8.42149734e-01, 4.11520290e+00, 1.04774594e+00,
  -2.22251778e+01,-5.11212206e+00, 8.98840651e-02, 1.77243340e+00,
  -3.51841402e+00,-6.52192068e+00, 2.01017761e+00,-5.97534657e+00,
  -2.86062270e-01, 8.91291809e+00, 8.86466980e+00, 2.84396982e+00,
   8.71959782e+00, 9.96228531e-02, 7.58329630e-01,-1.65439498e+00,
  -1.53710216e-01, 1.97054434e+00,-2.25722790e+00, 8.96829903e-01,
  -1.61053264e+00, 1.38116121e+00,-9.20594788e+00,-5.41758418e-01,
   1.60439909e+00,-1.58596897e+00, 2.47202039e-01, 6.05250373e-02,
   1.03938806e+00, 1.12890139e-01, 7.95621872e+00,-3.16519886e-01,
   2.73669219e+00,-1.06367540e+01, 4.26839411e-01, 9.26856101e-02,
   6.39243984e+00, 7.40741301e+00,-6.18946409e+00,-3.88768554e+00,
  -3.02497149e+00, 6.46466541e+00, 1.31563282e+00,-1.20833578e+01,
  -1.34656334e+00, 1.83342707e+00,-1.66772881e+01,-9.13862407e-01,
   2.09893942e+00,-3.13296652e+00,-8.66166711e-01,-1.51415899e-01,
  -5.65878391e-01, 2.94571185e+00,-1.17896903e+00,-9.29979503e-01,
   6.22996569e+00,-2.66380644e+00,-3.15720463e+00, 5.72536182e+00,
  -1.41058171e+00,-9.78784144e-01,-7.77712679e+00,-7.16215193e-01,
   1.62000751e+00,-1.73222911e+00, 1.24558325e+01, 5.40463805e-01},
 { 4.32536793e+00, 3.94769281e-01, 3.96187496e+00, 1.25428784e+00,
  -2.26187706e+00, 8.74383152e-01, 3.99428725e+00, 4.53172833e-01,
   1.32704985e+00, 6.06789112e-01,-1.00804102e+00,-2.26538162e+01,
  -1.60354960e+00, 4.87813187e+00,-2.64555740e+00,-4.29722905e-01,
  -1.15867451e-01,-7.39300823e+00, 9.10290122e-01, 1.11441016e-01,
   2.90463686e+00, 6.47324848e+00, 1.45050132e+00, 9.68612254e-01,
   1.49578404e+00,-1.00872173e+01, 1.45580983e+00,-5.98265743e+00,
   5.95481491e+00, 1.44433045e+00, 7.94109488e+00, 2.51380658e+00,
  -1.43659306e+01,-1.29780998e+01, 1.30222335e-01, 2.75799489e+00,
  -2.59139442e+00, 1.19509721e+00,-3.56541586e+00,-4.37999582e+00,
   1.45045948e+00,-2.59509754e+00, 6.84535408e+00, 1.03051102e+00,
  -1.89150405e+00,-5.51244974e+00,-9.96459723e-01,-4.47974592e-01,
  -1.09922934e+00, 1.16370177e+00, 2.44335437e+00, 4.83191061e+00,
   7.56170225e+00,-4.08179379e+00,-3.56353164e+00,-7.88877392e+00,
   3.16614294e+00,-3.92150736e+00, 4.04783201e+00, 1.66174173e+00,
  -1.23935807e+00,-1.03975878e+01, 1.70882750e+00, 4.35447407e+00,
  -9.38152730e-01,-3.65056443e+00,-2.16546321e+00, 1.36504388e+00,
  -2.78554618e-01, 5.93807459e+00, 1.33254557e+01,-1.36111712e+00,
  -1.52839270e+01,-9.81027305e-01, 1.72261310e+00,-3.65099335e+00,
  -1.62362385e+00,-5.88950276e-01,-5.91118193e+00,-1.33937252e+00,
   3.16774416e+00, 1.59275115e+00, 7.79119432e-01, 3.42324996e+00,
  -8.99258995e+00,-1.63141298e+00, 6.11611068e-01,-6.99895740e-01,
   4.73824453e+00, 2.11998796e+00,-1.53634238e+00,-1.23548591e+00,
   8.82956314e+00,-4.75464314e-01, 4.33453274e+00,-4.63182926e-01,
  -7.02099895e+00,-3.90353847e+00, 3.14343023e+00, 1.70427501e+00,
  -3.60512161e+00,-4.80229902e+00,-2.03337574e+00, 6.90604270e-01,
   3.04581594e+00, 2.76866364e+00, 8.71322691e-01, 4.37652379e-01,
  -1.57052183e+00,-9.64635944e+00, 1.17786527e+00,-2.43712139e+00,
   8.00929666e-01,-3.42639089e-01,-1.28145742e+00,-1.61511332e-01,
  -2.25040646e+01,-4.18411303e+00, 1.40665126e+00, 1.37129736e+00,
  -3.78969145e+00,-3.60532117e+00,-1.42125912e+01, 1.36937284e+00,
   3.71500462e-01,-4.99438858e+00, 1.68176579e+00, 2.47818542e+00},
 { 4.27627057e-01, 2.89028734e-01, 3.55743337e+00, 3.51766944e-01,
   1.93387997e+00, 4.63059396e-01, 8.00296009e-01,-3.06023216e+00,
   4.11546975e-01, 1.45699584e+00,-3.85791826e+00, 1.53849256e+00,
   4.92481917e-01, 6.98251069e-01, 1.79474401e+00, 5.42143166e-01,
  -3.00062871e+00, 5.73432744e-01, 9.23435032e-01, 2.20237803e+00,
   7.44443834e-01,-3.88603282e+00,-1.46810353e+00,-2.71546412e+00,
   2.70043421e+00,-2.37477228e-01,-2.12163997e+00,-5.28837729e+00,
   3.90247017e-01,-2.76637763e-01, 1.00070679e+00,-1.67687702e+00,
  -3.01157594e-01,-4.15411264e-01,-8.97320926e-01, 6.36797488e-01,
   3.56533080e-01,-1.21035263e-01,-6.34703112e+00, 1.95882916e+00,
  -1.79764163e+00, 6.29294693e-01,-4.09991598e+00, 1.03025830e+00,
   4.13010740e+00,-1.63689566e+00, 4.46970129e+00, 8.58203709e-01,
   6.14655793e-01,-2.04905510e+00, 1.28181741e-01, 1.48863554e+00,
  -2.17589951e+00,-2.63705645e-02,-1.39538658e+00,-1.24795520e+00,
   5.69648314e+00,-2.09710979e+00, 1.56125975e+00,-1.76572955e+00,
  -4.56870794e-01, 4.25157845e-01, 8.39414835e-01, 2.16472554e+00,
  -2.80201864e+00, 2.28297427e-01,-1.90424144e-01,-8.96317422e-01,
  -1.22321033e+00, 1.61484793e-01,-2.54025555e+00, 1.61577493e-01,
   6.44100189e-01,-7.52265275e-01, 1.84593332e+00, 3.68175220e+00,
  -2.17329577e-01, 7.48641014e-01, 3.07462287e+00,-9.60133895e-02,
  -6.04093730e-01, 1.47831082e+00, 3.89937073e-01,-1.25668183e-01,
  -4.46252763e-01, 6.67653382e-01, 1.23404396e+00,-4.57182646e-01,
  -7.02389240e+00, 1.36413491e+00, 6.00829959e-01,-2.23244712e-01,
   7.92430818e-01,-2.86899865e-01, 6.15682483e-01, 8.40935946e-01,
   1.58315110e+00,-3.01819992e+00, 8.25718939e-01,-2.24804974e+00,
  -1.59611809e+00,-5.11765957e-01, 1.66093454e-01, 7.48235226e-01,
  -1.25284731e-01, 5.69056571e-01, 1.44329107e+00, 9.16488111e-01,
  -1.34923846e-01,-4.00713396e+00, 4.13222551e-01,-2.78224051e-01,
  -1.25175714e-01,-2.43642211e-01, 1.30902576e+00,-1.71370602e+00,
  -9.13253963e-01, 1.41183957e-02,-2.33292729e-02,-4.56872165e-01,
   2.96461940e+00,-1.85052090e+01, 1.02104771e+00, 3.09389353e+00,
   6.62178278e-01, 9.64937115e+00, 2.31734300e+00, 2.44623709e+00},
 {-7.73109049e-02,-7.68426433e-02, 6.63700402e-01,-2.14065701e-01,
   7.60620177e-01,-4.13504457e+00, 6.03401065e-01,-5.25235951e-01,
   3.91400792e-02, 5.80512643e-01, 5.91995239e+00, 4.41110991e-02,
   6.05214611e-02,-1.24820575e-01, 1.41689909e+00, 2.18831137e-01,
   2.25745869e+00, 3.29011977e-01,-2.99574566e+00,-3.68555260e+00,
  -4.10072058e-01,-1.33006353e+01,-1.53669512e+00, 3.91059685e+00,
  -1.44230032e+00,-6.50292277e-01,-8.83192778e-01, 1.55070037e-01,
   1.50590241e-01,-4.32719924e-02,-1.73055664e-01,-1.86471963e+00,
  -6.98214993e-02, 4.68425713e-02,-5.79479672e-02,-1.91426963e-01,
  -1.71294600e-01,-2.85839945e-01,-3.89417022e-01, 2.04732800e+00,
  -2.90860951e-01, 1.88191071e-01,-1.80755568e+00,-1.60265553e+00,
   5.21879721e+00,-1.00118341e-02, 2.71684790e+00,-9.49031532e-01,
  -6.83728635e-01,-6.42749131e-01,-4.64362907e+00, 2.02795997e-01,
  -1.01747215e-01, 2.01028630e-01, 4.39173654e-02,-8.69373605e-02,
  -2.62715912e+00, 2.04303622e+00, 2.45844483e-01,-2.60345554e+00,
  -2.79278290e-02, 6.44968092e-01, 4.74327981e-01,-9.45912153e-02,
   1.39047754e+00, 3.09968919e-01, 4.31566462e-02,-7.42855817e-02,
   6.36593580e-01, 2.05523759e-01,-3.62717819e+00,-3.26612860e-01,
  -1.03027141e+00,-1.28371879e-01, 1.82100594e+00, 3.54364324e+00,
  -9.44771525e-03, 6.34774566e-02, 2.90214229e+00,-9.03630406e-02,
   2.02005553e+00,-3.33680224e+00, 3.19064653e-04, 1.21093020e-01,
   8.17641139e-01, 1.88221920e+00, 6.62914991e+00, 1.03256248e-01,
  -1.42887443e-01,-8.93110633e-01, 1.47773787e-01, 1.60607412e-01,
  -2.77556920e+00, 5.64964302e-02, 1.92306489e-01,-5.81031084e-01,
  -1.10481060e+00,-3.60315323e-01,-1.31201997e-01,-8.38916123e-01,
  -4.89368707e-01, 1.81720719e-01, 7.27526695e-02,-1.10162003e-03,
   8.56561959e-02, 8.27885818e+00, 2.47543082e-01, 2.45286226e-01,
   5.58259726e+00,-1.61126006e+00, 1.01627931e-02,-3.35182816e-01,
  -5.90733774e-02,-6.04937375e-02, 2.35821366e+00,-8.73645592e+00,
   4.22671027e-02,-2.67810553e-01, 4.58586887e-02,-6.47748262e-03,
   1.43817246e+00, 1.48529136e+00, 3.92339635e+00,-7.42296457e+00,
   6.96462989e-02, 2.64326191e+00,-1.51766372e+00, 4.92845386e-01},
 {-1.71676922e+00,-1.16696119e+00,-1.40301621e+00,-3.48973370e+00,
  -2.56068945e+00,-5.79059303e-01, 1.47554636e+00, 9.70598125e+00,
  -1.00236082e+00, 1.35889113e-01, 3.15217763e-01,-3.06392401e-01,
  -3.22691751e+00, 1.75408870e-01,-1.37931728e+00,-9.39586544e+00,
   5.32406569e-01, 1.05870497e+00,-2.10284734e+00, 9.32992518e-01,
   1.07020092e+01,-2.07612896e+00,-1.09295595e+00, 6.16137050e-02,
  -8.25073540e-01, 2.23143196e+00,-4.23671335e-01, 3.32421660e+00,
   1.28309831e-01, 4.33856100e-01, 1.51239350e-01,-1.54941726e+00,
  -3.35243750e+00,-2.04190707e+00,-2.56321049e+00,-2.46820354e+00,
  -2.22082710e+00,-2.83669066e+00,-2.18373865e-01, 1.04918087e+00,
   3.19727612e+00, 4.23078871e+00,-5.99268138e-01, 1.41277242e+00,
   1.12449217e+00, 7.65846223e-02,-9.00400698e-01, 6.72138333e-01,
  -2.16281369e-01,-1.36924952e-01,-1.87436211e+00,-3.36573839e-01,
   1.64381683e-01,-1.15235293e+00, 8.09472942e+00, 1.22067079e-01,
  -1.85959601e+00, 1.92404008e+00, 5.42879045e-01,-1.30898213e+00,
   5.83929494e-02, 1.37672389e+00,-4.66098356e+00,-3.45695794e-01,
  -1.15926421e+00,-4.89066839e+00,-1.87517631e+00, 8.29963624e-01,
   1.17298387e-01, 5.66255045e+00,-5.18083477e+00, 4.39305401e+00,
  -5.30296803e+00,-5.98531663e-02,-2.82884502e+00, 1.82331944e+00,
  -3.52583504e+00, 1.48766363e+00, 8.70312035e-01, 2.94316721e+00,
   4.36344564e-01, 4.39402640e-01,-1.00403976e+00, 8.77494216e-01,
   6.05832160e-01, 1.55693936e+00, 4.38519008e-02,-8.25118124e-02,
   1.15778363e+00,-3.61592323e-01,-4.84155703e+00, 1.09106076e+00,
  -9.95497763e-01, 5.22829485e+00,-6.85921907e+00,-1.82041422e-01,
  -5.34172630e+00, 1.19295037e+00, 3.31953740e+00, 8.21930587e-01,
  -2.02743173e-01,-7.03899288e+00,-3.95762801e+00,-2.89100599e+00,
  -5.20204782e+00,-1.88612759e+00,-3.06402302e+00,-1.00061522e+01,
   7.20153093e-01, 1.42950380e+00, 1.21444035e+01, 3.36384892e+00,
  -3.28766555e-01, 2.69943595e+00, 9.92613196e-01,-1.45225450e-01,
   1.93729484e+00,-1.11457311e-01, 3.69951010e+00, 8.61719191e-01,
   6.92158461e-01, 6.49081767e-01, 3.63146186e+00, 5.13326108e-01,
   5.22322512e+00, 1.51556015e+00,-5.98791075e+00,-8.22052434e-02},
 { 2.01384449e+00, 9.22748804e-01,-7.78053820e-01, 3.69436121e+00,
   2.07560635e+00,-8.16405952e-01,-6.08665705e+00, 1.22833908e+00,
   3.39675575e-01,-1.57522440e-01, 5.24554849e-01, 3.98507333e+00,
  -1.90376606e+01,-2.47600689e+01,-3.58962989e+00, 1.59296930e-01,
   4.08540606e-01,-4.86103725e+00,-4.26059198e+00, 2.07519794e+00,
  -6.60585546e+00,-2.60838819e+00,-1.08037853e+00,-2.23229483e-01,
  -8.32715631e-01, 4.89663172e+00,-6.11309230e-01, 5.82751369e+00,
  -1.50354517e+00,-1.69174016e+00,-1.80508900e+00,-1.74837756e+00,
   5.29258549e-01, 2.70153260e+00,-4.33670731e+01,-1.80485845e+00,
  -1.82754970e+00,-7.38247204e+00,-1.61059322e+01, 1.38398647e+00,
  -6.94656074e-01,-6.08161628e-01,-1.70598269e+00, 2.40702176e+00,
   1.37496221e+00, 6.91510141e-02,-1.15735626e+00, 1.04100370e+00,
  -2.40028486e-01,-8.22138116e-02,-2.68644547e+00, 2.91537523e+00,
  -7.83714175e-01, 1.61212406e+01,-2.11883755e+01,-1.98988337e-02,
  -2.95691180e+00, 1.12605619e+00,-9.85244811e-01,-1.93586886e+00,
  -3.56581599e-01,-2.85542548e-01,-1.59234982e+01,-1.06671953e+00,
   9.75997543e+00, 3.98105323e-01, 1.21627855e+00,-5.38532543e+00,
   3.26713383e-01,-1.26996546e+01,-7.84330416e+00,-2.17726558e-01,
  -1.46684015e+00, 1.26614559e+00,-4.68551308e-01, 2.53458166e+00,
   3.82128739e+00, 3.37693357e+00, 2.26924825e+00,-3.64157319e+00,
   1.22455370e+00, 5.67408621e-01, 1.79651344e+00, 4.45245266e+00,
  -3.13589483e-01, 2.95679855e+00,-5.24451971e-01,-6.52400255e-01,
   1.71519196e+00,-5.25560379e-01, 3.16091895e+00,-6.26001596e+00,
  -2.37842155e+00,-4.66624165e+00,-4.07134628e+00,-2.67916113e-01,
  -8.49658585e+00,-4.32126951e+00,-2.39692211e+00,-4.76474428e+00,
   8.49867165e-01, 7.47725677e+00, 2.90387392e+00, 3.58730912e+00,
  -3.58811355e+00,-5.01767111e+00, 3.45224410e-01, 6.54117048e-01,
  -7.18206242e-02, 3.62933874e+00,-1.58065329e+01,-3.33191395e-01,
  -1.50939092e-01,-2.20058560e+00, 1.56096196e+00,-1.43479109e-01,
   2.21124411e+00,-1.19116330e+00,-4.40652895e+00,-1.70226884e+00,
   1.33641708e+00, 1.33729649e+00, 5.08205843e+00, 1.33752614e-01,
   1.93543148e+00, 2.46978545e+00, 8.77347374e+00,-2.95806900e-02},
 { 1.83641326e+00, 1.24623799e+00, 3.81445813e+00, 3.07696867e+00,
   2.00995088e+00, 1.71051872e+00,-8.37632120e-01, 2.09367752e+01,
  -1.54406393e+00,-2.82934129e-01,-1.74398625e+00, 1.09757257e+00,
  -1.17168884e+01,-3.65898311e-01, 3.96846205e-01, 1.14505780e+00,
  -7.37649679e-01,-8.73843670e-01,-4.24551630e+00,-1.67469764e+00,
  -1.31619177e+01, 5.58128691e+00, 1.71472585e+00, 1.12081282e-01,
   1.06741500e+00, 1.11760721e+01, 4.85340476e-01,-3.69485974e+00,
  -2.27795696e+00,-1.44783020e+00,-9.27652538e-01, 1.56823719e+00,
  -3.39012742e-01, 3.32466865e+00,-2.72227726e+01, 2.78416276e+00,
  -1.19485407e+01, 2.22506022e+00, 7.14208543e-01,-1.55018902e+00,
  -1.22769060e+01,-1.04316235e+00, 1.89929998e+00, 5.98922968e+00,
  -3.82753253e-01, 3.07410866e-01, 9.75178063e-01,-1.01890028e+00,
   1.29513562e-01, 3.74884844e-01, 3.66787195e+00, 3.73265624e-01,
  -7.72491884e+00, 9.76431489e-01,-3.10974312e+01, 3.28390568e-01,
   2.30716014e+00,-2.43896389e+00,-2.78069615e-01, 2.13206267e+00,
  -2.04529420e-01,-1.22805691e+00, 2.92497230e+00, 6.40432775e-01,
   5.77190018e+00,-5.35355389e-01, 9.20677960e-01,-6.72351539e-01,
  -3.69977355e-01,-6.56952620e+00, 8.65324020e+00,-7.26310205e+00,
  -1.60977229e-01, 1.79955709e+00,-1.90327621e+00,-3.14423490e+00,
   3.94263697e+00, 2.16817331e+00,-1.89043832e+00,-3.68478107e+00,
  -2.08428621e+00,-1.13626790e+00, 3.73035759e-01, 4.56747866e+00,
  -1.66506398e+00,-2.93285966e+00, 5.95577210e-02,-1.40719131e-01,
   3.67147237e-01, 4.30103689e-01, 1.82794824e-01,-1.54383039e+00,
   2.33758759e+00,-4.51212645e+00,-5.01115847e+00, 5.09552836e-01,
   3.49151284e-01,-1.11787808e+00,-4.13840008e+00,-1.64303243e+00,
   1.17091253e-01, 9.06842613e+00, 1.55222869e+00, 2.59437990e+00,
  -8.25130558e+00, 4.81830931e+00, 5.48200548e-01,-4.57683891e-01,
  -1.03779116e+01,-4.59790802e+00,-1.08844900e+01,-2.72150922e+00,
   2.03121096e-01,-2.31670618e+00,-1.98283482e+00,-3.87219816e-01,
   8.19624519e+00,-2.76025081e+00,-4.50827026e+00,-2.56808847e-01,
  -1.38018262e+00,-1.58756471e+00,-7.01683474e+00,-3.85607481e-02,
  -5.20814836e-01,-2.80373883e+00, 2.87093192e-01,-3.06730479e-01},
 { 2.06551291e-02,-2.47990526e-02, 4.06985313e-01, 7.32178688e-02,
  -5.18555999e-01,-5.53129435e+00, 8.38588737e-03, 2.66509354e-01,
  -5.46501912e-02, 4.74638104e-01, 2.33776140e+00,-1.66644990e-01,
   7.24406987e-02, 8.58447105e-02, 1.17730045e+00, 6.02280474e+00,
   3.68199199e-01,-2.03776762e-01,-3.06127739e+00,-9.31682408e-01,
   2.67775267e-01,-1.37429762e+01,-1.59785426e+00, 1.97398770e+00,
  -8.40143299e+00,-8.93757045e-02,-4.01237726e+00,-2.10265732e+00,
   3.08823995e-02, 1.03212222e-01, 4.85216687e-03,-8.29585910e-01,
  -1.39464036e-01, 4.87851426e-02,-8.06900337e-02,-6.23418763e-02,
   1.72722727e-01,-2.45687678e-01, 2.06312686e-01, 4.50958443e+00,
   1.75863892e-01, 1.68677539e-01,-3.30651131e+01, 2.61229348e+00,
  -9.13308442e-01, 1.39009655e-02,-1.90913939e+00,-1.66071606e+00,
   2.93855214e+00,-5.85632145e-01, 5.10207653e-01,-1.96222942e-02,
   8.25206712e-02, 1.38780519e-01,-5.26069552e-02, 1.15931503e-01,
   1.15413201e+00,-1.01626515e+00,-9.36061069e-02,-1.10402002e+01,
   1.40588403e-01,-4.18954432e-01,-2.32878819e-01, 1.00879991e+00,
  -2.41096675e-01,-1.21283971e-01, 4.54955734e-02, 7.12073222e-03,
   3.75973082e+00, 4.24449116e-01,-4.35043144e+00, 1.39432456e-02,
   1.94655254e-01, 1.84439644e-02,-9.98927236e-01, 5.05235732e-01,
   4.48191389e-02, 1.81627646e-01, 1.76572931e+00, 9.12492163e-03,
   2.24485922e+00, 1.57028008e+00,-4.85189818e-02,-1.63253888e-01,
   8.58794928e-01, 2.55362201e+00, 3.43699598e+00, 3.57763886e+00,
  -1.22066193e+01,-9.27308977e-01, 4.98322815e-01, 1.00884475e-01,
   1.57769561e+00,-1.24633372e-01,-1.17368415e-01, 2.38993530e+01,
  -6.08399391e-01,-1.19066052e-01,-8.16962793e-02, 4.37848687e-01,
   2.67089486e-01,-2.36447696e-02,-2.02319682e-01,-2.14841679e-01,
   5.85580617e-03, 1.99590445e+00, 1.50896888e-02,-1.59423649e-01,
   1.06132126e+00,-4.62839937e+00, 2.71550901e-02,-4.69760373e-02,
   2.39794496e-02,-1.38489092e-02,-5.98168135e-01,-1.49608028e+00,
   3.96687317e+00, 2.66937613e-01, 1.97152365e-02,-6.43720180e-02,
  -3.27258885e-01,-3.10153604e-01, 6.19419622e+00,-6.89568758e+00,
   1.13537705e+00, 2.60032684e-01,-1.52198523e-01, 1.61635411e+00},
 { 2.66095370e-01,-3.75152969e+00, 2.82487739e-02,-1.23262405e-01,
  -1.81979537e+00, 2.66406208e-01, 1.10318651e+01, 1.25578284e-01,
  -2.84334373e+00, 1.69465058e-02,-2.74597496e-01,-4.28299093e+00,
   1.04432568e-01,-5.34333527e-01,-1.65496126e-01,-7.11655378e-01,
  -7.62485638e-02, 1.28792092e-01, 3.24833441e+00,-1.16955213e-01,
  -5.70226073e-01, 4.51126218e-01, 9.08804759e-02,-4.09167893e-02,
   8.91726613e-02,-2.03888744e-01,-1.61748752e-02,-5.74925184e-01,
  -5.56944981e-02, 3.79053026e-01,-1.71154588e-01, 1.55536249e-01,
   3.97317022e-01, 6.15332246e-01,-2.46036008e-01, 1.76381722e-01,
   1.53681025e-01,-2.74544716e-01, 1.40048757e-01,-1.16682842e-01,
   1.78487495e-01,-1.07309449e+00, 6.48742393e-02, 5.29309630e-01,
  -3.04492414e-02, 8.77689719e-01, 1.52116761e-01,-2.92079430e-02,
   4.23674919e-02,-1.95359392e-03, 1.51933566e-01, 4.56759423e-01,
   4.96938801e+00, 3.73094290e-01,-6.03884682e-02, 6.40236425e+00,
   2.44461253e-01,-5.14020212e-02,-1.21230304e+00, 2.73662657e-01,
   1.59428620e+00, 5.50519824e-01,-1.80401072e-01, 8.34619775e-02,
   5.48926592e+00,-5.12538701e-02, 4.48505020e+00,-1.51147060e-02,
  -3.15051377e-02,-3.04229450e+00, 4.15385097e-01,-5.71081936e-01,
   2.12291169e+00,-2.10379791e-02, 2.45037869e-01,-1.56925678e-01,
   1.05745351e+00, 1.43644536e+00,-1.20906502e-01, 3.02491814e-01,
  -4.23521161e-01, 2.50232577e-01,-1.36672363e-01,-7.96177313e-02,
  -3.68560672e-01,-2.16968223e-01, 2.56935135e-02,-1.19514272e-01,
  -3.58961284e-01, 5.50064892e-02,-3.41402531e-01,-1.77059308e-01,
   1.40072778e-01, 3.21153426e+00,-3.79380397e-02, 1.05387159e-01,
   6.62198782e+00,-1.03933942e+00,-5.39322472e+00,-1.23078794e+01,
   4.44527082e-02,-1.29799891e+00,-2.29400307e-01, 7.63374686e-01,
  -2.68557966e-01,-4.90035325e-01, 4.89783287e-02,-9.32705998e-02,
   1.03842330e+00, 5.08547664e-01,-3.25338423e-01, 1.22242227e-01,
  -5.76700130e-03, 1.88711488e+00,-1.24209367e-01,-2.44106166e-02,
  -5.99831629e+00,-8.45529842e+00,-6.59610033e-01, 1.46289885e-01,
  -7.02268481e-02,-7.28455633e-02,-3.34311277e-01, 1.63701683e-01,
  -6.97206199e-01,-1.43971115e-01,-1.59699612e+01, 5.36185429e-02},
 { 3.27828622e+00, 3.39534807e+00,-5.24725541e-02, 2.07595992e+00,
   3.70719123e+00,-2.63001233e-01,-1.41566455e+00,-6.36684799e+00,
   1.17175914e-01,-1.88921958e-01,-1.48904666e-01,-1.26811731e+00,
  -1.18275909e+01,-8.77941990e+00,-3.08611178e+00, 3.06757808e-01,
  -5.69645882e-01,-2.54524899e+00,-4.67444229e+00, 3.72386724e-01,
  -7.68232965e+00,-2.41585898e+00,-1.23773074e+00,-3.29178184e-01,
  -1.99525070e+00,-2.48888321e+01, 8.76598954e-01, 9.22279549e+00,
  -6.61461949e-01,-2.57133961e-01, 1.59869719e+01,-2.31698012e+00,
  -7.23845303e-01, 7.80735397e+00,-2.94293308e+01, 3.65190530e+00,
  -3.93246994e+01, 2.12827310e-01,-1.14162254e+00, 2.25615287e+00,
  -1.87814200e+00, 1.50352848e+00,-1.33060312e+00, 2.27845162e-01,
   2.07570791e+00,-4.80327129e+00, 2.44051099e+00, 2.77372211e-01,
   9.71439183e-01, 3.39989662e-01,-1.17756951e+00,-2.16284394e+00,
  -1.82037795e+00,-1.83594632e+00,-4.35440025e+01,-1.56519973e+00,
  -3.95973444e+00, 1.76654732e+00,-4.37417793e+00,-1.71491548e-01,
  -4.42179012e+00,-4.46955156e+00,-2.21423101e+00,-1.72289228e+00,
   3.62755299e+00, 7.42949820e+00, 2.22440362e+00,-7.29410315e+00,
   3.41481119e-01,-1.95590901e+00,-5.08350849e+00,-7.02457130e-01,
  -5.52300119e+00, 9.74086761e-01,-4.36280107e+00, 1.06821716e+00,
   7.33750165e-02,-6.71664238e-01, 2.21639776e+00,-5.30156946e+00,
  -5.67531049e-01,-5.46477810e-02,-4.10127401e-01, 4.57221605e-02,
  -2.40868711e+00, 1.97002661e+00,-6.26735866e-01, 1.96712717e-01,
  -2.38378458e-02,-1.07618845e+00, 4.25921822e+00,-3.54541206e+00,
  -3.14511824e+00,-5.05968666e+00,-4.56963768e+01,-6.23568058e-01,
   1.16303527e+00, 1.83567607e+00, 2.36749530e-01,-1.24120588e+01,
  -2.35454869e+00, 3.14776325e+00,-1.23736393e+00, 2.23478270e+00,
   3.50602007e+00,-4.94020128e+00,-7.93078303e-01, 3.61836863e+00,
  -7.68506289e-01, 2.04034472e+00,-3.65505576e+00,-4.70645189e+00,
   1.98881596e-01,-2.27078795e+00, 1.61024523e+00,-1.54738033e+00,
  -9.61205006e+00,-5.27796125e+00,-2.60803580e+00, 3.63465953e+00,
   4.51900601e-01, 9.20943618e-01, 4.74185467e+00, 7.06796721e-02,
   1.99468756e+00, 1.49060297e+00, 3.37582111e+00,-1.11973512e+00},
 { 4.53032684e+00,-2.10409617e+00,-1.93941796e+00, 1.29929411e+00,
   6.21775150e-01,-2.37584186e+00,-4.93977785e+00,-8.95913243e-01,
   6.22088552e-01,-2.48493838e+00,-1.79187870e+00, 9.62250900e+00,
  -1.14435720e+01,-1.99105489e+00,-2.97448659e+00, 1.75876367e+00,
   3.75778168e-01, 2.34693670e+00,-5.72417545e+00, 1.38659000e+00,
  -3.83193040e+00, 1.41799301e-01,-3.56016850e+00,-3.71073318e+00,
  -2.97769308e+00,-1.16568298e+01, 2.51613307e+00, 1.13721790e+01,
  -1.96269083e+00, 3.47855091e+00, 4.73463535e+00,-1.80085170e+00,
   2.02281713e+00,-4.20826292e+00,-1.71907306e+00,-7.99490154e-01,
  -3.79313540e+00, 4.54480678e-01,-1.62116325e+00, 3.58733392e+00,
  -3.07325363e+00, 2.60032862e-01,-4.72845507e+00,-3.01742882e-01,
   2.82435703e+00,-4.68510675e+00, 2.47784090e+00, 1.30046761e+00,
  -1.57108796e+00, 1.20012820e+00,-2.53603649e+00,-6.87181294e-01,
  -6.07303441e-01,-1.85708416e+00,-1.81230056e+00, 1.22358859e+00,
  -6.43190670e+00, 6.66014528e+00,-8.09006631e-01,-8.69463682e-01,
  -5.75188923e+00,-2.60118847e+01, 2.01920795e+00,-5.01757145e+00,
  -2.70473537e+01,-5.55524290e-01,-1.73449123e+00,-2.90554714e+00,
   1.06908774e+00,-1.27240002e+00,-4.90317392e+00, 1.86276841e+00,
  -1.84809933e+01, 6.27414703e+00,-1.43867421e+00, 2.00766563e+00,
  -1.26330853e+00, 8.73263061e-01, 1.72079623e+00,-9.70406711e-01,
   3.65671182e+00,-7.17742026e-01,-8.05931568e+00,-1.44378638e+00,
   3.09126306e+00, 1.79016721e+00,-6.59412622e-01, 6.25324368e-01,
  -5.74270821e+00,-2.21740246e+00,-1.99241090e+00,-3.36472964e+00,
  -4.20568705e+00, 9.81026232e-01, 1.52302587e+00, 1.48519084e-01,
  -1.31099854e+01, 2.11651349e+00,-3.64130229e-01,-4.26300430e+00,
   9.34889495e-01,-2.04938388e+00, 1.49473512e+00, 3.29852343e+00,
   2.11630726e+00,-1.65247273e+00,-6.39725924e-01, 2.41628504e+00,
   4.33403206e+00, 2.32432079e+00, 8.50624621e-01, 2.27483320e+00,
   1.54591829e-01, 1.35687971e+00, 2.50901151e+00, 2.41539979e+00,
   9.31832671e-01,-9.43253875e-01,-9.22378004e-01, 9.89664459e+00,
  -5.44365764e-01, 4.09023428e+00, 4.87365341e+00, 3.49488258e+00,
  -4.29701233e+00, 2.41187787e+00, 5.47531796e+00, 6.86075091e-01},
 { 3.96000361e+00,-9.95133400e-01,-1.32276729e-01,-9.89270985e-01,
   1.75685316e-01,-1.28345177e-01,-7.20472860e+00, 6.90912127e-01,
   7.02476799e-01,-7.76912987e-01, 3.78199726e-01, 3.12861621e-01,
   1.09411848e+00,-4.76678640e-01,-1.45959699e+00, 4.46909457e-01,
  -3.44546765e-01, 7.23212957e-02, 4.09113598e+00, 1.14486551e+00,
   6.79341078e+00,-3.49684048e+00,-2.12468243e+00,-3.96514744e-01,
  -1.11439455e+00,-3.11036849e+00, 2.19874129e-01, 1.75578749e+00,
   5.43164127e-02, 8.24902713e-01,-1.81633639e+00,-8.23249280e-01,
  -5.29607594e-01, 2.41287351e+00, 2.54564452e+00,-1.28790736e+00,
   9.75506660e-03,-7.07371414e-01, 7.08430588e-01, 9.29161370e-01,
  -1.92887092e+00,-5.08848727e-02,-1.04553461e+00, 4.64391321e-01,
   1.97244561e+00,-2.66909909e+00, 8.17311645e-01, 4.39585090e-01,
   5.55386543e-01,-1.25142312e+00,-6.14741385e-01,-3.93421978e-01,
  -3.77261019e+00,-2.30442667e+00, 2.06680822e+00,-7.07464409e+00,
  -3.52145457e+00, 1.83134604e+00, 4.81406641e+00,-1.02290249e+00,
  -8.66167784e-01,-4.59021044e+00,-1.49260521e-01,-1.98807716e+00,
  -2.65880823e+00,-7.20041513e-01, 4.33648050e-01,-2.10580373e+00,
  -1.63727030e-01,-2.93589294e-01,-1.67210960e+00,-3.23675585e+00,
  -1.58059132e+00, 1.43465912e+00,-8.34869027e-01, 9.05910790e-01,
  -2.14957619e+00,-4.55025613e-01, 1.26380193e+00,-2.09128094e+00,
  -2.23988819e+00,-6.46669865e-02,-1.40178442e+00, 3.21067238e+00,
  -1.17339122e+00, 7.69203663e-01, 3.61965209e-01, 2.22032517e-01,
  -5.20560563e-01,-4.78450686e-01, 2.59521747e+00,-1.22411382e+00,
  -2.68618512e+00,-4.86647940e+00, 4.31776905e+00, 1.59762651e-01,
  -2.91266918e-01, 1.16815019e+00, 9.85335529e-01,-3.06623125e+00,
  -2.38883066e+00,-8.29859197e-01, 5.95070422e-01,-5.71700931e-01,
   3.57701492e+00, 9.28070009e-01,-2.68351007e+00,-3.51069689e-01,
  -3.08657122e+00, 3.32280779e+00,-2.12204599e+00, 5.53574741e-01,
   4.24428493e-01, 1.74449727e-01, 6.59687698e-01, 2.55108953e-01,
  -3.58142257e+00,-1.60392303e+01, 8.47050846e-01, 5.25502586e+00,
   8.78213465e-01, 1.93880510e+00, 9.70666111e-01, 6.74404800e-01,
  -7.18028927e+00, 1.98166847e+00, 3.15016961e+00,-1.74395049e+00},
 {-4.65852953e-02,-8.46351981e-02,-6.24702796e-02,-9.93346348e-02,
  -9.15337279e-02,-1.96006969e-02,-2.43603289e-02,-1.23166293e-01,
   8.44229385e-03, 1.56248352e-02, 6.29198626e-02, 2.00355463e-02,
  -1.04419909e-01,-5.85282631e-02,-1.21760473e-01,-8.37840233e-03,
  -5.12982300e-03,-4.00949977e-02, 3.23519297e-02,-2.28435360e-02,
  -9.99916419e-02, 2.04903223e-02,-3.99980582e-02,-2.05946919e-02,
  -8.61738771e-02,-6.35037646e-02,-1.90451778e-02, 1.57508045e-03,
   9.89204645e-03,-1.56459827e-02, 5.52879320e-03,-3.01466137e-03,
   6.28101826e-03,-8.71531144e-02, 2.19195057e-02,-9.18917507e-02,
  -5.66909611e-02, 2.74534095e-02,-1.42454216e-03,-5.84366657e-02,
  -1.22599695e-02,-9.36178863e-02,-2.93983631e-02, 1.79612674e-02,
  -5.81053225e-03,-1.22144453e-01,-1.03207834e-01,-3.19601339e-03,
  -6.71722665e-02, 3.93309677e-03, 2.50154417e-02,-3.78335565e-02,
  -6.08139820e-02,-9.67260674e-02, 2.94965599e-03, 2.35901065e-02,
  -5.41568436e-02,-1.16766520e-01,-1.20418817e-01,-1.54110556e-02,
  -4.20377031e-02,-6.73034340e-02,-9.75452885e-02,-6.99511170e-02,
   7.89205078e-03, 2.69736769e-03,-9.39196274e-02,-9.60957780e-02,
  -1.44216523e-01, 3.19403480e-03,-4.43834588e-02,-4.16723639e-02,
  -3.84874828e-02,-1.41509786e-01,-1.07280873e-01,-1.20109797e-01,
  -8.12704265e-02, 1.22507103e-03,-1.31883487e-01,-3.91510390e-02,
  -5.23362681e-02, 7.09684566e-02,-7.24957138e-02, 5.16588576e-02,
  -1.35108739e-01,-1.13527752e-01,-1.67687726e-03,-6.16656244e-02,
  -1.08691084e-03,-1.14360355e-01, 2.93152705e-02, 3.14253643e-02,
  -3.10707968e-02,-4.98202741e-02, 5.09163328e-02, 4.01557051e-02,
  -1.49624482e-01,-2.96241120e-02,-9.67408568e-02, 9.55077354e-03,
  -5.07334769e-02,-2.72689816e-02,-6.94286600e-02,-6.94935098e-02,
  -3.84690426e-02, 4.38030474e-02,-5.89978620e-02,-3.50428633e-02,
   4.90814112e-02, 2.15111244e-02,-4.05936167e-02, 1.94052607e-02,
  -1.28884306e-02, 2.66263355e-02,-2.19200160e-02,-1.02662601e-01,
  -9.66209397e-02,-1.09608797e-02,-2.08078069e-03,-1.41845971e-01,
   4.34037820e-02,-1.04146861e-01, 2.66511068e-02, 5.45700304e-02,
  -7.09206390e-04,-3.90493348e-02,-7.73413479e-03,-6.74023852e-02},
 { 2.39660461e-02, 8.68099835e-03, 5.96765947e+00, 1.63456991e-01,
  -7.12505698e-01, 1.31719887e+00,-2.06958070e-01, 3.67759258e-01,
  -9.18813869e-02,-5.20866692e-01,-3.16347003e+00,-1.08144872e-01,
  -1.73612442e-02,-9.35758799e-02, 9.93423462e+00,-1.97434053e-01,
  -2.50553775e+00,-3.11248273e-01, 2.46450758e+00, 2.32123852e+00,
   3.98834080e-01, 8.56513500e+00, 1.92482805e+00,-3.24602675e+00,
   2.10326576e+00, 7.55867422e-01, 1.06107032e+00,-7.01299667e+00,
  -8.81661698e-02, 8.41826573e-02, 1.07873954e-01, 2.26769948e+00,
   1.04028694e-01,-2.56653994e-01, 3.48192230e-02, 1.24484189e-01,
   1.08511381e-01,-2.02531457e-01, 2.99580634e-01,-2.86554718e+00,
   1.76435456e-01, 1.70272395e-01, 2.19826174e+00, 1.68490791e+00,
   1.48917317e-01, 3.43481861e-02, 8.70344353e+00, 1.51141381e+00,
   8.19530725e-01, 6.60731614e-01, 4.81150341e+00,-1.66541353e-01,
   1.68223046e-02,-2.73645431e-01,-9.97104868e-02, 3.65228541e-02,
   2.61147904e+00,-5.59435320e+00,-1.63907900e-01, 5.71540022e+00,
   1.55682832e-01,-5.54478228e-01,-3.34084630e-01,-3.51634413e-01,
  -9.04645741e-01,-2.19810799e-01,-1.66359916e-02, 4.78707328e-02,
   4.12073433e-01, 2.37066284e-01, 4.48568964e+00, 2.88196355e-01,
   8.93862784e-01, 7.44952634e-02,-4.02836621e-01,-3.64271278e+01,
   1.36010563e-02, 2.78294086e-01,-2.17240191e+00, 6.33897334e-02,
  -6.34281921e+00, 3.33709311e+00,-5.28192632e-02,-1.26122460e-01,
  -1.85889870e-01,-5.05581951e+00,-4.50179148e+00, 1.78123087e-01,
   6.57596684e+00, 1.12746859e+00,-9.27736834e-02,-2.49655880e-02,
   1.82005179e+00, 8.38050805e-03,-1.37450114e-01, 2.30619097e+00,
   9.43726659e-01, 2.80981362e-01,-9.17699840e-03, 9.36893344e-01,
   4.09427077e-01,-2.11524740e-02,-7.28463307e-02,-1.94244478e-02,
   1.76541716e-01, 4.91896200e+00,-2.82160342e-01,-2.26603225e-01,
   1.26919997e+00, 7.79341221e-01, 4.87433299e-02, 2.80473918e-01,
   4.81577590e-02, 3.26359235e-02,-2.68637013e+00,-3.31197119e+00,
  -1.39745319e+00, 3.77005666e-01, 4.15670732e-03, 1.04284436e-02,
  -1.24806476e+00,-1.70473611e+00,-8.70770645e+00,-4.76889074e-01,
   4.01575059e-01,-3.09779501e+00,-8.65301192e-01,-5.21847725e-01},
 {-7.65791237e-02,-1.13966770e-01,-4.25596461e-02,-3.70933861e-02,
  -7.44471475e-02,-7.30332499e-03,-6.65459558e-02,-1.44387826e-01,
  -3.03185992e-02,-6.66185766e-02,-6.43889010e-02,-5.46155274e-02,
  -1.15634866e-01,-3.11835557e-02,-1.27478123e-01,-4.13543433e-02,
  -8.99309963e-02,-1.16144039e-01,-8.06326121e-02,-6.28584996e-02,
   6.64080307e-02,-1.31313458e-01,-4.03182432e-02,-2.55314391e-02,
   1.16067827e-02,-8.77092928e-02,-8.43615979e-02,-8.63403305e-02,
  -4.25285660e-02,-1.72749326e-01,-1.50192231e-01,-5.06887324e-02,
  -1.13434047e-01,-4.48424816e-02,-4.83205281e-02, 1.99950114e-03,
  -4.69610514e-03,-1.55430092e-02,-8.50117591e-04,-1.08530685e-01,
  -1.39931262e-01, 1.92043297e-02,-7.63225183e-02,-5.86279444e-02,
  -2.16465201e-02,-7.83098768e-03,-2.82236394e-02,-9.05549452e-02,
  -7.56251216e-02,-9.49157923e-02,-4.07065861e-02,-2.44392548e-03,
   3.46450768e-02,-3.48765738e-02,-4.26057950e-02,-1.30099813e-02,
  -4.57028300e-02,-8.21380466e-02,-9.52065215e-02,-2.16323286e-02,
  -8.75478387e-02,-1.09084425e-02,-2.39982884e-02,-1.39160408e-02,
   6.83349231e-03,-4.29906212e-02,-9.52170044e-02,-1.94327384e-02,
  -4.20852602e-02, 5.73912114e-02,-2.52097100e-03, 4.08101417e-02,
   8.85601807e-03,-9.26882476e-02,-5.75902238e-02,-7.71179497e-02,
  -3.55616920e-02, 2.98844613e-02,-1.01624355e-01,-1.20495267e-01,
  -1.24450527e-01,-1.50546385e-02,-5.25627621e-02,-1.04441181e-01,
  -7.42100477e-02, 8.73593688e-02,-1.13203125e-02,-7.14936778e-02,
  -2.65761446e-02, 5.65426573e-02,-9.65947956e-02,-9.38861631e-03,
  -5.34574687e-02,-2.22470146e-02, 8.78200494e-03,-3.41859385e-02,
  -5.48396520e-02,-1.04834549e-02,-1.28865734e-01,-7.68029466e-02,
   5.04957652e-03,-8.91286656e-02,-4.98782322e-02,-1.32518634e-01,
  -5.18369861e-02,-7.78452531e-02,-7.00042844e-02, 6.45864829e-02,
   6.82045370e-02,-1.10517135e-02,-6.49053156e-02,-1.30399048e-01,
  -9.49978754e-02,-1.41826361e-01,-5.46557158e-02,-3.07096317e-02,
  -5.78858145e-02, 1.16929278e-01,-1.43042818e-01,-7.21593052e-02,
   1.16203623e-02,-1.01611726e-01,-7.05617107e-03,-4.65405956e-02,
  -7.41456300e-02,-1.50571289e-02,-2.40632147e-02,-3.17117572e-02},
 {-5.67738060e-03, 9.86908004e-02,-8.30698967e-01, 6.63265944e-01,
   1.49086201e+00,-5.84842730e+00, 1.73123553e-01,-1.29960613e+01,
  -4.47470039e-01,-2.38213992e+00, 1.32036328e+00, 2.51468807e-01,
   1.91855222e-01,-8.88186991e-01,-9.17025506e-02,-1.47560090e-01,
  -2.78980088e+00, 1.12886930e+00,-1.93623945e-01, 8.35906684e-01,
   3.87974270e-02, 1.30979076e-01,-4.95058388e-01,-1.94957078e-01,
  -3.06197834e+01, 1.01755321e+00, 2.72700548e+00, 3.22767210e+00,
   4.99428287e-02,-1.57183647e-01, 1.05607295e+00,-5.49398437e-02,
  -8.71887624e-01,-2.51616210e-01,-7.48968840e-01, 2.57101834e-01,
  -5.22751987e-01,-2.74117380e-01,-5.02390432e+00, 2.09565878e+00,
  -2.16430402e+00, 5.18977046e-01,-3.90328884e+00,-1.69602752e-01,
  -4.38457680e+00,-7.82866836e-01, 4.14435101e+00,-3.61004800e-01,
  -1.08006942e+00, 3.76698565e+00,-2.24137902e+00,-4.45912838e+00,
  -2.30867529e+00, 5.40171325e-01,-1.65545750e+00,-1.24692999e-01,
  -7.94812632e+00, 1.71203542e+00, 1.09466219e+00,-1.06361926e+00,
  -4.87515986e-01, 3.61981779e-01, 8.59896913e-02,-3.30018306e+00,
  -1.20260882e+00, 6.79091588e-02,-6.82128593e-02,-2.27728784e-01,
   3.27957797e+00,-6.37882113e-01,-4.46823072e+00, 4.64063764e-01,
   1.13367474e+00,-4.31119770e-01,-3.67229080e+00, 4.22308445e+00,
  -2.99140029e-02, 6.15980506e-01, 3.60837364e+00, 1.16592227e-02,
  -2.31079922e+01, 2.89701033e+00, 7.69910276e-01, 6.54834270e-01,
   3.80256288e-02, 3.76125503e+00,-1.17805608e-01,-7.32499409e+00,
   4.86966228e+00,-2.96758699e+00, 1.09734988e+00,-4.79635507e-01,
  -4.98950338e+00, 5.68695009e-01, 6.55205548e-02, 3.93380642e+00,
  -4.47470695e-01,-1.78844738e+00, 6.55322611e-01,-2.69806767e+00,
  -1.27250755e+00, 1.41664773e-01,-1.20454691e-01, 6.34366572e-01,
  -2.19981000e-01, 9.32181835e+00, 7.04411626e-01, 2.38342807e-01,
  -9.05863643e-01, 3.17834973e+00, 7.34702468e-01,-5.65089703e-01,
  -1.74022257e-01,-1.25166744e-01, 1.93090940e+00,-2.38463974e+00,
   7.94191599e+00,-1.44613311e-01, 5.98252118e-02,-5.18817127e-01,
   1.86472607e+00, 1.08926713e+00, 5.82432866e-01, 6.36106634e+00,
   1.53646201e-01,-1.96168733e+00, 3.76188189e-01,-2.29033613e+00},
 { 1.99972427e+00, 8.27503109e+00, 4.53736782e-01, 1.79971564e+00,
   2.19925404e+00, 1.29825366e+00, 9.21851826e+00,-3.29260230e-02,
   3.70181680e+00, 1.83136135e-01,-1.39880669e+00,-2.25404334e+00,
  -9.58418310e-01,-2.57815218e+00, 1.16551447e+00, 9.89491463e-01,
  -6.95228457e-01,-1.20643320e+01,-5.38722944e+00,-1.12199664e+00,
  -4.39521599e+00, 3.66601324e+00, 1.22847211e+00, 2.74396837e-01,
   8.11114192e-01, 1.88356721e+00, 1.58806264e-01,-3.23799777e+00,
  -5.68593681e-01,-9.15459919e+00, 7.04282641e-01, 9.04159129e-01,
   1.64264357e+00,-1.65782223e+01,-7.37034321e-01, 1.69059813e+00,
  -4.80922794e+00, 1.62582755e+00,-4.52064133e+00,-9.64929998e-01,
   3.36045647e+00, 4.20284414e+00, 1.64825082e+00,-1.41255641e+00,
  -8.12081754e-01,-5.90121346e+01, 5.58647692e-01,-1.05079234e+00,
  -6.87385574e-02, 2.11643562e-01, 2.18283176e+00, 5.89732885e+00,
   5.29738140e+00,-2.40526404e-02,-4.52851355e-02,-5.37281895e+00,
   2.14061022e+00,-1.08983028e+00,-2.95257664e+00, 1.54489613e+00,
  -1.80782776e+01, 5.20293665e+00, 5.64065504e+00, 9.43237126e-01,
  -4.53353834e+00, 2.58007717e+00,-1.63552296e+00, 8.22709739e-01,
  -4.45165187e-01, 3.34313345e+00, 9.30409718e+00,-1.03332984e+00,
  -1.71008801e+00,-5.53053021e-01, 2.87805706e-01,-1.97038007e+00,
  -1.05509412e+00, 2.05027151e+00,-1.69741321e+00,-1.61568522e+00,
  -1.42122984e+00, 3.23947072e-01,-4.10587281e-01,-2.60882664e+00,
  -3.46684766e+00,-1.80174303e+00, 5.92969000e-01,-1.01554525e+00,
  -3.79997790e-01, 2.24471942e-01, 1.20407505e+01,-4.99707073e-01,
   2.21109486e+00,-5.67584932e-01, 9.45395678e-02,-1.96357355e-01,
   5.51508141e+00, 1.64259422e+00,-1.03394871e+01,-3.19349442e+01,
  -3.03836966e+00,-2.29928827e+00, 1.84327447e+00, 2.92735815e+00,
  -7.02348724e-02, 3.34128237e+00,-2.48101187e+00,-3.44363898e-01,
   7.63096857e+00,-3.89495206e+00, 5.06720424e-01,-4.09465969e-01,
  -2.31406474e+00,-2.27596328e-01,-1.53682554e+00,-2.96578139e-01,
  -1.42349997e+01,-2.68552933e+01,-5.85695982e+00, 5.79603203e-02,
  -1.05097938e+00,-1.07018781e+00,-7.52290964e+00, 4.73762155e-01,
   1.77325130e+00,-1.90857673e+00, 3.86600208e+00, 1.34465426e-01},
 {-1.58676016e+00,-9.18466389e-01, 3.08755368e-01,-3.60938787e+00,
   4.57803190e-01,-8.25280309e-01, 3.75027204e+00,-1.30829124e+01,
   6.72774196e-01, 1.54270474e-02,-1.25108802e+00,-3.18093038e+00,
   3.13244045e-01, 7.64076889e-01, 2.24420810e+00,-2.04883009e-01,
  -8.76787007e-01,-1.50728226e+00,-3.50654364e+00,-1.53841293e+00,
  -6.75349092e+00, 4.23272324e+00, 1.28860521e+00, 3.16640764e-01,
   7.38339484e-01,-1.10294610e-01, 3.97176802e-01,-3.60060191e+00,
   2.46457267e+00,-2.08493937e-02, 9.80757892e-01, 1.24996758e+00,
  -8.28778207e-01,-6.38421583e+00,-1.55021553e+01,-6.67688084e+00,
  -8.62838459e+00, 3.70404625e+00,-1.51559038e+01,-1.12255847e+00,
   1.86706573e-01, 2.42781663e+00, 1.85514915e+00,-1.12256980e+00,
  -9.53992307e-01,-4.32144105e-01, 1.06696427e+00,-1.21804202e+00,
   3.67784500e-02, 2.00456232e-01, 3.01474643e+00,-8.42527962e+00,
  -2.22699414e-03,-6.27115440e+00,-4.44186172e+01,-1.64365783e-01,
   2.59002090e+00,-2.19355464e+00, 4.75350350e-01, 2.00159144e+00,
  -2.31170845e+00,-6.92530751e-01, 3.86603093e+00, 8.76511514e-01,
  -9.29532146e+00,-1.18622594e-01,-1.22933757e+00, 2.40246582e+00,
  -3.82521182e-01, 1.32545738e+01, 7.64524412e+00, 1.32797644e-01,
   1.62411606e+00,-2.19097209e+00, 1.08700991e+00,-2.66694689e+00,
  -3.93644476e+00, 1.65263700e+00,-2.20786047e+00, 3.45044732e+00,
  -1.77186525e+00,-4.99339849e-01,-1.34951496e+00, 8.81242943e+00,
   2.70041966e+00,-2.33263636e+00,-2.06202880e-01,-1.96109518e-01,
  -5.84107637e-01, 3.50423157e-01,-6.20517063e+00, 3.41388988e+00,
   2.53161693e+00, 4.25459194e+00, 2.29992795e+00, 2.36588001e-01,
  -7.74956131e+00,-5.85809851e+00, 2.84737921e+00,-1.06568193e+01,
  -1.39973652e+00,-7.28108788e+00,-4.52653027e+00,-1.76247799e+00,
   9.03710842e+00, 3.24229908e+00,-2.74486750e-01,-1.72774529e+00,
   6.07454824e+00,-3.93863940e+00,-8.99112403e-01, 2.04580516e-01,
   3.45768146e-02, 2.16687274e+00,-1.68574882e+00,-1.20882787e-01,
   2.01842284e+00, 1.61405933e+00, 4.03053665e+00, 1.27185786e+00,
  -1.38310790e+00,-1.33055568e+00,-5.91494703e+00,-1.30506650e-01,
   7.54930615e-01,-2.46579456e+00,-5.27372837e+00,-8.04438293e-02},
 {-3.56728148e+00, 5.39372712e-02,-1.72277153e+00, 4.10603434e-02,
   1.90827453e+00,-2.08949661e+00,-1.43416274e+00, 5.30959749e+00,
   8.14248502e-01,-4.33879995e+00, 2.11412168e+00,-2.71512485e+00,
  -1.04028044e+01,-1.20075834e+00, 1.69086063e+00,-2.67864251e+00,
  -9.67053294e-01, 8.81389737e-01,-2.69910526e+01,-3.08230352e+00,
  -5.22251654e+00, 1.00530214e+01,-6.19936824e-01, 3.70308578e-01,
  -4.77206439e-01,-1.37155552e+01, 1.87923217e+00, 1.04771578e+00,
   2.24017906e+00,-2.52958131e+00,-5.63751757e-01, 2.03408241e+00,
  -3.84874392e+00, 5.88689387e-01, 4.10639429e+00,-6.94253159e+00,
   6.17169333e+00,-5.16925621e+00, 2.35451961e+00,-1.65698886e+00,
   6.06744385e+00,-1.71716034e+00, 2.69636893e+00,-2.08918324e+01,
  -4.04617757e-01, 6.23715699e-01, 3.14113855e+00, 4.56078100e+00,
  -2.56917739e+00, 5.17444849e-01, 1.46935374e-01, 6.02689791e+00,
   4.85151321e-01, 1.16804075e+01, 2.45127177e+00,-9.49905038e-01,
   3.20399970e-01, 5.29805660e+00, 5.91170788e+00, 1.87146187e+00,
   2.16731143e+00, 1.93634665e+00, 3.69332862e+00, 4.25923777e+00,
   7.48354721e+00,-1.63890672e+00, 8.06566656e-01, 1.00115764e+00,
  -2.52167296e+00,-4.90358162e+00,-6.40410304e-01, 6.62851751e-01,
   9.14720535e+00,-5.08339834e+00,-2.89005661e+00,-1.60666382e+00,
   9.99576986e-01, 2.67611891e-01,-4.77138996e+00, 1.44536531e+00,
  -1.33773029e+00, 6.31155252e+00, 7.43259287e+00,-1.13177311e+00,
  -2.09200382e+00,-4.08289528e+00, 7.32776344e-01,-2.78915477e+00,
   6.01887798e+00, 1.50406599e+00,-4.54910040e+00,-2.44138408e+00,
  -6.90122247e-02, 1.01564765e+00,-1.02691674e+00, 1.06665540e+00,
  -5.41744947e+00, 2.31278315e-01,-7.79127181e-01,-2.06419969e+00,
   5.56817591e-01, 3.69077301e+00,-1.31424451e+00,-5.75607729e+00,
   1.01942194e+00,-5.33458662e+00,-5.43458271e+00,-1.00776660e+00,
   5.08222580e+00, 6.08090639e+00,-3.54331046e-01, 6.69420481e+00,
   4.48898971e-02,-9.25355256e-01, 6.66614711e-01,-1.39414668e+00,
   2.20598555e+00, 6.59227371e+00, 3.24378163e-01,-8.07114983e+00,
  -3.11746287e+00,-8.20518658e-02,-5.28865719e+00,-1.50474072e+00,
  -2.05360460e+00,-7.38698769e+00,-5.30262375e+00, 9.60422277e-01},
 { 1.01085293e+00,-1.90142477e+00,-2.37361521e-01, 1.64850259e+00,
  -3.32058811e+00, 1.51139045e+00,-1.86386883e+00, 1.88498318e+00,
   1.76026392e+00,-2.08499765e+00, 1.52820408e+00, 3.43927121e+00,
  -9.75219905e-01,-3.87883234e+00, 3.40659618e+00, 2.16017771e+00,
  -5.09197354e-01, 3.64208937e-01,-6.97855186e+00,-4.46421003e+00,
  -3.80397320e+00, 2.78784537e+00, 1.44837976e-01, 1.78227842e+00,
   3.17637205e-01,-1.04530869e+01, 9.09438133e-01,-2.23490834e+00,
   7.80090809e+00, 2.25260451e-01, 8.52240658e+00, 1.45265031e+00,
  -2.90279579e+00,-3.05005121e+00, 3.94189858e+00, 8.26918423e-01,
  -1.65437412e+01,-4.16176498e-01, 5.48793459e+00,-2.58243203e+00,
   1.08059502e+00, 6.55021071e-01, 2.25353122e+00,-2.07076356e-01,
  -7.59890795e-01,-6.45330191e-01, 7.65042186e-01, 6.23034096e+00,
  -9.69121397e-01, 1.22783625e+00, 1.77361345e+00,-1.14727521e+00,
  -2.50999600e-01, 2.24068809e+00,-3.41718912e+00,-3.04527044e+00,
   2.00207424e+00,-1.10010302e+00, 5.60008478e+00, 3.40656877e+00,
  -5.30379486e+00,-4.63047791e+00,-3.58040524e+00,-2.44254455e-01,
  -1.06105447e+00, 1.69235659e+00, 2.50443369e-01,-8.90874028e-01,
   1.08041048e+00, 1.59380388e+00,-6.64357781e-01,-8.23846400e-01,
  -6.40158415e+00,-5.92268038e+00,-1.16817212e+00,-4.65857178e-01,
  -1.98407501e-01, 1.25230467e+00,-2.67385340e+00,-2.47183633e+00,
  -2.27756190e+00,-8.80384818e-02, 7.95877457e+00,-1.72332764e+00,
  -4.62979984e+00,-3.84364843e+00, 1.92558539e+00,-4.80649173e-01,
   2.38028383e+00, 6.97781026e-01,-2.00621748e+00,-7.56314397e-01,
   1.39849961e+00, 2.10963845e+00,-2.07307005e+00, 6.77952230e-01,
  -1.29808939e+00, 4.74075973e-01,-1.03572261e+00,-9.24587440e+00,
  -2.02036762e+00,-4.65287352e+00, 3.47449541e+00, 4.94223022e+00,
   9.90755498e-01, 8.31235826e-01, 9.92202818e-01,-2.96797085e+00,
   3.13204861e+00, 1.31584898e-01, 4.60052043e-01,-4.35988712e+00,
  -2.57167459e-01, 8.50878596e-01,-1.11143172e-01,-3.01800823e+00,
   1.43343341e+00,-8.53599167e+00,-7.79157400e-01,-3.22773910e+00,
  -1.42780328e+00,-5.89173913e-01,-1.15273468e-01,-1.78940618e+00,
   4.53721210e-02,-3.23736048e+00, 1.25723100e+00,-2.26053044e-01},
 { 2.87643343e-01, 8.99607539e-02,-2.66991196e+01, 1.03619508e-01,
  -3.70336115e-01,-1.48365271e+00, 8.00552145e-02, 3.11629272e+00,
   2.40983516e-02, 1.90344155e+00,-6.40665293e+00,-7.11277306e-01,
   7.30446056e-02,-5.83761883e+00,-7.43795824e+00,-7.70535135e+00,
  -1.53640091e+00, 7.15373605e-02,-6.05096579e+00, 3.10361791e+00,
   1.83341622e+00, 4.35223722e+00, 3.19351888e+00, 2.64551973e+00,
   3.58967066e+00,-3.10034084e+00,-2.30111722e-02,-4.43344593e+00,
   6.30924627e-02, 1.38483569e-01, 5.84573448e-01, 6.04176614e-03,
  -7.47348905e-01, 8.87295082e-02, 2.12172627e-01,-2.06840903e-01,
   2.24327669e-01,-1.77959740e-01,-1.23477197e+00,-4.36774158e+00,
  -2.60457754e-01, 2.27861330e-01, 6.02562761e+00,-2.29207993e+00,
  -8.64169002e-01, 4.22198623e-02,-5.85044138e-02, 9.23459589e-01,
   1.96064502e-01, 5.96867979e-01, 7.13633633e+00,-2.20015407e+00,
   7.53446043e-01,-1.16755342e+00, 5.42861447e-02, 3.89676750e-01,
   5.36602116e+00,-2.13219643e+00,-7.39139855e-01,-2.60185742e+00,
  -1.78382188e-01,-6.20675206e-01,-2.65024042e+00, 1.11888850e+00,
   7.40216136e-01, 1.18134260e-01, 9.47669148e-02, 8.40361267e-02,
  -1.57020950e+00, 1.55700520e-01, 2.18823537e-01, 5.73226735e-02,
   2.43020266e-01, 5.56068458e-02,-1.37557113e+00,-5.22702789e+00,
  -2.40524509e-03, 6.46383584e-01,-2.01831436e+00, 1.63364261e-01,
   9.74525547e+00, 1.22511415e+01, 3.42675626e-01, 5.83319247e-01,
  -4.02231872e-01,-8.97527790e+00, 2.15676737e+00, 8.78929496e-01,
   1.10368414e+01, 2.58876586e+00, 3.41155678e-01, 8.70492607e-02,
   2.23945379e+00, 2.07727611e-01,-6.90394998e-01,-1.07432926e+00,
  -3.97581291e+00, 1.08063698e+00, 1.68153822e-01, 5.49121916e-01,
   2.74111539e-01,-8.54049146e-01, 4.25880402e-01,-2.93476373e-01,
   3.57722402e-01, 2.79408002e+00,-1.92686009e+00,-3.43473220e+00,
  -3.74600434e+00,-6.86602449e+00, 3.29234391e-01,-6.76746666e-01,
  -1.80347208e-02, 4.42867167e-02,-4.68539619e+00,-4.15331554e+00,
   6.96453190e+00,-6.38249516e-01, 1.54163718e-01,-2.47512192e-01,
  -1.50464618e+00,-3.59187555e+00,-1.84502525e+01,-3.38654470e+00,
  -2.83563018e-01,-6.73707008e+00, 1.75617266e+00,-1.59508872e+00},
 {-1.31712228e-01, 1.49934852e+00,-6.62825727e+00, 1.91960767e-01,
  -1.17276168e+00,-1.22608460e-01, 1.09490478e+00,-8.79255310e-02,
   1.07355976e+00,-4.84431410e+00,-4.31613350e+00,-2.14128256e+00,
   2.04871249e+00,-1.76299524e+00,-8.36927509e+00, 5.02254057e+00,
  -2.58979249e+00,-2.70125651e+00,-3.30280662e+00, 1.13259673e+00,
   3.52352071e+00, 7.69645071e+00,-1.30065787e+00, 1.11971211e+00,
  -3.82782478e+01, 6.66838169e+00, 9.70921803e+00, 3.82395172e+00,
  -4.71390963e+00, 2.43927985e-01, 2.36913323e+00, 2.06451249e+00,
   5.38136661e-01, 6.26405835e-01,-1.74256790e+00,-2.35163236e+00,
   2.80743885e+00, 2.61656404e+00,-4.47856760e+00, 4.65007387e-02,
  -2.64182061e-01, 3.50148201e-01,-2.86155462e+00,-2.49198174e+00,
   1.74941599e+00,-3.45108628e+00, 3.15010047e+00, 6.00899029e+00,
  -5.58047724e+00, 1.52723303e+01,-1.24661851e+00,-4.83385468e+00,
  -8.91853631e-01, 2.54624748e+00, 6.07326508e-01, 3.87963510e+00,
  -1.42443323e+00, 9.19926453e+00, 3.56616437e-01, 2.54901576e+00,
   2.46629333e+00,-5.98455481e-02,-3.86303616e+00,-2.07561340e+01,
  -1.62308908e+00,-2.21972391e-01,-1.13534704e-01, 5.32662678e+00,
  -1.55335248e+00, 2.19151691e-01, 2.97860694e+00,-8.46347958e-02,
   2.78344798e+00,-2.54297972e+00,-3.23258567e+00,-3.57401872e+00,
  -1.60445285e+00, 1.08584082e+00, 1.81897593e+00, 1.10091746e-01,
  -1.01564989e+01, 3.19420195e+00, 2.72666335e-01, 1.02659357e+00,
   1.05552363e+00, 1.40548515e+00,-8.69915903e-01, 3.81365848e+00,
  -1.05177021e+00,-5.42624855e+00, 4.06955910e+00,-1.84130624e-01,
  -6.83059788e+00, 7.31481761e-02,-3.97923493e+00, 6.71386003e-01,
   9.12666380e-01, 8.72191191e-01, 2.34156179e+00, 1.04660356e+00,
  -2.16891599e+00, 1.50588477e+00, 1.28261757e+00, 1.16157405e-01,
   3.84915400e+00, 1.34300661e+00,-2.02562928e+00,-4.11321497e+00,
  -1.72230676e-01, 7.48821783e+00, 5.52711666e-01, 1.97714913e+00,
   4.93413985e-01, 6.35391116e-01, 1.06350965e+01,-5.26237011e+00,
   4.41280746e+00, 2.76030946e+00,-1.70221567e+00,-4.65327644e+00,
   2.63554573e+00, 5.63370848e+00,-4.68307674e-01,-5.13942432e+00,
   3.09193420e+00,-1.40577972e+00, 6.66206419e-01,-7.66624594e+00},
 {-6.10404670e-01,-3.20707858e-01, 1.07405281e+00, 3.28970432e+00,
  -6.33592367e+00, 2.20373106e+00, 2.81494665e+00,-3.37701464e+00,
  -5.00716639e+00, 1.26890540e+00,-8.37976336e-01, 1.26235449e+00,
  -1.62406635e+00, 1.26350439e+00, 3.43973947e+00, 7.03783798e+00,
   2.55541921e-01,-4.78297281e+00, 2.56919956e+00,-5.54907501e-01,
  -6.26700878e+00, 3.44116616e+00, 6.93319201e-01, 3.09209913e-01,
   2.47013378e+00, 3.49356979e-01,-8.98969948e-01,-7.79651499e+00,
  -2.93259025e+00, 2.48807192e+00, 1.41535819e+00, 9.49501276e-01,
   2.46681333e-01,-7.22209439e-02,-1.07760172e+01,-7.39567697e-01,
  -9.24918577e-02, 5.18472195e-01, 7.89016128e-01,-2.30036235e+00,
  -1.26110649e+01,-4.62125063e+00, 3.52640963e+00, 3.59409809e-04,
   1.58791050e-01,-2.52556944e+00,-1.00756276e+00,-1.29493713e+00,
   1.57287747e-01,-6.27117455e-01, 1.52778637e+00, 2.81511092e+00,
  -5.75304413e+00,-4.04913712e+00,-4.85424423e+00, 1.37416923e+00,
   7.70177126e-01,-1.96402359e+00, 3.13004088e+00,-6.48882389e-01,
  -3.42985058e+00, 1.48452008e+00,-1.79996860e+00, 3.77231932e+00,
   9.02309227e+00,-5.55198050e+00,-3.37369943e+00,-1.87746584e+00,
  -9.98352587e-01, 7.03377199e+00, 1.03938742e+01,-4.86811638e-01,
  -3.15851092e+00, 3.01983118e+00, 1.85414600e+00,-1.15754580e+00,
  -2.32418585e+00, 6.09911263e-01,-2.76442575e+00, 6.68383658e-01,
   2.39089012e+00, 3.10105056e-01, 3.43235087e+00,-3.24367061e-02,
   1.90399396e+00,-2.61709762e+00,-4.74866033e-02,-1.02047968e+00,
  -6.66152775e-01, 1.48300242e+00,-5.88384247e+00,-6.06840216e-02,
   5.87252331e+00,-7.17681423e-02, 9.91370487e+00,-4.45711136e-01,
  -3.58261442e+00, 2.52688932e+00, 3.34565926e+00, 9.42959726e-01,
  -1.80466366e+00,-6.14710093e+00,-9.43786502e-01, 5.28210878e+00,
   1.27723432e+00, 6.40803289e+00,-1.70354366e+00, 1.68723047e+00,
   1.19367969e+00,-4.32201719e+00, 5.73996305e+00, 6.91244602e-02,
  -1.11600900e+00, 2.16917181e+00,-1.69320989e+00, 4.19909179e-01,
   2.43546438e+00,-2.54377604e+00, 3.40273523e+00, 1.32584488e+00,
  -1.31188822e+00,-2.67788696e+00,-1.02687864e+01, 5.33791006e-01,
   3.63558233e-01,-1.29496896e+00, 1.56226015e+00, 8.71506155e-01},
 { 5.18863089e-02,-2.80214055e-03,-5.15132472e-02, 6.59531504e-02,
   4.70797643e-02,-1.06617734e-01,-1.12133674e-01,-8.75691250e-02,
  -7.74323195e-02,-1.12940148e-01, 7.46060535e-02,-2.86204778e-02,
   6.75810501e-03,-6.40678331e-02,-1.27930209e-01, 2.66643818e-02,
  -1.41060827e-02,-5.45254014e-02,-6.84455261e-02,-3.51820067e-02,
  -2.07776800e-01, 5.03553264e-02,-1.83817018e-02,-2.96491478e-02,
  -5.03557688e-03, 3.15594710e-02,-1.29996836e-01,-1.38246179e-01,
  -4.63082232e-02,-1.40366452e-02,-3.10647972e-02,-2.69109942e-03,
  -9.28229839e-03,-2.60463059e-02, 4.07825075e-02,-5.89946397e-02,
  -3.60571854e-02,-1.13326721e-01,-8.88477340e-02,-1.22166127e-01,
  -3.89048993e-03, 2.05600634e-02, 2.15869974e-02,-7.09366724e-02,
  -5.71531951e-02,-7.87119418e-02,-4.67849933e-02,-1.18682869e-01,
  -1.71039581e-01,-5.04080579e-02,-6.25061095e-02,-3.05420849e-02,
  -6.12200610e-02, 7.18932552e-03,-1.08772397e-01,-7.74402767e-02,
  -1.22201547e-01,-1.05902523e-01,-1.59256551e-02,-4.47247028e-02,
  -5.51395155e-02,-7.28375241e-02,-1.22879736e-01,-9.70962569e-02,
   7.46569410e-03,-1.38961077e-01,-9.13428888e-02, 1.16799260e-03,
  -6.89454423e-03,-8.89924541e-02,-2.27846410e-02,-3.02228145e-02,
  -5.77722564e-02,-1.41453311e-01,-6.98541403e-02,-1.31637141e-01,
  -1.13131784e-01,-7.83250257e-02,-5.80182225e-02, 4.26030438e-03,
  -4.46544997e-02,-4.59200628e-02,-5.37221581e-02, 1.02247801e-02,
  -7.85624981e-02,-8.14773440e-02,-8.43108073e-02,-1.42702371e-01,
   6.16131071e-03,-1.84148088e-01,-9.60491598e-02,-7.37144500e-02,
   3.34087946e-02,-1.00276195e-01, 1.36403702e-02, 1.61089581e-02,
  -1.65710345e-01, 1.76464245e-02,-6.08998537e-02,-1.10212207e-01,
  -1.02338776e-01, 1.06180180e-02,-1.02895893e-01,-5.92023395e-02,
  -1.28398284e-01,-1.16269067e-01,-1.30341174e-02,-7.91177228e-02,
  -8.26109946e-02,-9.55991389e-04,-1.09070085e-01,-5.93590923e-02,
  -2.33875886e-02,-1.29471540e-01,-2.79836114e-02,-1.40866280e-01,
   7.27799430e-04,-2.31196824e-02,-4.56574187e-03,-1.13086067e-01,
  -7.74431452e-02,-2.63369326e-02,-1.54842157e-02,-5.73421270e-02,
  -1.48855925e-01,-9.82111841e-02,-9.72939655e-02, 2.51242444e-02},
 {-1.06976295e+00, 2.42173746e-01, 9.10695839e+00, 9.97546375e-01,
   2.95380211e+00,-4.58629513e+00, 8.51277232e-01,-2.59625053e+00,
  -3.04732323e-01, 4.42226410e-01,-1.17782307e+01,-9.85261261e-01,
   5.94206691e-01, 1.25670099e+00, 1.31318724e+00,-4.03370476e+00,
   1.19087827e+00, 6.96621358e-01, 2.13753477e-01,-1.67199433e+00,
  -4.44844179e-02, 7.18288374e+00, 5.14980018e-01, 1.06601262e+00,
   3.52523184e+00,-2.65716481e+00,-1.75633645e+00,-4.29151917e+00,
   8.44211817e-01, 2.66033918e-01,-6.33177280e-01,-3.64762335e-03,
  -1.20511198e+00, 5.39024957e-02, 3.83673072e-01, 1.40171066e-01,
   1.12938523e+00,-1.28975427e+00,-1.08501363e+00,-1.91875255e+00,
  -1.97962070e+00, 2.76840329e-01, 2.01058245e+00,-4.72471428e+00,
  -4.29760456e-01,-6.34945273e-01, 1.20657349e+00, 3.34352040e+00,
   2.86856914e+00,-1.68109787e+00,-7.94982135e-01, 1.14172351e+00,
  -9.57043827e-01,-8.69956076e-01,-6.60255909e-01,-1.00268006e+00,
   2.67878842e+00, 1.33670437e+00, 3.07534623e+00,-3.56251001e+00,
   1.73411727e-01, 2.35634446e+00, 3.17846864e-01, 3.31643033e+00,
   2.04919910e+00, 1.11517024e+00, 8.63245279e-02,-4.58587825e-01,
  -3.68058515e+00, 2.24698007e-01,-1.30772457e+01,-7.15734959e-02,
   8.95798588e+00,-4.98709559e-01, 3.50658703e+00, 7.44952023e-01,
   5.69154739e-01, 4.66362596e-01, 2.87508464e+00,-2.24045783e-01,
   4.61711359e+00,-5.77306175e+00, 1.93576109e+00, 1.63429603e-01,
  -4.54466581e+00,-4.62476444e+00, 8.10460210e-01, 4.35393906e+00,
   1.86109221e+00, 1.88743997e+00,-4.11446571e-01, 6.71538591e-01,
   3.23515534e-01,-1.08785617e+00,-2.81673938e-01, 1.40777588e+00,
  -1.32415771e+00,-1.87182724e-01,-6.99170291e-01,-2.34881783e+00,
  -9.12659705e-01,-1.51039734e-01,-2.74020225e-01,-8.80784869e-01,
   5.44758022e-01,-3.44569325e+00, 7.22325802e-01, 3.64586055e-01,
  -6.45478678e+00, 2.39699793e+00,-6.24699593e-01, 3.02558303e-01,
   1.87589154e-01,-2.71857411e-01,-9.45602000e-01,-2.74308419e+00,
  -7.26873064e+00, 9.44722891e-01, 5.53137287e-02,-1.24193442e+00,
   3.56460840e-01,-3.87052822e+00, 1.24553652e+01,-1.59703827e+00,
  -4.43633258e-01,-8.01625311e-01, 2.39356732e+00, 3.17483997e+00},
 { 5.73890269e-01, 4.44304466e-01,-6.25642315e-02, 1.33278501e+00,
   4.14600313e-01,-2.58822203e-01,-1.02190518e+00,-2.09904933e+00,
  -5.62564507e-02, 8.62520635e-02, 8.72910395e-02, 1.04511246e-01,
   2.31701732e+00, 4.67427410e-02, 1.62194520e-01, 7.52928555e-02,
  -2.06387434e-02, 8.63085836e-02, 5.63006878e-01, 4.23586443e-02,
   5.47358847e+00, 1.00187548e-01, 4.58801948e-02,-2.58848723e-02,
   2.81301851e-04, 8.99836481e-01,-4.99011837e-02, 2.46959031e-01,
   6.12047920e-03,-1.86902657e-01,-3.70767474e-01, 4.92584258e-02,
   3.16331208e-01,-2.79551089e-01,-2.66193142e+01,-1.93395302e-01,
  -2.27299285e+00, 7.35199988e-01,-6.39162883e-02,-3.67220342e-02,
   9.31751952e-02, 1.38100123e+00,-5.28640859e-03, 4.68446434e-01,
  -4.93091315e-01, 1.06930755e-01, 6.31361443e-04,-8.57304186e-02,
   2.29635946e-02,-2.88532414e-02,-5.37059177e-03, 1.80902600e-01,
  -2.01065596e-02, 2.45189741e-01,-2.50307693e+01,-1.42472014e-02,
   2.24502198e-02,-1.44257903e-01, 3.93500961e-02,-6.56761453e-02,
  -6.38503805e-02, 8.96801725e-02, 5.20623255e+00, 6.65575787e-02,
  -2.23696291e-01, 1.38901666e-01,-4.37596798e+00,-1.32526010e-01,
   1.93906426e-02, 7.65321684e+00,-3.52303982e-01,-2.77724624e-01,
  -1.56881884e-01,-8.21702182e-02,-2.41509080e-01,-4.16766107e-02,
   1.64120054e+00, 3.15536523e+00,-3.85480709e-02,-5.04835129e-01,
   3.27251673e-01, 3.37829769e-01, 2.74931043e-02,-3.77404523e+00,
  -2.89524496e-01, 8.68561193e-02, 4.01081219e-02,-2.31257416e-02,
   6.63187951e-02, 8.08392540e-02, 1.39140809e+00,-3.76096480e-02,
   5.58303706e-02,-1.69575500e+00,-5.26214714e+01,-3.18283737e-02,
   2.26685357e+00,-2.26145118e-01,-1.03312254e+00, 1.95471495e-01,
  -1.61077708e-01,-6.52360201e+00, 2.60386795e-01,-2.63838768e+00,
   2.94062924e+00,-4.27550435e-01,-1.98931023e-02,-6.32530078e-02,
  -7.18573391e-01,-9.83261913e-02,-2.98794198e+00,-2.21805498e-01,
  -1.77259266e+00,-1.25068986e+00, 3.46681289e-02, 2.25605406e-02,
  -1.51217985e+00,-1.15652293e-01,-4.52039659e-01, 6.57190382e-02,
   5.55268396e-03, 2.12995522e-02, 1.46139562e-01,-1.48455322e-01,
  -4.95339155e-01,-9.58152488e-02, 4.14504147e+00, 2.70016026e-02},
 { 2.69841266e+00, 8.49946916e-01, 3.16744208e+00, 6.10493660e-01,
  -9.34857750e+00,-3.95800948e+00, 1.36300361e+00,-6.95632279e-01,
   3.28029418e+00, 2.99252224e+00, 1.57554042e+00,-1.43437016e+00,
  -7.37538278e-01,-7.04786837e-01, 2.89995289e+00,-8.58079791e-01,
  -1.57816470e+00,-1.40176785e+00, 5.03462648e+00, 2.66580057e+00,
  -4.53800344e+00, 3.03104520e+00, 2.01501346e+00,-3.11323136e-01,
   1.87864494e+00,-1.49420336e-01, 1.93142939e+00,-1.13693962e+01,
  -1.28616118e+00,-4.60471570e-01, 2.39393854e+00, 4.10954762e+00,
   1.34101439e+00, 2.79879361e-01,-3.30679822e+00,-2.10731864e+00,
   9.23054934e-01, 3.42490256e-01,-5.97526021e-02,-3.06179905e+00,
   2.92271376e+00, 1.33417934e-01, 1.74989414e+00, 5.34406722e-01,
   3.86585331e+00,-3.73506099e-01, 2.19854975e+00,-1.43925452e+00,
   6.63750470e-02, 2.57922500e-01, 4.34157085e+00,-3.29825670e-01,
   2.90244412e+00,-4.66119856e-01,-4.78422928e+00,-1.27300334e+00,
   1.07140961e+01,-4.19939089e+00,-8.86884785e+00, 5.84161341e-01,
  -2.09604454e+00, 1.11001574e-01,-2.49679828e+00, 2.68299794e+00,
  -1.17369962e+00,-3.89539742e+00,-3.16259451e-02, 3.74037176e-01,
   4.56642032e-01, 1.02573705e+00, 3.84482789e+00,-1.65801442e+00,
  -8.89927578e+00, 2.91789126e+00, 3.63643885e+00,-4.06418324e+00,
  -1.08280787e-02, 1.59858131e+00,-3.83447170e+00,-7.52944052e-01,
   4.81283998e+00,-4.12820530e+00,-3.11467862e+00,-2.27798152e+00,
   4.38406765e-01,-3.39244938e+00, 1.87604320e+00,-1.79506183e+00,
   2.08887005e+00, 1.06471801e+00, 5.44348776e-01,-2.00373793e+00,
   3.57230473e+00,-2.53446770e+00, 2.61150670e+00, 3.36385942e+00,
   4.13442278e+00, 3.16402388e+00, 4.68651265e-01, 1.02873135e+01,
   1.48273337e+00,-3.30842406e-01, 2.68467474e+00, 2.45404005e+00,
   3.14957452e+00, 6.30771685e+00,-8.94302189e-01,-1.33167100e+00,
  -7.70827651e-01,-1.21440868e+01,-5.79240501e-01, 5.26674700e+00,
  -9.20235589e-02, 9.75092530e-01,-3.66608524e+00,-4.23192120e+00,
  -3.29818869e+00, 1.79185975e+00,-8.89384925e-01, 4.90828896e+00,
  -3.69501972e+00,-2.69953823e+00,-1.07038939e+00, 3.61231709e+00,
  -5.84736538e+00,-3.24996829e+00, 2.26424789e+00, 1.28344715e+00},
 {-1.93636501e+00, 2.36699176e+00,-2.01167846e+00, 3.59257841e+00,
  -1.80359573e+01,-9.81743038e-01,-1.15324125e+01,-6.60669684e-01,
  -9.75351429e+00,-2.52800256e-01,-7.92541057e-02, 8.30531025e+00,
  -5.33104515e+00, 1.87923932e+00, 1.09628451e+00,-2.43745804e+00,
   9.79203939e-01, 9.23936784e-01, 9.68410206e+00, 5.42108595e-01,
  -6.71991920e+00,-3.54102945e+00,-1.42869604e+00,-3.61481220e-01,
  -4.95432884e-01, 1.84693098e-01,-3.23978305e+00,-1.17481613e+00,
  -4.23947453e-01, 2.16008091e+00, 2.08301020e+00,-1.24581707e+00,
  -2.07888341e+00, 1.10683842e+01, 7.40780711e-01,-2.28189275e-01,
  -1.06194174e+00, 1.83982456e+00,-1.36061692e+00, 8.56589556e-01,
  -1.96490955e+01, 2.82153392e+00,-1.43364191e+00, 4.27452421e+00,
   5.91705181e-03,-1.43018618e+01,-8.81499887e-01, 1.87929833e+00,
   6.77270114e-01,-4.19775695e-01,-2.46363854e+00, 2.08467102e+00,
  -1.57715786e+00, 1.16339564e+00, 4.40079868e-02, 2.46928319e-01,
  -2.17697120e+00, 2.97509837e+00, 7.15642071e+00,-1.91825271e+00,
  -8.94662762e+00,-1.94154680e+00, 1.06203103e+00,-1.03364217e+00,
  -2.75996876e+00,-6.86923647e+00,-2.00421572e+00,-1.64160207e-01,
   9.89885256e-02, 1.10339108e+01,-4.93569469e+00, 1.21451890e+00,
  -6.11316252e+00, 3.71890217e-01, 8.97934735e-02, 2.37362599e+00,
  -1.05665171e+00, 1.25942934e+00, 2.19091916e+00,-4.71191138e-01,
   1.35723901e+00, 1.44280899e+00,-5.62502384e-01, 6.07006490e-01,
  -1.85517597e+00,-1.25440672e-01, 4.86277677e-02, 4.23278153e-01,
  -2.99366027e-01,-2.69563586e-01, 3.36007237e+00, 4.47485536e-01,
  -2.36895895e+00,-1.28863249e+01, 1.64655542e+00, 7.60762244e-02,
   1.05027246e+01,-2.61617041e+00,-1.28340521e+01,-5.69731379e+00,
  -1.91794729e+00,-6.57933283e+00, 1.02020562e+00,-1.32010615e+00,
   7.15646565e-01, 4.57321119e+00,-2.46337337e+01,-1.97203236e+01,
  -1.08252230e+01, 2.39731550e+00, 1.94948840e+00,-2.24261427e+00,
  -3.85321528e-01,-2.02243733e+00, 1.35551333e+00, 2.63424665e-01,
  -5.97051144e+00,-7.31709194e+00,-2.88159704e+00, 1.50058031e-01,
   1.49393523e+00, 1.02186430e+00, 2.93812823e+00,-1.28539288e+00,
   1.21000695e+00, 3.06720138e+00, 1.02660980e+01, 1.12536676e-01},
 {-1.66829646e+00, 1.56280053e+00,-4.22747898e+00,-2.87129819e-01,
  -2.34744930e+00,-3.59021664e+00, 3.58209908e-01,-2.35570335e+00,
  -2.61474562e+00,-5.72880840e+00,-4.72713232e+00,-3.15598100e-01,
   5.69128394e-01, 1.82778800e+00,-1.98211730e+00, 2.31685328e+00,
   3.52974832e-02,-1.20577574e+00, 7.41218376e+00, 3.61764288e+00,
   1.17010701e+00, 1.54731245e+01, 2.91443539e+00, 1.55259445e-01,
  -2.55556107e+00, 9.35450363e+00, 5.50981140e+00,-1.12300706e+00,
  -4.65188026e-01,-1.69666135e+00, 2.85181141e+00, 3.97998309e+00,
   5.28516233e-01,-2.37574458e+00, 4.53316905e-02, 8.70149255e-01,
  -2.36814141e+00,-1.26934850e+00,-4.02197504e+00,-5.60275364e+00,
  -2.56029606e+00, 4.26348180e-01, 1.01997395e+01,-2.05114794e+00,
   2.38135791e+00,-1.15420842e+00,-5.13071597e-01, 5.51842976e+00,
  -2.24063015e+00, 6.34912157e+00, 4.98249769e+00,-8.84688759e+00,
  -2.40076733e+00,-1.77804112e+00,-1.08576989e+00,-8.63475263e-01,
   5.38961983e+00,-5.60304308e+00,-3.35278606e+00, 4.63683653e+00,
   2.65361524e+00,-1.51708080e-02,-1.71763098e+00, 2.52395093e-01,
  -8.97274852e-01,-1.18575013e+00, 2.29343757e-01,-4.25859547e+00,
  -9.05408680e-01, 1.73256433e+00, 2.48990707e+01,-2.13692141e+00,
  -1.23614621e+00,-1.40949273e+00,-3.12732339e+00,-3.99446130e+00,
  -7.02446818e-01, 9.06897843e-01,-1.26185236e+01, 9.02297139e-01,
   2.97693992e+00, 4.78679895e+00,-4.19909239e+00, 1.50674915e+00,
  -3.44442129e+00,-8.07877481e-01,-3.51273084e+00,-8.74195290e+00,
   1.08839846e+01,-4.36701345e+00, 1.99109805e+00,-1.78298557e+00,
   2.09860992e+00, 1.49467349e+00,-1.10594106e+00,-1.05358953e+01,
  -1.76256210e-01,-1.37259376e+00,-4.27518278e-01, 1.35477304e+00,
  -5.01956940e-01, 2.83033043e-01,-6.02071404e-01, 1.41234457e+00,
   2.13877225e+00,-3.29982758e+00,-1.46337771e+00,-2.64565992e+00,
  -2.27239095e-02, 7.72043049e-01, 6.62480831e-01, 1.64881632e-01,
   1.93425491e-01,-8.55479360e-01, 9.37906837e+00,-4.40140754e-01,
   1.45925636e+01, 5.74297309e-01,-1.02973986e+00, 2.26729679e+00,
  -4.98048830e+00,-1.28014240e+01,-2.27740116e+01, 1.85034430e+00,
  -8.85681629e-01,-1.00763083e+01,-1.18355252e-01,-5.44270706e+00}};

const float b2[sz_hid_2] = {-14.649649  ,  2.017241  , -0.09730431,-10.61195   ,-18.549809  ,
 -14.322845  , -3.4400284 , -7.104286  ,  7.165965  ,  6.7535934 ,
  -9.788025  , -6.914094  , -2.0250947 ,-13.355458  , -6.373629  ,
  -0.1391562 ,  2.2005455 , -0.19939627, -1.1887993 ,  7.9953713 ,
  -7.3888373 ,-18.033398  ,-15.523204  , -4.242115  , -7.7193775 ,
 -13.907429  , -0.12889045,-17.528648  ,  8.682078  , -8.544639  ,
   5.5290313 ,  6.05151   };

const float w3[sz_act][sz_hid_2] = {{-0.00375241, 0.13886343, 0.06792714, 0.015313  , 0.04715214, 0.1551432 ,
   0.07708192,-0.01325406,-0.00945925, 0.00782421,-0.11133572,-0.00117548,
  -0.02254504,-0.21273446, 0.03283749,-0.0184703 ,-0.09234061, 0.11049001,
   0.17363115,-0.00064738, 0.00895885, 0.09837101, 0.1619531 ,-0.11481694,
   0.5193093 , 0.01467349, 0.04232942, 0.15194233,-0.00106189,-0.16844742,
  -0.00731221,-0.4180542 },
 {-0.09284768,-0.00223046, 0.10947878,-0.12611839, 0.237347  , 0.00391205,
  -0.00086924, 0.09958592,-0.06262426,-0.07991122, 0.00122482,-0.11033202,
  -0.13681784, 0.02790363, 0.20743883, 0.00368104, 0.00102819,-0.06506845,
  -0.0025319 , 0.12922129, 0.08523497,-0.00315216,-0.00346183, 0.00087471,
   0.00572825,-0.17261203,-0.05213569, 0.00662244,-0.11626423, 0.00818399,
   0.10019453,-0.00595035}};

const float b3[sz_act] = {-0.00898467, 0.39920485};

