const float w1[sz_hid_1][sz_obs] = {{ 2.54595256e+00,-1.39039308e-01,-2.99746943e+00,-4.36855201e-03,
   6.94795698e-03, 1.03575317e-02, 5.75181341e+00,-3.28421453e-03,
  -1.70776416e-02},
 {-6.38591275e-02, 8.02198276e-02,-1.43063411e-01, 2.05973387e+00,
  -1.66863060e+00, 1.57930613e-01,-4.30282168e-02, 4.36590004e+00,
   5.50157670e-03},
 {-6.89127296e-02,-1.20413639e-02,-1.67961687e-01, 1.88562131e+00,
   2.69305259e-01,-1.48160875e+00, 1.22458376e-01, 2.29393527e-01,
   2.70939231e+00},
 { 1.07949674e-01,-1.99573889e-01, 1.08966076e+00, 1.91145408e+00,
   9.84450340e-01,-2.38898063e+00, 8.00349936e-02,-2.86861372e+00,
  -8.41716766e-01},
 {-3.00137270e-02, 2.82519889e+00, 1.55242157e+00, 1.83638167e-02,
   1.87778659e-02, 8.77643451e-02,-3.22642660e+00, 8.98763314e-02,
   5.72184622e-02},
 {-4.99549322e-02, 4.70851213e-02,-4.29906321e+00,-1.20252621e+00,
  -3.35873604e-01,-1.04227781e+00, 2.56082863e-02,-6.95262909e-01,
  -2.39006543e+00},
 {-3.76606256e-01,-5.20224452e-01, 5.91236401e+00, 6.38364777e-02,
  -1.61702961e-01, 2.84713469e-02,-7.16389656e-01,-2.30674469e-03,
   1.30441606e-01},
 {-6.31120741e-01, 1.50354290e+00,-1.39138138e+00, 1.71468165e-02,
  -4.14591376e-03,-9.82398540e-02, 3.74208641e+00,-3.47772124e-03,
   9.49986745e-03},
 { 6.84368134e-01, 1.26917970e+00,-2.92065310e+00,-5.01003815e-03,
   4.29461636e-02,-2.08957195e-02, 4.00214100e+00,-9.67770349e-03,
  -8.05497244e-02},
 { 1.69693434e+00,-1.09423792e+00, 2.25628781e+00, 9.73557774e-03,
  -4.70197946e-03,-3.63383070e-02,-5.33984661e+00,-1.47652323e-03,
   1.16514098e-02},
 { 3.03644836e-01, 3.75252515e-01, 2.22873535e+01,-3.38504240e-02,
   4.65550125e-02,-1.76278308e-01, 2.16719046e-01,-6.08435366e-04,
   1.72856748e-02},
 { 7.45190382e-01, 5.31864583e-01,-8.00564098e+00, 1.65260583e-02,
   2.76517496e-02, 3.72469500e-02, 7.03293264e-01,-3.20113569e-01,
   1.32489637e-01},
 {-2.51147174e-03, 7.54163181e-03, 2.68928349e-01, 2.24954295e+00,
   5.82638502e-01, 5.82402849e+00, 8.22295249e-03,-5.31864452e+00,
  -5.02247326e-02},
 { 5.63637130e-02,-1.06054179e-01,-1.25339365e+00, 1.42589068e+00,
   2.70551419e+00,-2.08375797e-01, 1.60980038e-02,-3.65244031e+00,
  -2.81445026e+00},
 { 1.68965387e+00,-4.61959749e-01, 6.20675135e+00, 1.45421717e-02,
   3.15520987e-02,-5.63131943e-02,-5.11350203e+00,-2.75829546e-02,
   2.11043563e-02},
 { 3.77453640e-02,-1.37149855e-01,-2.14867115e+00,-1.42988753e+00,
   4.68593478e-01, 1.00384641e+00,-1.81096628e-01,-2.43487859e+00,
  -2.57006383e+00},
 {-7.44428635e-01, 4.26269591e-01, 9.62557256e-01,-1.06991351e+00,
   5.42486072e-01, 9.09540355e-01,-1.65460658e+00,-1.08809723e-02,
   2.00716662e+00},
 { 1.91272891e+00,-1.13065398e+00, 1.57208371e+00, 3.35257128e-02,
   6.24025753e-03,-7.82576576e-03,-5.94673014e+00,-1.87805314e-02,
   7.21577182e-02},
 { 8.28989968e-03, 1.48685127e-02, 2.62009561e-01,-2.84494710e+00,
   2.19545555e+00, 4.06940550e-01,-1.60137378e-02,-8.57319772e-01,
   1.80876087e-02},
 { 1.57331284e-02,-1.11424960e-02,-3.06355190e+00, 9.41866875e-01,
   1.30233359e+00, 1.24090266e+00, 8.38841498e-02,-1.92251408e+00,
   1.17230296e+00},
 { 2.08324552e+00, 1.99220940e-01, 1.73916328e+00,-2.19717827e-02,
   6.95604878e-03, 5.85945807e-02,-5.83629227e+00, 9.08438303e-03,
   3.39143677e-03},
 { 1.63379443e+00, 6.51426852e-01,-1.76926136e+00,-5.46874031e-02,
  -7.24287704e-02,-3.72384377e-02, 4.42805004e+00, 1.65578499e-02,
   1.14600152e-01},
 { 1.06491819e-02,-1.32640481e-01, 1.13404703e+00, 3.15879750e+00,
  -2.28553438e+00, 2.04767019e-01, 1.09297656e-01, 3.29998064e+00,
  -1.08534992e+00},
 {-2.22958922e-02, 1.32588958e-02, 8.56662169e-02,-1.54977524e+00,
  -1.71588075e+00,-4.96004075e-02,-7.79311955e-02, 1.77432394e+00,
   3.07317734e-01},
 {-2.61959340e-02,-9.23627522e-03, 8.52938414e-01, 1.22066632e-01,
   5.30675016e-02, 1.22476675e-01, 1.91017818e-02, 3.84376454e+00,
  -1.09575880e+00},
 { 3.20614600e+00,-5.30213535e-01,-7.22573280e-01,-1.47089234e-03,
   1.03318635e-02, 2.81917136e-02, 2.22176838e+00, 2.49733310e-02,
  -4.96892408e-02},
 { 1.17244739e-02, 1.36687858e-02,-4.95551437e-01, 9.32806611e-01,
   8.97627771e-01,-2.75222272e-01,-9.06492770e-02, 4.02908850e+00,
  -1.32554436e+00},
 { 1.32833198e-01, 8.48053838e-04, 1.02038288e+00, 8.54712725e-01,
  -2.12772012e+00, 1.46373916e+00,-1.04448713e-01,-5.63078225e-01,
  -1.84349477e+00},
 {-1.79053452e-02,-3.66123728e-02,-1.56815243e+00,-1.58749652e+00,
  -1.88298655e+00,-2.48044521e-01, 9.69946831e-02,-4.57609415e-01,
   1.41849291e+00},
 { 3.65488557e-03,-1.28134126e-02,-3.79626006e-01, 2.03069448e+00,
   1.40091980e+00,-5.79499817e+00, 1.32153258e-02, 4.54071522e+00,
   5.71340322e-02},
 { 3.35206985e+00,-1.48465967e+00,-1.14064646e+00, 2.14721353e-04,
   1.28441760e-02, 1.39748408e-02, 1.82459188e+00,-3.53272445e-02,
   9.90364607e-03},
 {-5.94147332e-02,-1.40707493e-02, 2.54502237e-01,-1.04888368e+00,
   6.02941513e-01, 7.60347128e-01, 7.44257867e-02,-2.85084081e+00,
   2.44291812e-01},
 {-2.00952999e-02,-6.96425745e-03,-7.07572997e-01, 2.16849238e-01,
   2.75453138e+00, 3.09393853e-01, 5.02356375e-03,-1.33597255e+00,
  -3.46635506e-02},
 {-1.73468336e-01, 4.56500351e-01, 2.11723065e+00, 1.24693966e+00,
   5.91773212e-01, 9.81550574e-01,-4.70869631e-01, 1.77921128e+00,
   9.67553675e-01},
 {-3.05925542e-03,-2.55171489e-02,-1.73847571e-01, 8.08045089e-01,
  -6.77023113e-01, 8.30044091e-01, 3.27329338e-02,-5.26002789e+00,
  -3.11712008e-02},
 { 1.50842089e-02, 1.92315206e-02, 2.85815895e-01,-3.23527873e-01,
  -4.11565810e-01, 3.77534461e+00,-3.86756584e-02,-1.83166295e-01,
  -2.11722031e-02},
 {-2.37836074e-02,-3.62809263e-02, 2.68343544e+00, 1.26824570e+00,
   1.50751626e+00,-2.59684354e-01, 6.34744912e-02,-2.55632925e+00,
   1.96502602e+00},
 { 1.88806796e+00, 1.26326525e+00, 1.04263055e+00,-2.28335336e-03,
   1.43940942e-02, 7.90857524e-02,-2.25887966e+00, 1.50525449e-02,
  -4.80938777e-02},
 { 2.34668350e+00, 1.26492965e+00, 2.34879422e+00,-2.12776195e-02,
   1.40028680e-02, 4.77611320e-03,-5.08681345e+00,-3.71220298e-02,
  -7.72162154e-02},
 {-3.04271821e-02, 6.03445712e-03,-2.17029595e+00, 2.04681039e+00,
   3.73484716e-02,-3.82656664e-01,-1.15189373e-01,-7.26499259e-01,
  -2.41769624e+00},
 {-5.67453146e-01, 7.49198794e-02, 6.31147742e-01,-1.07168950e-01,
   1.02987194e+00, 1.81841701e-02,-1.45199466e+00, 1.28017485e-01,
  -1.63437223e+00},
 {-5.07461978e-03, 6.42417967e-02, 6.37838170e-02, 1.97742832e+00,
  -3.11998034e+00, 2.88594604e-01,-6.33712709e-02, 2.95332217e+00,
  -4.26249474e-01},
 { 1.78718078e+00, 8.53719711e-01,-3.10963541e-01, 3.22235655e-03,
  -1.60673186e-02,-1.59106459e-02, 5.43063831e+00, 6.80263294e-03,
   2.25418769e-02},
 { 1.55648422e+00, 2.52921653e+00, 2.06951094e+00, 2.19467878e-02,
   1.84828565e-02,-6.32719994e-02,-6.48915625e+00,-4.66458946e-02,
  -2.25829948e-02},
 {-2.52741482e-02, 3.97603698e-02, 2.82240987e+00, 3.68075103e-01,
  -1.36321497e+00,-4.82780069e-01,-1.22461259e-01, 9.16742504e-01,
  -3.03302503e+00},
 {-1.25429519e-02,-4.53931540e-02, 1.30819273e+00, 2.16045260e+00,
  -5.49589813e-01, 1.17091537e+00, 1.36125013e-01, 1.26036131e+00,
   2.75547051e+00},
 {-5.47316372e-02,-2.75468882e-02,-2.13168502e+00, 2.21595693e+00,
   8.54191482e-01, 5.49162626e-01,-8.51775333e-03,-2.58446026e+00,
  -1.99810672e+00},
 {-1.72369826e+00,-1.29945564e+00, 9.53550562e-02, 2.75165945e-01,
   4.61474538e-01,-2.36046001e-01, 1.44963634e+00,-2.66766667e-01,
   9.57909524e-01},
 { 3.40005569e-02, 2.33444643e+00,-2.94472098e-01, 3.57537754e-02,
  -3.91925015e-02,-6.05183899e-01, 1.25157416e+00,-1.23860039e-01,
  -2.78025806e-01},
 {-5.38242497e-02,-1.12476153e-03, 2.33010814e-01,-9.97766733e-01,
  -2.70397663e+00,-2.25860667e+00,-2.08305195e-02, 3.13502491e-01,
  -1.11452818e+00},
 { 7.02017099e-02,-9.84479338e-02, 4.96791220e+00,-8.71196628e-01,
   6.63849890e-01, 8.76658678e-01, 1.06682867e-01,-2.21473798e-01,
   3.18807459e+00},
 { 4.78786528e-01,-1.09908772e+00,-1.96073401e+00, 2.00366527e-01,
  -1.69525683e+00, 1.50515184e-01, 1.89547837e+00, 2.18145132e-01,
   1.05868161e+00},
 {-2.56350599e-02,-4.11602221e-02, 1.98611629e+00, 1.89248884e+00,
   5.59475005e-01,-1.08827937e+00,-3.26708518e-02,-1.30819094e+00,
  -2.57266140e+00},
 {-4.28375881e-03,-1.06152482e-01,-1.61221266e+00, 2.04365063e+00,
  -7.92613447e-01, 9.94928002e-01, 6.70470595e-02, 2.53171015e+00,
  -2.16248989e+00},
 { 8.92048299e-01,-4.45723861e-01, 2.13930368e+00,-6.83584630e-01,
  -5.38828522e-02, 1.01118350e+00,-2.87909532e+00, 2.46073231e-01,
   6.65246069e-01},
 { 1.31334681e-02,-2.16137636e-02, 4.22972381e-01, 1.50565416e-01,
   6.07640408e-02, 1.02045223e-01, 1.12336585e-02, 2.55055165e+00,
   1.23819304e+00},
 {-4.35826816e-02,-5.52806333e-02, 1.47148013e+00,-1.87425578e+00,
  -6.70916378e-01,-8.77222955e-01,-5.41526452e-02, 4.37668532e-01,
  -1.69404256e+00},
 {-4.78810305e-03,-2.02141739e-02,-5.40895164e-01, 1.82695258e+00,
   2.30177975e+00,-1.67683326e-02,-6.97815791e-03, 1.24024093e+00,
   5.38740084e-02},
 {-6.72495142e-02, 6.57601878e-02, 2.04297805e+00, 1.54061958e-01,
  -6.29717946e-01, 6.36270404e-01,-8.43141526e-02,-3.56431198e+00,
  -1.39120317e+00},
 { 2.30847836e+00,-1.49655199e+00, 5.34554064e-01, 3.05977138e-03,
   1.09999273e-02,-1.02020420e-01, 4.47379589e+00,-1.82944797e-02,
  -1.49132274e-02},
 {-2.24326444e+00,-9.99408305e-01,-2.03486443e+00, 1.16051957e-02,
  -1.35505889e-02,-5.96886314e-02, 2.27573943e+00, 6.09101467e-02,
  -2.45440733e-02},
 { 1.96224498e-03, 5.05259521e-02,-1.08943176e+01,-4.90099366e-04,
  -2.53948383e-02, 2.15577669e-02,-9.10374075e-02, 8.59316438e-03,
  -4.38480359e-03},
 {-3.40131558e-02,-5.36821149e-02, 4.85353231e+00,-1.47669718e-01,
  -8.55322659e-01, 7.60084927e-01, 5.91774024e-02, 7.09647462e-02,
   2.17181993e+00},
 {-7.15551339e-03,-6.84265122e-02,-3.98623109e-01, 1.40748525e+00,
   2.50954199e+00,-7.88559020e-01,-4.09493931e-02,-1.17342639e+00,
  -1.50981569e+00},
 { 2.37526774e+00, 3.34686249e-01, 2.96182364e-01,-7.24097408e-05,
   1.05573162e-02, 3.25995833e-02,-5.38231707e+00,-3.08000166e-02,
   6.03048317e-02},
 { 3.80570814e-02, 8.07195753e-02,-2.36748052e+00,-1.62468243e+00,
   3.54027897e-01,-6.08586222e-02,-1.38322562e-01, 3.53221625e-01,
   2.67397189e+00},
 {-1.55911624e-01, 2.09793591e+00, 1.70987177e+00, 2.62131542e-01,
   1.50542408e-01, 1.92198470e-01,-1.91787350e+00,-6.81651115e-01,
  -1.30372322e+00},
 { 5.07962983e-03, 2.26006676e-02,-4.15419436e+00, 1.51561928e+00,
  -1.34698141e+00, 5.56211948e-01,-2.65675902e-01, 2.20505452e+00,
   2.30499649e+00},
 { 1.00315362e-02, 3.86175178e-02, 6.80744648e-01,-2.62426877e+00,
   1.71007216e+00, 4.91876215e-01,-1.84622239e-02,-8.29466939e-01,
   1.33489132e-01},
 { 6.42962083e-02,-9.06011909e-02,-2.68883300e+00,-4.97707009e-01,
  -1.02410221e+00, 1.29299164e-01, 1.81042618e-04,-9.90528166e-01,
   2.85231566e+00},
 {-1.57178510e-02, 6.38589170e-03, 2.79356837e+00, 2.39476562e+00,
   5.65900922e-01, 6.50940120e-01, 6.60092458e-02,-2.15953517e+00,
   1.93676579e+00},
 {-3.32553461e-02, 8.41947179e-03, 9.35417488e-02, 3.58563960e-01,
   6.72150910e-01, 2.46925712e-01,-2.25675236e-02,-4.67393935e-01,
  -1.84369612e+00},
 {-3.11274242e+00, 1.07947576e+00, 5.24200261e-01, 2.47012661e-03,
  -4.37158421e-02,-8.53315219e-02,-9.28070918e-02,-2.75308974e-02,
   6.31787907e-03},
 {-2.11103931e-02,-3.58460397e-02,-3.42809772e+00, 1.53316712e+00,
   5.58602035e-01,-4.13804829e-01, 1.64632834e-02,-1.71183109e+00,
   1.53086495e+00},
 {-3.58591378e-02, 4.17767391e-02,-8.11259374e-02, 3.09810567e+00,
  -4.41881061e-01, 3.84533077e-01,-6.05132282e-02,-3.29512334e+00,
   1.04935050e+00},
 { 2.22296920e-02, 1.09727606e-02,-1.68601070e-02,-5.27697289e-03,
  -8.18409026e-01, 2.60187864e-01,-1.77969364e-03,-1.39759123e+00,
  -7.32160881e-02},
 {-3.72960977e-02,-1.69161486e-03,-2.53536463e-01, 4.51166868e-01,
   3.80739856e+00, 1.27366650e+00, 2.35463083e-02,-3.98159742e+00,
  -2.25975737e-01},
 { 3.69754480e-03,-3.74172702e-02, 5.39347887e-01,-1.97052729e+00,
   1.81618586e-01, 9.20214593e-01,-8.73010010e-02,-1.02197662e-01,
  -2.12836313e+00},
 { 1.33377051e+00,-6.87760711e-02,-6.53192103e-01, 3.77942592e-01,
   4.51390505e-01,-6.78894579e-01,-3.50107384e+00,-1.59868166e-01,
   9.30492699e-01},
 {-1.72260880e+00, 1.26991379e+00, 1.96487749e+00,-5.35326637e-03,
  -3.99789540e-03, 1.03689343e-01,-3.15253282e+00, 3.34848762e-02,
  -2.87575424e-02},
 { 1.07683742e+00, 2.62387967e+00, 9.66117859e-01,-1.32616581e-02,
   6.43189773e-02, 4.44289707e-02,-4.71222544e+00,-3.83249186e-02,
  -2.58305632e-02},
 { 2.60406876e+00,-1.74507380e+00,-3.90403771e+00, 1.06096700e-01,
  -9.01180357e-02, 7.01038092e-02, 5.66962242e+00,-1.80620328e-02,
  -2.71140262e-02},
 { 4.99917055e-03, 5.64231712e-04,-7.44287372e-02, 7.90675700e-01,
   1.44417274e+00,-5.86104989e-01, 1.03638023e-02, 5.05509996e+00,
   1.40305655e-02},
 { 1.61169231e+00, 1.07086635e+00,-1.16191876e+00,-4.75167856e-03,
  -5.86252240e-03,-2.10469645e-02, 5.56741714e+00, 9.31669958e-03,
  -7.44948536e-03},
 {-3.20578553e-02, 1.56603176e-02, 5.55741668e-01,-2.38241053e+00,
  -3.03018236e+00,-9.54548538e-01,-3.09515726e-02, 1.84510946e+00,
   1.58396885e-01},
 { 2.21509385e+00, 4.31288600e-01, 3.16211534e+00,-7.06670880e-02,
   6.28711507e-02,-1.83573291e-01,-4.40751362e+00,-2.90756136e-01,
   1.21959895e-02},
 { 1.19560027e+00,-1.27716243e+00, 2.72155356e+00, 1.75259996e-03,
  -1.46872150e-02, 1.30011305e-01,-5.18756628e+00, 2.51058652e-03,
   2.72570900e-03},
 { 3.35527718e-01,-3.22281551e+00, 1.21760499e+00,-2.06699315e-02,
  -2.81545669e-02, 3.44830751e-02, 1.82676804e+00, 2.69272868e-02,
   4.04091887e-02},
 {-8.44881386e-02,-7.99475703e-03, 4.56114721e+00, 1.32982945e+00,
  -1.13352549e+00, 2.41454184e-01,-3.17001231e-02, 3.00664115e+00,
  -2.54494023e+00},
 {-1.30018825e-02, 1.48785964e-03, 6.81195632e-02, 6.82578906e-02,
   3.52857018e+00,-5.84180579e-02,-3.55344173e-03,-1.15625346e+00,
   8.32626522e-02},
 {-1.15086937e+00, 7.68771112e-01, 4.69309378e+00,-6.86133131e-02,
   6.65086955e-02, 6.12235010e-01, 1.24321961e+00, 9.64370593e-02,
   3.53724480e-01},
 {-1.00658588e-01, 3.14160436e-02,-1.53213799e+00, 1.44145191e-01,
  -4.48348463e-01, 3.99237692e-01,-1.07364930e-01,-1.85912263e+00,
  -2.54095244e+00},
 { 4.15177017e-01,-5.10087907e-01, 7.78122759e+00, 4.42619994e-02,
  -1.87532544e-01, 2.28435338e-01,-5.40568769e-01, 1.54565185e-01,
   2.75668144e-01},
 { 5.09784091e-04, 2.02920698e-02, 8.74471962e-02, 1.20952666e+00,
   1.49456418e+00,-1.04024160e+00,-9.59026162e-03, 5.01845598e+00,
   1.60611272e-02},
 {-1.89477056e-02, 4.29118760e-02,-2.33983070e-01, 1.81399417e+00,
   2.75343037e+00, 7.80603468e-01,-2.99409498e-02,-7.53018284e+00,
  -7.85151273e-02},
 {-2.46213984e+00,-2.37211990e+00,-4.61794823e-01, 2.41562594e-02,
  -2.35433448e-02,-5.86942248e-02, 6.49871051e-01,-5.30060343e-02,
   3.65615003e-02},
 {-3.88925918e-03,-1.75814759e-02, 3.98312497e+00, 9.60530818e-01,
   7.26465955e-02, 1.27721028e-02,-3.68438028e-02,-1.87229359e+00,
  -2.57606721e+00},
 { 2.57683564e-02, 4.81101386e-02, 2.05050206e+00,-4.98326957e-01,
   6.85786307e-01,-7.56167650e-01,-9.70759839e-02, 2.90402079e+00,
   1.17952824e+00},
 { 1.62953194e-02,-2.69713625e-02, 1.68634742e-01, 6.91144109e-01,
  -7.31592476e-01, 1.01673417e-02,-4.73361053e-02, 1.99937236e+00,
  -1.84614968e+00},
 { 1.90132245e-01, 3.00688386e+00,-3.80934119e+00, 1.10460706e-02,
   2.81668548e-02, 2.82851934e-01,-1.17846465e+00, 1.82193965e-02,
   6.29556039e-03},
 { 1.47253480e-02,-2.67969235e-03, 9.64392757e+00, 7.57162226e-03,
   7.41014583e-03,-2.50141889e-01, 5.06367981e-01,-5.70902862e-02,
  -2.05775350e-03},
 {-5.71367204e-01,-1.24322820e+00,-1.27352941e+00, 6.34126440e-02,
  -8.52528453e-01, 2.82204580e-02, 2.18548131e+00,-9.75043923e-02,
  -1.65784001e+00},
 { 1.18694603e-02, 2.20229868e-02, 1.41425266e+01,-1.22272447e-02,
   9.85154137e-03,-1.25821277e-01,-1.44917414e-01,-2.85470318e-02,
   8.22831225e-03},
 {-8.17959607e-02,-1.22236872e+00,-2.06229877e+00, 5.12184463e-02,
  -4.35714796e-02,-3.51352952e-02, 4.21610880e+00,-1.63058229e-02,
   6.37754723e-02},
 {-8.32360029e-01,-9.43131328e-01, 2.21782041e+00,-1.03641845e-01,
   8.77727494e-02, 5.08528529e-03,-3.46877837e+00,-1.14656575e-01,
  -1.90695059e-02},
 { 4.61273082e-03, 2.16505080e-02,-1.89406678e-01, 1.67686653e+00,
  -6.15481317e-01,-1.86587498e-01,-7.53021846e-03, 2.58993655e-01,
  -6.53443336e-02},
 {-1.24284727e-02,-1.62860677e-02, 2.64535928e+00, 2.03812051e+00,
  -1.67384192e-01, 2.41447139e+00,-8.60488694e-03,-2.25589013e+00,
   3.29713225e-01},
 { 6.43359348e-02,-5.13935573e-02,-1.66658774e-01, 5.11224747e-01,
   4.74369019e-01, 6.90050364e-01, 2.04403009e-02, 4.05320263e+00,
   9.87162471e-01},
 {-4.65190457e-03, 5.09046717e-03,-1.77496567e-01, 2.63492775e+00,
   1.48385838e-01, 3.21183890e-01, 4.00823628e-04,-6.01688147e+00,
   3.49874832e-02},
 {-1.37585048e-02,-2.98335738e-02,-1.43726254e-02,-1.00354302e+00,
  -3.50409961e+00,-3.66165191e-01,-1.15079805e-02,-6.20201707e-01,
  -8.97906870e-02},
 { 2.12108158e-02,-2.09098123e-02, 5.08756936e-01, 8.17886949e-01,
  -3.59493271e-02,-4.24413592e-01, 4.30287570e-02,-4.02817392e+00,
   9.37257767e-01},
 {-5.53677380e-01,-7.16114715e-02,-1.98993236e-01,-4.41107959e-01,
  -9.42727447e-01, 4.71811555e-02,-7.85520852e-01, 7.32015371e-02,
   1.19238710e+00},
 { 6.22745275e-01, 6.25709414e-01,-1.52364647e+00,-1.22390084e-01,
  -1.12717962e+00,-5.69993556e-02, 3.19368935e+00, 6.54056787e-01,
   8.23201776e-01},
 { 4.70894963e-01,-2.89932704e+00, 7.00434983e-01,-4.41263653e-02,
  -2.33646855e-01,-6.14843965e-01, 3.67071390e+00, 1.42375469e-01,
  -1.79179013e-01},
 { 4.72674966e-02, 2.77205016e-02,-4.60620785e+00, 4.34099078e-01,
  -2.46398807e-01, 5.10657489e-01, 3.23502682e-02, 1.14536798e+00,
  -9.05892551e-01},
 { 2.72841597e+00,-2.09049630e+00,-2.70946193e+00,-1.35405837e-02,
   1.40713751e-02, 3.16723064e-03, 6.45373583e+00, 3.24207731e-02,
  -4.60511185e-02},
 { 5.51014533e-03,-6.62328559e-04,-8.38523358e-02, 2.13918209e+00,
  -7.47446597e-01, 4.38216954e-01, 3.56980669e-03,-5.66970110e+00,
   3.08137331e-02},
 { 1.11751854e-01,-4.77542467e-02,-1.08568025e+00,-4.16424960e-01,
  -2.01856899e+00,-2.77831960e+00,-7.02819228e-02, 5.82676053e-01,
   1.00919735e+00},
 { 1.45565011e-02, 9.51372012e-02, 3.31637561e-01,-1.29331434e+00,
   2.23177209e-01,-1.14390695e+00,-9.22093242e-02, 3.50582361e+00,
  -2.14500368e-01},
 { 7.60636479e-03, 2.12014243e-02,-7.43177682e-02, 2.40714526e+00,
  -1.76034784e+00,-6.29829228e-01,-2.30575446e-02, 7.05236340e+00,
  -4.07128632e-02},
 { 2.52491701e-02,-2.86634881e-02,-2.81116039e-01,-5.16975671e-02,
   1.95893392e-01,-4.00500679e+00, 6.14715647e-03,-9.57856048e-03,
   1.53374486e-02},
 { 3.19847047e-01,-1.95329654e+00,-4.24378932e-01,-1.57801390e-01,
   4.78489429e-01, 7.67522142e-05, 1.89925492e+00,-2.77679443e-01,
  -1.29228997e+00},
 { 1.09248614e+00,-3.01877916e-01,-1.50604713e+00,-3.68710101e-01,
  -4.13169622e-01,-1.60417929e-01,-3.53430891e+00, 3.16045254e-01,
  -7.81952500e-01},
 {-1.34571490e-03,-7.14738071e-02, 2.47769095e-02, 2.50995010e-01,
  -1.01999927e+00,-8.84769261e-02, 2.97782943e-02,-4.38909149e+00,
  -1.13041961e+00},
 {-9.49735641e-01,-1.21818352e+00, 2.41916490e+00,-8.56035650e-02,
  -1.53998761e-02, 7.43531510e-02,-3.12126923e+00, 3.39286141e-02,
  -2.50669010e-03},
 {-9.16607738e-01,-1.83591604e+00,-2.53031158e+00, 1.20924562e-02,
  -1.97061747e-02,-5.74474223e-03, 3.95767593e+00, 3.73668969e-02,
  -8.10379758e-02},
 { 8.85345265e-02, 6.15322441e-02, 9.44443226e-01, 8.37300420e-01,
   1.41493678e-01,-4.53402936e-01,-1.45741194e-01, 2.10591936e+00,
   2.67974186e+00},
 { 2.44040787e-02,-1.48884505e-01,-3.04064107e+00, 1.28317714e+00,
   1.64555931e+00, 8.45969498e-01, 8.80061649e-03, 2.02395409e-01,
  -1.17261994e+00}};

const float b1[sz_hid_1] = {-2.3422413 ,-2.2339687 ,-2.2278929 ,-3.0007658 ,-2.9447048 ,-2.7100344 ,
 -2.3067656 ,-4.331269  ,-2.868051  ,-3.5155241 , 0.94675195,-1.7456086 ,
 -1.0072849 ,-4.9910717 ,-2.879989  ,-3.377111  ,-3.1338918 ,-4.252667  ,
 -2.0181222 ,-1.8097303 ,-2.5763855 ,-3.2459404 ,-4.3827686 ,-1.0342784 ,
 -3.310623  ,-2.7794762 ,-3.2624636 ,-2.2584221 ,-2.42863   ,-2.1765964 ,
 -3.078502  ,-1.4307594 ,-0.26291332,-3.2659469 ,-3.3611906 ,-0.34999958,
 -2.1250129 ,-0.30917695,-1.416201  ,-2.3824172 ,-1.6331395 ,-2.3128211 ,
 -3.5959096 ,-0.59983325,-3.6353912 ,-2.7605538 ,-3.0295448 ,-3.322866  ,
 -2.6274345 ,-2.9673152 ,-2.77525   ,-3.6370757 ,-2.319531  ,-2.995038  ,
 -2.585608  ,-0.10084156,-2.4873843 ,-2.009297  ,-3.7708962 ,-2.0916357 ,
 -2.0723796 ,-0.05251506,-2.6053183 ,-2.702845  ,-3.1070452 ,-2.5354624 ,
 -2.6713922 ,-3.1657157 ,-1.1334023 ,-3.055774  ,-2.6733122 ,-0.17883252,
 -2.7374105 ,-1.9807799 ,-3.0885067 , 0.24798723,-2.5050871 ,-1.6326829 ,
 -3.0313387 ,-2.2443955 ,-1.6095239 ,-3.4337232 ,-4.040085  ,-3.7015946 ,
 -2.7800505 ,-4.699591  ,-3.1924112 ,-2.0950282 ,-2.4070323 ,-2.6859128 ,
 -2.7357433 ,-2.133055  ,-1.9992952 ,-3.610823  ,-0.7541821 ,-1.9823211 ,
 -1.0457537 ,-3.4768806 ,-0.8182328 ,-1.1142666 ,-0.45535424,-2.8878155 ,
 -0.02530107,-3.5064433 ,-1.9599692 ,-0.4090034 ,-2.633046  ,-2.7709956 ,
 -3.2897375 ,-3.7259376 ,-3.3039415 ,-1.2900257 ,-2.8717265 ,-3.476047  ,
 -0.95587564,-1.2088171 ,-3.1633642 ,-2.3840861 ,-0.98821306,-1.8708943 ,
 -0.53837764,-3.138216  ,-2.910648  ,-4.113369  ,-0.02532814,-2.8157094 ,
 -2.731477  ,-3.1711926 };

const float w2[sz_hid_2][sz_hid_1] = {{ 1.29574704e+00, 6.88736364e-02, 9.52277541e-01,-2.72752357e+00,
   3.08448005e+00,-5.69477081e-01,-7.48306632e-01,-1.20270443e+00,
   2.24686623e+00,-3.09576249e+00, 1.85552701e-01,-3.43153328e-01,
  -1.29070723e+00,-1.82703459e+00, 1.50768086e-01, 7.09031820e+00,
   1.65029824e-01, 2.96460927e-01, 2.00106406e+00,-1.64577758e+00,
  -1.93806994e+00,-1.29124081e+00, 6.94832444e-01,-1.16578564e-01,
  -3.28648895e-01, 9.06740367e-01,-2.99716067e+00,-8.53062820e+00,
  -4.71368432e-01,-1.26660502e+00, 4.49341297e-01,-8.14667797e+00,
   2.11602402e+00,-2.63446212e+00,-4.56018895e-01, 7.10468471e-01,
   1.18844712e+00, 1.64287284e-01,-6.19521558e-01,-2.83294654e+00,
   2.03277186e-01, 2.72190833e+00,-2.49319601e+00,-1.15061116e+00,
   8.46515596e-01, 1.79062843e+00, 1.11677408e+00,-5.33755636e+00,
  -5.18560410e-01, 2.78130150e+00, 1.15183318e+00,-1.35669857e-01,
  -5.79299736e+00,-5.27626991e+00, 1.07500362e+00,-1.07950556e+00,
  -1.52383947e+00,-1.89672244e+00,-1.68976784e+00,-9.58256841e-01,
  -5.81559896e-01, 1.87278420e-01,-1.38945293e+00, 1.36138642e+00,
   2.37228656e+00,-2.15049291e+00,-3.26201296e+00, 3.72248483e+00,
   1.74539697e+00,-2.13735938e-01,-1.22904098e+00,-1.68018177e-01,
  -1.69990551e+00,-3.51928353e-01,-2.18803096e+00,-1.11480618e+00,
  -2.59758997e+00, 1.33908761e+00,-1.62482834e+00, 1.60980213e+00,
   1.18652618e+00,-2.85130930e+00,-1.89626408e+01, 1.36649275e+00,
   1.11311579e+00, 5.68211365e+00,-1.23581958e+00, 5.43670654e-02,
  -3.63379717e-01, 3.80502772e+00, 7.16149807e-01, 8.28025401e-01,
  -1.71012193e-01,-1.09830542e+01, 9.34999824e-01, 2.78018802e-01,
  -1.10186994e+00,-6.09127092e+00, 1.31050003e+00,-7.34894931e-01,
  -3.24609801e-02,-1.13663590e+00,-1.41313955e-01, 1.80749416e+00,
  -1.54782951e+00,-7.35189915e-02, 4.19393969e+00,-1.98122251e+00,
   7.43564081e+00,-7.60186243e+00,-1.09745979e+00, 1.05209064e+00,
   8.20704520e-01, 6.56641245e-01,-1.07535347e-02, 1.39700902e+00,
  -2.96212220e+00,-2.89511847e+00,-3.92893314e-01, 7.00512826e-01,
   1.72353065e+00,-3.53093433e+00, 5.48747838e-01,-8.63486958e+00,
   1.61338949e+00,-2.02176070e+00,-2.12637424e+00, 2.65758109e+00},
 { 3.55278492e+00, 1.59302449e+00,-8.62201378e-02, 1.25394142e+00,
   4.21329784e+00, 2.53889024e-01,-1.56103778e+00, 2.68581486e+00,
   1.99155855e+00,-9.29703808e+00,-1.43921638e+00,-5.18568897e+00,
   2.40602996e-02, 2.46129587e-01, 1.20292735e+00, 4.61016059e-01,
  -2.22863913e-01, 3.55872011e+00, 5.27519248e-02,-6.72879294e-02,
  -5.51677799e+00, 1.00586891e-01, 8.52589965e-01,-6.29298314e-02,
   5.35824299e-01, 8.88931826e-02, 6.46233976e-01,-8.84703174e-03,
   2.56958932e-01,-1.22369252e-01, 3.14117670e+00,-3.30612510e-01,
   5.92885278e-02, 3.26108479e+00, 5.64470887e-01, 8.96947831e-02,
  -1.03745162e+00,-6.71479344e-01,-9.97161329e-01, 4.42636222e-01,
  -3.70028317e-02, 4.04740572e-01,-5.24589157e+00,-2.99569941e+00,
   1.53482882e-02, 8.36356103e-01, 1.52109993e+00, 1.82929292e-01,
  -3.58627379e-01,-1.48262493e-02,-2.60479033e-01,-2.84505248e+00,
  -1.32326707e-01,-1.09646261e+00,-5.06451547e-01, 4.48989391e-01,
  -3.62501651e-01,-1.41388416e-01,-6.68966770e-01, 6.03570759e-01,
  -5.79338264e+00, 3.34550428e+00, 3.27954918e-01, 6.24918520e-01,
   2.76988411e+00, 3.74998689e-01, 9.66092765e-01,-2.40247369e-01,
  -3.03943288e-02,-3.38881522e-01,-9.26618040e-01, 3.77660751e-01,
   2.06387371e-01, 3.46110791e-01,-3.96217972e-01, 1.72140345e-01,
  -1.20230556e-01, 1.82731599e-01,-9.44925308e-01, 1.98829997e+00,
   4.44590759e+00,-6.88183737e+00,-1.20552905e-01, 3.99191475e+00,
   7.52403736e-02,-4.22133064e+00,-4.07915497e+00, 1.92385936e+00,
  -5.77660859e-01, 6.48699626e-02,-2.71641493e+00, 2.17507675e-01,
  -7.17712307e+00,-6.00133575e-02, 6.57088906e-02, 3.53348590e-02,
  -5.64964302e-02,-6.19591892e-01,-1.01868665e+00,-8.68554771e-01,
  -1.82029212e+00, 3.11932504e-01, 5.33053303e+00,-2.00160828e+01,
  -7.83412695e-01, 1.44734830e-01, 3.43284041e-01,-8.43156517e-01,
   5.65020621e-01,-4.97660339e-01, 1.21731913e+00, 1.64360315e-01,
   2.27026209e-01, 3.89261079e+00, 3.68058115e-01, 2.82149386e+00,
   2.34034229e-02, 5.44315353e-02,-1.13198139e-01, 2.30774611e-01,
  -5.32206660e-03, 3.98182750e-01, 4.20438312e-02,-2.51033616e+00,
   2.34605908e+00,-1.00692844e+01, 1.70842826e-01, 8.55220437e-01},
 {-6.39112964e-02, 1.56953726e-02,-2.16470901e-02,-4.30920124e-02,
   6.18671514e-02,-9.01749805e-02, 5.63964844e-02, 2.54278183e-02,
  -4.71658558e-02,-5.32606430e-02,-2.00104807e-02,-6.05830401e-02,
  -1.09906182e-01, 1.53299021e-02,-6.31133616e-02,-2.46913992e-02,
   3.51634435e-02,-7.80529678e-02,-3.67705151e-02,-5.80005124e-02,
  -1.17751874e-01,-1.23865202e-01,-1.15720950e-01,-1.34687439e-01,
   1.62262917e-02, 4.64433916e-02,-1.00961313e-01,-1.35161832e-01,
   8.01635813e-03,-2.94761062e-02,-5.26915900e-02,-4.23559695e-02,
  -6.20565824e-02, 5.79287447e-02,-1.03391670e-01,-9.28815827e-02,
   4.71473411e-02,-1.12498283e-01,-1.14306062e-01,-6.54603764e-02,
  -3.55583355e-02,-1.16575770e-01,-6.18840242e-03,-1.62598938e-02,
  -2.07204968e-02, 4.38290909e-02,-1.37043893e-01, 5.01807954e-04,
   1.75648031e-03,-7.59267714e-03,-1.51693448e-01,-1.85516458e-02,
   1.49934869e-02,-3.84412296e-02,-2.30538798e-03,-2.54851095e-02,
  -7.50096366e-02, 1.08270934e-02, 6.50249943e-02,-4.55642119e-02,
  -1.13193519e-01,-3.68774496e-02,-2.05446742e-02,-7.45686591e-02,
  -8.82781893e-02, 2.55789440e-02, 2.63996352e-03,-2.63942387e-02,
  -7.85608739e-02,-8.73648301e-02,-1.56726129e-02,-2.59890277e-02,
  -1.08739965e-01,-3.13166268e-02,-4.95239496e-02,-4.90029082e-02,
  -3.91839258e-02,-7.45395897e-03,-1.40325293e-01,-2.67657973e-02,
  -1.62572972e-02, 3.34427767e-02,-4.50468920e-02, 6.24365993e-02,
  -2.32904013e-02,-1.42692506e-01,-1.17668137e-01, 8.36301818e-02,
   4.65295948e-02,-7.96968583e-03,-1.69572495e-02,-2.55468450e-02,
  -7.25579588e-03, 1.93317644e-02,-8.79208073e-02,-9.87068638e-02,
  -1.32573061e-02,-7.51912827e-03,-1.22181021e-01,-2.86200792e-02,
  -1.00366697e-02, 3.95504236e-02,-4.59474744e-04,-3.29786986e-02,
   1.28588421e-04,-8.35204571e-02,-1.03763044e-01,-9.46797803e-02,
   2.61767469e-02,-4.40622717e-02,-1.52268857e-01, 2.40959995e-03,
  -5.44398390e-02,-6.01813048e-02,-3.55717354e-02,-2.95189787e-02,
  -1.13529131e-01,-1.15098104e-01, 3.58150178e-03, 7.87002314e-03,
  -7.37831891e-02,-9.48409438e-02,-5.23716956e-02,-3.87811847e-02,
  -1.17926724e-01,-9.97626856e-02, 1.27719818e-02, 1.56661514e-02},
 {-7.28481412e-01, 1.26917326e+00,-4.37572271e-01, 1.17392218e+00,
   4.38061297e-01, 2.38601279e+00, 2.61274278e-01, 1.96193010e-01,
  -3.20769772e-02, 3.28818107e+00, 4.86541912e-02,-1.42759934e-01,
   1.38883144e-01,-1.03983126e+01,-3.97089183e-01, 9.16455448e-01,
  -1.55149019e+00,-6.37083650e-01, 3.34897923e+00, 1.46931469e+00,
  -9.22983885e-01, 5.32901227e-01,-2.43623662e+00, 3.24541545e+00,
   8.38579118e-01,-3.30999583e-01,-1.90252090e+00, 1.28527248e+00,
  -2.90919948e+00,-1.33994257e+00,-6.60267711e-01,-2.39081650e+01,
  -4.28788424e+00, 1.06080902e+00,-6.45740843e+00,-2.62866110e-01,
   1.78691983e+00,-3.99801023e-02,-1.20573722e-01, 8.86235107e-03,
  -1.38302773e-01,-1.56811818e-01, 1.11053824e+00, 2.60883152e-01,
   1.15003443e+00, 4.81374979e-01, 1.67845619e+00,-3.39178205e-01,
  -2.36659676e-01, 4.15590435e-01,-4.35424852e+00,-1.87261903e+00,
  -1.08808064e+00, 1.14930499e+00,-2.17752647e+00, 1.78102648e+00,
  -1.91622064e-01, 1.24432258e-01,-3.63379860e+00, 4.23098028e-01,
  -1.56461731e-01, 1.72836751e-01, 3.28633261e+00,-6.78427696e+00,
   5.23906887e-01,-6.19430828e+00, 9.08467025e-02, 5.51413715e-01,
   1.11032140e+00, 7.57379115e-01,-3.43132854e-01, 2.36802197e+00,
   5.81969380e-01,-1.32763457e+00,-1.26190126e+00, 1.75052595e+00,
   1.72607470e+00,-2.42353487e+00,-1.08426058e+00, 4.96557474e-01,
   1.92085877e-02, 1.46874046e+00,-1.52446871e+01,-5.34118056e-01,
   4.58300495e+00, 4.42204356e-01,-1.33034146e+00, 4.39117521e-01,
  -1.38067985e+00,-1.34361517e+00,-4.98386443e-01,-8.71004984e-02,
  -3.73420238e-01,-8.24658680e+00, 4.96461964e+00, 1.13976014e+00,
  -2.21503782e+00,-9.10052395e+00,-7.70505667e-02, 6.64080009e-02,
   1.77303329e-02, 2.19631210e-01, 1.17106773e-01,-4.26827073e-01,
  -5.06124258e-01, 2.60182709e-01, 4.68010187e-01,-7.76454830e+00,
  -3.22836542e+00,-4.92013092e+01, 3.65450740e-01,-2.40134746e-02,
  -4.84858751e-01,-1.38547647e+00, 6.99148178e-01, 1.37222903e-02,
   1.73222578e+00,-2.93793154e+00, 7.69027293e-01,-3.23098421e+00,
   2.37166452e+00, 5.28715909e-01,-5.19958198e-01,-3.89530206e+00,
  -1.42531507e-02,-1.61847144e-01,-1.42707324e+00,-3.68270326e+00},
 {-2.00171745e-03, 3.27392071e-02, 8.59615672e-03,-3.51308808e-02,
   3.63886803e-02, 1.32268919e-02, 1.74348373e-02,-1.44093400e-02,
   4.84243174e-05,-3.16443257e-02,-7.67491311e-02,-2.24651899e-02,
  -9.31964815e-02, 3.10785621e-02,-8.29679668e-02,-6.43082857e-02,
  -5.83051480e-02, 4.77074319e-03,-8.80284235e-02, 2.75796689e-02,
   5.86402137e-03, 4.67687473e-02, 9.44131427e-03,-2.30206568e-02,
   6.26513138e-02,-1.16785783e-02,-2.19117273e-02,-9.91843417e-02,
  -5.54421879e-02,-3.13742273e-02,-3.29883434e-02,-4.52242605e-02,
  -1.21816121e-01,-3.76074798e-02, 2.74446281e-03, 1.25541743e-02,
  -1.08676679e-01, 1.28094964e-02,-1.02394983e-01,-1.11428075e-01,
  -8.30252320e-02,-7.21538663e-02,-1.91455055e-02,-1.00757882e-01,
   3.27538215e-02, 3.29006538e-02,-2.46513579e-02, 3.84589359e-02,
  -5.54273501e-02,-4.87113558e-02,-4.24866863e-02,-1.74681749e-02,
  -9.84234661e-02,-8.42501447e-02, 1.17293955e-03,-5.93408151e-03,
   5.75278327e-02,-4.44679856e-02,-4.58347378e-03,-6.02712482e-02,
   2.98995581e-02,-6.57661483e-02, 4.71332222e-02, 3.58021148e-02,
   4.76519391e-02, 1.51902866e-02,-1.59100089e-02, 1.66825838e-02,
  -1.14076219e-01, 4.85314839e-02, 6.99813440e-02, 5.43009527e-02,
  -8.49320367e-02,-8.19219723e-02,-2.63123084e-02,-3.82624269e-02,
   2.83170138e-02, 7.56581954e-04, 2.69688834e-02,-5.31244017e-02,
  -5.80184087e-02,-1.49573507e-02,-7.17759924e-03,-5.93838468e-02,
  -2.57524811e-02,-1.00087523e-01,-4.41718102e-02,-7.03868940e-02,
   6.30591065e-02,-9.68016237e-02,-6.60143346e-02,-1.03555597e-01,
   4.97931801e-03,-6.81712478e-02,-5.79997245e-03,-7.67869502e-02,
  -8.75886679e-02,-5.96306063e-02,-1.51563296e-03, 3.28185596e-02,
   6.44687489e-02,-1.36256991e-02,-1.19296610e-01,-4.63942625e-02,
  -4.92603667e-02,-6.18219674e-02, 7.23672612e-03, 2.08193809e-02,
  -8.43358925e-04,-1.66679285e-02,-5.38400225e-02,-1.15006538e-02,
  -4.92883064e-02,-5.65042235e-02,-2.11680830e-02,-4.00380678e-02,
  -1.14544913e-01, 2.89699808e-02,-2.46399585e-02,-1.22636013e-01,
   2.48945896e-02,-5.98006174e-02, 1.47845848e-02, 7.74057731e-02,
  -9.38410126e-03,-3.16242687e-03,-1.02103408e-02, 4.98668291e-02},
 { 2.30679303e-01, 3.51260781e+00,-3.06972742e-01,-1.92740095e+00,
   1.80147409e-01,-8.27599287e-01, 3.60829346e-02, 1.56690702e-02,
   2.60182768e-01,-1.03500593e+00, 9.10402015e-02, 1.21014707e-01,
   3.27480888e+00,-1.78544438e+00,-5.75920418e-02,-2.00990766e-01,
  -2.38550883e-02, 1.66984606e+00,-1.92278826e+00,-3.62073809e-01,
  -7.00249374e-01,-1.98416978e-01, 4.25192595e+00, 1.53179657e+00,
   6.13310862e+00, 1.78116694e-01,-1.71624925e-02, 7.44115859e-02,
   3.88665766e-01,-1.00525312e-01, 3.38808239e-01,-1.03617740e+00,
   4.65982139e-01, 1.01146173e+00, 7.85933077e-01, 5.16090631e-01,
   2.43716419e-01,-3.08224838e-02,-1.10620871e-01, 7.98722565e-01,
   2.66976394e-02,-7.57201850e-01,-9.69914123e-02,-3.58034939e-01,
   4.69631702e-01,-2.04984862e-02, 1.41923046e+00,-1.45555899e-01,
   1.54389618e-02, 5.93296438e-02, 1.94061562e-01, 3.23422462e-01,
  -3.64122927e-01,-1.65553406e-01,-5.64530015e-01, 3.48219752e-01,
  -1.64593186e-03, 1.04788935e+00, 1.05023301e+00,-5.24844289e-01,
  -2.96305269e-01,-2.24130481e-01, 8.77999604e-01, 2.36226946e-01,
   1.07941318e+00, 9.01891470e-01, 7.34379441e-02,-3.63819063e-01,
  -2.02860856e+00, 6.32466152e-02, 4.21428055e-01, 2.29721487e-01,
  -7.06304088e-02,-7.59724155e-02,-3.54791701e-01,-8.69830370e-01,
  -1.94038630e+00,-2.52517015e-01, 5.63265979e-02, 2.60352284e-01,
   5.96577108e-01,-9.54098403e-01, 6.25354433e+00, 2.81321734e-01,
  -4.61225224e+00,-1.23326324e-01,-4.60747540e-01, 2.04645306e-01,
  -5.26394486e-01,-3.40168548e+00,-4.75114018e-01, 4.05129120e-02,
  -4.93184030e-01, 3.94900346e+00, 1.81153309e+00,-7.58636072e-02,
  -1.71705261e-01, 1.09867096e+00,-1.64507866e-01,-6.90373257e-02,
  -2.48842686e-01,-1.57114834e-01, 1.12572521e-01,-2.89181590e-01,
  -1.07496165e-01,-7.80661285e-01, 2.47406125e+00,-1.75360632e+00,
  -5.04622412e+00, 1.41949534e+00,-9.42157149e-01, 6.43495172e-02,
   6.19553775e-02, 3.47049743e-01,-1.00569345e-01, 3.73081923e-01,
   3.45741200e+00, 1.63662747e-01,-4.70256805e-01,-1.34222102e+00,
  -7.51998305e-01, 5.29335499e-01,-6.09819591e-01, 9.03063893e-01,
   3.74017388e-01, 1.01032946e-02,-3.66795547e-02, 1.33840799e+00},
 { 1.61798739e+00, 3.29185605e+00,-5.69720650e+00, 1.48632681e+00,
   2.99167562e+00, 7.14954734e-01,-2.12811351e+00, 2.32706451e+00,
   7.00170398e-01,-4.63729954e+00, 3.73589098e-01, 9.67641249e-02,
  -6.88534379e-01, 6.87335634e+00,-3.20340618e-02,-1.59750736e+00,
   1.21382326e-01, 4.11436176e+00, 3.95406872e-01, 1.60532808e+00,
  -3.75518560e+00,-1.59087729e+00, 1.61494207e+00, 2.40443158e+00,
  -4.04751158e+00, 3.84383835e-02,-1.47739530e+00, 4.17326279e-02,
   1.80732012e+00,-7.76679158e-01, 2.02010512e+00,-2.83183247e-01,
  -1.74885774e+00,-2.21965218e+00,-1.06748378e+00, 9.34052289e-01,
   1.75659025e+00,-6.27713203e-01,-6.66781485e-01, 6.55712485e-01,
   1.34833068e-01, 1.06968594e+00,-4.07599401e+00,-2.13547587e+00,
  -2.00333166e+00,-1.17483692e+01, 1.32685709e+00,-8.91670644e-01,
  -3.84434640e-01,-8.10637188e+00,-1.74656302e-01, 1.51838672e+00,
  -8.89045894e-01,-5.41795015e-01,-1.26814556e+00,-2.80569220e+00,
   2.47219682e+00,-8.15102577e-01,-9.72470269e-02,-1.26658309e+00,
  -1.68747449e+00,-5.71721137e-01, 2.42451882e+00, 1.86108088e+00,
   5.28783989e+00, 1.58731318e+00, 1.15988560e-01, 1.71686363e+00,
   4.28829700e-01,-1.14659095e+00, 1.95574448e-01, 1.66159368e+00,
   2.51267463e-01, 5.54544389e-01,-1.20846348e+01,-7.57536590e-01,
   7.43580103e-01,-1.07810106e+01,-2.53396344e+00, 1.98026645e+00,
   2.66244340e+00,-4.01826096e+00, 1.22364111e+01, 4.00341845e+00,
  -3.73649478e-01, 6.36649036e+00,-4.18824196e+00, 1.67183959e+00,
  -4.57197487e-01, 2.02291441e+00,-1.53853416e+00,-2.54939824e-01,
  -1.79602909e+00,-5.30396700e-01, 4.70566452e-01, 2.16897447e-02,
  -1.15562074e-01, 4.06952286e+00, 2.30700836e-01,-5.42221069e-01,
  -4.33510393e-01,-2.66750634e-01, 5.15621126e-01,-2.12270713e+00,
  -5.42069495e-01,-5.95324814e-01, 2.44708562e+00, 7.41473556e-01,
   1.72237182e+00,-1.83206666e+00,-8.11961174e-01, 1.77826494e-01,
   1.36815468e-02,-4.31689930e+00,-1.87740788e-01, 2.50096631e+00,
   8.23955178e-01, 1.77567029e+00,-1.59761083e+00, 1.22704379e-01,
   3.92024350e+00,-3.63526034e+00,-6.50996923e+00,-1.35967493e+01,
   2.25326324e+00,-9.98498321e-01,-1.90157759e+00, 5.88569760e-01},
 { 2.22677684e+00,-5.97609699e-01,-8.99608508e-02, 3.15777063e-01,
   2.73040986e+00,-6.45285904e-01, 1.52816367e+00, 1.47335625e+00,
   2.97668052e+00,-4.65301752e+00,-2.95315266e+00,-2.93645203e-01,
   9.07616168e-02, 1.15781188e+00,-4.25725508e+00, 5.08990705e-01,
   7.10422695e-02, 3.98935986e+00, 3.15639656e-03, 2.53868371e-01,
  -3.03836203e+00,-6.14064646e+00, 1.37863529e+00,-2.16497704e-01,
  -2.98146959e-02,-3.26548696e+00, 6.00967824e-01,-3.50888409e-02,
   4.33039367e-01,-1.67489216e-01,-2.47993374e+00, 4.92184889e-03,
   1.60663918e-01, 1.97892570e+00, 3.08017880e-01, 1.55002743e-01,
  -1.33293283e+00,-1.52431637e-01,-1.89774454e+00,-1.51688248e-01,
   1.46966308e-01, 1.34038329e-01,-7.63387156e+00, 2.08465981e+00,
  -3.43695506e-02, 5.47351360e-01, 6.70993567e-01,-1.64733917e-01,
  -5.23583174e-01,-4.71997485e-02,-6.20224178e-01,-5.18657327e-01,
   4.96230215e-01,-1.97456732e-01, 2.98450738e-01, 4.29623008e-01,
   4.58108723e-01, 1.44799471e-01,-1.52384412e+00,-3.81845498e+00,
   1.53140652e+00, 1.73454487e+00, 1.15843332e+00, 1.86894953e-01,
   2.13967991e+00, 3.67247581e-01, 7.88507640e-01, 8.25409055e-01,
   5.20397797e-02,-3.60678673e-01,-6.32266939e-01, 2.19008714e-01,
   1.66639292e+00, 1.17815271e-01,-2.79145479e-01, 2.31892869e-01,
   8.70644823e-02, 2.97729708e-02,-6.36149943e-02,-6.07839465e-01,
   5.98665178e-01, 2.29969788e+00, 7.22816110e-01, 1.10064726e+01,
   4.42591906e-02,-3.18738031e+00,-3.51139665e+00,-1.75126755e+00,
  -4.03269887e-01, 1.78659186e-01,-7.55329609e-01, 7.58567676e-02,
   2.18304110e+00,-3.84459227e-01,-7.35304207e-02,-1.70310402e+00,
  -4.77777198e-02,-6.26320601e-01,-7.41982520e-01,-3.36526704e+00,
   8.35781479e+00, 4.64691361e-03,-4.73452628e-01, 4.47588950e-01,
  -9.77980852e-01, 3.40917617e-01, 7.36667991e-01,-5.50024807e-01,
  -4.14585829e-01, 1.91677675e-01, 1.71965432e+00,-2.23898999e-02,
   2.76542544e-01, 6.52672958e+00,-1.79335335e-03,-1.79651451e+00,
   1.72643602e-01,-4.02246863e-01,-1.61012616e-02, 3.05532247e-01,
  -2.55425796e-02, 1.03292191e+00, 5.16332746e-01,-1.81915015e-01,
   1.23131645e+00,-8.09450626e-01, 2.83729941e-01,-9.65736866e-01},
 {-6.08434248e+00, 2.55818081e+00, 8.79732490e-01,-9.28607821e-01,
   2.73857188e+00,-3.10012907e-01,-3.50404406e+00,-2.47794304e+01,
  -7.37988424e+00,-8.31607580e-01, 2.18543597e-02,-2.06309628e+00,
  -7.60924965e-02, 2.03765464e+00,-2.46737647e+00,-8.13213825e-01,
  -5.79914093e-01,-2.67628503e+00,-3.32069993e-01,-7.93382406e-01,
  -4.09417963e+00, 2.82762170e+00,-1.02667034e+00, 2.46515185e-01,
  -9.32290316e-01,-6.66865349e+00,-2.30664945e+00,-7.37335265e-01,
  -1.04912615e+00,-5.25141239e-01,-9.88927364e+00,-6.56949580e-02,
   9.07100588e-02, 1.25170171e+00, 1.45566273e+00, 7.23765731e-01,
   2.06542778e+00,-2.22174811e+00,-6.06071770e-01,-1.63555717e+00,
   7.02434206e+00, 7.88772166e-01, 2.24346614e+00,-4.18063760e-01,
   5.57070017e-01, 1.18032718e+00, 6.36925876e-01, 2.21959090e+00,
   1.20108843e+00, 1.85872936e+00,-2.63174081e+00, 3.15623116e+00,
  -2.34506512e+00,-9.29286182e-01,-9.65958059e-01,-1.25689197e+00,
   2.26354575e+00, 2.07349348e+00, 4.14780766e-01,-1.23008394e+00,
  -1.71825910e+00, 5.32830298e-01, 1.60360885e+00,-3.30054402e-01,
   4.79883146e+00,-1.43205559e+00,-3.08318400e+00,-1.41414165e+00,
  -1.28358856e-01, 1.35384536e+00,-1.77438819e+00,-4.10795033e-01,
   3.77029729e+00,-1.06130290e+00,-4.77215201e-02,-7.89533198e-01,
  -2.26599574e-01, 8.92478228e-01,-3.26740384e+00,-5.74955273e+00,
   2.89909458e+00, 4.83290005e+00, 1.55699217e+00,-1.83198452e+01,
   2.78875440e-01, 2.94593263e+00,-1.31882548e-01, 1.10631466e+00,
  -1.43151593e+00, 5.58366962e-02,-6.96955919e-01,-5.66423416e-01,
  -1.99647474e+00, 6.35783225e-02, 1.13584518e-01, 2.14382458e+00,
   1.56863537e-02, 1.02240229e+00, 1.45968843e+00, 2.47092232e-01,
   2.95563042e-01,-8.71297061e-01, 1.66363859e+00, 6.37564003e-01,
  -3.74930739e+00, 8.81745100e-01,-2.56721288e-01,-5.29709041e-01,
   4.75816667e-01,-5.50858080e-01,-1.83110404e+00, 5.72181273e+00,
  -5.71803093e+00, 9.75389123e-01,-5.09653926e-01,-1.87580323e+00,
   2.22057271e+00,-1.17957926e+00, 1.26696646e+00,-6.25406146e-01,
   1.85669035e-01, 3.67006087e+00,-1.02803869e+01,-1.01809371e+00,
  -9.32131577e+00, 9.51210499e-01,-1.06661737e+00,-6.87109828e-01},
 { 1.76968884e+00,-1.75304639e+00, 1.74025202e+00, 4.25191484e-02,
   1.57447422e+00,-1.87987459e+00, 2.17486668e+00,-6.71436191e-01,
   3.47350270e-01, 1.45903513e-01, 7.66499937e-01, 3.61151958e+00,
  -2.86064178e-01,-8.62706947e+00,-1.34706450e+00,-2.51181692e-01,
   1.60537511e-01,-6.96730852e-01, 1.16613030e+00,-1.05041564e+00,
  -4.42291164e+00,-7.08097339e-01, 3.37927628e+00, 1.96687445e-01,
  -2.95910978e+00,-1.69081402e+00,-8.94296348e-01, 5.54797590e-01,
   2.38575649e+00,-2.28119954e-01,-1.13286626e+00,-4.99225348e-01,
  -1.03686452e+00, 1.09764755e+00,-4.49389362e+00,-2.25788489e-01,
   2.80573678e+00,-3.84084851e-01, 6.66665494e-01, 3.02241504e-01,
  -1.09026301e+00,-6.64151132e-01,-3.53895402e+00,-2.40548682e+00,
  -7.05549192e+00, 5.73312998e-01,-4.47517347e+00,-3.20529485e+00,
   2.17347383e+00, 2.39351034e+00, 1.82553339e+00,-3.78593594e-01,
   2.65893531e+00, 3.48206854e+00,-8.01269561e-02,-3.15987253e+00,
   1.11849213e+00, 3.75372767e-01, 6.94306898e+00, 6.09005511e-01,
  -1.96825945e+00,-1.67884994e+00, 2.10579447e-02,-1.91569161e+00,
   3.66523671e+00, 5.63145936e-01, 1.74727333e+00, 2.06554461e+00,
   1.12047160e+00,-3.17134690e+00, 2.53562880e+00,-1.30837178e+00,
   2.61885071e+00,-1.61099911e-01,-1.48970783e+00,-2.48175245e-02,
   5.28222740e-01, 4.01195407e-01, 2.15151811e+00, 3.09772897e+00,
   2.33905649e+00,-3.08809876e+00, 1.30919623e+00, 2.10319424e+00,
   3.47528934e-01, 1.00789747e+01,-2.67025352e+00, 7.44746864e-01,
   2.67186284e+00,-1.62011772e-01, 2.29586506e+00,-8.80513549e-01,
  -1.77202654e+00,-9.67502594e-02,-2.34989658e-01, 3.77914399e-01,
  -1.38414812e+00, 4.33064318e+00, 2.13512659e+00,-6.68814242e-01,
  -2.14374352e+00,-3.33433771e+00, 2.96070844e-01,-4.84253228e-01,
  -1.24534142e+00,-2.53525972e+00, 1.74742448e+00, 2.65108514e+00,
  -1.60161376e+00,-8.66782367e-02,-2.13826776e-01,-9.99882519e-01,
   2.19148010e-01,-2.73277330e+00,-5.09774923e+00, 2.25513697e+00,
  -6.86278999e-01,-4.27496523e-01, 3.87797803e-01,-1.29723296e-01,
  -2.01114252e-01,-2.11103249e+00, 6.82841316e-02, 2.24425340e+00,
   2.12814403e+00,-5.45094788e-01,-3.06689763e+00,-2.72987342e+00},
 {-8.10633850e+00,-8.78770769e-01, 9.32261944e-02,-1.27232945e+00,
  -3.91439557e+00,-2.79148668e-01,-3.31582332e+00,-1.54749751e+00,
  -7.03073025e-01, 1.54942298e+00,-1.41242671e+00,-4.66150904e+00,
   1.72697335e-01,-4.77993870e+00, 1.88764250e+00,-4.92086768e-01,
  -7.64961481e+00, 1.12696981e+00, 2.87674218e-01, 5.64023674e-01,
   7.58794308e-01, 2.78510523e+00, 1.64986968e+00,-1.51495636e-01,
  -9.46840882e-01,-9.34180546e+00,-9.52555686e-02,-6.70457482e-02,
   8.53943378e-02,-1.23422571e-01,-2.24474354e+01, 9.04455185e-01,
   9.69598532e-01,-6.93757355e-01,-1.22577381e+00, 1.78610265e-01,
   3.06072801e-01, 3.24566334e-01,-1.21649337e+00,-1.11142151e-01,
   6.45784736e-01,-7.03665733e-01, 1.23970661e+01, 1.61760855e+00,
   8.30526412e-01,-6.69745028e-01,-1.11913216e+00, 2.60570627e-02,
   4.95426387e-01,-1.03589550e-01,-5.03906727e-01, 9.46604908e-02,
  -1.55474663e-01, 1.67229700e+00, 1.27102137e+00,-1.03819382e+00,
   2.78348625e-02, 1.99913129e-01, 1.10569811e+00,-1.06436837e+00,
   2.85004234e+00,-5.63363731e-01,-5.89772284e-01,-2.12488592e-01,
   1.22257400e+00,-4.06183064e-01,-5.23603106e+00,-2.94049358e+00,
   4.87923414e-01, 2.32990593e-01, 3.46783727e-01,-1.12339354e+00,
   1.50380278e+00, 2.15480909e-01, 6.02312565e-01, 3.76865059e-01,
  -5.12389243e-01,-4.45782155e-01, 1.32501125e+00,-1.08287125e+01,
  -4.49699259e+00, 5.09594345e+00, 3.81573409e-01,-2.11417942e+01,
  -4.20387954e-01,-3.82641292e+00, 9.48457956e-01,-1.66483021e+00,
  -4.07334492e-02, 1.94322228e-01,-1.12097883e+00,-5.04015386e-01,
   2.05943894e+00, 6.12071335e-01,-6.93050027e-01, 1.05072701e+00,
   3.71167898e-01, 2.02531171e+00, 9.84080195e-01, 3.56927419e+00,
   2.79836297e+00, 1.18005298e-01, 2.43687630e+00, 3.55180168e+00,
  -3.60680079e+00, 2.33659714e-01, 8.67469370e-01, 1.10119081e+00,
   6.45336688e-01, 1.47804335e-01, 1.96443021e-01, 1.47880495e-01,
  -3.76380593e-01, 9.29767430e-01,-3.78691316e-01,-2.30050826e+00,
  -6.46680951e-01,-5.07875979e-01, 4.25545648e-02, 9.32927251e-01,
   1.42681926e-01, 7.56727993e-01, 2.56756067e+00, 3.72939420e+00,
  -6.80782557e+00, 1.34444666e+00, 2.12411210e-01,-4.84866095e+00},
 {-2.33710551e+00, 1.36666358e+00,-7.43645954e+00,-3.01758230e-01,
  -2.91063094e+00,-1.31726098e+00,-6.44735456e-01,-2.56155086e+00,
  -2.32793355e+00,-9.89935398e-02,-2.21239462e-01,-7.11174965e-01,
  -3.51552159e-01,-8.79563391e-01,-2.46339321e-01,-9.01799774e+00,
  -8.75308931e-01,-7.25127220e+00, 1.23268831e+00,-5.62465310e-01,
   3.26147676e+00, 4.15548182e+00, 5.41508675e+00,-1.14907272e-01,
  -5.95676422e+00, 1.17863238e+00,-1.27194321e+00, 4.35953856e+00,
  -2.14306012e-01,-8.84013057e-01,-2.72137433e-01,-2.02873921e+00,
   4.10306901e-01,-3.18859243e+00,-1.47963330e-01, 2.95642674e-01,
   5.28663933e-01,-1.31612778e-01, 4.81788725e-01, 1.04373169e+00,
  -4.89854038e-01, 3.63197774e-01, 1.67357433e+00, 1.38236105e+00,
  -2.19226551e+00,-6.63738823e+00, 1.62412798e+00, 2.70150948e+00,
  -1.76705778e+00,-1.23772776e+00, 2.54956293e+00, 1.76134217e+00,
  -1.08581579e+00,-1.63479149e+00, 9.51990128e-01, 1.31717288e+00,
   2.30511498e+00,-1.54016709e+00, 4.22284663e-01,-3.93831104e-01,
   3.25414598e-01, 1.97956949e-01, 8.59286845e-01, 2.87135720e+00,
  -3.45662189e+00, 7.26372838e-01,-7.02708423e-01, 4.00231957e-01,
   2.36059666e+00,-2.16742849e+00, 2.03727555e+00, 1.32291520e+00,
   2.04920936e+00,-2.76498049e-01, 7.53850341e-02,-2.01037407e+00,
  -1.52096307e+00,-6.44273567e+00, 2.91413927e+00,-4.54588920e-01,
  -2.81316066e+00, 3.89720249e+00,-4.89153328e+01,-3.65218544e+00,
   2.61829948e+00,-6.02628589e-01, 6.34894800e+00,-1.01272690e+00,
   3.38964343e-01, 3.43099117e+00,-4.91960943e-01,-1.78755736e+00,
  -3.71357143e-01,-1.12135410e+01, 7.89695501e-01,-5.48495054e-01,
  -3.99371058e-01,-3.34995103e+00,-4.15781081e-01, 1.15380085e+00,
  -3.77152473e-01,-1.67357087e-01, 5.20415902e-01,-8.47227275e-01,
   1.60646963e+00,-9.60541010e-01,-9.19773757e-01, 4.43894714e-01,
   2.55765772e+00,-7.11337280e+00,-4.52264547e+00,-6.44510332e-03,
  -5.35762966e-01, 2.43409801e+00,-8.45508814e-01,-2.71335387e+00,
  -1.31506681e+00, 8.27243090e-01,-6.74509168e-01,-5.92944562e-01,
   2.84035027e-01, 1.96870938e-02, 2.91430426e+00, 1.73504782e+00,
  -3.26930952e+00, 3.80142903e+00,-1.86679709e+00, 5.52777410e-01},
 {-6.67321920e-01,-4.51614285e+00, 1.34980345e+00,-2.82790232e+00,
  -9.15563047e-01,-6.60915598e-02, 5.36256850e-01, 3.23244244e-01,
  -5.52035868e-01, 2.79661274e+00, 9.16120037e-02, 7.29258209e-02,
   5.94868958e-01,-9.14833736e+00,-3.52310658e-01,-6.39604509e-01,
   7.57068619e-02,-1.42203879e+00, 3.93986464e-01, 4.48238850e+00,
   5.14047265e-01, 2.15164214e-01,-1.27626562e+01,-1.21304488e+00,
   1.99263573e+00,-3.67640793e-01, 2.04923797e+00,-4.31872964e-01,
   1.31322956e+00,-1.70532835e+00,-3.46627414e-01, 1.41771007e+00,
  -3.89292860e+00,-5.55162489e-01, 2.88473696e-01, 4.59689945e-02,
  -2.64648706e-01, 2.75563657e-01,-2.02616617e-01, 3.42753315e+00,
  -7.97923982e-01,-1.27268963e+01, 1.38571644e+00, 3.48382205e-01,
  -2.78529978e+00, 2.53833866e+00,-6.90648270e+00,-9.15512145e-01,
   5.83353460e-01,-4.84964341e-01,-4.76177275e-01, 7.07588851e-01,
  -1.63163936e+00,-1.10498428e+01, 4.74687934e-01,-5.61392486e-01,
   1.09236097e+00, 2.12846470e+00, 1.55140543e+00, 6.22412384e-01,
   4.40816581e-01, 6.60017490e-01,-1.26908815e+00,-1.69582117e+00,
  -4.97943878e-01, 3.08122396e-01, 1.14258134e+00,-1.11397755e+00,
  -1.13187730e+00,-3.69041950e-01,-3.52854896e+00, 5.96901715e-01,
   1.29759252e-01,-8.83342862e-01,-6.45731211e+00, 1.53418207e+00,
   1.57607567e+00, 1.76368460e-01,-5.73580742e-01,-8.37375373e-02,
  -3.49680573e-01, 9.32788193e-01, 1.60991879e+01,-6.95723653e-01,
  -4.15030777e-01, 7.08748877e-01,-8.83827329e-01, 2.86135226e-01,
  -2.59835410e+00,-6.12288141e+00,-2.41884708e-01,-3.17611957e+00,
   8.25946867e-01, 8.11319256e+00, 1.46949083e-01, 1.89343721e-01,
   2.44408250e+00,-3.99316996e-01, 1.71731079e+00,-3.71173434e-02,
  -2.42366001e-01,-1.64569840e-01,-2.56966323e-01, 4.93593216e-01,
   3.20966423e-01,-1.29761515e+01,-1.41362226e+00, 2.75696993e+00,
   3.47076297e+00, 1.78987885e+00, 6.84119821e-01,-4.25704628e-01,
  -4.93569046e-01,-6.22152448e-01,-1.93396473e+00,-3.87038440e-01,
   5.21604490e+00, 1.01971388e+00,-1.27785039e+00, 1.63698637e+00,
  -1.72803974e+00,-1.25984251e+00,-5.54445386e-01,-2.29474759e+00,
  -1.33079708e-01,-1.55078918e-01, 1.57975042e+00, 7.92805862e+00},
 {-5.44190788e+00,-1.19528449e+00,-2.18441987e+00, 3.63314569e-01,
   1.39840281e+00, 7.89869487e-01,-2.18609214e+00,-2.01328335e+01,
  -8.34263229e+00,-1.09955919e+00, 5.13136208e-01,-2.83168960e+00,
  -4.88168329e-01, 1.37521401e-01,-1.35941672e+00,-2.21032786e+00,
  -7.22856855e+00, 5.39102125e+00,-1.08993486e-01, 3.18241477e-01,
  -1.76219034e+00,-3.39673853e+00, 1.51187503e+00, 6.25566959e-01,
  -3.98298001e+00,-5.43514073e-01,-2.87707257e+00, 1.69186592e+00,
  -1.86867602e-02, 4.37312052e-02,-1.29773417e+01, 6.13547146e-01,
   9.31154013e-01, 3.00697398e+00,-1.48647785e-01, 7.58081675e-01,
   6.60972476e-01,-2.77480173e+00,-1.26037133e+00, 1.50878951e-01,
   6.17782640e+00, 1.29665530e+00, 2.80025053e+00, 1.30726874e+00,
   1.77136552e+00,-2.66302109e+00, 7.53741086e-01, 2.88112092e+00,
  -1.79067886e+00,-4.43367672e+00, 2.02482963e+00, 3.66129339e-01,
   3.55278224e-01,-1.82371032e+00,-8.75579178e-01,-2.08038712e+00,
  -4.63527060e+00, 1.87203079e-01, 2.44770312e+00,-1.95138347e+00,
  -2.35035896e+00, 2.21729502e-01, 8.05150211e-01,-2.35894062e-02,
   2.30752397e+00,-1.73832870e+00,-3.07459140e+00, 2.97603101e-01,
   6.78788722e-01, 4.39675152e-01,-1.46508586e+00,-5.43756247e-01,
   5.33946848e+00, 8.53910208e-01, 1.85327852e+00,-4.42035832e-02,
   3.10582608e-01, 3.43722999e-01,-1.46172059e+00,-5.21648169e+00,
   1.58651197e+00, 4.13907480e+00, 3.20470333e+00,-1.57481213e+01,
  -2.38647178e-01, 5.73080397e+00,-9.03235734e-01, 4.00915653e-01,
   3.64917487e-01, 5.18228486e-02,-2.26428181e-01,-2.70500994e+00,
  -1.93641496e+00, 1.00830877e+00,-7.45999515e-01, 3.47358656e+00,
  -8.78657699e-01, 1.49929738e+00, 1.90495503e+00, 2.86349624e-01,
   5.76341271e-01,-4.94504496e-02, 3.61424536e-01, 1.17392409e+00,
  -1.02169790e+01, 3.51356089e-01, 3.15473258e-01, 1.75744438e+00,
   2.36205697e+00, 1.07227147e+00,-4.99821573e-01, 3.10447598e+00,
  -4.63915014e+00, 1.62943542e+00, 4.11570311e-01,-1.68547547e+00,
  -1.73445940e+00, 2.02181697e+00,-2.51322061e-01, 6.51821256e-01,
   3.34044456e-01, 3.36801648e+00,-1.45963478e+00, 4.40497756e-01,
  -1.05888100e+01, 4.04082358e-01,-2.29133511e+00, 1.62265301e+00},
 { 1.60584766e-02,-7.47427158e-03,-1.14024691e-01,-1.00093387e-01,
   3.90283614e-02,-1.20763294e-01,-8.93585093e-04,-6.99504167e-02,
  -6.73999935e-02,-3.43926959e-02,-3.28948647e-02, 3.60474512e-02,
  -5.53984344e-02,-3.89558785e-02,-4.84232083e-02,-4.99678366e-02,
  -8.00354108e-02, 2.61241216e-02,-3.78506295e-02,-3.14227343e-02,
  -3.72036025e-02,-7.73383155e-02,-1.15218870e-01,-2.83489078e-02,
  -1.72038935e-02,-5.16294967e-03,-8.77360553e-02, 1.58812292e-03,
  -1.49064526e-01,-3.84914391e-02,-2.62931958e-02,-2.03207061e-02,
   1.77910142e-02,-7.92438313e-02,-1.09215349e-01,-1.05108833e-02,
  -7.46460259e-02,-3.42780016e-02,-1.16187714e-01,-1.40344426e-01,
  -7.36503303e-02,-6.83603212e-02,-4.28081788e-02,-8.58894512e-02,
  -7.25280568e-02,-5.57374172e-02, 1.60209071e-02,-1.08957149e-01,
   3.36106345e-02,-1.47108406e-01,-9.26139206e-02,-1.18378364e-01,
   9.40022171e-02,-8.01729783e-02,-2.95708003e-03,-5.97550273e-02,
   7.06692711e-02,-1.47425411e-02,-8.70673656e-02,-6.62390292e-02,
  -3.78360525e-02,-9.32019353e-02,-3.27383317e-02, 2.81040557e-02,
   1.64645910e-02,-1.22836620e-01,-6.25763386e-02,-2.98266876e-02,
  -1.17099024e-01, 4.36245389e-02,-1.56378746e-02, 2.55162083e-02,
  -5.46046644e-02,-8.04913118e-02,-8.69464949e-02, 2.77151745e-02,
  -1.36106506e-01,-1.26433864e-01,-8.12833905e-02,-3.19885127e-02,
  -1.03254206e-01,-1.07711166e-01,-4.98421676e-02,-9.30945799e-02,
  -3.86741571e-03,-1.30664976e-02,-1.19030438e-01,-6.48178384e-02,
   4.89463797e-03,-7.90764540e-02,-6.51611462e-02,-1.04606049e-02,
  -9.11179855e-02, 2.18204278e-02, 4.86811809e-03,-1.08379118e-01,
  -1.32616386e-01,-7.83097465e-03,-1.39366344e-01,-6.30771294e-02,
  -3.96807194e-02,-8.19747820e-02,-2.12070253e-02,-1.18262902e-01,
  -2.75690015e-02, 4.80627501e-03,-1.59948729e-02,-1.38161033e-01,
  -1.55504607e-02,-2.24223994e-02,-8.30031559e-02, 3.29624265e-02,
   9.63176135e-03, 6.76420182e-02,-7.91559592e-02,-8.44952613e-02,
  -9.66687575e-02,-4.65339310e-02,-2.80933008e-02,-1.47571430e-01,
   3.39068323e-02, 3.05877160e-03,-1.52849741e-02, 1.56083414e-02,
  -9.59140733e-02,-4.74135205e-02,-8.11616629e-02,-1.00329369e-01},
 {-2.84465575e+00,-3.20657277e+00,-8.65690768e-01,-2.25327420e+00,
  -2.09675145e+00,-3.27198768e+00, 8.04380536e-01,-1.37422838e+01,
   7.31802285e-01, 2.97791743e+00,-4.45781797e-01,-2.34183478e+00,
   6.27191663e-01,-6.23748302e+00, 1.16812670e+00,-5.64920235e+00,
  -3.48465115e-01,-3.35951710e+00,-8.56272340e-01, 1.85709465e+00,
  -5.38720429e-01, 2.23796797e+00, 1.20749879e+00, 1.62975967e+00,
   5.23804910e-02,-1.68706214e+00, 3.38468075e+00,-8.98463917e+00,
   6.93575001e+00,-6.28280342e-02,-2.25198412e+00,-1.25108967e+01,
  -1.16530538e+00,-4.23340142e-01, 5.57925844e+00, 2.27320850e-01,
  -2.72526193e+00, 1.06517434e+00, 5.51450729e-01, 1.87368107e+00,
  -2.66169220e-01, 1.09873104e+00, 3.58362818e+00, 6.07916057e-01,
  -7.06150913e+00,-1.21211708e+00,-4.22103786e+00,-1.77071309e+00,
  -6.37372196e-01,-7.04683065e-01,-1.41261363e+00, 1.40301311e+00,
  -3.14422274e+00,-3.59798491e-01, 5.22025347e-01, 1.37529731e+00,
  -1.99997151e+00,-9.64862883e-01, 9.94827390e-01, 2.51195908e+00,
   1.89795518e+00, 5.95994473e-01, 5.33612680e+00,-5.65229845e+00,
  -1.30271089e+00, 4.56623459e+00,-2.64654309e-01,-3.21215779e-01,
   3.43556553e-01,-1.43885193e+01, 6.97093010e-01,-1.11267948e+00,
   9.29327831e-02, 7.93914795e-01,-1.78028572e+00,-1.40839539e+01,
  -6.62109315e-01, 1.53730273e+00, 1.46048701e+00, 3.22989821e-01,
  -4.58708107e-01, 3.55898285e+00, 2.78304529e+00,-1.69329643e+00,
   1.41243875e+00,-4.19181633e+00, 2.19220448e+00, 8.00952256e-01,
  -3.44096041e+00,-4.33222437e+00,-1.81355882e+00,-5.20980453e+00,
  -3.14100289e+00, 6.09030724e-01,-1.95472848e+00, 1.21389234e+00,
  -8.85571384e+00,-1.19262338e+00, 2.46161389e+00, 1.09696198e+00,
   1.35805547e+00,-7.41772890e-01, 9.79999244e-01,-2.01508117e+00,
  -7.18576014e-01,-3.04156876e+00,-2.53765130e+00,-1.32592750e+00,
  -2.38796926e+00,-1.66144288e+00,-3.69881153e+00,-5.29248536e-01,
  -7.29757324e-02,-1.95927489e+00,-2.73586661e-01,-5.46606004e-01,
   3.62328982e+00, 2.09634304e+00,-1.42929649e+00,-2.16702127e+00,
   2.09163591e-01,-2.85759377e+00,-6.62304342e-01,-4.29662943e+00,
  -4.48931545e-01,-9.04508829e-02,-2.79250288e+00,-1.16067672e+00},
 {-3.09602928e+00, 8.74573529e-01, 2.90310960e-02,-8.17373395e-01,
  -2.90391898e+00,-2.85615057e-01, 4.36083221e+00,-2.18099556e+01,
   1.91194236e+00, 5.26854849e+00, 1.08689523e+00,-7.48479700e+00,
  -1.73925553e-02,-2.35833779e-01, 4.36895370e+00,-4.43912596e-01,
   2.62618102e-02,-4.55872822e+00,-1.56617284e-01, 2.79659778e-01,
   2.64707017e+00,-1.55307245e+00, 1.75164151e+00, 5.59859760e-02,
  -5.58642209e-01, 2.08087659e+00,-5.84447145e-01, 1.27268746e-01,
  -3.27225089e-01, 6.17286786e-02,-1.48059952e+00, 3.39077897e-02,
  -4.41148803e-02, 3.04699242e-01,-2.57925987e-01, 2.42323726e-02,
   6.31795704e-01, 1.41774559e+00, 1.21425724e+00,-4.66356367e-01,
   8.96681324e-02,-3.01256776e-01, 7.82206583e+00, 1.96297443e+00,
   8.30422878e-01,-9.21999037e-01,-9.25295174e-01,-2.37098622e+00,
   1.07038021e-01, 3.20786797e-02, 1.51393116e-01, 1.05834236e+01,
  -9.98573899e-02, 6.85548782e-01, 3.94958258e-01,-2.90701151e-01,
   2.24122033e-01, 9.03584957e-02, 1.41177630e+00,-5.20220661e+00,
   2.03295732e+00, 4.42478561e+00,-8.38275790e-01,-4.90546197e-01,
  -6.69224024e+00,-3.88335556e-01,-8.70945692e-01,-1.52421996e-01,
   3.82544175e-02, 3.64685625e-01, 5.12456059e-01,-3.63316715e-01,
  -2.97431087e+00, 1.99025273e-01, 4.39535171e-01,-1.83779165e-01,
   5.19631524e-03,-3.06234479e-01, 8.28417361e-01,-2.35974717e+00,
  -2.93127155e+00,-5.24395514e+00,-1.22384101e-01,-1.31727867e+01,
  -6.91713765e-02,-9.70814323e+00, 2.62847304e+00,-9.08653021e-01,
   4.96495098e-01,-1.82655782e-01,-1.05050290e+00,-3.22976261e-01,
  -7.42236328e+00,-2.11849704e-01, 5.70339784e-02,-3.86303097e-01,
   1.86812393e-02, 5.49672008e-01, 8.93067420e-01, 1.27626467e+00,
  -4.98492861e+00, 6.48147464e-01, 3.22839522e+00,-1.11473227e+01,
   4.52993423e-01,-1.87089115e-01,-1.63949635e-02, 5.17290175e-01,
   4.15700525e-01, 2.66520321e-01,-1.09665573e+00,-8.95288289e-02,
   1.03100047e-01, 4.99324417e+00,-5.22736907e-01,-2.92284703e+00,
  -1.60366185e-02, 6.74866289e-02, 1.77241519e-01,-2.69460171e-01,
   1.62602887e-01, 2.39533162e+00,-2.49914527e-01, 1.98064315e+00,
  -1.18156362e+00,-7.02498376e-01,-1.17484041e-01,-5.74243784e-01},
 {-1.74852058e-01, 1.08810581e-01,-8.86037759e-03,-2.42526603e+00,
  -5.81178479e-02, 1.10545911e-01,-8.93706083e-02,-1.51417807e-01,
  -1.37873486e-01, 2.41735741e-01, 3.11760027e-02,-1.80497974e-01,
  -2.89682674e+00,-8.95638847e+00,-1.02955058e-01,-3.52945685e+00,
   1.89323723e-02,-6.26557052e-01,-5.63906372e-01, 9.81324445e-03,
   3.84283334e-01, 3.25802535e-01,-6.41270339e-01, 5.87016106e-01,
  -2.65296847e-01, 6.56079650e-02,-1.73784643e-01, 2.94001651e+00,
  -1.08108969e+01,-2.87206507e+00,-2.42629677e-01,-2.90789509e+01,
   3.96118492e-01, 9.08535779e-01,-5.61593485e+00, 4.11672592e+00,
   2.44635537e-01, 6.07001781e-02, 8.13041627e-02, 1.43754870e-01,
  -7.44208740e-03, 3.29556632e+00, 1.44013286e-01, 1.35045052e-01,
   4.37157249e+00,-2.93640763e-01, 5.36180101e-02,-1.21123418e-02,
   1.76918898e-02, 1.07367682e+00,-2.13379320e-02,-4.32027388e+00,
   2.92502046e-01,-2.84215182e-01, 1.61971629e-01, 1.85381606e-01,
   2.82890737e-01, 3.49393606e-01,-3.90747881e+00,-7.65676722e-02,
   1.68074533e-01, 7.84948468e-03,-1.61345005e-01, 2.53872961e-01,
  -5.53101242e-01, 8.80748704e-02,-5.09700179e-01,-3.71399522e-01,
  -1.13045052e-01,-4.37943649e+00,-1.67474020e-02, 3.09993625e-02,
  -2.91999310e-01,-1.65082261e-01, 3.09971750e-01,-1.21499004e+01,
   8.77493572e+00, 1.42713249e-01, 2.19086127e-04,-1.70239717e-01,
  -2.17277855e-01, 4.08556223e-01,-1.96123213e-01,-4.36517298e-02,
   4.57302421e-01, 1.53500006e-01, 4.67297167e-01,-1.06620431e-01,
  -2.02570874e-02, 1.25593901e-01, 5.78823499e-02, 7.27637649e-01,
   2.86569834e-01,-1.08418894e+00,-1.78374186e-01,-6.21236265e-02,
  -4.09896642e-01,-4.04926777e-01, 3.81850563e-02, 4.83597070e-02,
   2.16897018e-03, 2.61761487e-01,-2.35065389e-02, 1.34922281e-01,
   8.54867250e-02, 5.48837939e-03,-8.94175231e-01,-1.01180919e-01,
   7.42947626e+00,-7.91701984e+00,-7.82979727e+00,-1.01714462e-01,
  -3.61107662e-02, 1.56567991e-01, 2.19384301e-02,-1.84050798e-01,
   7.75500759e-02, 3.57393682e-01, 5.40127419e-02,-1.70611048e+00,
   2.22716880e+00,-4.35483843e-01,-1.53079435e-01,-8.27432823e+00,
  -2.09432110e-01, 1.07471719e-01, 7.64029697e-02, 1.64895415e-01},
 { 3.09025615e-01, 4.05111647e+00,-1.42868495e+00,-1.92462909e+00,
   5.00333726e-01,-1.91279495e+00, 2.77339667e-01, 9.14487660e-01,
  -1.15562171e-01, 8.07682648e-02,-1.82080358e-01, 8.70935470e-02,
   6.11810803e-01,-2.60341797e+01,-4.65525985e-01,-1.24140000e+00,
  -6.19010627e-01, 2.17767549e+00,-1.21317029e+00,-2.14150444e-01,
  -1.17007661e+00,-2.65345760e-02,-4.10376072e+00, 4.72299367e-01,
  -7.62823462e-01,-2.01097652e-01,-1.10476208e+00, 8.46990421e-02,
   6.34286284e-01,-4.24809515e-01,-7.04486892e-02,-3.00284958e+00,
   1.09892046e+00, 1.70529771e+00, 6.42246485e+00, 1.19460452e+00,
   1.26650465e+00,-3.16665992e-02,-1.76980365e-02, 1.52828777e+00,
  -1.12909608e-01,-2.79505873e+00,-5.24831593e-01,-3.18673909e-01,
   9.88102674e-01,-1.04889631e-01, 4.35187864e+00,-1.35346428e-02,
   3.81850570e-01, 1.22149050e-01,-1.13601518e+00,-2.01589674e-01,
  -5.66760063e+00, 2.59398293e+00, 7.23999023e-01, 2.19566628e-01,
   8.07214200e-01, 2.02608123e-01, 1.94329691e+00, 4.79631096e-01,
  -2.94269621e-01,-2.50690617e-02,-1.22462761e+00, 1.50931984e-01,
   1.26106501e+00, 1.51380002e+00, 3.85213733e-01,-1.58874643e+00,
  -1.24407887e+00,-9.08658728e-02, 1.18092537e+00, 1.32004008e-01,
   3.23117882e-01,-2.05908322e+00, 1.48798060e+00,-1.70135319e+00,
  -2.20156288e+00, 3.97345275e-01,-1.60799551e+00, 5.39549172e-01,
   6.19196832e-01,-4.14055705e-01,-4.64500904e+00, 5.95934033e-01,
   8.02633286e-01,-1.31072417e-01,-7.80629635e-01, 7.73746967e-01,
  -2.92210251e-01, 3.15977263e+00,-2.65157461e-01,-6.18846655e-01,
  -6.86936200e-01,-1.41149254e+01, 1.61773300e+00, 3.27681243e-01,
  -7.10419789e-02,-3.92273879e+00, 1.78164154e-01,-6.45813420e-02,
  -2.11928673e-02,-1.27068803e-01, 5.91411471e-01,-2.71251738e-01,
  -6.55210391e-03, 7.63007462e-01, 1.04441977e+00,-6.44382983e-02,
  -6.07308531e+00,-2.95208432e-02,-7.11668777e+00, 5.42885773e-02,
   2.75051832e-01,-1.18723583e+00, 1.15040801e-01, 2.14132041e-01,
   3.80185485e+00,-3.72722417e-01, 3.98928022e+00,-4.63264656e+00,
   7.48648167e-01, 3.42751116e-01,-6.20770037e-01, 3.05346513e+00,
   1.77689418e-01,-2.13262826e-01, 1.67763102e+00, 1.31417739e+00},
 {-7.27617264e-01, 2.09960532e+00, 3.90480638e+00,-2.34548974e+00,
   7.21020401e-01, 9.93461668e-01, 3.97881091e-01, 2.16960996e-01,
  -3.88475537e-01, 2.48168540e+00,-5.22988737e-02, 1.98363587e-01,
  -3.05183411e+00, 2.37464595e+00,-7.86575973e-01, 5.76817572e-01,
   1.09000993e+00,-1.06717753e+00, 7.20409453e-01,-1.12364054e-01,
   3.16338599e-01, 1.41053355e+00, 5.18634892e+00,-3.79954487e-01,
  -3.49976468e+00, 7.49208033e-02, 5.87001860e-01, 2.39688367e-01,
  -9.46795881e-01,-2.71945262e+00,-4.95039433e-01, 9.95696783e-01,
  -1.41199911e+00, 1.36841011e+00,-6.84804153e+00, 2.73134875e+00,
   9.90055680e-01,-8.91296342e-02,-1.89065993e-01,-3.70456338e-01,
   1.74056113e-01, 4.83566427e+00, 3.15046936e-01, 3.01557779e-01,
  -5.05878448e-01,-9.63776484e-02,-1.23397338e+00, 9.92271364e-01,
  -2.29733482e-01, 5.65158427e-01, 2.36068583e+00,-2.20326647e-01,
   3.21527906e-02, 2.70395696e-01,-2.01059532e+00,-3.19542623e+00,
   4.55659144e-02, 4.44063157e-01,-2.30233264e+00,-3.20080221e-01,
  -2.69453198e-01, 1.81223080e-01,-2.00864613e-01,-4.76004171e+00,
  -5.46235979e-01,-1.92537999e+00,-9.95021164e-01, 1.53547335e+00,
   1.79256201e+00,-5.34083903e-01,-3.12626100e+00, 5.90712726e-01,
   5.36299467e-01, 6.64571702e-01,-1.34634924e+00, 1.69493258e-01,
   2.68512416e+00, 1.84879303e-01, 2.18458861e-01, 2.06508771e-01,
  -3.91046494e-01, 1.15141618e+00, 3.45522618e+00,-2.39098072e-01,
   7.19432402e+00, 1.69212580e+00,-2.36009061e-01, 6.55630052e-01,
  -1.19886756e+00, 3.89313221e+00,-3.41938227e-01, 1.03245533e+00,
   3.14687169e-03,-1.46606898e+00, 1.48152411e-02, 7.99695492e-01,
  -1.89382267e+00,-2.21181631e+00,-5.43196023e-01, 2.15578526e-02,
  -3.44553292e-01, 2.37433732e-01, 4.82018769e-01,-4.98869330e-01,
  -4.62986790e-02,-2.34466290e+00,-5.12121141e-01,-3.43788576e+00,
   2.58785486e+00, 2.86374778e-01, 1.76455423e-01,-1.60435334e-01,
   3.28817479e-02,-5.56839526e-01,-9.01886463e-01,-1.05617784e-01,
  -5.67666006e+00, 8.06737125e-01,-3.58056030e+01,-7.96363473e-01,
   3.15724063e+00,-7.82078564e-01,-2.29204789e-01,-3.85495484e-01,
  -5.15818834e-01, 2.12211385e-01,-4.27757692e+00,-3.71554089e+00},
 { 8.63619521e-02, 1.01509643e+00, 1.99124479e+00,-3.24361706e+00,
  -2.88869351e-01,-6.34911239e-01,-1.04677367e+00,-5.76102622e-02,
  -3.85661930e-01, 1.53977084e+00, 9.60517004e-02, 8.68732810e-01,
   3.17641139e-01, 4.50330067e+00,-1.34855345e-01,-1.10255587e+00,
   1.52054816e-01,-2.77441573e+00,-3.19968319e+00,-1.00471951e-01,
  -4.23668593e-01, 4.68904161e+00, 3.80140758e+00, 3.87823224e-01,
   6.11496866e-01,-2.14657128e-01, 6.42125368e-01, 1.28700674e+00,
   2.19371510e+00, 5.86043477e-01,-4.86080945e-01,-6.93752348e-01,
  -2.17849106e-01,-6.16338158e+00, 5.47073317e+00,-2.67100191e+00,
  -3.86427164e-01,-4.87773091e-01, 6.11028671e-01, 1.16926575e+00,
  -4.42261174e-02, 5.28658390e+00,-1.67294836e+00, 4.33240891e-01,
   2.31965280e+00,-8.79482985e-01, 8.55799794e-01,-9.20135528e-02,
  -1.22315192e+00, 8.61629725e-01, 1.39152670e+00, 1.01436520e+00,
  -3.72254634e+00,-4.09479952e+00,-5.54011822e-01, 7.52229750e-01,
  -1.61291927e-01,-1.02340424e+00, 3.73597002e+00,-1.73973155e+00,
  -4.90675777e-01,-7.90939689e-01, 1.83050796e-01,-8.98057640e-01,
  -8.16120088e-01, 7.71644294e-01, 6.52114749e-02, 3.82319480e-01,
  -5.78514338e-01,-1.70500374e+00, 2.49503836e-01,-3.95383328e-01,
  -2.17824626e+00, 5.78825891e-01,-3.57010782e-01,-4.19557858e+00,
  -2.21182537e+00, 4.89448942e-02, 1.37774527e+00,-2.23709837e-01,
  -5.00326991e-01,-4.46712703e-01,-1.09263315e+01,-1.93348885e+00,
   9.97830868e-01, 6.39822111e-02, 1.75586128e+00,-8.07234228e-01,
  -1.82038701e+00, 1.14411187e+00, 2.79064476e-01,-1.00821376e+00,
  -4.42605078e-01,-6.41903400e+00, 2.18341231e+00, 2.98182927e-02,
   8.32817852e-01, 3.84814143e+00, 3.59767228e-01,-3.00753295e-01,
   2.41719618e-01,-9.88664389e-01,-6.32236600e-02,-1.74178159e+00,
  -2.07524091e-01,-1.17039716e+00, 2.40738797e+00,-3.74329138e+00,
  -3.20169353e+00,-1.89747500e+00,-1.68751836e+00, 5.43187797e-01,
   2.23097420e+00, 1.64314842e+00, 1.00026643e+00, 4.19329375e-01,
   2.92003536e+00, 1.05559957e+00, 3.33478713e+00,-4.03536797e+00,
   3.38131905e-01, 2.31374526e+00, 1.06554556e+00, 3.15362191e+00,
  -3.27029407e-01, 3.60831380e-01,-1.94942713e+00, 1.01416767e+00},
 { 2.13866544e+00, 1.37839258e+00,-4.28425938e-01,-2.67391413e-01,
   2.24637175e+00, 2.01398039e+00,-2.55592370e+00,-5.81726122e+00,
  -4.14522350e-01, 8.11381936e-01,-9.12758052e-01,-2.26579690e+00,
  -2.67398387e-01, 7.29830191e-02,-3.25347096e-01,-1.80917478e+00,
   2.01794195e+00, 1.64412522e+00, 3.42088550e-01, 6.58455968e-01,
  -1.95571041e+00,-1.32596803e+00, 3.70259653e-03, 6.14445917e-02,
   3.47875142e+00,-7.73703933e-01,-2.86857986e+00, 6.70521379e-01,
  -3.06811929e+00, 1.95956230e-02,-2.07616496e+00,-2.33127803e-01,
  -2.24055022e-01, 1.62125170e+00, 1.32250583e+00, 5.24160683e-01,
  -1.97412920e+00,-3.02465487e+00,-3.99031878e-01,-1.32944572e+00,
  -1.03844464e+00, 7.89361596e-01,-1.97504655e-01, 1.64898002e+00,
   2.85644746e+00,-2.41965699e+00,-1.95951592e-02, 4.17537117e+00,
  -2.39337993e+00,-8.35782111e-01,-6.95771933e-01,-3.40567541e+00,
  -1.14658797e+00, 1.50400460e-01, 3.42780173e-01, 1.25378919e+00,
   7.29029655e-01,-3.38315442e-02,-1.05254400e+00,-1.30972004e+00,
  -5.89313602e+00, 7.79555082e-01, 4.27343309e-01,-1.68087900e+00,
   1.09570193e+00,-1.91444933e+00, 3.77566218e-01,-2.49482784e-03,
  -2.46555313e-01, 1.52523661e+00,-9.21292305e-01,-1.10024130e+00,
   9.04706287e+00, 1.05198836e+00,-3.32323194e-01,-1.19458294e+00,
   4.58790839e-01, 4.78402674e-02,-2.00445867e+00, 5.41046739e-01,
   2.15188527e+00, 6.32128239e-01, 3.02108169e+00,-7.56469220e-02,
   9.31039333e-01, 6.84013414e+00,-3.16388083e+00, 1.09055507e+00,
  -1.37813556e+00, 5.90770692e-02,-1.72657108e+00, 1.06527793e+00,
  -7.89094806e-01, 1.13949502e+00,-1.03048934e-02, 8.22794247e+00,
   1.53637516e+00, 1.09788311e+00,-6.44565225e-01,-1.32965577e+00,
   8.77750099e-01, 2.89470458e+00, 9.97356951e-01,-8.99652386e+00,
  -1.05967569e+01,-7.78326750e-01, 5.27587891e-01,-1.36886871e+00,
   2.14886570e+00, 9.56046045e-01, 1.94354475e+00,-3.15137625e+00,
  -9.14306194e-02, 5.59972644e-01,-3.87493521e-01, 2.52550220e+00,
  -1.10309458e+00,-8.28754961e-01,-1.16775310e+00,-6.50101662e-01,
   8.69230509e-01,-1.69087529e+00,-1.46996617e+00,-1.49058259e+00,
   1.74404287e+00,-9.79776287e+00, 1.72071552e+00, 1.73450398e+00},
 { 4.30442542e-01,-8.24918300e-02,-6.84645295e-01,-1.34456024e-01,
   1.99088976e-01, 1.38763785e-01, 3.70343477e-01, 1.63189030e+01,
   4.08945847e+00,-2.35965443e+01,-1.97896969e+00, 6.89621389e-01,
  -8.49830136e-02, 3.58052433e-01,-4.08834219e+00, 7.75287524e-02,
   4.68881369e+00,-2.36198521e+00, 3.02733276e-02, 5.35218902e-02,
  -3.37215829e+00,-5.87286830e-01, 1.76672661e+00, 5.05984426e-01,
   2.20329237e+00, 5.08205712e-01, 2.78995538e+00, 3.23838621e-01,
  -1.75462017e-04, 1.00388862e-01,-1.34569025e+00,-7.25342929e-02,
  -1.00922298e+00,-2.46947837e+00, 6.63751364e-01, 3.31448883e-01,
  -6.62655830e+00, 3.08102226e+00,-1.74503934e+00, 4.25987333e-01,
  -2.24564052e+00, 9.90289569e-01,-5.96374321e+00, 5.73662698e-01,
   4.30886030e+00, 1.44264317e+00, 3.55475903e-01,-2.98380584e-01,
  -8.81393194e-01,-9.89380658e-01,-3.71913147e+00,-1.33642876e+00,
   2.31520510e+00,-1.99677870e-01, 6.51137233e-01, 1.27101552e+00,
  -4.05069208e+00,-4.87969011e-01, 1.05444646e+00, 1.55522943e-01,
  -3.58788282e-01, 4.47060823e-01, 1.19599998e+00, 1.56623483e-01,
  -7.32600629e-01, 4.29272205e-01, 3.57767344e+00, 7.53404140e-01,
   3.89791071e-01, 1.00411820e+00,-1.52083135e+00, 1.33423352e+00,
  -4.87521946e-01, 2.75965452e-01,-1.02971971e+00,-1.16006112e+00,
   5.45723021e-01, 4.82582927e-01, 1.28510165e+00, 3.78805041e+00,
  -2.62068629e+00, 1.97284281e-01, 1.74994385e+00, 4.83676910e+00,
   1.09698570e+00, 2.14467120e+00,-1.36167221e+01,-2.61463857e+00,
  -1.89766693e+00,-5.24228252e-02,-2.01781249e+00,-4.67768520e-01,
   1.51949596e+00,-9.37252343e-01,-1.42971575e-01,-2.32527196e-01,
  -1.27767241e+00,-2.85767555e+00,-2.14343214e+00,-5.35707287e-02,
   2.68833160e+00, 3.95537823e-01, 1.80982971e+00, 1.29755640e+00,
  -7.49820089e+00,-5.79061568e-01,-6.16640210e-01,-1.49273682e+00,
  -3.34116608e-01, 1.20907724e+00, 9.52471972e-01,-2.90760279e+00,
   6.92649245e-01, 2.00365975e-01,-8.69250521e-02,-1.93429971e+00,
   6.84351265e-01,-2.85492480e-01,-1.15896535e+00,-5.12826860e-01,
   5.73722541e-01, 4.85164136e-01, 2.02489185e+00,-6.52318120e-01,
   3.59299707e+00, 1.66520631e+00, 1.50348227e-02, 5.34637630e-01},
 {-5.20072699e-01,-1.51834011e-01, 6.96705997e-01, 1.88878381e+00,
  -5.06874847e+00,-1.73979723e+00, 2.16211224e+00,-7.57286882e+00,
  -3.61041021e+00, 6.92795658e+00,-2.28832245e+00,-1.24751723e+00,
  -7.69673102e-03,-6.30711603e+00, 1.06091976e-01,-9.91331875e-01,
  -4.86763269e-01,-9.75518322e+00,-3.05744261e-01,-2.02678367e-01,
   6.82001066e+00,-5.65965033e+00, 1.66137314e+00, 2.81313479e-01,
  -2.93369675e+00,-2.76054907e+00,-1.37278736e+00,-4.95885760e-02,
  -3.97614866e-01, 2.51830891e-02, 1.00199854e+00, 1.52382672e-01,
   2.51326174e-01, 2.14350343e-01,-5.20546257e-01, 3.91105086e-01,
   9.84127641e-01, 2.27315283e+00, 1.46492040e+00,-2.40645266e+00,
  -4.44534943e-02,-5.03858328e-01,-1.91801584e+00, 3.16424584e+00,
  -2.07842183e+00,-1.07773638e+00,-8.51465797e+00,-3.81999195e-01,
   6.87714529e+00, 5.63878953e-01, 2.60041922e-01,-2.45874929e+00,
  -7.55267978e-01,-2.64732510e-01,-2.03899652e-01,-1.02782488e+00,
   2.73452187e+00,-2.05088686e-02,-6.43500566e-01, 1.08579719e+00,
   2.83944368e+00,-1.16193807e+00, 3.61918032e-01,-1.42171586e+00,
  -9.04970360e+00,-4.77607346e+00,-1.79769516e+00,-2.03874187e+01,
   4.90573853e-01, 2.94142276e-01,-1.33076596e+00,-9.52165782e-01,
   9.94900703e-01, 1.58079028e+00, 6.76867902e-01,-2.11171865e-01,
   2.79028803e-01,-1.04930484e+00, 7.11686134e-01,-3.80935788e+00,
  -5.16906166e+00,-1.63687348e-01, 2.66449600e-01,-1.98936043e+01,
   2.47515757e-02, 8.81972909e-01, 3.44804239e+00,-1.10040271e+00,
  -4.80532348e-01, 1.67295635e-01,-1.97688687e+00,-6.08999372e-01,
   1.82552826e+00, 3.22370142e-01,-1.80441767e-01,-1.58032024e+00,
   1.23864546e-01, 1.29905140e+00, 2.35239387e+00, 1.51135123e+00,
   1.31511641e+00, 6.39976799e-01, 3.22975516e+00,-1.16031587e+00,
  -2.03926682e-01,-2.74818420e-01,-3.83920193e-01, 1.07812893e+00,
   5.20228088e-01, 3.37650895e-01,-3.15684104e+00,-2.97376305e-01,
  -2.68272102e-01, 1.69026721e+00,-2.45406300e-01,-1.94790065e+00,
  -7.96522617e-01,-6.11229539e-01, 4.77950508e-03,-1.62276998e-01,
  -5.92628047e-02,-1.51523209e+00,-1.54601657e+00, 4.06820631e+00,
  -9.61017072e-01, 4.73280334e+00,-5.04759550e+00,-3.61046934e+00},
 {-3.67512733e-01, 6.63949549e-01, 4.02500540e-01, 2.62597418e+00,
  -6.47248626e-01, 1.70924604e+00, 7.69090950e-01,-5.46481311e-01,
  -4.53135341e-01, 1.62541759e+00,-1.40404582e-01,-3.76261204e-01,
  -4.26354140e-01,-7.25575113e+00,-7.07128704e-01,-4.63320971e-01,
   1.79122895e-01, 4.74714220e-01, 3.23681641e+00, 3.27746868e+00,
  -1.59552291e-01,-1.57363161e-01, 2.14088178e+00,-2.88804555e+00,
   7.82874152e-02, 2.47564148e-02, 3.27625573e-01,-3.53072882e-01,
  -9.45180535e-01,-3.24986726e-01,-4.71788436e-01,-1.25705194e+00,
  -2.52154112e+00, 2.32460380e+00, 2.55695391e+00, 1.64016530e-01,
  -2.47479260e-01,-3.64645272e-02,-1.74189985e-01,-1.04327619e+00,
  -6.44254208e-01, 8.95260870e-01, 1.09941185e+00, 2.38770366e-01,
  -3.72572803e+00, 1.91013720e-02,-1.20005453e+00,-9.77305472e-02,
   3.08902860e-01, 4.86180973e+00,-1.90515375e+00,-1.01869333e+00,
   1.44736767e+00,-1.03767049e+00, 2.13726833e-02,-7.81194150e-01,
   2.08991742e+00, 8.29058766e-01,-1.19119361e-01, 2.26569846e-01,
   1.96215346e-01, 1.01911485e-01,-5.96792817e-01, 4.68279868e-01,
  -2.85686284e-01, 3.26453656e-01, 9.54557538e-01,-3.83343875e-01,
   3.82471442e+00,-6.89751446e-01,-1.26481640e+00,-2.20843410e+00,
   5.59956674e-03, 1.60016644e+00, 1.79223828e-02,-9.27440822e-01,
   7.19073176e-01, 1.65995407e+00, 5.04620969e-01,-2.90050469e-02,
   1.75840601e-01, 9.66458619e-01,-1.31109500e+00,-7.03251064e-01,
   8.37844467e+00,-4.58163023e-02,-3.06460649e-01, 2.40684390e-01,
   1.69798481e+00,-5.23133373e+00,-7.49736745e-03,-2.81910944e+00,
   2.14567557e-01, 2.32139230e+00,-3.73989201e+00, 3.85494202e-01,
   1.07504237e+00, 4.17630339e+00,-4.85477373e-02, 6.99070245e-02,
  -3.91026407e-01,-1.19246125e-01,-7.85286166e-03,-5.47190785e-01,
  -1.11659378e-01,-8.35082352e-01, 1.12133706e+00,-1.85337663e+00,
   4.80983019e+00,-1.99207058e+01, 4.49233961e+00, 2.35770661e-02,
   2.83376724e-01,-8.11469555e-01,-5.96775055e-01,-6.80676475e-02,
  -4.21730900e+00, 1.90527260e+00,-3.08694038e+01, 2.18031359e+00,
   2.18675876e+00,-1.68102980e+00,-1.84662247e+00, 3.18161815e-01,
  -1.55034482e-01, 1.92785412e-02,-1.20599604e+00,-3.63281906e-01},
 {-2.08573807e-02,-7.43227974e-02, 1.70465851e+00,-1.26455441e-01,
  -2.06931138e+00, 3.78087163e-01, 4.27807748e-01,-9.61041069e+00,
   6.16885364e-01, 7.53308821e+00, 5.88066578e-01,-4.16291147e-01,
   1.75013825e-01, 2.18324423e+00,-6.84775710e-01,-1.72069871e+00,
   6.41294956e-01,-1.01143970e+01, 8.90639842e-01,-5.87393820e-01,
   2.77338529e+00,-1.37696671e+00, 6.51390851e-01, 1.82924680e-02,
  -3.42251563e+00,-1.09217477e+00,-3.27212548e+00, 9.39360619e-01,
   1.00918114e+00,-2.88404405e-01,-9.33928136e-03, 7.46557951e-01,
  -3.35777283e-01,-3.95967752e-01,-1.78419566e+00, 2.25849122e-01,
   1.21976113e+00,-5.58124304e-01, 4.71234512e+00, 7.80188918e-01,
  -4.04425859e-01, 5.39565980e-01, 9.01975572e-01, 6.61772966e-01,
  -2.10802865e+00,-7.41221845e-01,-1.74640286e+00,-4.18361753e-01,
  -1.25789869e+00,-1.11867830e-01, 1.49083698e+00, 6.63713503e+00,
  -8.30406129e-01,-1.11972702e+00, 1.63495612e+00,-2.85743785e+00,
   1.07172608e+00, 1.23089933e+00,-2.01570654e+00,-2.30857030e-01,
  -1.39452791e+00, 2.61613488e-01, 3.70000064e-01, 3.31849530e-02,
  -5.63060808e+00,-1.26752889e+00,-2.97674723e-02, 1.19640365e-01,
   1.90218613e-01,-6.47142231e-01, 6.78424656e-01,-1.34880841e+00,
   1.20465112e+00,-5.27253211e-01, 2.41325442e-02,-1.78297114e+00,
   4.07988369e-01,-4.65173215e-01,-2.44404346e-01,-8.81254435e-01,
  -3.88154268e+00, 3.27395701e+00, 1.76121211e+00, 9.49265182e-01,
   1.02136385e+00,-1.94879460e+00, 2.14614630e+00, 9.90898982e-02,
   1.76625717e+00, 1.21505804e-01,-2.91480660e-01,-2.64354378e-01,
  -1.24393535e+00, 1.44755042e+00,-5.12389183e-01, 1.04719377e+00,
  -7.93947518e-01, 6.80550694e-01, 2.07887435e+00, 8.15502107e-01,
  -1.71277761e+00,-4.96173859e+00, 5.91914773e-01,-9.86617565e+00,
  -3.34267616e-01,-8.18563044e-01,-1.03012435e-01, 2.64532614e+00,
   2.17525244e+00, 3.34364846e-02,-1.43941391e+00,-9.97678638e-01,
  -1.11448002e+00, 1.77139986e+00,-7.96188295e-01, 1.95274636e-01,
   5.04203677e-01, 1.62652172e-02, 1.59224898e-01,-1.56079501e-01,
   4.05750632e-01, 3.73518896e+00, 1.54560363e+00, 3.35898137e+00,
   5.83847016e-02, 1.66244078e+00,-1.39333141e+00, 1.85838103e+00},
 {-3.00062609e+00, 5.28790772e-01, 2.66142583e+00, 2.48233840e-01,
  -1.62732255e+00, 1.34204340e+00,-1.80797184e+00,-1.22123289e+01,
   2.12747753e-02, 5.86466885e+00,-1.49877727e+00,-1.78784382e+00,
   1.37706948e-02,-5.18132985e-01,-1.01864219e-01,-1.98506498e+00,
  -2.49437571e+00,-3.06107283e+00, 1.22718310e+00, 1.39250726e-01,
  -1.69705927e-01, 2.21413970e+00,-1.97981763e+00,-1.27511978e-01,
  -7.89142752e+00, 1.67801070e+00,-6.56343269e+00, 2.48308584e-01,
   1.08603537e+00,-6.77943304e-02,-5.70453107e-01,-2.95395225e-01,
  -8.59651208e-01, 8.52880836e-01,-2.88906741e+00, 3.79786305e-02,
  -2.74172449e+00, 3.08033645e-01,-1.28996130e-02, 1.82331920e+00,
  -4.48286355e-01, 3.06804389e-01, 3.22004151e+00, 1.04002941e+00,
  -7.03199923e-01, 9.73284364e-01, 2.89301634e+00, 1.92227197e+00,
  -2.48171234e+00, 1.11671579e+00,-2.15763354e+00,-3.40270549e-01,
   8.12021673e-01, 1.07180290e-01,-1.20976496e+00,-5.01546860e-01,
   1.02204239e+00, 1.02170157e+00,-1.61267710e+00, 7.28666782e-01,
   1.04005086e+00, 4.08106953e-01,-4.93242651e-01,-1.08226907e+00,
  -1.08230412e+00,-5.70233440e+00,-1.04289150e+00, 4.27887297e+00,
   1.56843990e-01,-1.18195791e+01,-2.19826698e+00, 3.31916285e+00,
   8.43363047e-01,-5.92528343e-01, 8.79700363e-01,-7.45848179e-01,
   6.18321061e-01, 3.66242003e+00,-4.81608622e-02, 1.21612167e+00,
  -6.78402424e-01, 4.72617722e+00, 9.49396372e-01,-2.74810767e+00,
  -8.69827792e-02,-5.86260080e+00, 2.17827272e+00, 9.39072132e-01,
  -2.00101066e+00, 1.42254710e+00, 1.64845955e+00, 1.14964461e+00,
   9.65251505e-01,-7.24650145e-01,-2.66774416e-01, 2.18081450e+00,
  -2.04315519e+00,-2.74083328e+00,-1.61254406e+00, 1.12933040e+00,
   1.22997141e+00, 1.69014633e-01, 1.95161748e+00,-2.84069133e+00,
  -7.21345723e-01,-7.94244111e-01, 6.43376648e-01,-1.71128416e+00,
  -1.40610528e+00,-6.13722384e-01,-3.92356706e+00,-1.25113082e+00,
   4.97263610e-01,-2.84884274e-01,-1.82014978e+00,-1.38727140e+00,
   6.77794397e-01,-3.03038788e+00,-1.60327129e+01, 2.72704095e-01,
   5.32272816e-01, 1.88974082e+00, 7.44988350e-03, 4.58462119e-01,
  -1.70002592e+00, 1.05914645e-01, 4.14646953e-01,-3.86681628e+00},
 { 2.67941523e+00,-5.40142357e-01,-9.34581757e-01,-2.51995534e-01,
   3.43938994e+00,-4.81379807e-01,-3.49613118e+00, 3.17944956e+00,
   1.29024756e+00,-4.48228264e+00,-1.40801538e-02,-1.99389473e-01,
  -1.46129042e-01,-1.81873411e-01,-8.08788717e-01, 1.15520060e+00,
  -4.23438966e-01, 3.14046025e+00, 3.24262641e-02,-1.50517076e-01,
  -2.90659809e+00,-4.21452713e+00, 3.23857397e-01,-6.55702293e-01,
   3.02966595e+00, 2.56857425e-01, 1.27024829e+00, 4.08553593e-02,
   3.50748837e-01,-6.41965121e-02, 2.79545331e+00, 2.36791924e-01,
  -7.24910438e-01, 4.93628591e-01, 8.31718862e-01, 3.96785676e-01,
  -3.76422286e+00,-8.03959727e-01,-1.74313200e+00, 1.35210641e-02,
   2.40792319e-01, 3.18668127e-01,-4.67338181e+00,-2.76149845e+00,
   2.01796293e+00, 2.14426613e+00, 1.31752408e+00,-2.73093367e+00,
   2.35575035e-01,-2.32492566e-01,-5.24398899e+00,-2.45038009e+00,
   1.09159470e+00,-1.19474602e+00,-6.33669078e-01, 1.18405724e+00,
  -4.06837082e+00, 3.55534613e-01,-4.64858389e+00,-2.33715487e+00,
  -4.52224302e+00, 6.12810671e-01,-2.73660803e+00, 8.13727498e-01,
   5.10897350e+00, 6.44596457e-01, 7.92427659e-01, 4.20467585e-01,
  -3.50818664e-01,-4.73023951e-02,-2.74823785e+00, 6.54545307e-01,
  -2.55407661e-01,-2.47396249e-02,-7.16340423e-01,-3.59459259e-02,
   7.56764174e-01,-2.72105485e-01, 8.29934701e-02, 3.39845848e+00,
   3.61340046e+00,-4.28717566e+00, 1.18347394e+00, 4.85570908e+00,
   8.53441417e-01, 8.75999451e+00,-6.95512867e+00, 2.40943050e+00,
  -5.79865360e+00,-3.66782010e-01,-2.25223470e+00,-1.66481938e-02,
  -6.86598718e-01,-1.26034093e+00,-1.95936263e-02, 1.71625662e+00,
   1.79811761e-01,-1.53652930e+00,-2.32378936e+00,-1.08232844e+00,
  -9.18691814e-01, 9.44448709e-01, 2.96374470e-01,-8.49432850e+00,
  -1.31157410e+00, 4.66290027e-01,-1.22408974e+00,-1.99965084e+00,
  -2.04558745e-01, 1.51432514e-01, 1.15420187e+00, 2.79218286e-01,
   1.87677220e-01,-4.41618109e+00, 6.14355922e-01, 3.27549744e+00,
   1.78374916e-01,-4.71422188e-02,-9.43289977e-03,-2.39579469e-01,
   3.58161509e-01,-1.96884966e+00, 2.83338040e-01,-2.05009174e+00,
   2.49954176e+00,-1.22977905e+01, 8.42535079e-01, 9.80106443e-02},
 {-3.00805974e+00,-6.84207201e-01, 7.67710358e-02, 4.24325913e-01,
  -9.83759940e-01, 5.21795154e-02,-2.68728328e+00,-1.33078909e+01,
  -2.47367644e+00,-8.69628620e+00, 3.14811873e+00,-9.66181636e-01,
  -9.68713239e-02,-8.61754131e+00,-2.75120974e+00,-5.18018715e-02,
  -2.47758436e+00, 3.98784471e+00,-1.57285467e-01, 1.65721491e-01,
   2.48388243e+00, 1.90279031e+00, 2.72934651e+00, 1.90902784e-01,
   1.60292342e-01,-1.60682607e+00,-3.83482009e-01,-1.82836615e-02,
  -1.83616370e-01, 1.00997530e-01,-2.73006892e+00,-2.37036884e-01,
  -8.39765444e-02, 4.08541536e+00, 3.23570073e-01,-5.17590679e-02,
   5.41608155e-01,-1.41474104e+00, 7.78112173e-01,-3.66381913e-01,
  -4.69179563e-02,-4.74539734e-02, 8.27286243e+00, 3.37015390e+00,
  -9.84982997e-02,-3.61436009e-01,-1.02393484e+00,-2.44631156e-01,
   3.93944114e-01, 3.14726755e-02, 1.98187888e-01, 4.68126610e-02,
   1.41038284e-01, 8.95866454e-01, 6.80964410e-01,-3.62384498e-01,
  -9.16106552e-02,-2.06258353e-02, 4.64710951e-01, 1.32951379e+00,
   1.34971201e+00, 1.20617285e-01,-4.59399112e-02,-3.86687905e-01,
  -2.75772035e-01,-2.51997292e-01,-1.19801235e+00, 1.21654995e-01,
   9.21213180e-02, 2.76912242e-01, 5.81087589e-01,-1.76266626e-01,
   1.85816307e-02,-3.64131272e-01, 1.28324986e-01,-2.76169986e-01,
   1.74308777e-01,-7.57996216e-02, 9.00250953e-03,-1.64533176e+01,
  -4.14769650e+00, 5.37466288e+00, 2.18099549e-01,-8.30195332e+00,
  -5.49542978e-02, 6.20683861e+00, 1.96198523e-01,-1.26353562e+00,
   4.25437421e-01, 6.61059245e-02, 8.97816420e-01,-9.72053185e-02,
  -4.82144165e+00, 1.88585863e-01, 2.92654969e-02, 2.49726844e+00,
   2.78927665e-03, 3.64709735e-01, 4.24674600e-01, 2.57975578e-01,
   1.53725123e+00, 2.23336756e-01,-3.41466355e+00,-1.69807181e-01,
  -1.68014832e+01,-1.99202538e-01, 8.28544736e-01, 6.05515063e-01,
  -4.67047170e-02,-1.97699338e-01,-7.00002909e-01,-6.66068912e-01,
  -1.97268799e-01, 3.96810746e+00,-4.21137661e-01,-1.42290521e+00,
   4.08649445e-02, 3.02098668e-03,-3.39434929e-02,-2.47310728e-01,
   1.08445197e-01,-1.76802158e-01, 4.84140635e-01, 2.94415444e-01,
  -1.28931534e+00, 1.35600150e+00,-1.30662039e-01, 5.41153371e-01},
 { 9.92940485e-01, 9.64681864e-01, 1.69424212e+00, 1.87811124e+00,
   7.60182977e-01, 1.02317369e+00, 2.53788739e-01,-8.21722224e-02,
  -2.51263857e+00, 4.87408018e+00, 2.92302996e-01,-1.60268772e+00,
  -4.08609509e-01,-3.94503975e+00,-2.96081948e+00,-4.63906670e+00,
   1.73267806e+00, 1.37680161e+00, 2.57256126e+00, 1.62525904e+00,
   2.02873087e+00, 8.35677814e+00, 3.05647254e+00, 1.71479404e+00,
  -4.97259092e+00,-7.01099992e-01,-7.89355850e+00,-2.60857844e+00,
   2.76894212e+00,-1.03391826e+00, 2.65390921e+00,-1.78613156e-01,
  -1.69705570e+00,-1.85906398e+00,-1.33625488e+01, 5.03927529e-01,
   4.46525067e-01,-1.65660775e+00, 1.66891694e-01,-8.47256839e-01,
   1.34922683e+00,-1.49410907e-02, 2.93446732e+00, 4.10411417e-01,
  -3.88525748e+00,-4.57462847e-01,-6.95943892e-01,-3.03168368e+00,
   3.58359790e+00, 2.32418224e-01, 1.79550982e+00, 1.93250322e+00,
   3.79435229e+00, 1.74576831e+00, 1.57996142e+00,-8.19032764e+00,
   2.65401077e+00,-1.68580377e+00,-9.27832365e-01,-1.89442068e-01,
  -3.86044645e+00, 3.44129235e-01,-1.86967707e+00, 4.45949525e-01,
  -1.90281057e+00, 3.12724853e+00, 6.52258575e-01, 8.78685534e-01,
   3.08143556e-01,-4.35605288e+00,-2.20489636e-01,-1.86583924e+00,
   2.58425617e+00, 3.29581648e-01,-3.56781077e+00,-3.76610160e+00,
  -3.25612426e-02, 6.15481257e-01,-4.16540861e+00, 7.03472868e-02,
  -3.92085090e-02,-4.40053731e-01,-4.62167072e+00,-9.51897621e+00,
   2.20815492e+00, 4.87449646e+00,-2.86688876e+00, 2.64031720e+00,
   2.33938599e+00, 1.49557757e+00,-2.88441777e+00,-3.24566317e+00,
  -1.79498255e+00,-3.07668948e+00, 9.99750257e-01, 2.59963608e+00,
  -5.08562469e+00, 1.29120302e+00, 6.26697540e+00, 1.79822996e-01,
  -5.31887114e-01,-8.24630928e+00, 1.54779756e+00,-2.17963934e+00,
  -5.52902877e-01,-1.60537422e+00,-8.63910280e-03,-1.66399348e+00,
  -2.29152250e+00,-1.21091242e+01,-2.82820725e+00, 1.97283900e+00,
   3.19537610e-01,-1.76971292e+00,-6.23333502e+00,-2.88455278e-01,
  -1.49500883e+00, 3.52150530e-01,-8.95383000e-01,-1.57498646e+00,
  -2.79346555e-01,-1.17256546e+00,-1.47601080e+00,-2.58169937e+00,
  -1.33237827e+00,-1.20674336e+00,-7.62788475e-01,-3.77745342e+00},
 {-1.53112686e+00, 2.27673411e+00, 3.49439883e+00,-3.92119002e+00,
  -1.87106991e+00, 2.49204206e+00, 1.73204660e+00,-1.01973152e+00,
  -9.69905913e-01, 5.93759045e-02,-4.09923762e-01,-2.28172749e-01,
  -1.27789044e+00,-3.14766979e+00,-4.24840227e-02,-9.88238275e-01,
   7.03376412e-01,-4.83839226e+00,-2.51631081e-01, 5.31454325e-01,
   2.39415169e+00, 7.78817368e+00, 1.45915782e+00, 4.81858760e-01,
  -3.42669511e+00, 5.86081803e-01, 7.85362184e-01,-5.47988605e+00,
  -2.65793180e+00,-8.09890330e-01,-8.69590938e-01,-1.73269069e+00,
  -7.87185848e-01,-6.46464288e-01,-6.16797209e+00, 1.00597608e+00,
   1.69209373e+00, 1.67788491e-01, 6.12978220e-01,-1.39772737e+00,
  -1.14045596e+00, 8.71536911e-01, 2.03158522e+00, 1.13820326e+00,
   3.32431102e+00, 2.00690746e+00, 1.86401069e+00, 2.73499221e-01,
   3.94621283e-01, 3.64190507e+00,-2.04297972e+00, 1.53908029e-01,
  -6.63656378e+00,-4.26853800e+00,-2.76588058e+00,-2.07925105e+00,
   1.63704824e+00,-1.85465562e+00,-8.31064987e+00, 1.44288659e-01,
   4.47288156e-01, 4.89701092e-01,-6.61348581e-01,-3.95753950e-01,
  -2.88870573e+00,-6.94169521e+00,-5.42146206e-01, 1.72822320e+00,
   7.01134503e-01,-1.32395935e+00, 1.47954857e+00, 4.29303527e-01,
   3.49478185e-01,-3.78950667e+00,-1.05812609e+00, 4.80974227e-01,
   1.67809522e+00, 8.49982500e-01, 1.04678524e+00,-9.52404022e-01,
  -2.44444251e+00, 3.20518088e+00, 7.03316355e+00,-5.95818424e+00,
   8.97855341e-01, 4.79889303e-01, 5.08193779e+00,-9.40943956e-01,
  -1.94027102e+00, 4.90814030e-01, 9.02137816e-01, 1.28284121e+00,
  -6.09894097e-02, 3.06245828e+00, 1.61929953e+00,-1.87124342e-01,
   1.06499873e-01,-1.16903949e+00, 8.25406253e-01, 2.55046427e-01,
   2.85442144e-01,-6.40773833e-01, 7.52395511e-01,-9.63151395e-01,
   2.19718051e+00,-5.38290024e+00, 1.67881405e+00,-4.87054676e-01,
   5.87088013e+00,-4.58681870e+00, 1.39414907e+00,-1.71502042e+00,
  -3.52874613e+00, 5.55738211e-01,-1.12407160e+00,-2.13869834e+00,
  -3.18731546e+00,-7.32101011e+00, 1.13027543e-01, 7.38019466e-01,
   2.43301845e+00, 1.81046021e+00, 1.48794627e+00,-2.36809802e+00,
  -2.81701207e+00, 2.34381151e+00,-2.02708697e+00,-3.68056703e+00},
 {-5.55403084e-02,-5.24027109e+00, 3.13018650e-01,-1.57857788e+00,
   1.34665057e-01,-4.91342574e-01,-1.69235125e-01,-1.93648368e-01,
   1.50043875e-01,-1.16009593e-01,-3.32747623e-02,-1.00701809e-01,
  -2.70397711e+00,-5.86914110e+00, 1.95652649e-01,-4.94699717e-01,
   2.75308132e-01,-4.56439346e-01, 5.88477015e-01, 1.60730839e+00,
   3.30981761e-01,-1.33151487e-01,-1.05188627e+01,-1.60666394e+00,
   1.05606198e+00,-5.25746215e-03, 8.24729428e-02,-1.28055155e-01,
  -7.66244158e-02, 8.85613620e-01, 5.81088290e-02, 3.47831869e+00,
  -1.72935128e+00,-4.18196011e+00,-3.12575173e+00,-3.08401048e-01,
  -1.58847380e+00, 7.13167638e-02,-4.12392095e-02,-2.33051991e+00,
   3.54718752e-02, 1.83565244e-01,-2.18348697e-01, 1.24571621e-01,
  -3.09277272e+00, 5.43122709e-01,-8.93493891e-01,-2.31768005e-02,
  -1.66482367e-02,-1.08459032e+00, 3.49682033e-01,-1.94229782e+00,
   1.25351524e+00, 3.07375848e-01,-1.04227567e+00,-6.94270849e-01,
  -1.27520442e+00, 1.05879271e+00,-2.44831729e+00, 1.15354218e-01,
   1.78733468e-01, 8.73346850e-02,-3.47004986e+00,-1.24807096e+00,
  -7.41093874e-01,-6.78100109e-01, 1.05206259e-01, 5.33095598e-01,
  -1.32256424e+00,-1.61990061e-01,-6.07655048e-01,-3.60933512e-01,
   4.63876314e-02, 1.12433422e+00, 2.50144452e-01, 1.91514349e+00,
  -1.25158014e+01,-2.71864504e-01, 8.14283967e-01,-2.17346922e-01,
  -3.57055306e-01, 3.55905086e-01, 9.27150440e+00,-2.30436876e-01,
  -9.82477903e-01, 9.39955950e-01, 2.92393178e-01,-3.04244816e-01,
   6.08635485e-01,-6.85382223e+00, 2.48405561e-02, 4.72484648e-01,
  -1.05362870e-02, 7.77610826e+00,-3.64075303e+00,-3.37887794e-01,
   6.25768304e-01, 1.50904262e+00, 2.45535716e-01, 3.75905335e-02,
   1.71295866e-01, 8.98175687e-03,-2.67749690e-02, 6.89893901e-01,
   1.69902936e-01, 1.81079340e+00,-4.11591578e+00, 8.23575675e-01,
  -1.24610300e+01,-3.13899875e+00, 6.29619265e+00, 1.07003778e-01,
  -7.26640299e-02, 7.72682801e-02,-3.85725558e-01,-1.55102983e-01,
  -5.30824995e+00,-2.57025123e+00,-1.94536185e+00, 3.36870742e+00,
   3.48250842e+00,-2.12842524e-01, 5.43185294e-01, 9.61193681e-01,
  -6.56533539e-02,-7.60777965e-02,-2.14495182e-01,-5.36308348e-01}};

const float b2[sz_hid_2] = {-3.1091404 ,-0.29784507,-0.10481767,-4.8009615 ,-0.11410966,-2.711091  ,
 -0.6718034 ,-1.0870237 , 2.0935638 ,-4.77406   , 2.8072433 ,-1.7016104 ,
 -6.1347766 , 2.7487376 ,-0.12534973,-3.0055945 ,-0.7732437 , 5.12634   ,
 -1.377513  , 4.603191  ,-3.0996654 ,-4.866477  ,-3.13711   ,-1.1796681 ,
  5.1592603 ,-4.3052626 ,-3.374733  ,-2.706828  ,-0.36713308,-1.8881364 ,
 -1.9615521 , 0.73915976};

const float w3[sz_act][sz_hid_2] = {{-1.3630152e-02, 1.2761800e-01, 9.2304833e-03,-9.8439213e-04,
   1.2456670e-01,-3.2650861e-03,-7.9382807e-03, 9.7330071e-02,
  -2.7473113e-01,-2.5907108e-01,-1.0315550e-01, 2.5241083e-02,
   1.0656007e-02,-3.3924425e-01,-8.8001229e-04, 3.0959192e-01,
  -9.4740249e-02,-3.3937376e-03,-9.8981569e-03,-3.8785015e-03,
   1.2315460e-02, 9.7667456e-01, 3.7226754e-01,-1.5700155e-01,
  -9.7403061e-03,-2.9925826e-01, 2.6397678e-01, 7.4706715e-01,
  -9.5368862e-02,-6.1396945e-01,-1.2053133e-02, 1.0077738e-03},
 {-3.8422278e-01,-5.9299371e-03, 8.1736214e-02,-1.6516326e-01,
   2.1362800e-02,-1.4264920e-01, 9.2424080e-02, 2.0249570e-03,
   7.2012857e-02, 1.5813539e-02,-4.1340832e-03,-5.6661409e-01,
  -9.3641274e-02,-8.6764470e-02, 1.4703687e-01,-1.9612741e-03,
   1.2003157e-03,-1.5042619e-01,-1.4948897e-01, 1.8985426e-01,
   2.2738238e-01, 8.8984007e-03,-3.5126247e-03,-3.6244814e-03,
   1.8144615e-01,-1.0310981e-02, 1.2767850e-02,-7.3728984e-04,
   4.4083362e-04, 4.4181399e-02, 3.3780739e-01, 1.6910915e-01}};

const float b3[sz_act] = {0.04073042,0.24844693};

