const float w1[sz_hid_1][sz_obs] = {{ 7.40153715e-02,-3.04935258e-02,-4.57294130e+00,-3.83908248e+00,
  -7.07596779e-01, 1.09921026e+00,-6.59993431e-03,-1.68229926e+00,
   3.93484521e+00},
 {-6.00014143e-02,-1.40864417e-01,-4.52873200e-01, 2.01435566e+00,
   4.93880987e+00,-3.04032445e+00, 8.55042040e-02,-1.65067351e+00,
  -1.06430866e-01},
 { 6.66171685e-03, 5.21335043e-02,-1.64346182e+00,-4.12797737e+00,
  -2.78273225e+00, 2.41361046e+00, 1.26817496e-02,-1.89132720e-01,
   1.64741349e+00},
 { 5.95202576e-03,-2.78589525e-03, 2.12320590e+00,-1.53781617e+00,
   6.75772190e-01, 7.03736544e-02,-9.60118952e-04,-2.30521393e+00,
   1.31880558e+00},
 { 1.07350806e-03,-4.07085121e-02, 6.79130507e+00, 2.72261858e+00,
   7.86634147e-01,-2.04344535e+00, 1.25346437e-01,-1.50572515e+00,
   9.85899687e-01},
 {-2.41970401e-02,-6.93944842e-02, 4.05693918e-01, 1.35151815e+00,
   5.62110186e-01,-9.94558215e-01, 2.54548732e-02,-2.99217963e+00,
   5.35019302e+00},
 { 2.96086892e-02, 4.27160524e-02, 3.36847752e-01, 1.91848063e+00,
  -2.05315375e+00, 6.19186044e-01, 6.22047186e-02, 1.94981956e+00,
  -2.60475826e+00},
 { 1.21942031e+00,-3.45163274e+00,-1.35353422e+00,-4.08287942e-02,
  -3.67247798e-02, 8.62017926e-03, 7.26583099e+00, 6.19969666e-02,
   1.14841023e-02},
 {-4.84277541e-03, 1.37310289e-02, 5.51954865e-01, 4.53364372e+00,
   1.74720001e+00, 6.63904071e-01,-4.29431675e-03,-1.14454317e+01,
   8.38957354e-02},
 { 5.18651068e-01, 2.17785144e+00,-3.34381175e+00, 6.74033388e-02,
   2.54546218e-02, 1.14313073e-01, 4.62736130e+00,-1.12582818e-02,
  -3.39992307e-02},
 { 2.75667500e+00,-2.83360624e+00, 3.03090167e+00,-8.30473155e-02,
   1.86456963e-02, 3.35549936e-02,-1.03110466e+01, 6.61353096e-02,
  -1.59569550e-02},
 { 1.13860168e-01, 3.14980224e-02, 7.84915030e-01,-2.35341144e+00,
  -1.36834323e+00,-2.93315268e+00, 1.08263053e-01, 2.89262700e+00,
  -4.06242943e+00},
 { 4.67582606e-04,-4.49597428e-04,-9.08610642e-01,-6.87106177e-02,
   4.30726171e-01, 1.12973289e+01, 1.83279514e-02,-3.47974718e-01,
  -4.40414324e-02},
 { 1.58630237e-02, 4.96522663e-03,-9.99781564e-02, 1.50601673e+00,
  -2.02972603e+00, 1.38535333e+00,-3.73199582e-02,-8.86702824e+00,
   3.45486812e-02},
 {-2.57004052e-02, 5.15353447e-03,-3.40936214e-01,-2.55848002e+00,
  -1.59423947e-01, 4.28497791e-01,-2.23840941e-02,-1.72592366e+00,
   5.10814600e-02},
 { 2.33939718e-02, 9.19883326e-02,-2.90359116e+00, 2.00925335e-01,
  -1.44067168e-01,-3.06754804e+00,-6.07235543e-03, 5.63466597e+00,
   1.11560225e+00},
 {-4.13828325e+00, 2.67143798e+00, 4.41823006e+00, 1.77381441e-01,
   1.28078654e-01,-1.15684137e-01, 2.33432382e-01,-3.90723407e-01,
  -2.20667367e-04},
 { 3.00016738e-02,-5.44217750e-02, 4.22447920e-01, 2.60013890e+00,
   4.42821741e+00, 7.16762384e-03, 1.63363755e-01,-4.45524931e+00,
   2.54117012e+00},
 {-1.17977068e-01,-3.22886780e-02,-3.19326758e+00,-3.98958102e-02,
  -3.60506010e+00, 1.31687164e-01, 4.34082560e-02,-8.65645230e-01,
   2.36338329e+00},
 {-1.09196277e-02, 1.44284926e-02, 1.61300123e+00,-2.89835066e-01,
  -9.39564645e-01,-1.03983901e-01, 7.43098781e-02,-6.72746897e+00,
  -1.62952876e+00},
 {-1.35696006e+00, 2.04610658e+00, 3.84418702e+00, 7.47220367e-02,
   2.66558323e-02,-4.11858074e-02,-6.55612469e+00, 3.65602188e-02,
   6.01659119e-02},
 { 3.90963459e+00, 4.85753202e+00, 4.17922258e+00,-2.64471713e-02,
   1.60003863e-02,-1.66776627e-01,-6.60184431e+00,-5.43326586e-02,
  -2.76135579e-02},
 {-4.80173901e-03, 1.08724246e-02,-6.38164163e-01, 8.16399515e-01,
   1.22345769e+00,-5.90258777e-01,-6.67341636e-04, 7.55871725e+00,
  -1.26328051e+00},
 { 1.97297394e+00, 2.52912068e+00, 2.62744689e+00,-1.17481895e-01,
   1.45315260e-01,-1.69439360e-01,-5.47922707e+00,-1.10022284e-01,
   1.83477759e-01},
 { 8.04100990e-01,-2.58031869e+00, 1.06098680e+01, 1.72504768e-01,
  -3.63364741e-02, 6.93194866e-02,-5.93409586e+00, 1.25099838e-01,
   1.02571078e-01},
 { 1.80778146e-01, 4.92173806e-02, 7.38103580e+00,-1.81734765e+00,
   1.02738822e+00, 1.59676290e+00,-1.57402754e-01, 4.60622501e+00,
   2.46099997e+00},
 { 5.93994260e-02,-1.92230567e-02, 2.24059153e+00,-4.00972366e-01,
   2.80758619e+00, 2.00658560e-01,-2.31831782e-02, 9.33094621e-01,
   3.98528123e+00},
 {-2.83211078e-02, 1.13426326e-02,-1.10766031e-01,-1.37924373e+00,
   7.33395278e-01, 2.35217881e+00,-4.44344915e-02,-4.51683378e+00,
  -6.86056465e-02},
 { 1.18124001e-01,-8.07895977e-03,-1.45505595e+00,-1.33285582e+00,
  -5.08344769e-01,-5.08839846e-01, 3.93157918e-03,-3.87982631e+00,
   2.95326471e+00},
 { 2.92430948e-02,-2.00998150e-02,-1.69562531e+00, 3.13247085e+00,
  -1.40403569e+00, 4.41434719e-02, 5.17193452e-02, 5.49617434e+00,
  -2.77930593e+00},
 { 1.66395187e+00,-3.51358199e+00,-8.71585655e+00, 3.03863939e-02,
  -9.11476389e-02, 9.18306876e-03, 3.26615348e-02, 8.21873471e-02,
   2.07742434e-02},
 { 3.69356775e+00,-2.64591396e-01,-5.67733288e+00, 8.94557126e-03,
  -5.30422449e-01, 3.57381366e-02, 5.77484655e+00, 3.25865805e-01,
   3.78545374e-01},
 {-1.02113187e+00,-2.90987945e+00,-8.36316299e+00,-4.25101131e-01,
   1.72891006e-01, 4.17143553e-01, 6.34522200e+00, 5.07638836e-03,
  -1.18004277e-01},
 { 4.62334640e-02, 1.25322163e-01,-3.59037423e+00,-1.98049724e+00,
   1.62834501e+00, 1.31006515e+00,-5.52898832e-02, 3.42417789e+00,
  -2.85012436e+00},
 { 1.05636176e-02, 3.52334604e-02, 5.63129127e-01, 5.43647110e-01,
   1.34655571e+00,-3.78736645e-01,-2.03287434e-02, 7.99468279e+00,
   1.71228349e+00},
 {-5.18185878e-03,-2.61528175e-02, 6.12885118e-01, 2.62639308e+00,
   4.15141487e+00,-2.50691231e-02, 2.12803334e-02,-6.79194069e+00,
  -1.53077273e-02},
 { 2.26920508e-02,-9.76550356e-02,-8.29355180e-01, 5.13243675e-01,
  -4.93379402e+00, 1.51762925e-02, 1.73242047e-01, 6.04519796e+00,
   4.24884617e-01},
 { 8.84121656e-03,-3.15372758e-02, 9.38626170e-01,-1.73724473e-01,
  -2.81042695e+00,-2.12431233e-02, 9.53431893e-03, 5.18741798e+00,
   2.90490836e-02},
 { 6.39834628e-02, 1.37761116e-01, 5.40302849e+00,-9.14027035e-01,
  -2.40225101e+00,-7.67774701e-01,-9.81728435e-02,-4.36320448e+00,
  -1.62610745e+00},
 { 2.07715705e-02,-2.08445210e-02, 5.56019187e-01, 6.24298859e+00,
  -2.16730213e+00, 2.45149374e+00, 6.07534684e-03,-7.03988934e+00,
   1.81184616e-02},
 { 2.34369588e+00,-1.70273495e+00,-6.58236408e+00,-5.55030644e-01,
  -6.68450952e-01, 1.25141712e-02, 4.04760313e+00, 1.53944185e-02,
  -3.86973166e+00},
 {-2.34528189e-03,-4.87603759e-03,-2.66339183e-01, 4.09104538e+00,
  -3.20260435e-01,-1.81538188e+00,-5.55491960e-03, 1.09611616e+01,
   1.35420524e-02},
 { 1.05244666e-01, 3.05894911e-02,-2.89462590e+00,-2.60903645e+00,
   3.83237936e-02,-5.42210579e-01, 5.12245297e-02,-1.05341703e-01,
  -2.91234708e+00},
 { 6.39917795e-03,-1.79814175e-02, 2.63262302e-01, 8.61288607e-01,
  -1.42789614e+00, 1.65166751e-01,-6.89346110e-04,-7.82733059e+00,
   1.46027505e+00},
 { 3.29427695e+00, 1.74070179e+00, 2.28079963e+00, 2.30480582e-02,
  -8.66320916e-03, 2.49911938e-02,-9.01060295e+00, 5.65243401e-02,
   1.77085176e-02},
 { 4.42935042e-02, 4.55936790e-03, 3.93759155e+00, 7.01532125e-01,
  -6.05487168e-01,-7.79026389e-01, 1.71212986e-01, 4.15144777e+00,
  -4.44791746e+00},
 { 1.36720037e+00,-3.55533981e+00,-5.31850481e+00,-9.20666233e-02,
   9.03959200e-02, 1.60925418e-01, 7.02203321e+00, 1.43905461e-01,
   6.33828416e-02},
 { 7.05115795e-02,-1.40183978e-02,-1.09732990e+01,-1.04689956e-01,
  -2.74362534e-01,-1.64950266e-01, 1.68006971e-01, 1.38554350e-01,
  -3.78381431e-01},
 { 4.45051098e+00,-2.37515259e+00,-4.21762133e+00, 4.34973426e-02,
   4.39186580e-02, 1.51565671e-01, 8.09381676e+00,-2.87114866e-02,
  -4.68622185e-02},
 {-1.72773170e+00,-4.27568913e+00,-2.88150859e+00,-7.23136738e-02,
  -1.19765836e-03, 3.71962897e-02, 4.73116547e-01,-6.77857324e-02,
   2.95189098e-02},
 { 7.81980976e-02,-6.21561781e-02, 4.77052271e-01,-2.79431558e+00,
   7.00865269e-01, 3.01332283e+00, 1.47206606e-02,-9.61163640e-01,
   4.20503855e+00},
 { 4.03167121e-02, 4.79912721e-02,-5.97364187e-01,-5.90165496e-01,
  -8.38721454e-01, 6.95893168e-01,-5.98489381e-02,-7.46489668e+00,
  -3.43080193e-01},
 { 5.30458391e-02, 1.90366194e-01, 1.24691868e+00, 2.57751894e+00,
  -2.90782285e+00, 3.97540998e+00,-1.56559467e-01, 1.89732909e+00,
  -3.55625629e+00},
 { 4.12623435e-02, 2.76330978e-01,-4.43677759e+00,-3.73891592e-01,
  -4.02967483e-01, 1.35643825e-01,-3.57852191e-01,-5.88301325e+00,
   2.19849014e+00},
 {-1.29288340e+00,-2.21364760e+00,-4.27916956e+00, 7.42735923e-04,
  -3.14006209e-02,-8.22362751e-02, 4.82040358e+00, 1.96435358e-02,
   6.32795393e-02},
 {-3.69676471e+00, 1.02988228e-01,-5.09084523e-01, 1.61904804e-02,
  -6.40461221e-02,-1.32448927e-01,-1.53276241e+00,-4.93321083e-02,
  -1.79277025e-02},
 { 4.32381481e-01,-1.57177985e+00, 2.84365678e+00,-3.38311307e-02,
  -6.72339052e-02,-7.94668496e-02,-5.80610752e+00,-2.22881138e-02,
  -4.86497506e-02},
 { 1.65583263e-03,-8.69694850e-05,-3.47113353e-03, 1.22877896e+00,
  -2.31881809e+00, 1.19039345e+00, 5.56732994e-03,-7.95258379e+00,
  -1.14419712e-02},
 { 1.96873975e+00,-2.14907691e-01, 4.59356356e+00, 5.50452583e-02,
   3.55881900e-02, 1.64806455e-01, 5.48076248e+00,-1.17076501e-01,
  -1.62382066e-01},
 {-2.62625534e-02, 7.51647279e-02,-3.44660401e+00, 2.37733698e+00,
   6.87056184e-01, 2.76751995e-01,-6.37638494e-02,-9.35049057e-01,
  -2.52128959e+00},
 { 1.34930301e+00, 3.04032660e+00, 4.21081638e+00, 3.96807445e-04,
  -3.54809291e-03,-6.19110279e-02,-3.92608690e+00,-7.00161755e-02,
  -1.47682577e-01},
 {-8.92905891e-03,-8.29641212e-05, 2.17536911e-02, 3.33189297e+00,
  -4.80356336e-01, 2.69501597e-01, 7.85236340e-03,-8.75677395e+00,
   1.65700726e-02},
 {-3.87865573e-01, 6.64492771e-02,-5.49675131e+00, 6.58843100e-01,
   1.77502525e+00, 7.41434574e-01, 6.92124367e-02,-1.36681736e+00,
  -5.02670717e+00},
 { 2.34612450e-01, 8.63690898e-02, 1.68304367e+01, 1.08864894e-02,
   7.02087134e-02, 1.65373161e-02,-9.71187130e-02,-1.34397581e-01,
  -1.39538854e-01},
 {-2.15899739e-02,-3.09717022e-02,-2.70176589e-01, 4.10754412e-01,
  -1.08351576e+00, 1.60885677e-01, 5.24314772e-03, 3.57400131e+00,
   2.73116374e+00},
 { 1.93828326e-02, 4.28707451e-02, 1.09065816e-01,-2.78749323e+00,
   2.18331575e+00,-1.58080027e-01,-6.27997816e-02,-1.01038027e+00,
   5.77722937e-02},
 { 1.85810864e+00, 5.73997438e-01,-7.10828257e+00, 4.64296974e-02,
  -5.48688285e-02, 3.41984570e-01,-4.97462988e+00, 1.41121998e-01,
   8.29688832e-03},
 {-1.99203885e+00,-5.56768703e+00, 6.64092064e+00, 7.17323199e-02,
   5.40498234e-02, 1.93381220e-01, 1.42455304e+00,-4.66032587e-02,
   2.35876236e-02},
 { 3.48745346e+00, 4.46634978e-01, 5.12336671e-01, 3.86273749e-02,
   2.64936611e-02,-9.90407169e-02, 8.71361351e+00,-3.67278088e-04,
  -1.96345206e-02},
 {-3.76014076e-02,-1.01473369e-02, 3.78963470e-01,-1.20004463e+00,
   1.24686854e-02, 1.70768008e-01,-3.24658444e-03,-8.52378654e+00,
   6.74401550e-03},
 {-1.48997866e-02,-1.92354564e-02,-3.59697127e+00,-8.44505966e-01,
   1.87257802e+00,-1.27653468e+00, 9.30269882e-02, 2.49254656e+00,
  -3.56911612e+00},
 { 3.18631716e-02, 9.57370328e-04, 1.28896274e-02, 3.42991924e+00,
   1.36181235e+00, 1.59395307e-01, 1.89221576e-02,-8.31553841e+00,
  -7.05859950e-03},
 { 3.22573614e+00,-1.02045131e+00, 4.76374865e+00, 2.54461288e-01,
  -1.18172668e-01, 1.03928652e-02,-6.12963676e+00,-2.99003273e-01,
  -2.07956716e-01},
 { 8.99712443e-01,-2.09112239e+00, 3.23481989e+00, 3.53962556e-02,
   4.36401702e-02,-2.08595872e-01,-4.96192932e+00,-3.03063598e-02,
  -4.37857583e-02},
 { 8.26272815e-02,-2.10354235e-02,-2.88294256e-01, 4.90243405e-01,
  -5.25664854e+00,-1.13918316e+00, 6.97973296e-02, 6.37373400e+00,
   1.35431722e-01},
 {-3.72458726e-01,-4.56560045e-01, 3.95911932e+00,-6.72229975e-02,
   5.49495555e-02,-3.37139577e-01, 1.48968208e+00,-1.21512651e-01,
   1.29590482e-02},
 { 5.02932024e+00, 8.43253374e-01,-5.69369650e+00, 4.43970822e-02,
   9.18581244e-03, 1.93260307e-03, 1.14821043e+01, 1.10892830e-02,
  -1.78865399e-02},
 { 3.70461392e+00,-5.07079124e+00,-2.34256625e+00, 1.20026516e-02,
  -1.92445591e-02, 3.82030122e-02, 1.26569033e+01, 6.97237486e-03,
   3.95007804e-02},
 { 1.00412290e-03, 4.08088267e-02,-2.17008281e+00, 3.70814967e+00,
  -1.17089219e-01, 2.61325169e+00, 1.65663157e-02,-3.05146515e-01,
   2.96519026e-02},
 {-5.69837429e-02, 1.61806960e-02, 2.41568732e+00,-8.27060733e-03,
   1.89706576e+00,-1.42607272e-01, 2.20775208e-03, 1.81367791e+00,
   1.82814276e+00},
 { 2.93351841e+00,-4.06396866e+00,-3.14378321e-01, 8.26331973e-03,
  -3.86213548e-02, 8.31156969e-02,-1.35208212e-03,-6.35952502e-02,
   1.87712125e-02},
 {-4.89515439e-03,-1.49091240e-02, 2.24762470e-01, 2.06753612e+00,
   4.05468130e+00,-6.26676261e-01,-1.56143506e-03,-3.61976671e+00,
  -3.40643041e-02},
 { 4.40234900e+00,-6.69860363e-01,-4.45764303e+00,-1.69562399e-02,
  -5.26660681e-02,-1.65325385e-02, 8.93790150e+00,-1.05651587e-01,
   2.62959674e-02},
 { 8.53648782e-01, 2.24502134e+00, 1.65345085e+00, 1.30716264e-02,
   1.38564045e-02, 1.40051218e-02, 6.81576157e+00,-2.61585154e-02,
   4.51018699e-02},
 { 2.26762798e-02, 2.72494927e-02, 5.84660649e-01, 2.65342325e-01,
   9.74373817e-01, 4.37454581e-01,-1.88411567e-02, 7.48321962e+00,
   9.97329503e-02},
 {-2.77261343e-02,-2.43846774e-02, 1.16202667e-01,-3.01271176e+00,
  -3.84333491e+00,-3.77848935e+00,-1.15142297e-02,-2.45375365e-01,
   4.13634396e+00},
 { 2.18099475e+00,-2.81290913e+00, 2.81996703e+00,-1.46987112e-02,
   7.64254387e-03,-2.16200948e-02,-9.75120163e+00, 1.70172844e-03,
  -9.17468127e-03},
 {-3.03750467e-02, 3.19722854e-02, 8.01805735e-01,-2.15161371e+00,
  -5.56161225e-01,-2.38061333e+00,-4.01894338e-02, 2.12348580e+00,
   3.71813869e+00},
 {-5.19567877e-02, 7.79271945e-02, 2.84233761e+00, 2.82638788e+00,
   5.15984476e-01,-2.63721418e+00,-7.52070025e-02,-3.74904692e-01,
  -3.15624475e+00},
 { 5.82531234e-03, 5.54720573e-02, 3.06444931e+00,-3.47674465e+00,
   8.72703016e-01, 3.39778376e+00, 5.50210364e-02,-4.65113521e-01,
  -3.22312856e+00},
 { 1.81445498e-02,-7.37024820e-04,-1.18980169e+00,-5.67266345e-01,
  -5.77655062e-03,-5.61656535e-01, 1.13979941e-02, 1.84710419e+00,
  -3.76022786e-01},
 {-2.17065564e-03,-1.65676530e-02,-8.56416881e-01, 3.01211548e+00,
   9.08644199e-02,-5.91670752e-01, 4.25355621e-02,-3.59160542e+00,
   2.35539079e+00},
 {-5.52308396e-04, 5.52191446e-03, 1.20546140e-01, 1.49735105e+00,
   2.99572921e+00,-8.96024346e-01,-1.44638997e-02, 8.88854980e+00,
   9.38665681e-03},
 { 2.15320867e-02, 9.48053598e-03, 5.68308830e-01,-9.71136630e-01,
   2.08708644e+00,-2.92774630e+00,-7.33124316e-02, 5.06124258e+00,
   3.39566767e-01},
 {-1.19048469e-02, 1.84310675e-02,-9.26728666e-01, 1.94412088e+00,
   2.83145261e+00,-1.19410492e-01, 4.54540774e-02,-5.86150837e+00,
  -3.57216787e+00},
 {-5.16655575e-03,-8.53974894e-02,-8.18851185e+00, 6.26682118e-02,
  -6.85488403e-01, 9.84237492e-02, 1.90872371e-01,-2.19011927e+00,
  -3.36547041e+00},
 { 9.51156765e-02, 5.27493767e-02, 3.39105390e-02,-6.09114915e-02,
   8.99028659e-01, 4.11640584e-01,-1.79261863e-02,-3.27689195e+00,
  -2.65327930e+00},
 {-1.93607807e-03,-3.97045203e-02, 1.67640895e-01, 8.36394906e-01,
  -5.10038280e+00,-1.10219204e+00, 2.11293120e-02, 1.07532854e+01,
  -2.54881643e-02},
 {-1.64529998e-02, 2.50469632e-02, 1.13894418e-02,-1.21330414e-02,
  -6.64789304e-02,-8.18629551e+00,-2.16881484e-02, 1.47899026e-02,
   3.41485292e-02},
 {-2.93908156e-02,-2.74753664e-03, 2.13736668e+01, 8.10913683e-04,
   1.81660298e-02,-1.84001550e-01, 3.37473340e-02, 9.90923215e-03,
  -1.35445679e-02},
 { 5.33139610e+00, 3.86971861e-01, 5.13947105e+00,-3.70229334e-02,
  -5.51067013e-03, 1.07920170e-02,-1.27463932e+01,-2.30311584e-02,
   1.51969865e-02},
 {-9.52278823e-03, 7.06591085e-02, 1.36380792e+00, 4.15192699e+00,
   1.20299494e+00, 1.84849632e+00,-4.82795574e-02, 2.79690361e+00,
  -2.19777822e+00},
 { 2.72230562e-02,-3.84759940e-02, 1.16236079e+00, 2.74863982e+00,
  -2.25813007e+00, 1.81618440e+00, 5.38354367e-03, 3.35064650e+00,
   4.43194342e+00},
 { 6.96660392e-03, 1.83436227e+00,-7.84084606e+00,-6.15984648e-02,
  -3.80010195e-02, 7.27395192e-02, 6.64020920e+00, 1.14661857e-01,
   9.61944759e-02},
 {-2.39521241e+00, 1.48825312e+00, 9.20524120e+00, 3.86650264e-02,
  -2.69263051e-02, 3.94189775e-01,-2.37635708e+00, 1.27413303e-01,
   3.38972777e-01},
 {-9.52878535e-01, 4.19225216e+00,-1.98214996e+00,-2.19856706e-02,
  -2.81851608e-02, 1.09093405e-01,-5.00809431e+00,-4.42042537e-02,
   1.93687913e-03},
 {-3.14848195e-03, 2.26590373e-02, 2.16058254e-01,-2.03834105e+00,
  -1.39522791e-01,-2.02167201e+00,-1.37949839e-01, 3.66501141e+00,
  -1.00820370e-01},
 { 7.23216012e-02, 7.16147572e-02, 1.77926731e+00, 2.95468122e-01,
  -1.37961948e+00, 4.17331666e-01, 1.02251418e-01,-1.16716707e+00,
  -4.94431353e+00},
 { 3.32456279e+00, 2.33388424e+00, 3.81431055e+00, 9.70472116e-04,
  -1.90310627e-02, 3.53218876e-02,-1.99850512e+00,-2.42769476e-02,
  -9.51516535e-03},
 { 2.36705020e-02, 2.60257274e-02,-2.93329639e+01,-1.34179927e-02,
  -2.74648238e-02, 1.97066367e-01,-6.73624501e-02, 5.10829547e-03,
   2.95877643e-02},
 { 3.64772752e-02, 1.76298041e-02, 3.51906466e+00, 1.27280700e+00,
   1.12794745e+00, 5.57921410e-01, 8.75914283e-03,-3.68750882e+00,
   2.33403897e+00},
 { 1.66211283e+00, 1.36678636e+00,-3.06588101e+00, 7.15687945e-02,
   5.81672415e-02, 4.28567342e-02, 5.35981560e+00,-5.28166965e-02,
   6.48754323e-03},
 { 1.42712817e-02, 8.75345431e-03,-4.27234602e+00, 1.12978649e+00,
  -1.68380690e+00,-1.20660424e+00,-4.48757522e-02, 3.82580900e+00,
   3.00091529e+00},
 {-3.66533212e-02,-4.69555072e-02,-1.04967451e+00, 2.82741427e+00,
   2.65545058e+00,-2.04998684e+00, 1.31031638e-03, 2.59961218e-01,
   2.46469021e+00},
 {-2.60546637e+00, 6.17147446e+00, 9.02997196e-01,-4.79238182e-02,
   6.54598698e-02, 6.87479600e-02,-5.55849016e-01, 3.32158990e-02,
   3.30401324e-02},
 { 1.77529049e+00, 9.33599830e-01,-4.28849077e+00, 3.98381241e-02,
   3.76569107e-02, 1.77867919e-01, 4.46777105e+00,-4.58263569e-02,
  -2.95475386e-02},
 { 3.30766737e-02, 2.46961527e-02,-2.46820763e-01,-2.09755588e+00,
  -3.97026968e+00, 3.34619236e+00,-3.39373536e-02,-1.97843170e+00,
  -1.82578026e-03},
 { 1.66165805e+00,-2.90895367e+00,-2.20599246e+00,-1.38471154e-02,
  -1.01529090e-02, 2.19617710e-01, 5.19058132e+00, 1.86922704e-03,
   2.56504975e-02},
 { 2.60980868e+00,-1.03006363e+00,-7.34045839e+00, 2.91626990e-01,
   1.84569919e+00, 1.78484693e-01, 3.14520192e+00,-6.57761395e-01,
   3.10289884e+00},
 { 3.95892859e-02, 7.54614035e-03,-1.17776580e-01,-2.05261397e+00,
  -2.86965513e+00,-8.00506949e-01,-1.99010856e-02, 1.89962065e+00,
  -8.01848322e-02},
 {-2.47246790e+00,-4.21930790e+00,-1.47128570e+00,-9.76889674e-03,
   4.11467813e-03, 1.07772872e-01, 3.24208856e+00, 4.66410182e-02,
   2.94943098e-02},
 { 1.14867949e+00, 4.68906760e-02, 8.48582935e+00, 1.23508930e-01,
  -3.49505186e-01,-1.74840540e-02,-1.71347225e+00, 3.36115956e-01,
  -2.02189490e-01},
 { 1.93573320e+00,-4.58818734e-01,-3.04170012e+00,-9.57205668e-02,
   3.03397393e+00, 3.51588070e-01, 3.58107328e+00,-5.47767319e-02,
  -1.24078524e+00},
 { 1.71849634e-02, 9.09543484e-02,-6.22178602e+00, 3.86213136e+00,
   2.23904207e-01,-1.17961478e+00, 1.69819556e-02,-1.16787350e+00,
  -2.84808683e+00},
 { 2.95435333e+00, 2.90466881e+00,-3.33737826e+00, 4.39058207e-02,
  -3.36484332e-03,-5.27115688e-02, 1.03111010e+01,-1.11988815e-03,
   2.91665234e-02},
 { 1.85450804e+00, 2.91142631e+00,-3.53105545e+00, 1.59544088e-02,
   4.48847131e-04, 3.97688150e-02, 9.37372494e+00, 2.88888924e-02,
  -1.38375182e-02},
 {-6.09694840e-03, 9.47101158e-04, 2.28843167e-02, 3.77841830e+00,
  -1.05812466e+00, 8.70402530e-02, 3.88097428e-02, 8.19034100e+00,
  -6.30829707e-02},
 { 8.81768912e-02, 9.46830511e-02,-1.13478422e+01,-2.23924313e-02,
   2.37163842e-01, 5.39535820e-01,-6.38788790e-02,-1.74612269e-01,
   1.90467209e-01}};

const float b1[sz_hid_1] = { -6.4627604 , -5.8175774 , -4.722709  , -2.2140753 , -3.7640042 ,
  -4.0523496 , -1.6718329 , -1.6867361 , -4.7133017 ,  1.4653018 ,
  -8.227133  , -4.781414  ,  1.302475  , -6.394285  , -0.99773484,
  -4.858104  , -5.3300505 , -5.607841  , -3.9728072 , -6.8659515 ,
  -5.6227803 , -3.0878274 , -6.475113  , -4.769746  , -6.7822337 ,
  -8.732553  , -5.754079  , -3.1292748 , -5.8470583 , -3.8912833 ,
  -2.501471  , -7.9041095 ,-10.526115  , -7.2561855 , -7.236714  ,
  -1.8444879 , -6.927418  ,  0.46619204, -6.76249   , -5.1676774 ,
  -8.918182  , -4.707693  , -3.004902  , -6.6610136 , -3.6001368 ,
  -2.5154674 , -6.843753  , -1.0375068 , -3.69621   , -2.6851685 ,
  -4.001371  , -5.5407414 , -5.765603  , -6.794943  , -3.6758194 ,
  -3.401191  , -3.6576812 , -6.751978  , -3.6925502 , -2.285428  ,
  -3.3582673 , -4.5239215 , -6.9873576 , -1.0765848 , -1.642167  ,
  -1.9342183 , -3.737326  , -4.269543  , -4.169344  , -4.9993253 ,
  -3.9074748 , -3.91209   , -5.611788  ,  0.8787877 , -3.0724645 ,
  -0.6495036 , -5.292955  , -1.1324065 , -3.048627  , -2.4734044 ,
  -2.1438031 , -1.8640509 , -5.4175463 , -5.7256684 , -3.30897   ,
  -6.091162  , -7.2914643 , -4.2138805 , -2.7909102 , -3.9306355 ,
  -0.19712892, -3.3990178 , -7.2116966 , -4.268288  , -3.0573275 ,
  -4.4921947 , -1.626494  ,  0.5067132 , -0.8088713 , -0.0217763 ,
  -5.130571  , -4.1815224 , -3.7142937 , -6.344883  , -4.755366  ,
  -4.3597317 , -1.5139416 , -4.1436253 ,  0.21913365,  0.0527373 ,
  -1.8352603 , -2.6855109 , -2.03825   , -3.698246  , -5.7804356 ,
  -0.24521793, -4.846895  , -3.1786268 , -9.328512  , -1.4886383 ,
  -3.8249788 , -2.9479494 , -6.7249103 , -5.1522264 , -8.346123  ,
  -7.208944  , -4.144916  , -0.8792975 };

const float w2[sz_hid_2][sz_hid_1] = {{ 1.38337109e-02,-2.23548484e+00, 9.35123414e-02,-4.89648059e-02,
  -3.50170553e-01,-1.39826592e-02,-7.56958686e-03,-4.09938172e-02,
  -4.92339402e-01,-7.03564361e-02, 2.15379089e-01, 2.04566669e+00,
   1.57443166e+00, 9.07410324e-01, 3.38620812e-01, 3.41654491e+00,
  -1.14731744e-01,-1.09321153e+00,-3.34127340e-03,-2.13735029e-01,
   2.60753580e-03,-2.39925198e-02,-5.29533243e+00,-7.57693499e-02,
   5.09401001e-02, 2.41465122e-01,-3.23009908e-01,-1.60750169e-02,
   1.91017776e-03,-2.10372768e-02, 1.35121448e-02, 4.63274330e-01,
  -5.31877339e-01,-8.58472943e-01,-3.00685167e+00,-4.31936756e-02,
  -1.27293825e+00, 2.08513319e-01,-2.15214398e-02,-2.61406994e+00,
  -3.06228250e-01,-5.58733273e+00,-3.68581377e-02,-2.51197442e-02,
   2.38721687e-02, 4.70213145e-01,-2.15501282e-02,-4.03615534e-01,
   3.46874036e-02, 3.74967121e-02, 8.57808590e-02, 1.26464255e-02,
  -7.89877236e-01,-6.45861626e-02,-5.68055548e-02, 3.38935219e-02,
  -4.58815019e-04, 1.15113087e+01,-1.36001304e-01, 2.20329428e+00,
   2.26901218e-01, 2.27848792e+00, 1.41800475e+00, 1.35484301e-02,
   6.91393852e-01, 1.27074927e-01, 8.69441777e-02, 2.85189580e-02,
   8.84172991e-02,-4.56491888e-01,-1.74542356e+00,-5.39553583e-01,
   3.26509029e-01,-2.88784411e-02, 1.11279750e+00,-1.99235044e-02,
   5.26360683e-02, 4.14475389e-02,-2.82211590e+00, 9.68373358e-01,
   1.20893354e-04,-1.46135623e-02, 3.88582759e-02,-4.21828888e-02,
  -2.52578521e+00,-1.12378392e-02,-1.30858764e-01, 5.92336297e-01,
  -8.92369926e-01, 1.94375873e-01, 2.72242904e+00,-1.48821071e-01,
  -3.27399969e+00,-4.55494404e+00,-8.53350237e-02,-7.41564110e-02,
   4.01271246e-02,-2.71006435e-01,-7.44027197e-01, 7.66780004e-02,
  -1.01563759e-01,-1.39368284e+00,-8.72251615e-02, 2.93785241e-02,
  -5.10291047e-02, 1.40015185e-02, 3.78359866e+00, 2.17891075e-02,
  -4.47213165e-02,-4.85586263e-02,-6.59823120e-02, 8.12021196e-02,
   2.90549606e-01,-5.87918520e-01,-8.58982559e-03,-1.48418788e-02,
   3.62938613e-01, 1.53259104e-02,-6.05856143e-02, 1.71635121e-01,
  -4.29261960e-02, 6.31200057e-03, 8.79235491e-02,-8.52179408e-01,
  -9.10548121e-02, 2.47052368e-02, 5.95416009e-01, 3.87773395e-01},
 {-2.30303454e+00, 2.14838457e+00, 8.09304714e-01,-2.32488394e+00,
  -2.46291304e+00,-3.54642701e+00,-2.52856255e+00,-8.93171132e-01,
   2.46740770e+00,-2.64794183e+00,-4.57622337e+00,-5.49092627e+00,
   2.54150867e-01,-2.54014182e+00, 4.88629007e+00, 1.21045448e-01,
   3.39560956e-01,-1.31888354e+00, 1.16651070e+00,-8.15937901e+00,
   1.22385693e+00, 9.41722542e-02,-4.08072567e+00, 1.98109496e+00,
  -1.45865285e+00, 5.88568568e-01, 8.20501709e+00, 2.72937685e-01,
  -7.76442289e-01,-3.22781467e+00, 1.71946073e+00,-5.43654490e+00,
   1.60022688e+00,-2.28995562e+00,-3.11124802e+00, 4.37652558e-01,
  -6.52345610e+00,-1.64737964e+00, 1.01534784e+00, 6.17681205e-01,
   2.46783447e+01,-2.95374453e-01,-2.42734504e+00, 2.60660982e+00,
  -2.77185392e+00,-9.62558091e-01,-2.28070316e+01, 5.48617125e-01,
   3.01684952e+00, 6.07092500e-01,-3.74183106e+00, 5.67703152e+00,
   1.20962250e+00,-2.51521277e+00, 1.08690329e-01, 4.24839592e+00,
  -3.22461796e+00, 2.89793634e+00,-9.45944071e-01, 2.36393899e-01,
   4.54515696e+00,-8.39852691e-01, 1.92712998e+00,-2.94404054e+00,
  -2.04822516e+00,-8.98191810e-01,-8.87261271e-01, 2.14416146e+00,
   1.31854630e+00,-5.32325745e+00,-1.54576108e-01,-8.93468112e-02,
   1.02404726e+00,-5.74435592e-01,-8.67423117e-02, 4.07615751e-01,
  -4.07346934e-01, 8.38838100e-01, 7.80215323e-01, 1.77021360e+00,
  -6.85619712e-01, 4.88932282e-01,-4.85830259e+00, 3.11112165e-01,
  -4.25719404e+00, 4.76305671e-02, 3.67845321e+00, 3.94075847e+00,
   4.53395319e+00, 2.69332814e+00, 4.20807791e+00,-3.74137449e+00,
   5.00581837e+00,-3.94278169e+00,-9.00734663e-01,-8.88654053e-01,
  -9.33420479e-01, 1.64610124e+00, 3.71870965e-01, 1.89264584e+00,
  -4.84557003e-01,-2.44326568e+00, 2.58252358e+00, 1.44011676e+00,
  -1.42141625e-01, 4.93781537e-01, 2.26499319e+00, 1.63959074e+00,
  -4.07398999e-01, 7.23503232e-01, 1.10553002e+00, 5.18412209e+00,
  -1.30939341e+00,-5.87744772e-01,-1.07218039e+00, 1.92849648e+00,
  -2.33347964e+00,-8.39527607e-01, 3.63978565e-01,-2.94788927e-01,
  -5.88712120e+00, 5.72356656e-02,-1.12039309e+01,-2.82053351e-01,
  -2.17511344e+00, 1.50268912e+00, 3.27838492e+00,-5.56121469e-01},
 {-7.74027929e-02,-4.12606373e-02,-1.60116870e-02,-4.93223369e-02,
   4.99870740e-02,-1.50810331e-01,-1.09243346e-02,-1.60034653e-02,
  -7.66402557e-02,-1.23689556e-02,-5.77130988e-02,-9.24206153e-02,
  -1.39100939e-01,-3.79109941e-02,-9.09246504e-02,-5.24645264e-04,
   4.23262268e-02, 1.55045036e-02,-4.64729965e-02,-3.85168754e-02,
  -5.66421300e-02,-1.12799540e-01,-3.85953672e-02,-1.32435516e-01,
   2.50216341e-03,-2.49837916e-02,-1.01504378e-01,-1.26269385e-01,
   7.11976411e-03,-1.10429049e-01,-1.11811705e-01,-8.42851624e-02,
  -7.61773884e-02,-2.47671939e-02,-1.61529034e-01,-8.61454085e-02,
   6.79841638e-02,-6.48925006e-02,-1.49451075e-02,-8.62079933e-02,
  -3.54707800e-02,-1.31750464e-01,-7.00716674e-02, 2.92865913e-02,
  -4.98191826e-02,-4.77021374e-02,-1.11722142e-01,-4.74791275e-03,
  -8.51503946e-03,-9.70734134e-02,-1.06486052e-01, 3.24504887e-04,
   6.56195625e-04,-3.55972648e-02,-3.95459756e-02,-3.01846545e-02,
  -4.34745587e-02,-1.21334605e-02, 1.62284039e-02,-4.52039726e-02,
  -7.47471526e-02,-4.74756956e-02,-2.37545837e-02,-8.25183187e-03,
  -6.42715096e-02,-2.08128672e-02, 3.66836414e-02,-2.09924821e-02,
  -6.30419552e-02,-5.34218624e-02,-3.41338255e-02,-6.77697584e-02,
  -9.07953456e-02,-3.71534266e-02,-6.04003808e-03,-3.51452939e-02,
  -1.21823385e-01,-8.67052525e-02,-2.32271887e-02,-3.76134440e-02,
   8.55200179e-03,-4.70247902e-02,-1.34356067e-01,-6.40133619e-02,
  -1.06621310e-01,-1.13924928e-01,-1.00273229e-01, 2.50660926e-02,
  -1.04416413e-02, 4.06972226e-03,-8.77263397e-03,-2.20684167e-02,
   4.42407019e-02, 2.68683285e-02,-5.97690530e-02,-5.38904592e-02,
  -1.55761875e-02,-9.28454027e-02,-1.40007928e-01,-1.07669957e-01,
   1.15918936e-02, 2.70871017e-02, 2.14514788e-02,-2.25686990e-02,
   5.34580648e-02,-1.37506276e-01,-1.27730086e-01,-7.71745443e-02,
   2.95939688e-02,-6.08448014e-02,-1.15331270e-01,-1.88547857e-02,
  -6.47879466e-02,-6.64518625e-02,-1.53973494e-02,-7.61943981e-02,
  -1.19879507e-01,-9.65467468e-02,-3.40661802e-03, 1.07011003e-02,
  -4.03684974e-02,-1.86601635e-02, 3.86129096e-02,-4.05405760e-02,
  -1.04547188e-01,-1.20388828e-01,-8.40789732e-03,-8.74322490e-04},
 { 1.81192577e+00,-5.11966372e+00,-2.47913122e+00, 4.84163189e+00,
  -9.67004955e-01,-4.82703066e+00, 6.14689302e+00, 4.81310517e-01,
  -3.82366395e+00, 2.38437724e+00,-6.65647984e+00,-8.80606461e+00,
   1.85976699e-01, 3.39184475e+00, 3.11487389e+00, 3.01647234e+00,
   1.75310421e+00, 2.55505252e+00, 2.84450144e-01,-1.20759892e+00,
   4.18859392e-01, 5.00924349e-01, 3.27057672e+00,-3.34495544e+00,
  -2.65494704e-01, 1.15257561e-01, 5.02809811e+00, 1.93629551e+00,
  -4.42792714e-01,-6.47950411e-01,-5.01474440e-01,-8.01933333e-02,
  -1.71263242e+00, 6.98928690e+00,-6.87420034e+00,-4.95344967e-01,
   4.88112402e+00, 7.64519647e-02,-4.40938377e+00,-3.32186890e+00,
   1.60738617e-01, 5.18736506e+00,-1.72300529e+00,-3.12983775e+00,
  -2.55375552e+00, 3.47518325e+00,-3.43711644e-01,-1.64296603e+00,
  -2.10291922e-01,-1.84083676e+00, 1.10809183e+00,-3.25390506e+00,
   2.25311613e+00, 7.11652517e-01, 1.08088899e+00,-3.69892359e+00,
   6.07132149e+00, 9.36172485e+00, 2.31590962e+00, 6.00090563e-01,
  -1.34396601e+00, 3.50278807e+00, 1.08390799e+01, 6.02812827e-01,
   1.73757219e+00, 5.56237316e+00, 2.58583665e-01, 3.30316037e-01,
  -1.92400980e+00,-3.56090260e+00,-4.88427687e+00, 6.22382689e+00,
  -1.77648604e+00,-1.93928552e+00,-3.37250829e+00, 7.13344634e-01,
  -1.76672578e+00,-1.36594832e+00, 2.58887553e+00,-1.04809082e+00,
   9.97692466e-01, 1.55524266e+00, 3.48925996e+00,-1.37572348e+00,
  -4.69502783e+00, 3.60370111e+00, 4.10389757e+00, 1.14214015e+00,
   3.43474030e-01,-6.74626589e+00,-1.02548466e+01,-4.09746885e+00,
   5.85513294e-01, 5.26669919e-01,-2.62325287e+00,-7.86727071e-01,
  -4.71668673e+00, 1.45832741e+00,-9.73861992e-01,-4.04671431e-01,
   3.63613796e+00,-4.89799690e+00,-7.95354986e+00,-9.13426399e-01,
  -2.06008762e-01,-1.47140288e+00,-7.99850464e+00,-3.58924675e+00,
   9.82742012e-01, 1.72297478e-01, 2.00862265e+00,-2.28577304e+00,
  -1.74029875e+00, 1.53551728e-01,-9.25643563e-01,-3.32829642e+00,
  -8.94177735e-01, 3.14157248e+00, 5.05464137e-01, 1.80134785e+00,
   3.25746703e+00, 3.21381211e-01, 2.60127664e+00, 1.89120457e-01,
   4.64066696e+00,-2.28288984e+00,-2.02338362e+00, 2.47256422e+00},
 {-2.60740542e+00,-9.29202914e-01,-5.12717628e+00, 8.75657022e-01,
   2.39145374e+00, 3.44805151e-01,-3.81495565e-01, 1.47375619e+00,
  -1.33163047e+00, 1.99933732e+00,-4.94560814e+00, 6.25091934e+00,
  -4.96546000e-01,-9.64463234e+00, 3.12822247e+00, 8.38069725e+00,
   2.39955640e+00, 4.62542677e+00, 9.18394625e-02,-2.40238190e+00,
   2.50037622e+00, 1.54993165e+00, 6.31556690e-01,-2.85074592e+00,
   9.67287421e-01,-5.11667728e+00,-2.94446301e+00, 3.71685089e-03,
  -2.57016110e+00,-4.53024340e+00,-5.97819649e-02, 3.20412135e+00,
  -3.20136166e+00,-6.36272812e+00,-4.75711393e+00, 5.53096592e-01,
  -7.26967990e-01, 2.15199614e+00, 1.29745948e+00,-9.39208925e-01,
   1.87450683e+00,-5.18607426e+00, 1.28804779e+00,-7.99342728e+00,
  -6.35708141e+00,-7.26950526e-01, 1.57903171e+00, 4.29820925e-01,
  -8.50445032e-01,-9.01996434e-01,-7.30431700e+00,-6.04205966e-01,
  -7.66477454e-03,-5.89064479e-01, 1.49944973e+00,-1.51532483e+00,
   2.46395826e+00, 2.51758480e+01, 2.68688297e+00,-2.35777211e+00,
  -3.40500855e+00,-1.89824450e+00,-2.74213821e-01, 5.48023880e-01,
  -1.15896833e+00,-8.17689419e-01, 8.10920477e-01, 1.24261163e-01,
  -1.92976546e+00,-4.96181816e-01, 2.47194767e+00, 3.96099186e+00,
  -3.89554429e+00,-6.39231861e-01,-7.55879641e-01, 1.57561731e+00,
  -4.00910425e+00,-1.82477593e+00, 1.35528636e+00, 5.30958474e-01,
  -2.72091955e-01, 7.37903178e-01, 5.10745478e+00,-8.72756600e-01,
  -4.22172451e+00,-1.24444304e+01, 4.04953814e+00,-1.80259380e+01,
  -8.48556519e+00,-2.73977876e+00,-3.96191359e+00, 1.55649722e+00,
   8.58103943e+00,-3.44900322e+00, 1.20733702e+00, 3.59994829e-01,
   3.05060434e+00, 2.56940913e+00, 9.96693730e-01,-1.28511727e+00,
   5.28444481e+00,-1.08876619e+01,-8.47840190e-01,-8.92297387e-01,
  -7.54354715e-01,-6.24616861e-01,-2.56684065e+00,-9.33403671e-01,
   1.25411665e+00, 7.90273011e-01,-2.31066835e-03,-7.33849406e-01,
   2.65435874e-01, 3.76664817e-01, 7.88860917e-01,-7.19977975e-01,
   4.06100303e-01, 1.88902748e+00, 8.28198642e-02,-2.90066433e+00,
   2.30614495e+00,-3.12216897e-02, 1.09963632e+00, 2.47568536e+00,
   3.96920109e+00,-3.30577517e+00, 4.75946188e+00,-3.53284955e+00},
 {-1.32543993e+01,-4.19212312e-01, 1.66513290e+01,-7.03148460e+00,
  -1.40719461e+00,-1.87750012e-01,-1.21454561e+00,-1.25406826e+00,
  -5.46168923e-01,-6.35107875e-01, 3.98579788e+00,-5.71601772e+00,
   2.44447008e-01,-1.48597984e+01,-1.19991884e+01, 1.54819369e+00,
   6.31660998e-01,-1.10203230e+00, 3.06394622e-02,-1.40353322e+00,
  -1.59577817e-01,-9.09726977e-01, 1.10751019e+01, 3.17416286e+00,
  -9.39791679e-01,-1.19336642e-01, 3.00933003e-01,-8.01651192e+00,
   7.32382596e-01, 7.72069788e+00, 2.34549165e-01, 2.94227242e+00,
   2.28490278e-01, 1.77378809e+00,-2.30441761e+01, 9.43269312e-01,
   7.39902973e-01,-3.67190647e+00,-9.53984797e-01, 4.85200882e+00,
  -1.70717025e+00,-9.30016041e+00,-2.26721478e+00,-1.68748569e+00,
   2.22329688e+00,-6.20583487e+00, 4.40882832e-01, 2.59093308e+00,
   5.61413765e-01, 2.71725088e-01,-8.16730881e+00, 2.58340244e+01,
   4.49437857e+00, 3.14363599e+00,-6.37879431e-01, 3.67371380e-01,
  -4.50226367e-02, 2.50559354e+00,-1.21528637e+00, 8.65013480e-01,
   1.81189895e+00, 2.77935958e+00,-1.45955582e+01,-9.10383999e-01,
   3.53019476e-01, 1.82290192e+01, 5.30011177e-01, 1.48459688e-01,
   6.99127376e-01,-2.76266651e+01, 3.08841443e+00,-8.13328266e+00,
   2.54155469e+00, 6.59597933e-01, 7.73810577e+00, 6.83585629e-02,
   2.72485113e+00, 1.14290345e+00, 2.61823416e-01, 1.32082939e+00,
   4.53060836e-01, 3.37957549e+00,-3.62992215e+00, 3.37098897e-01,
   4.93530221e-02, 1.51052117e-01,-3.71794128e+00,-7.68908787e+00,
  -6.93136692e-01,-2.77680635e-01,-3.63792467e+00, 6.23086870e-01,
  -1.05448112e+01,-5.98314619e+00,-2.14225626e+00, 5.06110716e+00,
  -6.21356678e+00,-5.44451618e+00,-1.53409135e+00, 9.33546841e-01,
  -3.37923050e+00,-2.40745735e+00, 5.10040462e-01, 5.59210122e-01,
   4.85183626e-01, 8.34108949e-01, 7.42061996e+00, 3.38260317e+00,
  -4.60143745e-01,-7.28928030e-01, 9.25734520e-01, 2.32954621e-01,
  -1.83558917e+00,-1.86225310e-01,-2.54306614e-01, 2.62290500e-02,
   4.41629601e+00,-2.04352808e+00,-5.25776052e+00,-1.39578476e+01,
  -1.30069482e+00,-1.46688926e+00, 5.22574067e-01, 1.98363638e+00,
  -4.11535263e+00, 2.35492730e+00, 1.14070702e+01,-1.34317875e+00},
 { 1.54944503e+00,-1.03394186e+00,-6.47711277e+00, 1.53896749e+00,
   1.03962970e+00, 3.79499316e+00, 3.83533335e+00, 9.35777500e-02,
  -6.46336854e-01,-3.62819999e-01,-2.09430170e+00, 5.69097805e+00,
  -9.74662066e-01, 1.18442178e+00, 6.00727272e+00, 1.69002485e+00,
  -9.07582760e-01, 1.82528841e+00,-6.26324987e+00, 4.55396795e+00,
   1.66396916e-01,-1.18866593e-01, 4.96613789e+00,-4.91255462e-01,
  -1.81063302e-02,-4.08405733e+00, 1.06143599e+01,-1.94497812e+00,
  -1.84655476e+00,-6.26591873e+00,-4.56189930e-01,-6.73589468e+00,
  -8.75669479e-01, 1.60504627e+00, 4.58586121e+00,-4.35666174e-01,
   4.23589468e+00,-1.45470738e+00,-1.73613620e+00, 4.47057962e-01,
   1.80262113e+00, 3.48351628e-01, 1.63175893e+00,-2.48007226e+00,
  -9.21590328e-01, 1.20437098e+00,-1.93565324e-01, 2.05736208e+00,
  -2.78871566e-01,-8.30069959e-01,-9.98413754e+00, 1.10514188e+00,
  -4.53443003e+00, 2.27433681e+00, 9.15578008e-01,-1.88973677e+00,
   8.67746770e-01, 4.44564676e+00, 1.11026680e+00,-4.96880484e+00,
   1.85065389e-01, 7.43155777e-02, 9.77365685e+00, 3.63927513e-01,
  -1.11402264e+01, 1.69709098e+00, 6.65799528e-02,-2.73273468e-01,
  -5.83732605e-01,-3.96488047e+00,-9.19403076e+00, 1.45113254e+00,
  -5.43070555e-01,-1.87988973e+00, 4.06991065e-01,-4.19452786e-01,
  -1.27035582e+00,-6.35683358e-01,-3.69968653e+00, 6.47556841e-01,
   3.47832590e-01, 1.66814291e+00, 2.83427644e+00,-1.57593477e+00,
  -2.64590049e+00,-7.29646921e+00, 2.84667516e+00, 4.64513063e+00,
   1.87834454e+00, 1.97641802e+00,-7.07429600e+00,-3.25571990e+00,
  -3.97157860e+00,-5.27093744e+00,-1.09729433e+00, 6.94879472e-01,
  -6.42505825e-01, 1.11955881e+00, 8.27643037e-01, 6.89369500e-01,
   1.59735548e+00, 1.95289779e+00,-3.09311628e+00,-1.57444274e+00,
  -3.37421149e-01,-2.81845748e-01,-4.96273851e+00,-5.09661913e-01,
  -8.37765396e-01,-5.50305367e-01,-2.82364440e+00,-3.08819622e-01,
   6.51207685e-01,-2.13815594e+00,-2.58165717e-01,-9.17322040e-01,
   1.52129161e+00, 1.16897666e+00,-5.03355503e+00, 1.21791601e+00,
   1.07466912e+00,-2.51631200e-01,-1.90719283e+00,-5.76671600e+00,
   4.27302027e+00,-2.01272631e+00,-6.11883402e-01,-2.64970422e-01},
 { 1.24641514e+00,-3.20769787e+00, 2.70258689e+00, 7.83726454e-01,
   8.55890572e-01,-1.51698256e+00,-2.65275502e+00, 1.39228213e+00,
  -1.19573200e+00,-2.80210829e+00, 1.38377881e+00,-1.80026442e-01,
  -1.99043695e-02, 3.88119370e-01, 5.56337871e-02,-1.31875455e+00,
   7.09730577e+00, 1.53485417e+00, 7.34563112e+00,-5.30269325e-01,
  -3.05290527e+01, 1.98754120e+00, 9.89894569e-01,-6.32990789e+00,
  -7.34630299e+00,-1.07675588e+00, 2.69119406e+00,-2.21730518e+00,
   7.08633375e+00,-2.53626347e-01,-4.12880087e+00, 6.87939882e+00,
  -4.75816965e+00,-1.31962788e+00,-2.07172465e+00, 8.89053464e-01,
   4.98646879e+00, 1.04246914e+00, 1.29211545e+00, 7.00648367e-01,
   3.23950100e+00, 1.05631804e+00,-2.85475039e+00,-2.16354832e-01,
   1.52909791e+00, 4.86361682e-01, 1.70860016e+00, 1.74919784e+00,
   1.83266437e+00,-5.33213727e-02,-2.70070767e+00,-8.30067337e-01,
  -2.40954065e+00,-6.85836887e+00, 8.41665268e-01,-1.28982878e+01,
   7.86476076e-01, 1.49205041e+00, 1.21938527e-01,-1.43089962e+00,
   3.30792665e+00, 5.89428127e-01, 9.14755058e+00,-1.98168683e+00,
  -2.43726635e+00, 2.46796679e+00,-2.55982614e+00,-3.42365789e+00,
  -5.98717260e+00, 2.11395800e-01, 5.36707830e+00, 6.77023828e-01,
   5.81894732e+00,-1.21922932e+01, 1.71089709e-01,-1.35007173e-01,
  -4.67659712e+00,-3.07608867e+00, 1.06525302e+00, 2.84492683e+00,
   3.65401959e+00, 1.85864472e+00, 9.11693954e+00, 3.88826072e-01,
   2.87004076e-02, 8.17084730e-01, 1.28193891e+00, 2.18469763e+00,
  -2.23903835e-01, 2.95310616e+00, 2.27203339e-01, 1.06262386e-01,
  -2.97546446e-01, 9.95065510e-01, 7.88727343e-01,-2.76828909e+00,
  -3.08483291e+00, 5.32989264e-01, 8.50721776e-01, 3.05269599e+00,
   4.05589771e+00, 1.20917213e+00, 1.04683721e+00,-1.24573336e+01,
  -1.42654810e+01,-7.45980978e-01,-2.53744507e+00, 5.17592764e+00,
  -9.66434419e-01, 1.04793215e+00,-1.59056723e+00,-2.20921922e+00,
  -3.10702300e+00,-1.95112097e+00, 6.12327516e-01,-1.46146307e+01,
  -7.23471224e-01, 4.34309912e+00, 5.38638306e+00, 2.46414274e-01,
   9.19978714e+00, 1.60304654e+00, 3.88400006e+00,-2.10767269e+00,
  -5.96242368e-01,-1.91966305e+01,-1.36601762e-03,-1.14967227e-02},
 {-1.08108988e+01,-1.01475012e+00, 6.89031541e-01, 1.26761866e+00,
  -2.03837156e+00,-1.67581234e+01, 6.04766703e+00, 1.98825383e+00,
   1.29559493e+00, 9.31284308e-01,-7.66320419e+00,-5.18362379e+00,
   1.40537107e-02,-1.74932823e-01, 2.28510880e+00, 1.19416153e+00,
   5.10710657e-01, 8.01055193e-01,-9.05970192e+00,-6.65226173e+00,
  -1.33928776e+00, 5.79194129e-02,-5.33210707e+00,-1.55676413e+00,
   1.72368109e-01, 3.21288252e+00, 4.43917227e+00,-7.29426270e+01,
  -7.86094618e+00,-2.35500860e+00,-1.27282798e-01, 2.35996890e+00,
  -2.54841709e+00, 7.09265232e-01, 2.36315131e+00, 3.24460030e+00,
   3.13391495e+00, 8.89456570e-01,-2.20450211e+00,-1.59681058e+00,
   1.10585243e-01,-9.49039832e-02,-2.38934541e+00, 3.43794703e+00,
  -2.29857254e+00,-8.90004754e-01, 1.09663212e+00,-2.02273235e-01,
  -6.22630298e-01,-1.26026940e+00,-1.50813591e+00,-7.39307117e+00,
  -1.07423592e+00, 1.01484947e+01, 1.25490415e+00,-2.13516688e+00,
   3.92247272e+00, 9.67385864e+00, 2.45130014e+00, 3.04284859e+00,
  -1.17018878e+00,-1.64184010e+00,-1.17289476e+01, 4.26364869e-01,
   7.52838802e+00, 4.96641964e-01,-2.21425351e-02,-2.11112589e-01,
  -2.50937772e+00,-3.90238929e+00,-3.79803276e+00, 1.05117023e+00,
  -2.68187523e+00,-2.84298921e+00,-2.63538861e+00, 1.00703979e+00,
  -2.04052734e+00,-1.97477829e+00,-2.35368133e+00,-9.21616137e-01,
   7.70328104e-01, 1.60335350e+00, 4.38154411e+00,-1.69613802e+00,
  -5.70374250e+00,-6.97079003e-01, 6.74809361e+00,-2.05569959e+00,
  -1.28236711e+00,-2.31465721e+00, 2.58613348e+00, 4.57270652e-01,
   1.19819365e+01,-5.19165611e+00,-1.41028309e+00, 6.20964706e-01,
  -1.71158028e+00,-1.06280476e-01, 1.15264976e+00,-4.35446352e-01,
   3.37950325e+00,-1.50063336e+00,-3.44363403e+00,-6.97178602e-01,
  -3.29919964e-01, 1.33139687e-02, 2.84096050e+00,-2.16658926e+00,
   8.82344067e-01, 5.00921249e-01, 1.67741811e+00,-1.00634873e+00,
   5.67810684e-02,-6.49488592e+00, 3.82931352e-01,-2.10293436e+00,
   1.54026258e+00, 2.58322549e+00, 1.53051722e+00, 1.85946751e+00,
   1.80916226e+00, 7.63719916e-01,-3.64835215e+00,-9.08386171e-01,
   6.66004848e+00,-2.63424277e+00,-3.40585440e-01, 3.05489630e-01},
 {-1.80283508e+01,-5.68959808e+00,-6.71999979e+00, 4.50483382e-01,
  -5.10362864e-01,-3.24000359e+00,-1.88428080e+00,-2.21238256e+00,
  -1.24750388e+00,-6.26927519e+00, 3.64905930e+00,-2.64018774e+00,
  -9.13913846e-02,-6.65876007e+00, 3.29997206e+00,-4.38289070e+00,
   1.18919984e-01,-2.45108628e+00,-1.47567093e+00,-1.62722266e+00,
  -3.28714490e-01,-6.35951877e-01, 3.86299849e+00, 6.41839743e+00,
   3.15251052e-01, 6.59994006e-01,-2.84877796e+01, 3.10382128e+00,
   3.83922279e-01, 1.59613585e+00, 9.88728628e-02,-1.56820226e+00,
   3.01841545e+00, 1.40809679e+00,-4.57385969e+00,-2.55344296e+00,
  -1.04299259e+00,-1.03412843e+00,-1.11516600e+01,-2.21503711e+00,
   1.77105713e+00, 3.16989350e+00,-8.71517122e-01,-1.62583017e+00,
   4.18551385e-01, 4.52725792e+00,-4.13911009e+00, 1.97679806e+00,
   1.36085546e+00, 1.52853537e+00,-2.75614796e+01,-3.43403459e+00,
  -7.94392443e+00, 2.03132415e+00, 1.01871443e+00, 1.41182709e+00,
  -3.84262586e+00, 1.77940178e+01, 1.19545937e+00,-8.22956276e+00,
   4.42328215e+00, 2.12018538e+00, 4.46348667e+00, 8.48925054e-01,
  -2.85186696e+00, 2.40752912e+00, 5.62241197e-01,-2.66727865e-01,
  -1.91583410e-02,-5.83590126e+00,-4.72733784e+00, 5.46311951e+00,
   4.12510109e+00,-9.23286915e-01,-6.58302355e+00, 4.18299437e-01,
   1.62466705e+00, 1.59419370e+00, 7.88963497e-01,-3.10224771e+00,
  -8.04568529e-01,-1.64555216e+00,-4.91771269e+00, 1.24367523e+00,
  -7.33851051e+00,-1.57421722e+01,-3.29472637e+00, 7.76740551e+00,
  -6.30061150e+00,-2.37208933e-01, 9.15547371e+00,-4.82244253e-01,
   7.18581724e+00,-9.28030396e+00,-6.75173879e-01, 9.46155906e-01,
   1.03319511e+01, 3.12889099e+00, 4.39486921e-01,-3.16862464e-01,
  -3.55039048e+00,-2.56104488e+01, 4.38145113e+00, 5.09847067e-02,
   1.79829866e-01, 2.17405534e+00, 4.17624950e-01,-2.81117582e+00,
  -2.26602960e+00,-8.82784903e-01, 1.60138166e+00, 7.65495872e+00,
   4.51087618e+00,-1.23569942e+00,-1.54675746e+00, 5.24648333e+00,
  -3.61112580e-02,-4.48444694e-01,-1.16466142e-01, 6.86291814e-01,
  -4.24359655e+00,-6.88908279e-01,-3.75145221e+00,-1.54312158e+00,
  -5.56584120e+00, 2.24822497e+00,-1.57304990e+00,-3.62139434e-01},
 {-5.99545762e-02, 1.04141998e+00,-4.59211063e+00, 7.52607203e+00,
   1.07879710e+00, 1.07838798e+00, 2.16778493e+00,-2.27543998e+00,
   6.38248384e-01,-1.51332605e+00, 1.15223074e+01, 5.12131572e-01,
   5.54022372e-01, 1.87209868e+00, 6.52393389e+00, 2.79054284e+00,
   6.62389874e-01,-9.75008547e-01,-5.42228317e+00, 1.13296156e+01,
   9.42060053e-02,-1.97414255e+00,-3.96447587e+00, 5.96361065e+00,
  -3.37736559e+00,-3.42361593e+00,-1.53277874e+01,-2.07739353e+00,
  -2.11452818e+00, 2.11250138e+00,-1.17084038e+00,-1.54005737e+01,
  -8.11918545e+00,-2.52149701e+00,-4.90217352e+00, 3.86045873e-01,
  -4.43665981e+00, 8.38408843e-02, 2.00679016e+00, 1.46427095e+00,
   8.15276146e+00,-6.20777130e-01, 2.45864201e+00,-6.11099839e-01,
   2.49633479e+00, 4.91012955e+00, 6.86290681e-01, 1.26451540e+00,
   1.63575304e+00,-1.19681752e+00, 1.40943301e+00, 1.04282284e+00,
   1.70904756e+00, 9.86479372e-02,-3.32488388e-01,-8.67898762e-01,
  -1.39984882e+00,-3.03703666e+00,-1.85166466e+00, 4.85215455e-01,
   2.98259974e+00,-1.60805607e+00, 3.07117724e+00,-4.79118347e+00,
  -5.46173573e-01,-5.51435292e-01,-3.16446900e+00, 1.03795671e+00,
  -1.07343988e-02,-6.54322624e+00,-5.44937658e+00,-8.94789934e-01,
   4.36849356e+00,-3.09255183e-01,-6.75352275e-01,-1.54601932e+00,
   2.68680477e+00, 1.31738913e+00,-2.21931934e+00, 3.81501615e-01,
  -6.70839071e-01, 9.87728298e-01,-9.59380627e-01,-2.53322065e-01,
  -6.54785156e+00, 2.15151405e+00,-6.05904007e+00, 3.01661015e-01,
   1.76242137e+00, 1.71533585e+00, 7.02021503e+00, 2.55424833e+00,
   4.29771185e+00,-2.72881317e+00,-2.81933665e+00,-6.25615358e+00,
  -2.95212388e+00, 3.74904215e-01,-8.31010401e-01, 3.95813012e+00,
  -4.20979404e+00,-1.33094299e+00, 1.16679001e+00, 5.11121750e-01,
   8.74690652e-01, 1.49490917e+00, 3.10170197e+00,-5.54065132e+00,
  -6.96394086e-01,-2.90343833e+00, 1.97123754e+00, 2.33362961e+00,
  -4.34404373e+00, 4.33165312e+00,-1.65455890e+00,-1.08895147e+00,
  -7.19816327e-01, 1.37066498e-01, 1.69508064e+00,-1.21507204e+00,
  -4.72575366e-01, 1.61182594e+00,-1.73023272e+00, 6.16475582e-01,
  -1.77998948e+00, 9.51709509e-01, 4.99055296e-01,-2.85932541e+00},
 { 7.55405128e-01, 5.84309769e+00, 6.65654361e-01,-1.62070587e-01,
  -3.98175657e-01,-1.90624356e-01,-4.30629826e+00, 7.50382543e-01,
  -3.49805093e+00, 8.48064959e-01,-1.27661586e+00, 3.40574646e+00,
   6.36883140e-01, 1.19346523e+01,-3.77866459e+00, 5.82404804e+00,
   1.57142580e-01,-8.19730341e-01, 1.49852127e-01, 5.55552959e-01,
   5.35612285e-01, 5.85128903e-01, 9.96486187e+00,-2.33235955e+00,
  -3.25664490e-01,-1.12536097e+00, 1.44701862e+00,-1.62903976e+00,
  -1.91011384e-01, 1.03737621e+01, 2.83234268e-02, 2.65548420e+00,
   1.10785532e+00, 6.01874256e+00,-1.32830343e+01,-6.33270502e-01,
   9.03845501e+00,-1.79755497e+00,-3.29137349e+00,-1.50533330e+00,
   1.24446559e+00,-8.16131496e+00,-1.70920765e+00,-8.84359837e-01,
  -2.04707646e+00,-3.60154915e+00, 3.68503600e-01,-1.16957223e+00,
  -7.67263532e-01,-9.59119722e-02,-7.16919839e-01, 3.67357373e+00,
   5.77888060e+00,-8.59225169e-02, 3.87381136e-01,-1.71254277e-01,
   9.98448968e-01,-1.07264624e+01, 1.76665783e+00, 1.10236657e+00,
  -8.31794441e-01, 6.21213961e+00,-7.42541456e+00, 6.07955992e-01,
   2.44936419e+00, 9.84689057e-01,-2.03769833e-01, 1.24055129e-02,
  -1.31461549e+00,-3.32599163e-01, 5.13473004e-02,-8.57673943e-01,
  -2.35525322e+00,-9.23112035e-02,-7.22345638e+00, 1.13617837e+00,
  -1.51751840e+00,-6.94136858e-01, 5.71494818e+00, 4.51004791e+00,
   7.28175370e-03, 4.06685686e+00, 2.21390057e+00,-9.08037543e-01,
  -5.14179945e+00,-2.93424577e-01, 1.54346287e+00,-1.10754528e+01,
   2.26457024e+00, 1.95240462e+00, 1.04643869e+01,-1.12213421e+01,
   1.11362152e+01,-4.53460979e+00,-3.08827114e+00,-9.78055716e-01,
  -5.00593066e-01,-1.29618940e+01,-1.62065244e+00,-5.75007617e-01,
   1.84841120e+00,-1.23013563e-01,-6.42605364e-01,-3.25166643e-01,
  -2.91414380e-01,-1.55864537e-01, 4.46432972e+00, 7.87795603e-01,
   5.64351916e-01, 4.92793798e-01, 1.62435102e+00,-2.82370090e-01,
  -6.45764923e+00,-2.36939430e+00, 4.75165784e-01,-8.04434791e-02,
  -3.38681459e-01, 5.66362083e-01, 1.04873514e+00,-4.91156787e-01,
   1.12708735e+00, 8.05307627e-01, 2.17042017e+00,-5.12946784e-01,
   1.88999021e+00,-5.41324377e-01, 1.51026583e+01,-5.03451765e-01},
 {-6.62532520e+00, 6.94401598e+00, 1.45750895e-01,-1.13136482e+00,
   5.58765829e-02, 5.66289853e-03,-4.85763419e-03, 6.42285198e-02,
   1.17555034e+00, 4.22822870e-02,-2.89827764e-01, 8.84914920e-02,
   1.77545238e+00, 7.26800823e+00,-3.05363607e+00,-3.66320387e-02,
   7.78827593e-02,-6.22375309e-03,-4.16399539e-02,-2.33306026e+01,
   4.36105058e-02, 1.77692100e-02,-3.63359720e-01,-1.87620610e-01,
   1.14122979e-01,-8.37553963e-02, 2.33079283e-03,-8.81340981e+00,
  -1.48057165e+01, 6.11534007e-02,-2.65143695e-03,-9.21262205e-01,
   4.38944131e-01, 6.08405024e-02,-4.31570977e-01, 5.53975582e-01,
   5.09823847e+00, 5.68469107e-01,-1.84772164e-02, 3.59912932e-01,
   3.82826984e-01,-8.74436557e-01,-9.42085013e-02,-7.78361082e-01,
  -9.78733301e-02,-4.68256958e-02,-1.88897729e-01,-3.20408121e-02,
  -1.22965472e-02,-2.48367470e-02, 8.21816623e-02,-2.70409641e+01,
   5.69148883e-02,-1.89279041e+01, 3.92599851e-02,-2.68611461e-02,
   6.37095189e-03,-1.69530296e+01,-3.89959030e-02,-5.07773608e-02,
  -2.15704829e-01, 8.95617008e-01,-6.48079515e-01, 3.59193906e-02,
  -1.81775745e-02,-4.67434913e-01,-4.26670723e-02,-5.28234765e-02,
   1.76305464e-03,-2.92408943e+01, 5.22937514e-02,-4.21856356e+00,
  -3.55504379e-02,-7.46428734e-03, 2.09851876e-01, 1.22368122e-02,
  -9.24711004e-02,-5.09640835e-02, 4.01563704e-01, 7.67046586e-02,
  -5.54319657e-03, 1.65387958e-01, 1.04334101e-01, 6.92563057e-02,
   5.03617227e-01,-2.12714206e-02, 1.99207678e-01, 1.35406986e-01,
   1.07664578e-01, 9.44148451e-02, 3.39275002e-01, 6.77827597e-02,
  -1.88306534e+00, 1.12725109e-01, 3.15920776e-03, 1.10782377e-01,
  -2.83430591e-02,-5.02145290e-01,-3.36673927e+00, 6.09392859e-03,
   9.08887610e-02,-8.44857320e-02,-1.38013512e-01,-2.12802310e-02,
   1.87745001e-02, 3.25558940e-04, 2.91175574e-01,-4.25015250e-03,
   3.51251997e-02,-9.85113531e-03, 1.96036845e-01,-4.08959314e-02,
  -2.75545362e-02,-2.57956404e-02, 8.43245257e-03,-3.58316936e-02,
  -4.88410378e+00,-1.15064859e-01, 6.71284795e-01, 1.89325303e-01,
   4.13090847e-02, 2.35345334e-01, 1.15870953e+00, 5.76971881e-02,
  -1.46459177e-01,-3.57659273e-02, 4.71272796e-01,-9.17822644e-02},
 { 1.71665704e+00,-1.67378640e+00, 2.35583678e-01,-1.18859999e-01,
  -1.62620902e+00, 3.72633755e-01, 3.36821284e-03, 7.43464899e+00,
   6.97840095e-01, 2.39889431e+00,-9.32460690e+00,-3.29619855e-01,
   6.56939000e-02, 8.20666671e-01, 8.13876569e-01, 2.03010552e-02,
   1.26876402e+00, 4.53714341e-01,-1.12495683e-01, 2.36073756e+00,
   2.42108440e+00, 9.43408489e-01,-5.74332237e-01,-1.40834284e+00,
  -1.34899437e-01,-1.98579907e+00, 9.31445509e-02,-1.40525401e-01,
  -8.99036217e+00, 2.52585006e+00,-1.50637105e-01,-5.94144583e+00,
   4.48413038e+00,-1.30754719e+01, 3.66399455e+00, 2.77253240e-01,
  -4.11543512e+00, 6.62587941e-01,-2.82137841e-01, 1.33513570e-01,
   9.20722485e+00,-6.52348936e-01, 6.59905314e-01,-2.23105741e+00,
  -8.21735191e+00, 1.84395730e-01,-7.13211060e+00,-3.90525389e+00,
  -1.83779943e+00,-2.02988148e+00,-1.22857867e-02,-7.79393256e-01,
   6.61888361e-01,-4.51279306e+00, 4.22103596e+00,-2.26394534e+00,
   2.66454697e+00, 1.22048235e+00, 1.72354412e+00, 1.74265012e-01,
  -6.92826843e+00, 2.72648394e-01, 2.14948487e+00, 2.77436090e+00,
  -5.96395910e-01,-6.06167138e-01,-1.19905603e+00, 3.00154716e-01,
  -2.17264152e+00,-1.86449975e-01,-2.56553382e-01,-4.42183197e-01,
  -5.86362028e+00,-7.46784806e-01, 3.00406888e-02,-1.87789530e-01,
  -6.14536428e+00,-5.09996557e+00, 5.59204400e-01, 8.26115608e-01,
  -5.29619575e-01, 8.57382834e-01, 3.08819723e+00, 4.51772261e+00,
  -4.22295362e-01,-4.36356157e-01, 6.73023653e+00,-2.22491288e+00,
  -1.58005464e+00,-1.17671275e+00, 1.56996286e+00, 1.88159657e+00,
   3.41295034e-01, 3.11191589e-01,-6.98487878e-01, 2.15999503e-02,
   4.85480577e-02,-1.32448241e-01, 3.70423198e-01,-1.99582577e+00,
   7.14654875e+00,-1.52003422e-01,-1.48947930e+00,-6.91191006e+00,
   4.39884782e-01,-1.32796809e-01,-6.21431410e-01,-1.02792652e-02,
   4.31911182e+00, 2.97677374e+00, 8.12648952e-01,-1.86194265e+00,
  -4.31365147e-02,-4.69733179e-02,-3.15971684e+00,-2.14976525e+00,
  -4.63171452e-01, 7.93477392e+00, 1.31488495e+01,-2.62601152e-02,
   5.20820141e-01, 2.35792160e+00,-1.19727983e+01,-2.04654956e+00,
  -1.44562216e+01, 7.30637193e-01, 2.85332650e-01,-4.22660160e+00},
 {-1.45050073e+00, 3.34459496e+00, 3.76687646e+00,-1.14183225e-01,
   2.25791192e+00,-5.12797070e+00,-4.49912846e-01, 2.80689454e+00,
  -3.73818469e+00, 1.19745564e+00,-7.22070265e+00, 8.30609417e+00,
   5.03853679e-01,-2.05156016e+00, 9.83375168e+00,-3.03441733e-01,
  -4.47998285e-01, 2.14612055e+00,-6.90086842e+00,-3.80434680e+00,
  -2.10221910e+00,-3.54993731e-01,-3.33474350e+00,-1.59671116e+00,
  -2.91330576e-01,-1.69312992e+01,-1.98133814e+00,-2.32756662e+00,
  -7.63650060e-01, 2.03093863e+00,-7.24638760e-01, 1.84918714e+00,
  -2.07230139e+00,-2.20507870e+01,-1.16790630e-01, 3.13955814e-01,
  -1.29607749e+00, 1.63924813e+00,-7.27770805e+00,-8.32468331e-01,
  -6.43444061e-01,-7.87181914e-01, 4.78491211e+00, 4.08831024e+00,
  -5.82294881e-01, 2.28614616e+00, 2.47549057e+00,-1.02000380e+00,
  -9.72547591e-01,-6.94139838e-01,-3.90936780e+00,-5.36548758e+00,
  -5.96226454e+00,-2.00554419e+00, 7.95495749e-01,-2.03100872e+00,
   4.23207903e+00, 7.47289753e+00, 1.72450709e+00, 6.84666812e-01,
   7.55881608e-01, 1.59075260e+00,-1.26516521e+00,-7.37917185e-01,
  -1.55902338e+00, 4.15042019e+00, 1.32421523e-01, 7.10883915e-01,
  -2.81619334e+00,-6.41288328e+00,-2.24732075e+01, 6.10584068e+00,
  -2.15048718e+00,-3.44074893e+00,-1.08076358e+00, 3.74787748e-02,
  -2.56983733e+00,-2.23040748e+00, 2.14737606e+00, 3.00347686e-01,
   1.90933788e+00, 9.35526788e-01, 5.28411913e+00,-2.95091029e-02,
  -6.39737844e+00,-9.58350086e+00, 5.38668728e+00, 3.06412196e+00,
  -8.59315968e+00, 1.02218294e+00,-1.97860920e+00, 2.35552621e+00,
   4.73414755e+00, 2.90331984e+00,-2.62545848e+00, 4.07363987e+00,
   4.74346304e+00,-4.62584764e-01,-8.04339170e-01, 6.44014418e-01,
   2.79037118e+00,-4.38134432e+00,-7.73459733e-01,-1.41567004e+00,
   1.03587222e+00,-4.60457057e-02,-7.02077818e+00,-6.34482193e+00,
   6.97118521e-01, 1.65728524e-01, 4.11681116e-01,-1.57259309e+00,
   7.07432222e+00, 2.67695260e+00,-8.34543824e-01,-2.83771753e+00,
  -6.19251347e+00, 2.41080904e+00,-7.50741735e-02, 2.37628412e+00,
   1.34773552e+00,-1.38626289e+00, 2.21444988e+00,-3.67610812e+00,
   8.66273022e+00,-3.95338607e+00, 1.45861733e+00,-3.16788331e-02},
 { 2.08285880e+00,-3.04110432e+00, 2.13059330e+00,-1.50080216e+00,
   1.28246695e-01,-1.74087083e+00, 3.50501895e+00,-4.51869011e-01,
  -1.33206761e+00,-1.60438862e+01, 6.69084215e+00, 1.10761309e+00,
  -3.93108539e-02, 1.06477940e+00,-5.81582665e-01,-8.98736537e-01,
   4.98129511e+00, 1.33438349e+00, 4.93109286e-01, 2.71534514e+00,
  -1.42280807e+01, 1.75080657e+00, 4.20859158e-01, 2.27618933e+00,
  -3.54324937e+00,-3.79321146e+00, 7.13313770e+00,-8.52701843e-01,
  -1.95083427e+00,-1.64072299e+00, 3.26160163e-01, 1.08494473e+00,
   1.00433302e+00,-1.46533382e+00,-4.97005254e-01, 1.45151162e+00,
   8.93706322e-01, 5.32967985e-01, 1.20510697e+00, 2.50980705e-01,
   3.73451877e+00, 3.29111844e-01,-1.56135845e+00,-2.14141750e+00,
   1.03014314e+00,-2.74899149e+00,-8.19875050e+00,-4.78136253e+00,
   2.19120479e+00, 5.56844425e+00, 3.66646647e-01,-1.31590414e+00,
  -7.14341700e-01, 1.32873785e+00,-2.02408924e+01, 1.39044380e+00,
   1.38286936e+00, 1.93677175e+00,-2.51354170e+00,-2.17646813e+00,
   5.18803549e+00, 1.64186215e+00, 7.24106026e+00, 1.57139301e+00,
  -7.22678661e-01, 1.71683896e+00,-4.10356092e+00,-2.31818485e+00,
  -4.34388208e+00, 1.23782516e+00, 8.83493483e-01, 4.01828200e-01,
   3.89193487e+00,-1.07145023e+01,-5.31080723e-01,-2.30615997e+00,
   2.46483207e+00,-5.02009928e-01, 8.62221420e-01, 4.05903053e+00,
  -1.34610379e+00, 1.72340870e+00, 3.20953631e+00,-1.25489354e+00,
   7.84074187e-01,-5.50912809e+00, 4.34368849e-01,-5.43492436e-01,
  -3.42684537e-01,-2.02858239e-01,-2.46822405e+00,-1.23850489e+00,
  -8.92196178e-01, 6.95038289e-02,-2.72793722e+00,-1.79693162e+00,
  -1.02068925e+00, 4.02618021e-01, 1.04483318e+00, 1.62762403e+00,
   8.27672541e-01,-7.29550660e-01,-2.37196970e+00,-3.19103813e+00,
  -6.43988705e+00, 4.53826857e+00,-5.15331149e-01, 4.84827089e+00,
  -3.94842792e+00, 2.30702639e+00,-1.39428139e+00, 7.85905540e-01,
   4.93788511e-01,-6.22086227e-01, 4.70465612e+00, 3.61517692e+00,
  -1.54907238e+00, 9.26383686e+00, 3.86435318e+00, 1.20604825e+00,
   2.95864439e+00,-3.01497608e-01,-5.60563803e+00, 1.82755744e+00,
   4.19316292e+00,-4.50881094e-01, 1.76266921e+00,-1.17311442e+00},
 { 8.26026618e-01,-4.86420328e-03, 1.02285920e-02, 2.91149378e-01,
  -4.25610423e-01, 4.88981158e-01, 1.41248301e-01,-7.57037282e-01,
  -3.98343980e-01, 6.07348204e-01,-4.57111865e-01, 1.99783638e-01,
   5.51343970e-02,-1.38153002e-01, 1.69516885e+00,-1.60808936e-01,
   9.57654190e+00, 6.83043659e-01, 3.00902933e-01, 9.96285737e-01,
  -1.04935608e+01, 6.22557998e-01,-4.45292622e-01,-3.79733920e+00,
   1.08790178e+01, 1.19238019e+00,-1.29841596e-01, 1.67066623e-02,
  -3.65350151e+00,-3.90291512e-01, 2.86660266e+00, 1.35250387e+01,
  -1.93974285e+01,-9.22261000e-01, 1.08458900e+00, 3.04455727e-01,
  -1.55220013e-02, 6.95005059e-01, 7.15376318e-01, 1.32434571e-03,
  -5.28272152e+00,-1.41117617e-01, 1.28548309e-01,-6.27219141e-01,
  -1.41183176e+01, 4.53297310e-02, 9.39035490e-02,-5.38848639e-01,
  -1.17750907e+00,-8.08747172e-01, 4.95287001e-01,-4.20148253e-01,
  -8.23652148e-02,-8.65356266e-01,-5.56435995e-02, 1.85969296e+01,
  -1.07755795e+01, 2.87541294e+00, 7.86306381e-01, 1.17268637e-01,
  -1.23763180e+01,-3.22257996e-01, 1.56966674e+00, 3.87737602e-01,
  -3.30321610e-01, 1.43831417e-01, 1.35830927e+00, 2.95945740e+00,
  -5.83457899e+00,-1.03456056e+00,-1.08326174e-01, 4.27688986e-01,
  -6.10961628e+00,-4.17645416e+01, 3.52049500e-01,-6.12299263e-01,
   1.53280497e+00, 1.07224330e-01, 2.06529647e-02, 4.01774496e-01,
   7.20894146e+00, 3.91867347e-02, 2.23915339e+00,-9.02519989e+00,
  -2.37397462e-01,-3.10804814e-01,-7.68131733e+00,-7.97345579e-01,
  -1.71127033e+00,-1.18064845e+00, 5.48134625e-01, 1.05441320e+00,
   5.56039393e-01, 4.34985250e-01, 2.89337672e-02, 1.30481884e-01,
   2.67544806e-01,-1.92663640e-01, 2.01049581e-01, 1.14748323e+00,
  -2.77566648e+00, 2.92060167e-01,-9.09410179e-01, 2.79411525e-01,
   6.51841164e+00, 5.44736433e+00,-5.96580207e-01,-3.32825661e-01,
  -1.56154215e+00,-5.99631388e-03,-5.95817983e-01,-4.14563805e-01,
   2.40106344e-01, 3.21813256e-01,-7.25883245e-01,-1.40059257e+00,
  -6.80129826e-01, 3.70326936e-01,-1.44408598e+01,-2.58801728e-01,
   1.24945617e+00,-1.77859726e+01, 1.51236553e+01, 4.98369128e-01,
   8.15097618e+00,-5.07801580e+00,-2.22101152e-01,-1.33188915e+00},
 {-8.25232565e-02,-2.87149418e-02,-9.09577087e-02,-6.00563139e-02,
  -1.05477452e-01, 1.74744911e-02,-6.30763918e-02,-9.48975161e-02,
  -7.56741986e-02,-6.96654022e-02,-8.56259093e-02,-3.94545086e-02,
  -4.80714180e-02,-4.86644432e-02,-9.12914574e-02,-2.61798240e-02,
  -5.70542216e-02,-6.96542487e-02,-1.45219518e-02,-6.95048273e-02,
  -4.87151109e-02,-5.91206960e-02, 8.83114804e-03, 3.74345295e-02,
   4.43663122e-03,-5.87248243e-02, 7.41122989e-03,-1.32783413e-01,
   5.48393279e-02,-7.68254623e-02,-8.90035927e-02,-1.43215179e-01,
  -8.47432688e-02, 1.08658466e-02,-5.52411713e-02,-4.78448253e-03,
   2.34178756e-03,-1.91183053e-02,-9.46663842e-02,-1.41968668e-01,
  -7.47525692e-02, 4.37573120e-02,-8.67317989e-02,-6.75712302e-02,
   1.63684716e-04,-2.18904167e-02,-2.42793076e-02,-7.06540421e-02,
  -1.03972487e-01, 2.90697664e-02,-1.08943410e-01, 2.39279643e-02,
   2.07497287e-04,-1.12265348e-04,-1.31504282e-01,-2.31477115e-02,
  -8.27246755e-02,-9.55155417e-02,-4.97850105e-02,-6.73938170e-03,
  -1.28241986e-01,-7.77498707e-02, 7.65541792e-02, 2.07300261e-02,
   4.54972908e-02,-1.48569858e-02,-1.43027380e-01,-6.15284219e-02,
  -9.10854042e-02,-3.70822251e-02,-5.18379584e-02, 1.19144665e-02,
   1.45014899e-04,-1.34426847e-01,-6.39920905e-02,-1.05433114e-01,
  -7.52986968e-02, 2.55906414e-02, 2.12532151e-02,-7.01695755e-02,
  -1.11709408e-01, 1.88057031e-02,-1.24420494e-01,-7.05002993e-02,
  -7.40464106e-02, 6.49468452e-02,-1.01928413e-01,-1.01883903e-01,
  -3.76854427e-02, 3.86552606e-03,-6.57845661e-02, 2.11509597e-02,
  -1.97409699e-05, 2.82136984e-02, 5.47349788e-02,-4.37311456e-03,
  -4.91180792e-02,-1.23817502e-02,-3.93348141e-03,-5.54329827e-02,
   4.27616090e-02,-6.94319755e-02,-1.20559923e-01,-1.42336577e-01,
  -1.22299362e-02,-1.06058009e-01,-6.51525259e-02, 9.40370001e-03,
  -8.49748962e-03, 1.67212114e-02, 2.93318066e-03,-8.00360590e-02,
  -7.45814592e-02,-6.30748644e-02,-4.53339219e-02,-1.05269598e-02,
  -1.00603916e-01, 7.19072446e-02,-9.64215249e-02,-1.43065676e-01,
   7.95412511e-02,-7.63548017e-02, 5.85094057e-02, 6.25278577e-02,
  -8.05616751e-02, 3.99634615e-02,-5.37767299e-02,-6.38575554e-02},
 { 5.62421751e+00,-2.01713161e+01,-1.59831536e+00,-6.21569514e-01,
  -2.62187743e+00, 5.46973526e-01, 8.99142265e-01,-2.57019579e-01,
   2.97947121e+00, 3.01471412e-01, 9.73193169e-01, 1.32115126e+00,
   5.11032343e-01, 3.00063753e+00,-6.11219168e+00, 1.59624624e+00,
   1.10793144e-01, 2.96027017e+00, 1.16354716e+00, 1.99905145e+00,
  -1.31535262e-01,-8.90382975e-02,-7.07219839e-01, 4.56162930e-01,
  -8.82607520e-01,-7.88719296e-01,-3.12622309e-01, 3.46102786e+00,
  -1.08203068e+01, 1.84682024e+00, 8.57263505e-02, 8.40842307e-01,
  -8.43139812e-02, 2.68015116e-01,-5.45095682e-01,-2.52204585e+00,
  -2.22100658e+01,-3.71637225e+00, 8.76629725e-02,-2.56976128e+00,
   3.37370753e+00,-1.03457165e+01,-3.23387980e+00, 3.78168344e+00,
   1.26945106e-02, 4.12442505e-01,-2.89037108e-01,-5.16059339e-01,
  -2.14623399e-02, 5.24642989e-02, 2.83815622e-01,-1.64992523e+00,
  -7.57249117e+00, 3.88679671e+00, 7.48086423e-02, 3.87270272e-01,
  -2.38648638e-01, 5.22529697e+00,-7.97884583e-01, 2.45237803e+00,
   5.63471794e-01, 3.64286327e+00, 3.29023719e+00,-1.32388771e-01,
   4.19849336e-01,-1.67716980e-01, 5.80480359e-02, 2.02052578e-01,
   1.44017175e-01, 1.23740220e+00,-1.37006104e+00,-3.31663013e+00,
   1.31558144e+00, 4.60712731e-01, 1.79530120e+00,-1.82770655e-01,
   4.09517527e-01, 2.00357348e-01, 8.91610742e-01, 5.65331399e-01,
  -1.56820238e-01,-1.47702336e+00,-3.41411054e-01, 8.81161541e-02,
   1.90823889e+00,-6.20830011e+00,-9.36956644e-01,-1.11669302e+00,
  -2.04576445e+00, 1.37501335e+00, 5.77041149e+00,-1.11550369e+01,
  -1.51880779e+01, 8.59900266e-02,-1.21066904e+00,-2.13460970e+00,
   2.04939675e+00, 8.63838196e-01,-2.90559292e+00, 5.04864454e-01,
  -3.56043518e-01,-5.59793472e-01, 1.18148732e+00, 5.88313565e-02,
   1.11989751e-01, 1.75908938e-01, 1.21006429e+00,-1.68994844e+00,
   5.99939674e-02,-1.39882371e-01,-5.07237017e-01,-8.28064904e-02,
   1.13739145e+00, 3.07562500e-01,-4.46424186e-02,-3.55454326e-01,
   2.38317728e+00, 4.58180517e-01,-2.79272139e-01, 1.39188218e+00,
  -2.26176888e-01,-4.00602967e-01,-3.57881427e+00,-2.61710048e+00,
  -1.76417410e-01, 3.56154591e-01,-2.67114973e+00, 4.94147837e-01},
 {-2.33395004e+00, 1.61674893e+00, 5.00418842e-01,-2.96310687e+00,
  -3.18271589e+00,-2.28674603e+00,-1.19566190e+00,-6.97983146e-01,
  -2.21284389e+00,-9.05983686e-01,-1.01031196e+00,-2.43139529e+00,
   5.11404648e-02, 2.28217214e-01,-2.46493086e-01, 6.41822278e-01,
   6.90792131e+00,-4.00398159e+00, 9.07174405e-03,-7.35320759e+00,
   2.43972570e-01,-3.04495239e+00, 2.79661632e+00,-1.40238965e+00,
  -7.30928242e-01,-1.70917969e+01,-2.34693557e-01, 1.38950038e+00,
  -2.39521027e+00,-2.40951180e+00, 3.35842133e-01,-1.44214687e+01,
  -7.01634550e+00, 2.14024901e+00,-5.63894796e+00,-3.07447761e-01,
   4.66143847e+00,-4.12631541e-01,-1.84542618e+01, 3.19307894e-01,
  -1.39399731e+00, 4.85408723e-01,-8.47406805e-01, 2.54690021e-01,
  -3.34572172e+00,-1.49515402e+00, 3.02548909e+00, 1.23505557e+00,
   1.88316214e+00, 3.42590749e-01,-3.71610594e+00,-1.86441243e+00,
  -9.40560639e-01, 7.76878023e+00,-7.68101811e-01, 7.14205742e-01,
   7.28186512e+00,-9.14606452e-01,-3.61685410e+01, 2.94932812e-01,
  -8.84980965e+00, 2.66378105e-01,-1.38842607e+00,-1.04130726e+01,
  -1.36098221e-01, 3.31188411e-01, 1.83212197e+00,-3.60716224e-01,
   2.43831664e-01, 1.05892539e+00, 1.10452330e+00, 3.46128368e+00,
  -1.70412846e+01,-2.51569557e+00,-5.10004163e-01, 3.62843895e+00,
   2.48723722e+00, 1.04328799e+00, 4.07501101e-01, 1.42406750e+00,
  -7.16635418e+00,-3.85036469e-02,-3.65591121e+00, 6.94027138e+00,
  -8.47550929e-01, 1.14118874e+00, 5.65573883e+00, 2.79415107e+00,
   3.06912470e+00, 3.12691522e+00,-4.85195041e-01,-3.76468277e+00,
   9.19732273e-01,-1.13088346e+00, 1.24205208e+00, 4.99031544e-01,
  -9.06566501e-01, 4.92016226e-01,-1.13448635e-01,-9.05483365e-01,
   2.37793946e+00,-1.95996070e+00, 3.72577667e+00, 4.80778074e+00,
  -1.06027412e+00, 1.43846714e+00, 3.54111940e-01,-2.48973034e-02,
   2.93038821e+00,-4.10405338e-01,-5.75242519e-01, 2.95422029e+00,
   2.59440958e-01,-1.65473834e-01, 1.69216001e+00,-3.98095250e-01,
   2.47814938e-01,-2.78873158e+00,-1.29417448e+01, 4.34620857e-01,
  -1.51115286e+00,-1.23748951e+01,-3.99614647e-02, 1.04753017e+00,
  -2.33512897e+01, 1.01950111e+01, 7.87656486e-01, 2.22406387e+00},
 {-5.34289598e+00,-9.86501932e-01, 3.18372893e+00, 5.21404076e+00,
   7.42949545e-01,-3.83379579e-01,-1.18242884e+00, 2.42905796e-01,
  -9.54744160e-01,-7.20394030e-02, 8.13774347e-01,-2.18282104e-01,
   1.02739401e-01, 6.29153919e+00,-1.07757368e+01,-4.98610914e-01,
   2.16882274e-01, 4.74549866e+00,-1.35541189e+00, 7.55343962e+00,
  -7.34237656e-02, 4.21634428e-02, 3.25566642e-02,-1.98448628e-01,
  -4.78668183e-01, 1.56806636e+00, 6.45170687e-03, 3.66665053e+00,
   3.43732190e+00,-1.06411684e+00,-1.81988850e-01,-8.29526424e-01,
  -7.71303535e-01,-3.61068457e-01, 1.51803285e-01,-6.84008694e+00,
  -2.17852664e+00,-1.19386327e+00, 2.75616288e+00,-5.22254276e+00,
   1.82930171e+00, 1.01634798e+01, 3.84066552e-01, 5.96504402e+00,
   2.62731224e-01,-8.13334644e-01, 9.60455477e-01, 2.40657258e+00,
  -2.41939425e-01,-3.69909108e-02,-1.64853560e-03,-7.53173256e+00,
  -4.61090326e+00, 4.07902384e+00,-6.65761456e-02,-4.45698023e-01,
   3.48170936e-01,-2.86649561e+00,-1.57904774e-01,-2.08734846e+00,
  -2.01435387e-01, 5.29026604e+00,-7.51548815e+00, 3.53770219e-02,
  -7.91722387e-02, 7.62595475e-01, 1.99282736e-01, 1.06150933e-01,
   1.28799185e-01,-8.17629099e-01, 1.21152401e+00,-3.89000058e-01,
  -8.34669396e-02,-2.07138747e-01,-8.91611993e-01,-2.95056105e-01,
  -2.91494578e-01,-1.02448955e-01, 2.75309777e+00, 2.94201970e-01,
   1.81264713e-01, 3.08792353e+00, 6.03247702e-01, 4.61789668e-02,
   1.82960796e+00, 4.45868790e-01,-6.51170492e-01, 8.13561440e-01,
   1.50443673e+00, 8.38447139e-02, 9.28034604e-01, 5.06578159e+00,
   7.33078241e+00, 1.74667871e+00,-1.57494402e+00, 2.00969815e+00,
   4.16297340e+00,-9.17225182e-01, 3.37824774e+00, 3.12130392e-01,
  -9.69288945e-02,-4.52357006e+00,-2.83617878e+00,-2.36129403e-01,
  -3.66817713e-02,-9.23023745e-02, 1.51143342e-01,-2.15094495e+00,
  -4.27938364e-02,-2.68434919e-03,-4.13143635e+00,-1.65474579e-01,
  -1.31273329e+00,-1.78257763e-01,-9.49223191e-02, 3.51414979e-02,
   4.10818911e+00,-8.18448484e-01, 1.68332830e-01,-9.93876398e-01,
   1.29675984e-01,-1.11450016e-01, 8.66970956e-01, 2.58967485e-02,
   4.92148727e-01,-1.57333389e-01,-7.64763927e+00,-2.41847181e+00},
 {-2.21332598e+00, 3.44511986e+00,-1.91154137e-01,-9.27665997e+00,
   5.15311337e+00,-5.30795574e-01, 1.11503959e+00, 6.89910316e+00,
   9.31582272e-01, 1.64204109e+00,-6.83758450e+00, 3.57279801e+00,
  -4.38548215e-02, 1.03116894e+00, 2.72471595e+00, 1.65761662e+00,
   9.30831528e+00, 1.11363065e+00,-8.40109921e+00, 6.42857313e+00,
   1.56890452e-01,-1.61721081e-01,-2.96637940e+00,-4.13920450e+00,
   3.41518641e-01, 2.82456994e+00,-2.36033225e+00,-5.23685694e-01,
  -8.63572788e+00, 4.19930875e-01,-9.80669379e-01, 1.17730141e+01,
   6.19671345e-01,-1.14408951e+01,-4.99551582e+00, 5.12900352e-01,
  -2.50516701e+00, 6.16515696e-01, 5.84078074e+00, 2.44172955e+00,
   1.89968431e+00,-1.17294228e+00, 4.72612953e+00,-8.56717110e+00,
  -2.54300094e+00,-4.11769390e-01,-4.95599099e-02,-2.54813123e+00,
  -2.42994368e-01,-1.22556245e+00, 5.24995899e+00,-1.31059206e+00,
   3.57488418e+00,-6.35941982e+00, 2.55213070e+00,-4.96420717e+00,
   5.07757759e+00,-4.42476958e-01, 1.76055527e+00, 4.06225872e+00,
  -3.60145259e+00,-3.91170835e+00,-3.80726099e+00,-1.11921263e+00,
   7.06544113e+00, 4.94276333e+00,-1.42260325e+00,-3.42508793e-01,
  -4.48467684e+00,-6.11971235e+00,-1.49587183e+01, 9.42121506e-01,
  -2.69789076e+00,-4.66330767e+00,-2.74703455e+00,-1.58324301e+00,
  -3.61550999e+00,-4.80094528e+00,-2.02771163e+00,-5.31082487e+00,
   1.50304627e+00,-1.75239062e+00, 6.33115482e+00,-2.94188094e+00,
  -4.57841015e+00,-7.04961181e-01, 6.06424236e+00,-6.73469961e-01,
   8.00584435e-01,-5.68042696e-01, 3.35638857e+00, 1.93632674e+00,
   3.00993729e+00,-6.88659382e+00,-3.55400860e-01, 2.08105040e+00,
   4.27716255e+00,-5.63514769e-01,-7.07530558e-01,-1.63770579e-02,
   5.50334883e+00,-1.04464281e+00,-7.33523965e-01,-6.53444958e+00,
  -6.29009783e-01, 4.69801843e-01, 1.14522934e+00,-5.73121500e+00,
   1.67684138e+00, 1.78153372e+00,-3.69170046e+00,-5.68531370e+00,
   4.00267696e+00, 1.21308124e+00,-1.00791454e+00,-3.10841465e+00,
  -7.23388433e-01, 5.95538855e+00,-6.14633501e-01, 6.02250397e-01,
   1.30174839e+00, 8.24810565e-01,-2.76071978e+00,-3.94769847e-01,
   5.27105761e+00,-1.98574162e+01, 1.74720550e+00,-2.98441672e+00},
 {-8.96195948e-01,-2.82287621e+00,-7.86184072e-01,-5.94418347e-01,
  -1.94895816e+00,-3.80044788e-01, 7.50809582e-03,-3.33937979e+00,
  -5.30491233e-01,-2.04077315e+00, 9.64759827e+00,-9.08898890e-01,
   8.84593055e-02,-7.69951224e-01, 3.60200703e-01,-7.05069125e-01,
   1.36015272e+00,-1.08031309e+00, 1.56959102e-01,-4.31450081e+00,
   1.57232785e+00,-2.82408214e+00, 4.95541906e+00,-1.88184917e+00,
  -7.97910166e+00,-2.36019650e+01,-3.46462727e-01, 2.11679310e-01,
   2.49675885e-01,-1.69986928e+00, 5.91562092e-01,-1.01038151e+01,
   1.76022110e+01,-1.11661702e-01,-4.98852777e+00,-1.44923672e-01,
   1.70129883e+00,-1.66039526e-01,-2.92195368e+00,-9.97274891e-02,
   1.49434137e+01, 1.95290491e-01,-8.18471491e-01, 4.88510895e+00,
   3.33109832e+00,-7.66949356e-01,-1.19077854e+01,-3.34345913e+00,
   1.78515697e+00,-4.39729206e-02, 2.86775874e-03, 1.18466043e+00,
  -7.44907737e-01, 1.23120582e+00,-2.57112122e+00, 1.91287315e+00,
  -3.42882901e-01,-2.25312263e-01,-2.46531367e+00,-3.60370427e-01,
   2.43826717e-01, 5.07024705e-01,-3.48399341e-01,-7.63240194e+00,
   5.40713727e-01,-1.24438470e-02, 4.12430334e+00, 1.81337929e+00,
   1.54132378e+00,-4.29151595e-01, 6.62649751e-01,-1.82995796e-01,
   7.41282606e+00, 1.93614495e+00, 1.36598706e-01,-4.64043707e-01,
   8.39257622e+00, 3.44745708e+00,-1.11308813e-01,-3.84617031e-01,
   1.63745952e+00,-3.39690626e-01,-4.28952408e+00, 9.62274015e-01,
   5.38872965e-02, 5.10175645e-01,-1.19135580e+01, 1.94423223e+00,
   2.84440577e-01, 2.15005219e-01,-2.73131341e-01,-1.43389022e+00,
   3.07726532e-01,-5.23033917e-01, 2.08441639e+00,-3.19755435e-01,
  -2.87319005e-01,-1.68647081e-01, 2.21609503e-01, 4.28709364e+00,
  -1.07153177e+01,-4.49195951e-01, 1.55524552e+00, 2.07121420e+00,
   1.57912004e+00, 3.31453729e+00, 7.63789177e-01, 1.15217127e-01,
  -1.31655097e+00, 3.60626650e+00,-1.90984154e+00, 8.58009696e-01,
   3.83280128e-01, 4.08876017e-02,-5.85611224e-01,-1.08706720e-01,
  -6.54490143e-02,-3.64784741e+00, 1.19569521e+01, 3.72144021e-02,
  -3.37483859e+00,-1.17404127e+00,-2.36032218e-01, 7.77724624e-01,
  -1.07967596e+01, 6.66071844e+00, 3.89659643e-01,-5.86529589e+00},
 { 7.89706469e-01, 1.60055470e+00,-1.21320244e-02, 1.43394661e+00,
   1.27772462e+00, 1.53091574e+00, 7.24105299e-01, 3.69652891e+00,
  -1.94601759e-01, 4.15279913e+00,-1.14822559e+01, 2.16317892e+00,
   1.54837638e-01,-1.17123008e+00, 1.82376468e+00, 1.32200420e-01,
  -1.40376258e+00, 1.09969306e+00, 3.32252562e-01, 7.72796249e+00,
   1.58046949e+00, 1.89232960e-01,-5.39545250e+00,-1.37797432e+01,
   7.58416712e-01, 5.59724855e+00,-1.38015079e+00, 1.54994547e-01,
  -2.89840078e+00, 1.26295698e+00,-2.83006430e-01, 5.68784857e+00,
  -7.33930302e+00,-7.84721661e+00, 4.78423691e+00,-3.36638361e-01,
  -2.34479928e+00,-1.25970650e+00, 6.57597661e-01, 2.56756842e-01,
   3.55186129e+00,-1.04552925e+00, 2.27490568e+00,-5.39046144e+00,
  -2.17009854e+00, 8.41193795e-01, 7.04109859e+00,-1.19719636e-02,
  -2.01545048e+00,-3.01035881e+00, 2.09081388e+00,-6.59563243e-01,
   2.05715752e+00,-1.32072849e+01, 3.48550439e+00,-6.08731508e+00,
   4.07949686e+00, 6.31746149e+00, 6.47832513e-01, 4.41248596e-01,
  -4.63464117e+00,-7.46419668e-01, 8.27379990e+00,-5.59555650e-01,
   5.61357200e-01, 2.15648794e+00,-2.32027292e+00,-8.08251143e-01,
  -2.00210238e+00,-1.78285694e+00,-1.45615530e+00, 1.45713341e+00,
  -8.46742058e+00,-1.54460466e+00,-7.19196737e-01,-4.67101187e-01,
  -5.13835144e+00,-3.33885503e+00,-1.17124486e+00, 5.43423891e-01,
   5.04718363e-01, 6.08876981e-02, 5.43361378e+00, 1.55511975e-01,
  -1.68425512e+00,-1.70454371e+00, 1.04472952e+01,-2.76576900e+00,
  -1.22815919e+00,-1.30834830e+00, 2.27978778e+00, 2.97620559e+00,
   1.69803095e+00,-8.54623616e-01,-2.37730455e+00,-1.76818490e+00,
  -4.71139550e-01, 8.26500535e-01, 3.37374136e-02, 1.75343084e+00,
   5.79615211e+00, 1.01901436e+00,-3.00946259e+00,-5.49479198e+00,
  -2.32073188e+00,-1.28848207e+00,-5.44723630e-01,-1.63838947e+00,
   2.20796490e+00, 3.15757692e-01,-1.35814816e-01,-7.15090370e+00,
  -1.19069600e+00, 8.16569746e-01, 1.00316525e+00,-3.24598622e+00,
  -3.84477258e-01, 5.82724285e+00, 6.10939693e+00, 1.05807936e+00,
   2.32642865e+00, 2.16402125e+00,-3.34067988e+00,-1.10216355e+00,
   1.22294521e+01,-5.40760422e+00, 1.52617896e+00,-1.43555129e+00},
 { 1.04144084e+00, 4.84029174e-01,-3.80059421e-01,-7.74925232e-01,
  -1.04184258e+00,-1.02961373e+00,-1.00628006e+00, 1.33271694e+01,
  -4.01082188e-01,-8.30729580e+00, 9.53096581e+00,-8.40341449e-01,
  -4.91273627e-02,-1.28951180e+00, 3.61097872e-01, 1.64762330e+00,
   8.12375471e-02,-4.24172997e-01,-2.68051565e-01,-2.49022269e+00,
   8.36064100e-01, 8.48853588e-01,-2.87051499e-01,-2.89105344e+00,
   6.05574489e-01,-7.97914553e+00, 9.77296412e-01, 7.54393041e-01,
   2.39656031e-01, 1.15546024e+00,-4.19813901e-01, 1.03165445e+01,
   3.68481112e+00,-1.75073540e+00,-8.67710728e-03,-7.66492542e-03,
  -5.38957059e-01, 1.25378942e+00,-3.05686921e-01, 6.94891661e-02,
   1.12055054e+01,-3.86817515e-01,-2.06884697e-01, 1.88069856e+00,
  -4.38316679e+00,-1.05215810e-01,-5.97228146e+00,-1.44668746e+00,
  -1.13057208e+00, 1.21514785e+00,-8.09832394e-01, 1.21894903e-01,
   4.93137300e-01, 1.88520598e+00,-2.77866573e+01,-7.95273721e-01,
  -2.98702121e+00, 8.04015100e-01, 3.90494037e+00, 8.30177888e-02,
  -7.80266464e-01, 4.85714048e-01, 3.45407081e+00,-2.85415101e+00,
  -6.89587414e-01,-6.50494397e-01,-2.78593707e+00,-8.93261373e-01,
  -4.43192053e+00,-6.05993450e-01, 8.26812088e-01, 5.73048592e-01,
  -1.49567890e+00,-1.64498687e+00, 3.72454464e-01,-1.95200098e+00,
  -4.58035231e+00,-6.49595213e+00, 8.14612567e-01, 1.61449865e-01,
  -4.44628143e+00, 6.97005272e-01, 7.46267557e+00,-1.65919819e+01,
   1.57681927e-01, 1.06990552e+00,-8.88331127e+00,-2.59480238e-01,
  -2.11568579e-01, 5.27243353e-02,-9.29477215e-01,-3.09801817e-01,
   6.91392422e-01,-2.85095483e-01, 5.13069890e-03, 3.80553454e-01,
   1.11594453e-01,-2.26558179e-01, 4.97607440e-02, 2.69034004e+00,
   4.42265415e+00,-1.97211042e-01, 5.73942184e-01,-1.08338871e+01,
  -1.32872844e+00, 9.97535467e-01,-2.84696519e-01, 1.02739441e+00,
   8.96045625e-01, 1.42393553e+00, 3.40944678e-01, 5.04787064e+00,
  -2.38729745e-01,-2.57790625e-01, 8.79258960e-02, 8.30940819e+00,
   4.59420770e-01, 2.87601328e+00, 4.27211380e+00,-6.48823857e-01,
  -2.67722988e+00,-6.62293196e-01,-7.67021513e+00, 6.45598024e-02,
   1.21768637e+01,-6.49287605e+00,-3.52905802e-02,-1.02708304e+00},
 { 3.52511853e-01,-3.91569519e+00,-8.83145392e-01,-5.21575928e+00,
  -2.04985213e+00,-3.68459344e+00,-4.73625422e+00,-1.41069877e+00,
   4.65311003e+00,-3.88329029e+00, 6.01998043e+00,-1.88358736e+00,
  -9.86380801e-02,-2.13584208e+00,-6.28173971e+00,-2.83937025e+00,
   2.39456251e-01, 1.37298739e+00, 2.62214923e+00,-8.62797737e+00,
  -1.77843347e-01,-6.20343804e-01, 1.96185207e+00, 3.67714787e+00,
  -9.23553705e-02,-2.83356357e+00,-3.86888051e+00,-3.90311432e+01,
  -3.18271011e-01,-1.50822198e+00, 2.65622616e-01,-2.09576201e+00,
   9.13663268e-01,-1.64826882e+00,-7.18668842e+00, 3.31738663e+00,
   5.45145178e+00, 3.03466797e+00,-8.95537090e+00,-1.60739779e+00,
   1.85040748e+00,-1.13323562e-01,-1.10432696e+00, 2.06262755e+00,
   1.90997660e+00, 1.96162260e+00,-2.32616615e+00, 2.09170088e-01,
   2.98201799e-01, 1.65452850e+00, 1.25554633e+00,-1.13995829e+01,
  -4.10905719e-01,-2.43756437e+00, 3.55290979e-01, 1.41335726e+00,
  -2.11657262e+00, 1.11428509e+01,-8.63103271e-01,-1.22013557e+00,
   2.72065711e+00,-4.60677338e+00, 3.44343472e+00,-5.92374146e-01,
  -3.44332147e+00, 1.48295134e-01, 8.28461945e-01,-2.76106149e-01,
   1.51426315e+00,-6.54635572e+00, 9.89487946e-01,-8.95104647e-01,
   1.96130931e+00,-3.67090911e-01,-2.36982051e-02,-4.95356709e-01,
   1.02084017e+00, 1.13997853e+00, 1.77647781e+00,-3.80989385e+00,
  -3.49118501e-01, 3.95747602e-01,-3.09193134e+00, 3.53395224e-01,
  -2.01029181e+00,-2.07883048e+00,-4.43409014e+00,-3.08800716e+01,
  -3.53348780e+00, 2.34426260e+00,-1.89449644e+00, 1.87045038e-01,
   7.27129745e+00, 1.12699842e+00, 2.63329601e+00, 9.79148567e-01,
  -1.32301979e+01, 3.57520998e-01, 2.04518366e+00, 1.07568073e+00,
  -2.80766201e+00,-3.50010991e-01, 4.25434494e+00, 6.33730948e-01,
  -2.20083460e-01, 4.77478772e-01,-1.47200882e+00, 1.22327986e+01,
  -1.32602274e+00,-6.12950265e-01, 4.34980249e+00, 3.89304256e+00,
   3.75415981e-02,-1.40404022e+00,-1.21431613e+00, 3.42243361e+00,
  -1.87853381e-01,-2.58736312e-01, 3.11832488e-01, 9.79877487e-02,
  -2.98749232e+00,-1.68279573e-01,-1.26403272e+00,-2.66909695e+00,
  -4.61647415e+00, 2.90910482e+00, 1.47787273e-01, 1.66274142e+00},
 {-1.57403667e-02, 2.06520725e-02,-3.80694084e-02, 6.10660091e-02,
  -1.75494968e-03,-1.15204804e-01,-6.06799163e-02,-2.10592151e-02,
  -9.90108997e-02,-1.28584430e-01, 4.96463403e-02,-1.12246219e-02,
   1.12586990e-02,-3.46619859e-02,-2.61740573e-02,-1.13073867e-02,
   1.32764280e-02,-4.80784662e-02,-3.12068556e-02, 5.77537983e-04,
  -1.18877344e-01, 4.22547646e-02,-1.55947991e-02,-1.52916536e-02,
   8.30972865e-02,-1.51416473e-02,-9.27836001e-02,-1.34381428e-01,
   8.63770780e-04, 5.03981151e-02,-3.69239226e-02,-3.18574160e-02,
   1.47017082e-02,-3.64948511e-02, 4.63433415e-02,-1.10031836e-01,
  -3.10024396e-02,-5.09717204e-02,-8.83770660e-02,-1.23460531e-01,
   3.28487866e-02, 2.72809863e-02,-4.88883816e-02,-1.02081504e-02,
  -8.30566734e-02,-1.80806935e-01,-6.71281293e-02,-1.63239062e-01,
  -1.41681343e-01,-6.72010928e-02,-7.88929611e-02,-1.79986935e-02,
  -9.83687192e-02, 3.12537551e-02,-1.56761840e-01,-1.17030151e-01,
  -7.54461065e-02, 2.10381020e-02,-5.71939396e-03,-6.94671571e-02,
  -9.99827520e-04,-1.11769378e-01,-3.38304192e-02,-7.44927973e-02,
  -6.52184105e-03,-1.47066772e-01,-1.04362719e-01,-3.06122620e-02,
  -1.14832176e-02,-9.85003356e-03,-3.82120647e-02,-5.81798479e-02,
  -3.86110730e-02,-1.27060562e-01,-7.98950270e-02,-8.50838944e-02,
  -1.63236916e-01,-1.11513242e-01,-6.70405254e-02,-3.98164131e-02,
  -8.85106921e-02,-5.62841147e-02,-1.09953053e-01,-2.89247688e-02,
  -6.47685155e-02, 1.53928166e-02,-7.17992932e-02,-1.37044534e-01,
  -1.05224408e-01,-1.64767995e-01,-3.09988614e-02,-3.56341526e-02,
   2.23982241e-02,-1.06131554e-01, 9.88041908e-02,-3.27008851e-02,
  -1.01297081e-01, 1.77992228e-02,-4.74047475e-02,-1.13917202e-01,
  -7.20027611e-02,-2.80283447e-02,-1.69350445e-01,-4.93764319e-02,
   1.32860318e-02,-8.42471570e-02,-9.62307006e-02,-5.66334985e-02,
  -8.07824880e-02, 2.01376043e-02,-1.32894918e-01,-7.47270212e-02,
  -2.12231185e-02,-7.76835829e-02,-4.74060141e-02,-1.71786040e-01,
   1.89548486e-03,-1.72504429e-02,-5.65918870e-02,-1.10921271e-01,
  -2.73462720e-02,-9.34957433e-03,-8.15145299e-02,-2.29017027e-02,
  -1.21409900e-01,-2.37273529e-01,-4.69806530e-02, 1.62653737e-02},
 {-6.15458906e-01,-2.04550314e+00,-2.16659918e-01,-1.42506683e+00,
  -6.47279918e-01,-2.03726387e+00,-2.54305869e-01,-4.69912863e+00,
  -1.48466468e-01,-5.07384443e+00, 1.24777184e+01,-1.72877833e-01,
   2.24858329e-01,-1.25848293e+00, 1.18218136e+00,-1.05798125e+00,
   3.02019268e-02, 3.74078465e+00, 1.44163802e-01,-5.37350368e+00,
   1.16467917e+00,-2.79821134e+00, 4.08535862e+00, 1.09310265e+01,
  -4.56658602e+00,-3.10605164e+01,-9.88095999e-02, 7.15414464e-01,
   3.11229873e+00,-2.60293317e+00, 1.41797364e+00, 8.58066273e+00,
  -1.12877617e+01, 5.79526949e+00,-6.37838793e+00,-5.71340084e-01,
  -1.61084127e+00,-1.84316739e-01,-9.53195477e+00,-9.20909122e-02,
  -2.44078851e+00,-3.73784378e-02,-5.86304486e-01, 5.86610365e+00,
   5.03081703e+00,-3.11344099e+00,-4.79013596e+01,-2.62895012e+00,
   1.28047061e+00, 1.58883417e+00,-2.10838842e+00,-2.09642172e+00,
  -1.90675390e+00, 1.37529743e+00, 7.20941663e-01, 1.74010527e+00,
  -4.04981518e+00,-4.11868691e-01, 2.38337255e+00, 6.02478147e-01,
   8.00579453e+00, 1.99856687e+00,-4.04944277e+00,-1.42542708e+00,
   5.66663593e-02, 3.49240273e-01, 4.10496187e+00, 6.46284461e-01,
  -1.25184691e+00, 6.68090165e-01, 2.08598995e+00, 3.69948265e-03,
   1.16079121e+01, 8.48550200e-01,-1.00119554e-01, 2.76235986e+00,
   7.49928236e+00, 3.01175690e+00, 9.29802418e-01, 1.67702124e-01,
  -1.37621665e+00, 1.43767262e+00,-1.04544802e+01,-8.71154606e-01,
  -1.73542164e-02,-2.03511417e-01,-1.19723139e+01, 1.75779974e+00,
   1.44839060e+00, 6.88817799e-02,-1.99742532e+00,-1.56420779e+00,
  -4.81658489e-01, 1.16392422e+00, 6.42870367e-01, 6.67693496e-01,
   2.22465515e-01, 3.71317565e-02, 1.98085401e-02,-3.17869857e-02,
  -8.96274567e+00,-2.14509606e+00, 1.75686336e+00, 1.16278362e+00,
   8.69382918e-01, 2.45533645e-01, 4.69326466e-01, 9.50750709e-02,
  -1.76361239e+00, 7.51061201e-01,-3.66899943e+00, 4.98841095e+00,
   2.03199673e+00,-2.25043297e+00,-2.65411091e+00, 2.45215583e+00,
   5.76673508e-01,-1.07692611e+00,-4.58928251e+00, 2.56489158e-01,
  -4.19696188e+00,-2.32663655e+00, 1.03315134e+01, 1.86017668e+00,
  -1.16862059e+01, 7.38103390e+00, 2.71722555e+00,-1.92585707e+00},
 {-1.15148640e+01,-8.78320098e-01, 3.75092387e+00,-2.38890219e+00,
   3.42477345e+00,-5.01354694e-01, 3.80096138e-01, 1.59405255e+00,
   2.17982316e+00, 1.08850682e+00,-1.97204661e+00, 1.31941118e+01,
  -2.52167851e-01, 5.21974707e+00,-3.18677235e+00, 9.09859562e+00,
   3.45532030e-01,-4.14588013e+01,-9.49206412e-01, 4.00008392e+00,
   1.35432291e+00, 9.02274132e-01,-1.15350876e+01,-1.40889192e+00,
   3.16948146e-01, 6.76390886e+00,-6.95024490e+00,-5.13123741e+01,
  -8.09244275e-01, 1.28255829e-01,-2.26602733e-01, 6.89256310e-01,
  -6.75305054e-02, 1.00002422e+01, 1.08836803e+01, 1.21768820e+00,
   2.11443257e+00,-4.16560698e+00,-1.12873363e+01, 5.31560469e+00,
   2.58440375e+00,-1.05887671e+01,-1.50887680e+01,-4.35179502e-01,
  -3.80999160e+00, 7.66280293e-02,-3.00832123e-01,-5.69212615e-01,
  -9.29798603e-01,-3.04749072e-01,-2.31714988e+00,-3.34472008e+01,
   7.52573013e-01,-1.44663677e+01, 8.11545372e-01,-7.82302737e-01,
   8.51891518e-01, 8.56485271e+00, 1.12423921e+00, 1.68828416e+00,
  -2.81608272e+00, 4.53903151e+00,-5.17330587e-01, 6.96054816e-01,
   5.09944391e+00, 1.95487385e+01, 4.29973483e-01, 2.25084070e-02,
  -1.08670032e+00,-3.77309837e+01,-3.36861014e-01,-9.04737377e+00,
  -3.55932426e+00,-3.72820109e-01,-6.77521133e+00, 3.35428983e-01,
  -2.85665059e+00,-1.38591075e+00, 7.65772164e-01, 8.23052466e-01,
  -4.51426595e-01, 3.54046321e+00, 4.87712288e+00, 4.33776170e-01,
  -1.62189782e-01, 9.73768711e-01, 2.09499335e+00, 2.03104353e+00,
  -1.63571489e+00,-4.59538078e+00, 1.25091112e+00,-3.59518766e+00,
  -1.04712227e+02,-5.64336967e+00,-3.54010463e-01,-2.63915598e-01,
   2.80957669e-01,-6.38055277e+00,-2.29438329e+00,-9.96211052e-01,
   3.52813029e+00, 1.61071256e-01,-8.20944831e-03,-8.03296089e-01,
  -7.46245980e-01,-5.05123258e-01, 1.82647324e+00,-5.81440806e-01,
   8.39042902e-01, 7.76984751e-01, 2.29393649e+00,-5.24564624e-01,
  -1.58220065e+00,-4.44728231e+00, 1.83455810e-01,-2.92364925e-01,
  -1.68333316e+00, 1.81347430e+00, 7.42553920e-02,-4.56670237e+00,
   1.45934260e+00, 6.29791439e-01,-3.44535160e+00, 1.14925737e-02,
   3.36685443e+00,-1.67620611e+00,-6.01051712e+00,-2.19384718e+00},
 { 4.80373651e-01, 2.49627471e+00, 6.47076726e-01, 2.66439706e-01,
   6.97415769e-01, 3.59666288e-01, 3.37867625e-02, 2.49720383e+00,
   3.41863126e-01, 2.01639056e+00,-1.57373571e+00, 6.50722325e-01,
  -2.25688573e-02, 4.85375702e-01,-2.71574110e-01, 3.76150519e-01,
   2.50173283e+00, 5.50522387e-01,-1.92010686e-01, 2.59588623e+00,
  -4.09659803e-01, 2.35457277e+00,-3.10273337e+00,-9.36309433e+00,
   7.63531542e+00, 1.32782653e-01, 1.83415964e-01,-1.79527700e-01,
  -1.12924092e-01, 9.88956511e-01,-7.60821939e-01,-4.42309237e+00,
  -7.45151949e+00, 2.27168668e-02, 3.22648430e+00, 9.51215997e-02,
   5.19111490e+00,-1.00392252e-01, 1.19726086e+00, 6.28932044e-02,
   1.75605602e+01,-1.02487519e-01, 2.43018314e-01,-3.18038344e+00,
  -3.97854829e+00, 5.21975398e-01, 1.15031681e+01, 1.53245103e+00,
  -1.62302291e+00,-1.68419883e-01,-5.31215109e-02,-6.63729310e-01,
   3.40514302e-01,-9.13560569e-01, 2.17116714e+00,-1.80837309e+00,
   1.01835895e+00, 1.82866529e-01, 8.82105064e+00, 2.22862780e-01,
  -3.22036409e+00,-1.05936229e-01, 3.95948958e+00,-1.07108030e+01,
  -3.34485203e-01,-5.53149953e-02,-1.18354630e+00,-7.29512095e-01,
  -1.63118875e+00, 2.26308137e-01,-4.34817761e-01, 2.03622989e-02,
  -9.41924667e+00,-1.33457577e+00,-8.19151551e-02, 4.77019727e-01,
  -6.53205729e+00,-2.70343637e+00, 1.05442174e-01, 2.61521250e-01,
  -9.71266031e-01, 2.46615380e-01, 3.13682342e+00,-1.22162890e+00,
   4.73231412e-02,-4.20908958e-01, 7.05198097e+00,-1.13961971e+00,
  -2.69556731e-01,-1.00700535e-01,-1.63254172e-01, 1.03687274e+00,
  -3.62221450e-01, 3.91692072e-01,-1.23058915e+00, 3.17936152e-01,
   2.14778647e-01, 1.62954330e-01,-1.42228171e-01, 6.49292421e+00,
   8.27384281e+00, 2.56247938e-01,-1.09200501e+00,-1.61859727e+00,
   2.36765505e-03,-2.13669658e+00,-2.68527240e-01,-1.95354342e-01,
   1.16916931e+00,-2.95518899e+00, 1.23111713e+00,-6.90197825e-01,
  -3.11551213e-01,-9.99052078e-02, 4.79509592e-01,-2.69009233e-01,
   6.93303049e-02, 3.98937058e+00,-2.61273289e+00,-7.71711171e-02,
   2.68004227e+00, 4.46974897e+00, 2.03541565e+00,-6.89347744e-01,
  -1.10843703e-01,-5.79756451e+00,-1.08361416e-01, 3.98221660e+00},
 {-8.86401594e-01, 5.09620047e+00, 2.88710952e+00, 5.78297138e+00,
  -1.47543657e+00,-2.71284604e+00, 4.00015688e+00,-2.67848492e+00,
  -3.76427084e-01,-6.21137047e+00, 7.12730217e+00,-2.06767483e+01,
   1.12711310e-01,-7.74787188e-01, 9.83332157e+00,-2.95050406e+00,
  -6.83956146e-01, 2.55256939e+00, 1.74646711e+00,-1.01412344e+01,
   2.27344856e-01,-1.03598571e+00, 2.76772285e+00, 6.86142969e+00,
   1.74786031e-01, 3.84057090e-02, 4.45282310e-01, 7.53859043e-01,
  -2.54579973e+00,-4.84991980e+00, 1.86204165e-01,-2.74427271e+00,
   3.84882760e+00,-4.90431690e+00,-5.59018672e-01, 2.17586803e+00,
   4.32199866e-01, 4.11318350e+00,-2.94297504e+00,-6.49975657e-01,
   1.48039579e+00,-4.29603529e+00,-4.66258478e+00, 4.58169842e+00,
   2.18864059e+00, 1.14841855e+00,-3.86733127e+00, 1.51289749e+00,
   4.10771072e-01, 2.72035980e+00,-2.59840631e+00,-6.69228125e+00,
   6.25154793e-01, 1.74655169e-01, 1.67876422e-01, 3.01574969e+00,
  -4.61901903e+00, 1.53420124e+01, 5.75397946e-02, 1.47649813e+00,
   4.49032068e+00, 3.72333908e+00, 9.97018874e-01,-1.28553784e+00,
   2.98110038e-01, 2.26788449e+00, 1.50080919e+00,-7.93352351e-02,
   1.38223088e+00,-4.60392427e+00, 1.11440587e+00,-1.59413159e+00,
   3.16450477e+00,-6.53549016e-01, 1.88787317e+00,-1.03612506e+00,
   2.72598314e+00, 2.12107158e+00, 1.21659386e+00, 2.11406898e+00,
  -5.32403469e-01, 1.42884779e+00,-6.32948875e+00, 1.03477693e+00,
  -5.08241224e+00, 3.20386553e+00,-6.05850267e+00, 6.07257605e+00,
   2.27380848e+00,-2.23735809e-01, 2.80588007e+00,-1.08591824e+01,
   2.79900670e+00, 4.02385998e+00, 3.89846420e+00,-5.04440784e+00,
  -8.37019634e+00,-1.70094073e-01,-2.09255427e-01, 1.35766912e+00,
  -4.73486948e+00,-1.28145325e+00,-5.05407143e+00, 1.39792037e+00,
  -3.05903971e-01, 1.14627182e+00,-1.92146945e+00,-1.38604939e+00,
  -2.11534071e+00,-8.69656861e-01, 8.24149251e-01, 5.95166159e+00,
   2.39446148e-01,-1.61888866e+01,-1.54572487e+00, 5.28047514e+00,
  -3.81548548e+00,-9.67921793e-01, 7.59394467e-01,-1.52207589e+00,
  -4.39302158e+00,-5.80796361e-01,-1.75316751e-01, 1.20645225e+00,
  -6.84013891e+00, 3.11057734e+00, 6.54538298e+00, 1.12720609e+00},
 {-3.19370556e+00,-3.74204707e+00,-2.34763670e+00, 2.38056612e+00,
  -2.40440536e+00, 2.54171908e-01, 3.29138786e-02,-4.16154295e-01,
  -3.74321461e+00,-3.27739686e-01, 1.16409624e+00,-3.00738788e+00,
  -1.64107412e-01,-1.51308317e+01, 4.04431438e+00,-5.97862720e+00,
   1.25175640e-01, 9.26029742e-01, 3.77888203e-01, 3.13229465e+00,
  -6.07452691e-02,-1.80244207e-01, 1.22441697e+00, 7.24174440e-01,
  -2.11001247e-01,-7.31859112e+00, 2.75839716e-01, 1.43342316e+00,
   1.12020183e+00,-1.83985367e-01, 6.84452727e-02, 1.72370982e+00,
  -7.77534962e-01,-9.59406948e+00,-1.22134895e+01,-1.71776938e+00,
  -7.06851661e-01, 3.73152351e+00,-3.32002020e+00,-3.75215507e+00,
  -5.06726444e-01, 7.64584398e+00,-9.04529333e-01, 1.09142947e+00,
   5.09362757e-01, 8.86691451e-01, 4.21735674e-01,-1.03118813e+00,
   2.27289945e-01,-6.02716580e-03, 1.78675294e+00,-1.11290729e+00,
  -5.46878688e-02, 1.07020271e+00,-2.06440804e-03, 2.05004528e-01,
   1.76373050e-02, 1.34630194e+01, 8.17851424e-02,-2.09456158e+00,
   7.37435460e-01,-4.51855516e+00,-4.65151548e+00, 8.77146721e-02,
  -5.46221972e-01, 3.31849647e+00, 2.13350490e-01, 7.10036680e-02,
   1.60874009e-01, 9.71906930e-02,-7.61040688e-01, 6.55031443e+00,
   1.34491992e+00, 1.06453232e-01,-9.81406593e+00,-2.69472182e-01,
   7.71498382e-01, 3.05655658e-01, 8.19321215e-01,-1.39972246e+00,
   2.26606578e-01,-6.31499767e-01,-1.37789416e+00, 2.48148412e-01,
  -9.00597036e-01,-2.93404073e-01,-1.08353579e+00,-6.56234121e+00,
   1.37682045e+00,-2.72993827e+00,-3.61320281e+00,-3.22345495e-01,
  -8.05145073e+00,-6.79455614e+00,-6.42170727e-01, 5.59839070e-01,
   5.59561129e-04, 5.40492010e+00, 3.57194757e+00, 9.45093706e-02,
  -1.09300661e+00, 4.89952147e-01,-8.42233777e-01, 1.37384608e-01,
   1.85275793e-01, 2.27666482e-01,-5.68386917e+01,-1.78336188e-01,
  -1.54832259e-01,-1.69211105e-01,-6.54096484e-01, 3.27403903e-01,
   1.87982404e+00, 2.84224927e-01,-1.62613198e-01, 9.31816101e-02,
   3.67965639e-01,-1.94025308e-01, 7.83269465e-01, 5.64324999e+00,
  -5.09418845e-01, 1.44965732e-02,-3.24304700e+00,-3.71999770e-01,
  -1.22733021e+00, 6.20144308e-01,-8.16078949e+00, 1.60240149e+00}};

const float b2[sz_hid_2] = { -0.75515795, -5.059152  , -0.1340646 ,-18.316492  , -7.214859  ,
  -0.33253664, -6.403752  ,  4.7685266 , -6.8742137 , -6.1090612 ,
 -12.505731  , -4.85453   , -0.65689933, -4.4277425 , -4.577683  ,
  11.873547  ,  6.1676626 , -0.09717963, -2.3606749 ,-14.477338  ,
 -12.1741085 , -6.2302456 , -1.844051  , -4.6785116 ,  9.500712  ,
  -6.314555  , -0.12500592,  1.3421447 ,  0.59705925,  0.20295855,
  -9.252537  , -3.8128505 };

const float w3[sz_act][sz_hid_2] = {{-1.9983165e-03, 9.9906370e-02, 7.0031606e-02,-7.6046991e-03,
   7.7196951e-03,-8.7108277e-03, 6.5573752e-02,-1.1878250e+00,
   2.9900862e-02,-1.2424538e-02,-1.3167594e-01, 3.0326338e-03,
  -5.3937766e-03,-9.2698030e-02, 5.3765405e-02, 1.0242442e+00,
  -1.6127533e-01,-5.9291448e-02,-3.4964699e-04, 1.3972983e-01,
   1.2187378e-03, 2.4224643e-01, 6.8993390e-02,-1.5448236e-01,
   1.2500778e-01, 6.6123172e-03, 9.7567558e-02, 3.1434602e-01,
   9.4663883e-03,-6.3843228e-02,-9.7389640e-03,-1.9923984e-03},
 {-1.1928138e-01,-6.8224443e-04, 1.1392152e-01,-3.0103952e-01,
   1.1705183e-01,-8.6653195e-02, 2.7183095e-01, 6.8998160e-03,
  -2.1030451e-01,-2.6497221e-01, 1.3785156e-03,-8.2449250e-02,
  -1.1025913e-01,-3.4556673e-03, 1.5308517e-01,-8.3907414e-03,
  -6.5641627e-03,-1.3697864e-01,-7.5003646e-02, 8.5388817e-04,
   1.2558952e-01,-6.8749734e-03,-4.1210226e-04,-1.6403267e-03,
  -9.8218690e-05,-1.5456359e-01,-2.2525674e-02, 9.4325404e-04,
  -8.1617400e-02, 3.3725007e-03, 1.4394592e-01, 1.4544128e-01}};

const float b3[sz_act] = {0.01166273,0.24758519};

