const float w1[sz_hid_1][sz_obs] = {{-1.75298119e+00,-1.22359216e+00,-4.71425152e+00,-2.59433240e-02,
   8.85908604e-02,-1.89954545e-02, 6.11927223e+00,-4.60296236e-02,
   1.02909580e-02},
 { 7.19524547e-03,-1.07537676e-03, 1.81677982e-01,-1.32570624e+00,
  -3.69408083e+00, 3.72649044e-01,-2.06306558e-02, 3.00874567e+00,
   2.27448698e-02},
 {-1.19500689e-03, 1.21035315e-02, 7.83202127e-02,-7.70630967e-03,
  -2.90211439e+00, 4.35384542e-01, 1.54709248e-02,-7.30552959e+00,
   6.34310767e-03},
 { 1.52700273e-02, 4.42699417e-02, 5.17832488e-02,-1.26955783e+00,
   2.37028763e-01,-1.06546581e+00,-4.75803167e-02, 2.89447713e+00,
  -3.70985940e-02},
 {-3.54122184e-02,-3.86716872e-02,-7.90330946e-01, 2.92577386e+00,
   9.03927088e-01,-9.46495712e-01,-1.23785064e-02,-1.34202623e+00,
   2.80765629e+00},
 {-3.25836875e-02,-5.07766977e-02, 9.64256644e-01,-2.02770367e-01,
  -1.87648499e+00,-4.29329872e-01, 1.62546872e-03,-6.81608248e+00,
  -1.69641769e+00},
 {-4.46131051e-01, 2.91731453e+00,-3.95340919e+00,-9.73999739e-01,
   2.08634332e-01, 1.81620836e-01, 4.64008665e+00, 2.83614665e-01,
  -3.26009721e-01},
 { 3.20556235e+00, 1.79658484e+00,-2.99104595e+00, 4.84448718e-03,
   6.27767434e-03,-5.90754300e-02, 9.74419117e+00,-9.50701535e-03,
  -1.76299480e-04},
 { 2.27414355e-01,-3.96660900e+00, 4.58581495e+00, 1.75541006e-02,
  -7.03521119e-03,-5.14099374e-02,-7.91958857e+00,-9.12939385e-03,
  -1.16891330e-02},
 { 1.45934939e-01, 3.67022443e+00,-9.08998966e-01, 1.66988019e-02,
   2.26657167e-02, 1.15268074e-01,-4.02086139e-01,-3.30243595e-02,
   7.35915825e-03},
 {-3.91181279e-03,-1.13036549e-02,-4.46120873e-02,-4.98701602e-01,
  -2.59988618e+00,-7.96572685e-01,-1.35416095e-03, 5.57860851e+00,
   9.24117118e-03},
 { 1.72360075e+00,-2.28276443e+00,-4.81341362e+00,-3.24891537e-01,
  -1.70279968e+00, 1.16035398e-02, 4.85557222e+00, 6.59670234e-01,
  -2.53992629e+00},
 {-8.93584732e-03,-6.66413084e-03,-5.84891081e-01, 2.47059226e+00,
  -2.33452082e-01, 7.82671881e+00, 2.32345667e-02,-6.12297201e+00,
   1.68235414e-02},
 { 2.85618782e+00, 3.07529855e+00,-2.53774929e+00, 2.31021009e-02,
  -6.40415624e-02, 2.98419371e-02, 8.61780739e+00, 8.92008990e-02,
  -4.22577746e-02},
 { 7.46974468e-01,-2.74158597e+00, 3.45724130e+00,-8.63516554e-02,
   2.04476379e-02,-2.64683306e-01,-6.58064508e+00, 3.57329808e-02,
  -5.50561845e-02},
 { 1.31107410e-02,-1.22775927e-01,-5.71324587e-01, 2.29767275e+00,
  -3.12489319e+00, 2.12748915e-01, 1.38923645e-01, 4.73098898e+00,
  -2.26734543e+00},
 {-1.80860326e-01,-1.56564415e-01, 5.06680155e+00, 1.09117277e-01,
  -3.07977200e+00, 2.28727770e+00, 1.44605845e-01,-2.31633976e-01,
  -3.92998457e+00},
 {-1.14974752e-01,-4.30674516e-02,-1.85082150e+00, 3.70511985e+00,
   3.39193940e-01,-1.66403615e+00,-4.98358458e-02, 7.23363113e+00,
   1.52647984e+00},
 {-1.71308649e+00,-1.13107443e+00, 2.72560024e+00,-3.06122266e-02,
   9.16946530e-02,-1.27794500e-02,-3.36291456e+00, 5.17110005e-02,
   1.45998979e-02},
 { 5.40902372e-03, 5.19412565e+00, 2.87931514e+00, 8.18904582e-03,
   3.79808620e-02, 2.31485460e-02,-5.82280684e+00,-1.40683923e-03,
  -2.61870748e-03},
 {-2.47200057e-02,-7.97398910e-02,-7.34646797e-01, 2.40153861e+00,
   1.35775852e+00,-1.37815416e+00, 9.28972289e-02,-3.87902498e+00,
  -3.31551528e+00},
 {-5.86795900e-03,-1.99163891e-03,-7.68052399e-01, 4.32083368e+00,
   6.60564125e-01, 1.04497504e+00, 1.95972677e-02,-5.90066195e-01,
  -2.94036126e+00},
 { 6.34211779e-01, 7.71696210e-01,-6.42861080e+00,-6.14899993e-01,
   3.55151606e+00, 1.13800335e+00, 2.91194987e+00, 9.43607911e-02,
  -1.26176214e+00},
 { 1.28532910e+00, 3.27516556e-01,-2.13004872e-01, 4.16698009e-01,
   3.44574116e-02,-1.52842440e-02, 3.58213449e+00, 1.40228796e+00,
  -3.69846535e+00},
 { 3.76744270e-02,-2.16379073e-02, 4.97281939e-01,-1.64034843e+00,
  -7.22267091e-01,-2.58995605e+00, 3.93934436e-02, 1.08827031e+00,
   2.69543886e+00},
 { 6.05649576e-02, 1.18366115e-01, 2.83444309e+00, 4.09415483e+00,
   1.86719418e+00,-1.61955726e+00, 1.62799329e-01,-1.28041160e+00,
   2.66898775e+00},
 { 5.02052498e+00, 3.28863382e+00, 1.97990370e+00, 2.83669773e-02,
  -8.42257403e-04,-1.18152453e-02,-7.53598452e+00,-6.02889247e-03,
  -3.49988639e-02},
 {-3.33258323e-02, 6.10340200e-03,-1.17930770e+00, 1.34987712e-01,
  -2.60091448e+00,-3.08743030e-01, 8.63112658e-02, 5.32112539e-01,
   3.40288997e+00},
 { 2.19059989e-01,-2.13968325e-02,-1.24405899e+01, 7.84124772e-04,
  -7.06770122e-02,-7.00577497e-02,-9.33314443e-01, 8.54804590e-02,
  -2.54104044e-02},
 {-1.34353200e-02,-1.14941094e-02, 6.96335614e-01, 8.68632495e-01,
   1.17394543e+00, 1.36118785e-01, 2.47490518e-02, 6.55746984e+00,
  -1.30099666e+00},
 {-1.16815224e-01, 7.32338652e-02, 3.27323270e+00, 1.63375771e+00,
  -4.57242012e+00,-3.17068648e+00, 1.99982613e-01, 4.95748103e-01,
  -2.73036218e+00},
 {-8.96338165e-01, 3.12575984e+00,-3.24760246e+00,-1.87627855e-03,
  -1.91819612e-02, 1.85455322e-01, 6.81360769e+00,-2.86220368e-02,
  -5.36023639e-03},
 { 2.12923050e+00, 4.29858160e+00, 2.84234095e+00,-7.56647959e-02,
   1.40415803e-01, 7.84344003e-02,-3.17097831e+00,-1.25992119e-01,
  -4.37352806e-02},
 { 1.32552952e-01,-5.77600859e-02,-4.24476290e+00, 2.82566667e+00,
   3.97582740e-01,-1.32134318e+00, 7.25893676e-02, 2.06557107e+00,
   4.09666634e+00},
 {-1.03930078e-01,-1.39989704e-02, 1.62781925e+01,-3.30337621e-02,
   1.65483505e-02, 3.96570284e-03, 3.06572884e-01,-1.33479619e-02,
   8.40225071e-03},
 {-5.51601453e-03,-1.41860209e-02, 1.26925796e-01,-3.20762157e-01,
  -1.02520192e+00, 8.73056054e-02, 1.47427898e-02,-1.41468871e+00,
  -1.56609099e-02},
 {-7.24384338e-02,-2.35905573e-02,-9.05359983e-01,-1.18580961e+00,
   4.14270103e-01, 1.72157407e-01,-1.38508588e-01,-2.26488876e+00,
  -2.02506495e+00},
 {-7.01446738e-03,-4.91582230e-03, 1.81536332e-01, 2.09416437e+00,
   2.81084561e+00, 1.00300038e+00, 1.21231489e-02,-5.57829380e+00,
  -1.20805770e-01},
 {-2.57283449e-01, 1.88613217e-03, 9.18456459e+00,-1.36941302e+00,
   4.33364630e-01, 1.28434920e+00, 1.38519004e-01,-3.65287364e-01,
  -3.34241509e+00},
 {-3.05620879e-02, 1.69361141e-02, 1.28741622e-01, 1.88305438e+00,
   3.94046092e+00,-1.44480371e+00, 9.01725963e-02, 2.75530607e-01,
  -2.11866546e+00},
 { 4.70446539e+00,-2.19433498e+00,-3.59885311e+00, 5.84321981e-03,
   3.25976349e-02, 7.97204897e-02, 1.03057699e+01,-1.53653668e-02,
   6.30150083e-03},
 { 7.03994706e-02,-2.60489658e-02, 3.04500639e-01,-1.24853027e+00,
   3.85265994e+00,-1.97139335e+00, 7.48767927e-02,-2.75738120e+00,
   2.06744719e+00},
 {-7.36990944e-04, 2.96224654e-02, 1.52999048e+01,-9.54307150e-04,
   1.06435530e-02, 1.32741094e-01,-1.46630611e-02, 2.59223357e-02,
  -4.84347250e-03},
 { 4.32120934e-02,-6.22286275e-02,-4.26617575e+00, 5.98643720e-01,
   2.52098036e+00, 4.75085378e-01,-1.25430347e-02,-2.87085867e+00,
  -3.81499887e+00},
 { 4.89372873e+00, 3.02595448e+00, 2.83746314e+00,-6.75448924e-02,
  -1.11548034e-02,-7.52386358e-03,-1.16886082e+01, 1.08303212e-01,
   2.56813969e-02},
 {-1.13766827e-02,-1.65031374e-01, 5.60113811e+00, 1.78076732e+00,
  -2.44091868e+00, 1.88382304e+00, 2.11149231e-01,-1.02601266e+00,
  -6.91047251e-01},
 {-1.52623523e-02,-1.02668516e-02, 3.34437394e+00,-9.95843530e-01,
  -1.24292195e+00, 8.87091279e-01,-1.74691483e-01,-2.30422354e+00,
  -4.65139771e+00},
 { 6.42356634e-01,-4.96028550e-02,-1.11642017e+01,-1.65428460e-01,
  -3.53857279e-02, 1.59517571e-01, 8.51752520e-01, 1.22241147e-01,
   8.47340822e-02},
 { 3.87363657e-02,-7.89080840e-03,-9.82307971e-01, 3.76382780e+00,
  -1.52860212e+00, 6.35884047e-01, 1.52090108e-02, 5.72349072e+00,
  -2.47054958e+00},
 {-4.24142408e+00,-2.75949669e+00,-3.90405327e-01,-2.77337003e-02,
  -4.47873659e-02, 8.01758934e-03, 5.67141533e-01, 4.61334698e-02,
  -1.39460946e-02},
 {-5.09680472e-02, 9.46398899e-02, 3.74177527e+00, 4.13709354e+00,
  -1.43382445e-01, 8.67625237e-01, 8.99096429e-02,-1.93653977e+00,
   2.38641334e+00},
 {-1.29279447e+00,-5.79349709e+00,-6.04367018e-01, 9.38895345e-03,
  -3.62498523e-03,-1.03377094e-02, 3.95130801e+00, 2.38101296e-02,
   1.09628704e-03},
 {-1.06876202e-01,-2.10229367e-01, 4.52149063e-02,-2.67169738e+00,
   6.37871265e-01, 2.76817894e+00, 4.96365596e-03,-1.44342637e+00,
  -5.28001499e+00},
 { 1.94207951e-03,-2.37093563e-03,-5.03712036e-02, 1.92088389e+00,
   2.11254406e+00,-1.91332614e+00,-3.34982667e-03, 7.98676252e+00,
   6.71370551e-02},
 { 3.96582484e+00,-1.33983696e+00,-3.88485402e-01, 6.34165406e-02,
  -5.71646653e-02, 1.33969402e-02, 8.01306152e+00, 6.46871179e-02,
  -4.69440361e-03},
 { 2.95537376e+00, 2.09926033e+00,-1.52272635e+01, 2.19445210e-02,
   7.71322707e-03,-2.02899858e-01, 9.53130722e+00,-3.44808623e-02,
  -1.51767265e-02},
 { 2.92384195e+00, 1.44257855e+00,-3.71322560e+00, 9.22031607e-03,
  -2.86321752e-02, 1.49414599e-01,-6.71132469e+00, 2.13911273e-02,
  -1.40645830e-02},
 { 3.66228782e-02, 4.81292382e-02, 2.95935130e+00,-1.59146130e-01,
   1.71460986e+00, 1.26719266e-01, 6.75596744e-02, 5.02093852e-01,
   5.31012440e+00},
 { 4.34000902e-02, 6.22667186e-03, 1.70646405e+00, 2.78759301e-01,
   1.70740592e+00, 1.75619975e-01,-4.26976644e-02, 6.81761789e+00,
   9.44028854e-01},
 {-2.61140317e-02,-4.99391630e-02,-2.34975085e-01,-1.25696614e-01,
   4.34968710e+00, 7.39704490e-01, 1.63044304e-01,-4.84705591e+00,
   3.43294531e-01},
 { 5.14293369e-03,-3.67056057e-02,-4.51674163e-01, 2.07092762e+00,
  -4.28167963e+00, 9.75147784e-01, 1.63100716e-02, 4.64906406e+00,
   1.55507135e+00},
 { 1.70557084e-03,-1.16605712e-02, 6.13893414e+00,-2.31028533e+00,
   7.73826361e-01,-6.80553377e-01,-3.41749750e-02,-1.72383976e+00,
   3.48701525e+00},
 { 4.15150642e+00,-7.36212790e-01, 1.92923319e+00, 9.70230922e-02,
  -1.11801505e-01, 1.26920119e-01,-6.57839489e+00, 1.78097934e-02,
   4.26978022e-02},
 { 5.45528941e-02, 1.08980320e-01,-3.57536292e+00,-1.91279635e-01,
   1.55048358e+00, 1.80180579e-01,-1.48044914e-01, 1.72305810e+00,
  -3.04106355e+00},
 { 3.49045110e+00,-1.04794776e+00, 2.50336933e+00, 4.01530974e-02,
  -1.66170653e-02, 8.64533186e-02,-9.19192505e+00, 5.78003339e-02,
  -4.86667920e-03},
 { 5.33518707e-03,-1.78778358e-02,-3.11917841e-01, 3.71029544e+00,
  -6.08207107e-01, 1.62067831e+00, 3.80382501e-02,-9.57670975e+00,
  -3.72873875e-03},
 {-8.19904059e-02, 5.45689501e-02, 2.90451598e+00,-2.21058583e+00,
   1.08013391e+00,-1.91141784e-01,-4.94018458e-02,-3.99427319e+00,
  -2.38608575e+00},
 {-4.37350459e-02,-1.56839825e-02, 5.74626684e-01, 1.06539190e+00,
   1.43541181e+00,-9.83152151e-01,-2.19529448e-03,-3.39015812e-01,
   2.68341899e+00},
 {-3.21837328e-02,-4.96823750e-02,-1.57315433e+00,-1.07032204e+00,
  -9.61678922e-01,-1.10163271e+00, 6.48572668e-02,-5.99861670e+00,
   1.43355787e+00},
 {-6.38631135e-02, 9.85274389e-02,-5.72032166e+00, 1.33984280e+00,
  -1.25608549e-01, 1.24325728e+00,-1.11497737e-01,-1.07152915e+00,
  -4.99451876e+00},
 { 4.52580547e+00, 5.15568972e-01,-3.74673462e+00,-6.27256639e-04,
   3.81709896e-02, 1.05464056e-01, 7.68594503e+00,-1.25105485e-01,
  -9.38530937e-02},
 {-1.61024380e+00,-3.42671335e-01,-2.65074587e+00, 1.76841151e-02,
   2.03295201e-02,-7.27968365e-02, 4.18343735e+00,-2.01123245e-02,
  -5.78905717e-02},
 { 3.36084962e+00, 6.64444745e-01, 3.52423549e+00, 1.68400735e-01,
   4.12304373e-03,-9.90297869e-02,-4.28156424e+00, 8.58920589e-02,
  -4.90035750e-02},
 { 4.82248974e+00,-1.87670231e+00,-2.45179796e+00, 3.43496748e-03,
   8.77261721e-03,-1.44570293e-02, 8.54635143e+00, 6.88357353e-02,
  -9.60818678e-02},
 {-3.70890871e-02,-5.05440589e-03, 1.66276789e+00, 3.63609886e+00,
  -5.61181247e-01, 1.31004822e+00, 4.07451876e-02, 1.78547645e+00,
   3.90756154e+00},
 {-3.85830045e-01,-1.78774858e+00,-9.06166935e+00, 1.21654958e-01,
   7.65203238e-02,-3.81468594e-01,-1.73094547e+00,-1.17572114e-01,
   2.45232671e-01},
 {-2.67962396e-01, 3.98469716e-01, 7.11506224e+00, 8.57357457e-02,
   2.66636878e-01,-8.44458401e-01,-1.94651373e-02, 1.00893474e+00,
   9.12066400e-01},
 {-1.09187253e-02,-1.67256687e-02,-1.29658914e+00, 3.21281028e+00,
  -1.29719579e+00,-1.01131082e+00, 8.89218296e-04, 5.87303448e+00,
   1.19199276e+00},
 { 8.77498090e-03,-8.40629917e-03,-2.12601468e-01, 3.92275691e-01,
   3.57237220e-01, 7.78203678e+00,-4.58409498e-03, 8.53821099e-01,
   5.00168651e-02},
 { 1.25561599e-02, 8.00240505e-03, 1.85816810e-01,-6.57880530e-02,
  -4.70855199e-02,-6.57764101e+00, 6.38281286e-04,-1.18632754e-03,
  -4.26395722e-02},
 { 1.37926219e-02, 1.08094849e-01,-2.18497366e-02,-3.97142935e+00,
  -3.44777036e+00, 9.87531841e-01,-3.29453722e-02, 1.12041640e+00,
  -1.22036323e-01},
 {-5.21087758e-02, 4.92485985e-02, 1.03390670e+00,-1.62925339e+00,
  -3.38826567e-01,-3.92797858e-01,-5.36700301e-02, 1.86440873e+00,
  -9.49441493e-01},
 { 1.52489252e-03,-1.33497491e-02, 4.29001242e-01, 4.00290298e+00,
  -1.35842848e+00,-1.42314434e+00,-9.55002476e-03, 1.01763391e+01,
   1.45101817e-02},
 { 3.37562591e-01,-3.55438447e+00, 2.27889791e-02, 3.06270532e-02,
  -1.22406203e-02,-1.71164423e-01, 1.06555343e+00, 8.63809735e-02,
   2.23663151e-02},
 {-4.58941311e-02,-4.15994972e-02, 3.08816969e-01,-2.08917809e+00,
   5.37176549e-01, 2.35493660e+00, 7.87055492e-03,-2.47049737e+00,
  -5.20193577e-02},
 { 1.06229529e-01,-1.28087223e-01, 1.39326239e+01,-5.22253178e-02,
   1.48633011e-02, 1.91108644e-01,-2.83303410e-01, 1.37027204e-01,
   7.86126405e-02},
 { 2.57346891e-02,-4.10267785e-02,-2.90352166e-01, 1.28639030e+00,
   2.72446704e+00, 1.02647245e+00, 5.92405237e-02,-5.00256443e+00,
   7.24859014e-02},
 {-1.10813398e-02,-1.73114706e-02, 4.22303259e-01, 3.92745352e+00,
   1.36020017e+00,-1.30350515e-01, 2.74759531e-02, 7.24182189e-01,
  -6.43137544e-02},
 { 5.11705037e-03,-1.06508598e-01, 5.86756468e-01,-4.05990696e+00,
  -2.66696644e+00,-2.90379667e+00,-9.01703164e-02,-2.21859217e-01,
  -3.31955981e+00},
 {-1.74781919e+00,-1.06721318e+00, 3.19711161e+00, 1.02442481e-01,
   2.70949621e-02, 6.84836414e-03,-3.84221864e+00, 2.41385996e-02,
  -5.23023168e-03},
 {-4.80364114e-02, 6.54302388e-02, 6.15855396e-01, 1.40922320e+00,
  -1.13635778e+00, 1.09711587e+00, 3.10298018e-02,-4.02163379e-02,
  -2.23619890e+00},
 { 9.55518801e-03,-2.70429645e-02,-7.14364946e-02, 4.41769266e+00,
  -2.22497344e+00,-2.15824798e-01, 1.07901534e-02, 8.79541397e+00,
   3.05496417e-02},
 {-1.87960695e-02, 5.28009050e-03, 5.26720524e-01,-1.93049148e-01,
   2.70043880e-01, 4.28450465e-01, 6.55966103e-02,-2.66755724e+00,
   2.16662526e+00},
 { 1.60912260e-01,-3.73623781e-02, 1.28904998e+00,-2.66612911e+00,
   5.40641785e+00, 3.92224717e+00,-1.09302051e-01, 3.91659856e-01,
   3.67603016e+00},
 { 3.75175667e+00,-1.92142999e+00, 3.08430648e+00, 8.09088536e-03,
  -1.42958602e-02,-1.97578128e-02,-1.06215820e+01, 6.39408128e-03,
   1.00826118e-02},
 { 9.80960056e-02, 7.80076778e-04,-5.59673071e+00, 1.23859036e+00,
  -2.91613674e+00,-4.63976443e-01, 1.84690002e-02, 2.31440639e+00,
   3.46122026e+00},
 {-5.80881797e-02, 5.73838763e-02, 5.65739441e+00, 3.08209062e+00,
  -4.16119635e-01,-2.49559903e+00,-4.42559309e-02, 4.45038736e-01,
  -4.11347532e+00},
 { 1.33127742e-03,-1.41223269e-02, 3.60323459e-01, 2.92466879e+00,
   2.83738732e+00,-4.08217967e-01, 3.02212592e-02,-4.74522209e+00,
   1.56958085e-02},
 { 1.17567088e-02,-1.62486210e-02, 8.08168277e-02, 2.05281544e+00,
  -1.39906108e-01,-5.45582026e-02, 1.31098162e-02, 7.96009302e+00,
   4.47391570e-02},
 { 2.44474132e-02, 1.67886668e-03,-5.15456835e-04,-2.19552100e-01,
  -6.31412649e+00, 8.61921430e-01, 2.58105597e-03, 2.82736564e+00,
   8.73386562e-02},
 { 4.05794308e-02,-7.45375976e-02,-3.25783081e+01, 1.24470498e-02,
   4.94350027e-03,-2.05120146e-01,-1.65508222e-02,-4.14120108e-02,
  -2.43390426e-02},
 {-1.44463384e+00,-3.42339134e+00,-3.16104341e+00, 2.18039136e-02,
   6.37964532e-02, 4.16965298e-02, 4.26695347e+00, 3.68243828e-02,
   1.03421854e-02},
 { 2.16302834e-02,-2.26641688e-02, 3.59364629e-01, 1.08859646e+00,
  -2.04304099e+00, 1.81138381e-01,-2.78610028e-02,-7.28483152e+00,
   4.50936794e-01},
 { 1.34843001e-02, 2.20594965e-02,-2.93074727e-01, 1.49791405e-01,
   2.37220955e+00, 5.49900711e-01,-1.88343097e-02, 6.00857830e+00,
   3.49044614e-02},
 { 6.73468769e-01,-2.25981688e+00, 4.75188208e+00, 9.23350304e-02,
   1.74095947e-02,-1.57391038e-02,-6.62905407e+00, 2.87087765e-02,
   3.20937671e-02},
 { 1.83796942e+00, 2.13408637e+00,-2.08282900e+00, 2.31370274e-02,
   5.19239716e-03, 8.86554271e-02, 8.14797974e+00,-2.60262638e-02,
  -1.02685606e-02},
 { 1.71807241e+00, 3.66443229e+00, 4.38198030e-01,-4.03515659e-02,
   1.92258898e-02,-3.32376182e-01,-1.06179357e+00,-3.73344421e-02,
   4.20570448e-02},
 {-7.21976161e-02, 7.17688426e-02,-4.83594477e-01,-1.56214088e-01,
  -1.22766984e+00, 2.54201919e-01, 6.17482252e-02, 3.89702797e+00,
   3.80828094e+00},
 {-1.33094629e-02,-2.18500005e-04, 1.01429835e-01, 2.37437582e+00,
  -1.95620120e+00, 6.68198407e-01, 7.27373222e-03,-8.25783634e+00,
   5.00235893e-02},
 {-4.38476279e-02,-5.91392349e-03, 1.32462537e+00, 5.45768738e-01,
  -5.27881682e-01, 1.38281778e-01, 3.32163684e-02, 3.49651933e+00,
  -3.90085554e+00},
 {-1.83824748e-02, 1.55291064e-02, 1.21822439e-01,-2.21393156e+00,
   1.52440459e-01, 2.47404978e-01,-7.87754916e-03,-1.05644822e+00,
  -8.27481970e-03},
 { 1.59711206e+00,-3.04107785e+00,-1.43352762e-01, 1.91376545e-04,
   6.07831590e-02,-1.48660108e-01, 4.42401123e+00,-2.01289542e-02,
   1.24589697e-01},
 { 9.99800637e-02,-8.06604698e-02,-1.32916212e+00,-1.78881049e+00,
  -9.74701107e-01,-1.65713227e+00, 6.76698387e-02, 2.34831786e+00,
   4.37407541e+00},
 { 2.66951602e-02, 2.56315358e-02,-4.20419276e-01, 1.63848794e+00,
  -3.81286407e+00, 1.75731671e+00, 7.95825291e-03,-6.55056357e-01,
   4.46224883e-02},
 { 1.11021328e+00,-1.38920164e+00,-7.39649010e+00,-1.91418350e-01,
  -5.00343323e-01, 5.45878187e-02, 4.07018661e+00, 2.99320698e-01,
  -9.28987041e-02},
 { 2.59729552e+00,-2.20257902e+00,-1.28622913e+00, 4.63620061e-04,
  -2.08923351e-02,-3.82615738e-02, 1.94975781e+00,-1.02049178e-02,
   3.75346057e-02},
 {-1.05550754e+00, 4.69549704e+00, 5.11078775e-01, 1.88818388e-02,
  -1.59157664e-01,-6.13390207e-02,-4.95646095e+00, 1.88990057e-01,
   9.58528593e-02},
 { 9.13412213e-01,-1.50506306e+00,-5.97424316e+00,-1.17834485e+00,
   1.83047962e+00, 3.66821945e-01, 1.92495406e+00,-2.20776737e-01,
   2.70102239e+00},
 {-1.23424781e-02, 7.44514307e-03, 7.22984314e-01, 1.27815199e+00,
   4.82991636e-01,-6.11854613e-01,-5.25680743e-03, 1.77067220e+00,
   6.31532148e-02},
 { 5.20580895e-02, 1.78751096e-01, 6.64889193e+00, 1.39949679e+00,
  -2.41639161e+00, 4.10026610e-01,-3.35857570e-01, 5.60671151e-01,
   2.88026595e+00},
 { 1.90601432e+00,-1.56173635e+00,-4.72182751e+00,-8.89725462e-02,
  -1.50108859e-01,-2.53852047e-02, 3.00692582e+00,-8.05755332e-02,
  -4.15897846e-01},
 {-2.56960917e+00, 3.16927814e+00, 4.07633114e+00,-1.98574588e-02,
   5.93750214e-04,-6.14057630e-02,-7.05839682e+00, 7.11364448e-02,
   3.90916876e-02},
 { 2.41570305e-02, 2.78145112e-02, 2.70081192e-01, 1.01294148e+00,
  -2.08317518e+00, 4.60753083e-01,-2.99088974e-02,-5.15364408e+00,
   1.38786435e-02},
 { 9.18176234e-01,-4.11100960e+00,-4.15460491e+00,-5.34506738e-02,
   7.28782564e-02,-2.40202621e-02, 5.83705235e+00, 1.98471978e-01,
   1.45884659e-02},
 { 3.81770567e-03, 9.53173079e-03, 1.55504540e-01, 1.45175147e+00,
  -2.87789345e+00, 4.29802299e-01,-1.25545738e-02, 6.03305626e+00,
  -6.27774596e-02},
 { 1.21683073e+00,-4.05195045e+00,-5.28687906e+00, 9.49689560e-03,
   2.30195257e-03, 5.64373918e-02, 8.98705769e+00, 1.50983781e-03,
   1.97605416e-02},
 { 1.69606954e-02,-1.03303893e-02,-1.89618301e+00,-5.47755182e-01,
   5.83531141e-01,-5.17874420e-01,-1.18457535e-02, 6.53126431e+00,
  -2.00018144e+00},
 { 3.49237956e-02,-5.59302680e-02, 4.43216175e-01,-8.87426853e-01,
   9.15426314e-01, 2.04411462e-01, 4.14702669e-02,-5.94631481e+00,
   1.20951727e-01}};

const float b1[sz_hid_1] = {-5.721643  ,-1.9783694 ,-7.215612  ,-1.1507382 ,-3.302246  ,-7.834287  ,
 -7.461081  ,-5.972051  ,-7.566395  ,-2.1603909 , 0.77869916,-6.7677116 ,
 -2.4497492 ,-4.963225  ,-6.607732  ,-2.8775854 ,-6.0475316 ,-6.2317657 ,
 -2.084464  ,-3.9490793 ,-2.5996633 ,-4.6849337 ,-8.217228  ,-6.2129765 ,
 -2.6088734 ,-6.165054  ,-2.6770885 ,-3.358262  ,-1.3015417 ,-4.9368324 ,
 -7.1861744 ,-7.2918396 ,-4.7104735 ,-5.164993  , 0.20799358, 0.34268758,
 -1.5579655 ,-1.402878  ,-5.1741285 ,-4.3792915 ,-2.9472604 ,-4.2029386 ,
 -0.11932775,-6.0547175 ,-2.502246  ,-6.240417  ,-4.567428  ,-3.5350125 ,
 -4.067241  ,-4.174529  ,-4.252044  ,-2.6240506 ,-5.5385795 ,-5.57466   ,
 -4.284037  ,-5.8760114 ,-3.57539   ,-5.525911  ,-6.598352  ,-6.357748  ,
 -4.138399  ,-4.539215  ,-5.6760473 ,-2.6182954 ,-6.0545144 ,-4.4687543 ,
 -7.248193  ,-2.0121205 ,-7.271485  ,-4.657048  ,-5.8180895 ,-2.031426  ,
 -6.590637  ,-3.8286335 ,-4.415409  ,-3.9834845 ,-3.4240189 ,-3.0980551 ,
  0.26315606,-0.592438  ,-4.7571836 ,-1.6374781 ,-3.423908  ,-0.8475679 ,
 -1.8095504 ,-1.8906745 ,-2.161902  ,-3.0984654 ,-5.4177666 ,-0.11403   ,
 -1.2546655 ,-4.4478927 ,-1.4799246 ,-6.989783  ,-6.397239  ,-6.728039  ,
 -4.9621673 ,-2.4554904 ,-3.5678656 ,-4.6521716 , 0.24498478,-2.5664318 ,
 -6.5803757 ,-5.8426957 ,-3.4112904 ,-6.6147666 ,-2.2436166 ,-2.765657  ,
 -5.777654  ,-2.3596117 ,-0.8077484 ,-2.3750384 ,-4.9384413 ,-3.0629964 ,
 -6.2372327 , 0.584183  ,-6.0707064 ,-6.32392   , 0.2406456 ,-5.360183  ,
 -3.6911561 ,-6.4069953 ,-2.809732  ,-5.409591  ,-1.0623918 ,-0.14190638,
 -6.828765  ,-3.7875652 };

const float w2[sz_hid_2][sz_hid_1] = {{-1.13478813e+01,-7.96762645e-01, 9.52126265e-01,-4.93626207e-01,
  -2.32010618e-01, 2.05339503e+00, 4.29830980e+00,-1.50914431e+00,
  -1.81269722e+01,-8.20459843e+00,-8.65076244e-01, 3.76002043e-01,
  -1.50836241e-02,-3.09327197e+00, 3.57545161e+00, 1.44073009e+00,
   3.19867063e+00, 1.76432848e+00,-1.37407618e+01, 8.06809139e+00,
  -8.93781602e-01,-3.48160934e+00,-6.65309191e+00, 4.88612384e-01,
  -1.72554672e+00, 2.63639241e-01,-1.09297645e+00,-2.66801333e+00,
  -1.36704695e+00, 6.99441373e-01, 9.78083491e-01, 1.39612961e+01,
   2.23916602e+00, 1.30416226e+00, 1.11896336e+00,-1.79801360e-01,
  -1.63286674e+00,-1.07138801e+00,-6.92227900e-01,-6.78057492e-01,
   1.63899899e+00, 6.18983924e-01, 6.30177438e-01, 4.66626072e+00,
  -8.12351167e-01,-5.32510996e+00, 3.35166067e-01,-3.22955084e+00,
  -1.60845125e+00, 2.93892384e+00,-3.30884337e-01, 2.42948771e-01,
  -2.84709430e+00, 7.69390285e-01,-1.68929970e+00,-5.64032078e-01,
   3.49729002e-01, 4.19718075e+00, 2.18881464e+00,-8.98517430e-01,
  -9.73399520e-01,-8.94466400e-01, 4.59532404e+00,-1.84471953e+00,
   5.88245630e+00, 3.20793718e-01, 2.10294938e+00,-1.36137283e+00,
  -3.13157177e+00, 1.55396199e+00, 9.92023826e-01,-3.09146061e+01,
   2.18578506e+00, 1.00000668e+00,-4.87654257e+00,-3.27354527e+00,
  -2.41092205e+00,-2.43666172e+00, 3.49088550e-01, 7.19907224e-01,
  -1.84016377e-02, 2.64760756e+00, 5.34582496e-01,-2.23215914e+00,
  -1.42928898e+00,-2.27191067e+00,-2.95893461e-01,-7.87239075e-01,
  -1.61807418e+00, 8.46402740e+00, 3.00904393e+00, 1.45588577e+00,
  -1.33893514e+00, 2.49497280e-01,-6.34071302e+00, 3.62940931e+00,
  -3.86339128e-01, 1.05447006e+00, 1.56050551e+00, 3.28110963e-01,
   1.49242318e+00, 3.46678019e+00,-1.16721892e+00,-2.76525974e+00,
  -6.02937555e+00, 2.55577469e+00,-1.15823746e+00, 4.80719566e-01,
   2.88439822e+00,-1.86871731e+00, 1.46159625e+00, 1.27440727e+00,
  -8.00009549e-01,-2.11356783e+00,-9.34727907e-01,-6.77039719e+00,
   1.52308118e+00, 2.76329470e+00,-2.06128135e-01, 1.47936428e+00,
   2.48663351e-01,-1.11137323e+01,-2.39066815e+00,-6.53451014e+00,
  -4.02492732e-02, 5.73330116e+00, 8.81701231e-01, 4.62030697e+00},
 {-5.48057795e+00, 1.35888124e+00,-1.13599312e+00,-4.24810600e+00,
   2.83474350e+00,-5.10327196e+00, 1.30839024e+01,-3.68046236e+00,
   3.29937243e+00, 1.18377912e+00, 5.60763657e-01, 1.40254319e+00,
   4.63925928e-01,-1.39577460e+00,-3.01185322e+00, 3.52125033e-03,
   1.49819446e+00, 6.83577299e+00, 9.36550796e-01,-3.72498059e+00,
   2.57314444e+00, 8.36638546e+00, 1.27430356e+00,-1.83142114e+00,
   2.21986175e+00,-5.76568699e+00,-1.42721093e+00,-7.31628084e+00,
  -4.50210190e+00,-2.50810661e+01,-6.29081530e-03,-3.26905584e+00,
   5.74251223e+00, 9.18773293e-01,-1.60984063e+00,-5.79134369e+00,
   6.82622051e+00,-2.69473583e-01, 6.51412058e+00, 5.65655899e+00,
  -2.69462514e+00,-4.08967018e+00, 1.33289790e+00,-1.56695147e+01,
   2.71620560e+00, 2.93018532e+00,-7.97011471e+00, 4.73563194e+00,
  -6.95126176e-01, 3.25193143e+00,-1.54287362e+00, 1.92071450e+00,
   4.42787170e+00,-6.08793831e+00, 2.69274187e+00,-1.96375740e+00,
  -2.47875071e+00,-8.56106853e+00,-1.26482878e+01, 3.61548036e-01,
   5.81111073e-01, 4.89687872e+00,-2.80846953e+00,-1.68411484e+01,
  -4.42529917e+00, 5.33329070e-01,-4.83643532e+00, 2.12409186e+00,
  -3.06262207e+00, 2.28767633e+00, 7.57480192e+00, 2.27177000e+00,
   8.13640177e-01,-9.99109805e-01, 9.31861460e-01,-2.39465308e+00,
   5.84239197e+00, 1.72466528e+00,-1.05097067e+00,-3.66601944e-01,
  -3.25672960e+00,-5.23702097e+00, 6.30965590e-01,-2.75744152e+00,
  -3.34281898e+00,-1.19934778e+01, 9.46332932e-01, 3.51836495e-02,
   3.92277122e+00,-5.07322836e+00,-1.63419151e+00, 6.43071085e-02,
  -1.17158966e+01, 2.76663089e+00, 6.87342405e+00,-1.39184122e+01,
  -1.05441642e+00,-1.56174600e+00,-4.98789787e+00,-2.08415818e+00,
   1.28038418e+00, 2.19386673e+00,-5.37433481e+00, 5.13105690e-01,
   1.78652787e+00, 2.78226924e+00, 6.69604659e-01, 7.43042469e+00,
  -3.02924013e+00,-2.88452959e+00, 2.92099452e+00, 3.34044528e+00,
  -9.27507043e-01, 5.01700830e+00,-2.17010379e+00,-1.63676524e+00,
   9.35103834e-01, 2.87860465e+00,-3.86178207e+00,-6.03027821e-01,
   2.14711213e+00, 1.06235790e+00, 7.36263275e-01, 3.75803399e+00,
  -7.94829011e-01,-1.30032432e+00, 2.81915736e+00,-1.51165283e+00},
 {-5.61943576e-02, 1.32415059e-03,-1.52710010e-03,-1.33063840e-02,
   7.11252838e-02,-7.38827735e-02,-2.07106881e-02, 3.40700001e-02,
  -2.90677957e-02, 9.03116912e-03,-3.85921970e-02,-8.00313875e-02,
  -6.04095012e-02, 1.97479650e-02,-5.98865673e-02, 1.12676322e-02,
   4.66532707e-02,-2.39984281e-02,-1.48792267e-02,-3.23441066e-02,
  -6.10232279e-02,-1.07109986e-01,-7.57733434e-02,-9.54456553e-02,
   9.57441609e-03, 2.14300267e-02,-3.24122794e-02,-1.10058993e-01,
  -1.81180034e-02,-7.51170814e-02,-6.34082407e-02,-8.11932981e-02,
  -9.80429500e-02,-4.40565124e-03,-9.25178081e-02,-9.43912640e-02,
   2.06600092e-02,-8.54583234e-02,-8.75813141e-02,-3.79902497e-02,
  -5.75581426e-03,-5.19831330e-02, 5.45431953e-03,-1.62905524e-03,
  -5.51864468e-02, 5.63345524e-03,-1.09650105e-01,-2.00446080e-02,
   1.40529247e-02,-2.29929723e-02,-1.17580123e-01, 3.07232086e-02,
   1.39471106e-02,-9.47782677e-03,-1.88169628e-02, 2.10799389e-02,
  -8.40970427e-02,-6.60751341e-03, 7.96676725e-02,-7.04040080e-02,
  -8.33264738e-02,-5.57586662e-02, 1.30490130e-02,-3.67770530e-02,
  -5.63683212e-02,-1.60470186e-03,-3.08191609e-02,-3.33281383e-02,
  -3.94171514e-02,-9.53842625e-02,-2.64322106e-02,-8.50205868e-03,
  -9.48161408e-02,-1.16791744e-02,-2.07482670e-02,-7.38029629e-02,
  -8.51674452e-02, 9.35891061e-04,-1.24345213e-01,-2.25798525e-02,
  -3.68154645e-02,-1.94679722e-02,-1.29246369e-01,-4.05652449e-02,
  -3.36846374e-02,-8.73592794e-02,-9.11571756e-02, 6.50252998e-02,
  -7.37695536e-03, 2.68233870e-03, 4.67884587e-03,-1.61357000e-02,
   2.68014614e-03, 5.85415140e-02,-3.08769681e-02,-2.12283041e-02,
   6.53787982e-03,-4.48270738e-02,-1.01761729e-01,-8.60514864e-02,
  -2.53985375e-02, 6.16419837e-02, 5.60531653e-02, 3.08752269e-03,
   2.27544550e-02,-1.24214344e-01,-8.24243128e-02,-9.37086493e-02,
   2.03482248e-02,-1.23447040e-02,-5.43096587e-02, 4.30327561e-03,
  -7.42441192e-02,-7.08569735e-02, 2.22596228e-02,-3.99950631e-02,
  -7.32176602e-02,-6.89145252e-02,-5.51433079e-02, 1.06865484e-02,
  -3.16139571e-02,-5.47909997e-02, 2.56086923e-02, 2.28932942e-03,
  -1.34220257e-01,-7.27078915e-02, 4.71043075e-03, 3.13708521e-02},
 {-1.59427047e-01, 4.89903420e-01,-1.03377235e+00, 3.80257034e+00,
  -1.77478835e-01,-4.54354614e-01, 1.17015290e+00, 1.16670011e-02,
  -1.28928041e-02,-2.93705915e-03,-4.87728626e-01,-9.08531100e-02,
   2.10084510e+00,-2.35720277e-02,-5.30812256e-02,-1.22139873e-02,
   2.51347926e-02, 2.19411159e+00, 2.90080328e-02,-1.52765699e-02,
   2.04869565e-02, 3.50331180e-02,-1.47444233e-01,-6.44659624e-02,
   3.41034792e-02, 1.52443978e-03, 4.49275970e-03,-6.98842900e-03,
   3.46044488e-02,-9.68216658e-01,-4.61547114e-02, 3.06602269e-02,
  -1.98468745e-01, 6.26899898e-02, 3.94698456e-02, 8.05296972e-02,
   5.34165651e-02, 6.69893980e-01,-1.16694421e-01,-1.47326458e+00,
  -1.57102887e-02, 2.65074754e+00,-9.96480044e-03,-1.26592436e+01,
  -1.26850903e-02, 5.41206419e-01,-6.02187365e-02,-4.89135049e-02,
  -9.84142274e-02,-8.93756468e-03,-3.45372334e-02, 6.09428249e-03,
  -5.01164459e-02,-7.47792482e+00,-8.40054229e-02, 1.90597922e-02,
   1.55865764e-02,-3.28271329e-01,-4.36639900e+01,-3.92638564e+00,
  -2.11361013e-02,-5.40175959e-02, 4.99051601e-01, 1.83713719e-01,
  -1.46442130e-01,-7.17739284e-01,-1.74190974e+00,-5.36210909e-02,
  -8.21459532e-01, 4.75472845e-02, 4.48214591e-01,-3.84396873e-02,
   9.51667354e-02, 2.24156398e-02, 9.38616693e-02, 1.03038818e-01,
   5.52802943e-02, 1.93454921e-01, 3.61502729e-02,-4.80346352e-01,
   5.23218679e+00,-1.52394727e-01,-1.36516201e+00,-1.05926469e-02,
  -3.97325969e+00,-3.66015807e-02,-1.26681499e+01,-3.66204828e-02,
   8.97547975e-03,-2.68156696e-02, 2.75827721e-02, 2.18497205e+00,
  -1.86605323e-02,-1.14297017e-01,-6.31599361e-03, 2.45483473e-01,
  -1.26208374e-02,-4.39352900e-01,-2.12848997e+00,-2.68413126e-01,
  -2.20498126e-02, 1.24868050e-01,-2.13762069e+00,-2.03612113e+00,
   4.67017852e-02,-1.89054996e-01, 1.03758778e-02, 6.67925179e-03,
   4.41445559e-01,-3.45978923e-02, 2.78663754e-01,-1.88339576e-02,
  -1.38680601e+00, 3.16212356e-01,-1.89936832e-01, 9.84308496e-03,
   1.52009368e-01, 3.40907812e-01, 3.08921516e-01, 5.56880943e-02,
   4.77359623e-01, 4.14645905e-03,-2.15746000e-01, 6.57111928e-02,
  -3.44231874e-01, 1.34700276e-02,-6.87459087e+00, 3.14409781e+00},
 { 2.30552629e-02,-1.09354395e-03,-1.08389342e-02,-3.53418775e-02,
   3.24895829e-02, 3.14877555e-02,-1.49725890e-02,-4.60415147e-02,
  -1.58928032e-03,-5.07137887e-02,-7.83271492e-02, 6.03713095e-03,
  -7.65508041e-02, 3.01361810e-02,-7.20560923e-02,-4.54638340e-02,
  -5.52991666e-02, 5.40145002e-02,-6.55129552e-02, 2.82540955e-02,
  -7.69594498e-03, 4.86747958e-02, 5.87077066e-03, 8.04517651e-04,
   5.92095256e-02,-6.75306767e-02,-5.13382033e-02,-8.58250484e-02,
  -7.67652392e-02,-8.16992018e-03,-3.08220671e-03,-3.83373350e-02,
  -1.59815878e-01,-6.78522438e-02, 1.93617269e-02, 2.93236598e-02,
  -1.24196798e-01,-4.57850769e-02,-1.02677241e-01,-1.28616288e-01,
  -1.32514223e-01,-2.72794906e-02,-2.14480758e-02,-1.16104849e-01,
  -1.78460870e-02, 6.58685043e-02,-4.06801775e-02,-3.69147137e-02,
  -5.46903200e-02,-4.81637120e-02,-5.51085025e-02,-4.58875485e-02,
  -7.85192326e-02,-8.45300928e-02,-2.52013188e-02,-5.58054969e-02,
  -1.64273870e-03,-4.60617952e-02,-2.17723753e-02,-8.52824301e-02,
  -2.18485668e-03,-5.53610772e-02,-2.48731729e-02, 6.13752287e-04,
   2.46804673e-02,-1.77903438e-03,-4.60889824e-02, 2.71979496e-02,
  -1.33489773e-01, 2.99262954e-03, 3.94043550e-02, 3.52697149e-02,
  -5.59351705e-02,-9.17024165e-02,-1.13380784e-02,-1.77218691e-02,
  -3.46956365e-02,-4.39263918e-02,-2.35269219e-02,-7.52484128e-02,
  -1.17879152e-01, 1.37785971e-02,-3.25996242e-02,-5.51894456e-02,
  -1.01984795e-02,-7.97863454e-02,-4.12926339e-02,-5.71780950e-02,
   2.82149017e-02,-1.59449622e-01,-1.16157725e-01,-1.02385595e-01,
  -5.42858317e-02,-9.25870016e-02,-1.46853002e-02,-7.71831125e-02,
  -7.29992762e-02,-1.21504791e-01,-2.76124966e-03, 3.31615619e-02,
  -2.64304373e-02,-1.58291571e-02,-9.70665962e-02,-4.62811925e-02,
  -1.13648020e-01,-9.46289226e-02,-1.45726614e-02,-9.06610023e-03,
  -4.23032716e-02,-1.96680129e-02,-8.41786861e-02,-1.44148385e-02,
  -6.97373077e-02,-6.06633537e-02,-5.96312471e-02,-5.75766228e-02,
  -1.16832495e-01, 9.09014884e-03,-5.68673797e-02,-9.22026783e-02,
   5.04325517e-02,-6.04002029e-02,-2.20357087e-02, 4.21947055e-02,
  -1.44262724e-02,-2.38311850e-02, 1.91191658e-02, 5.07626384e-02},
 { 2.53305823e-01,-1.27395236e+00,-9.71428156e-02,-2.17549610e+00,
   7.82840103e-02, 1.96333885e-01, 3.28993702e+00, 1.31954886e-02,
  -1.66671827e-01,-7.86673184e-03,-1.47269142e+00,-2.75423884e-01,
   2.73930955e+00, 3.88846849e-03, 2.83716023e-01,-1.70253968e+00,
  -4.13199104e-02,-6.75211191e+00, 3.65984552e-02, 4.51100431e-02,
  -1.11164190e-01, 8.22827339e+00,-8.18818510e-02,-3.28662419e+00,
   3.38194631e-02,-1.48542786e+01,-2.00784057e-02,-1.43106803e-02,
   1.76030859e-01, 1.15790892e+00, 5.68729448e+00, 7.84190819e-02,
   4.81737942e-01,-1.58643162e+00,-8.99805725e-02, 1.88821256e+00,
   2.35627163e-02,-4.63566417e-03, 2.29328680e+00,-8.27740014e-01,
   9.06516835e-02, 2.40833852e-02, 6.66583404e-02, 3.95751834e+00,
  -4.26422134e-02,-2.46704149e+00, 4.68134470e-02, 9.91639197e-02,
  -1.61272061e+00,-7.44082779e-02, 6.12615204e+00, 6.95008144e-04,
  -4.56990674e-02, 2.51456237e+00, 1.57806966e-02, 5.41512892e-02,
   9.32431519e-02, 2.88118672e+00,-2.56166720e+00, 9.97384262e+00,
   4.16336250e+00, 4.12677377e-02,-6.44072950e-01,-1.68985343e+00,
   5.52739382e-01,-1.21107519e+00,-2.63666064e-02,-1.08812308e+00,
  -7.27257431e-02, 1.10768490e-01,-4.24685031e-02,-1.04213290e-01,
   1.30505216e+00, 3.02551500e-02,-2.17461395e+00, 6.05725832e-02,
  -2.80171800e+00,-2.13928580e+00, 1.08167922e+00,-4.50905830e-01,
  -1.49049744e-01, 5.47359324e+00, 4.55433416e+00, 8.27894285e-02,
  -2.20124692e-01, 4.60695970e-04,-1.06863305e-01,-7.96723604e+00,
  -9.93975159e-03, 7.95019493e-02, 4.06156145e-02, 1.62642467e+00,
  -5.56223392e-02,-7.15083361e-01,-7.23565966e-02, 4.69555330e+00,
  -5.52627897e+00,-6.72286129e+00, 3.86024427e+00, 5.25430679e+00,
  -8.17036554e-02,-2.68661320e-01,-5.70561647e+00, 5.23265648e+00,
  -8.59111398e-02, 2.25847438e-01,-4.63425033e-02, 8.01288188e-01,
   2.84538531e+00,-1.72577882e+00, 1.35096049e+00, 7.72186965e-02,
   3.29350471e+00,-5.04738903e+00, 1.30386293e+00,-1.37975290e-02,
   1.24236345e-01,-7.71017611e-01,-9.76631045e-02, 4.63919878e-01,
  -3.58743191e-01,-4.60727103e-02, 1.24940288e+00,-2.03821033e-01,
  -7.08889675e+00, 5.80220670e-02, 1.04679356e+01,-1.20859973e-01},
 { 1.97673810e+00,-5.98834038e-01, 7.31924248e+00,-1.12540493e+01,
  -8.76708412e+00,-1.40874929e+01,-4.61950397e+00, 2.34912181e+00,
  -2.83796334e+00,-1.43786478e+00,-1.76421452e+00, 9.12642241e-01,
  -1.30801904e+00, 1.16904318e+00, 3.63945627e+00, 8.87166440e-01,
   6.22805476e-01, 1.61409998e+00,-2.80198240e+00, 2.41422534e+00,
   1.10327470e+00,-3.84707093e+00,-6.12479270e-01, 1.48513600e-01,
  -7.81015933e-01,-4.39499617e-01, 2.33212844e-01, 1.89800322e+00,
   1.00310236e-01,-7.15059328e+00,-1.10103788e+01, 2.79141378e+00,
   2.58979726e+00,-8.62508774e+00,-6.30251348e-01,-1.93888676e+00,
   9.32598785e-02,-5.32343388e-01, 3.52503061e-02, 5.89282608e+00,
   1.55727065e+00,-2.99846840e+00, 6.26924932e-01,-4.49877310e+00,
  -1.49025917e+00,-8.68405998e-01,-9.21986675e+00,-4.81473088e-01,
   2.43235707e+00,-1.04332089e+00,-1.27145815e+00,-2.37903208e-01,
  -9.40106487e+00, 3.84057570e+00,-1.66112125e+00, 1.62706569e-01,
   8.79123926e-01,-4.24560213e+00, 7.67433834e+00, 2.37587643e+00,
  -1.63426065e+00, 1.83668804e+00, 3.46189332e+00,-2.94694448e+00,
   5.47234201e+00, 1.14520156e+00,-6.56837177e+00,-8.22680354e-01,
  -4.87978876e-01, 5.53841472e-01,-4.85327244e+00,-3.77030158e+00,
   4.10413456e+00, 1.14832926e+00,-1.85157621e+00,-8.35038796e-02,
  -2.74734783e+00,-2.91122556e+00, 6.33050323e-01, 4.01210546e-01,
  -1.76676679e+00,-3.54206619e+01,-7.80522823e-01, 1.61154985e+00,
   1.27509451e+00, 8.05951536e-01, 3.84925580e+00, 4.71563148e+00,
  -1.07680988e+01, 5.02420521e+00, 1.41675675e+00, 4.60024977e+00,
   3.13609505e+00, 2.31702852e+00,-5.44631004e+00, 2.86300755e+00,
   1.57606494e+00,-1.11121237e+00,-4.10250574e-01, 8.63334656e-01,
   4.21718180e-01,-2.00890470e+00, 4.25044012e+00,-6.58964348e+00,
  -3.53426981e+00,-2.04876208e+00,-1.03680670e+00,-4.81375265e+00,
   4.49468613e+00,-1.95600700e+00, 6.51764250e+00,-1.88066769e+00,
   9.07732105e+00, 7.09678650e-01, 1.26629519e+00, 2.81678498e-01,
   2.06011042e-01, 2.02476144e+00,-2.65580511e+00, 3.61653119e-01,
  -3.13620782e+00,-9.96163547e-01,-7.12529182e+00,-2.93279481e+00,
   2.21442747e+00, 1.60178351e+00,-5.61457825e+00,-5.85545540e+00},
 { 6.57319403e+00, 4.70018244e+00, 2.76101887e-01, 1.79736698e+00,
  -6.89358616e+00,-2.90769547e-01,-1.06737642e+01, 1.15339589e+00,
  -8.54503214e-01, 3.30130845e-01,-2.60969669e-01, 6.72714472e-01,
  -3.32172602e-01, 2.72308612e+00, 2.37389898e+00, 5.61373353e-01,
  -2.23378801e+00, 5.35708666e+00,-6.17921472e-01, 9.84624326e-01,
   6.72151184e+00,-1.16297185e+00,-1.49483323e+00,-8.50161970e-01,
   5.03662539e+00, 3.19987416e+00, 4.45219338e-01,-2.96366572e+00,
   1.28953540e+00, 5.32466125e+00,-8.77785683e-01, 3.01494002e-01,
   3.06412435e+00,-5.58265591e+00, 1.12462983e-01,-5.60418749e+00,
  -6.10093689e+00, 2.52410984e+00,-1.41080725e+00, 2.24398422e+00,
   5.21265149e-01,-1.62765348e+00, 1.49338907e-02,-5.55847788e+00,
  -1.95939839e+00, 1.08281827e+00, 3.46859187e-01, 2.21783414e-01,
  -1.47231966e-01,-2.01349735e-01,-2.33119711e-01,-1.12881279e-03,
  -1.85974178e+01,-2.00575638e+00,-2.48935771e+00, 8.05308938e-01,
   1.19544113e+00,-1.53181744e+00,-8.64558101e-01,-1.27387037e+01,
   2.67402625e+00, 2.44507599e+00,-3.88960868e-01,-1.77496219e+00,
   7.59933281e+00, 2.08509302e+00,-2.68357944e+00,-8.46529770e+00,
   9.91846800e-01,-8.96770000e-01,-5.69010639e+00, 3.73610914e-01,
   2.78910947e+00, 3.63095093e+00,-5.23361683e+00, 1.18846327e-01,
  -2.67809272e+00,-3.45334560e-01,-5.87462187e-01, 5.15928686e-01,
   6.33375123e-02,-1.12343299e+00,-2.43901062e+00, 2.23790789e+00,
   4.18892652e-01, 4.18973386e-01,-3.29633451e+00,-1.90552104e+00,
  -3.63307405e+00, 5.53215933e+00, 6.29277527e-01, 3.33888888e+00,
  -1.31991291e+01, 1.62118241e-01,-5.31729078e+00, 3.89339030e-01,
  -2.55189705e+00,-5.90816438e-01,-1.76898634e+00,-1.91797674e+00,
   1.58391088e-01,-5.87510872e+00,-6.07761574e+00,-4.02787828e+00,
  -4.89210176e+00,-1.39895880e+00,-7.19736338e-01,-4.26415503e-01,
  -2.64316106e+00,-9.70809639e-01, 5.19771004e+00,-1.34861040e+00,
   1.23340607e+00, 1.38648379e+00,-2.60051519e-01, 2.36173820e+00,
   1.28713942e+00, 2.43758351e-01,-6.35617197e-01, 2.85464597e+00,
  -3.81363630e+00, 1.04419398e+00, 6.51995838e-01,-3.81740403e+00,
  -2.50371242e+00, 5.56640685e-01, 1.28756309e+00, 2.84314847e+00},
 { 3.90917492e+00, 1.47074744e-01,-2.67340221e+01,-1.73757657e-01,
  -8.23604241e-02, 4.22459412e+00,-8.72037411e+00, 4.08526468e+00,
  -2.21707392e+00, 6.35950789e-02, 6.54490471e-01, 1.87849534e+00,
   1.38836890e-01, 5.21792591e-01,-9.08772278e+00, 5.22949636e-01,
  -1.46478090e+01, 1.00347586e+01,-6.52972996e-01, 7.28813827e-01,
  -3.31676674e+00,-8.95462990e+00,-3.06266397e-01, 6.67294800e-01,
  -4.89829111e+00,-2.21359587e+00, 1.00828946e-01, 1.04254293e+00,
   1.07690239e+00, 1.44794261e+00, 8.03603935e+00, 1.21687937e+00,
   2.64879012e+00,-1.05013084e+00, 2.14697078e-01,-4.15070248e+00,
   8.67565441e+00, 5.41796112e+00, 3.73940611e+00,-4.83585215e+00,
   9.55894351e-01, 1.19401026e+00, 2.20288217e-01, 5.71866930e-01,
  -1.93732810e+00, 1.01628971e+01,-5.82801700e-01,-5.10002375e-01,
  -5.34034443e+00,-9.54460680e-01, 1.35322404e+00,-1.35739654e-01,
   5.19585572e-02,-5.76006079e+00,-2.62947607e+00, 4.91243362e-01,
   1.27935719e+00, 1.25775349e+00,-1.14095554e+01,-1.86430025e+00,
  -2.68131661e+00,-4.65412235e+00, 5.08261144e-01,-7.71450400e-01,
   5.56847811e+00, 1.29596126e+00, 2.99532151e+00, 3.77527070e+00,
  -1.24963789e+01, 4.73420620e-01,-5.56210327e+00,-1.11496592e+00,
   4.78048229e+00, 2.60667467e+00, 2.76328195e-02,-5.79222925e-02,
  -3.34970307e+00,-2.89852452e+00, 5.72677791e-01, 3.68607938e-01,
  -1.48247969e+00, 3.68487334e+00,-1.16097713e+00, 1.91094935e+00,
  -7.04336585e-03,-8.20165336e-01,-5.04936934e+00,-3.27326465e+00,
  -8.57747257e-01, 4.27788639e+00,-1.07999640e+01, 9.04696751e+00,
  -7.84958541e-01,-8.49607944e+00,-4.63077593e+00,-1.89877319e+00,
  -7.16929102e+00,-9.12619412e-01,-2.70413542e+00,-5.41960374e-02,
  -7.53825009e-02,-4.41174269e+00, 3.89601493e+00,-5.94211054e+00,
  -3.52224898e+00,-2.52852035e+00, 1.62480041e-01,-2.98151642e-01,
  -3.67232418e+00, 1.06271195e+00,-5.97983932e+00,-2.17614627e+00,
  -1.19858685e+01, 1.09838605e+00, 2.14299798e+00, 1.39790225e+00,
   3.50938630e+00,-1.65079117e+00,-4.86095142e+00, 3.72781849e+00,
  -3.30249691e+00, 3.12284082e-01,-3.59687114e+00,-3.26667833e+00,
   9.51075673e-01, 1.25855112e+00,-4.54213095e+00,-4.07215691e+00},
 {-8.48758161e-01, 2.05869269e+00,-3.29440498e+00,-1.93722463e+00,
  -3.16124606e+00,-3.49655628e+00,-1.82310593e+00,-7.23071158e-01,
   4.92612123e-01, 6.38732195e-01,-1.76976144e+00,-4.04011428e-01,
  -2.02309266e-01,-4.92917717e-01,-1.19714725e+00, 3.91591728e-01,
  -1.34266186e+00,-1.15244532e+01, 4.46179323e-02, 5.72698899e-02,
   5.97726583e-01,-1.59269631e+00,-1.21365905e+00, 6.51066601e-01,
   2.11689067e+00, 1.95878375e+00,-1.68129116e-01, 4.32671452e+00,
  -1.35900125e-01, 2.76738024e+00,-1.01391852e+00, 1.10267960e-01,
   7.25745499e-01,-3.60111070e+00, 9.96468544e-01,-9.55704498e+00,
   5.70814729e-01, 3.87290239e+00,-7.45104194e-01, 1.35361612e+00,
  -6.19159102e-01, 5.71813703e-01,-5.21636724e-01,-7.59532261e+00,
   2.00263560e-01, 6.55229270e-01,-3.82400537e+00, 2.47573197e-01,
   1.13022268e+00,-2.12782234e-01,-7.33242510e-03, 5.24890363e-01,
   9.78615999e-01,-2.65098743e+01, 9.62221205e-01,-2.11555079e-01,
  -1.06131382e-01,-2.69213820e+00,-8.72525787e+00,-1.60242701e+00,
  -3.04590654e+00, 1.80320239e+00, 1.00906499e-01,-8.10506940e-01,
  -5.74342012e-01, 2.60001945e+00,-1.49541054e+01,-7.69468486e-01,
  -1.01744919e+01, 2.22027683e+00, 5.67314327e-01, 3.90956640e-01,
   6.66887879e-01,-4.33790609e-02,-1.00563407e+00,-3.97777528e-01,
  -7.59932548e-02,-1.90526593e+00, 1.37468147e+00, 8.84718418e-01,
   5.18141568e-01, 3.15561986e+00,-1.32369661e+00,-9.87814844e-01,
  -1.36008511e+01,-2.41303191e-01,-5.35959864e+00,-3.81713867e+00,
  -1.78178728e-01,-6.10095024e-01,-3.61645520e-01, 1.55258822e+00,
  -7.42429686e+00, 3.02083182e+00, 1.02671015e+00, 1.41440260e+00,
  -1.29180729e+00, 8.08248878e-01, 2.43710780e+00, 1.22567976e+00,
  -2.80529540e-02, 9.57647264e-01, 8.15087891e+00,-4.03719139e+00,
   5.17571688e-01, 2.34938073e+00, 3.02971959e-01, 8.37084293e-01,
  -4.14781809e+00,-1.10735881e+00, 3.84286523e+00, 8.86104345e-01,
  -2.47504497e+00,-1.72134057e-01,-8.60531256e-02,-4.26365919e-02,
  -7.36045480e-01,-3.07318568e-01,-8.05361462e+00, 2.26305127e-01,
   9.33164477e-01,-3.56351018e-01,-1.36435986e+00, 2.87436694e-01,
  -1.46510732e+00,-2.50903726e-01,-1.94492376e+00,-6.42299747e+00},
 {-4.12283564e+00, 1.10153174e+00,-8.58514309e+00,-2.11118436e+00,
   7.25505447e+00, 4.35157925e-01, 2.31617117e+00,-3.68128633e+00,
   1.40423965e+00, 3.34263349e+00, 1.03742099e+00, 6.78376913e-01,
  -5.74501514e-01,-7.12365031e-01,-8.05191696e-01, 3.20943087e-01,
   1.03480053e+01, 1.83631748e-01, 1.38848877e+00,-1.31161225e+00,
  -3.32630849e+00,-6.51221991e-01,-2.12668300e-01, 2.29199314e+00,
  -6.55387938e-01,-3.02083254e-01, 1.11403883e+00, 4.71400946e-01,
  -4.21527290e+00,-5.24455118e+00,-6.03319740e+00,-4.02163935e+00,
  -1.83856511e+00,-4.86984539e+00,-3.23553920e+00,-2.43997025e+00,
  -1.26214218e+00,-3.90298784e-01,-4.00973988e+00,-1.15351510e+00,
  -7.72757769e-01, 1.03169119e+00, 6.64550543e+00, 2.33647847e+00,
   7.92278647e-01,-1.09770298e+01,-7.90666914e+00, 2.90806794e+00,
   4.27608252e+00, 8.76075625e-01,-2.23067984e-01,-2.96960443e-01,
  -5.14045417e-01,-6.37896180e-01, 3.92570519e+00,-8.85091245e-01,
  -1.65227735e+00,-4.04037952e+00, 1.33989515e+01,-1.84179211e+00,
  -2.48574495e+00,-3.34583092e+00,-9.98212874e-01, 2.89600801e+00,
  -6.06480646e+00, 2.33911180e+00, 4.85342884e+00, 1.05768704e+00,
  -1.56508076e+00,-3.69609737e+00, 4.72880030e+00, 2.74302769e+00,
  -1.45087843e+01,-3.09431744e+00,-4.91822243e+00, 3.27689439e-01,
   3.85995150e+00,-3.35487223e+00,-1.02958165e-01, 4.55722690e-01,
  -8.61277103e-01, 1.22875822e+00,-7.45855212e-01,-9.32009637e-01,
   1.36122704e+00,-3.45297694e+00,-1.89515436e+00, 2.49399519e+00,
   2.88323379e+00,-1.74313986e+00, 2.91739202e+00, 1.69985378e+00,
   5.73454475e+00, 1.22770381e+00, 6.37021828e+00,-4.25194120e+00,
   3.42878819e-01,-3.25748503e-01,-4.06336308e-01,-1.72768980e-01,
   8.48205268e-01, 3.31849384e+00, 4.92175436e+00,-3.50646448e+00,
   1.35448247e-01, 4.21145105e+00,-5.86411133e-02,-2.39114094e+00,
   6.23600297e-02, 2.44011834e-01, 6.94132471e+00, 2.58399296e+00,
   5.71494579e-01, 3.14522767e+00,-1.10019171e+00,-2.82869250e-01,
  -3.50880647e+00, 1.30476320e+00,-7.67075181e-01,-3.13236809e+00,
   1.11066949e+00,-7.35006332e-02,-5.50577259e+00, 6.83592200e-01,
  -1.04473794e+00,-8.25860679e-01,-6.85430527e+00,-4.96967220e+00},
 {-1.30178757e+01,-1.35222763e-01,-2.35533878e-01,-2.26607370e+00,
  -1.57682252e+00,-1.40853393e+00, 1.74694264e+00,-1.52342520e+01,
   4.63261271e+00,-7.24961281e+00,-5.43354213e-01, 9.69004250e+00,
   1.28728855e+00,-1.69609509e+01, 5.51906347e+00, 9.17662799e-01,
   3.87567878e+00, 7.41558790e-01,-2.32144642e+01, 6.35050058e+00,
  -6.22695208e-01,-6.99689436e+00,-1.29594088e+00,-2.05630016e+00,
  -3.51778865e+00, 1.08704686e-01, 8.20231915e-01,-1.01253948e+01,
  -3.33253121e+00,-9.28553641e-01, 1.04441178e+00,-9.29796696e+00,
   3.71271789e-01, 1.51721731e-01,-1.19105041e+00,-3.77561659e-01,
  -2.64470172e+00,-7.27630973e-01,-2.64507031e+00,-6.31805372e+00,
  -8.71191788e+00, 1.53753385e-01, 3.77554274e+00, 7.33544874e+00,
  -3.19205970e-01, 1.09337854e+00,-2.82682014e+00, 4.98582304e-01,
  -2.79227543e+00, 3.38316536e+00,-2.21705914e+00, 1.88588154e+00,
  -2.30919218e+00,-1.90135574e+00,-2.55697823e+00,-5.61905956e+00,
  -1.92979348e+00, 1.05799127e+00, 3.15634894e+00, 7.75728747e-02,
  -8.80376220e-01,-1.72530484e+00, 6.96562707e-01,-5.73295546e+00,
   8.88086081e-01, 1.25558600e-01, 1.08236325e+00, 1.24319449e-01,
  -3.99434996e+00, 3.17326355e+00,-8.11662102e+00,-2.54666100e+01,
   4.36846554e-01,-1.40624123e+01,-3.16025639e+00, 9.29907322e-01,
  -1.67364848e+00,-2.60772681e+00,-7.72617757e-01, 1.03033745e+00,
   3.92058671e-01,-1.08471262e+00, 8.00200939e-01,-9.39108467e+00,
   4.74431604e-01, 8.42924833e-01,-5.80787778e-01,-2.59009290e+00,
   3.19188952e-01, 5.78146982e+00, 1.28935027e+00, 1.77235079e+00,
  -4.47372580e+00,-7.15483785e-01, 6.15106165e-01,-6.72346234e-01,
  -3.46851945e+00, 2.00157225e-01, 2.88715744e+00, 4.63316441e-01,
  -5.10340214e+00, 6.08829355e+00,-2.38906670e+00,-4.05574226e+00,
  -9.10921395e-01,-1.12837915e+01,-8.54514122e+00,-2.31267023e+00,
   3.38137531e+00,-4.64456177e+00,-5.22879553e+00, 4.92364764e-01,
   1.96629941e+00,-5.99298000e+00,-6.42385244e-01,-1.35966568e+01,
   1.41004813e+00,-2.67102987e-01,-1.31170654e+00,-4.32437325e+00,
   3.30890036e+00,-2.80304470e+01,-2.53235507e+00,-1.32623684e+00,
  -2.29262248e-01, 2.13297948e-01,-1.28806794e+00, 4.72322369e+00},
 {-1.28250733e-01,-7.40634724e-02,-4.86670025e-02,-8.56481344e-02,
  -6.98267967e-02,-7.59754889e-03,-1.99104119e-02,-1.68654397e-02,
   4.14566882e-02,-6.80383295e-02,-5.17713800e-02,-4.44248877e-02,
  -4.86277863e-02,-3.88888014e-03,-7.23067299e-02,-4.84980978e-02,
  -3.24760489e-02, 5.57625480e-02, 1.23717845e-03,-3.99393365e-02,
  -1.00113623e-01,-5.65890782e-03,-1.14425376e-01,-1.77020393e-02,
  -2.74070818e-03,-9.16426182e-02,-1.00855038e-01,-1.35237444e-02,
  -8.36213976e-02,-8.12391117e-02,-1.12532809e-01, 5.53812422e-02,
  -5.28434329e-02,-1.23797596e-01,-1.25956386e-01,-4.61623557e-02,
  -1.03367537e-01,-1.25395376e-02,-2.23985612e-02, 1.77359879e-02,
  -3.44001763e-02,-9.06247050e-02,-1.57831144e-02, 5.65646999e-02,
  -1.51657471e-02,-8.33342876e-03,-7.58226588e-02, 1.28337592e-02,
  -1.74267776e-02,-1.45169437e-01, 1.79788861e-02,-1.53506786e-01,
  -9.07187685e-02,-6.58888742e-02,-6.18921369e-02,-5.33504970e-02,
  -1.09446362e-01,-6.55104220e-02,-3.21321003e-02,-8.80678743e-02,
  -2.76238732e-02, 9.01097152e-03, 5.22815296e-03,-1.49581164e-01,
  -7.10691065e-02,-1.91735476e-02, 1.83623526e-02, 1.59773733e-02,
  -2.64961030e-02, 4.53786440e-02,-4.63124476e-02, 2.02154443e-02,
   2.36423202e-02,-1.30479321e-01,-3.41983922e-02,-6.31548651e-03,
  -3.06919143e-02, 4.46981937e-02,-7.69948959e-02, 2.74085160e-02,
  -4.83282842e-02,-9.86653268e-02, 3.88488248e-02,-4.29391190e-02,
   2.03484315e-02,-2.28862371e-02,-1.51539641e-02, 2.82941423e-02,
  -9.37188882e-03,-3.40954997e-02,-6.59485832e-02,-1.34187013e-01,
  -3.17255147e-02,-1.13165803e-01,-4.24965285e-02,-1.08296715e-01,
  -4.18952703e-02,-1.04627766e-01,-2.32707616e-02, 3.21164615e-02,
  -9.54946131e-02, 2.09016595e-02,-6.86215907e-02,-3.17299068e-02,
   2.97195604e-03,-3.38520743e-02, 5.22459894e-02,-7.66724795e-02,
  -5.91144860e-02,-1.35395348e-01,-1.17526442e-01, 4.67247814e-02,
   3.68218943e-02,-6.89936504e-02,-5.22017069e-02,-1.21554703e-01,
   1.14745693e-02,-6.32815901e-03,-2.25154813e-02,-9.89214852e-02,
   2.15784051e-02,-9.23599675e-03,-1.02109089e-02,-4.18393053e-02,
  -1.29485533e-01,-1.11945318e-02,-1.77564397e-02, 1.09390356e-03},
 { 3.94920826e-01, 9.08863068e-01, 9.60294247e-01,-5.25925684e+00,
   7.81559348e-01,-1.56623297e+01, 2.40338206e+00, 2.63883615e+00,
  -3.77501988e+00,-2.11756563e+00,-1.29077390e-01,-9.00582409e+00,
   1.45835996e-01, 3.73164684e-01,-5.44454765e+00, 1.38055980e+00,
  -2.55096269e+00, 1.38814604e+00,-2.29430819e+00, 2.08296013e+00,
  -1.73717141e+00, 2.38471460e+00, 1.30226479e+01,-2.78800344e+00,
   2.02204323e+00,-2.24928498e+00,-6.29694402e-01,-4.13912058e+00,
  -3.83000398e+00, 1.55640614e+00,-1.63295436e+00,-1.56197429e+00,
   5.17738581e+00,-2.79747224e+00, 1.82936001e+00,-1.80714381e+00,
  -2.66857696e+00, 3.69892389e-01, 1.07003546e+00, 7.46587574e-01,
   2.46501088e+00,-2.00482011e-01, 1.83036566e-01,-5.27030277e+00,
  -2.08201671e+00,-1.16881490e+00,-8.29368114e+00, 5.88000631e+00,
   6.66539729e-01,-3.20845985e+00, 3.68781495e+00,-6.81366444e-01,
   2.23975897e+00, 5.94752908e-01,-2.76244736e+00, 3.15823704e-01,
   2.25896287e+00,-1.28262615e+01,-5.67091894e+00,-3.41876173e+00,
  -4.00456548e-01, 2.35256624e+00, 3.08095145e+00,-3.52385879e+00,
   5.87263346e+00,-2.08247095e-01, 9.61069393e+00, 3.24353427e-01,
  -3.16407251e+00,-4.60157585e+00,-5.18260479e+00,-6.47508049e+00,
   6.63590670e+00, 1.81752157e+00, 4.56106365e-01,-1.39286566e+01,
  -9.15113509e-01, 1.15416276e+00,-6.07085228e-01, 9.38199237e-02,
  -1.17866957e+00, 6.56391954e+00, 4.11903143e-01, 2.33109164e+00,
  -8.61062348e-01,-3.42868495e+00,-3.18231672e-01,-2.99853742e-01,
   4.35454631e-03, 4.38247538e+00,-1.22034574e+00,-5.19747674e-01,
   3.54857612e+00, 3.71569365e-01,-7.62128782e+00, 3.21311140e+00,
   8.80997896e-01, 1.31976306e+00,-2.26254368e+00,-4.15504426e-01,
   3.43746156e-01,-2.76624131e+00,-1.38709053e-01, 1.36948252e+00,
  -2.85281730e+00,-3.04013252e+00,-1.56633365e+00,-1.03344202e+00,
  -3.85909700e+00, 4.86924601e+00, 3.19235945e+00,-5.62243176e+00,
   1.20491910e+00, 1.41372490e+00, 1.35712605e+01,-7.58307993e-01,
   1.93785119e+00,-1.28829632e+01,-1.39849484e+00, 2.51411819e+00,
   6.94894910e-01,-1.63191319e-01,-2.54531324e-01,-7.63268042e+00,
  -1.06367242e+00, 3.88971591e+00,-6.82906532e+00,-3.67350793e+00},
 {-2.64706254e-01, 3.20462155e+00,-1.52742195e+01,-7.57906036e+01,
   5.02172291e-01,-2.03048849e+00,-2.08007669e+00, 1.46593481e-01,
   4.21998315e-02,-1.04190506e-01, 8.71567535e+00,-3.08555990e-01,
   5.60351133e-01,-9.35597867e-02,-2.72541940e-01,-2.28420347e-02,
  -5.12604654e-01, 1.56770611e+00,-1.03510842e-01, 1.58590563e-02,
   9.90478322e-02,-2.66805589e-01,-6.02002621e-01, 1.22076616e-01,
  -2.98854649e-01, 9.85321328e-02,-2.04024874e-02,-3.53104584e-02,
  -3.55128385e-02,-1.25574544e-01, 4.41525966e-01,-9.60504040e-02,
   1.96380079e-01,-2.40025431e-01,-1.00996271e-01, 5.22998905e+00,
   4.62753385e-01,-3.13501811e+00,-1.90167475e+00,-1.06169961e-01,
  -7.46986419e-02,-1.47956717e+00,-3.58137209e-03, 1.91022587e+00,
  -6.48804158e-02, 2.21607327e+00,-9.02762190e-02,-2.05901578e-01,
   1.17347479e-01,-1.84425309e-01, 1.30712256e-01, 1.78841781e-02,
  -1.78010571e+00,-5.36005449e+00, 1.13417603e-01,-8.15609377e-03,
   2.57615596e-01, 2.87934005e-01,-5.72005272e+00, 7.86611700e+00,
  -2.88791180e-01, 2.20187902e-01, 3.94978285e-01,-9.51019600e-02,
  -1.07526965e-01,-8.07967472e+00, 3.72861862e-01,-4.89171073e-02,
  -2.30553344e-01,-2.83155590e-01,-1.50021091e-01,-8.42519104e-02,
   8.19429338e-01, 1.26914429e-02,-1.78602397e-01,-1.69068798e-01,
  -2.11549580e-01,-6.28069401e-01, 8.67201611e-02, 2.71615982e+00,
   3.46382904e+00,-1.11744423e+01, 6.00208473e+00,-1.84590101e-01,
  -2.92021298e+00, 6.70975074e-02, 3.68013501e+00, 4.05906725e+00,
  -3.26700777e-01, 4.72876504e-02,-6.45605028e-02,-6.97974777e+00,
   1.23434529e-01,-9.04384017e-01, 1.16968855e-01,-2.44227648e+00,
   2.26675063e-01,-2.31830859e+00,-6.60607910e+00,-6.41946602e+00,
   1.14178173e-01, 1.82043582e-01, 1.38735476e+01,-6.08711386e+00,
  -1.17765866e-01, 5.42069077e-01, 2.06195395e-02, 1.28158163e-02,
   4.37840748e+00, 1.23843960e-01, 2.45738673e+00, 1.00106180e-01,
  -3.75351846e-01, 4.56540138e-01,-2.52571434e-01,-1.44140664e-02,
   3.05040956e-01,-1.16209066e+00,-1.31814599e+00,-2.22084850e-01,
   7.91306138e-01, 2.61176378e-02,-3.75609756e+00, 1.56313092e-01,
  -1.83119392e+00, 1.68538634e-02,-5.77449799e+00, 2.79075980e+00},
 {-2.17653370e+00, 1.38609707e+00,-1.43358669e+01, 4.23612738e+00,
  -7.57455111e+00,-6.20366192e+00, 6.11340380e+00,-4.79018021e+00,
   3.29829860e+00, 3.37089896e-01, 1.87295175e+00, 8.48873377e-01,
  -1.64676952e+00,-9.71054852e-01,-6.22874880e+00, 2.26484346e+00,
   1.41046417e+00, 1.14967947e+01, 3.41081806e-02,-8.67761493e-01,
  -1.86438215e+00,-5.19297266e+00,-5.00196266e+00,-7.05127835e-01,
  -1.81948829e+00,-6.98165131e+00,-7.21842349e-01, 3.82760823e-01,
  -3.72399449e-01,-3.12130594e+00, 9.02350843e-02, 1.26512063e+00,
  -2.56557488e+00,-1.12568541e+01,-8.35510939e-02,-2.03134036e+00,
  -2.81195436e-03,-3.19504952e+00, 3.44638079e-01, 2.55480790e+00,
  -1.05234981e+00,-4.47667629e-01,-1.04952824e+00,-6.37001324e+00,
   1.93875968e+00, 3.10254884e+00,-2.10916567e+00, 5.11497855e-01,
   4.02587461e+00, 9.53114986e-01, 1.05578089e+00, 4.39835668e-01,
  -1.64172351e+00,-1.07207928e+01, 1.64179420e+00,-2.51803726e-01,
  -1.30973637e+00,-2.26504266e-01,-2.22001195e+00, 9.58383656e+00,
  -1.68561280e+00,-2.76479578e+00,-4.78714079e-01,-1.28147542e+00,
  -5.97605228e+00,-5.97635078e+00,-7.86036634e+00, 1.41625655e+00,
  -1.78438187e+00, 1.16098809e+00, 4.97888517e+00, 6.12118483e-01,
   3.59729320e-01,-1.51915216e+00,-1.51510296e+01,-2.70272970e-01,
  -1.11460829e+00,-4.80082631e-01, 9.38020825e-01,-4.81793821e-01,
  -2.46424413e+00,-2.05364823e+00, 1.32135904e+00,-1.94833052e+00,
   3.98812914e+00, 1.60070992e+00, 2.41721559e+00, 2.55329943e+00,
  -1.12490785e+00,-3.31893229e+00, 5.85418797e+00,-2.14195085e+00,
   7.30151367e+00, 7.32324183e-01, 4.70047903e+00,-7.98252344e-01,
  -7.03746498e-01,-4.95892429e+00,-1.71194541e+00,-8.31286013e-01,
   4.85294014e-01, 3.48083067e+00, 2.83689003e+01,-6.61703873e+00,
   1.72965765e+00, 3.40784764e+00,-9.92176533e-02, 1.07589757e+00,
  -3.16001320e+00, 7.12512493e-01,-6.35083914e-02, 2.13898492e+00,
  -2.22070023e-01,-4.86688077e-01,-3.64247155e+00,-1.11675751e+00,
  -1.76628336e-01, 7.04742849e-01, 1.97160438e-01, 4.37649302e-02,
   3.10322046e+00,-3.71656030e-01, 1.14743602e+00, 2.67634153e+00,
  -3.31138086e+00,-1.54747593e+00,-3.89680767e+00, 1.46960899e-01},
 {-1.46572342e+01,-1.28203464e+00, 2.98946238e+00,-3.46291280e+00,
  -3.64274597e+00,-1.85477161e+00, 6.96851063e+00,-2.07199574e+00,
   6.11875772e+00,-4.93334627e+00,-1.06864536e+00,-5.35461712e+00,
   4.52489465e-01,-5.85972190e-01, 1.89575458e+00,-1.63311040e+00,
   2.95469809e+00,-6.44863665e-01,-1.42494345e+01, 1.00751886e+01,
   1.55083585e+00, 6.04822524e-02, 1.61873382e-02, 5.18961668e+00,
   9.85346377e-01, 4.65887904e-01, 1.32541394e+00, 2.16644907e+00,
   2.00982022e+00, 2.01259899e+00,-5.38255811e-01, 4.08194923e+00,
   3.60410500e+00,-1.45995095e-01, 3.28604198e+00,-1.04317570e+00,
  -2.10642385e+00,-2.09279373e-01,-3.04450893e+00,-1.42748618e+00,
   1.24331570e+00,-2.18624735e+00,-6.54168367e+00, 1.58305752e+00,
  -3.53511262e+00, 3.38277268e+00, 3.22683990e-01,-3.83611441e-01,
  -1.82117844e+00,-3.45477915e+00, 5.09895372e+00, 2.43022680e+00,
   1.68855906e+00, 2.73928952e+00,-2.73736048e+00,-4.50127649e+00,
  -1.37022877e+00,-2.66583705e+00,-1.43339765e+00,-4.78527337e-01,
   8.52692246e-01, 1.47103512e+00, 5.25093508e+00, 7.75451064e-01,
   2.20693111e+00,-2.16157007e+00, 2.95741963e+00,-6.45777559e+00,
  -2.62610018e-01,-2.37011862e+00, 7.08645821e+00,-1.04677076e+01,
  -5.79119492e+00, 1.78953397e+00,-1.52073175e-01,-3.01012564e+00,
  -1.13735285e+01,-5.04467070e-01,-2.23620966e-01, 6.20778143e-01,
   2.75835013e+00, 1.38942635e+00,-3.03215444e-01,-2.85732222e+00,
  -1.50234997e+00,-3.14716291e+00, 2.36095145e-01,-5.30461311e+00,
  -8.23465061e+00,-3.13067961e+00,-5.15311241e+00, 1.79645658e+00,
   9.23869431e-01,-6.21259356e+00,-1.37363148e+00,-5.37675560e-01,
  -1.11483514e+00, 2.80704975e-01, 2.66628146e+00, 1.14105260e+00,
   1.27273810e+00, 2.94803977e+00,-7.33166337e-01,-1.23434305e+00,
   2.36851382e+00, 2.52355003e+00, 5.93758225e-01, 3.04196533e-02,
   5.23065567e+00,-6.69442892e-01,-3.60037541e+00, 2.06926560e+00,
   1.24606526e+00, 1.09307855e-01, 2.85664082e-01,-8.12111282e+00,
   1.71075851e-01,-4.01002169e+00,-2.47468948e+00, 1.86267090e+00,
   8.58842659e+00,-1.05804367e+01,-4.23938608e+00, 4.70767736e+00,
  -6.97979212e-01, 3.25275707e+00, 3.32753301e-01, 5.76928520e+00},
 {-4.67479801e+00,-1.97954297e+00, 5.14510155e+00,-1.48370373e+00,
  -2.66962194e+00,-5.39526558e+00, 4.04121447e+00,-3.75494838e+00,
   2.57349873e+00,-1.30430818e+00, 2.81936646e+00, 4.54698294e-01,
   4.55934912e-01,-2.82188106e+00,-4.44646215e+00,-1.56987131e+00,
   2.65160322e+00,-1.78501201e+00, 1.04735565e+00,-2.48969659e-01,
   1.93686813e-01, 1.25997138e+00,-1.98170269e+00, 6.33190691e-01,
  -2.60231137e+00,-4.09486914e+00,-1.23867440e+00, 3.16776490e+00,
   2.42241934e-01,-2.34720993e+00,-2.89188242e+00,-1.87695992e+00,
  -5.20775206e-02,-1.99155974e+00, 4.50999647e-01,-1.99152231e+00,
  -2.30559278e+00, 1.06900942e+00,-1.91744101e+00, 1.25481415e+00,
  -1.74758399e+00,-2.25599241e+00, 7.53282104e-03,-5.42817211e+00,
   1.23905766e+00, 1.28724098e+00,-1.47111106e+00,-6.43076718e-01,
  -2.43131757e+00, 2.21088171e-01,-4.60636663e+00, 6.54047549e-01,
  -2.40916109e+00, 4.35287476e+00, 2.54663944e+00,-1.13289468e-01,
  -2.15320066e-01,-3.31407380e+00, 1.33340549e+00,-4.59318429e-01,
  -2.25978687e-01, 1.64520919e+00,-5.49261630e-01,-2.57354951e+00,
  -6.16182327e+00, 1.73931405e-01,-6.38434315e+00,-1.85113028e-01,
  -4.96513128e+00, 2.26093665e-01, 8.08522987e+00, 3.26032341e-01,
  -5.56963348e+00,-2.96509290e+00,-4.18262243e+00, 6.45552725e-02,
   3.91852307e+00,-1.46367085e+00,-3.07320982e-01, 7.43099928e-01,
   1.73349309e+00,-5.10939169e+00, 1.23717487e+00,-3.96342969e+00,
   1.47992003e+00, 2.67368257e-01,-1.16600382e+00, 1.49098229e+00,
  -1.34657412e+01,-7.59394979e+00, 9.10494232e+00, 4.79416895e+00,
   5.31663752e+00, 3.07142782e+00, 4.73004818e+00,-6.27812338e+00,
  -2.11981058e+00, 3.74474168e+00,-2.38837814e+00, 2.07029533e+00,
   4.23785448e-01, 5.06570387e+00,-8.86643454e-02, 4.03829050e+00,
   6.53223467e+00, 4.69697046e+00,-1.28088042e-01, 2.91916394e+00,
   3.05436921e+00, 1.57167327e+00, 6.25921011e+00, 4.32863331e+00,
  -2.01405495e-01,-2.68098950e+00,-2.49387646e+00,-1.74404669e+00,
  -1.87596738e+00, 2.34835792e+00,-4.37546492e+00,-2.66192460e+00,
   1.19007778e+00, 3.74057174e-01,-5.61416054e+00, 4.53489494e+00,
  -1.07637262e+00,-1.86942506e+00,-4.84046507e+00,-4.64077187e+00},
 { 1.22605683e-02,-1.12664318e+00, 1.45612745e+01, 6.19646597e+00,
  -5.03482342e-01,-9.00050774e-02, 9.91550863e-01, 5.77971637e-01,
  -7.89535642e-02,-7.69557655e-02,-7.27009583e+00, 2.17426699e-02,
  -3.86126131e-01,-1.66344829e-02,-2.24938765e-01, 1.22507311e-01,
   8.44816417e-02,-5.95187187e+00, 5.25830463e-02, 2.28241663e-02,
  -2.63864398e-01, 4.10438269e-01,-1.67667496e+00,-6.03478289e+00,
  -3.58621627e-01,-4.81996574e-02,-3.75135690e-02,-6.44356906e-02,
  -4.26076762e-02, 9.45491195e-01,-4.54647684e+00,-1.87389702e-01,
  -4.91285697e-03, 7.95101300e-02, 6.02478758e-02,-2.62468028e+00,
   2.32593957e-02,-5.51262975e-01,-1.11593902e+00, 2.54471034e-01,
   5.99060878e-02,-2.45897055e+00, 2.80005068e-01, 1.93555129e+00,
  -1.67489901e-01, 1.05721164e+00, 4.69609722e-02,-1.93981919e-02,
  -1.99742094e-01, 8.13410059e-02, 3.78537513e-02,-2.40622070e-02,
  -8.04599822e-02,-3.78432703e+00,-6.32594228e-02,-1.72150247e-02,
   5.51614612e-02, 1.79530278e-01,-1.07748890e+01,-1.10952892e+01,
  -2.53587276e-01,-2.17388988e-01, 6.08113348e-01,-2.03161493e-01,
   7.22351134e-01, 7.69246626e+00,-5.15217447e+00, 3.30648750e-01,
   4.84386683e-01,-9.56776366e-02,-1.34881306e+00, 5.44375107e-02,
  -2.94356477e-02, 1.82803437e-01, 3.36324461e-02,-2.66235799e-01,
   3.04305762e-01, 3.48731279e-01, 5.35379887e-01,-3.05442715e+00,
   1.61524808e+00,-1.54473150e+00,-1.25372238e+01, 1.44780591e-01,
   2.01697302e+00,-1.64868385e-01,-5.94982624e-01, 5.41271687e+00,
   1.04521647e-01, 1.37305453e-01, 7.96380639e-02,-5.03309822e+00,
   9.21855792e-02, 1.70560889e-02,-5.93909979e-01,-1.39672959e+00,
  -2.61603564e-01,-1.57830346e+00, 9.79171813e-01,-1.14006972e+00,
  -7.80678019e-02,-1.34878457e-01,-1.50463028e+01, 6.57776833e+00,
   4.88137975e-02,-4.91329402e-01, 2.16636658e-02,-3.00099403e-01,
   2.84103441e+00,-7.48066083e-02,-3.85955524e+00,-2.18690082e-01,
   6.28416586e+00, 1.30873477e+00, 3.03548932e-01, 2.13001341e-01,
  -9.57114026e-02,-1.47818518e+00, 2.93095899e+00,-1.69958591e-01,
   3.21597487e-01, 1.54443875e-01,-8.46832752e-01,-5.62518537e-01,
  -4.45886326e+00,-7.59619195e-03,-2.68815613e+01,-5.72804093e-01},
 { 3.60827222e-02,-7.27468193e-01, 1.87899399e+00, 1.74275661e+00,
  -6.88291025e+00,-7.58255148e+00, 2.01071548e+00, 5.34280203e-02,
   1.51187852e-01, 3.60843390e-01,-7.17078924e-01, 1.27144367e-01,
  -6.07373714e-01,-1.38702959e-01, 9.56649363e-01,-1.29048562e+00,
   1.44982052e+00,-3.72547603e+00,-3.19809258e-01, 1.16393097e-01,
  -3.25632691e-01, 6.66936445e+00,-8.41216743e-01,-4.25665706e-01,
   8.38553190e-01, 3.38048935e+00, 2.86700223e-02, 6.85536957e+00,
  -3.02623898e-01,-1.33943766e-01,-7.15881443e+00, 1.43372923e-01,
   4.82149050e-02,-2.15425205e+00, 1.82451874e-01,-1.23613644e+01,
   2.57607365e+00, 4.10826392e-02,-2.45137715e+00, 2.30074614e-01,
  -1.11916186e-02, 5.18771648e-01, 7.05764741e-02,-2.54355315e-02,
  -2.34818384e-01,-4.41552973e+00,-7.36769810e-02, 1.62861124e-01,
  -5.57373333e+00,-1.59977928e-01, 3.90941322e-01, 1.48370147e-01,
   5.19294500e-01, 8.38576603e+00,-2.03965113e-01, 2.68420540e-02,
   2.98031151e-01,-3.10306847e-01, 1.43856561e+00, 1.21154690e+01,
   6.60438597e-01, 3.51100564e+00,-1.92439053e-02, 4.52213824e-01,
   1.35497957e-01, 8.46149254e+00,-9.10416412e+00, 2.49818847e-01,
   9.39299774e+00,-9.53953564e-01, 1.81959659e-01, 1.42774079e-02,
   9.91159678e-01, 9.83675346e-02,-2.56946301e+00,-2.65502892e-02,
   1.11726665e+00,-1.50406790e+00, 1.00350392e+00, 1.43662405e+00,
   8.45814109e-01, 4.01248643e-03, 1.68079376e+00,-3.00471056e-02,
  -1.77128868e+01,-1.39581069e-01,-1.21658456e+00,-2.24773812e+00,
   1.77165538e-01, 6.61904633e-01, 3.68276834e+00, 1.88522267e+00,
   2.01450109e+00, 1.21015996e-01,-2.54519165e-01, 3.48756146e+00,
  -6.57848775e-01,-1.50713336e+00, 2.40928078e+00,-4.39552754e-01,
   9.24112052e-02,-2.48268858e-01,-4.50033617e+00,-1.48933187e-01,
  -6.79980934e-01, 9.24423873e-01, 5.96760251e-02,-4.87438858e-01,
  -1.98364705e-01,-1.77595794e-01, 2.24429131e+00,-1.10675186e-01,
  -6.69982314e-01,-3.38015532e+00, 1.02954340e+00, 1.53589547e-01,
   5.16050398e-01,-9.34853196e-01, 2.72825569e-01, 2.11715555e+00,
   1.34533450e-01, 1.43346921e-01,-4.24535894e+00,-2.00255483e-01,
  -1.52111602e+00, 1.47377655e-01, 1.70034140e-01,-4.64874887e+00},
 { 1.30950555e-01,-1.39873352e+01,-1.24438896e+01, 2.62085700e+00,
  -5.37636518e-01, 3.03180432e+00, 1.00997734e+00,-1.61130011e-01,
  -6.81275651e-02,-3.50785442e-02,-2.99313593e+00, 3.18698555e-01,
  -2.52105236e-01,-2.16125119e-02, 3.63662839e-01,-2.30214500e+01,
   4.81849253e-01,-4.06616497e+00,-3.79020139e-03,-1.04874551e-01,
   2.72607356e-01,-8.34805369e-01,-6.93702877e-01, 9.82498288e-01,
   1.71167497e-02, 8.47407699e-01, 2.32777130e-02,-1.21292868e-03,
   2.28088215e-01, 7.94650838e-02, 2.93997049e+00,-1.57410931e-03,
  -1.94466501e-01, 5.89676082e-01,-1.33241966e-01, 2.54789329e+00,
  -4.88295630e-02,-1.06217444e+00, 1.30249441e+00, 2.31586909e-03,
  -5.85628822e-02,-9.44397002e-02, 8.67661927e-03,-2.64754981e-01,
   3.04980725e-02,-5.37512541e+00,-3.28124553e-01,-8.49793404e-02,
  -4.24335361e-01, 8.50635930e-04,-1.68582737e+00, 4.11295779e-02,
  -8.64328742e-01, 6.79844952e+00, 2.85732508e-01, 5.67284115e-02,
  -1.39994314e-02, 7.60361195e-01,-6.12327433e+00, 9.05268288e+00,
  -1.32349215e+01, 1.93227604e-01,-3.22461784e-01, 7.37495571e-02,
   1.64187014e-01,-3.81897330e+00, 8.92807424e-01,-1.43611968e-01,
  -2.37290606e-01, 6.09639287e-01,-5.20532504e-02,-5.34638688e-02,
   2.32150626e+00, 7.04083219e-03,-8.75310779e-01,-1.45985812e-01,
  -3.18564445e-01, 9.55159247e-01, 2.92269796e-01, 3.31881142e+00,
  -1.06912680e+01,-6.49302101e+00, 7.96441793e+00,-1.15205860e-02,
  -7.61995912e-01, 2.08879814e-01, 2.09448075e+00,-3.02762699e+00,
   5.78798242e-02,-2.17202678e-02, 8.15215781e-02,-3.35979104e+00,
   1.17773622e-01,-2.33887464e-01, 2.59518355e-01, 2.45808792e+00,
   3.95061463e-01, 8.18354070e-01,-1.30163920e+00, 6.89599514e+00,
  -7.07968837e-03,-1.16214946e-01, 1.28216085e+01,-1.46587906e+01,
  -8.09473172e-02, 8.03065777e-01, 5.73635753e-03,-3.48297030e-01,
  -9.01148224e+00,-1.06583685e-01, 1.34567773e+00,-1.72168851e-01,
  -1.07172985e+01, 1.40905845e+00, 6.95352554e-02,-1.54351637e-01,
   4.09910232e-02, 2.45905355e-01,-2.59820366e+00, 1.18940485e+00,
   1.61306068e-01,-1.56960916e-02, 2.16550007e-01, 1.50392920e-01,
   1.99071240e+00, 7.86319673e-02,-2.31379676e+00, 1.42848760e-01},
 {-1.00907173e+01, 5.68961492e-03, 3.47486615e-01, 1.03451766e-01,
  -7.56989062e-01,-2.28730226e+00,-1.35723505e+01, 1.98486522e-01,
  -3.05543089e+00,-1.90883934e+00,-3.90596166e-02, 1.65005283e+01,
   2.15762481e-02,-8.13897073e-01, 1.80634296e+00,-2.82567084e-01,
  -5.30789316e-01,-1.18831253e+00,-2.55779526e-03, 1.07802701e+00,
   4.38138425e-01,-1.67216957e-02,-1.94442272e+01, 1.96328437e+00,
   3.72685552e-01,-2.81810611e-01,-1.80575669e+00,-1.75413534e-01,
  -4.92097616e+00, 7.92186201e-01,-9.58070219e-01, 9.14105225e+00,
  -1.13312740e+01,-2.22761050e-01, 6.83413029e-01,-1.07886910e-01,
   2.40639672e-01, 7.35599250e-02, 2.70860362e+00, 7.08991960e-02,
   2.27461267e+00,-1.43435612e-01,-4.54067039e+00,-1.26502788e+00,
  -2.02724457e+00, 8.79348457e-01,-9.65145510e-03, 7.09781885e-01,
  -5.04387259e-01, 7.50455260e-02,-1.05992243e-01, 1.15802085e+00,
   3.83674085e-01,-3.80691081e-01,-1.35434303e+01,-8.25100231e+00,
   1.63608479e+00,-2.91851640e-01,-2.47804809e+00,-1.10028051e-01,
   1.89820558e-01,-4.32672203e-01, 7.64871168e+00,-1.92354634e-01,
   3.00903654e+00,-1.28099054e-01, 5.03251791e-01, 2.20215142e-01,
   9.96357203e-01,-6.94140643e-02, 4.50551891e+00,-2.82283287e+01,
  -6.90572214e+00, 7.15866685e-01, 5.08950710e-01,-1.49146664e+00,
  -6.35241032e-01, 4.53278661e-01,-1.38664329e-02, 2.03588381e-01,
  -1.24970980e-01,-3.40648085e-01,-2.23362699e-01, 2.82071501e-01,
   2.55052838e-02, 3.61727643e+00,-2.00009272e-02,-3.47995341e-01,
  -2.12381139e-01, 8.94549072e-01,-1.43939257e-01, 1.35297501e+00,
   3.21964473e-01,-1.57692522e-01,-5.60044479e+00,-1.04117560e+00,
   4.03957546e-01, 1.53126150e-01, 5.18458903e-01,-1.54032158e-02,
   3.43412805e+00, 1.78156209e+00, 2.88006043e+00,-3.84901911e-02,
   6.64521307e-02,-1.16286163e+01,-5.85003614e-01, 2.55228639e-01,
  -1.22181773e-01,-1.54740438e-01,-3.84675376e-02,-8.41316032e+00,
   1.98467404e-01, 1.58980310e-01,-1.10132275e+01, 1.21428907e-01,
   1.20651698e+00, 7.26939487e+00, 4.72073965e-02,-3.80374700e-01,
   3.01770639e+00, 9.96002316e-01, 5.52868284e-02, 4.46557188e+00,
  -7.28928000e-02, 2.20933914e+00, 3.07203770e-01,-2.58799881e-01},
 {-3.69951613e-02, 4.27245274e-02, 1.89370021e-01, 1.18255764e-01,
  -6.07672870e-01,-1.75935817e+00, 3.62004781e+00, 9.78958249e-01,
  -6.60467243e+00,-2.13865787e-01,-1.53075770e-01, 4.19428492e+00,
   1.68062057e-02, 5.23017466e-01, 8.72490120e+00,-3.31115335e-01,
  -4.82432604e-01,-2.66181922e+00,-1.82878208e+00, 6.05813885e+00,
   3.52439642e-01, 6.68651313e-02, 2.93138433e+00, 2.12454885e-01,
   3.75666201e-01,-1.84823364e-01, 7.87448466e-01,-1.83102787e-01,
  -5.30188560e+00, 5.44849157e-01,-6.31887674e-01, 1.27650249e+00,
   7.37562370e+00,-1.70635045e-01,-1.25567961e+00,-1.07113019e-01,
   1.64448261e-01, 2.14535045e-03, 1.51875615e+00, 1.79961808e-02,
   1.21322203e+00,-1.51644424e-01,-5.22983372e-01,-1.99468517e+00,
  -3.27710867e+00, 1.11529171e+00, 4.32180911e-02, 3.57662368e+00,
  -6.29879177e-01,-1.00860560e+00,-1.59902170e-01,-3.51227403e-01,
   2.30148852e-01,-2.69582421e-01,-3.12105680e+00, 4.76370049e+00,
   3.32293439e+00,-2.32279778e-01,-1.94375324e+00, 1.55070651e+00,
   1.63310200e-01,-3.99383634e-01, 1.08646202e+01,-1.18889406e-01,
   1.05399132e+00,-1.20621443e-01, 7.65053153e-01, 1.62637144e-01,
   1.00061142e+00,-5.26847243e-02,-2.61182451e+00, 6.08644366e-01,
   1.23511946e+00, 9.44154561e-01, 4.47936654e-01, 4.61977422e-01,
  -1.61999810e+00, 3.45864385e-01, 1.31286774e-02, 4.59442139e-02,
  -6.54679090e-02,-2.21286118e-01,-2.53720522e-01,-1.57513618e+01,
   1.69657722e-01,-4.75139946e-01,-2.22585406e-02,-8.30522254e-02,
  -2.36253202e-01, 3.09227037e+00,-1.47444069e-01, 1.10628223e+00,
   2.93052703e-01,-2.06970070e-02,-6.54202938e+00,-1.81040418e+00,
   3.83507371e-01,-1.57263592e-01, 7.45252907e-01, 9.66538787e-02,
   8.42662930e-01,-6.36730254e-01, 1.24606323e+00, 2.89998353e-01,
  -1.58891785e+00,-1.03055859e+01,-1.12429172e-01, 1.52156428e-01,
  -1.72673583e-01,-1.40156552e-01,-6.75918981e-02,-7.99389541e-01,
   4.17069793e-02, 2.01055646e-01, 4.45266247e+00, 1.53673875e+00,
   5.03697252e+00, 1.07057464e+00, 2.60141548e-02,-4.10500795e-01,
  -6.27262783e+00, 4.23543036e-01, 1.14172418e-02, 6.39604092e+00,
  -5.12541533e-02, 4.33092825e-02, 2.24178657e-01,-2.71378249e-01},
 {-1.04686487e+00,-1.36196524e-01, 8.61235619e-01, 5.28338373e-01,
   1.42619383e+00, 4.21896601e+00,-7.22527599e+00,-4.28730536e+00,
  -2.01331234e+00, 1.06029904e+00,-3.05610329e-01, 4.50351667e+00,
  -1.64002717e-01,-4.00318480e+00, 7.56083012e+00, 6.79055631e-01,
   5.66003799e-01,-2.79951721e-01, 6.01972520e-01,-2.20403433e+00,
  -9.25343215e-01, 3.78017962e-01,-1.88453746e+00,-6.47165239e-01,
  -1.09035778e+00, 2.42474839e-01,-1.78917181e+00, 6.44187868e-01,
  -5.13329697e+00,-1.40956950e+00, 5.62493145e-01,-1.54223394e+00,
   1.64772737e+00, 4.13287222e-01,-2.34042764e-01, 8.12840521e-01,
  -7.61126995e-01, 3.80830020e-01,-1.19196701e+00,-1.03222184e-01,
  -2.47095227e+00, 5.10782421e-01, 3.36020541e+00, 2.90681291e+00,
  -2.17083859e+00, 3.61816788e+00, 3.06535885e-02,-1.12486756e+00,
   9.18535829e-01, 6.93865061e-01, 3.55811357e-01, 1.11622381e+00,
  -9.15548921e-01,-2.94689327e-01, 1.03202367e+00,-2.80557919e+00,
   2.84985781e+00, 3.73396903e-01, 2.49629259e+00,-1.96600938e+00,
  -7.16938019e-01, 6.23453736e-01, 4.05912817e-01, 4.63665187e-01,
   9.11897600e-01, 4.45476145e-01,-1.43661022e+00,-3.44357520e-01,
  -1.87955689e+00, 2.21626863e-01, 3.99999690e+00,-8.27400327e-01,
   5.37153292e+00,-5.93436122e-01,-1.25626838e+00,-1.13893199e+00,
   2.89502692e+00,-6.57504916e-01,-1.82048067e-01, 3.09215397e-01,
  -2.81713873e-01, 5.38625479e-01,-1.30995303e-01,-4.65591526e+00,
   1.55314030e-02, 2.76530415e-01,-3.50159109e-02,-3.78169447e-01,
   5.31108916e-01,-1.13331289e+01, 2.92026818e-01, 7.10058749e-01,
  -9.42191362e-01, 1.55581877e-01,-3.66406178e+00, 1.16309178e+00,
  -9.34752703e-01, 4.60285336e-01, 4.87255454e-01,-4.23528701e-01,
   2.29461789e+00, 1.93332684e+00,-2.21233273e+00,-1.02499299e-01,
   1.38000603e+01, 6.03215885e+00, 2.72029370e-01,-2.84824222e-01,
  -7.64548257e-02, 1.22767523e-01, 2.87372228e-02, 1.33978164e+00,
   1.60436094e-01, 2.86223173e-01, 8.58858466e-01,-2.06768179e+00,
   1.83537745e+00, 4.41543245e+00, 1.07409549e+00,-1.50974679e+00,
   1.58256263e-01, 5.88203478e+00, 3.45120095e-02, 7.02094507e+00,
   3.72625202e-01,-5.25970697e-01,-5.24908245e-01, 3.37985128e-01},
 {-2.67287683e+00, 1.54159880e+00, 1.35414047e+01, 2.49669862e+00,
   1.04755938e+00, 4.21244478e+00, 4.53747320e+00,-4.60106373e+00,
   2.76959848e+00,-2.54850447e-01,-4.92604494e-01, 5.47163725e-01,
  -2.48901874e-01,-2.30533600e+00,-6.18631601e+00, 1.00879169e+00,
   1.32563269e+00, 5.16495275e+00, 1.87447047e+00,-8.13322306e-01,
  -3.27348542e+00,-1.16152608e+00,-2.74687481e+00,-2.52184582e+00,
  -3.82050776e+00,-2.88026309e+00,-1.35343754e+00, 2.81121707e+00,
   5.48413932e-01,-4.98298216e+00, 9.71479511e+00,-1.28096604e+00,
  -2.42970049e-01, 2.75332069e+00,-4.48953211e-02, 2.92342782e-01,
   5.57724810e+00, 4.97171164e+00,-3.31905345e-03,-7.77340829e-01,
  -1.74419308e+00, 2.16762853e+00,-6.78813815e-01,-8.44163036e+00,
   1.57962167e+00, 2.28633618e+00,-1.25077116e+00,-1.74913514e+00,
  -2.89725971e+00, 1.21462297e+00, 5.18819952e+00, 5.91586471e-01,
  -3.05541996e-02,-1.51500988e+00, 2.36566043e+00,-5.60279153e-02,
  -4.24219370e-01, 1.05929232e+00, 6.53360710e-02,-6.53689241e+00,
  -3.78071451e+00, 6.72758150e+00,-1.85662925e+00, 2.32199740e+00,
  -6.07500792e+00, 9.93311822e-01,-6.81393337e+00, 5.96424437e+00,
  -5.42633200e+00, 1.76238787e+00, 6.96692371e+00, 1.32266605e+00,
  -6.13221693e+00,-2.12330604e+00,-3.07042503e+00,-5.94571531e-01,
   6.05446041e-01,-1.54877782e+00,-8.64147991e-02, 1.18245435e+00,
  -4.43534231e+00, 4.81743050e+00,-1.51622736e+00,-3.19209552e+00,
   2.34884024e+00, 7.65928090e-01,-9.42241251e-01, 8.61873627e-01,
   1.56884861e+00,-7.83860064e+00,-1.04868567e+00, 4.32568121e+00,
  -5.85804176e+00,-5.63028431e+00, 5.18463612e+00,-1.88626027e+00,
  -3.22597408e+00,-2.01973820e+00, 1.61824524e-01, 6.80907488e-01,
   2.13978246e-01, 4.29985571e+00,-1.31646118e+01, 6.05146933e+00,
   5.93916035e+00, 4.79760361e+00,-1.41606241e-01,-2.78480053e+00,
   2.60160947e+00, 3.03250581e-01,-6.72451735e+00, 2.97214484e+00,
   1.34698343e+00,-5.20812893e+00,-3.55990458e+00,-1.53993356e+00,
  -2.24576855e+00, 3.30761462e-01,-8.20327580e-01,-4.15223646e+00,
   3.44146442e+00, 1.72737971e-01,-5.62905185e-02, 4.72510481e+00,
   1.58258772e+00,-2.15032506e+00,-2.41450548e+00,-3.54418659e+00},
 { 9.56953689e-03, 1.04909152e-01,-1.11041632e+01,-3.58158469e-01,
  -1.50379939e-02,-5.53174829e+00, 5.00196099e-01,-2.22682022e-02,
  -3.27663682e-02,-2.10867599e-02, 3.32427591e-01, 6.30247235e-01,
  -2.31736541e+00, 1.42220072e-02, 5.37664175e-01,-5.99585753e-03,
  -3.33560395e+00,-8.95354927e-01, 2.52246503e-02,-4.00183490e-03,
  -2.83040851e-02, 1.78853646e-01, 3.35163563e-01,-4.75436114e-02,
  -5.28933294e-02, 2.72872727e-02,-8.30938295e-03,-1.58173740e-02,
   7.30685890e-02,-4.54060920e-02,-1.25365057e+01,-9.77791101e-03,
   3.00081283e-01,-1.77897178e-02, 5.77090867e-02,-1.32041478e+00,
  -3.98370409e+00, 6.48232579e-01,-1.15844412e-02,-8.25780537e-03,
   2.70196004e-03,-1.58428233e-02,-1.59404259e-02,-1.40745163e-01,
   5.40094264e-03,-1.73067105e+00,-8.20701003e-01,-4.06836756e-02,
  -1.69190928e-01,-3.45606147e-03,-1.78020373e-02,-2.00271537e-03,
  -5.22829704e-02,-6.30325794e-01, 5.77071821e-03, 2.50049792e-02,
   3.54734510e-02, 1.50045112e-03,-1.46936163e-01,-2.03614140e+00,
   5.04000711e+00, 1.46746123e+00, 8.49446282e-02, 2.31403112e-02,
  -1.32401094e-01,-5.42231178e+00, 3.32482624e+00, 8.54849536e-03,
  -6.35490465e+00,-2.49952767e-02, 3.82364541e-02,-6.16071839e-03,
  -1.83663815e-01, 2.24903179e-03, 2.02556606e-02, 1.04989544e-01,
  -1.92808673e-01, 2.79831998e-02, 1.87061727e+00,-1.03324771e-01,
   7.43010864e-02,-5.19332886e-02,-4.12389696e-01, 4.52619605e-03,
  -9.79068160e-01,-7.48203322e-02, 3.26200390e+00,-2.24320501e-01,
   8.48642290e-02,-1.53743709e-02,-4.21679951e-02,-1.98738337e+00,
   3.09499484e-02, 3.87868425e-03,-1.97677221e-03,-1.13235927e+00,
   2.50310693e-02, 1.73287690e-01,-4.88672674e-01,-3.59868550e+00,
  -2.53750477e-02,-1.01005509e-02,-6.32415152e+00,-5.67835689e-01,
   3.05397417e-02,-7.92482942e-02,-6.88990019e-03,-6.28418231e-04,
  -2.13110085e+01, 2.06028130e-02,-2.58217722e-01, 1.73335914e-02,
   6.54799342e-02, 2.41451645e+00,-9.58035216e-02,-1.26051083e-02,
  -1.41519487e-01, 2.34622061e-01,-6.90188944e-01, 6.85216665e-01,
  -2.21893668e-01,-1.63655565e-03, 3.92761119e-02,-2.36737937e-01,
   2.18554527e-01, 1.16408262e-02,-4.78382558e-02,-8.27858257e+00},
 { 2.01446891e+00,-1.24585211e+00, 4.32045251e-01,-4.58412218e+00,
  -2.17878509e+00,-4.65426540e+00,-2.45560050e+00, 1.47853231e+00,
  -4.20181370e+00,-1.77356756e+00, 1.71234882e+00, 1.48443115e+00,
  -1.95452929e-01, 1.28766537e+00, 7.64920950e+00, 2.59736609e+00,
  -1.73883998e+00,-5.07507145e-01,-1.62806392e+00, 2.92778611e+00,
  -2.89520359e+00,-1.45498300e+00, 2.90186715e+00, 1.62928843e+00,
  -1.15579402e+00,-3.30068469e+00,-1.66521624e-01, 3.66607785e+00,
  -8.71342272e-02, 1.25717890e+00,-2.12817168e+00, 3.50891256e+00,
   1.74435759e+00,-1.03862486e+01,-2.67578125e-01, 1.99462688e+00,
   3.12651348e+00, 2.08867717e+00,-2.86236382e+00,-4.71390200e+00,
   1.53984153e+00,-3.75811309e-01, 9.10687625e-01,-4.28216076e+00,
  -1.43275476e+00, 4.69957829e+00, 2.51168585e+00,-4.97043043e-01,
  -3.01445889e+00,-9.55550790e-01, 2.22123289e+00, 4.44749713e-01,
   1.42140186e+00, 1.42026806e+00,-4.39319521e-01, 3.63093644e-01,
  -9.47356597e-02, 8.45463657e+00, 4.82646418e+00, 2.56736350e+00,
   2.08112001e+00, 6.34223652e+00, 6.48483419e+00, 8.47737849e-01,
   7.26451540e+00,-1.48646021e+00,-3.58532405e+00, 3.07180643e+00,
  -4.29826260e+00, 7.75961280e-01,-4.69724989e+00,-4.94203186e+00,
   1.31128812e+00, 1.39959645e+00, 5.65401793e+00,-5.87392807e-01,
  -5.16947222e+00,-2.25443482e+00,-2.48947933e-01,-9.58249792e-02,
  -3.91510963e+00, 8.14987659e-01, 1.14321411e+00, 1.97690010e+00,
   2.55677891e+00,-5.93943536e-01, 9.06315565e-01, 5.41490078e-01,
   4.52658087e-01, 4.85298300e+00,-5.27687311e+00,-2.07746840e+00,
  -9.07521057e+00,-2.28829527e+00,-6.01750278e+00, 2.97427565e-01,
   3.46641278e+00, 2.55425239e+00, 4.01201820e+00, 1.24710715e+00,
   5.38629651e-01,-1.91627908e+00, 3.67063260e+00, 2.62343359e+00,
  -5.26365137e+00,-1.05103731e+00,-2.03733087e+00,-4.67459774e+00,
   5.14183998e+00, 3.69723058e+00, 4.14718315e-02,-2.90482712e+00,
   4.40921497e+00, 1.83679509e+00,-1.08514369e+00,-4.42152500e-01,
   2.18951344e+00,-1.18263960e+01,-4.59027719e+00, 1.65445387e+00,
  -1.72421038e+00,-9.97316957e-01,-7.63102818e+00,-6.30895758e+00,
  -1.92380071e+00, 1.54508376e+00,-7.41452932e+00,-4.50090742e+00},
 { 1.03667176e+00,-6.82166293e-02,-1.89125910e-01,-2.77252972e-01,
  -1.77049744e+00,-1.26349173e+01, 1.19102466e+00, 7.11329317e+00,
  -2.32854652e+00,-8.91245425e-01, 1.33710295e-01, 2.61391449e+00,
   5.36897108e-02, 5.36414719e+00,-2.43551183e+00,-1.06412446e+00,
  -8.06402564e-02, 4.52910274e-01, 3.27429980e-01, 1.61254716e+00,
   1.10042787e+00, 8.99918139e-01,-1.69350788e-01,-1.24734032e+00,
   6.91842616e-01,-2.87454033e+00, 8.91328275e-01,-4.04779613e-01,
  -1.10628462e+00, 2.11832309e+00,-9.13841128e-02, 2.57415938e+00,
   4.22607517e+00,-6.43147826e-01, 4.40167046e+00,-1.49394751e-01,
   7.64143467e-01,-6.87493563e-01,-9.71187837e-03, 3.27416420e-01,
   2.56771851e+00,-2.01814222e+00,-2.74639106e+00, 6.44264877e-01,
  -7.91249335e-01, 3.12722325e-01,-2.81606138e-01, 1.22836924e+00,
  -2.59648037e+00,-2.66219568e+00,-3.22416395e-01,-7.24242091e-01,
   9.63824868e-01, 2.10867956e-01,-5.27825499e+00,-6.25495851e-01,
  -3.92577577e+00, 1.82284430e-01,-3.78488064e+00, 2.93243796e-01,
   1.43586308e-01,-1.13005280e+00, 2.56640434e+00,-5.63391268e-01,
   1.51630855e+00,-3.48947823e-01,-2.14691186e+00, 2.71933168e-01,
   3.26842046e+00,-1.14707637e+00,-6.09796333e+00, 1.28434587e+00,
   3.82506227e+00, 1.73784053e+00, 9.65773404e-01,-2.85142946e+00,
   1.38854301e-02, 9.95871186e-01, 7.65796676e-02,-3.98460299e-01,
   2.45651931e-01,-7.59826243e-01,-2.59260405e-02, 3.51766324e+00,
  -3.41377556e-01,-3.82673335e+00, 3.66392493e-01, 5.37839830e-01,
  -7.40891099e-01, 7.19719887e+00,-3.08199704e-01, 1.04094708e+00,
   5.25290370e-01,-4.72501576e-01,-4.05622101e+00,-1.43932676e+00,
   2.18242750e-01,-4.00694788e-01, 3.13209072e-02, 4.36866432e-02,
   1.15596926e+00,-1.96586478e+00, 2.89708328e+00, 1.59957796e-01,
  -6.40448141e+00,-1.20787687e+01,-1.30975857e-01, 3.43973011e-01,
   4.51409407e-02,-3.18538845e-01,-1.19360536e-01,-1.88483214e+00,
  -6.62464321e-01,-5.57375257e-04,-9.24448013e+00, 2.86344838e+00,
   7.12404191e-01,-6.44726157e-01,-6.47164464e-01,-6.77270889e-01,
  -5.97676992e+00,-1.87164140e+00,-4.31324363e-01,-3.93924141e+00,
  -2.67759830e-01, 2.22323924e-01,-1.31055012e-01,-1.67153165e-01},
 {-1.15330524e+01,-9.73971933e-02,-1.35284972e+00,-1.66099802e-01,
  -1.83783174e+00,-2.92875671e+01, 4.75913906e+00,-5.37555218e+00,
  -6.25932407e+00,-4.74506426e+00, 3.10561329e-01,-1.30172133e+00,
  -6.89225039e-03,-2.01983237e+00, 4.53844339e-01,-9.65701520e-01,
   5.76087177e-01, 3.03669780e-01, 2.86883563e-01, 2.53398967e+00,
   1.10369623e+00, 6.64970636e-01,-4.43266487e+00,-5.61465406e+00,
   7.52404451e-01,-1.68156564e+00,-3.88054228e+00,-4.57841277e-01,
   5.47506475e+00, 2.27791667e+00, 2.54338712e-01,-8.57461834e+00,
   6.78637648e+00,-1.66574883e+00, 1.59339464e+00,-3.54651064e-02,
   7.81361461e-01,-6.48991823e-01, 8.26143205e-01, 2.62617111e-01,
   5.35934782e+00,-1.18669879e+00, 2.05118895e+00, 9.41494629e-02,
  -5.14558411e+00,-1.61681485e+00,-1.14182375e-01, 1.05927968e+00,
  -2.41453242e+00, 5.24933040e-01,-5.00569522e-01, 2.17891026e+00,
   7.11068094e-01, 2.49647066e-01,-5.04242945e+00, 2.28116870e+00,
   5.00376511e+00, 1.57221451e-01,-5.08308887e+00, 7.78263509e-01,
   1.38728127e-01,-1.11991239e+00, 1.16163197e+01,-3.98921758e-01,
   6.22494698e+00,-3.28402907e-01,-7.71453083e-01, 6.26051128e-02,
  -6.18730001e-02,-1.78946590e+00,-3.34228635e+00,-1.15946407e+01,
   6.44154501e+00, 1.93862247e+00, 1.37785172e+00, 2.89464355e+00,
   1.36538458e+00, 1.03135884e+00, 1.50376618e-01,-2.15822056e-01,
  -3.48563164e-01,-1.05903113e+00, 2.35466883e-01, 1.07690382e+00,
  -1.28998771e-01,-5.86475277e+00, 4.65550661e-01, 4.05262113e-01,
  -1.04595852e+00, 2.78481436e+00,-1.93013683e-01, 9.10883844e-01,
   5.89547694e-01,-5.72146833e-01,-1.29182091e+01,-1.30346870e+00,
   1.19183040e+00,-5.86112440e-01,-6.53199077e-01, 1.27436981e-01,
  -1.58310354e+00,-1.79407520e+01, 5.36380196e+00, 4.90092605e-01,
  -7.78300405e-01, 1.19563866e+01,-7.45305061e-01, 5.72161674e-01,
   1.12630621e-01,-5.01186430e-01, 1.24968030e-02,-6.38559771e+00,
  -3.45083714e-01,-1.22058839e-02,-1.84263115e+01, 1.37758708e+00,
   6.99190474e+00,-9.53675842e+00,-4.20367539e-01, 3.91940996e-02,
  -5.49712467e+00, 2.62264323e+00,-1.42705292e-01,-9.06734943e+00,
  -1.22650871e-02, 4.45545340e+00, 7.05689549e-01,-3.04653764e-01},
 { 9.09861088e+00,-1.71150059e-01, 7.14781761e-01, 5.83279192e-01,
   2.41810369e+00, 5.34241295e+00,-1.76329839e+00,-2.40678425e+01,
   6.45267534e+00, 2.95078135e+00,-3.74841899e-01,-6.43623292e-01,
  -1.01629674e-01, 1.67169774e+00,-2.41049004e+00, 8.63838136e-01,
   1.05799091e+00, 1.24303961e+00, 1.00352883e-01,-2.24138403e+00,
  -1.22626162e+00,-1.22800820e-01,-1.02496033e+01,-2.27038217e+00,
  -1.14675093e+00, 7.58882523e-01, 3.58762550e+00, 6.58773720e-01,
  -3.41182756e+00,-1.90971184e+00, 1.22196937e+00,-2.91057038e+00,
  -1.52002516e+01, 5.38315117e-01, 4.77599293e-01, 3.77442241e-01,
  -8.30130935e-01, 4.00978565e-01, 2.59695625e+00,-1.41992688e-01,
  -4.65455008e+00, 5.98304391e-01, 5.70765114e+00, 3.74979305e+00,
   4.10040331e+00,-4.24184084e+00,-1.14085600e-02,-2.76697469e+00,
   1.52254796e+00, 2.15488061e-01, 2.75563449e-01,-2.30163813e+00,
  -1.12872469e+00,-3.11694536e-02,-2.06357040e+01,-8.63757133e+00,
  -5.59010553e+00, 7.94323862e-01, 4.30627918e+00,-1.34972215e+00,
  -1.23206019e+00, 7.81120896e-01,-4.08364105e+00, 4.19760406e-01,
  -8.45039749e+00, 2.14222878e-01,-1.20651257e+00,-5.85642278e-01,
  -2.38365626e+00, 1.05494387e-01, 2.27822113e+00, 5.02541971e+00,
  -1.76856785e+01,-1.28484249e+00,-1.72164142e+00,-4.33564901e+00,
   2.48691416e+00,-1.45384467e+00,-4.84376103e-02, 1.62644804e-01,
  -4.95885909e-01, 6.51431680e-01, 3.68151844e-01,-5.94641089e-01,
   5.56531735e-02,-9.72362995e+00,-1.53323829e-01,-6.42898202e-01,
   6.37868226e-01,-2.05662489e+00, 2.83915281e-01, 1.26836467e+00,
  -9.98735905e-01, 3.33293855e-01, 1.12169476e+01, 4.68129301e+00,
  -1.04872096e+00, 6.91446304e-01,-3.54612887e-01,-4.58426148e-01,
   2.05775094e+00, 8.03477192e+00,-1.28070855e+00,-2.72331566e-01,
   3.01856101e-01, 2.71297855e+01, 1.49314320e+00,-6.43524468e-01,
   6.07031584e-01, 3.53534758e-01, 2.59679556e-02, 4.73524237e+00,
  -1.06464125e-01, 2.60289043e-01,-1.36826432e+00,-1.25376940e-01,
  -1.48532286e+01,-3.93245637e-01, 2.97954708e-01, 2.81684351e+00,
   7.80979931e-01,-1.72575068e+00,-1.37341812e-01, 3.42128205e+00,
   3.56486082e-01,-4.55635738e+00,-9.68089402e-01, 5.07570267e-01},
 {-5.01606703e+00,-1.08152509e+00,-1.80890865e+01,-1.71317463e+01,
   2.03498101e+00, 9.64736342e-01, 2.67842984e+00,-3.78237462e+00,
   1.87318766e+00, 3.91055852e-01,-1.81102979e+00,-1.91795194e+00,
  -6.62824273e-01,-3.64071965e+00,-5.63305855e+00,-1.55612969e+00,
  -8.92252445e+00, 2.39421558e+00, 8.18370283e-01,-9.65230942e-01,
  -1.15834093e+00, 2.79930282e+00,-1.28431827e-01,-4.04579729e-01,
  -2.63044715e+00, 4.36519861e+00,-1.59784591e+00, 3.17946172e+00,
  -1.39265561e+00,-2.06114960e+00, 3.82864070e+00,-6.46820486e-01,
  -3.04169118e-01, 2.37663090e-01, 6.96461618e-01,-8.32168877e-01,
   3.10603356e+00,-1.74073291e+00, 1.19091415e+00,-2.52149415e+00,
  -1.64452493e+00,-1.83146405e+00, 8.08047131e-02, 1.99594092e+00,
   1.94917226e+00, 1.19712055e-01,-1.12944853e+00, 1.35439336e+00,
  -4.64927435e-01, 1.39943314e+00,-1.17184019e+00, 2.99972266e-01,
  -1.85634360e-01, 1.43540055e-01, 3.25468469e+00,-8.97794724e-01,
  -3.61171991e-01,-2.27962303e+00,-9.54339027e+00, 9.21302080e-01,
   1.09061778e+00,-2.28864121e+00,-8.11329901e-01,-9.03433323e+00,
  -4.53064728e+00, 1.04853404e+00,-6.47487974e+00, 8.73900771e-01,
  -1.36720476e+01, 1.07057273e+00, 6.32346773e+00, 1.52704012e+00,
  -5.50230312e+00,-1.78292799e+00,-3.98369700e-01,-4.86893743e-01,
   3.31579506e-01, 3.53044605e+00, 8.16272974e-01,-3.93265986e+00,
   1.52948439e+00, 2.06450844e+01,-1.66441381e+00,-3.33439755e+00,
  -7.05086231e-01,-6.21816516e-01, 4.17327547e+00,-2.38442957e-01,
   3.67509007e+00,-6.53867388e+00,-3.14939523e+00, 3.96750379e+00,
  -1.52117777e+00,-4.41413927e+00, 3.65019441e+00,-5.29692650e+00,
  -4.26114988e+00,-2.79009223e-01,-1.36342371e+00,-2.64837891e-01,
   2.54187793e-01, 5.47300959e+00, 1.69903774e+01,-9.03317261e+00,
   5.64202261e+00, 6.83878851e+00,-1.23093307e-01,-4.86304665e+00,
   4.86252737e+00,-4.01131153e+00, 1.01325150e+01, 3.88587475e+00,
  -1.01202164e+01, 8.77728522e-01,-7.44438529e-01,-2.10007167e+00,
  -1.03646135e+00,-3.27357501e-01,-2.25341105e+00, 2.22519875e+00,
   4.48231840e+00,-2.96768993e-01,-1.02217789e+01, 2.97901249e+00,
   4.01388311e+00,-1.95624995e+00,-6.21880245e+00,-6.05601358e+00},
 {-1.40519867e+01,-2.85161704e-01,-1.22173345e+00,-5.02630615e+00,
   5.00565529e-01, 5.59289515e-01,-1.07097321e+01,-1.70446515e+00,
   4.22245693e+00,-7.02893162e+00,-1.85007364e-01, 3.73441315e+00,
  -3.62313330e-01,-1.13125372e+01, 2.68885899e+00, 6.55590057e-01,
  -4.30183172e+00, 3.28765601e-01,-2.34200668e+01, 6.00140953e+00,
  -1.11110008e+00,-1.13231826e+00, 8.71340466e+00, 7.10259056e+00,
   2.24741626e+00,-1.86083019e+00,-2.57256985e-01, 2.12189293e+00,
   2.08446741e-01, 1.18037975e+00,-8.70120347e-01,-4.31866550e+00,
   2.49026203e+00,-3.89510727e+00, 2.96870565e+00, 1.99331129e+00,
  -2.90543437e+00,-2.17016309e-01, 1.38763499e+00, 2.02440929e+00,
  -3.89412093e+00,-1.24786377e+00,-1.01204157e+00, 4.45577049e+00,
  -5.53345829e-02,-4.47581959e+00, 1.87547767e+00,-5.16445160e-01,
  -1.56562591e+00, 1.99533224e+00, 1.37997258e+00,-8.36520314e-01,
   1.39113998e+00,-4.85187918e-01, 1.98153687e+00,-1.33909340e+01,
   3.85480285e-01, 8.51445389e+00, 7.10355163e-01, 2.48234868e+00,
   7.68792182e-02, 1.54759437e-01,-7.05415189e-01, 4.09579849e+00,
  -1.29555011e+00,-2.16989979e-01,-2.50113159e-01,-4.91293716e+00,
  -1.87397623e+00,-4.57983875e+00, 6.01718330e+00,-1.21021595e+01,
  -5.96700621e+00,-1.09773600e+00,-3.03471796e-02,-2.14174891e+00,
  -7.31638288e+00,-7.12542653e-01, 9.84316528e-01, 1.06636989e+00,
   9.04191792e-01, 4.47278833e+00, 1.00075138e+00,-4.73118401e+00,
  -1.67022133e+00,-1.67833674e+00, 1.43298554e+00,-9.68710899e-01,
  -4.58888531e+00,-6.28568029e+00,-3.41656661e+00,-1.18054020e+00,
   2.36092865e-01,-3.56782436e+00, 1.82931280e+00, 3.57021976e+00,
   6.13612115e-01,-6.98003829e-01, 5.27218163e-01, 1.62902460e-01,
   5.28522491e-01, 9.43219185e+00,-7.55246401e-01, 4.58872020e-01,
   1.57362711e+00, 2.07366824e+00,-7.46022606e+00,-2.18649292e+00,
   3.77810168e+00, 7.86498129e-01,-4.10861522e-01, 4.54136753e+00,
  -5.92631876e-01, 8.88279140e-01, 5.09868050e+00,-1.15474567e+01,
  -1.92638397e+00,-1.18835449e+00, 5.05570829e-01, 2.36281633e+00,
   6.04610205e+00,-2.04809475e+01,-1.71082151e+00, 1.36866226e+01,
   6.97256625e-01, 3.36550996e-02,-4.87760115e+00, 3.21314096e+00}};

const float b2[sz_hid_2] = { -7.0200787 , -5.3825808 , -0.10378592,  0.312398  , -0.1650089 ,
  -7.72562   ,-10.151176  ,-17.74609   , -3.2475064 , 12.495613  ,
  -2.6638203 , -5.0350537 , -0.07984941,-10.813435  , -3.732877  ,
  -2.9693904 , -5.4824033 , -5.465846  ,  1.5945646 , -9.775348  ,
  -0.7330404 ,  2.0980732 , -4.777741  , 11.631778  , -3.0292006 ,
   1.094     ,-14.220097  ,-17.503605  ,  0.97531813, -5.1295986 ,
   4.879568  , 10.436249  };

const float w3[sz_act][sz_hid_2] = {{ 4.2280063e-01, 3.8486087e-01, 1.4631692e-01, 5.4283198e-03,
   5.7183031e-02,-1.2874048e-03,-4.4263270e-02, 1.2484401e-01,
  -5.6966566e-03,-6.1133667e-03,-1.1497666e-01, 1.5752716e+00,
   7.8415141e-02,-2.7590707e-01,-6.9728461e-03, 5.2590165e-03,
  -3.1788221e-01,-2.0022841e-02, 5.9687020e-03,-5.4603741e-03,
  -6.3129992e-04, 7.7196836e-02, 8.2931690e-02,-1.0227821e-01,
  -2.6926186e-03, 1.6659184e-03, 7.1003199e-02, 1.6098279e-01,
   1.1624522e-01,-8.3846688e-02, 4.6796780e-02,-8.2314342e-01},
 {-3.1363613e-03, 6.4292615e-03, 1.0377084e-01,-1.6069445e-01,
   4.4011444e-02,-1.2955357e-01, 1.3791694e-01, 7.8165747e-02,
  -1.2854761e-01,-1.9191380e-01, 1.3277336e-02,-5.4214206e-03,
  -7.0558593e-02, 1.4792060e-02, 1.5381612e-01,-1.1120997e-01,
  -6.2431372e-03,-1.9709869e-01,-1.3006367e-01, 1.7646797e-01,
   1.1837128e-01,-6.9528481e-04, 1.5315097e-03,-6.4930674e-03,
   1.9341569e-01,-1.6008073e-01,-1.3909538e-01,-1.0578639e-03,
  -1.3428106e-03,-2.5800180e-03, 1.8761095e-01,-2.0674298e-02}};

const float b3[sz_act] = {-0.11777299, 0.22961871};

