const float w1[sz_hid_1][sz_obs] = {{-6.25242740e-02,-1.23168004e+00,-1.30964267e+00,-1.19610906e+00,
   4.48912293e-01, 1.04242229e+00, 1.03991818e+00,-5.60398176e-02,
   1.62945986e+00},
 {-5.65306962e-01, 4.67607602e-02, 2.05268550e+00, 2.60201514e-01,
  -1.98137537e-01, 5.88390604e-02,-9.90201771e-01, 1.39435387e+00,
   8.31615627e-01},
 {-7.69469291e-02, 6.95581287e-02, 2.23319516e-01,-1.39225042e+00,
  -2.03112507e+00, 2.31662884e-01,-2.98416503e-02, 4.16132182e-01,
  -2.86621034e-01},
 { 2.30486337e-02, 3.94305885e-02, 2.02767253e-01,-1.55730593e+00,
   1.21319652e+00,-3.23239177e-01,-8.21863418e-04,-1.50502181e+00,
   2.44764537e-01},
 { 1.63358831e+00,-3.62754315e-02,-6.71859860e-01, 1.70636833e-01,
   4.11882788e-01,-4.79216307e-01, 3.78831458e+00,-5.55056214e-01,
   6.68640137e-01},
 { 1.62461087e-01, 5.03466725e-02, 8.73061121e-01,-3.12076658e-02,
   7.45289385e-01,-3.02904963e-01, 8.97935629e-02,-1.67134249e+00,
   2.92438507e+00},
 {-7.21997721e-03,-1.29986554e-01, 1.00503170e+00, 4.24161077e-01,
  -1.96017921e+00, 3.79746288e-01, 6.66219443e-02, 1.54347563e+00,
  -1.74686623e+00},
 { 1.08618987e+00,-1.80891430e+00,-2.92546928e-01,-3.89354373e-03,
  -9.84378066e-03, 1.73966624e-02, 4.30654478e+00,-1.20340455e-02,
  -6.42941706e-03},
 {-2.55447682e-02,-2.70650480e-02, 6.81795850e-02, 2.19174623e+00,
   7.24254847e-01, 5.48209250e-01, 5.83779067e-02,-5.11395025e+00,
  -1.56946331e-02},
 {-4.14629281e-02, 5.99174738e-01,-1.49377060e+00, 5.36419675e-02,
   3.49641517e-02,-8.82465988e-02, 1.92369783e+00,-6.81777671e-02,
   5.98988682e-03},
 { 1.72385442e+00,-6.84341073e-01, 1.80451655e+00,-8.78724549e-03,
  -1.46617303e-02, 2.27584690e-02,-4.23726463e+00,-3.27190422e-02,
   1.86446123e-02},
 {-1.82343245e-01,-1.40369281e-01, 1.59540638e-01,-5.50173521e-01,
  -6.21054471e-01,-4.60050553e-01,-1.02430797e+00, 1.78485596e+00,
  -2.47518730e+00},
 { 3.92411947e-02,-3.73198055e-02,-1.13604411e-01, 1.80167761e-02,
   6.60891533e-02, 8.24197388e+00, 7.50868991e-02,-5.44369705e-02,
  -7.26722227e-03},
 {-3.23996786e-03, 8.60695355e-03,-8.41640085e-02, 1.34266520e+00,
  -1.16380751e+00, 4.81090218e-01,-4.44358997e-02,-4.79690552e+00,
  -1.84809044e-02},
 {-3.92474532e-02, 3.97579782e-02, 2.56688744e-01,-1.33834815e+00,
  -8.51569533e-01,-6.63865149e-01,-1.56270918e-02,-9.07191455e-01,
  -1.55699342e-01},
 {-1.72173977e-01,-1.19886346e-01,-2.13982296e+00, 2.10254952e-01,
  -1.84771884e-02,-1.35846108e-01,-6.80723369e-01, 1.46166897e+00,
   1.58213711e+00},
 {-1.91752052e+00,-3.85142803e-01, 3.22001791e+00, 1.45640764e-02,
  -2.15893723e-02,-1.87921450e-01, 4.99717861e-01, 3.97756957e-02,
  -3.11200470e-02},
 { 6.24158466e-03,-2.06557126e-03,-9.12789464e-01, 1.39843500e+00,
   1.28342271e+00, 3.99770826e-01,-9.52836722e-02,-3.37508488e+00,
   8.85052383e-01},
 {-4.82751429e-02,-1.53060421e-01,-1.46010682e-01, 8.46630454e-01,
  -1.57344687e+00,-1.19703639e+00,-5.90692282e-01,-1.01181187e-01,
   1.44850290e+00},
 { 3.06836274e-02, 3.69061530e-02, 1.43635321e+00, 9.68645588e-02,
  -9.89881396e-01,-2.79523253e-01,-1.05331011e-01,-2.59366298e+00,
  -8.04359257e-01},
 {-1.49973607e+00, 3.08897167e-01, 1.21881413e+00,-7.47183859e-02,
   1.38780162e-01,-1.70418359e-02,-1.67798924e+00,-7.06222579e-02,
  -1.68932050e-01},
 { 1.26009321e+00, 1.77849555e+00, 4.67495584e+00,-2.77989004e-02,
  -5.89962816e-03,-3.94388512e-02,-1.62024128e+00, 1.50275836e-02,
  -2.75194328e-02},
 { 4.10156026e-02,-3.35306823e-02, 1.31381780e-01, 1.08634877e+00,
   1.60795406e-01, 5.18089309e-02, 2.68021822e-02, 3.62127423e+00,
   1.71580315e-02},
 {-4.79226798e-01, 2.50143623e+00, 1.79328871e+00,-5.32486998e-02,
  -2.53972020e-02, 7.45746195e-02,-2.93639398e+00, 1.08282469e-01,
  -4.94064204e-02},
 {-6.16441369e-01,-1.17258883e+00, 4.12267160e+00,-6.23446133e-04,
  -7.83194881e-03, 4.50744294e-02,-2.90066838e+00,-1.56709850e-02,
  -1.57963708e-02},
 {-7.42963850e-01, 6.72185838e-01,-3.74708414e-01,-4.65706289e-01,
   1.66563138e-01,-2.68632621e-01,-1.55257285e+00, 4.31173056e-01,
   1.70498645e+00},
 {-7.18164086e-01,-8.31791818e-01, 5.52865982e-01,-1.06853724e+00,
  -8.22365750e-03, 4.94120158e-02, 1.36494684e+00,-8.98441225e-02,
   1.32544017e+00},
 { 3.06500047e-02, 8.91104061e-03,-1.74478367e-01,-7.24168062e-01,
   6.44608259e-01, 1.09120059e+00,-3.48793380e-02,-2.14805365e+00,
  -1.11441754e-01},
 { 1.05370998e+00,-1.84691405e+00,-5.01128733e-01, 1.83151245e-01,
   8.03414345e-01,-3.06500256e-01, 2.07559514e+00, 1.64113998e-01,
   1.48247182e+00},
 { 1.57135472e-01, 2.13850327e-02, 2.05277413e-01, 2.13527775e+00,
  -7.35970438e-01, 2.77560681e-01, 6.17696112e-03, 1.60436320e+00,
  -1.16727304e+00},
 { 9.24719751e-01,-2.08883882e+00,-6.93774796e+00,-1.08104758e-02,
   1.68058574e-02,-1.04025319e-01, 1.10156775e+00,-1.33178970e-02,
   8.46681578e-05},
 { 1.64894986e+00,-7.19685137e-01, 5.37915304e-02, 5.66751659e-01,
  -8.00170064e-01, 5.58735840e-02, 3.06501675e+00,-2.03986257e-01,
   5.33781312e-02},
 {-6.05032861e-01,-7.96542048e-01,-3.58212447e+00, 4.24913466e-01,
  -8.60167384e-01,-2.50923246e-01, 9.42606688e-01, 1.77817082e+00,
   1.20931482e+00},
 { 1.40404860e-02, 1.53748319e-01,-1.93985343e+00,-4.38020319e-01,
   6.11795187e-01, 1.76605776e-01,-2.72584379e-01, 2.84613228e+00,
  -1.01347518e+00},
 { 4.51612063e-02,-1.25726750e-02, 4.36449260e-01,-1.52569816e-01,
   3.14215899e-01, 3.43118995e-01,-7.28850439e-03, 2.90724015e+00,
   1.49631870e+00},
 { 1.74993668e-02,-4.89467522e-04,-3.13155860e-01, 1.15190482e+00,
   2.65784621e+00, 1.26401019e+00, 4.37062010e-02,-2.49629498e+00,
   1.64634257e-04},
 { 6.36014789e-02,-6.86176047e-02, 7.21904457e-01, 3.44051659e-01,
  -2.31811142e+00, 4.88249451e-01,-3.12326461e-01, 2.57582474e+00,
   2.16565624e-01},
 { 8.99663020e-04,-1.28139239e-02, 3.65898497e-02, 7.93591022e-01,
  -2.14585423e+00,-2.29869947e-01, 2.87253782e-02, 4.80666637e+00,
   7.48191122e-03},
 {-6.72820032e-01,-1.30478346e+00,-1.78642738e+00,-1.64359057e+00,
   2.51103252e-01, 1.20531090e-01, 1.85383439e+00,-2.60622114e-01,
  -6.36922479e-01},
 { 1.55333942e-02, 3.59936222e-03, 1.17287628e-01, 2.70162487e+00,
  -4.13198441e-01, 4.53163326e-01, 3.78119908e-02,-3.26579022e+00,
   1.06095802e-02},
 { 1.99656546e-01,-1.18277693e+00,-1.25296390e+00, 3.86340529e-01,
  -9.64901030e-01, 3.23869824e-01, 2.12377357e+00, 3.43554080e-01,
  -1.76641905e+00},
 {-8.02693714e-04, 4.78885230e-03,-8.67242068e-02, 2.41957760e+00,
   3.22607368e-01,-6.90068960e-01,-8.54627520e-04, 5.26712418e+00,
   3.16316774e-03},
 {-1.71851949e-03, 7.73175852e-03,-1.63214192e-01,-7.08405912e-01,
  -1.24290466e+00,-3.47946845e-02,-2.19508298e-02, 1.78468955e+00,
   4.00412828e-02},
 { 1.28037915e-01, 7.01342598e-02,-7.42786169e-01, 3.41140628e-01,
  -3.31317335e-01, 6.00597784e-02,-2.72441834e-01,-3.12863517e+00,
   1.74340415e+00},
 { 1.50752568e+00, 7.43761957e-01, 3.38528574e-01,-5.78488149e-02,
   1.13905162e-01,-6.67673126e-02,-3.89542055e+00,-6.23215474e-02,
  -8.85572657e-03},
 { 5.14257886e-02,-4.66444641e-01, 5.01877546e+00,-2.04234853e-01,
  -9.94948968e-02,-5.18516660e-01, 1.24029808e-01, 2.82045871e-01,
   4.72711474e-01},
 { 1.75700217e-01,-2.22980022e+00,-3.50936651e+00, 3.13119382e-01,
  -8.79404470e-02, 8.07753298e-03, 3.68630910e+00,-1.17275685e-01,
   8.77726600e-02},
 { 3.45939666e-01, 9.61432233e-02,-8.60947323e+00, 1.98553614e-02,
   2.32978258e-04, 6.91670105e-02, 8.38139594e-01,-5.65737253e-03,
   8.75045545e-03},
 { 2.17663598e+00,-8.46114099e-01,-1.43994725e+00,-8.93445103e-04,
  -7.59546552e-03,-7.03439936e-02, 4.32257748e+00, 2.03748886e-02,
   1.74897444e-02},
 { 4.47507538e-02,-1.93520594e+00,-1.36176813e+00, 3.82099464e-03,
   2.94878241e-02,-4.90494296e-02, 1.72378516e+00,-1.88459102e-02,
   4.29868288e-02},
 { 1.32766783e-01,-1.13790810e-01, 5.84483027e-01,-2.37753725e+00,
  -1.24764748e-01,-1.78134531e-01, 4.18606326e-02,-5.52282929e-01,
   2.26464987e+00},
 {-3.70511762e-03,-1.37798069e-02,-2.14409791e-02, 7.91820884e-01,
  -1.04561102e+00, 1.28199565e+00, 2.44515128e-02,-3.96611285e+00,
   1.32558318e-02},
 { 1.11152637e+00,-5.98524392e-01,-9.65457439e-01, 1.17961180e+00,
  -6.10391438e-01, 4.18698907e-01, 1.88308501e+00, 4.87285793e-01,
  -9.30855274e-01},
 {-2.30468780e-01, 2.21719578e-01,-3.19528341e+00, 3.66877228e-01,
  -1.96043834e-01, 4.14417922e-01,-4.04254824e-01,-7.89346278e-01,
   2.71911788e+00},
 {-5.79193711e-01,-1.40631467e-01,-7.14825809e-01, 6.20771833e-02,
  -8.57014716e-01, 1.16385154e-01, 1.16878784e+00,-1.55420408e-01,
   6.80646241e-01},
 {-1.32022893e+00,-2.21698952e+00,-1.04330969e+00,-4.01133187e-02,
  -2.43131388e-02,-1.11251742e-01, 2.86337197e-01, 5.54569215e-02,
  -3.27743404e-03},
 { 3.61364365e-01,-1.85553551e+00, 1.03494275e+00,-8.09905957e-03,
  -2.30056606e-02,-1.07443020e-01,-3.36379886e+00, 1.34863004e-01,
   4.06964757e-02},
 { 1.28770517e-02, 3.39241736e-02,-2.31774658e-01, 1.18071461e+00,
  -9.30352628e-01, 6.52022779e-01,-3.63372788e-02,-4.41870594e+00,
   6.25350475e-02},
 { 9.06992137e-01,-3.52168411e-01, 3.92864823e+00,-3.78170647e-02,
  -3.89412930e-03,-7.20791891e-02, 2.60999227e+00,-1.27760554e-02,
  -1.54461088e-02},
 { 3.35734040e-02, 1.40982807e-01,-2.15227437e+00, 8.88802052e-01,
  -1.66224992e+00, 7.93644786e-01,-2.66824514e-01,-8.46743956e-02,
  -1.25185776e+00},
 {-2.14063391e-01, 2.27614379e+00, 8.56527567e-01, 6.38991222e-02,
  -3.82682728e-03, 1.92976713e-01,-2.60323644e+00,-5.56844920e-02,
   1.10053383e-01},
 { 1.28200441e-03,-1.01816179e-02, 6.95264041e-02, 1.70638764e+00,
  -7.74916887e-01, 4.70767647e-01, 1.86624527e-02,-3.86594820e+00,
   7.27166538e-04},
 { 1.63938713e+00,-1.17169774e+00,-5.31166829e-02, 7.99395964e-02,
   1.39815772e+00,-1.65862173e-01, 2.27246857e+00, 6.47192895e-01,
  -5.72961792e-02},
 {-8.53544176e-02, 1.09966427e-01, 4.73040009e+00, 1.03274211e-01,
  -5.14608264e-01, 2.94939931e-02,-1.00738004e-01,-6.33296371e-01,
  -6.05677851e-02},
 { 4.37207930e-02, 6.83955997e-02,-2.57340223e-01, 1.63736507e-01,
  -1.48835564e+00,-2.34859034e-01,-3.56735773e-02, 3.33702469e+00,
   4.24509585e-01},
 {-9.62928869e-03,-3.15805152e-03,-3.06245536e-01,-2.30724764e+00,
   9.61195350e-01, 5.80736220e-01,-7.02814851e-03, 1.74932256e-02,
   3.03542037e-02},
 { 4.96375799e-01,-6.45355165e-01,-2.83034396e+00,-9.25258035e-04,
   2.24791821e-02,-2.26892577e-03,-3.06176543e+00,-2.12927386e-02,
   3.91284898e-02},
 { 8.62202346e-02,-2.73525214e+00,-4.42988545e-01,-3.73659804e-02,
  -7.13154078e-02, 8.20557624e-02, 4.85435188e-01, 5.74569181e-02,
   2.83293761e-02},
 { 1.19531763e+00, 4.44167376e-01, 2.26725960e+00,-5.53894080e-02,
  -1.86270848e-02, 8.64086971e-02, 3.52477956e+00, 1.84362214e-02,
  -7.94914812e-02},
 {-2.04799753e-02, 2.75598466e-02,-3.50428134e-01,-4.92099673e-02,
  -8.76507759e-02, 5.67692995e-01,-9.66786817e-02,-4.64540577e+00,
  -6.86297268e-02},
 { 1.67219117e-01, 3.95121396e-01,-2.90691757e+00, 1.03569913e+00,
   1.11759603e+00, 3.85565192e-01,-4.34527695e-01, 6.26122296e-01,
  -1.40864158e+00},
 { 3.05353254e-02, 1.05138317e-01, 1.47676274e-01, 1.75730944e+00,
   9.16751862e-01, 3.40221018e-01,-3.11437938e-02,-4.42466211e+00,
  -1.26715656e-02},
 { 2.19593596e+00, 1.44532871e+00, 2.06589270e+00, 4.13547046e-02,
  -2.45031968e-01, 4.09495644e-02,-4.67817688e+00, 2.00045049e-01,
  -1.24521933e-01},
 { 5.39987683e-01,-1.45190549e+00, 1.39396822e+00, 2.13953629e-02,
  -2.18657702e-02,-8.17118511e-02,-1.80689645e+00,-2.66006105e-02,
  -6.50954843e-02},
 {-1.04722768e-01, 1.28598318e-01,-3.10139358e-01, 6.08283162e-01,
  -2.21182895e+00,-5.40178455e-03,-1.52625263e-01, 2.86242533e+00,
  -8.87097195e-02},
 { 8.86462808e-01, 6.62959665e-02, 1.35164773e+00, 8.78266618e-03,
  -1.12059331e-02, 1.12272099e-01, 2.85543442e-01, 5.71733247e-03,
   7.31404349e-02},
 { 1.84263992e+00, 6.95266843e-01,-7.22660482e-01, 5.14782732e-04,
   2.76272725e-02,-7.11150607e-03, 4.53641653e+00,-3.78278755e-02,
  -8.47289152e-03},
 { 2.15793753e+00,-1.14089680e+00,-1.55266452e+00,-1.27022788e-02,
   3.91609855e-02,-8.02600980e-02, 4.98317146e+00,-4.73994687e-02,
  -3.76246101e-03},
 {-4.09244979e-03, 6.46561384e-03,-7.34485909e-02, 2.69502854e+00,
   9.47413802e-01,-3.72280836e-01,-3.32758389e-02,-2.88106370e+00,
  -4.90884222e-02},
 { 3.53837409e-03,-3.24350372e-02,-3.98157239e-01, 3.23362410e-01,
   2.53132319e+00,-8.46423507e-02,-4.13697697e-02, 1.64992189e+00,
   4.47160415e-02},
 { 2.45760059e+00,-2.01191998e+00,-1.07785869e+00, 4.41643074e-02,
   4.41993885e-02, 6.09264784e-02, 3.67283702e+00,-4.19264697e-02,
   7.33280927e-03},
 { 3.62128229e-03, 1.69415306e-02, 9.14460197e-02, 1.15066373e+00,
   2.55439305e+00,-3.45673949e-01, 1.31129893e-02,-1.83266413e+00,
  -1.54290451e-02},
 { 1.70094359e+00,-9.00928736e-01, 4.64875311e-01,-1.19155481e-01,
  -3.41436177e-01, 5.39610386e-02, 3.65413761e+00, 4.53023136e-01,
  -3.82375985e-01},
 {-1.38453051e-01, 1.42951620e+00, 8.19413483e-01,-9.79928207e-03,
   1.03738643e-02,-4.26223688e-03, 3.06428051e+00,-3.09789699e-04,
  -1.99049134e-02},
 { 5.32807037e-03,-4.55657504e-02, 1.37023911e-01,-4.30457443e-01,
   8.12494993e-01, 7.82002211e-01, 7.24194525e-03, 1.87807548e+00,
   2.41157077e-02},
 { 1.75549358e-01,-2.21628189e-01, 1.74891815e-01,-9.55494642e-01,
  -1.83079851e+00,-5.47337055e-01, 2.42500350e-01,-2.34560877e-01,
   1.72376609e+00},
 { 1.31004632e+00,-7.56009221e-01, 8.10391665e-01,-1.05488244e-02,
  -6.95568044e-03, 1.21965706e-02,-4.30516005e+00,-6.45348104e-03,
  -6.05136203e-03},
 { 1.71819299e-01,-5.26789837e-02, 1.18749905e+00,-9.71742749e-01,
   2.33903408e-01,-3.58937055e-01, 2.11022213e-01, 1.00347745e+00,
   1.52360189e+00},
 {-1.52707070e-01,-1.95725903e-01, 5.54968238e-01, 1.60542679e+00,
   1.45445979e+00,-1.94687918e-01,-4.15282622e-02, 1.83987394e-01,
  -1.47308540e+00},
 {-1.91344339e-02, 2.32049283e-02, 1.45200109e+00,-8.26596498e-01,
  -6.09205306e-01,-3.28513384e-01,-1.53828040e-01, 7.95189798e-01,
  -2.15354323e+00},
 { 2.02981643e-02, 2.14124508e-02, 4.67303619e-02,-7.52775311e-01,
   1.57276109e-01,-6.12009346e-01,-6.34586364e-02, 3.20165253e+00,
   9.34471004e-03},
 { 2.83777386e-01,-5.33357322e-01, 1.82153904e+00, 9.35393333e-01,
   1.94694772e-01,-7.97441840e-01, 1.08707798e+00,-1.09599566e+00,
   1.85882890e+00},
 { 7.05506792e-03, 1.44861927e-02, 1.72678605e-02, 1.25121787e-01,
   1.38423932e+00,-2.99105167e-01,-3.23639736e-02, 3.78182864e+00,
   2.54747923e-02},
 { 2.07864456e-02, 2.49522012e-02, 4.92098957e-01,-8.58443856e-01,
   3.58295977e-01,-1.67766476e+00, 1.08106077e-01, 3.33164287e+00,
  -1.12489849e-01},
 { 6.21134415e-02,-4.13906537e-02,-6.08637810e-01, 1.55023086e+00,
   2.11089897e+00, 3.88849787e-02,-1.16647221e-01,-3.01509666e+00,
  -6.63254917e-01},
 {-7.56431341e-01, 1.83252299e+00,-9.02426660e-01,-1.45959944e-01,
   1.68613806e-01, 7.09468782e-01,-6.60534799e-01,-4.11707491e-01,
   1.47519112e-01},
 {-5.88138681e-03, 5.15768453e-02,-2.98143530e+00, 7.41276026e-01,
   9.61505234e-01, 7.55089581e-01,-2.63370007e-01,-2.30333614e+00,
  -2.61578441e+00},
 { 1.37272216e-02, 6.69024372e-03,-3.34731163e-03, 5.23004889e-01,
  -2.14716792e+00,-4.50631499e-01,-1.83386970e-02, 5.59523296e+00,
   1.63196325e-02},
 {-3.49768437e-02, 1.10896165e-02, 6.94510639e-02, 1.88799948e-02,
  -3.01352944e-02,-5.52050066e+00,-1.06035784e-01, 3.46482769e-02,
   1.29932109e-02},
 { 9.16791894e-03,-6.47825152e-02, 1.20301800e+01,-5.33204246e-03,
  -1.12237511e-02,-3.65751833e-02, 5.26550151e-02, 8.72252136e-03,
   1.41178817e-02},
 { 2.50970125e+00, 3.61582398e-01, 1.58498669e+00, 1.58858243e-02,
  -6.06386457e-03,-4.05264087e-03,-5.30353069e+00, 1.26674892e-02,
  -4.35383432e-03},
 { 1.77798811e-02,-1.98398251e-02,-1.67570591e-01, 8.61970246e-01,
   9.53188837e-01, 5.90331972e-01,-4.22698408e-02,-3.44872147e-01,
  -1.44299129e-02},
 {-1.07934818e-01,-5.58750406e-02,-1.35516870e+00, 4.90545452e-01,
  -1.32708323e+00, 2.49030497e-02,-1.92252055e-01, 2.23918414e+00,
   2.50470185e+00},
 {-2.30598208e-02, 1.04815423e+00,-3.85880494e+00, 1.79764181e-02,
  -1.42985201e-02, 4.21197526e-02, 3.88801408e+00, 7.79704237e-03,
   1.66669507e-02},
 {-1.21333206e+00, 4.07867767e-02, 4.65962029e+00,-6.61817729e-04,
  -9.10951719e-02, 5.63166477e-02,-1.72751784e+00, 1.35485724e-01,
  -1.31239623e-01},
 {-1.11344731e+00, 1.24567747e+00,-2.88622284e+00,-8.08774754e-02,
  -5.40682197e-01,-2.40157723e-01,-1.48436260e+00, 3.77020776e-01,
  -3.93855214e-01},
 {-2.12250277e-02, 1.34451138e-02,-1.72071874e-01,-1.43427837e+00,
  -1.03541279e+00,-1.54158998e+00,-2.89689023e-02, 2.43892598e+00,
  -1.70309365e-01},
 {-1.14539549e-01, 2.98520327e-01, 1.55622566e+00,-3.00614476e-01,
  -1.61013639e+00, 1.86178744e-01,-3.32909048e-01, 5.42293072e-01,
  -1.86093473e+00},
 { 1.76470709e+00, 1.85072136e+00, 3.29352856e-01,-3.12752509e-03,
   4.32810821e-02,-7.51331449e-02,-2.13260818e+00,-1.21050598e-02,
  -1.57250818e-02},
 {-1.08127659e-02, 3.54716256e-02,-2.86539936e+01, 9.16640740e-03,
  -6.91193528e-03, 7.54953846e-02, 3.35050921e-04, 1.31117646e-02,
   1.15550496e-02},
 {-2.72143679e-03,-1.12954788e-01, 1.67708838e+00, 6.24512732e-01,
   5.40931165e-01, 4.73465398e-02,-4.48770374e-02,-1.92845488e+00,
   3.15094423e+00},
 { 1.01098037e+00, 1.26562226e+00,-2.75940943e+00, 2.89214700e-02,
   3.77072506e-02,-4.05094996e-02, 3.09643507e+00,-3.77242006e-02,
  -4.94580902e-03},
 { 2.30243546e-03,-8.61015245e-02,-1.92295539e+00, 5.58245361e-01,
  -9.84873176e-01, 1.44283161e-01,-1.06064593e-02, 2.91943240e+00,
   2.49456835e+00},
 {-2.68860385e-02,-1.55511528e-01,-1.75874329e+00, 1.41332865e+00,
   1.10401917e+00,-9.95612323e-01, 6.11073002e-02,-1.17603552e+00,
   1.74003589e+00},
 {-8.61485839e-01, 1.93483353e+00, 1.48040965e-01,-4.65268269e-02,
   1.12146605e-03, 6.56533167e-02,-4.75583315e-01, 6.60691038e-02,
  -1.59542412e-02},
 { 1.31362939e+00,-9.87640142e-01,-3.25408864e+00,-1.05407715e-01,
  -6.49209470e-02, 1.63403284e-02, 2.73537564e+00, 8.41566175e-02,
  -5.96083589e-02},
 { 9.70010995e-04,-5.97897917e-03,-4.43309583e-02,-2.87524402e-01,
  -2.24612308e+00, 1.85735202e+00, 2.86777001e-02, 1.90050587e-01,
   3.28682847e-02},
 { 1.79269361e+00,-2.10235238e+00,-1.45302820e+00,-1.75834280e-02,
   4.55216728e-02,-1.69359758e-01, 4.23206758e+00,-2.06868649e-02,
   7.77539760e-02},
 { 1.52050698e+00,-1.45367074e+00,-5.01984060e-01,-4.54444528e-01,
  -1.50550202e-01, 6.36933744e-01, 2.62657595e+00,-9.90713358e-01,
   4.06172812e-01},
 { 2.92904139e-03,-2.17719562e-02, 1.30747426e-02,-1.10789752e+00,
  -2.44715810e+00, 2.77296789e-02,-6.16094731e-02, 1.23053741e+00,
  -5.57832560e-03},
 {-3.83479446e-02,-1.49307609e+00,-3.71392322e+00, 1.58595685e-02,
   5.19920886e-02, 6.42602146e-02, 2.09289360e+00,-6.91118231e-03,
   3.40805762e-02},
 { 1.74255598e+00,-5.88019073e-01, 4.47652626e+00,-5.50716929e-02,
  -8.86703655e-02, 6.36711344e-02,-4.58022356e-02, 1.35027528e-01,
  -8.42629597e-02},
 {-3.74071181e-01,-7.94338405e-01,-1.33926570e+00, 2.10341856e-01,
   4.42650110e-01, 7.54478527e-03, 1.82737768e+00, 9.32149589e-01,
  -8.58517826e-01},
 { 1.22456527e+00,-5.74259639e-01,-1.31701231e+00, 9.60255325e-01,
   4.32554066e-01,-4.41534311e-01, 2.74530339e+00,-1.88244629e+00,
  -4.80638325e-01},
 { 1.87530565e+00, 9.91346359e-01,-2.01794505e+00,-6.37083426e-02,
   1.54414982e-01,-7.26552904e-02, 5.32326889e+00, 2.47376934e-02,
   9.96636599e-02},
 { 1.37631857e+00, 6.40271306e-01,-1.49858260e+00,-1.19733857e-02,
   7.67647894e-03, 3.07001304e-02, 4.52526188e+00, 5.73837664e-03,
   3.37969745e-03},
 {-2.35131234e-02,-1.55303506e-02,-2.66615748e-01, 2.43850183e+00,
  -1.29263079e+00, 4.17068660e-01,-6.02786941e-03, 4.23495483e+00,
  -8.49782862e-03},
 { 9.13258046e-02, 1.09609747e+00,-6.50095654e+00, 6.08700747e-03,
  -6.50332356e-03, 1.10856205e-01,-2.76315975e+00, 1.86147690e-02,
   4.84903296e-03}};

const float b1[sz_hid_1] = {-3.5535624 ,-1.220266  ,-1.4563617 ,-1.5049771 ,-2.8479075 ,-2.813846  ,
 -1.496676  ,-0.8983617 ,-1.9954163 , 0.38789418,-3.105803  ,-3.2336733 ,
  0.9369357 ,-3.2428052 ,-0.8163076 ,-2.1679654 ,-1.5985029 ,-2.3511286 ,
 -2.6639173 ,-3.482542  ,-1.3350393 ,-1.1543616 ,-2.2780197 ,-3.3362231 ,
 -2.987087  ,-2.6675272 ,-2.6439574 ,-1.2568325 ,-3.7580755 ,-2.2136898 ,
 -1.0975014 ,-3.0086472 ,-3.1166136 ,-3.352836  ,-2.8195908 ,-0.7641021 ,
 -2.5975397 ,-0.7092855 ,-3.086945  ,-2.8189993 ,-3.374926  ,-2.2089546 ,
 -0.2131993 ,-3.25138   ,-1.7280918 ,-1.4871421 ,-3.8078847 ,-0.6347167 ,
 -2.030577  ,-0.3350853 ,-1.8710853 ,-2.6690786 ,-2.3840764 ,-3.9641883 ,
 -1.4566869 ,-1.0299109 ,-2.8419464 ,-3.541602  ,-1.2651671 ,-2.8155673 ,
 -1.6023072 ,-2.5366716 ,-3.4545102 ,-1.0184574 ,-0.63504195,-0.9286484 ,
 -2.719742  ,-1.6371042 ,-1.7367074 ,-2.2839718 ,-2.29966   ,-2.2693012 ,
 -2.7750587 , 0.07364338,-1.359495  , 0.0530365 ,-2.5291123 ,-1.2153816 ,
 -1.6633074 ,-2.2535982 ,-1.9108276 ,-0.95223004,-2.6033032 ,-3.44346   ,
 -1.1191486 ,-2.522465  ,-2.6965172 ,-1.5668861 ,-2.0765493 ,-1.6784587 ,
 -0.72566146,-3.0112615 ,-3.560313  ,-2.531499  ,-2.535382  ,-1.6948028 ,
 -1.8678279 ,-0.28702122,-0.61338156, 0.05445593,-1.8814869 ,-0.1980834 ,
 -2.8420916 ,-2.8972893 ,-1.5049158 ,-2.1046681 ,-1.335208  ,-2.759076  ,
 -0.627669  , 0.5935844 ,-1.775476  ,-1.7912891 ,-1.5912155 ,-2.7960997 ,
 -1.284267  ,-0.64615315,-1.430052  ,-2.2232463 ,-3.2759953 ,-0.7713224 ,
 -1.0264469 ,-2.0904884 ,-2.1512945 ,-2.6087773 ,-3.981575  ,-2.8546164 ,
 -2.4179292 ,-0.33083928};

const float w2[sz_hid_2][sz_hid_1] = {{ 1.70149541e+00,-3.47011629e-03,-1.08751126e-01,-1.18395053e-01,
  -1.05520535e+00,-4.32200655e-02,-2.08400749e-02,-7.23370537e-02,
   9.09830853e-02, 9.17230099e-02, 3.10293376e-01,-1.28902146e-03,
   1.78999197e+00, 1.23346770e+00, 9.76868346e-03, 1.64681286e-01,
   7.85540566e-02, 1.90937892e-01, 2.88983639e-02, 5.48600340e+00,
   3.30689326e-02, 1.35982066e-01, 5.17304993e+00, 2.07539991e-01,
   5.32580912e-02,-6.15061857e-02, 4.48312378e-03,-2.35850960e-01,
   1.55562031e+00, 2.23735198e-01,-6.92251772e-02,-1.28133088e-01,
  -1.43355832e-01,-3.91862333e-01,-6.38835907e-01,-6.46430403e-02,
  -1.43536341e+00,-3.07682419e+00,-5.52208088e-02, 7.92268217e-02,
   5.13645262e-02,-8.33770561e+00,-3.38892102e-01,-2.85585746e-02,
  -1.96890742e-01, 1.34901732e-01, 2.24344492e-01,-3.54036503e-02,
  -5.25161959e-02,-4.10523489e-02, 3.76547175e-03, 4.46816832e-01,
  -3.78469042e-02, 1.01155937e+00,-8.87097511e-03, 5.55571355e-02,
  -1.92801934e-02,-5.96829510e+00,-7.32279420e-02,-6.50339294e-03,
   1.33546352e-01, 7.94449508e-01,-1.30375767e+00,-2.93526322e-01,
   7.41513968e-01,-1.39510438e-01,-9.68814362e-03, 1.12411484e-01,
   8.44867006e-02, 3.64897847e-02, 1.44037676e+00, 1.01683751e-01,
  -1.43552357e-02, 6.83985874e-02, 4.34923731e-02, 7.81049877e-02,
  -1.77561700e-01, 8.28459710e-02,-7.35891533e+00,-9.03869927e-01,
  -3.40132639e-02, 3.91830176e-01, 5.73470771e-01, 3.71023566e-01,
  -1.43294466e+00,-4.80706543e-02,-1.06416874e-01, 9.07304943e-01,
  -1.57856062e-01, 2.37565860e-02, 1.16524696e+00, 2.01527312e-01,
  -7.01154375e+00,-1.45330727e+00, 1.01985192e+00, 4.11114981e-03,
  -1.70232095e-02,-1.45727709e-01,-1.44102287e+00, 4.15229723e-02,
   5.02195284e-02, 2.97175837e+00,-5.58501557e-02,-4.78867963e-02,
   1.15074970e-01,-1.63158476e-02, 3.39569759e+00,-8.48363936e-02,
  -1.05550714e-01, 4.20432985e-02, 6.97447956e-02, 1.14303328e-01,
  -7.49278516e-02,-2.30490232e+00,-5.04480973e-02, 1.57969877e-01,
  -3.09385303e-02,-5.08409180e-02, 4.91068572e-01,-3.70344341e-01,
  -2.84371581e-02, 1.28478855e-01,-1.90859344e-02, 8.32705200e-02,
   5.09931684e-01,-1.80806950e-01,-1.08966991e-01, 1.12908921e-04},
 { 4.83206701e+00, 3.55423957e-01, 1.87417671e-01,-6.81475401e-02,
   2.25893781e-01,-9.10306036e-01,-6.15413427e-01, 1.29290700e+00,
  -4.20249641e-01,-5.22463322e+00,-4.10734415e+00,-1.52611768e+00,
   1.77137449e-01, 6.21852756e-01, 1.14187934e-01, 3.39796603e-01,
  -1.11182320e+00, 2.29126349e-01, 1.76268592e-01,-6.10360909e+00,
   8.38660657e-01,-6.91389918e-01, 1.88256049e+00, 5.13143730e+00,
  -3.92670679e+00,-1.06235547e-02,-6.30743980e+00,-2.60180188e-03,
   2.56801359e-02,-4.31236458e+00, 1.29470992e+00, 1.46694911e+00,
  -4.18734312e+00, 1.73292959e+00,-2.74174070e+00, 3.61014515e-01,
  -1.00658536e+00,-1.12169862e-01,-7.34509182e+00, 6.41064227e-01,
   5.08323431e+00,-6.44940197e-01, 1.84669971e-01, 2.41887116e+00,
   1.42917681e+00, 2.60222316e-01,-1.27194166e+01,-2.28766009e-01,
   2.10132456e+00,-6.53304458e-01, 4.11112696e-01,-8.62198770e-01,
  -1.62612092e+00, 5.28867602e-01,-8.21551037e+00, 2.63931775e+00,
  -4.14802980e+00, 9.87149894e-01,-1.09519327e+00,-1.12989140e+00,
   1.41796994e+00, 5.44360459e-01, 1.92936218e+00,-2.55598307e-01,
   6.72240406e-02, 1.58182725e-01, 2.69427538e+00, 1.38164115e+00,
   2.91870534e-01,-6.58656597e-01,-1.91302225e-01,-3.71426642e-02,
  -7.29175210e-01,-5.45213938e-01, 3.20204675e-01,-1.67853975e+00,
   1.76546955e+00, 1.59121656e+00, 7.69496858e-02, 5.81792057e-01,
   3.67745757e-01, 9.63155851e-02,-1.62140679e+00, 3.13374186e+00,
  -1.51493967e+00, 2.50519276e-01,-1.06623745e+01, 8.87902558e-01,
  -3.38659823e-01,-1.86346376e+00, 2.65318155e-01,-4.73567772e+00,
   2.32770264e-01,-7.74864197e-01, 1.63653219e+00,-1.93181908e+00,
   5.19820154e-01, 1.19875215e-01, 1.22045055e-01, 7.48454392e-01,
  -3.05419683e+00,-1.27890676e-01, 7.96264470e-01,-3.40082860e+00,
   1.39603043e+00, 1.27177268e-01, 6.83930457e-01, 1.52437472e+00,
  -5.59875846e-01, 2.86138177e-01,-9.92702842e-01, 4.04084778e+00,
  -3.37166861e-02,-2.91911292e+00,-3.78587794e+00,-2.54788071e-01,
   2.05417663e-01, 6.97013855e-01,-4.11671311e-01,-7.27269202e-02,
  -2.10536122e+00,-2.20239425e+00,-9.07350636e+00,-8.28152239e-01,
  -1.15815416e-01,-9.28777158e-01, 1.99913597e+00,-2.75258005e-01},
 {-7.74027929e-02,-4.12606373e-02,-1.60116870e-02,-4.93223369e-02,
   4.99870740e-02,-1.50810331e-01,-1.09243346e-02,-1.60034653e-02,
  -7.66402557e-02,-1.23689556e-02,-2.59737298e-02,-9.24206153e-02,
  -1.07487097e-01,-3.79109941e-02,-9.09246504e-02,-5.24645264e-04,
   4.23262268e-02, 1.55045036e-02,-4.64729965e-02,-3.85168754e-02,
  -5.66421300e-02,-1.12799540e-01,-3.85953672e-02,-1.32435516e-01,
   2.50216341e-03,-2.49837916e-02,-1.01504378e-01,-1.26269385e-01,
   7.11976411e-03,-1.10429049e-01,-1.11811705e-01,-8.42851624e-02,
  -7.61773884e-02, 6.89596450e-03,-1.61529034e-01,-8.61454085e-02,
   6.79841638e-02,-6.48925006e-02,-1.49451075e-02,-8.62079933e-02,
  -3.54707800e-02,-1.00141756e-01,-7.00716674e-02, 2.92865913e-02,
  -1.80651713e-02,-4.77021374e-02,-1.11722142e-01,-4.74791275e-03,
  -8.51503946e-03,-9.70734134e-02,-1.06486052e-01, 3.24504887e-04,
   6.56195625e-04,-3.55972648e-02,-3.95459756e-02,-3.01846545e-02,
  -4.34745587e-02,-1.21334605e-02, 1.62284039e-02,-4.52039726e-02,
  -7.47471526e-02,-4.74756956e-02,-2.37545837e-02,-8.25183187e-03,
  -6.42715096e-02, 1.09247714e-02, 3.66836414e-02,-2.09924821e-02,
  -6.30419552e-02,-5.34218624e-02,-2.41167750e-03,-6.77697584e-02,
  -5.90432920e-02,-5.39711816e-03,-6.04003808e-03,-3.41281155e-03,
  -1.21823385e-01,-8.67052525e-02,-2.32271887e-02,-5.86714037e-03,
   8.55200179e-03,-1.53311482e-02,-1.34356067e-01,-6.40133619e-02,
  -7.49521554e-02,-1.13924928e-01,-6.85281157e-02, 2.50660926e-02,
   2.13030595e-02, 3.58089358e-02, 2.29724962e-02,-2.20684167e-02,
   4.42407019e-02, 2.68683285e-02,-5.97690530e-02,-5.38904592e-02,
   1.61562804e-02,-6.13457635e-02,-1.08933114e-01,-7.59894997e-02,
   4.33519483e-02, 2.70871017e-02, 2.14514788e-02,-2.25686990e-02,
   5.34580648e-02,-1.37506276e-01,-1.27730086e-01,-7.71745443e-02,
   6.13502488e-02,-6.08448014e-02,-1.15331270e-01,-1.88547857e-02,
  -6.47879466e-02,-6.64518625e-02,-1.53973494e-02,-7.61943981e-02,
  -1.19879507e-01,-9.65467468e-02,-3.40661802e-03, 1.07011003e-02,
  -4.03684974e-02,-1.86601635e-02, 3.86129096e-02,-4.05405760e-02,
  -1.04547188e-01,-1.20388828e-01,-8.40789732e-03, 3.08674425e-02},
 { 2.39281440e+00,-1.42854846e+00,-2.50807381e+00,-2.59344625e+00,
   5.23776770e+00,-1.56581950e+00, 2.80323672e+00, 4.65505034e-01,
   1.31747544e+00,-1.54909059e-01,-1.11080372e+00,-7.25748539e-01,
   6.64551079e-01,-1.45104723e+01,-8.79933071e+00,-3.00488019e+00,
   1.06890655e+00,-5.32732821e+00, 2.10021082e-02, 5.89350283e-01,
  -2.14292383e+00, 3.57255816e-01,-1.90098071e+00,-1.38653064e+00,
   2.05069041e+00, 4.24270105e+00, 1.97420561e+00,-6.45255995e+00,
  -1.00314867e+00, 8.29703629e-01,-5.36736310e-01, 2.64712691e+00,
  -6.78285778e-01, 2.20636511e+00,-1.35538459e+00,-1.23046768e+00,
  -2.09598374e+00, 1.01843190e+00, 1.80196416e+00,-5.18395519e+00,
   3.27489495e-01, 2.57197547e+00,-1.85869575e-01, 4.33577091e-01,
  -1.25085163e+00,-1.84966373e+00,-1.32311559e+00,-8.90912354e-01,
   2.74977016e+00, 9.59125459e-02,-1.97340381e+00,-9.09438729e-01,
  -4.68660355e+00, 1.13553202e+00, 5.32324374e-01,-1.55333471e+00,
   3.23171377e+00,-5.44712973e+00, 4.66142148e-02, 1.12809813e+00,
  -3.67581010e-01,-1.14761086e+01, 1.48722208e+00, 1.00549832e-01,
  -7.13355303e-01,-4.91088724e+00, 4.02550608e-01,-2.06269145e+00,
  -1.29445958e+00,-1.53751218e+00,-1.57768607e+00, 2.61637592e+00,
  -1.82409120e+00,-1.78900933e+00, 7.99148977e-02, 1.37814373e-01,
  -4.32599604e-01,-7.61513650e-01, 3.04264426e-02,-5.31704044e+00,
  -1.17288995e+00,-4.79372358e+00,-2.45049524e+00,-2.42955112e+00,
  -3.33574295e+00,-1.22708881e+00, 2.42760852e-01,-3.47872400e+00,
   2.26994228e+00,-1.36435390e-01,-6.74097359e-01,-1.75854909e+00,
  -9.36684322e+00,-3.38237047e+00,-4.07845354e+00, 7.70548403e-01,
  -1.25234246e-01, 9.83041883e-01,-1.05971985e-01, 2.72786140e-01,
   2.37841129e+00,-1.59920767e-01,-1.04805315e+00,-1.88680995e+00,
  -9.82771397e-01,-3.07887316e-01,-2.42476416e+00, 1.71842098e-01,
   2.05435067e-01, 4.01972264e-01, 1.41078389e+00,-2.05772614e+00,
  -1.74830878e+00,-5.52153111e+00, 2.76686877e-01,-7.43951440e-01,
  -2.16523099e+00, 2.36313558e+00,-2.99067259e+00, 7.98094988e-01,
   1.64691234e+00,-1.15787610e-01,-2.35411072e+00,-7.19760513e+00,
   1.73584521e+00,-1.61861897e+00,-2.51146913e+00,-2.85036474e-01},
 {-1.98441029e+00,-4.51634884e-01, 3.48885846e+00,-1.14675140e+00,
  -1.74535751e+00, 5.16525567e-01, 9.46746886e-01, 1.84154081e+00,
   1.81699979e+00,-1.37477624e+00, 2.15583301e+00,-2.63234973e+00,
  -1.91697195e-01, 1.26593876e+00, 1.96645689e+00, 8.73287618e-01,
  -1.22884817e-01, 2.02074957e+00, 2.35178828e+00, 4.90985727e+00,
  -5.39910495e-01, 1.74229607e-01,-6.92736340e+00,-1.32013953e+00,
   2.14997493e-02,-3.30821228e+00,-6.31529999e+00,-2.23354936e+00,
   1.94359735e-01,-8.32377315e-01,-6.44945264e-01,-2.49494243e+00,
   1.54366028e+00,-1.08791912e+00,-1.41117563e+01,-1.36683083e+00,
  -4.54942799e+00, 1.81272697e+00, 4.46698457e-01,-6.09513521e-01,
  -3.04160333e+00,-4.51595688e+00,-1.67534876e+00, 1.87928557e-01,
   1.67259312e+00,-1.90050796e-01,-6.38701618e-01, 5.33289254e-01,
   1.14127398e+00,-6.33742008e-03, 2.17904854e+00,-1.90379536e+00,
   1.78252852e+00,-1.86189866e+00,-8.34942102e-01,-3.19304645e-01,
   9.66496706e-01, 5.06634855e+00,-1.18051803e+00,-2.83283973e+00,
  -8.47588703e-02, 8.38580966e-01,-6.96695268e-01,-1.28787470e+00,
   1.63651538e+00,-2.77800417e+00,-1.99066031e+00, 6.37999326e-02,
  -1.13758898e+00,-3.15981722e+00,-2.38330865e+00, 1.06778848e+00,
  -1.29954183e+00,-2.21687555e+00,-2.40607873e-01,-1.19240558e+00,
   1.64715052e+00,-5.07256985e-01,-4.02566147e+00, 2.50143456e+00,
  -5.83288491e-01, 2.14935470e+00, 8.76323819e-01,-5.83043575e-01,
  -7.42120600e+00,-2.31388882e-01, 3.71351779e-01,-4.49412966e+00,
   1.80614436e+00,-4.45940763e-01,-2.42272568e+00, 4.86445516e-01,
   6.54385984e-02,-2.92511582e-01,-2.67152814e-03, 2.34534669e+00,
   1.70598066e+00, 2.60452658e-01, 5.92622161e-01, 1.23332870e+00,
   2.53287017e-01, 4.52125835e+00,-3.70168567e+00,-1.39350981e-01,
   3.74210358e-01, 4.11742598e-01,-2.10990977e+00, 1.10832691e+00,
  -6.57965362e-01, 1.19304359e-01, 1.45473331e-01,-5.42459916e-03,
   7.45033752e-03, 5.75524747e-01,-1.98293746e-01, 2.59933826e-02,
  -6.76239061e+00,-5.94590884e-03, 2.56587052e+00,-1.65120637e+00,
   9.70959485e-01, 1.02524900e+00,-3.68307614e+00,-7.35397100e-01,
  -1.29827768e-01, 1.08039677e+00, 6.73596764e+00, 3.98892909e-01},
 { 8.15186739e-01,-4.07916345e-02, 9.94504020e-02,-4.72217679e-01,
   3.43300879e-01, 2.83296704e-02,-7.89536461e-02, 9.51748043e-02,
   2.22547555e+00,-2.43122920e-01,-9.99816000e-01, 2.29436741e-03,
  -1.44429579e-01, 8.00283432e+00,-1.13229465e+00, 1.77027985e-01,
  -1.92202300e-01,-4.13397884e+00, 1.88412547e-01,-6.75299788e+00,
  -1.10082462e-01,-4.64694947e-02, 1.19492970e+01,-5.49737252e-02,
  -1.22720599e-01,-1.80201948e-01, 4.10600901e-01,-1.06941576e+01,
  -1.05128300e+00, 1.58816963e-01,-3.36049907e-02,-3.19176801e-02,
  -1.66509140e+00,-2.59443283e-01,-1.26765504e-01, 2.58639717e+00,
   5.68778515e+00,-1.95672917e+00, 8.67221132e-02, 2.54100108e+00,
   1.51341408e-01,-7.72631836e+00,-2.35355496e+00, 1.80885494e-01,
  -2.99916491e-02,-2.09764317e-01,-2.27035493e-01, 8.20929036e-02,
  -1.87653497e-01,-2.60592774e-02,-7.89212361e-02, 3.15980411e+00,
  -2.30748087e-01,-3.96349728e-01, 6.17560260e-02,-2.35113919e-01,
  -1.08949490e-01,-1.39450111e+01,-1.50204271e-01,-2.43167296e-01,
   1.57212988e-02,-6.66199088e-01,-1.73540056e+00,-6.26986753e-03,
   7.72445560e-01, 3.44574285e+00, 7.23344646e-03,-1.99323699e-01,
   5.16517460e-02,-1.64865971e+01, 1.05619729e-01,-4.91889572e+00,
   3.80718917e-01,-4.10538651e-02,-2.37695590e-01,-1.43775731e-01,
   2.02733487e-01,-1.76829994e-01,-1.39900470e+00,-2.38222218e+00,
   7.14222342e-02, 3.56452990e+00,-5.77192485e-01,-1.34431422e-01,
   1.53625154e+00, 3.37018743e-02, 1.01271510e+00,-1.17547639e-01,
  -1.60800815e-01, 1.87209129e-01, 4.41761637e+00, 6.59188271e-01,
  -1.23860085e+00, 4.06630218e-01,-2.09652901e+00,-4.51844901e-01,
   4.43690307e-02,-5.55926895e+00,-1.76611543e+00,-3.73252966e-02,
  -2.78276622e-01, 1.55860031e+00, 5.34853823e-02,-1.15770042e-01,
   9.27893892e-02,-6.29115328e-02,-3.31047773e-01,-6.61421493e-02,
   7.29360580e-02, 2.14315467e-02,-5.02951369e-02,-1.59003004e-01,
   2.31880769e-01,-4.26820129e-01, 3.00509706e-02,-1.33239299e-01,
   4.32445437e-01, 3.25141877e-01,-1.12307703e+00,-2.15284848e+00,
   1.43611711e-03,-4.94258255e-01,-2.66006682e-02, 9.83270824e-01,
  -1.40047491e-01, 2.73227036e-01, 6.27783775e+00,-1.76578045e-01},
 {-5.50605059e-02,-4.83504646e-02,-5.42512164e-02,-9.57622752e-03,
  -3.97230014e-02,-4.40151729e-02,-4.20620181e-02,-6.52665347e-02,
   1.32027157e-02, 1.07028428e-02,-1.43202901e-01,-1.60785858e-02,
  -3.08424644e-02,-1.78501569e-02,-3.57449464e-02, 2.10267715e-02,
  -5.19662686e-02, 2.99916100e-02,-8.78948867e-02,-7.34848008e-02,
  -1.29492253e-01,-8.87342542e-02,-2.92677861e-02, 1.77905671e-02,
  -1.26901835e-01, 9.45364311e-03, 3.56762297e-02,-8.26505646e-02,
   5.21567166e-02,-8.82935897e-02,-2.50056256e-02,-4.93922010e-02,
  -5.75150028e-02,-7.55113587e-02,-1.16323210e-01,-1.16359936e-02,
  -8.34578127e-02,-1.10333472e-01,-8.13493952e-02, 2.02912767e-03,
  -5.27138375e-02,-7.84038156e-02,-1.60630375e-01,-1.51274323e-01,
   2.41331775e-02,-7.92038664e-02,-2.74009164e-02,-7.60573074e-02,
  -1.82425324e-02, 1.05013354e-02,-1.70414358e-01, 8.51001125e-03,
  -9.94551256e-02,-3.88638154e-02,-7.87341073e-02,-6.92634284e-02,
   1.85810924e-02, 6.44665211e-02,-5.67264017e-03,-3.13900486e-02,
   2.46735699e-02, 1.69357867e-03, 6.10579178e-03,-1.23454623e-01,
  -6.52656257e-02,-3.56191359e-02,-1.45691773e-02,-4.00375240e-02,
  -1.59527510e-01,-4.95288409e-02, 2.58767959e-02,-6.13479204e-02,
  -6.71138093e-02,-3.51572558e-02,-7.95104876e-02,-5.47047108e-02,
  -8.41568187e-02,-7.50400685e-03, 3.90568487e-02, 1.06141837e-02,
   2.03271396e-02,-1.22177958e-01,-8.09663311e-02,-2.83234771e-02,
  -1.15670048e-01,-5.76141803e-03,-9.09596607e-02,-2.53335126e-02,
  -7.60832056e-03,-7.30080977e-02, 3.50013524e-02, 4.00559008e-02,
  -1.05008781e-01, 3.29708904e-02,-7.01699778e-02,-4.71640937e-02,
  -8.78567249e-02,-4.91399206e-02,-1.59899946e-02,-1.39898852e-01,
  -1.80619389e-01,-9.72179621e-02, 6.25804067e-02, 3.73724476e-02,
  -7.42789218e-03,-3.88514027e-02,-3.79458517e-02,-9.64541882e-02,
   2.44944566e-03,-7.13120103e-02,-3.10891103e-02,-3.76518071e-02,
   1.39964763e-02,-4.57758568e-02,-1.39436319e-01,-6.65284172e-02,
  -9.80573297e-02,-8.47272947e-02, 6.48279814e-03,-6.28646165e-02,
  -8.43240321e-03,-1.83589328e-02,-1.07609227e-01,-8.17569438e-03,
   5.44467419e-02,-2.34853439e-02,-3.19251232e-02,-2.82490756e-02},
 { 1.62441957e+00,-5.16796529e-01,-4.03145909e-01, 7.05387071e-02,
  -1.04371631e+00, 1.57269895e+00, 1.11134195e+00,-9.48284149e+00,
   4.43605036e-01,-9.14045930e-01,-1.33578992e+00,-1.48385727e+00,
  -9.12377387e-02,-2.64904350e-01,-8.82162750e-01,-1.60233855e-01,
  -8.07939172e-02, 2.77072608e-01, 4.27432001e-01, 2.73545337e+00,
  -9.48932076e+00,-1.01736927e+00, 1.12589169e+00,-3.92074680e+00,
   2.24188018e+00,-1.97714293e+00, 4.00917947e-01,-5.23434095e-02,
   6.75332785e-01, 2.72794776e-02,-3.28903869e-02, 1.61226296e+00,
   2.75274277e+00,-4.32719946e+00, 1.46505046e+00, 8.79481956e-02,
  -9.62955594e-01, 1.74375534e-01, 1.32619083e-01, 1.07961094e+00,
   2.67632627e+00,-3.49697143e-01, 1.55289412e-01,-2.28051805e+00,
  -1.19659126e+00,-8.75089586e-01, 5.76323748e-01,-1.80307245e+00,
   3.44340539e+00,-9.01978683e+00,-3.79756182e-01, 2.09151894e-01,
   1.59645724e+00, 3.00509310e+00, 3.32985401e+00,-5.56535721e+00,
   2.05109701e-01, 7.33292997e-01, 3.38039899e+00,-1.65207076e+00,
   1.15571189e+00, 9.46115613e-01,-2.86060786e+00,-9.69769359e-01,
   1.93077832e-01,-2.12043850e-03, 9.47367996e-02,-1.94844449e+00,
  -5.23943007e-01, 5.37576914e-01, 2.57576156e+00,-5.90785801e-01,
  -9.64340508e-01,-1.17965207e-01, 6.46404386e-01, 8.91233325e-01,
  -9.97533131e+00,-7.36620426e+00,-9.97802854e-01, 6.15704119e-01,
   5.19403398e-01, 7.09260345e-01, 4.78279066e+00, 5.54857492e-01,
   2.08808288e-01, 7.72264361e-01, 5.77436209e-01, 3.49809229e-01,
   1.22665185e-02,-1.13747513e+00,-3.92542966e-02, 7.38408709e+00,
   4.66619194e-01, 9.89125013e-01, 4.26612377e-01, 6.01698518e-01,
  -3.43866634e+00,-2.52654225e-01, 9.50349271e-02, 1.43035018e+00,
   1.73052382e+00, 5.53653479e-01, 2.59244132e+00,-1.49293051e+01,
  -7.11323118e+00,-1.42127085e+00,-4.01300997e-01,-2.28165403e-01,
   2.18013421e-01, 7.00782478e-01, 5.63033640e-01,-2.88410544e+00,
  -4.37337112e+00, 7.82776892e-01, 1.85972250e+00,-7.10293961e+00,
   6.62094355e-01,-1.59620857e+00, 5.55642033e+00, 1.22176313e+00,
  -2.86429191e+00, 9.20617402e-01, 4.91747284e+00,-1.68875146e+00,
   7.16781616e-01,-7.66815805e+00, 1.34867620e+00,-7.22922981e-01},
 { 4.45458263e-01,-9.07584310e-01, 2.17560697e+00, 6.85896873e+00,
   3.30514026e+00,-7.06335497e+00, 1.32424819e+00, 5.91300845e-01,
   2.32088017e+00,-4.62745368e-01,-2.55412889e+00,-5.19314480e+00,
   6.23863563e-03,-3.17216897e+00,-1.49042332e+00, 6.28693879e-01,
   4.83567230e-02, 7.16141760e-01,-5.99513166e-02,-7.26146841e+00,
  -2.50428486e+00, 6.92649662e-01, 1.08587480e+00, 1.60734385e-01,
  -8.68446827e-01,-1.28178550e-02, 1.31595981e+00,-2.27919140e+01,
  -1.20177972e+00, 1.36164367e+00,-9.94433999e-01, 1.04244745e+00,
   7.48203278e-01,-3.81309390e+00,-2.63431025e+00, 7.03459561e-01,
   6.35193586e-01,-1.08770835e+00, 1.66832268e-01, 5.21383703e-01,
   1.23734605e+00,-3.46787906e+00, 3.48886192e-01,-7.05160952e+00,
  -5.02739787e-01,-1.81072205e-02, 2.21852636e+00,-1.77572161e-01,
  -1.05729699e+00,-6.28248928e-03, 1.39975429e-01, 1.89987183e+00,
  -8.00707519e-01,-1.31057417e+00,-3.05426025e+00,-7.07515359e-01,
   1.25816274e+00, 6.63231468e+00, 1.22402203e+00, 1.62203777e+00,
  -9.33234215e-01,-2.17907381e+00, 1.54577047e-01,-1.27885163e+00,
   1.60910380e+00, 3.16011071e+00,-5.97920835e-01,-1.24408662e+00,
  -1.57162762e+00,-4.15271997e+00,-3.07355762e-01, 2.43990803e+00,
  -1.90076232e+00,-1.31360996e+00, 1.95125413e+00,-1.40395141e+00,
  -7.40670085e-01,-1.95767200e+00, 6.49388611e-01,-2.84508419e+00,
  -4.07303214e-01, 1.55715299e+00, 4.93579865e-01, 1.02153695e+00,
   1.06568560e-01, 1.43280566e-01, 2.17747903e+00, 1.86703789e+00,
  -1.46362770e+00,-5.34703302e+00, 1.85389960e+00,-2.32894969e+00,
  -1.07891121e+01,-5.19259405e+00, 4.46989566e-01, 1.39166012e-01,
   1.10387385e-01,-1.36095119e+00, 2.45110560e-02,-6.16802946e-02,
   1.76300991e+00, 7.83374667e-01,-5.84839523e-01,-2.26557636e+00,
   2.30805492e+00,-9.89092410e-01, 1.53709912e+00,-1.77589703e+00,
   5.25739372e-01, 5.19345045e-01,-2.28735995e+00,-2.30382037e+00,
   1.95307359e-01,-3.36416388e+00, 6.34688735e-01,-1.27582955e+00,
  -2.93291855e+00, 1.83111143e+00, 2.92382479e+00, 1.74060917e+00,
   1.20141995e+00, 2.26202250e-01, 1.26114011e-01,-5.69046568e-03,
   1.50032437e+00, 1.51442122e+00, 3.72460938e+00,-6.55763686e-01},
 { 3.91279840e+00,-6.32661641e-01,-4.42280561e-01, 2.57171893e+00,
  -3.47124386e+00,-4.09758139e+00,-1.39261031e+00, 9.23981145e-02,
  -3.48384356e+00,-3.88064599e+00, 3.91212559e+00,-1.42540538e+00,
   1.95767626e-01,-1.43432503e+01,-1.69254613e+00, 4.57224660e-02,
  -6.23862684e-01,-2.50173259e+00,-1.00230193e+00,-3.34860533e-01,
   1.16789080e-01,-1.16061008e+00, 3.47711635e+00, 2.05416155e+00,
  -4.37057197e-01,-2.49748778e+00, 5.50187826e+00,-3.08685112e+00,
   2.00818014e+00,-3.03890276e+00, 6.73018873e-01,-2.43201876e+00,
   4.99772638e-01,-6.51349163e+00,-8.97843003e-01, 4.33044374e-01,
  -3.44792902e-01,-4.19228137e-01,-1.42558336e+00,-8.56276512e+00,
  -3.38462186e+00,-4.02410221e+00, 1.19108808e+00,-7.06073284e+00,
   2.11359715e+00, 1.42297804e+00,-1.43061256e+00,-3.06461453e-01,
   4.89160269e-01, 6.36259615e-01,-5.49640369e+00,-4.26186609e+00,
  -3.02333355e+00,-2.11822223e-02,-3.18764836e-01, 1.31496263e+00,
  -5.46685362e+00,-5.08020759e-01,-1.52705476e-01,-6.99479628e+00,
   1.27279127e+00,-1.31847372e+01,-1.59231305e+00,-1.82669783e+00,
  -1.27027361e-02, 2.39118171e+00, 3.06394607e-01, 5.56656905e-02,
   1.70597506e+00,-3.19933391e+00,-2.07588840e+00, 9.88624156e-01,
   2.79729581e+00, 1.15355328e-01, 1.35530221e+00,-1.34583282e+00,
   3.13523841e+00, 1.89243889e+00,-1.08694296e+01,-1.33143270e+00,
   1.69393599e+00,-4.03054953e+00, 1.79301277e-01, 9.78981674e-01,
  -9.84688401e-01,-8.19108105e+00,-1.22428012e+00,-2.78215432e+00,
   2.73101479e-01, 1.47999811e+00, 7.16622055e-01,-3.81211996e+00,
  -3.54512763e+00,-4.71189976e+00,-2.18672901e-02,-1.52787462e-01,
   3.80291295e+00, 5.81033528e-03, 8.78614902e-01, 2.05389470e-01,
  -4.17182922e+00,-2.06776828e-01, 2.91379094e+00, 1.89550257e+00,
   5.58609188e-01, 5.41954935e-01, 1.55571795e+00,-1.15546823e+00,
  -3.15580517e-01, 4.12581824e-02,-5.41397810e+00, 1.23158765e+00,
   2.63818383e-01, 6.67117059e-01,-1.45328927e+00, 2.37592295e-01,
  -3.18095112e+00,-2.43560052e+00,-4.36593771e+00, 1.76284325e+00,
  -9.31887090e-01, 4.20411937e-02,-2.97898650e+00,-2.44599581e+00,
  -2.45581198e+00, 3.68127376e-01, 3.55408454e+00,-2.90196329e-01},
 {-4.98793602e-01, 5.10514498e-01, 2.18923524e-01,-3.46561819e-01,
   1.49135828e+00,-2.94080663e+00, 3.74357915e+00, 1.58380076e-01,
  -7.81861186e-01,-2.72532439e+00, 1.21270192e+00,-3.51793718e+00,
   3.38486046e-01,-7.89428055e-01, 2.80121744e-01,-4.32750797e+00,
  -8.58566388e-02,-5.81896961e-01,-2.66885114e+00,-5.18527508e+00,
   2.01925683e+00,-9.77170244e-02,-4.88760900e+00, 9.60217416e-01,
  -8.52756500e-01,-1.22759914e+00,-4.10770416e+00, 5.33488512e-01,
  -7.71218824e+00, 3.49270511e+00, 4.72585738e-01,-1.84624207e+00,
  -6.64239454e+00,-2.85739231e+00, 1.42465675e+00,-1.14069000e-01,
  -1.06351125e+00, 1.77737710e-03,-6.63070297e+00, 4.88766968e-01,
  -4.48235607e+00,-1.00870945e-01, 2.25303483e+00,-4.39926624e+00,
   1.32926691e+00,-4.51025426e-01, 1.93984139e+00, 4.05022860e+00,
   2.46646300e-01, 3.82358544e-02, 4.72043085e+00, 9.59485531e-01,
  -3.99219468e-02, 5.65077543e+00,-8.89348447e-01, 5.19284070e-01,
  -6.55317497e+00, 2.80590105e+00, 2.51454890e-01, 4.48915482e-01,
  -6.88631356e-01, 1.86928153e-01, 3.88865232e+00,-3.32067776e+00,
  -1.48908749e-01, 1.12377262e+00, 3.62062621e+00, 1.72478807e+00,
  -2.73301512e-01,-4.09880590e+00, 1.50287986e+00, 6.13734126e-01,
   8.38628578e+00,-5.84864497e-01, 1.17269218e-01,-9.07377779e-01,
   2.56510830e+00, 1.13134694e+00, 2.58447886e+00,-1.45253694e+00,
   1.05050492e+00, 5.12841821e-01,-2.14877200e+00, 2.83136845e+00,
  -1.66174185e+00,-3.21027136e+00, 1.69429469e+00,-2.84920263e+00,
   2.49163914e+00, 2.50776076e+00,-5.50622232e-02, 9.64868546e-01,
   6.93190050e+00,-4.07595247e-01,-2.64002895e+00, 6.47660851e-01,
  -3.58086753e+00, 4.50756043e-01, 9.76735353e-02, 1.15624046e+00,
  -7.10271358e+00,-1.08772767e+00,-1.42972529e+00,-5.01909442e-02,
   2.80006945e-01,-2.38731408e+00,-3.15687895e-01,-3.32128215e+00,
  -1.28008068e+00,-1.87667429e-01, 4.17216396e+00, 5.31465411e-01,
  -9.78806853e-01,-2.54679513e+00,-1.34191406e+00,-3.10761780e-01,
  -4.52162951e-01,-4.97200638e-01, 1.26706910e+00,-1.61305153e+00,
  -1.08457494e+00,-4.88645345e-01,-1.06913793e+00,-1.29415870e+00,
  -2.81364274e+00, 1.34714806e+00, 3.53312530e-02,-1.54987609e+00},
 { 4.77011490e+00, 1.86112404e-01,-3.79794687e-01, 2.93448687e-01,
  -4.54120445e+00,-2.38865033e-01,-2.46546030e-01,-3.74124944e-02,
  -3.36567307e+00,-2.13567629e-01,-2.51000196e-01,-9.38477421e+00,
  -6.43167943e-02, 1.08843107e+01,-6.62916481e-01,-4.79662657e+00,
   1.65297929e-02,-4.28015995e+00, 1.97331578e-01,-2.96519017e+00,
  -1.65150687e-01,-2.19831154e-01, 1.65517843e+00, 9.60703269e-02,
   4.51656356e-02,-3.55907738e-01, 1.02915049e-01,-1.61887601e-01,
   4.02789402e+00,-6.54289484e+00,-3.99573483e-02,-1.90899312e+00,
  -1.84002948e+00,-2.21835852e+00,-1.45405865e+00,-1.23408079e+00,
   5.58413696e+00,-8.62918663e+00,-2.56210774e-01, 4.44962263e+00,
  -5.08370543e+00,-1.20540261e+00, 1.71033823e+00,-1.50295138e-01,
   4.94380385e-01,-2.76877940e-01,-1.29849583e-01, 1.64834987e-02,
  -3.37392688e-01, 1.37825936e-01, 3.75487171e-02, 3.54188514e+00,
   1.60570562e+00,-1.24281721e+01, 1.63072467e-01,-3.66042629e-02,
  -2.87034988e-01,-9.86978340e+00,-2.45947931e-02,-3.43052173e+00,
  -1.29276663e-01,-1.65544376e-01,-8.11496153e-02, 4.06913996e-01,
  -1.45322025e+00, 4.14882720e-01, 6.41304702e-02, 7.43189454e-02,
   2.72579700e-01, 1.43539250e+00,-2.80765152e+00, 3.13503712e-01,
   2.85172492e-01,-1.91344202e-01, 1.17584157e+00, 2.46911854e-01,
  -2.27861539e-01,-2.91280518e-03,-3.37265402e-01, 4.49076319e+00,
   6.02245033e-02,-2.73183846e+00, 8.75733376e-01,-1.87528655e-01,
  -1.54721823e+01,-3.39974195e-01, 3.22455138e-01, 6.78420126e-01,
  -5.44687176e+00,-3.96149158e-01, 1.92830241e+00,-6.12429380e+00,
   1.00224984e+00,-1.16822624e+01,-8.20602775e-01, 2.75704861e-01,
   2.57752180e-01,-8.69156265e+00,-1.34880960e+00, 8.00034925e-02,
  -3.85628611e-01,-5.84063339e+00, 9.33215857e-01, 6.68868572e-02,
  -1.01047028e-02, 8.04419667e-02, 5.23869514e+00, 1.29404619e-01,
  -1.03846192e-01,-4.32584472e-02, 3.01147908e-01, 2.14180768e-01,
  -2.21639112e-01,-4.19105530e+00,-1.45782053e-01,-2.20836625e-02,
  -6.00534260e-01,-4.57877666e-01,-7.38184154e-01,-1.41957641e-01,
   6.02240711e-02,-2.09807903e-01,-3.42749739e+00, 3.97571182e+00,
   2.01535895e-01,-3.42889100e-01, 7.48820007e-01,-7.91089386e-02},
 {-4.05434519e-01, 4.79501858e-02, 4.42964099e-02, 1.46918526e+01,
  -9.93217379e-02, 4.22353595e-02,-3.80828828e-02, 3.68937589e-02,
   1.88209880e-02,-2.76435930e-02,-5.99766374e-02, 1.83199556e-03,
   1.71597064e+00, 1.41877145e-01,-1.12799578e+01,-1.39768384e-02,
  -3.17766890e-02, 3.44213867e+00,-9.02699586e-03,-4.57243729e+00,
   3.69427726e-04,-2.41321232e-02, 7.87988484e-01, 5.71412081e-03,
  -3.03090294e-03,-3.17060612e-02,-8.66726227e-03,-3.02164116e+01,
  -6.65841520e-01,-2.38453634e-02,-6.25214959e-03,-4.51865077e-01,
   1.37284892e-02,-1.31403292e-02,-6.92460388e-02, 1.48276255e-01,
   5.20024920e+00,-8.22248757e-02,-5.13586700e-02, 5.52780688e-01,
   2.24471348e-03,-5.17523348e-01, 4.77077931e-01,-4.32420826e+00,
  -3.17154899e-02, 4.64909196e-01, 4.71647047e-02,-7.59561255e-04,
   5.35876751e-02,-4.93923649e-02, 1.50548527e-02, 1.13229637e+01,
   2.91110445e-02, 1.17280293e+00,-3.91307333e-03,-2.88465247e-03,
   2.47985665e-02,-4.16151333e+00,-9.63070896e-03,-1.26955643e-01,
  -8.85794871e-03, 2.93488473e-01, 9.36351836e-01,-3.53733927e-01,
   1.39837891e-01, 5.30356884e-01,-5.40436544e-02, 1.56613458e-02,
   1.39787989e-02,-2.20187016e+01,-4.71632034e-02,-3.54766583e+00,
   2.16528960e-02,-3.48471701e-02, 1.29958451e-01,-1.52433878e-02,
   7.72970542e-02,-6.44334331e-02, 1.56162813e-01, 6.28839135e-02,
  -1.68927629e-02, 1.90074757e-01, 1.59200236e-01,-2.31030375e-01,
  -1.41789451e-01,-6.23932481e-02, 1.03387997e-01, 1.22941090e-02,
  -1.08762821e-02, 1.91776585e-02, 2.69700021e-01,-6.21323921e-02,
  -1.74111354e+00, 2.04056546e-01,-2.64723431e-02, 2.23281905e-01,
   4.31304239e-02,-6.42351508e-01,-1.39989424e+00, 3.24058644e-02,
  -7.89467618e-03,-6.22823555e-03, 1.86167546e-02, 1.31599428e-02,
   3.49077061e-02, 3.69504429e-02, 7.20210513e-03,-1.72971010e-01,
  -1.61799393e-03, 3.05053815e-02,-2.43352191e-03,-3.85247543e-02,
   2.75605191e-02,-2.30004042e-02,-1.30753135e-02, 1.81070971e-03,
  -9.21422577e+00, 1.81981307e-02, 3.28100502e-01, 2.76822150e-01,
   2.65279301e-02, 2.61231482e-01,-1.04669284e-03, 1.47790879e-01,
   3.27913791e-01, 2.46063322e-02, 2.01614738e-01,-6.12144358e-03},
 { 2.34935713e+00, 2.68742163e-02, 2.37395808e-01, 2.43767127e-02,
  -1.40236378e+00,-3.17155570e-01, 1.76154032e-01,-4.51818466e+00,
  -3.64109844e-01, 1.05966938e+00,-9.89410973e+00, 1.31663293e-01,
   7.26270676e-03, 2.36207128e-01, 2.21598133e-01, 1.98915675e-01,
  -1.24906540e+00, 2.66660905e+00,-1.57586902e-01, 2.95998859e+00,
  -6.71557665e-01, 1.40986454e+00,-4.10965979e-01, 1.72384894e+00,
   4.03890085e+00,-1.83209240e-01,-2.05955601e+00, 3.39040369e-01,
   1.81106818e+00, 3.64592731e-01,-2.18659735e+00, 3.05289221e+00,
   1.84640861e+00,-1.77475572e+00, 1.28857505e+00, 1.83437075e-02,
  -7.05757916e-01,-3.34818065e-02,-7.33984137e+00, 1.88898981e-01,
  -3.46710491e+00,-1.16478920e-01,-7.70263895e-02,-9.90410447e-01,
  -2.40875530e+00, 5.96260838e-02,-1.21496844e+00,-3.00669861e+00,
  -3.27718830e+00,-6.89150989e-02, 4.59532440e-02,-1.38167888e-01,
   3.51631850e-01,-1.24831498e-01,-2.97284746e+00,-5.15859902e-01,
   2.61567974e+00,-1.35227239e+00, 1.25630891e+00, 6.10940456e-01,
  -1.53836775e+00, 1.04594983e-01,-3.09951995e-02,-1.89520270e-01,
  -2.03304052e-01,-3.19443345e-01,-1.60460722e+00,-1.50748694e+00,
   2.33182764e+00,-1.33719832e-01, 3.94849926e-01, 1.38252950e+00,
  -1.00129480e+01,-5.62574625e-01, 9.79724899e-02, 6.26981497e-01,
  -4.24530458e+00,-2.56482387e+00,-1.91256016e-01,-5.39105013e-02,
  -1.32799089e+00,-1.92261916e-02, 1.21362150e+00, 4.20599842e+00,
   8.26588944e-02, 1.73955351e-01, 7.01283932e+00,-2.07453713e-01,
  -2.19824142e-04, 1.92608133e-01, 2.08552644e-01, 3.88223314e+00,
   2.69943159e-02, 5.99628277e-02,-1.45766950e+00, 1.25319028e+00,
  -3.88181448e-01, 2.62296442e-02, 1.81090251e-01, 3.50551963e-01,
   5.88874483e+00, 1.59839392e-01,-4.80704165e+00,-5.64924812e+00,
  -4.73469019e-01,-5.26189685e-01, 2.70281553e-01, 5.13615049e-02,
   1.88779211e+00, 1.90327752e+00, 2.54995912e-01,-1.90362787e+00,
  -6.48819983e-01, 3.05768579e-01,-2.94274306e+00,-7.78441429e-01,
   2.60586627e-02, 1.58968246e+00, 3.41228873e-01,-8.69229883e-02,
  -5.70775318e+00, 2.21529913e+00, 7.07830667e-01, 2.52759427e-01,
   3.70036006e+00, 8.61717224e+00, 5.73843956e-01,-7.74197698e-01},
 {-4.60151625e+00,-7.06505418e-01,-1.04399347e+00, 2.69100618e+00,
  -1.41449225e+00,-4.05373573e+00,-9.49830472e-01, 1.37865961e+00,
  -2.92549515e+00,-4.84679431e-01,-1.64397943e+00,-1.57886446e-01,
   3.59647966e-05,-1.98924084e+01, 4.10514927e+00,-9.93839383e-01,
  -7.47498095e-01, 1.89997685e+00, 6.44650340e-01, 1.00860536e+00,
  -1.66026831e+00, 4.52734143e-01, 2.48495770e+00,-2.26615572e+00,
   2.17640981e-01,-3.06037188e+00, 5.14376044e-01, 2.67761159e+00,
   1.75796020e+00,-7.83838093e-01,-6.20942414e-01, 3.91554415e-01,
  -2.78548636e-02, 2.33577466e+00,-6.14135551e+00, 8.98344457e-01,
  -2.97747684e+00, 1.86403823e+00, 2.10036945e+00,-4.22242785e+00,
  -1.05990863e+00, 3.21328223e-01, 1.55409253e+00,-1.08545980e+01,
   1.03245902e+00, 4.91293401e-01, 1.86486804e+00, 4.97858584e-01,
  -1.04273057e+00,-6.75037265e-01,-2.28740311e+00,-5.52079582e+00,
  -3.47046226e-01,-1.13163996e+00,-1.21643357e-01,-5.82265496e-01,
   6.01159632e-01, 2.62591791e+00,-3.06330830e-01,-1.65990317e+00,
  -1.05251122e+00,-3.31025171e+00,-2.42766428e+00,-5.92476875e-02,
   4.25270088e-02, 1.08446109e+00,-4.04261202e-02,-7.97112286e-01,
  -7.84532428e-01,-5.09151125e+00,-3.01050758e+00, 4.45683241e+00,
  -1.72125113e+00,-8.11579227e-01,-1.82882333e+00,-1.53212810e+00,
   1.08721340e+00,-1.98817432e+00,-7.61324346e-01,-1.43947947e+00,
  -1.27536327e-01, 1.57017124e+00, 1.05073690e+00, 3.26772273e-01,
  -6.69448662e+00,-3.31486177e+00, 1.70898414e+00,-8.54961777e+00,
  -1.98497164e+00, 1.87597680e+00,-8.48456001e+00,-1.66108340e-01,
   4.94338363e-01,-1.97868085e+00,-9.34694707e-01, 9.66370523e-01,
  -8.54077697e-01, 1.48676336e+00,-2.39633143e-01, 4.11613956e-02,
   6.95061445e-01,-3.02202344e+00,-2.05289841e+00,-2.16780853e+00,
   6.51428938e-01,-6.16100669e-01,-5.50746393e+00,-5.10315561e+00,
   2.66641706e-01, 2.67355442e-01, 4.79677498e-01,-1.98546374e+00,
   4.35002267e-01, 5.56694925e-01, 1.17948890e+00,-1.45476305e+00,
  -4.22847319e+00, 1.42189276e+00, 2.86469436e+00, 4.03705120e+00,
   8.17049265e-01,-3.85919839e-01, 4.54197854e-01, 2.48808563e-01,
   1.50372684e+00, 1.84972537e+00, 1.75641739e+00,-4.68639016e-01},
 { 3.25492311e+00, 1.78997636e+00, 5.54825664e-01, 3.76840770e-01,
  -2.56958818e+00, 8.53654921e-01, 3.67056400e-01,-1.18852496e+00,
  -2.68273860e-01,-1.78209114e+01, 4.96483612e+00,-2.92887497e+00,
  -1.83720484e-01, 4.15789336e-01,-3.97677839e-01, 1.70016456e+00,
   1.14475198e-01, 3.40993404e-01, 5.51450729e-01, 1.34232223e+00,
   1.35561805e-02,-7.72810340e-01, 1.99560308e+00, 1.73300993e+00,
  -1.20929193e+01,-8.25343132e-01,-4.44899589e-01, 1.06541455e-01,
   2.05496502e+00,-2.23535156e+00, 5.23228407e-01,-9.01904464e-01,
   3.88930351e-01,-1.35356104e+00,-1.46902597e+00, 1.74627259e-01,
  -5.28001726e-01,-3.02488983e-01,-1.39205709e-01, 1.09211206e+00,
   3.34720278e+00,-2.79933780e-01, 5.03252149e-01, 1.61020231e+00,
   1.03391969e+00,-1.42556930e+00,-1.66630447e+00,-1.92974961e+00,
  -4.06509209e+00,-5.85226774e-01,-8.78665626e-01, 2.56015003e-01,
  -1.62098479e+00,-6.58383429e-01,-3.42776155e+00, 4.80953884e+00,
  -3.40830517e+00, 9.15828526e-01,-1.75165606e+00, 2.32578707e+00,
   7.77430475e-01,-4.45754319e-01,-8.36153328e-01, 7.25257874e-01,
  -1.28253019e+00, 9.88660306e-02,-3.15796900e+00, 1.05273414e+00,
  -3.44630432e+00,-4.05769981e-02, 1.73949277e+00,-1.39502145e-03,
   1.15319967e+00,-5.02078581e+00, 9.70656931e-01,-2.15005517e+00,
  -2.73767376e+00, 1.77605498e+00,-1.27683055e+00, 1.73394644e+00,
  -3.37862563e+00, 6.12715542e-01,-7.68910885e-01,-1.25942245e-01,
  -9.59051549e-01,-1.68260550e+00,-1.58912909e+00, 1.18695629e+00,
  -4.70195198e+00,-2.52727056e+00,-2.30320752e-01,-2.42355752e+00,
  -1.68281108e-01, 2.91895177e-02, 1.79337966e+00, 8.71591091e-01,
  -1.65214920e+00,-4.70717102e-02, 3.43579620e-01, 1.38180578e+00,
  -3.99808615e-01, 1.48791480e+00, 9.35049057e-01,-2.17450762e+00,
  -1.36130214e+00, 2.95597124e+00, 6.41086698e-01, 4.28596497e+00,
  -1.15025878e+00, 4.55074072e-01,-3.33588123e+00,-1.65479922e+00,
  -9.04306531e-01,-2.41486832e-01,-6.27528071e-01,-1.70582950e+00,
   9.23241496e-01, 5.85217714e+00,-1.31416917e+00, 4.94143188e-01,
   1.09014177e+00, 2.53085542e+00,-6.17172003e+00,-1.67764187e+00,
   1.53576124e+00,-1.21899438e+00, 1.16247439e+00,-5.88487148e-01},
 {-1.47701728e+00,-3.28972530e+00, 1.52514368e-01,-3.49439472e-01,
   2.51621366e+00, 8.46786439e-01, 2.56213158e-01, 3.77312303e-01,
   8.32973048e-02, 3.55912864e-01,-4.48857903e-01,-2.24032927e+00,
  -9.40091815e-03,-2.21224874e-01, 1.11401476e-01,-5.12101316e+00,
  -1.22644007e-01, 1.32349408e+00, 4.00533104e+00,-5.01321018e-01,
  -1.40571308e+01,-3.93406963e+00, 1.15480530e+00,-3.39803433e+00,
   1.31791439e-02,-3.91355228e+00, 2.16093548e-02, 1.05492748e-01,
  -4.00986910e+00, 8.77785265e-01,-9.10683036e-01, 4.10587358e+00,
  -3.13248563e+00,-2.08919525e+00, 2.26365909e-01, 5.27110472e-02,
  -4.80262786e-01,-3.22387516e-01,-3.38243723e-01, 2.31747121e-01,
   5.49738854e-02,-1.76295936e-01, 2.50121683e-01,-1.58598065e+00,
  -3.18493128e+00,-2.05188370e+00,-2.84696984e+00,-1.01702178e+00,
   6.71450436e-01, 2.28609502e-01,-7.57667273e-02, 6.40344083e-01,
  -6.69697464e-01, 3.30720901e+00,-2.25202739e-01, 1.73954594e+00,
  -1.07811337e+01, 8.43615294e-01,-1.17269170e+00,-1.14181924e+00,
  -4.81227970e+00,-1.99709117e-01, 2.12180758e+00,-2.69433451e+00,
   3.41562480e-01,-3.75646092e-02,-3.69189954e+00, 1.85165274e+00,
  -2.64725351e+00,-4.81972098e-02,-6.48487747e-01,-3.15780967e-01,
  -2.87378430e+00,-1.92187214e+01, 3.34207326e-01,-1.33632879e+01,
  -4.20355940e+00,-1.14285684e+00,-3.79196107e-01, 2.22192049e-01,
   3.28397465e+00,-1.74155012e-01,-6.28765374e-02,-2.13199749e+01,
  -2.30801813e-02,-6.91746891e-01,-7.69018650e+00, 6.42787144e-02,
   4.47000533e-01, 8.79490912e-01, 1.72915399e-01,-3.44696939e-01,
   3.90862256e-01, 1.56403497e-01, 1.16182137e+00,-8.30957107e-03,
  -5.74325323e-01,-1.59697920e-01, 1.12415232e-01, 5.64438963e+00,
  -6.18901157e+00,-6.03491850e-02, 6.39880121e-01,-1.41587365e+00,
  -7.20197868e+00, 3.45770806e-01,-1.98755234e-01,-4.96655226e-01,
  -3.01958466e+00, 1.19202363e+00, 7.47041777e-02,-2.67560506e+00,
  -4.54487085e-01, 3.15270156e-01,-2.78018981e-01,-9.98213813e-02,
   2.02720687e-01, 4.05567884e-01, 1.94183826e+00,-2.24508449e-01,
   5.27760923e-01,-1.06778669e+01,-7.75824264e-02,-1.52478075e+00,
   9.46401691e+00,-7.28247285e-01, 3.99861485e-01,-1.07486534e+00},
 {-8.25232565e-02,-2.87149418e-02,-9.09577087e-02,-6.00563139e-02,
  -1.05477452e-01, 1.74744911e-02,-6.30763918e-02,-9.48975161e-02,
  -7.56741986e-02,-6.96654022e-02,-8.56259093e-02,-3.94545086e-02,
  -4.80714180e-02,-4.86644432e-02,-9.12914574e-02,-2.61798240e-02,
  -5.70542216e-02,-6.96542487e-02,-1.45219518e-02,-6.95048273e-02,
  -4.87151109e-02,-5.91206960e-02, 8.83114804e-03, 3.74345295e-02,
   4.43663122e-03,-5.87248243e-02, 7.41122989e-03,-1.32783413e-01,
   5.48393279e-02,-7.68254623e-02,-8.90035927e-02,-1.43215179e-01,
  -8.47432688e-02, 1.08658466e-02,-5.52411713e-02,-4.78448253e-03,
   2.34178756e-03,-1.91183053e-02,-9.46663842e-02,-1.41968668e-01,
  -7.47525692e-02, 4.37573120e-02,-8.67317989e-02,-6.75712302e-02,
   1.63684716e-04,-2.18904167e-02,-2.42793076e-02,-7.06540421e-02,
  -1.03972487e-01, 2.90697664e-02,-1.08943410e-01, 2.39279643e-02,
   2.07497287e-04,-1.12265348e-04,-1.31504282e-01,-2.31477115e-02,
  -8.27246755e-02,-9.55155417e-02,-4.97850105e-02,-6.73938170e-03,
  -1.28241986e-01,-7.77498707e-02, 7.65541792e-02, 2.07300261e-02,
   4.54972908e-02,-1.48569858e-02,-1.43027380e-01,-6.15284219e-02,
  -9.10854042e-02,-3.70822251e-02,-5.18379584e-02, 1.19144665e-02,
   1.45014899e-04,-1.34426847e-01,-6.39920905e-02,-1.05433114e-01,
  -7.52986968e-02, 2.55906414e-02, 2.12532151e-02,-7.01695755e-02,
  -1.11709408e-01, 1.88057031e-02,-1.24420494e-01,-7.05002993e-02,
  -7.40464106e-02, 6.49468452e-02,-1.01928413e-01,-1.01883903e-01,
  -3.76854427e-02, 3.86552606e-03,-6.57845661e-02, 2.11509597e-02,
  -1.97409699e-05, 2.82136984e-02, 5.47349788e-02,-4.37311456e-03,
  -4.91180792e-02,-1.23817502e-02,-3.93348141e-03,-5.54329827e-02,
   4.27616090e-02,-6.94319755e-02,-1.20559923e-01,-1.42336577e-01,
  -1.22299362e-02,-1.06058009e-01,-6.51525259e-02, 9.40370001e-03,
  -8.49748962e-03, 1.67212114e-02, 2.93318066e-03,-8.00360590e-02,
  -7.45814592e-02,-6.30748644e-02,-4.53339219e-02,-1.05269598e-02,
  -1.00603916e-01, 7.19072446e-02,-9.64215249e-02,-1.43065676e-01,
   7.95412511e-02,-7.63548017e-02, 5.85094057e-02, 6.25278577e-02,
  -8.05616751e-02, 3.99634615e-02,-5.37767299e-02,-6.38575554e-02},
 { 3.64194751e-01,-1.01425759e-01, 6.16930628e+00,-3.17192411e+00,
   2.10831356e+00,-4.78659439e+00, 8.33087042e-02,-1.99077725e-01,
   4.20580578e+00,-7.00620890e-01, 5.12146831e-01,-8.08232874e-02,
   1.22873440e-01, 4.22815180e+00,-6.32093573e+00, 5.50541699e-01,
  -4.15826410e-01,-8.02872702e-02,-6.09550714e-01,-8.29354858e+00,
  -4.41079974e-01,-2.31410325e-01, 7.14218140e+00, 8.51100862e-01,
  -7.10874677e-01,-3.16276014e-01, 2.83622742e-01, 2.60242128e+00,
  -8.33009243e-01,-1.40385008e+00, 1.40233204e-01, 1.11617529e+00,
  -1.79083467e+00,-1.07550740e+00, 1.47395998e-01,-3.56627643e-01,
  -2.24812329e-01,-1.40278172e+00,-9.16043699e-01, 6.01144266e+00,
   8.75348628e-01,-2.04447269e+01,-2.03967810e+00, 1.77481878e+00,
   6.49427593e-01,-8.57968450e-01, 3.00409645e-01, 4.22116905e-01,
   2.67164975e-01, 4.16213989e-01,-1.57446191e-01, 7.71081543e+00,
  -6.43730536e-02,-4.11493587e+00,-7.23752320e-01, 2.27318779e-01,
  -8.18806827e-01,-1.52308884e+01, 1.56711638e-02, 4.14095354e+00,
  -2.88698882e-01, 3.33041286e+00,-1.49900734e+00,-2.95766234e-01,
   7.89417088e-01, 5.07667422e-01, 5.21633685e-01,-4.00976092e-01,
  -3.86872411e-01, 1.74120879e+00,-2.74861526e+00,-6.53062534e+00,
   6.77475855e-02,-2.25467145e-01, 3.61107945e+00,-3.52065295e-01,
   1.46024966e+00, 9.71465558e-02, 3.79823208e-01, 1.20063388e+00,
   2.51122445e-01,-2.51308203e-01,-6.28487945e-01, 2.12655410e-01,
   6.67552590e-01,-3.25495690e-01, 3.73829007e-02, 1.90645039e-01,
  -6.64729214e+00, 5.95364988e-01, 4.67087889e+00, 8.59307110e-01,
  -1.41765127e+01, 5.43982387e-02,-4.65356708e-01, 5.96299589e-01,
  -1.16155517e+00, 3.76845926e-01,-3.85033369e+00, 3.22067589e-01,
  -5.92548847e-01, 2.32661867e+00,-1.92430228e-01, 6.72493041e-01,
   7.39951313e-01, 3.51859272e-01, 1.16971858e-01,-2.54536867e+00,
   4.53165034e-03,-9.41606387e-02, 6.57676816e-01, 1.55426621e-01,
   3.36012915e-02, 1.77692115e+00,-1.00432277e-01,-1.23004377e-01,
   1.90225169e-01, 2.28289068e-01,-1.89360833e+00,-1.80403900e+00,
  -2.35433027e-01,-2.89041191e-01, 1.20010607e-01,-2.63638997e+00,
  -3.35015893e+00, 1.85339916e+00, 2.12616995e-01, 5.47491051e-02},
 {-3.26336002e+00,-6.54928589e+00,-2.95758337e-01,-7.46910349e-02,
  -6.00792551e+00,-3.51225615e-01,-2.39993948e-02, 9.93134022e-01,
   2.39713550e-01,-1.98756263e-01, 5.07764673e+00,-6.18645489e-01,
  -5.38059883e-03, 3.36402506e-01, 4.98843007e-03,-2.79882717e+00,
  -1.98285687e+00,-2.62336683e+00, 3.32705051e-01,-1.71787510e+01,
  -2.26013350e+00,-2.84624982e+00, 4.78706121e-01, 1.85870028e+00,
   7.87046552e-01, 1.85184848e+00, 1.87510364e-02,-4.70626473e-01,
   2.44323516e+00, 1.26942471e-01, 1.20398283e+00, 1.40428889e+00,
  -5.67854047e-01, 1.77111387e+00,-2.12847471e+00, 1.11915618e-01,
   1.18586528e+00, 5.78799769e-02,-2.31124945e-02,-5.81336200e-01,
  -4.23331350e-01, 5.07560857e-02, 2.86477596e-01, 7.01153278e-01,
  -1.30345953e+00,-7.34560668e-01, 1.09203249e-01, 6.99958420e+00,
  -2.23937678e+00,-2.04923177e+00, 2.35930979e-01,-1.50946692e-01,
  -1.10756340e+01, 2.58582056e-01, 2.58281976e-02, 8.73897318e-03,
  -4.53021336e+00,-8.32026005e-01,-1.58353865e+00,-1.79209197e+00,
  -3.49679446e+00,-3.40537161e-01, 7.27639139e-01, 1.95726097e-01,
   3.76484305e-01, 2.02216119e-01,-1.11837111e+01,-4.97990036e+00,
   1.99632454e+00,-8.98442417e-02, 2.62671232e-01,-3.43465686e-01,
  -2.41648674e+00, 1.19497252e+00, 3.68326418e-02,-2.27541447e-01,
   5.78114557e+00, 1.45134497e+00,-5.84950112e-02, 6.43831715e-02,
  -7.92673469e-01,-6.26506805e-02,-5.73467159e+00,-5.26938736e-01,
  -1.17923934e-02, 1.83196023e-01,-1.46377826e+00, 5.53399265e-01,
  -3.30260426e-01,-3.38994861e-01,-1.95573658e-01,-3.98799270e-01,
   8.41339380e-02, 1.19889326e-01, 3.32025051e+00, 2.79518783e-01,
   9.97046158e-02,-3.05686414e-01, 2.38351449e-01, 1.87380776e-01,
   1.20446551e+00,-2.84876108e-01, 1.19842923e+00, 3.48217297e+00,
  -9.70404506e-01,-1.96007705e+00,-1.21451028e-01, 4.78377193e-01,
   2.98446596e-01,-1.43217814e+00,-2.51918375e-01, 6.47569478e-01,
   6.16776705e-01,-2.99639249e+00, 1.06160156e-01,-3.71308237e-01,
  -2.84439176e-02,-1.63565159e+00,-2.36487627e+00, 5.59113808e-02,
  -1.21512413e+00, 3.60076737e+00, 2.22865455e-02, 2.09558129e+00,
  -5.07391071e+00, 5.14254999e+00, 1.15596604e+00, 8.34628224e-01},
 {-4.93007469e+00, 7.44134709e-02,-8.65900278e-01, 3.23516154e+00,
   1.65393606e-01, 5.61272204e-01, 1.34594989e+00, 1.53930068e-01,
   3.92773199e+00,-2.68214017e-01, 7.99773112e-02, 1.36949822e-01,
  -2.42571458e-02, 1.89283299e+00,-2.63529658e+00,-2.72818953e-01,
  -9.52808931e-02, 1.12341702e+00, 2.84974575e+00,-1.89602947e+00,
  -4.16716456e-01, 5.24769165e-03,-5.16347980e+00,-8.75170976e-02,
   4.76459384e-01, 4.01009262e-01,-4.11056221e-01, 6.91815197e-01,
  -6.50600672e-01,-5.43071175e+00, 1.06780231e-01,-1.24721372e+00,
   2.48278350e-01, 1.25517458e-01,-2.12825358e-01,-3.64143944e+00,
   1.73148751e+00, 6.94105327e-01, 1.33164033e-01, 1.40515760e-01,
   1.59462646e-01, 9.34695530e+00,-3.26499492e-02,-2.42698359e+00,
   1.57848731e-01, 4.75482404e-01,-4.05546091e-02,-3.78661864e-02,
   1.22417353e-01,-9.08310115e-02, 1.71839818e-01,-7.86888123e-01,
   2.02695513e+00,-1.24618804e+00, 1.58913553e+00,-7.85426050e-02,
  -2.09144428e-01,-1.14736128e+01, 4.13836092e-02, 1.79499552e-01,
  -1.15088023e-01,-1.09759212e+00, 4.76228744e-01,-1.70363151e-02,
  -4.36324358e-01,-2.10124701e-01, 1.08161038e-02,-1.31814867e-01,
  -1.38322383e-01,-1.27590632e+00,-1.65878356e-01, 2.28888083e+00,
   6.58683777e-02,-8.35859329e-02,-1.08567905e+00,-3.62456948e-01,
   3.97746712e-01, 2.26400532e-02,-3.13413668e+00, 3.75516713e-01,
   1.25844538e-01, 2.01482758e-01,-6.69059932e-01, 8.97571295e-02,
   9.05393004e-01,-8.93533826e-01, 1.46186665e-01, 1.48758888e-01,
   1.56318918e-01,-1.05009846e-01, 7.88832456e-02, 3.43249440e-01,
   6.04716873e+00, 7.33165860e-01, 3.15162349e+00,-8.00314426e-01,
  -1.88702375e-01, 5.97798824e-01, 2.40555263e+00,-1.65501852e-02,
  -2.04911500e-01, 5.07912755e-01,-9.37156603e-02, 2.19965801e-01,
  -3.55065912e-01,-1.32241294e-01,-5.06060123e-01, 2.31807446e+00,
  -7.68585876e-03, 3.77684720e-02, 1.64125487e-01,-1.39253631e-01,
  -2.55986333e-01, 7.53735006e-02, 6.24674857e-02,-3.63440365e-01,
   2.02441382e+00, 1.83134273e-01, 2.14762473e+00,-2.44090819e+00,
   7.19004497e-02, 7.38238543e-02, 5.89529797e-02,-2.03336048e+00,
   6.64838374e-01,-2.28564918e-01,-3.87959480e+00,-3.83932032e-02},
 { 2.15074271e-01,-1.38037014e+00,-3.99195373e-01, 3.59898299e-01,
  -1.12383819e+00,-1.04011240e+01,-3.48693490e+00, 1.44067335e+00,
  -9.08448756e-01, 8.27569902e-01,-2.58320093e-01,-1.13618755e+00,
   2.31545180e-01, 1.50483936e-01, 3.35013747e+00, 2.56466079e+00,
  -9.97075140e-01,-1.48426032e+00,-2.86464286e+00,-1.09089327e+00,
  -2.33779979e+00, 7.70029366e-01, 1.66014266e+00, 2.28554392e+00,
   2.92386460e+00, 1.68190801e+00,-8.68847668e-02, 1.21534431e+00,
   2.27289820e+00,-3.32836717e-01,-1.03264546e+00, 5.13914943e-01,
   6.97451770e-01, 1.51721811e+00,-1.93349612e+00,-4.00056005e-01,
  -2.85216165e+00, 7.74625063e-01, 1.64364266e+00,-1.36598063e+00,
   1.72657585e+00,-4.41485554e-01, 4.41392601e-01, 1.33478177e+00,
   6.70373440e-02,-2.59681106e+00, 1.43384650e-01,-1.52252376e+00,
  -1.58304501e+00, 3.65477093e-02,-9.83415186e-01,-4.81784970e-01,
   6.95416570e-01,-6.44733429e+00,-1.23331094e+00, 7.50131369e-01,
   1.79463887e+00, 7.30097592e-01, 4.32087392e-01, 1.09388471e+00,
  -3.52421761e-01, 5.50390124e-01, 1.46242380e+00,-2.03634429e+00,
  -5.72098911e-01, 4.58489180e-01,-8.96135271e-01,-3.50252599e-01,
  -5.46415806e+00,-5.46884966e+00,-3.29899025e+00,-9.52818468e-02,
  -4.42026186e+00,-1.81728327e+00, 8.65013480e-01,-1.12707794e+00,
   1.89842045e+00,-3.66736078e+00, 2.09310937e+00,-2.21302938e+00,
   5.53000867e-01,-7.28386521e-01, 8.26148748e-01, 7.87899780e+00,
  -3.75115347e+00,-7.00344503e-01, 7.09833443e-01, 6.53404713e-01,
  -7.61269033e-01,-3.79721344e-01,-5.93466043e-01, 5.38129568e-01,
   1.68046391e+00,-2.12215662e+00, 1.15007484e+00, 1.01797390e+00,
   4.53540373e+00,-1.11888148e-01, 3.01596075e-02, 7.77047992e-01,
   2.54495001e+00,-1.45796096e+00,-7.59917164e+00,-3.42451954e+00,
   5.86182892e-01, 1.16759801e+00, 6.81033611e-01, 4.25167990e+00,
   2.20291913e-01, 8.60214949e-01,-2.74940038e+00,-1.53870130e+00,
   6.21937561e+00, 7.81232417e-01,-6.31072640e-01,-1.88199989e-02,
  -1.43748358e-01, 2.14114046e+00, 1.02944505e+00,-5.48901498e-01,
   4.43118006e-01, 1.97825623e+00,-7.65650094e-01, 1.10070336e+00,
   3.21822286e+00, 1.68169200e+00,-1.46270919e+00,-1.38205814e+00},
 { 3.23176920e-01, 1.62752867e-01,-1.74186826e-02, 2.71233525e-02,
  -5.96554697e-01,-6.26449054e-03, 6.87262882e-03,-3.44985217e-01,
  -2.47383267e-02,-1.87841311e-01,-2.11926609e-01,-4.40191813e-02,
  -9.56031773e-03, 6.55672029e-02,-2.09780820e-02,-1.62968710e-01,
  -4.28355873e-01,-1.72007784e-01,-2.91442107e-02,-1.13382387e+00,
   1.28418756e+00,-5.82877338e-01,-6.20454438e-02, 7.04361916e-01,
  -9.29978251e-01,-1.48794234e+00, 1.93804945e-03,-7.04463199e-02,
  -1.22053111e+00, 2.90782936e-02, 5.61950088e-01,-8.72624099e-01,
   2.20231369e-01, 3.73467468e-02,-1.65982381e-01,-5.26658297e-02,
   2.77703274e-02,-2.13469770e-02, 3.06979287e-02,-2.91505549e-02,
  -2.77014710e-02, 2.71640923e-02, 4.75016274e-02, 5.24645224e-02,
   1.70631337e+00,-7.95440626e+00,-1.35732615e+00, 1.43835461e+00,
   1.14185798e+00, 2.38920376e-01, 1.14686470e-02,-1.02164477e-01,
  -1.66123244e-03, 3.71141881e-01, 7.79786333e-03,-3.07508230e-01,
  -2.17990857e-02, 6.48921192e-01,-6.23076022e-01,-2.61843890e-01,
  -7.05634022e+00,-1.45085961e-01,-4.20175886e+00,-5.26158154e-01,
   6.26279712e-02, 4.11568768e-02, 2.86126018e+00, 1.23156466e-01,
   5.85890412e-02, 3.38716619e-02,-5.10194264e-02,-7.12086856e-02,
  -7.29290438e+00, 6.02123320e-01, 1.91102065e-02, 1.23777352e-01,
   1.30811799e+00, 8.98477554e-01, 2.52593448e-03, 1.78120248e-02,
   9.14050221e-01, 2.45263390e-02,-2.48153523e-01,-1.74266428e-01,
   2.21331157e-02,-5.65758767e-03,-1.45288551e+00, 3.45805213e-02,
  -2.36947252e-03, 3.04932594e-02,-6.49074689e-02,-1.14963643e-01,
   1.56765237e-01,-8.25316366e-03, 1.22659609e-01, 1.33606745e-02,
  -2.10921969e-02,-3.07030156e-02,-6.25545159e-04, 2.85779417e-01,
  -1.61418998e+00,-1.01599343e-01, 1.16503954e-01, 9.27084088e-01,
  -7.07989025e+00, 5.85147560e-01,-1.23995794e-02, 5.06923310e-02,
  -1.69540539e-01, 2.95157242e+00,-8.94298311e-03, 2.43286312e-01,
   3.80840451e-02,-9.72622260e-02,-1.15017034e-01, 1.21626452e-01,
  -4.96538579e-02,-1.27892995e+00,-4.31268513e-01, 2.39274371e-02,
  -6.28889978e-01, 2.58463919e-01, 4.69253166e-03,-3.40022631e-02,
  -5.05446100e+00, 8.93002748e-01, 1.74366668e-01,-8.20553684e+00},
 { 2.30214095e+00,-2.72622800e+00,-3.92362289e-02,-8.94511044e-02,
   1.75453520e+00, 4.67521101e-01, 4.69489470e-02, 2.37471771e+00,
   1.27129331e-01, 1.17232203e-01,-4.99007590e-02,-5.95639467e-01,
   1.25400163e-02,-3.48794430e-01, 2.88363308e-01,-5.86432181e-02,
   1.79750836e+00, 3.54540378e-01, 3.07963967e-01, 3.05154181e+00,
  -5.26658916e+00, 2.75794888e+00,-4.76185530e-02,-2.45599103e+00,
   1.43694794e+00,-4.22438002e+00, 4.86636966e-01, 4.28446561e-01,
   1.74470806e+00, 5.39781690e-01,-4.56891596e-01, 1.49881983e+00,
  -2.65990257e-01,-2.40380239e+00, 7.79895961e-01, 2.80938476e-01,
  -1.19786584e+00,-9.56440195e-02,-1.27473146e-01, 6.76452443e-02,
   1.76006997e+00,-1.24180213e-01,-2.94902802e-01,-7.36059010e-01,
  -5.19978189e+00, 1.67179537e+00, 3.95945311e+00,-1.63158619e+00,
  -4.23300409e+00, 1.54359365e+00,-8.31906945e-02,-1.04936786e-01,
  -3.40146571e-02,-2.66390920e+00,-2.34828994e-01,-1.71611831e-01,
  -1.25750942e+01,-6.62970960e-01, 4.46187407e-01, 1.25466716e+00,
   6.28363705e+00, 2.18042761e-01, 3.09832788e+00, 2.67726958e-01,
   4.10675220e-02,-2.72869259e-01,-3.25015473e+00,-5.06767094e-01,
  -2.60202599e+00, 8.53654519e-02, 3.33572865e-01, 3.42297554e-01,
  -4.34689617e+00,-1.03326902e+01,-4.77055848e-01, 8.83295476e-01,
  -4.04487801e+00,-5.42024374e+00,-1.80546716e-01,-5.54393083e-02,
  -2.44488621e+00,-3.86635028e-02, 2.66406107e+00,-2.92854452e+00,
  -9.84157324e-02,-1.57737270e-01,-4.59816992e-01,-4.16273922e-01,
   2.36781817e-02, 8.01063061e-01, 3.17038536e-01,-1.12531805e+00,
   2.12353021e-01, 1.11850344e-01,-5.31275570e-01,-6.04976058e-01,
  -4.35515404e-01, 2.52729923e-01, 8.00813213e-02, 1.78876126e+00,
   2.98834610e+00, 1.97629184e-01,-2.15602636e-01,-3.14121294e+00,
  -5.47090244e+00,-8.17426741e-01,-2.00282246e-01,-5.06138027e-01,
   2.85287082e-01, 2.26424694e+00, 1.62367463e-01,-6.05206907e-01,
  -4.61604238e-01, 1.15737844e+00, 2.54792690e-01,-7.20177472e-01,
   1.20664373e-01, 4.10351992e+00, 7.91100085e-01, 1.52257338e-01,
  -1.83323181e+00, 2.28540301e+00, 2.77387574e-02, 1.08726132e+00,
   2.08395672e+00,-6.11779833e+00, 4.74478513e-01,-6.66734409e+00},
 {-5.76446152e+00,-2.56734602e-02, 4.12965678e-02,-1.03944860e-01,
  -3.85483265e+00, 1.89333335e-01, 1.97163783e-03, 9.14186299e-01,
   1.57875329e-01,-1.06455982e+00, 1.86700213e+00, 3.99493575e-02,
  -3.27930832e-03, 2.68793494e-01,-1.18529527e-02,-8.79031494e-02,
   1.34071100e+00,-4.53745812e-01,-4.58097644e-02,-1.56260952e-01,
  -1.69234037e-01,-1.53456676e+00, 6.18886530e-01, 9.89294350e-01,
  -6.12348199e-01, 1.02046062e-03,-1.65533423e+00,-1.10968463e-01,
   5.85163236e-01, 1.59944966e-02,-5.35163689e+00, 1.58781445e+00,
  -1.38655305e+00,-1.32224530e-01, 9.99249741e-02, 5.26864082e-02,
   1.29930317e-01, 6.16421960e-02,-1.88124692e+00,-1.84552372e-01,
   3.88678575e+00, 1.67915389e-01, 5.03858849e-02,-2.13671207e-01,
   6.94239855e-01,-1.04861879e+00, 4.97412157e+00,-1.01655588e+01,
  -1.27832117e+01,-2.13105734e-02, 3.80509486e-03,-2.92097896e-01,
  -2.01926208e+00,-1.97656822e+00,-3.94758677e+00,-4.54681590e-02,
  -1.06177974e+00, 9.74393010e-01, 6.03030348e+00, 1.85665935e-01,
  -4.29646969e-02,-3.09723318e-01, 2.78019047e+00, 8.88992772e-02,
   2.34232247e-02, 5.67256585e-02, 1.36159015e+00,-1.42296359e-01,
  -4.85942793e+00, 1.01099275e-02,-2.39987019e-02,-1.02696586e-02,
   4.77139682e-01, 2.35091355e-02,-2.00320914e-01,-4.19793516e-01,
  -2.27712536e+00,-7.19853592e+00, 6.39912039e-02, 9.57531035e-02,
   1.24684167e+00,-6.90713748e-02, 3.46115398e+00,-1.25728951e+01,
  -1.07051432e-02, 7.73282722e-02,-1.82192707e+00, 7.27949515e-02,
   2.41829082e-02, 7.53376558e-02,-6.23688772e-02, 9.69440103e-01,
  -2.84955114e-01, 3.59095410e-02, 4.42948133e-01, 3.72386724e-01,
  -1.69614181e-02,-9.27778408e-02,-4.26860079e-02, 4.44674313e-01,
  -9.37941670e-01,-2.47461081e-01, 5.77336214e-02,-6.11031771e+00,
  -2.43365034e-01, 1.08633257e-01, 1.12156972e-01, 6.21800162e-02,
   4.73825216e-01, 3.38463664e+00, 2.78943088e-02,-8.29609871e+00,
  -4.84257862e-02, 9.61868986e-02,-1.74866533e+00,-8.59983563e-01,
  -1.99859161e-02, 6.70609379e+00,-1.91191244e+00,-5.92399761e-02,
   3.25580668e+00,-5.97930956e+00,-3.99516344e+00, 2.77326202e+00,
  -5.90635657e-01,-7.48903847e+00, 4.88559127e-01, 3.23635042e-01},
 { 3.06959605e+00, 1.98705482e+00,-5.77807546e-01,-2.57665730e+00,
  -9.21888649e-02,-4.52939606e+00,-1.82356846e+00, 2.00292751e-01,
   4.88190413e+00,-3.02338195e+00, 7.09891438e-01,-4.72896397e-01,
   5.23107708e-01,-3.01313591e+00,-2.06301737e+00, 1.91431797e+00,
  -7.69788742e-01, 1.07353592e+00,-1.01607072e+00, 7.34501600e-01,
   1.49923503e-01,-1.68242443e+00,-1.38248920e+00, 2.81784081e+00,
  -2.40031910e+00,-5.24932528e+00, 7.32498884e+00,-7.41961336e+00,
   5.40703952e-01,-5.88112593e-01, 7.77774751e-02, 1.14391088e-01,
  -1.08860826e+00, 7.20885217e-01, 6.94514394e-01,-1.54283369e+00,
   3.04269969e-01, 2.35383201e+00,-4.22501087e+00, 1.42005229e+00,
   5.91639233e+00, 2.74769568e+00, 8.64882588e-01,-2.55037570e+00,
   6.25324786e-01, 8.89693856e-01,-2.12612319e+00, 7.16253817e-02,
   5.87256610e-01, 1.18946815e+00,-4.47966957e+00,-2.81981587e+00,
  -1.10638607e+00,-2.38930154e+00,-2.26460433e+00, 8.75183463e-01,
  -2.93689227e+00, 2.31253043e-01, 7.57700086e-01,-2.01309681e+00,
   1.68779111e+00, 3.32284391e-01,-9.14064825e-01,-8.01356196e-01,
   8.83263886e-01, 1.84327638e+00, 1.81517541e-01, 3.01020801e-01,
  -2.75689274e-01,-3.08560920e+00, 1.07259862e-03, 2.28889847e+00,
   3.13765645e-01,-1.52944124e+00,-1.37341821e+00,-6.15234196e-01,
   1.71742845e+00, 5.51803589e-01, 7.28585005e-01,-9.69341993e-01,
   1.17674815e-02, 8.50525737e-01,-1.12838686e+00, 1.72050607e+00,
   4.58040833e-02, 3.61636329e+00, 4.56395119e-01,-2.74627495e+00,
  -7.78862357e-01, 1.04136252e+00,-2.83021641e+00,-5.64396203e-01,
   1.06728163e+01, 3.17593932e-01,-1.99297094e+00, 6.11777566e-02,
  -7.53024101e-01, 4.22772825e-01,-3.51472199e-01, 7.33088851e-01,
  -1.05464780e+00,-1.76023889e+00, 7.31613860e-02, 1.01446795e+00,
  -2.18795970e-01,-5.79199977e-02,-1.11985624e+00, 5.90078926e+00,
  -1.12391365e+00, 4.25189763e-01, 3.22925019e+00, 1.95533979e+00,
  -1.08829844e+00, 5.49916923e-01,-4.43674231e+00, 8.70737314e-01,
   2.76734257e+00,-8.41869950e-01,-5.22109222e+00,-1.00246727e+00,
  -2.22372580e+00, 4.94957715e-01,-6.38084888e-01,-9.69510972e-01,
  -2.43226624e+00, 1.34903288e+00,-2.30423927e+00,-7.94418633e-01},
 {-1.57403667e-02, 2.06520725e-02,-3.80694084e-02, 6.10660091e-02,
  -1.75494968e-03,-1.15204804e-01,-6.06799163e-02,-2.10592151e-02,
  -9.90108997e-02,-1.28584430e-01, 4.96463403e-02,-1.12246219e-02,
   1.12586990e-02,-3.46619859e-02,-2.61740573e-02,-1.13073867e-02,
   1.32764280e-02,-4.80784662e-02,-3.12068556e-02, 5.77537983e-04,
  -1.18877344e-01, 4.22547646e-02,-1.55947991e-02,-1.52916536e-02,
   8.30972865e-02,-1.51416473e-02,-9.27836001e-02,-1.34381428e-01,
   8.63770780e-04, 5.03981151e-02,-3.69239226e-02,-3.18574160e-02,
   1.47017082e-02,-3.64948511e-02, 4.63433415e-02,-1.10031836e-01,
  -3.10024396e-02,-5.09717204e-02,-8.83770660e-02,-1.23460531e-01,
   3.28487866e-02, 2.72809863e-02,-4.88883816e-02,-1.02081504e-02,
  -8.30566734e-02,-1.80806935e-01,-6.71281293e-02,-1.63239062e-01,
  -1.41681343e-01,-6.72010928e-02,-7.88929611e-02,-1.79986935e-02,
  -9.83687192e-02, 3.12537551e-02,-1.56761840e-01,-1.17030151e-01,
  -7.54461065e-02, 2.10381020e-02,-5.71939396e-03,-6.94671571e-02,
  -9.99827520e-04,-1.11769378e-01,-3.38304192e-02,-7.44927973e-02,
  -6.52184105e-03,-1.47066772e-01,-1.04362719e-01,-3.06122620e-02,
  -1.14832176e-02,-9.85003356e-03,-3.82120647e-02,-5.81798479e-02,
  -3.86110730e-02,-1.27060562e-01,-7.98950270e-02,-8.50838944e-02,
  -1.63236916e-01,-1.11513242e-01,-6.70405254e-02,-3.98164131e-02,
  -8.85106921e-02,-5.62841147e-02,-1.09953053e-01,-2.89247688e-02,
  -6.47685155e-02, 1.53928166e-02,-7.17992932e-02,-1.37044534e-01,
  -1.05224408e-01,-1.64767995e-01,-3.09988614e-02,-3.56341526e-02,
   2.23982241e-02,-1.06131554e-01, 9.88041908e-02,-3.27008851e-02,
  -1.01297081e-01, 1.77992228e-02,-4.74047475e-02,-1.13917202e-01,
  -7.20027611e-02,-2.80283447e-02,-1.69350445e-01,-4.93764319e-02,
   1.32860318e-02,-8.42471570e-02,-9.62307006e-02,-5.66334985e-02,
  -8.07824880e-02, 2.01376043e-02,-1.32894918e-01,-7.47270212e-02,
  -2.12231185e-02,-7.76835829e-02,-4.74060141e-02,-1.71786040e-01,
   1.89548486e-03,-1.72504429e-02,-5.65918870e-02,-1.10921271e-01,
  -2.73462720e-02,-9.34957433e-03,-8.15145299e-02,-2.29017027e-02,
  -1.21409900e-01,-2.37273529e-01,-4.69806530e-02, 1.62653737e-02},
 {-5.71987295e+00, 2.51623213e-01,-3.27465869e-02,-9.00066867e-02,
  -5.46289206e+00,-6.24810755e-01, 3.11924443e-02, 4.77029419e+00,
   2.36580223e-01,-1.22448862e-01,-1.34048853e+01, 2.21917918e-03,
  -1.16451457e-02,-2.85245657e-01,-1.36012241e-01, 2.38356397e-01,
  -2.41797471e+00,-3.65849757e+00, 1.68619335e-01,-1.09249258e+01,
   8.00429583e-01,-5.65299928e-01,-5.78449845e-01,-6.22933960e+00,
  -1.29571092e+00, 1.92642987e-01,-3.40542579e+00,-2.33266518e-01,
  -1.31221700e+00, 2.44875960e-02, 7.42278934e-01,-1.38009644e+00,
  -4.14610577e+00, 7.98547387e-01,-2.30486012e+00, 2.21438636e-03,
  -1.64196149e-01, 1.63496315e-01,-1.29947519e+01,-1.38083100e-01,
  -8.30220890e+00, 2.36122012e-01,-5.08905239e-02, 1.18076658e+00,
   2.88553524e+00, 1.42305866e-01,-7.25290918e+00, 6.95627975e+00,
   5.64862585e+00, 1.50085914e+00, 1.23348184e-01, 3.22742313e-01,
  -6.61902487e-01, 5.01580775e-01,-1.08080375e+00,-1.48141399e-01,
  -2.48799133e+00, 2.33066246e-01,-1.52700510e+01,-8.48500431e-01,
   2.12627697e+00,-4.78673697e-01, 8.17306328e+00,-3.92823517e-01,
  -2.83848140e-02, 2.08985686e-01, 9.60210991e+00, 2.02100897e+00,
   1.11532971e-01,-3.86184789e-02,-5.10651231e-01,-1.42084610e+00,
  -4.47030991e-01, 1.37616599e+00, 2.10667089e-01,-7.67504871e-01,
   8.98396111e+00, 6.07018995e+00, 6.08298294e-02,-4.93149459e-02,
   2.50378108e+00,-3.71634252e-02,-6.37165451e+00, 1.57143295e+00,
   3.42040211e-01,-2.31966004e-01,-1.17662764e+01, 8.89134765e-01,
   1.33982539e-01,-9.33800936e-02,-2.41083592e-01,-7.23673880e-01,
  -4.81135175e-02, 1.31508157e-01, 1.86293781e+00,-1.91600692e+00,
  -1.98791623e-02,-3.36124264e-02, 1.18577853e-01, 2.32425261e+00,
  -6.71352291e+00,-2.17713788e-01,-1.01637885e-01,-2.11927567e+01,
   7.92812943e-01, 5.07023752e-01,-2.16780439e-01, 1.80938259e-01,
  -4.96289682e+00,-1.20716262e+00,-3.41948003e-01,-2.82610822e+00,
   4.21729594e-01,-5.82948565e-01,-7.46770239e+00, 5.68946004e-01,
   5.82114495e-02,-1.37114449e+01,-3.47884631e+00, 1.30702436e-01,
  -1.86761608e+01, 4.89522308e-01, 4.00945091e+00, 3.48498940e+00,
  -8.78136349e+00,-8.13261032e+00,-4.13353831e-01, 1.75907120e-01},
 {-1.14713087e+01, 3.74545269e-02, 8.96031260e-01, 1.49205673e+00,
   1.72418940e+00,-5.86487412e-01,-2.79882029e-02, 2.20964942e-02,
   2.07540417e+00,-3.16354871e-01,-4.24590707e-01, 9.37655449e-01,
   5.56999445e-01,-4.79806125e-01,-3.07630515e+00,-4.42499369e-02,
  -4.09550846e-01,-4.70284367e+00,-2.78218448e-01,-2.76451445e+00,
  -3.29613894e-01,-2.58693159e-01, 3.49080229e+00,-9.63113531e-02,
  -2.51614928e-01,-4.57687318e-01, 1.01197828e-02,-9.37715244e+00,
  -4.45185566e+00,-2.19285667e-01,-2.09870120e-03, 2.18198752e+00,
   2.83764869e-01,-3.72130704e+00, 1.85404897e+00, 1.95515728e+00,
   5.17771184e-01,-7.95950413e+00,-4.36289579e-01, 3.83624506e+00,
   2.77695116e-02,-3.10631824e+00,-1.50122252e+01, 1.48582852e+00,
   6.21304274e-01,-4.42178786e-01, 6.57435507e-02, 1.09975236e-02,
  -1.92849144e-01, 1.62401378e-01,-4.21782780e+00,-3.65671635e-01,
  -8.17941129e-02, 2.76497722e+00, 1.20327119e-02,-3.01657338e-02,
  -3.39191943e-01,-2.41659179e-01, 2.16013193e-01,-8.15004930e-02,
   7.72090629e-02, 1.70834339e+00,-4.31471491e+00,-1.52822705e-02,
   5.28487682e-01, 4.06192970e+00, 5.93896151e-01,-2.42655337e-01,
  -4.19924818e-02,-5.02756786e+00,-1.46841288e-01,-7.73751354e+00,
   2.16149822e-01,-6.29260316e-02,-1.26748562e+00, 4.35835272e-02,
  -7.94304982e-02, 1.92513362e-01, 1.76054144e+00,-6.66402483e+00,
   6.12275377e-02, 1.09957373e+00,-3.23033667e+00, 4.59410280e-01,
  -1.17234745e+01,-2.21571350e+00, 4.94047999e-01,-5.03219461e+00,
   1.09564513e-02, 4.51584846e-01, 6.27182102e+00,-3.57915580e-01,
   2.32270122e+00,-4.35340643e+00, 7.15250969e-01, 3.81952792e-01,
   1.83002427e-01,-3.42751241e+00,-7.92993367e-01, 3.56958508e-02,
  -4.13673639e-01,-1.75421512e+00, 7.50891745e-01,-1.89603511e-02,
   3.44301850e-01,-3.97268325e-01, 4.12938499e+00, 1.74655426e+00,
  -6.95731714e-02,-1.59483422e-02, 6.85049966e-02, 1.88794300e-01,
  -3.99185792e-02, 1.40423672e-02,-1.13513663e-01,-2.21688867e-01,
  -8.04134846e-01,-1.92483112e-01,-2.36032033e+00,-1.98515892e+01,
  -5.41614629e-02,-5.04589975e-01,-2.02923696e-02,-7.73440778e-01,
  -1.36732173e+00,-7.18045756e-02,-3.86958063e-01,-1.52786091e-01},
 { 1.76615834e+00, 1.29114010e-03,-4.75965515e-02,-1.00321649e-02,
  -1.80442941e+00, 1.39636412e-01, 1.19992688e-01,-8.44839275e-01,
  -1.82267949e-01, 1.68610024e+00,-4.27265024e+00, 1.90132439e-01,
   2.10113004e-02, 2.06266046e-01, 2.65150994e-01,-2.07683668e-01,
  -4.56858110e+00, 1.47749469e-01,-9.95551422e-02, 9.33640540e-01,
  -3.12452078e-01, 1.30572355e+00,-5.99841833e-01,-4.78839397e+00,
   1.48053813e+00,-2.16849878e-01, 1.40363917e-01, 4.04305845e-01,
   7.81859338e-01, 3.04324299e-01,-8.75797570e-01,-2.78810233e-01,
   6.68145299e-01,-1.30446482e+00, 1.22188222e+00, 2.11789399e-01,
   8.22183132e-01, 8.08043256e-02, 3.78834784e-01, 2.68533468e-01,
   1.81183919e-01,-1.67579338e-01,-2.99677968e-01,-7.13521421e-01,
  -1.46939147e+00, 1.69136202e+00, 2.05115843e+00,-2.70203614e+00,
  -3.21515250e+00,-6.05936348e-01, 1.24873212e-02,-4.63693231e-01,
  -4.05179858e-02, 2.31873107e+00,-1.97770685e-01, 8.86182562e-02,
   3.17845732e-01,-7.62517691e-01,-1.40236692e+01, 5.04074275e-01,
  -7.08657682e-01, 1.40214041e-01, 5.01639891e+00,-2.36866593e+00,
  -3.38558197e-01,-2.82033503e-01,-2.62745476e+00,-5.05998969e-01,
   6.48398817e-01,-8.00165068e-03, 1.89813539e-01, 1.00658379e-01,
  -2.61949587e+00,-2.98056781e-01, 1.82477951e-01, 4.57895137e-02,
  -4.35543156e+00,-7.53167987e-01,-5.88653497e-02,-1.06604872e-02,
  -5.86683393e-01, 1.46894064e-02,-9.55797136e-02, 4.88582492e-01,
  -1.70116514e-01,-1.53020516e-01, 3.99771762e+00,-2.42121264e-01,
   9.17096809e-02, 1.73460767e-01, 2.29139894e-01,-3.05296153e-01,
   5.62996984e-01,-2.00929493e-01,-1.15232992e+00,-4.81084794e-01,
  -2.10117891e-01, 3.26190323e-01, 2.58956879e-01, 5.93156338e+00,
   2.61611199e+00,-4.29309458e-02,-7.83362508e-01,-3.19958401e+00,
  -1.07407391e-01,-1.83284059e-01,-4.84566763e-03,-5.36554717e-02,
   1.08803205e-01, 8.94124210e-01, 2.13500485e-01,-2.66579151e-01,
  -5.45530319e-01, 5.05092204e-01,-6.45918190e-01,-3.59945923e-01,
   1.92366362e-01, 7.11916149e-01, 6.33618712e-01, 1.85901374e-02,
   3.17523313e+00,-1.19816601e+00, 1.95450717e-04, 2.31061727e-01,
  -2.74457908e+00,-4.84027529e+00, 3.99842530e-01,-3.72630030e-01},
 { 8.39993477e-01, 6.29855514e-01, 3.05943036e+00, 2.09718108e+00,
  -3.41198325e-01, 3.57466549e-01,-5.42488992e-01, 1.04015507e-01,
  -6.04838789e-01,-3.86578512e+00, 8.68477917e+00,-3.00648928e+00,
  -3.41539592e-01,-1.15233269e+01, 2.17071819e+00, 2.54262209e+00,
   1.45014748e-01,-4.19165283e-01, 2.44304943e+00, 1.72571883e-01,
   2.75284201e-01,-8.70205343e-01, 1.41123390e+00, 3.23743558e+00,
  -2.55733156e+00, 3.58004957e-01,-1.00388181e+00, 8.43734503e-01,
  -2.25299335e+00, 7.03567564e-01, 6.28536701e-01,-9.07194674e-01,
  -2.48281264e+00,-2.48662233e+00,-1.32693696e+00, 7.79191017e-01,
   1.01488960e+00,-6.17372990e-01, 5.78931630e-01,-1.79339588e+00,
  -1.59118509e+00,-1.96515405e+00,-1.84521750e-01,-4.67142439e+00,
   1.97744441e+00,-1.27637073e-01,-3.76848125e+00,-5.94536781e-01,
   5.60101509e-01,-8.29643190e-01, 2.72644734e+00,-4.03314829e+00,
   3.55177373e-01,-2.06574202e+00,-4.62225080e-01, 1.35236800e+00,
  -6.66909933e+00, 1.48210371e+00, 2.29437619e-01,-4.97035789e+00,
   1.21250880e+00,-3.67907310e+00,-1.61952221e+00,-6.41259402e-02,
  -1.72383046e+00, 1.63581979e+00, 1.06306636e+00, 1.02071750e+00,
   3.72404575e-01,-2.92271996e+00, 4.07547665e+00, 1.44227242e+00,
   3.01989985e+00,-1.75382718e-01, 8.32682252e-01,-1.85612667e+00,
   3.09294391e+00, 1.58821905e+00,-7.37570047e-01,-2.72419977e+00,
   1.32097650e+00, 1.04524624e+00,-1.98308945e+00, 1.48180938e+00,
  -2.91427040e+00, 1.64450645e+00,-4.91597271e+00, 1.76687789e+00,
   6.38958549e+00,-3.10173225e+00,-3.73585761e-01,-1.27459800e+00,
  -6.53402853e+00, 1.74788809e+00, 2.60421133e+00, 1.98252285e+00,
  -4.00291967e+00, 9.78000045e-01,-7.96266869e-02, 1.08110651e-01,
  -4.86387157e+00,-2.66145992e+00,-6.76934063e-01, 1.03363454e+00,
   2.84163207e-01,-1.33177829e+00,-1.59488010e+00, 2.81570816e+00,
  -1.18153274e+00, 2.97559291e-01,-9.83044505e-01, 1.71018267e+00,
   3.25685829e-01,-3.20915675e+00,-2.70879865e+00,-3.35762091e-02,
  -1.26307535e+00,-1.78068745e+00, 4.92764801e-01, 1.02538407e+00,
  -1.60144055e+00,-7.15103626e-01,-1.46129143e+00, 1.71140298e-01,
  -2.55519795e+00, 4.86735791e-01, 2.84242368e+00,-1.28553480e-01},
 { 3.02405089e-01,-1.33105242e+00, 1.07693439e-02, 4.57901329e-01,
  -1.85598552e+00, 6.54281974e-01,-1.54426992e-01, 1.03869155e-01,
  -2.33907986e+00, 3.05045158e-01,-1.44446954e-01, 1.91009939e-01,
  -1.22061431e-01,-8.11304188e+00,-1.09361410e-01, 2.32112527e+00,
  -3.48322839e-02,-2.07809043e+00, 3.03284407e-01,-1.33621240e+00,
  -5.32340944e-01, 3.47014099e-01,-4.73464680e+00,-4.41451639e-01,
  -2.40426227e-01, 5.91806769e-01,-2.50800014e-01, 1.05935454e+00,
   2.41490197e+00, 1.01608977e-01, 1.26638124e-02,-4.99959588e-01,
  -6.77343607e-01, 2.00089478e+00,-3.35451245e+00,-1.42276776e+00,
  -3.46488619e+00, 4.86403847e+00, 1.28419206e-01,-7.35499954e+00,
  -1.12357235e+00, 5.63041449e+00,-2.93359727e-01, 2.17590794e-01,
   1.23783827e+00, 2.82188356e-01,-2.95549005e-01,-2.77386844e-01,
   3.38695109e-01,-2.59772725e-02,-1.85082778e-01,-3.32497764e+00,
   2.37052396e-01,-1.91881490e+00, 2.95415409e-02, 1.63430125e-01,
  -2.71572411e-01, 7.08553505e+00,-9.27292034e-02,-2.36804970e-02,
  -3.32199305e-01,-7.57615328e+00, 3.14709246e-01,-5.60639083e-01,
  -5.29632044e+00, 8.41158688e-01, 2.66272873e-01,-1.88781559e-01,
  -2.62108594e-01,-6.90632045e-01,-3.89904603e-02, 5.06237125e+00,
  -1.20732641e+00, 1.06163889e-01,-6.48779297e+00,-6.67075396e-01,
   4.98933464e-01,-2.23380014e-01,-1.55285084e+00,-2.35197496e+00,
   6.07556939e-01,-3.14406681e+00, 5.23814797e-01,-3.90553027e-01,
  -7.50226545e+00,-5.31133264e-02,-6.64539695e-01,-8.32607365e+00,
  -9.00685135e-03, 5.60379505e-01,-2.94063854e+00,-7.40581393e-01,
   1.01472206e+01, 1.45069033e-01, 1.73565485e-02,-4.18331444e-01,
   8.03058327e-04, 3.60856009e+00, 3.21365595e+00, 1.81148246e-01,
   1.28866330e-01,-1.67556441e+00,-7.36158252e-01,-2.29185194e-01,
   2.24213928e-01,-4.11974758e-01,-4.39164400e+00, 9.75633711e-02,
   2.71298319e-01, 9.35276374e-02,-1.45619303e-01,-4.14509892e-01,
   9.31533873e-02, 6.67361081e-01, 3.16412896e-02,-4.87438530e-01,
   1.19488083e-01, 5.28925121e-01, 6.54290244e-02, 2.13723373e+00,
   8.36632401e-02, 1.07753731e-01, 1.57684207e-01,-1.12800114e-02,
   1.93910211e-01, 6.18790329e-01,-1.07631016e+01, 5.54011092e-02}};

const float b2[sz_hid_2] = {-0.29673094, 1.791107  ,-0.10232195,-4.4138975 ,-2.3986146 ,-0.0317464 ,
 -0.16754662, 0.44367668,-1.3629094 ,-1.9487638 ,-4.557511  ,-4.6817346 ,
  0.15133618,-3.4280596 , 1.7874058 , 2.0367928 , 1.3715386 ,-0.09717963,
 -3.8265722 ,-4.103186  ,-6.4549747 ,-3.636229  ,-0.4735756 , 1.9211736 ,
  1.6400943 ,-5.125429  ,-0.12500592, 0.9218747 ,-0.52981645,-2.484649  ,
 -1.6382073 , 1.7030839 };

const float w3[sz_act][sz_hid_2] = {{ 1.7127935e-03, 4.1820681e-01, 7.0031606e-02,-7.7823624e-02,
  -6.8120304e-03,-1.1541983e-02,-1.6997874e-02,-3.3939159e+00,
   4.9633428e-02,-1.4131303e-01,-3.1032473e-01,-3.9084535e-03,
  -1.3167661e-03,-2.3133683e-01, 1.8961271e-02, 2.3136482e+00,
  -3.6477813e-01,-5.9291448e-02,-4.4634528e-03, 2.5417742e-01,
   3.6892761e-03, 4.7068712e-01, 1.7723209e-01,-1.9705445e-01,
   1.5784112e-01, 1.3922092e-02, 9.7567558e-02, 1.6161831e-01,
  -1.4067267e-02,-1.5849790e-01,-3.3435721e-02, 5.0164848e-03},
 {-1.5213962e-01, 7.0513780e-03, 1.4538108e-01,-7.9914081e-01,
   2.7326536e-01,-2.6906490e-01,-2.7915891e-03, 3.6036584e-03,
  -3.4023917e-01,-6.1262214e-01, 6.3877539e-03,-2.2520566e-01,
  -1.6126151e-01,-5.7066339e-03, 4.5522058e-01, 1.4339420e-02,
  -6.1685704e-03,-1.3697864e-01,-1.2495608e-01, 7.6581230e-03,
   2.6228914e-01, 2.8394761e-02, 1.6375298e-03,-3.1692279e-03,
   9.3447516e-04,-2.8472990e-01,-2.2525674e-02,-3.7435570e-03,
  -2.5015643e-01,-2.4993434e-03, 4.6679151e-01, 2.3603697e-01}};

const float b3[sz_act] = {-0.36114454, 0.2589422 };

