const float w1[sz_hid_1][sz_obs] = {{ 3.82159650e-01,-1.55321315e-01,-2.43366867e-01,-7.62029171e-01,
   8.54558945e-02,-2.01244131e-02,-1.61998160e-02, 3.36842269e-01,
   2.88319767e-01},
 {-7.27475295e-03,-3.95286858e-01, 1.13465868e-01,-6.85918868e-01,
  -6.33577228e-01,-5.55510819e-01,-1.23006161e-02, 2.90032685e-01,
  -2.47052312e-01},
 { 6.35208213e-04,-9.57672205e-03, 1.38924289e+00, 5.30557215e-01,
  -3.22326869e-01,-1.09334998e-01, 2.08005048e-02,-6.23058081e-01,
  -9.81474742e-02},
 {-7.40328655e-02,-5.12238480e-02,-1.20380485e+00,-1.15882945e+00,
  -3.76703084e-01,-1.88370258e-01,-2.51868945e-02,-1.54251471e-01,
   1.51491463e-01},
 {-6.30281121e-03, 3.27789694e-01, 9.66981947e-01, 6.38014972e-01,
  -1.35138482e-01,-2.16492847e-01, 3.85458060e-02,-2.26520494e-01,
   2.03348920e-01},
 {-1.25055060e-01, 5.18209457e-01, 8.37203562e-02,-4.82736170e-01,
   4.50090803e-02, 6.36719465e-02, 9.28180069e-02,-1.99309409e-01,
  -1.38902411e-01},
 { 9.38707054e-01, 1.92720778e-02, 1.52802634e+00, 5.71904192e-03,
  -7.80552402e-02,-1.13790676e-01, 1.50577083e-01, 1.00448512e-01,
   6.03717566e-02},
 {-5.22163026e-02,-5.23018241e-01,-8.61497700e-01,-4.86084446e-03,
  -1.93149280e-02,-3.73542495e-02, 1.38884223e+00,-8.15677866e-02,
  -9.42537375e-03},
 { 3.23954560e-02, 6.74924999e-02, 2.49972120e-01, 2.79076993e-01,
   3.13497745e-02, 3.19094509e-01,-1.34146690e-01, 6.80897892e-01,
  -8.08446229e-01},
 { 4.93445396e-01, 3.86978276e-02, 5.32668948e-01,-8.77529457e-02,
   4.88192821e-03, 5.64224422e-02,-1.31112218e+00,-8.84649530e-02,
  -3.63599099e-02},
 { 4.35453981e-01, 1.39189318e-01, 7.54928827e-01, 1.15730740e-01,
  -2.45272055e-01,-4.11103278e-01, 6.85173213e-01,-1.12679414e-03,
   8.34845155e-02},
 { 5.14731109e-02,-1.10269345e-01, 2.88602691e-02,-4.51030917e-02,
   5.00502467e-01,-7.41970479e-01, 2.33358458e-01,-5.27372301e-01,
  -5.03612794e-02},
 {-2.68481135e-01, 2.22038299e-01, 2.51401097e-01,-1.96955070e-01,
  -9.02062178e-01, 1.09389171e-01,-1.07034728e-01,-3.23438197e-01,
   2.47420907e-01},
 {-4.80657160e-01, 3.33688408e-01, 8.78938735e-02,-4.39914078e-01,
  -4.01740283e-01,-5.39203286e-01,-1.51738822e-01, 4.13748413e-01,
   1.13660526e-02},
 {-2.87130952e-01,-3.20689887e-01, 1.14734423e+00, 3.09292078e-02,
   3.90912918e-03,-2.67318618e-02,-1.39164555e+00,-6.50596060e-03,
   2.04199664e-02},
 { 7.31419742e-01,-3.77713323e-01,-1.10302067e+00,-2.82848775e-02,
  -5.10878935e-02, 3.69952573e-03, 1.54068089e+00,-6.09350912e-02,
   2.56368648e-02},
 {-6.15176737e-01,-1.81395769e-01, 5.93396306e-01,-2.37610534e-01,
  -2.35462353e-01,-2.60746062e-01,-1.27444163e-01,-1.57950819e-01,
   8.70861411e-02},
 { 2.22602934e-01, 4.97527838e-01,-5.68372488e-01,-1.35877803e-02,
  -3.95688504e-01, 1.33427247e-01, 1.42981157e-01, 3.19124609e-01,
  -6.45281747e-02},
 {-4.65632647e-01,-3.73285323e-01,-2.11237758e-01,-1.82277218e-01,
  -1.00636845e-02, 1.86364446e-02, 2.93119308e-02,-5.41686006e-02,
   3.56202334e-01},
 {-3.71685386e-01, 4.13793892e-01,-8.32439244e-01,-1.07171185e-01,
   4.79378700e-01, 4.88278121e-02,-3.41618091e-01,-1.19388901e-01,
  -2.90280551e-01},
 { 3.38824272e-01,-3.94072384e-01,-1.01519907e+00, 2.52266258e-01,
   2.12282479e-01,-3.11650392e-02, 2.04628795e-01, 3.94935995e-01,
   9.07079950e-02},
 { 8.50457400e-02,-4.06197235e-02,-7.58678734e-01, 4.14114445e-01,
  -5.86644530e-01, 8.16219985e-01, 3.35909985e-02,-8.21273446e-01,
  -1.23195753e-01},
 {-6.29184321e-02, 3.94401178e-02, 2.59744823e-01,-6.69049751e-03,
  -1.75499842e-01,-1.89585220e-02, 1.01020463e-01, 6.78417563e-01,
  -9.42979276e-01},
 { 6.86849058e-02, 1.38045147e-01,-4.15326774e-01,-3.54245782e-01,
  -4.50327754e-01,-3.05698395e-01, 5.23357034e-01, 1.72072113e-01,
   3.03108394e-01},
 {-5.76170146e-01,-3.72284174e-01, 2.82562762e-01,-4.80990589e-01,
   4.70178157e-01, 2.16961637e-01, 2.61005387e-02,-4.16337729e-01,
  -1.65572092e-01},
 {-1.92909632e-02, 1.83389280e-02, 1.73381582e-01, 5.42616367e-01,
   2.20961004e-01,-4.88807321e-01,-2.78649032e-02, 1.35816538e+00,
   7.64441118e-03},
 { 6.81337565e-02, 2.55886372e-02, 1.33272842e-01,-9.63909626e-01,
  -3.90459538e-01, 1.58610508e-01,-7.74984285e-02, 1.24556087e-01,
  -7.67013580e-02},
 { 3.12547415e-01,-2.74512451e-03, 4.10730541e-01, 5.41923940e-01,
   1.18523734e-02, 2.03831851e-01, 4.53877211e-01, 7.19595432e-01,
   2.02148810e-01},
 { 2.39234969e-01, 2.46070758e-01, 2.41911877e-02,-1.44426540e-01,
  -7.71987379e-01,-3.94165784e-01,-3.55772287e-01, 5.56522131e-01,
   1.52100578e-01},
 { 2.03116480e-02,-1.35101192e-02, 7.35843837e-01,-1.48181334e-01,
   2.41062701e-01,-7.74973869e-01, 2.81900130e-02, 1.28319645e+00,
  -7.89759308e-02},
 { 6.88657090e-02,-9.81487855e-02,-6.73683465e-01, 3.51094097e-01,
  -3.80978733e-01, 5.24668396e-01, 6.71514822e-03,-1.46729076e+00,
  -5.06903343e-02},
 { 2.28785519e-02,-5.62433638e-02, 2.58437283e-02, 1.40024945e-01,
   4.26525325e-01,-1.49583906e-01, 1.18434787e-01, 9.12231505e-01,
  -1.37534231e-01},
 { 1.11281931e-01,-6.10477567e-01, 3.50103110e-01, 1.79931685e-01,
   6.63727760e-01,-1.33469880e-01, 5.68959475e-01,-2.86478311e-01,
   3.28260034e-01},
 {-8.04080218e-02, 4.52372313e-01,-1.16549873e+00,-2.02388335e-02,
  -9.29890424e-02,-2.05480307e-01, 7.54448712e-01, 1.50822058e-01,
  -2.26721447e-02},
 { 1.72900736e-01, 7.29834080e-01, 2.67634690e-02,-3.93487327e-02,
  -3.61080438e-01,-2.90130489e-02,-4.47497874e-01,-1.64354354e-01,
  -1.10975549e-01},
 { 2.46762127e-01,-3.70267749e-01,-7.62231350e-02, 1.55059680e-01,
  -5.94802260e-01,-2.83266027e-02,-2.45449677e-01, 3.87958348e-01,
  -1.60017148e-01},
 { 1.28080696e-01,-2.10264713e-01, 1.80667803e-01, 3.37123960e-01,
  -4.36604917e-01, 8.25221688e-02, 1.14521280e-01, 2.78946012e-01,
  -4.19477731e-01},
 { 4.69552636e-01,-1.35160416e-01, 3.85332137e-01, 3.28643531e-01,
   5.39500535e-01, 1.46265000e-01, 8.43722075e-02,-6.44484758e-01,
  -1.52116194e-01},
 { 8.23444426e-02, 6.39892459e-01, 1.13965940e+00, 2.27112602e-02,
   1.97107062e-01, 2.46578902e-01,-1.60080090e-01,-4.36403573e-01,
   2.38590762e-01},
 { 1.21333137e-01,-4.56733584e-01,-3.91920567e-01, 4.44447488e-01,
   4.69492286e-01, 3.17812204e-01, 5.36187403e-02,-7.64930069e-01,
   2.92681307e-01},
 {-3.27782407e-02,-4.03032359e-03,-8.33250344e-01, 7.45343089e-01,
   4.92978990e-01, 5.55438101e-01,-4.05388772e-02,-1.59751475e+00,
  -3.19912657e-02},
 {-2.27143541e-02, 6.60399199e-02,-9.51793432e-01, 3.05344820e-01,
  -1.86870217e-01,-3.82040292e-01,-8.82795900e-02, 1.20381403e+00,
  -6.21971451e-02},
 {-1.18706793e-01,-4.32231650e-02, 1.08049583e+00,-2.71768391e-01,
  -4.52164263e-01, 7.16646850e-01, 6.13545217e-02,-1.34302378e-01,
  -2.50930548e-01},
 { 4.85496849e-01,-3.06282789e-01, 1.25755620e+00,-4.66843583e-02,
   3.02192830e-02, 8.06376617e-03,-1.26224935e+00,-8.64022747e-02,
  -2.78079063e-02},
 {-1.10177107e-01,-1.83611795e-01,-1.63250878e-01, 3.21133286e-01,
  -2.01905780e-02,-2.91321009e-01, 2.36665290e-02, 7.94469297e-01,
   5.61162293e-01},
 {-2.82237679e-02, 5.62986791e-01,-7.31483340e-01,-1.54441804e-01,
   2.17162952e-01,-1.45645276e-01, 1.94641459e-03, 2.26499826e-01,
   2.86539465e-01},
 {-1.11013008e-02, 1.06234774e-01,-9.99132037e-01, 1.71626255e-01,
   1.36699542e-01, 7.17932433e-02, 1.32714640e-02,-4.77436811e-01,
  -6.07622683e-01},
 { 2.07219228e-01, 3.22349340e-01,-2.42215919e+00,-9.34122205e-02,
  -8.00471529e-02, 3.19367707e-01, 4.64451045e-01, 1.47407763e-02,
   1.03642203e-01},
 { 1.60645604e-01,-2.93836705e-02, 3.07521999e-01,-1.39261678e-01,
   2.86483824e-01, 2.61111647e-01,-9.41547826e-02,-3.24737102e-01,
  -6.56093836e-01},
 {-3.38548034e-01,-6.08121641e-02, 1.72829008e+00, 6.58993423e-02,
  -9.24015194e-02, 2.25923378e-02,-9.95730236e-02, 2.62742400e-01,
   8.01283047e-02},
 { 6.13693655e-01,-5.76979876e-01, 4.88397747e-01,-3.98398668e-01,
  -2.34525338e-01, 3.56457308e-02, 3.07770580e-01,-5.86764738e-02,
   3.77132148e-02},
 {-3.40633839e-01,-3.85088563e-01, 2.66658217e-01,-7.80223310e-02,
   4.99912910e-02,-6.43776283e-02, 7.51936555e-01, 3.30133080e-01,
  -1.30596057e-01},
 {-2.82315493e-01,-2.23462060e-01,-4.26269621e-01, 5.84501505e-01,
   2.85516113e-01, 2.81217247e-01,-1.43636525e-01,-3.34435165e-01,
  -1.67701587e-01},
 { 9.88592431e-02, 8.99725035e-02, 1.74282212e-02, 7.50129670e-02,
   8.45778659e-02, 1.32702813e-01, 6.19591773e-01,-9.09250915e-01,
   2.57174402e-01},
 { 5.80169022e-01, 1.30584225e-01, 8.04721296e-01,-1.74388170e-01,
  -4.29075778e-01,-2.16768488e-01, 2.84184605e-01, 1.78229004e-01,
   2.59607360e-02},
 { 3.38821709e-02, 6.21239142e-03,-2.20476851e-01, 4.57179457e-01,
  -5.90557277e-01,-7.21266448e-01, 5.48880063e-02, 1.91631126e+00,
   1.77655909e-02},
 {-2.49980360e-01, 2.35550314e-01, 7.12034702e-01,-1.98764324e-01,
  -7.21273944e-02,-1.59642398e-01,-2.01347433e-02, 2.83838362e-01,
  -8.79714549e-01},
 {-5.05748510e-01, 7.27650747e-02, 4.00479555e-01,-2.80231744e-01,
   1.75043449e-01,-5.06673455e-02, 3.64826560e-01, 1.64349049e-01,
   2.72845328e-01},
 { 3.75718713e-01,-7.06955552e-01,-6.82263374e-02,-4.99887839e-02,
   1.56753585e-01, 2.57560052e-02,-4.21580374e-02,-4.55668151e-01,
   4.73136641e-02},
 { 3.50268751e-01,-2.72959054e-01,-4.63914424e-01,-4.54435885e-01,
   1.94988742e-01,-2.50121534e-01, 8.85407865e-01, 1.80328235e-01,
  -1.68823272e-01},
 {-2.93044269e-01, 1.35830685e-01, 5.83721578e-01,-8.82505402e-02,
   1.01721071e-01, 9.75213200e-02,-2.53503323e-01,-7.90321290e-01,
   2.84095794e-01},
 { 3.83397758e-01,-9.07483280e-01,-3.69127989e-01, 1.74568743e-01,
  -3.22692782e-01,-1.82956338e-01, 5.86408556e-01, 4.42933589e-02,
  -4.79889587e-02},
 { 8.43741059e-01, 4.81725305e-01, 7.80080378e-01,-1.23894848e-01,
  -6.14167713e-02, 5.62433712e-02,-4.98156160e-01, 8.44272524e-02,
   2.86184996e-02},
 {-5.24469055e-02, 5.89886665e-01,-8.40686798e-01, 2.94977188e-01,
   5.54443836e-01, 1.20916471e-01,-3.29477131e-01, 7.56662861e-02,
   1.87540561e-01},
 { 2.32469946e-01, 2.46919300e-02,-2.48374850e-01, 6.19160421e-02,
  -6.34292811e-02, 4.27593216e-02,-1.07577837e+00, 1.02583908e-01,
  -7.45391101e-02},
 {-6.96265280e-01, 1.76776811e-01,-3.89832497e-01, 1.38265267e-01,
  -2.79132407e-02,-6.53322563e-02,-6.30618632e-01, 5.32919504e-02,
   1.49824575e-01},
 { 6.09174192e-01, 3.04750353e-02,-4.09002930e-01, 1.94799915e-01,
   5.71023822e-01, 1.11619219e-01,-5.41487753e-01,-3.21750104e-01,
   1.43545285e-01},
 { 2.67454028e-01,-1.36114016e-01,-9.56020951e-01,-1.54267460e-01,
   1.36173502e-01, 1.01290502e-01, 7.68481851e-01, 1.27947852e-01,
  -4.26311523e-01},
 {-9.29181948e-02,-8.63649130e-01, 1.43516392e-01, 5.65578975e-02,
   1.04161352e-01, 1.19053632e-01, 4.06482458e-01,-3.63581739e-02,
  -2.59332322e-02},
 { 1.40587270e-01, 2.07959220e-01,-4.65013891e-01,-4.01497394e-01,
   2.99830139e-01, 1.98798273e-02, 4.53527361e-01,-5.57763338e-01,
  -5.12057424e-01},
 {-3.05423029e-02, 5.26295044e-02,-1.31382868e-01, 2.02849522e-01,
   4.84806418e-01, 1.13223143e-01,-4.64787222e-02,-1.40503192e+00,
   1.32544339e-01},
 { 6.37451634e-02,-2.72257596e-01,-2.74316460e-01,-1.18806519e-01,
  -2.12684944e-01, 7.87544921e-02, 7.23633349e-01, 1.27375141e-01,
   4.54231054e-02},
 {-9.77865532e-02,-3.54086518e-01,-2.43463996e-03, 1.56037778e-01,
  -2.03436613e-02, 5.93364537e-02, 4.91554856e-01,-2.48468921e-01,
   5.44052601e-01},
 {-2.73346812e-01, 4.89555448e-01, 1.88960806e-01, 4.58051205e-01,
  -3.74979854e-01, 1.29306927e-01,-3.47318053e-01,-2.15376794e-01,
   1.69004709e-01},
 { 3.12737733e-01, 5.90635002e-01,-1.74289465e-01, 2.45908633e-01,
  -3.74602526e-01, 1.57689080e-01,-5.45749068e-01, 4.21932936e-01,
   1.63238198e-02},
 { 3.89971107e-01,-2.55885482e-01, 2.55961448e-01, 6.46442115e-01,
   1.69573680e-01, 3.00979823e-01,-1.77202374e-02,-4.41299856e-01,
   2.96455443e-01},
 { 2.08321676e-01, 6.91380918e-01, 5.92316687e-01,-3.77758831e-01,
  -6.11925200e-02,-4.22481671e-02,-8.13728213e-01, 7.50592053e-02,
  -5.81771694e-02},
 { 6.65888250e-01,-3.20115417e-01,-1.30235124e+00,-1.73913613e-02,
  -6.44011348e-02, 1.26653016e-02, 1.54389203e+00, 2.93694120e-02,
   3.10493680e-03},
 {-3.63005877e-01,-4.07729357e-01,-1.09474421e+00,-8.26746300e-02,
  -4.14118879e-02,-8.60220492e-02, 2.45094404e-01,-2.32051551e-01,
  -5.65964617e-02},
 {-4.67739590e-02,-4.87085320e-02,-2.32005906e+00, 5.73928915e-02,
  -9.38401222e-02, 3.15872401e-01,-2.59913683e-01, 7.17917308e-02,
  -3.53311151e-02},
 { 6.05094850e-01,-4.24978167e-01,-9.35186669e-02, 4.63791639e-02,
   1.83009505e-02,-1.16914816e-01, 1.64661634e+00, 2.73393989e-02,
   1.88420024e-02},
 { 6.99278899e-03,-2.77534984e-02, 2.55229306e+00, 2.77289636e-02,
   6.61201123e-03,-2.55820870e-01, 1.32166520e-01,-8.55793990e-03,
  -2.57910602e-02},
 {-2.96487391e-01,-5.12707651e-01,-7.45312333e-01,-4.40283239e-01,
   2.06755802e-01,-5.17758504e-02,-1.82527229e-01,-1.09671877e-04,
   1.63266793e-01},
 {-4.30150270e-01,-1.40815079e-01, 1.08924873e-01, 3.51921976e-01,
  -1.92532912e-02, 1.25655070e-01, 5.71059465e-01,-5.21826148e-01,
   1.35707930e-01},
 { 2.25733817e-02,-4.50774282e-02, 2.68082228e-02,-3.08733582e-01,
   7.45223999e-01, 2.74169117e-01, 1.36179566e-01,-2.46195495e-01,
   1.58593282e-01},
 { 4.79978949e-01,-1.06131867e-01, 1.29029739e+00, 6.87313825e-02,
  -4.66593839e-02, 1.76134035e-01,-5.29690862e-01,-1.46668494e-01,
   3.24003398e-01},
 { 1.25939876e-01, 8.44016448e-02, 3.16179723e-01,-6.67780995e-01,
   1.50576562e-01, 1.29188066e-02, 3.46686780e-01,-5.75673804e-02,
   8.58425125e-02},
 {-2.25097425e-02,-3.63275558e-02, 2.04644501e-01, 3.19681887e-04,
  -8.47507894e-01, 4.09687832e-02, 1.33028746e-01, 1.27502525e+00,
  -3.27413753e-02},
 { 7.65216112e-01, 3.39031935e-01,-6.72919631e-01,-1.30224943e-01,
  -1.40494704e-01, 1.48501948e-01,-4.19102073e-01, 3.00109759e-02,
  -3.08250245e-02},
 {-5.22310138e-01, 4.15292494e-02,-3.92789423e-01,-3.19897473e-01,
   6.13073468e-01, 2.31137481e-02, 6.10023625e-02,-1.90618157e-01,
   1.33737832e-01},
 { 4.65617701e-02,-3.12388279e-02, 2.40834519e-01,-2.91442752e-01,
  -6.88588917e-01,-2.42940992e-01, 4.28888537e-02, 1.21315575e+00,
  -8.86061490e-02},
 {-1.21573845e-04, 4.08503115e-02,-1.11718214e+00, 3.86109799e-01,
   1.00176498e-01,-2.63093710e-01,-8.34335908e-02, 5.40310681e-01,
   8.23469982e-02},
 { 4.72569615e-01,-3.13990414e-01,-1.13647413e+00,-2.58173328e-02,
  -4.13528867e-02, 2.09808797e-02, 1.38567257e+00,-9.20325285e-04,
   2.92303395e-02},
 {-4.96321887e-01,-1.81218788e-01,-7.06134498e-01, 7.29276054e-03,
  -3.30704749e-01,-8.40734690e-02, 1.07870251e-01, 2.47154325e-01,
  -2.87142456e-01},
 { 7.13945851e-02,-1.39810622e-01,-5.29610693e-01, 4.63214666e-01,
  -8.57420266e-02, 8.15625966e-01, 3.39698307e-02,-1.47392571e+00,
  -9.25352052e-02},
 { 2.22835213e-01, 1.81974977e-01,-4.15501565e-01, 2.75727689e-01,
   5.20526543e-02, 6.47135615e-01, 6.03993893e-01,-5.67395747e-01,
  -3.69967729e-01},
 { 3.30506802e-01,-2.79208571e-01,-1.27288091e+00,-1.27361789e-01,
  -2.64688551e-01,-1.23986341e-01,-1.29852742e-01, 9.83994603e-02,
  -1.19332187e-01},
 { 6.67441115e-02,-4.42877784e-02,-3.37454885e-01,-1.80027336e-01,
   6.69882149e-02,-1.08682811e+00,-1.05657557e-03,-8.27500448e-02,
   1.81482285e-01},
 {-7.00106174e-02, 4.00150627e-01, 4.93518442e-01,-5.30691445e-02,
   1.48928072e-02,-5.77105721e-03,-3.51405554e-02,-4.06273574e-01,
   6.30236685e-01},
 {-3.46544571e-02,-6.93028942e-02,-5.37594318e-01,-1.28744930e-01,
  -4.25808847e-01,-7.95450747e-01,-4.66656350e-02, 1.07826364e+00,
  -1.02574490e-02},
 { 1.35503829e-01, 1.13408864e-01, 1.33655727e+00, 3.85604322e-01,
   5.18898189e-01, 4.19539623e-02, 1.78457364e-01, 1.00765258e-01,
  -1.57476097e-01},
 {-2.84809798e-01, 1.30354092e-01,-2.48811588e-01, 2.09516108e-01,
   7.07175314e-01, 4.57682282e-01,-6.13573529e-02,-1.01667476e+00,
  -8.11889619e-02},
 {-1.43050417e-01, 1.18338980e-01, 5.35208173e-02, 7.77824898e-04,
  -7.61461794e-01, 1.01999903e+00,-1.11284092e-01, 1.19711947e+00,
  -6.81508705e-02},
 {-8.25306177e-02,-3.08056306e-02,-2.16127944e+00, 4.87302423e-01,
  -4.70856577e-02,-4.31182653e-01, 7.78146312e-02, 1.03317416e+00,
   8.83590430e-02},
 { 4.37164813e-01,-5.62545061e-01,-3.98333192e-01,-9.26092118e-02,
   3.32688272e-01,-9.39372182e-02,-1.61198735e-01,-1.21369742e-01,
  -2.76650429e-01},
 { 1.81356832e-01,-1.37659401e-01,-1.22317803e+00, 4.82343733e-02,
  -2.12880060e-01,-4.58457461e-03,-7.09807754e-01, 6.02494419e-01,
  -2.33112231e-01},
 { 2.59162784e-01,-2.23868296e-01,-2.91986406e-01,-4.45897043e-01,
   3.73197168e-01, 4.48639125e-01, 1.29466131e-01,-4.50620949e-01,
   1.77402992e-03},
 { 1.92773547e-02, 4.52078804e-02, 1.20748341e+00,-3.94977890e-02,
   1.06720261e-01, 2.33785044e-02,-3.58700097e-01,-7.76543915e-01,
   1.96042314e-01},
 { 7.18106389e-01,-3.66663039e-01, 1.50178659e+00,-6.26676576e-03,
  -1.06864236e-03, 2.81298570e-02,-1.62895703e+00,-1.55191869e-02,
  -1.56360846e-02},
 {-3.07613403e-01,-2.14714110e-02,-1.04710817e+00, 2.35954281e-02,
  -2.22387463e-01, 1.22439638e-01, 8.02486166e-02, 2.19661802e-01,
  -6.39531553e-01},
 {-3.15177828e-01,-1.39394134e-01, 4.43883687e-02, 4.12300795e-01,
   6.00678802e-01, 2.36179009e-01,-1.13919405e-02,-7.24335372e-01,
   3.27463299e-02},
 {-3.19901556e-02,-2.04966202e-01,-2.13193834e-01,-1.77091435e-01,
  -2.84539193e-01, 1.29602641e-01, 2.56267772e-03,-7.03089476e-01,
   3.21696401e-01},
 { 7.09764585e-02, 1.62047371e-01,-4.18876380e-01,-6.33154631e-01,
   4.02897537e-01, 1.48028702e-01,-9.23061669e-02, 9.63534713e-02,
  -3.97102565e-01},
 {-1.64228708e-01, 1.23855799e-01,-3.05627078e-01,-4.42740947e-01,
  -2.01256141e-01, 9.47603397e-03, 1.29669443e-01, 7.75790727e-03,
  -7.14341581e-01},
 { 3.00344583e-02, 4.04294938e-01, 1.25882506e-01, 6.27154529e-01,
   4.52580422e-01, 2.74751633e-01,-1.01997450e-01,-6.09246910e-01,
   5.64374626e-02},
 { 6.49446189e-01,-4.29872245e-01,-1.08800590e+00,-1.50447907e-02,
  -2.33989265e-02, 1.36783659e-01, 9.51626360e-01, 1.19334660e-01,
   6.10855557e-02},
 { 3.88097525e-01,-3.56138907e-02, 4.10656601e-01, 1.62519336e-01,
  -4.95505720e-01, 2.75474563e-02, 4.46840674e-02,-1.92282528e-01,
   2.97535002e-01},
 { 5.76850832e-01,-4.65086520e-01, 6.71857893e-01, 1.33055747e-01,
  -1.06526203e-01, 9.99012962e-02,-2.89406776e-01, 8.46129060e-02,
   2.43687183e-01},
 { 4.60349172e-01, 3.68957311e-01,-5.28657317e-01, 1.73861057e-01,
  -1.76485017e-01,-3.46918017e-01, 3.10906947e-01, 5.83489239e-01,
  -3.78443241e-01},
 { 5.90761239e-03, 1.50388002e-01,-4.15625960e-01, 6.64260983e-01,
  -7.66210914e-01,-8.58510077e-01,-4.22023982e-02, 9.64249730e-01,
  -1.95074171e-01},
 {-1.72272354e-01,-7.85805881e-01, 4.68570441e-01, 5.89795597e-02,
   9.54779983e-02, 3.92597206e-02,-1.40155703e-01,-2.45027572e-01,
   1.24843650e-01},
 {-1.03836149e-01,-5.06447017e-01, 8.99396420e-01,-4.17430729e-01,
  -1.43110916e-01, 9.33737829e-02,-1.27682492e-01,-1.11446418e-02,
  -2.47251451e-01},
 { 1.83470070e-01, 4.67999071e-01,-1.05245918e-01,-7.21166193e-01,
   4.28239882e-01,-5.05737476e-02,-1.57556072e-01,-3.12749445e-01,
  -3.12781215e-01},
 {-7.55373985e-02, 1.17333625e-02, 1.22452509e+00,-5.52232862e-01,
  -5.25344491e-01, 1.24020791e+00,-6.31100591e-03,-2.08578801e+00,
  -1.72110721e-01},
 {-3.68016511e-01,-4.69650894e-01, 1.29738975e+00,-4.56496561e-03,
   5.57538345e-02,-5.66015430e-02,-1.59779012e+00,-3.49641778e-02,
   4.66870191e-03},
 { 2.84785330e-01, 4.38207030e-01,-1.26720250e+00, 1.22187361e-02,
  -4.19340357e-02, 3.63095663e-02, 1.58061767e+00, 3.98711525e-02,
   2.98859030e-02},
 { 1.55962572e-01,-1.45392716e-01,-5.89700282e-01,-4.74439442e-01,
  -7.11442173e-01,-6.58047318e-01,-7.00760037e-02, 8.17095399e-01,
   1.30972654e-01},
 {-2.68194944e-01, 1.77196071e-01,-8.50435734e-01,-2.78618723e-01,
  -3.42489511e-01, 4.21715140e-01,-5.47091067e-01,-2.02203691e-01,
  -2.64303219e-02}};

const float b1[sz_hid_1] = {-0.5395661 ,-0.24839106,-0.42688346,-0.77917403,-0.72093576,-0.2086758 ,
 -0.5305741 ,-0.8018274 ,-0.67460436,-0.85943794,-0.5963763 ,-0.2515976 ,
 -0.6796497 ,-0.04735483,-0.36417517,-0.3892611 ,-0.42860544,-0.65570104,
 -0.5684759 ,-0.5325658 ,-0.3889939 ,-0.7876823 ,-0.766973  ,-0.6596413 ,
 -0.8796075 ,-0.72893393,-0.61018217,-0.7868553 ,-0.5758427 ,-0.5572488 ,
  0.4183561 ,-0.7847118 ,-0.69432974,-0.5565705 ,-0.6250767 ,-0.64729875,
 -0.6099964 ,-0.79316044,-0.41582036,-0.7816486 ,-0.522406  ,-0.50706345,
 -0.71910906,-0.8552865 ,-0.548674  ,-0.4749012 ,-0.41511112,-0.29428312,
 -0.622195  ,-0.23069862,-0.7246424 ,-0.6577588 ,-0.625822  ,-0.8041125 ,
 -0.47830257,-0.2363415 ,-0.9657644 ,-0.81768733,-0.7425345 ,-0.8729831 ,
 -0.42393476,-0.5301736 ,-0.8131875 ,-0.8481112 ,-0.3980766 ,-0.6526382 ,
 -0.81877804,-0.7434783 ,-0.5579853 ,-0.6359069 ,-0.3400092 ,-0.559682  ,
 -0.75112736,-0.6124276 ,-0.3559625 ,-0.5546873 ,-0.10919993,-0.48075822,
 -0.30789882,-0.05928684,-0.6347408 ,-0.00802515,-0.4853616 ,-0.8299004 ,
 -0.13315132,-0.35428888,-0.4502721 ,-0.11961246,-0.5766901 ,-0.5490191 ,
 -0.20510823,-0.2005071 ,-0.62921655,-0.50859576, 0.02325823,-0.7285016 ,
 -0.22394328,-0.10512076,-0.48044324,-0.42923546,-0.42959237,-0.73638576,
  0.15257145,-0.3721892 ,-0.892595  ,-0.5054934 ,-0.09166337,-0.55382735,
 -0.91577864,-0.6210659 ,-0.50020254,-0.52011216,-0.58544356,-0.6153933 ,
 -0.4119332 ,-0.41450846,-0.38511935,-0.74581456,-0.76418394,-0.18064249,
 -0.67868537,-0.73428833,-0.8494252 ,-0.311447  ,-0.38213915, 0.45301035,
  0.14880125,-0.5296038 };

const float w2[sz_hid_2][sz_hid_1] = {{-4.76117171e-02,-5.21507002e-02,-3.37585248e-02, 2.08326623e-01,
  -4.74849045e-01, 3.77144694e-01,-4.61282791e-04,-2.28597689e+00,
  -4.46075320e-01, 6.30669117e-01,-1.17712416e-01,-3.65244150e-02,
  -1.12891711e-01,-2.45818540e-01,-6.64679408e-01, 4.23826426e-01,
   1.03602618e-01,-8.30500543e-01, 8.54331031e-02,-5.60611427e-01,
   4.36045110e-01, 4.11426634e-01,-1.24152195e+00, 1.41100049e-01,
  -1.15709044e-01,-1.51679991e-02, 8.03219303e-02, 1.18826948e-01,
   2.73003906e-01,-4.41605359e-01,-5.96238226e-02, 2.30286062e-01,
   7.95618668e-02, 2.65658200e-01,-9.03025046e-02,-2.89711088e-01,
  -8.80663320e-02,-3.16195756e-01, 5.18636256e-02,-4.58879352e-01,
   7.27163553e-02, 6.01697862e-02,-8.03524256e-02,-2.28235769e+00,
   2.29610458e-01, 8.84227037e-01, 4.17492479e-01,-6.19067073e-01,
   1.87944751e-02, 1.55750319e-01, 6.76075220e-02,-3.47104788e-01,
   1.46387622e-01, 2.47383252e-01,-2.34235615e-01,-1.81434080e-01,
  -1.30772457e-01, 4.26412225e-01,-1.25086278e-01, 5.37585616e-01,
  -3.14367980e-01, 1.27438754e-01,-1.88185871e-02, 3.43141228e-01,
   4.01999384e-01, 2.48120120e-03,-2.66830679e-02, 5.80955505e-01,
   2.45916352e-01, 1.16894878e-01,-5.69599792e-02,-2.09782183e-01,
  -6.05573595e-01,-4.61061180e-01, 8.11614096e-01,-2.64803112e-01,
  -1.74970508e-01, 1.13902569e+00, 2.49297217e-01,-3.82004306e-02,
  -6.43632829e-01, 4.60943073e-01, 2.91264802e-01, 2.13168055e-01,
   4.58213151e-01,-2.88249314e-01, 9.90952738e-03, 2.60782242e-01,
   5.42751908e-01,-4.06116806e-02, 1.32800862e-01,-1.32913589e-01,
   7.20746160e-01, 1.94113165e-01, 2.97753006e-01,-1.26790941e-01,
   5.36478050e-02, 4.91680875e-02,-2.06899554e-01, 1.11654575e-03,
  -1.13983922e-01,-4.03546281e-02,-5.07358052e-02, 2.99834907e-01,
  -2.59297937e-01, 2.86785457e-02,-2.02656686e-02, 1.01011299e-01,
  -2.91909146e+00,-4.71300662e-01, 7.55731016e-02, 1.94853887e-01,
   3.94051462e-01, 4.69399184e-01, 1.80824012e-01, 5.01894236e-01,
   1.29213864e-02,-6.78769410e-01,-1.57436300e-02, 1.22099243e-01,
   2.30611205e-01,-7.16512874e-02, 1.13246389e-01,-5.82246259e-02,
  -4.29890394e-01,-7.68183994e+00,-2.75273174e-02, 1.70342490e-01},
 { 2.80322671e-01,-3.23675275e-01, 2.58119822e-01,-1.51020336e+00,
   9.11425706e-03,-6.70157447e-02,-4.77335691e-01, 1.49973959e-01,
  -2.34773204e-01,-6.80017650e-01,-4.78052676e-01, 5.55694222e-01,
   7.08682954e-01,-1.08433390e+00,-1.70321122e-01,-5.25345862e-01,
   1.76917747e-01, 3.21425974e-01,-6.63629293e-01,-7.25467205e-02,
   4.63668197e-01, 1.26193082e+00,-6.18813336e-01,-4.85239118e-01,
  -4.06465650e-01,-2.13272619e+00,-6.68396175e-01, 2.95010984e-01,
   1.47290602e-01,-8.93191636e-01, 3.60220641e-01, 9.02307570e-01,
  -3.62282008e-01,-5.41598439e-01, 3.06623548e-01,-3.34961563e-01,
  -8.67460549e-01, 2.88675651e-02,-1.97462097e-01,-1.63705498e-01,
   1.02281049e-01, 5.88070154e-01, 9.54723418e-01, 1.06976174e-01,
   5.99235833e-01, 6.43921852e-01, 1.90100953e-01,-1.19761266e-01,
  -5.22037670e-02,-1.31272450e-01, 1.82017777e-02,-1.76284075e-01,
  -1.08812249e+00, 5.63549817e-01, 1.10519130e-03,-2.13470101e+00,
   4.24843192e-01, 1.19404532e-01,-1.63423494e-01,-5.65401077e-01,
   1.27152456e-02,-3.14048767e-01,-8.87721628e-02,-4.75451648e-01,
   2.47020364e-01,-2.90638693e-02,-2.16250062e-01,-1.00092208e+00,
  -4.52616096e-01, 2.24127010e-01,-5.81585646e-01, 1.23091035e-01,
   2.39019901e-01, 2.50846148e-01, 2.49556750e-01, 4.36211735e-01,
   1.13439210e-01, 2.94578612e-01, 3.95233333e-01, 8.34688544e-02,
  -2.49690950e-01,-7.40959421e-02,-3.33881259e-01, 6.46370471e-01,
   5.51059127e-01, 1.39884725e-01,-6.85091913e-01,-8.48074734e-01,
   1.40850157e-01,-5.59263229e-01, 2.33467078e+00,-1.20980239e+00,
   3.47970009e-01,-3.67513485e-02, 5.85306108e-01,-1.29192933e-01,
   1.27601981e-01,-3.46724510e-01,-3.28759104e-01, 4.39302623e-01,
   4.25834447e-01,-4.16996658e-01, 2.59673238e-01,-3.56422871e-01,
   5.43614089e-01,-5.20769656e-01, 8.11313987e-02, 1.26920491e-01,
   3.58294934e-01, 1.78956762e-01,-1.81789190e-01, 4.43441689e-01,
  -1.55601215e+00,-6.46876032e-03, 3.09551835e-01, 6.76917911e-01,
   3.67569745e-01, 1.11649334e-01, 1.28975248e+00,-5.43529332e-01,
   2.79797256e-01,-6.38247848e-01,-4.44309890e-01, 4.24364954e-01,
   9.11126882e-02,-3.09079140e-01,-1.98891532e+00, 3.22811782e-01},
 {-6.10075071e-02,-7.78488861e-03, 3.86719522e-03,-1.10946791e-02,
   2.88503431e-02,-1.29906431e-01, 2.42299191e-03,-4.63264324e-02,
  -9.29588452e-02, 3.65842320e-02,-6.06701411e-02,-1.32628039e-01,
  -1.29358560e-01,-5.10904193e-02,-7.71113038e-02, 4.16136496e-02,
   2.34051459e-02,-5.80386780e-02,-7.09659383e-02,-2.46239305e-02,
  -5.01252860e-02,-7.98123702e-02,-9.48271230e-02,-1.63689837e-01,
  -1.90623403e-02, 3.09931524e-02,-9.45478752e-02,-1.69141650e-01,
  -2.30939761e-02,-5.53503446e-02,-4.87127081e-02,-1.00301817e-01,
  -8.57129395e-02,-5.53729087e-02,-9.01810825e-02,-1.14411175e-01,
   1.25130522e-03,-5.26281111e-02,-9.66850668e-02,-5.24381436e-02,
   2.78116367e-03,-9.82991904e-02,-5.11629842e-02,-5.37323707e-04,
  -2.08708961e-02,-2.68960204e-02,-9.99760851e-02,-2.32429821e-02,
  -8.61130015e-04,-7.25785866e-02,-8.53827745e-02,-1.21992314e-02,
  -1.49693871e-02, 1.14872204e-02,-7.12884590e-03,-3.17132846e-02,
  -7.40428492e-02,-8.63807201e-02, 8.24300200e-02,-5.12856897e-03,
  -7.03671575e-02,-4.58976887e-02, 1.40319495e-02,-9.86545756e-02,
  -7.45655596e-02,-4.76112124e-03,-1.99002232e-02,-1.15096994e-01,
  -2.18153875e-02,-1.95447914e-02,-1.27121191e-02,-5.30805327e-02,
  -1.36939183e-01,-2.54766177e-02,-5.44137023e-02, 5.51002007e-03,
  -8.87849405e-02, 2.69649271e-03,-1.28627554e-01,-2.76571959e-02,
   3.06767002e-02,-7.52010420e-02,-9.55815017e-02,-2.77626440e-02,
   1.25467777e-04,-1.11119933e-01,-6.80705532e-02, 3.41105573e-02,
   3.21927737e-03, 1.44996298e-02, 1.94534343e-02,-1.03212381e-03,
   3.99422385e-02, 1.43924297e-03,-6.25124574e-02,-9.15772393e-02,
   2.13400405e-02,-4.51748110e-02,-1.16463006e-01,-9.64616612e-02,
   1.44098373e-02, 6.48680478e-02,-3.75440484e-03,-4.18207012e-02,
   2.38159113e-02,-1.45830393e-01,-1.24859348e-01,-1.46868095e-01,
   6.57610744e-02,-7.39164650e-02,-7.58702159e-02,-3.53460722e-02,
  -8.22053552e-02,-1.22185320e-01,-3.25697809e-02,-9.04516783e-03,
  -1.15466818e-01,-4.88415994e-02,-2.44220737e-02,-6.71967817e-03,
  -2.29509752e-02,-6.40743598e-02, 3.71503755e-02,-5.15605099e-02,
  -1.33433640e-01,-1.30664513e-01,-5.22390865e-02,-8.99893790e-03},
 { 3.23411703e-01,-2.06252988e-02, 3.84753942e-01,-1.61156639e-01,
  -2.39402056e-01, 2.03123372e-02,-1.38275132e-01, 1.98401343e-02,
  -2.72019565e-01, 2.86088046e-02,-2.25044653e-01,-3.12015831e-01,
  -7.90394664e-01,-1.29424661e-01,-1.43106997e-01, 2.83985317e-01,
  -1.12771228e-01,-4.23940003e-01,-2.98606306e-01, 1.26762912e-01,
  -1.96808979e-01, 1.75927207e-01, 1.54221743e-01,-6.51403964e-02,
   8.83784235e-01,-1.49398839e+00, 2.90347904e-01, 5.97657800e-01,
   3.49930197e-01,-5.98697066e-01,-3.65664363e-01,-1.69590902e+00,
  -1.37171948e+00,-2.62745202e-01, 6.14641070e-01, 2.93476105e-01,
   2.19333195e-03, 6.74450576e-01, 3.39463085e-01, 4.90834683e-01,
   7.75797248e-01,-1.32556486e+00,-3.99260402e-01,-2.09424406e-01,
  -8.01608860e-01, 3.58966351e-01, 3.90247673e-01,-3.05776536e-01,
  -9.12033200e-01,-1.46492735e-01,-7.51749754e-01, 4.02980179e-01,
  -2.31848955e-01,-4.04572636e-01,-1.60235107e-01, 5.69154844e-02,
  -1.42717734e-02,-9.37617779e-01,-5.48049331e-01, 3.86578113e-01,
  -9.62373078e-01, 8.00850168e-02,-1.48445871e-02, 3.92108560e-01,
   2.35502124e-01,-8.76697242e-01,-7.81642139e-01, 6.15174890e-01,
  -1.72249675e-01,-4.88491923e-01, 3.26331407e-01,-2.75732530e-03,
  -2.87106425e-01,-5.87957539e-02, 1.05283827e-01,-9.26674232e-02,
  -3.38858485e-01, 2.23863065e-01,-2.96090931e-01,-3.12494576e-01,
  -8.08166061e-03, 3.45432192e-01,-4.68991727e-01,-1.25020194e+00,
   1.61210790e-01,-2.60680526e-01, 5.05679309e-01, 2.91468114e-01,
   6.12833917e-01,-5.30029476e-01, 4.41501707e-01,-4.47210610e-01,
  -5.77625111e-02,-3.21028173e-01, 6.88972771e-01,-2.54558057e-01,
  -8.88331532e-02,-2.44696856e-01,-1.93962872e+00,-7.39724994e-01,
   2.61824101e-01,-1.00023150e+00, 1.11424536e-01,-1.01136184e+00,
   4.82578874e-01,-2.43672784e-02,-1.08981800e+00, 2.03560159e-01,
   4.71756667e-01, 2.03435794e-01,-5.77665985e-01,-5.88897010e-03,
  -1.99388014e-03,-1.68468982e-01, 2.88555235e-01,-7.90520132e-01,
  -3.85884345e-01, 2.55634069e-01, 3.32206190e-01,-7.54227757e-01,
  -1.72725152e-02, 2.18232051e-01,-2.05141231e-02,-4.68117386e-01,
   2.50091553e-02,-2.03478299e-02, 3.33555609e-01,-9.39524114e-01},
 { 3.83378603e-02,-2.16227621e-02, 2.56194994e-02,-5.30307293e-02,
  -4.82663047e-03,-9.64247715e-03,-2.98015717e-02,-4.72578183e-02,
  -3.15108038e-02,-6.21246696e-02,-7.96619803e-02,-2.71544065e-02,
  -9.93849784e-02,-7.57009350e-03,-6.88440651e-02,-6.94721490e-02,
  -5.47644943e-02, 2.37271767e-02,-7.16062784e-02,-1.98125001e-02,
   5.15555330e-02, 1.66405942e-02, 5.11840964e-03, 9.01848311e-04,
   5.30476421e-02,-5.42851910e-03,-1.72789209e-02,-1.07725464e-01,
  -7.27245063e-02,-1.59189459e-02,-3.66109349e-02,-5.15133031e-02,
  -9.84423906e-02,-9.44748446e-02,-9.59566701e-03, 6.39059618e-02,
  -9.39352587e-02, 3.43923718e-02,-1.26630992e-01,-1.30153731e-01,
  -9.22562405e-02,-3.52634527e-02, 9.97637678e-03,-8.13191235e-02,
   4.46202606e-02, 2.13283282e-02,-3.77629697e-02, 1.00671221e-02,
  -9.11649317e-02,-7.38258958e-02,-2.55733132e-02,-3.94222699e-03,
  -7.41149709e-02,-8.66252258e-02,-1.47246178e-02, 3.54781561e-03,
   7.75903836e-02,-6.40434772e-02, 1.82162300e-02,-6.07336909e-02,
   1.75709967e-02,-1.59987323e-02, 4.06622291e-02, 2.27762982e-02,
   4.81926985e-02, 2.45963391e-02,-6.37785206e-03, 2.57910788e-02,
  -6.41021505e-02, 4.03904915e-02, 7.21949935e-02, 2.90499367e-02,
  -9.35685039e-02,-5.67516275e-02,-6.06277166e-03, 1.78525653e-02,
  -7.51144718e-03,-1.00781601e-02, 2.43994240e-02,-4.00931388e-02,
  -4.17842343e-02, 1.58366933e-02,-7.23806862e-03,-9.80867147e-02,
  -1.14717130e-02,-8.89228657e-02,-5.18253557e-02,-1.09676532e-01,
   1.81028023e-02,-1.18233100e-01,-1.11670434e-01,-1.40296489e-01,
   8.27523321e-03,-8.22517499e-02,-1.22285075e-02,-8.23867321e-02,
  -1.05794281e-01,-6.14881665e-02,-3.83509323e-02, 2.66034193e-02,
   6.45401254e-02,-4.35571969e-02,-1.32433698e-01,-4.83086221e-02,
  -5.17286025e-02,-2.83201765e-02,-1.89275946e-02, 3.47438790e-02,
   1.56139175e-03, 3.45096015e-03,-5.64317927e-02,-1.34031270e-02,
  -3.57226469e-02,-5.97935580e-02,-3.31271179e-02,-4.33980972e-02,
  -1.23942770e-01, 5.02324216e-02,-6.62263110e-02,-9.31601450e-02,
   6.08011074e-02,-6.89576343e-02, 1.51738822e-02, 4.31525074e-02,
  -1.30038848e-02,-2.61721648e-02, 4.38096840e-03, 1.42694144e-02},
 {-3.53739783e-02,-1.37676075e-01, 7.65699208e-01, 2.90848538e-02,
  -6.01194859e-01, 1.19098444e-02,-7.67600000e-01, 5.29100537e-01,
  -5.09368554e-02,-2.71972322e+00,-1.17793310e+00,-5.47599755e-02,
   2.61749867e-02, 2.30593994e-01, 3.03219974e-01,-1.65498340e+00,
   2.85535842e-01,-1.43723953e+00, 1.22416966e-01, 2.17912141e-02,
  -4.60651398e-01,-3.02088290e-01, 7.65051544e-01,-3.00704676e-04,
   4.54223663e-01, 4.35352504e-01, 4.83713329e-01,-1.68862090e-01,
   4.77771878e-01, 2.47471929e-01,-3.90993685e-01,-3.46781731e-01,
   3.40337902e-01,-1.07568949e-02,-5.17586648e-01, 3.75663228e-02,
   2.45235726e-01, 2.25057632e-01,-2.06107914e-01,-1.75870836e-01,
  -4.04337317e-01,-3.23234171e-01, 3.64742696e-01, 8.41287136e-01,
  -5.52314103e-01, 1.17328398e-01,-1.05383784e-01,-1.70488858e+00,
   1.74517378e-01, 6.33190870e-01, 7.25314766e-02, 5.03706634e-01,
  -3.43319982e-01,-8.46340299e-01,-3.16246986e-01,-1.93239734e-01,
   9.06768322e-01, 3.83521505e-02, 9.15893540e-02, 4.45719332e-01,
   6.42700434e-01, 3.19781154e-01,-1.82445478e+00, 1.00990129e+00,
  -2.10344031e-01,-1.87638506e-01,-7.94695795e-01, 1.52129483e+00,
   5.27503967e-01,-1.98596731e-01, 5.32946646e-01, 9.47474763e-02,
   8.29318285e-01, 5.42492345e-02,-5.41635118e-02, 5.17435014e-01,
  -2.99588829e-01,-1.03994501e+00,-3.81484389e-01,-6.44578874e-01,
   7.10047424e-01, 5.58565915e-01,-2.16674909e-01, 3.85997519e-02,
   2.55103558e-01, 6.37857974e-01,-2.08813056e-01, 2.10085511e-01,
  -3.00177187e-01,-5.72730824e-02, 2.34985903e-01,-2.14486986e-01,
   2.07936496e-01,-1.17748618e-01,-9.31613892e-02,-4.68257636e-01,
  -3.64027113e-01, 2.75417417e-01,-1.15768187e-01,-9.45037380e-02,
   5.25552273e-01, 4.95382100e-01, 7.67834261e-02,-1.11349607e+00,
   1.78538889e-01,-3.24288875e-01,-1.55740917e-01, 5.34447908e-01,
   4.71572757e-01,-1.02151036e+00,-1.91204101e-01, 2.21587345e-03,
  -7.68911779e-01,-6.19457483e-01,-7.08997548e-01,-5.76868594e-01,
   6.63735390e-01, 9.85661209e-01,-1.21540892e+00, 4.30987686e-01,
   3.49057645e-01, 1.69410810e-01, 2.48535350e-01, 2.19048962e-01,
   3.33834976e-01, 9.29082036e-02,-1.60350919e-01,-6.31401718e-01},
 {-4.58249152e-01, 5.87027818e-02,-9.96688485e-01, 5.04912019e-01,
  -9.51331258e-01,-1.44524917e-01,-2.86475033e-01,-6.01941347e-01,
  -1.62890762e-01, 4.64552581e-01,-2.56022308e-02,-1.91013321e-01,
   6.37557171e-03, 1.70289382e-01, 1.12212680e-01, 1.46813011e+00,
  -1.19931772e-01, 4.79058444e-01,-5.88120282e-01, 7.49299079e-02,
  -6.32158041e-01, 2.02526122e-01,-7.66207159e-01, 4.49880026e-02,
  -1.07367980e+00, 1.96125075e-01,-6.37586564e-02, 5.43177307e-01,
  -5.21571562e-02,-1.54985497e-02, 8.83691385e-02,-8.66823941e-02,
   9.11123902e-02, 1.27108827e-01,-8.14491510e-02,-1.47398484e+00,
   3.00530255e-01,-6.95597053e-01,-2.88981736e-01, 4.98857230e-01,
   8.11011374e-01, 1.74169555e-01, 2.31959030e-01, 7.07653821e-01,
   4.66286600e-01, 2.73203135e-01, 2.96218842e-01, 4.75629598e-01,
   7.58802474e-01,-4.74419534e-01, 7.17364967e-01, 2.41284296e-01,
  -1.81604922e-01,-7.92747438e-01,-1.35886475e-01,-1.45940930e-01,
   4.11413722e-02, 3.23561758e-01,-1.30388629e+00,-1.25131953e+00,
   2.90459823e-02,-1.51851043e-01, 3.56843114e-01,-5.83762944e-01,
   2.44535431e-01,-4.05075252e-01,-9.80057418e-02, 9.72276449e-01,
   7.28531694e-03, 1.59027159e-01,-7.56093562e-01, 5.60645103e-01,
  -1.11815774e+00, 5.67094862e-01, 1.55762509e-01,-6.61466420e-01,
  -4.97260690e-02, 1.13614368e+00, 4.32595670e-01, 6.53765082e-01,
  -1.04918015e+00,-1.65388393e+00,-1.11532927e+00,-3.51203412e-01,
  -4.23884839e-01,-3.71209651e-01,-4.46685255e-01, 3.78834456e-02,
   4.77663398e-01,-2.75579661e-01,-3.82707179e-01, 8.25292349e-01,
  -1.17659259e+00, 3.11270922e-01,-3.53730954e-02,-1.21121638e-01,
  -2.74856508e-01, 1.25807002e-01,-3.79288942e-01,-3.12478751e-01,
  -4.45926338e-01,-2.31134161e-01,-1.57836542e-01,-2.14104220e-01,
  -4.29731637e-01,-4.95517015e-01, 3.62643033e-01,-1.20552313e+00,
   1.15603614e+00, 2.70788521e-01,-3.25134784e-01,-3.63367826e-01,
   3.46497685e-01, 5.15557051e-01,-2.84700871e-01,-2.14322305e+00,
  -8.31534341e-03,-1.08522646e-01, 9.82671976e-02, 1.24020159e-01,
   1.86510205e-01,-5.62223017e-01, 4.67591226e-01,-4.88390587e-02,
  -1.25357330e-01, 1.67919338e-01, 8.02440643e-02, 5.95801413e-01},
 {-3.90845418e-01, 1.00366129e-02,-7.35256970e-02, 1.67266250e-01,
  -1.03568789e-02,-9.91789997e-03,-9.21357498e-02,-1.78482306e+00,
  -1.10554850e+00,-7.23978758e-01, 2.50577837e-01,-2.16326397e-03,
  -3.64924252e-01, 1.56072706e-01, 1.95203200e-01, 1.20770597e+00,
  -9.90098357e-01, 7.15380728e-01, 2.51566291e-01,-1.71564236e-01,
   2.14461118e-01, 1.48332492e-01,-1.47090888e+00,-5.67177646e-02,
   5.72340637e-02, 5.45428276e-01, 2.17734560e-01, 1.35255177e-02,
  -1.02124199e-01,-2.45689988e-01,-1.12462617e-01,-7.77979940e-02,
  -5.70467673e-02, 3.04851472e-01, 2.99440414e-01,-1.51855415e-02,
  -2.91718811e-01,-9.92664173e-02, 9.10394073e-01, 4.81831759e-01,
   8.07112381e-02,-1.74201041e-01, 6.36349693e-02,-2.68771219e+00,
   1.01366471e-02,-6.34692907e-02, 3.29872072e-02, 4.39874500e-01,
   4.22446251e-01,-1.73319027e-01, 4.91266191e-01,-6.09381676e-01,
   1.02508098e-01, 1.08989350e-01, 2.64828831e-01, 1.70230702e-01,
  -8.94793928e-01,-3.50997984e-01,-2.69019380e-02,-1.06808722e+00,
   4.25623730e-02,-1.04039168e+00,-1.20721781e+00,-8.34915638e-01,
   1.94967926e-01,-1.19724266e-01,-9.50954854e-01,-8.67255151e-01,
   3.15664738e-01, 1.61411390e-01,-5.75523935e-02, 3.92507464e-02,
  -4.44144636e-01,-5.70991457e-01,-1.42172527e+00,-6.35454714e-01,
  -1.40898061e+00, 1.45629692e+00, 5.50864875e-01, 3.57582271e-02,
  -1.27877876e-01, 9.21753347e-01, 4.33859259e-01,-7.77324066e-02,
  -1.19176311e-02,-1.11706972e+00, 3.51288617e-02, 5.21820009e-01,
   2.69502848e-01, 8.59631151e-02,-2.32310779e-02,-1.04544582e-02,
  -3.23752999e+00,-4.94875498e-02,-8.90365764e-02, 5.85596800e-01,
  -6.63088560e-01, 1.43410489e-02,-4.31346685e-01,-8.45009089e-02,
  -3.27844530e-01, 3.76888335e-01,-1.01838291e-01, 7.13166237e-01,
   1.02602410e+00, 3.27638626e-01, 1.50146753e-01, 9.15535316e-02,
  -3.18417358e+00,-6.69183135e-01, 6.73831850e-02,-2.69609481e-01,
   1.17312111e-01,-4.32121828e-02,-3.89802337e-01,-1.89174742e-01,
  -1.64059624e-01, 1.68898189e+00, 8.76342207e-02,-1.36654243e-01,
  -6.58052027e-01, 5.49088895e-01, 1.48061708e-01,-2.73717213e-02,
  -1.46030828e-01, 1.35315731e-01,-3.82502340e-02,-5.70769370e-01},
 {-1.12442866e-01,-9.52571556e-02, 2.78067708e-01, 1.01388082e-01,
  -3.21769655e-01, 1.80090547e-01,-2.84334626e-02, 2.31623519e-02,
  -3.77362259e-02,-2.42976546e-02, 4.73634630e-01,-1.18269667e-01,
  -1.32769597e+00, 1.57615811e-01, 4.57354486e-02, 3.71874832e-02,
  -1.67701408e-01, 7.38612652e-01, 3.95897031e-01,-8.95419121e-02,
  -2.79349029e-01,-2.93149799e-01,-3.03488430e-02, 4.59113121e-02,
   5.28622329e-01,-1.92850232e+00, 1.93616882e-01, 2.87746757e-01,
   5.70205212e-01,-5.91862977e-01,-7.13110113e+00,-7.74117231e-01,
  -2.03228265e-01, 1.25105843e-01,-3.03844929e-01, 3.36202413e-01,
  -2.64015049e-01, 4.94761407e-01,-1.42489463e-01, 4.35210764e-01,
   1.20322931e+00,-6.77140236e-01,-1.97586775e-01,-2.59410776e-02,
  -1.64076015e-01,-2.72141784e-01, 1.36110663e-01,-4.28947620e-02,
  -1.70375243e-01,-2.94529378e-01,-1.87318221e-01, 2.40879655e-01,
  -5.32471277e-02, 4.88528132e-01,-3.13519657e-01,-6.02820553e-02,
   1.05412230e-01,-2.39408702e-01, 8.73821974e-02, 1.89817369e-01,
   2.37425923e-01, 1.63113207e-01,-3.97708833e-01,-3.35523754e-01,
  -6.91664219e-02,-1.87528312e-01, 2.40476817e-01,-5.89118712e-02,
   4.15275156e-01,-4.10214126e-01, 4.89562213e-01, 2.42513970e-01,
   3.10705364e-01, 7.84059823e-01,-2.37882942e-01, 2.96139807e-01,
   2.44271055e-01, 1.12171367e-01, 1.17798477e-01, 3.19424272e-01,
  -2.03356385e-01, 7.39960000e-02, 4.59942929e-02,-6.59987852e-02,
   4.77979742e-02, 1.67163208e-01, 3.41663152e-01,-8.67162347e-02,
   4.10998970e-01,-9.33800936e-02,-1.53258175e-01, 2.53663361e-01,
   2.38759853e-02, 2.19782293e-02,-8.57938007e-02, 1.04792988e+00,
   1.09222144e-01,-5.06995805e-02,-4.21281299e-03,-1.30911961e-01,
   2.27878988e-01, 1.20843863e+00, 3.55610162e-01,-2.02975869e-01,
  -7.45841637e-02,-2.06856355e-01, 3.05409700e-01,-1.69909243e-02,
  -1.62613928e-01,-1.34345278e-01, 3.41802001e-01,-9.16244745e-01,
   3.25729221e-01,-2.12145016e-01, 8.47835541e-02,-1.48407742e-03,
  -3.84813875e-01,-1.56948030e-01, 4.59472984e-02, 5.61968625e-01,
   3.34754646e-01, 7.59707168e-02, 6.22986197e-01,-1.32695806e+00,
   1.22788697e-01,-2.16128994e-02, 3.37200314e-01, 3.53896320e-01},
 {-3.46126765e-01, 1.14296295e-01, 1.84741199e-01, 4.76881623e-01,
   4.23892319e-01, 3.02925229e-01,-7.60540366e-03,-1.81298554e-01,
   6.06189817e-02,-4.36634898e-01, 6.27706125e-02,-5.31643152e-01,
  -3.73263627e-01,-1.87710062e-01,-7.46963546e-02, 2.28094682e-01,
  -2.57273942e-01,-1.37226775e-01, 1.32832974e-01, 2.84157217e-01,
   2.49804363e-01,-2.81094849e-01,-2.72726297e-01, 4.64531481e-01,
   1.68166831e-01,-1.13500822e+00, 6.54673874e-01,-2.48665716e-02,
  -3.01604331e-01,-9.26126242e-01,-5.85331619e-01,-3.55891883e-01,
  -1.06746411e+00, 8.50822628e-02,-2.78913766e-01, 1.04118966e-01,
   3.04048777e-01, 2.77422667e-01,-1.89197838e-01,-4.67004720e-03,
   8.39982986e-01, 8.41121197e-01, 7.75787681e-02, 1.24981709e-01,
   1.14906684e-01,-6.09111547e-01, 6.84276000e-02, 3.80926698e-01,
  -1.09021239e-01, 6.02058023e-02,-2.18423337e-01,-1.58445418e-01,
   3.40406060e-01,-2.93085016e-02,-2.03676403e-01,-1.76731467e+00,
   7.26632923e-02,-1.73127711e-01,-2.77733862e-01,-5.96443594e-01,
  -1.86929047e-01,-7.05319196e-02, 3.80468875e-01, 2.86886841e-02,
   3.00764069e-02, 2.38177136e-01, 2.87664533e-01,-5.28347909e-01,
   8.03200603e-02,-1.80360794e-01,-1.72692823e+00,-1.84667408e-01,
  -8.39073479e-01, 7.00933412e-02,-1.51920155e-01, 4.93347317e-01,
  -2.14331195e-01,-8.68074074e-02, 3.19503024e-02,-4.09095250e-02,
   1.81582600e-01, 1.78707197e-01,-6.56538427e-01, 8.36517990e-01,
  -1.09646851e-02, 1.36060327e-01, 2.99684286e-01,-8.02017689e-01,
   1.42646819e-01, 2.74049401e-01, 7.10357785e-01,-1.02373314e+00,
  -6.49641991e-01,-2.02963501e-01, 8.43524754e-01, 3.70393917e-02,
   3.17409672e-02,-9.65035021e-01, 2.59345144e-01,-8.78964245e-01,
  -8.22411180e-02,-1.63978457e-01, 3.14955175e-01, 1.88486829e-01,
   1.72394380e-01, 1.16613172e-01, 2.92631477e-01,-4.61485952e-01,
  -1.72626257e-01, 1.96382567e-01,-1.35673657e-01,-5.29250979e-01,
  -1.26076967e-01,-2.77865380e-01, 2.17603832e-01,-1.51195396e-02,
  -4.73639071e-01,-5.60993075e-01,-1.33171964e+00,-1.96699426e-01,
   1.55119881e-01, 7.68238828e-02, 7.16586590e-01,-1.47163287e-01,
   9.82922018e-02, 1.22228153e-01,-5.08945771e-02,-5.03798068e-01},
 { 1.33171886e-01, 3.26583609e-02, 1.43563166e-01,-4.85418379e-01,
   3.06787938e-01,-9.30611491e-02,-7.15808511e-01, 3.93709540e-01,
   7.64610708e-01, 5.54261863e-01,-2.80285984e-01, 1.78139433e-01,
   1.79680243e-01, 2.77674526e-01,-5.51992273e+00,-5.88890374e-01,
   1.64724723e-01,-4.43222970e-01, 5.17018080e-01, 2.50111908e-01,
   2.09742293e-01,-5.62753558e-01, 1.05019212e+00, 1.36880558e-02,
   4.30191994e-01, 1.46608740e-01, 3.23872864e-02, 1.55287474e-01,
  -4.27661747e-01,-1.67844564e-01, 5.45778796e-02,-5.36564231e-01,
  -2.24820495e-01,-9.26157773e-01,-2.43192166e-01, 7.91274071e-01,
  -3.50732560e-04, 7.85892382e-02,-7.63218939e-01, 9.26066995e-01,
  -2.69202232e-01, 5.81023693e-01, 1.91116795e-01,-1.66918480e+00,
   1.60506256e-02,-2.38909453e-01,-1.14150867e-01, 1.44661427e-01,
   4.06008244e-01, 7.37424195e-02, 1.25199676e-01, 4.12656367e-01,
   2.09595874e-01, 1.78690925e-01,-3.15872319e-02, 2.44027935e-03,
  -6.02968395e-01,-3.42930585e-01, 1.39255714e+00, 5.67800879e-01,
   1.65558495e-02, 6.20389655e-02, 1.25359559e+00,-4.65447426e-01,
  -7.37775803e-01, 1.09762859e+00,-1.45015311e+00, 1.62939802e-01,
   2.44598106e-01,-1.25683320e+00, 3.40480715e-01,-7.59904385e-02,
   4.71718758e-01, 7.97761679e-01, 6.92490518e-01, 9.74099517e-01,
   4.95112687e-01,-5.75331569e-01, 3.82141359e-02, 3.88720542e-01,
   5.43188930e-01, 9.01912570e-01,-4.00724798e-01, 3.99410993e-01,
  -3.01731288e-01, 8.73964354e-02, 2.71112710e-01,-9.79638472e-02,
  -1.03084373e+00, 7.45288357e-02,-5.29978633e-01,-6.33665621e-01,
   1.17030501e+00,-2.01739237e-01,-6.67329669e-01,-1.47121444e-01,
  -4.06409085e-01, 1.52195886e-01,-2.25489721e-01, 8.84978753e-03,
  -2.92835057e-01, 5.92028081e-01, 1.79479290e-02,-1.63584143e-01,
   5.83230425e-03, 2.57021636e-01, 2.75296420e-01,-2.03833580e-01,
  -1.84805870e+00, 1.73266493e-02, 1.96706563e-01, 5.70694864e-01,
  -5.81769288e-01,-3.22579801e-01,-2.04084352e-01, 6.63207710e-01,
  -6.39187917e-02,-7.75053203e-02,-4.03970629e-01, 2.49266729e-01,
  -6.18949309e-02, 3.82555068e-01, 6.79746807e-01,-1.32343015e-02,
  -7.10430431e+00,-2.07893893e-01,-2.08298668e-01, 1.94975480e-01},
 {-3.61129344e-02,-8.11140314e-02, 4.73338246e-01, 6.58945441e-02,
  -5.36902947e-03, 3.51225317e-01,-6.22556508e-01,-2.83577967e+00,
  -4.15493548e-02, 3.20340514e-01,-4.57586236e-02, 1.95458382e-01,
  -1.13016412e-01, 3.96713763e-02,-1.02084287e-01, 1.95890054e-01,
   8.17489550e-02, 3.92904490e-01,-1.27088115e-01, 4.39156443e-01,
   3.55280936e-01, 1.14050575e-01,-6.76925361e-01,-2.19891056e-01,
   1.67122227e-03, 1.30088240e-01,-4.86894622e-02, 3.28010134e-02,
   5.02574295e-02,-2.18652651e-01,-4.77114581e-02, 3.83019686e-01,
   3.88249218e-01,-1.59840059e+00, 8.45975697e-01,-1.34880900e-01,
   1.59650266e-01, 2.24822834e-01, 1.37896270e-01,-4.74695116e-01,
   8.89743716e-02, 6.64332092e-01,-7.83004463e-02,-4.02103281e+00,
  -2.28695288e-01, 7.05286980e-01,-3.97148341e-01,-1.46664071e+00,
  -4.06318933e-01,-1.20246083e-01, 5.29044867e-01,-3.35655659e-01,
  -8.20530877e-02,-6.01540089e-01, 1.50457621e-01, 4.68758531e-02,
   5.32170296e-01, 4.02686477e-01, 2.17174724e-01, 6.22266352e-01,
   2.11493403e-01, 2.90056348e-01, 3.42792988e-01, 3.83092761e-01,
  -1.81579903e-01, 2.31608629e-01,-8.05651307e-01, 7.40537405e-01,
   2.76478589e-01, 1.18862756e-01,-1.84555784e-01,-5.83514214e-01,
   2.13204473e-02, 5.71829900e-02, 5.25571294e-02, 1.72726870e-01,
   3.55407372e-02, 8.56971860e-01, 4.40364853e-02, 6.94269359e-01,
  -1.53555676e-01, 9.64222908e-01, 6.87637404e-02, 1.35120317e-01,
   3.14933270e-01, 1.79258317e-01, 1.28208056e-01, 3.13613534e-01,
   6.81586027e-01, 6.06311671e-02,-1.38234928e-01, 6.42604008e-02,
   3.16224515e-01,-1.47400871e-01, 2.28763297e-01,-5.83827972e-01,
  -2.87382454e-01, 2.17636988e-01,-2.10143905e-02,-1.05376646e-01,
   1.78726628e-01,-2.48703048e-01,-3.71133387e-02, 7.15718642e-02,
   2.19969466e-01,-2.76215971e-01, 4.84052837e-01, 1.59535915e-01,
  -3.03124499e+00, 4.90860522e-01, 1.31653592e-01, 7.87665136e-03,
  -7.10108802e-02, 4.48210806e-01, 2.13980794e-01, 4.78929192e-01,
   3.80326450e-01, 2.78316408e-01,-2.13402197e-01,-4.34959531e-02,
   2.86719233e-01, 2.25959197e-01, 6.49048574e-03, 1.49741679e-01,
  -1.73495665e-01,-8.31570244e+00, 1.88716531e-01,-1.35788381e-01},
 {-1.28139779e-01, 4.38621402e-01,-5.53105175e-01,-2.87255436e-01,
   3.16591337e-02, 2.71588862e-01, 6.37939125e-02, 9.06196088e-02,
  -6.10868074e-02, 3.78088921e-01, 1.11335345e-01, 4.38040614e-01,
  -5.01308918e-01, 1.83972672e-01,-4.76897433e-02, 3.98844145e-02,
   5.97857237e-01, 1.40121788e-01, 2.12733015e-01, 2.37914667e-01,
  -1.75025359e-01, 2.04923213e-01,-2.68072784e-01, 2.41579741e-01,
  -1.27967849e-01,-9.05858159e-01, 7.44203925e-01,-3.92474174e-01,
   3.00482184e-01,-7.56489158e-01, 3.55357498e-01,-2.55897760e-01,
   5.22283494e-01,-1.42765835e-01, 9.68679115e-02,-2.97455877e-01,
   3.15270662e-01, 4.11966950e-01,-1.68461539e-02,-6.73510283e-02,
   1.03553569e+00, 3.94264370e-01, 8.58075082e-01, 6.78610280e-02,
  -3.16101871e-02, 3.31170291e-01,-5.70335649e-02,-3.24194022e-02,
   2.09225312e-01, 1.08407557e-01, 2.70380735e-01, 2.70887285e-01,
   2.95266528e-02, 1.94085449e-01,-2.66856670e-01,-1.40921175e+00,
   9.60977376e-02, 2.09873572e-01, 3.40170652e-01,-3.96854170e-02,
   3.00661266e-01, 4.90108468e-02, 2.91519575e-02, 1.07871726e-01,
  -1.75979689e-01,-3.90742749e-01, 2.04516444e-02,-2.97457930e-02,
   2.76826859e-01, 5.02260923e-01,-2.74583220e-01, 8.44055861e-02,
   1.06025793e-01, 1.58894122e-01,-1.07616233e-02, 2.95882761e-01,
   3.98840040e-01, 8.82656127e-02,-2.60009408e-01,-1.83637783e-01,
  -1.49859056e-01, 7.35395774e-02,-3.37699545e-03, 3.71096194e-01,
   3.30390036e-01,-1.35244071e-01, 2.44942546e-01,-1.10970125e-01,
  -1.98550239e-01, 4.33331728e-02, 1.19888879e-01, 1.44970074e-01,
   1.16912462e-02,-3.36065948e-01,-2.95872218e-03, 4.92806077e-01,
  -3.30990523e-01, 9.92326811e-02,-2.59079993e-01, 2.53075838e-01,
   2.23462861e-02,-7.60133713e-02, 2.33541489e-01,-2.04967707e-01,
   6.07451797e-01, 2.88813338e-02, 3.42961878e-01, 3.62340510e-01,
   9.07398313e-02,-1.57642037e-01, 2.42261276e-01,-2.15974241e-01,
  -1.12746656e-01, 3.95770967e-01, 3.02165687e-01, 2.34344006e-01,
  -2.14991048e-02,-4.01146412e-02, 4.36981648e-01,-5.37488461e-01,
   2.23402202e-01, 6.47257805e-01, 8.37930441e-02,-8.52561665e+00,
  -4.32813279e-02,-4.69730087e-02,-6.83434457e-02, 1.30055193e-02},
 { 2.01867923e-01, 1.98609218e-01,-7.41436899e-01,-8.15845847e-01,
   5.29135726e-02, 1.39635116e-01, 4.17374372e-01,-2.21959606e-01,
   1.29448920e-02,-4.05213267e-01, 8.99479538e-02, 2.03992635e-01,
   4.09572124e-01, 3.35323721e-01,-1.29916370e-01,-1.26697540e-01,
   5.72961092e-01, 1.61898315e-01, 7.18880668e-02,-3.84569287e-01,
  -1.30374193e-01,-2.77719796e-01, 5.52068874e-02, 1.69104755e-01,
  -5.90669453e-01,-1.45923063e-01,-3.04966599e-01,-8.20241794e-02,
  -2.56825089e-01,-1.36700988e+00, 6.16575897e-01,-8.40065300e-01,
   7.89944082e-02,-1.61915168e-01, 1.87452376e-01, 1.35608166e-01,
   3.86723310e-01,-4.47655231e-01,-1.90758213e-01, 2.83209652e-01,
  -1.74361622e+00,-3.97836082e-02, 1.43323943e-01, 1.93942085e-01,
  -5.63574612e-01,-9.68105569e-02,-7.58336019e-03, 3.89356166e-02,
   7.58858398e-02, 1.21746011e-01, 5.33204317e-01, 1.18384100e-01,
  -5.77334166e-01,-5.08689523e-01, 3.20284553e-02, 3.01735759e-01,
   2.12663949e-01,-2.01998398e-01, 4.52533901e-01,-2.45173603e-01,
   6.24098182e-02,-1.92697917e-04, 2.22578004e-01,-9.76229161e-02,
  -3.02622586e-01, 9.49079022e-02,-3.47735584e-01,-1.47276923e-01,
   6.42431498e-01, 1.33501679e-01,-1.93847263e+00, 3.27113032e-01,
   1.24045424e-01, 9.38234106e-03,-1.52169272e-01,-4.63977993e-01,
   1.83487013e-01, 7.52401128e-02,-3.09159122e-02, 5.35382569e-01,
  -1.18608274e-01, 2.91508459e-03,-5.09452038e-02,-4.40413833e-01,
  -6.56008273e-02,-2.10971981e-01,-1.79931402e-01,-2.82740414e-01,
   4.09178019e-01, 7.81564936e-02,-1.64235985e+00, 1.60048261e-01,
   6.60889089e-01,-7.72618577e-02,-2.63436031e+00,-4.40398693e-01,
   1.00830346e-02, 3.07302147e-01, 1.41203687e-01,-9.15712655e-01,
  -9.64675128e-01,-6.79419875e-01, 4.45693024e-02,-1.27174735e-01,
   3.80864777e-02,-4.62173112e-02, 1.75342098e-01,-5.43836653e-01,
   2.54915833e-01, 1.17251649e-01,-8.43659759e-01, 1.87410101e-01,
  -8.64581168e-01, 3.90310675e-01,-4.13057506e-01,-2.83482760e-01,
   6.39898896e-01,-5.31821072e-01,-1.15464322e-01, 5.63388169e-01,
  -1.84284523e-01, 1.54078543e-01, 3.80702317e-01,-1.90754518e-01,
   1.94352772e-02, 2.53312960e-02, 3.14361155e-01,-1.42344669e-01},
 { 1.16817939e+00,-3.88777792e-01, 8.88438150e-02,-1.66373932e+00,
   7.02266544e-02,-1.00965071e+00,-2.23801330e-01,-2.35337034e-01,
  -1.78582832e-01, 2.22295895e-01,-4.43204403e-01, 9.09641385e-02,
   5.42062283e-01,-2.86006946e-02, 5.29771335e-02, 8.50295722e-02,
  -8.30907166e-01,-2.36758757e-02,-6.91155076e-01,-8.97096545e-02,
  -3.71630907e-01, 1.59096396e+00,-1.12744951e+00,-1.79051220e+00,
   2.65037745e-01, 4.31933761e-01,-8.07740092e-02,-1.40002549e+00,
  -1.34857523e+00, 8.39709401e-01, 1.16070516e-01,-2.64580309e-01,
   2.80296564e-01,-5.50988913e-02,-5.98631799e-01, 1.99734956e-01,
  -5.11637628e-01, 1.57319605e-01, 1.24500819e-01, 4.54593569e-01,
   4.93593067e-01,-9.72316504e-01, 5.41335344e-01,-2.66979970e-02,
  -7.23731756e-01, 1.41961146e-02, 5.16616479e-02,-3.30347091e-01,
   2.30552405e-01, 2.72121374e-02, 1.61175400e-01, 5.98959289e-02,
   2.66964465e-01, 3.62398624e-01,-4.27137911e-01,-2.06347036e+00,
   6.90272927e-01,-6.55718625e-01,-2.67364234e-01,-1.82751104e-01,
  -2.03161836e-01,-1.95302755e-01, 3.87505621e-01, 5.41184545e-01,
   8.64559337e-02,-1.04542077e-02,-8.95886943e-02,-2.48232543e-01,
   2.11207181e-01,-1.94761351e-01, 9.27603096e-02,-9.06315029e-01,
   1.76618863e-02,-7.98859179e-01,-6.11524992e-02,-1.56533942e-01,
  -1.93110898e-01,-4.24617499e-01, 5.01589142e-02, 4.27602857e-01,
   1.93495393e-01,-5.93771785e-02,-7.85621703e-02,-1.56803384e-01,
  -2.46221751e-01, 1.50553763e-01,-1.18994471e-02,-1.25978100e+00,
  -5.53580880e-01,-1.30288541e-01,-5.92075169e-01, 7.44347990e-01,
  -2.16368735e-01,-5.38317323e-01, 1.07908383e-01, 1.23474583e-01,
   3.39752048e-01, 4.16831493e-01,-9.84996334e-02, 7.92549178e-02,
   5.46768785e-01,-5.90462267e-01,-2.57485318e+00, 7.97838941e-02,
   1.64964512e-01, 1.74498651e-02,-6.39859438e-02,-4.49559748e-01,
   8.32020193e-02, 1.94847479e-01, 3.30749124e-01,-1.15367615e+00,
  -3.25893402e-01,-2.48173088e-01, 2.90744036e-01, 3.22035462e-01,
   9.94907916e-01,-1.11677575e+00,-1.21147409e-01,-3.61540020e-01,
  -6.38390899e-01, 4.99250859e-01,-7.85980701e-01, 3.73789400e-01,
  -1.70319900e-01, 1.58153400e-01,-1.90827346e+00,-2.24117741e-01},
 {-1.62451997e-01,-2.39471883e-01,-2.79766135e-03,-2.95265406e-01,
   6.49103671e-02, 9.14569348e-02, 6.00555018e-02,-6.02513671e-01,
   2.24873796e-01, 2.81660914e-01,-2.83572942e-01, 2.80782804e-02,
  -1.00995684e+00, 2.92638421e-01,-2.77220070e-01, 5.29711008e-01,
  -2.61831313e-01, 4.67527248e-02, 1.70567080e-01,-5.48082888e-01,
   2.81665236e-01,-6.18343949e-01,-1.32821262e+00,-5.65030217e-01,
   3.35271478e-01,-1.55241644e+00, 6.39980137e-02,-3.10098350e-01,
   1.30872846e-01,-4.09179181e-01,-4.73006868e+00,-2.79874772e-01,
  -1.55836642e-01, 3.64375502e-01, 1.18677936e-01, 5.62241495e-01,
  -1.28117993e-01, 8.58757123e-02,-1.03647284e-01, 6.97091103e-01,
   2.21302301e-01, 5.12548864e-01, 6.13855898e-01,-2.16943845e-01,
  -2.26626769e-01, 1.95134506e-01,-1.01474568e-01, 1.54543087e-01,
   4.02586371e-01, 1.06082469e-01,-5.83886921e-01,-3.76062870e-01,
  -5.36608696e-02,-1.60553610e+00, 1.01772420e-01,-3.79457057e-01,
  -1.19879103e+00,-5.65573394e-01,-5.14336526e-01, 1.44073576e-01,
   1.11447066e-01,-6.87305689e-01, 1.03202842e-01,-4.45834100e-01,
  -1.23455808e-01,-2.35805698e-02, 4.27490652e-01,-6.34344161e-01,
   1.56862244e-01,-5.77858165e-02,-2.80352712e-01,-2.74914891e-01,
   4.06113952e-01,-1.79182112e-01, 2.29698569e-01,-1.71364933e-01,
  -2.03653984e-02, 9.21813726e-01,-7.08231926e-02, 8.14219341e-02,
   3.22728932e-01, 8.60974312e-01, 1.39838949e-01, 7.18229115e-01,
  -4.60362853e-03, 3.64570245e-02,-8.61449391e-02,-4.02938694e-01,
  -1.19506669e+00, 4.19514179e-01, 1.67008806e-02, 4.06001896e-01,
  -7.35089600e-01,-7.73278475e-01,-2.14182305e+00,-2.87029684e-01,
  -7.23090470e-02,-2.99119409e-02, 4.37362045e-02, 9.66008678e-02,
  -1.34429693e-01, 4.82465506e-01, 2.27402851e-01,-8.67383629e-02,
   1.12127468e-01, 8.64699855e-02,-8.37655514e-02,-4.25431281e-01,
   3.55424851e-01,-5.45238443e-02, 9.16711986e-01,-3.94934326e-01,
  -3.62080336e-01,-2.21898109e-01, 3.25767726e-01,-3.27458531e-01,
  -5.06719291e-01, 8.80263984e-01, 2.27727637e-01, 2.53317267e-01,
  -6.72971547e-01,-1.85794145e-01, 1.85402930e-01, 1.71579197e-01,
  -4.28197086e-02,-2.97593087e-01, 4.62734371e-01, 1.03123002e-01},
 { 2.78581291e-01,-9.15017501e-02, 3.61147642e-01, 1.27875090e-01,
   1.12353313e+00, 3.30385387e-01, 1.07131732e+00, 2.02276349e+00,
  -7.54122883e-02,-2.49145165e-01, 9.22731459e-01, 2.48742297e-01,
   7.72430226e-02, 2.01915562e-01,-3.75773102e-01,-9.86798286e-01,
   6.49626493e-01, 2.36452520e-01,-2.79669672e-01,-1.04420796e-01,
  -1.36963344e+00,-7.50371516e-01, 8.16508114e-01,-2.53492564e-01,
  -2.88356692e-01,-6.66233972e-02, 2.00576819e-02,-6.37916327e-02,
   2.24151477e-01,-1.59510851e-01,-2.15055682e-02, 3.03267032e-01,
  -6.59590721e-01,-1.81997821e-01,-2.17301503e-01, 2.19065279e-01,
  -2.30935290e-02, 4.85875979e-02, 4.81692761e-01,-1.06694043e+00,
   2.11036112e-02,-4.80361164e-01, 3.82711202e-01, 1.93120673e-01,
  -1.36248446e+00,-3.47170711e-01, 8.89971703e-02,-1.00955558e+00,
   5.72482944e-02,-7.62020051e-01, 3.90427023e-01,-1.39505923e+00,
   5.63999295e-01,-2.85585552e-01, 1.82149157e-01,-1.04406647e-01,
   4.03977819e-02, 3.94421011e-01,-1.96187183e-01,-4.54228252e-01,
   6.09420776e-01,-1.01921968e-01,-4.60676998e-01,-1.53933287e-01,
  -6.36024594e-01, 4.42805827e-01,-5.05601287e-01,-1.29139495e+00,
  -1.79248258e-01,-1.14382496e-02, 5.34429669e-01, 4.17425305e-01,
   7.71950066e-01, 2.98424006e-01, 4.25743535e-02,-9.69606116e-02,
   3.79250318e-01,-8.69362414e-01,-3.52048606e-01, 9.25726369e-02,
   1.29695034e+00,-7.34693050e-01,-2.12142968e+00, 3.54521930e-01,
  -1.67141527e-01, 6.49403095e-01, 3.05699587e-01, 2.53780961e-01,
   6.58140704e-02,-1.05499470e+00, 1.85413837e-01, 3.78463529e-02,
   1.28335583e+00,-5.70322514e-01,-3.51753831e-01, 2.64651924e-01,
  -8.91403317e-01, 3.94359343e-02, 1.31374314e-01, 2.11926132e-01,
  -2.28406459e-01, 2.93790668e-01, 2.36598134e-01,-6.04361296e-01,
  -1.37814724e+00, 5.67433715e-01,-1.58158839e-01,-1.22353330e-01,
   5.34540191e-02,-1.43014419e+00,-7.08536446e-01,-2.23553836e-01,
  -3.05789262e-01, 1.06084645e-01, 1.33503377e-01,-3.08381557e-01,
   3.18215266e-02, 9.78516400e-01, 3.55487913e-01,-1.79464340e-01,
  -2.39833862e-01,-9.01352227e-01,-1.67233869e-01, 3.36474180e-01,
  -5.47683418e-01,-6.50771558e-02,-2.69283772e-01, 3.31920013e-02},
 {-5.12032583e-02,-4.84831035e-02,-8.13467279e-02,-9.78335813e-02,
  -1.27405003e-01,-2.32325383e-02,-2.57048681e-02,-1.12988092e-01,
  -5.16114794e-02,-5.30812666e-02,-3.81274410e-02,-8.46126601e-02,
  -5.16728424e-02,-5.25034545e-03,-7.15339184e-02,-3.05581205e-02,
  -5.32558449e-02,-7.76408985e-02,-4.47915159e-02,-9.35937539e-02,
  -8.09078664e-03,-6.38031289e-02, 5.65518253e-03, 4.94822413e-02,
   3.12951766e-02,-5.06850854e-02,-3.48843110e-04,-8.35450292e-02,
   5.31164370e-02,-9.90940630e-02,-1.19912304e-01,-1.10482194e-01,
  -1.25848740e-01,-1.64891873e-02,-6.61085695e-02, 1.00156637e-02,
  -1.65944621e-02,-1.28500685e-02,-3.19330655e-02,-1.04903184e-01,
  -8.51292759e-02, 3.34502794e-02,-7.65893608e-02,-2.91190725e-02,
   3.18055116e-02,-2.18904167e-02,-9.02882591e-02,-5.89236952e-02,
  -1.34352759e-01, 3.45339347e-03,-3.10875978e-02, 3.57593596e-02,
  -5.29468153e-03,-4.29683179e-02,-1.11096732e-01,-4.06710580e-02,
  -2.10298803e-02,-5.04374281e-02,-2.04564035e-02, 4.62083519e-03,
  -8.95495415e-02,-2.19554218e-04, 6.15019277e-02, 1.74608678e-02,
   7.32173920e-02,-1.54334446e-03,-6.97073787e-02,-4.57732826e-02,
  -3.24169248e-02,-5.19016059e-03,-3.42089385e-02, 3.28863300e-02,
  -5.87325767e-02,-6.71199858e-02,-6.40765056e-02,-8.46679658e-02,
  -6.63097799e-02, 2.12854370e-02,-3.23005654e-02,-1.37427077e-01,
  -8.75460953e-02,-7.21275155e-03,-1.21692605e-01,-9.61666331e-02,
  -5.26984483e-02, 7.31059834e-02,-8.38174596e-02,-5.38799912e-02,
  -5.96809462e-02, 2.32065618e-02,-2.52076015e-02, 1.70443505e-02,
   2.11150870e-02, 1.25355590e-02, 2.49057487e-02,-2.82069556e-02,
  -1.82559271e-03,-3.63510363e-02,-1.11035496e-01,-5.64592406e-02,
   7.30181411e-02,-9.43746194e-02,-7.50473887e-02,-1.30561128e-01,
  -5.77177852e-03,-8.26715976e-02,-4.52719927e-02, 3.85881923e-02,
   3.66073474e-02, 1.81857683e-02, 1.51348412e-02,-9.85216871e-02,
  -5.22641949e-02,-1.15717486e-01,-9.73529965e-02, 1.90110523e-02,
  -5.40843271e-02, 7.52242059e-02,-6.44313097e-02,-1.18235737e-01,
   7.61857629e-02,-9.79055464e-02, 7.52124116e-02,-6.37232326e-03,
  -8.05616751e-02, 3.78697030e-02,-5.83734438e-02,-9.38901678e-02},
 {-1.83964622e+00,-7.25661755e-01,-3.48093361e-02,-6.67153358e-01,
  -8.85225087e-02,-2.50330150e-01,-1.24947168e-01, 1.73511490e-01,
  -8.08164850e-02,-6.38320863e-01,-1.12011284e-01, 4.74765152e-01,
  -2.55715847e-01,-6.34986639e-01,-3.69248283e-03, 3.55900675e-02,
  -2.93734848e-01,-3.29098046e-01,-2.10920975e-01,-5.18448234e-01,
  -5.62562406e-01, 7.47873306e-01,-5.11574328e-01,-1.24062888e-01,
   1.37689203e-01,-2.59942198e+00,-6.92886055e-01,-8.04549634e-01,
  -1.86644197e+00,-1.47364485e+00, 8.25200453e-02,-8.61579299e-01,
  -3.74213040e-01, 7.66040459e-02,-5.61408326e-02, 3.34952712e-01,
  -5.24091363e-01,-9.44963813e-01, 3.36771011e-01,-1.07414448e+00,
  -1.75704166e-01,-4.12547141e-01, 9.82716501e-01, 4.54237193e-01,
  -7.25551844e-01, 4.78258073e-01, 1.94947690e-01, 3.61074090e-01,
  -5.19693732e-01, 2.47527584e-01, 3.81233722e-01,-6.41551316e-01,
  -2.36478165e-01, 1.73889235e-01,-7.12253690e-01,-2.15879726e+00,
  -2.42850900e-01,-6.37643695e-01,-1.99002445e-01, 2.04371259e-01,
   3.77453744e-01, 3.58771712e-01,-1.33430511e-01,-1.88686952e-01,
   6.73365712e-01,-7.45833397e-01,-9.35091674e-01,-3.68208319e-01,
   1.06402040e-01,-2.64718562e-01,-5.53378940e-01,-1.21371590e-01,
   4.56542760e-01, 1.85269415e-01,-1.14436939e-01, 2.34553497e-02,
   1.25442356e-01, 2.96040058e-01,-1.50050342e-01,-7.35230893e-02,
   9.80684280e-01, 9.05609801e-02, 3.78613800e-01,-1.38629615e-01,
   2.02188760e-01,-6.67415485e-02,-4.76653188e-01,-3.27904129e+00,
  -1.05381655e-02, 1.18987024e+00, 1.02316737e+00,-3.03243160e-01,
  -1.97089031e-01,-1.33373588e-01, 5.80920100e-01,-1.86398566e-01,
   1.90769937e-02, 2.04190642e-01, 2.88982093e-01,-1.60894525e+00,
   3.65547448e-01,-3.89803737e-01, 3.41563761e-01,-1.54591179e+00,
   2.56090432e-01,-3.32294911e-01, 3.84891123e-01,-5.40327374e-03,
   2.51285493e-01, 3.54024708e-01,-4.99480754e-01, 3.48901421e-01,
  -4.90943730e-01,-3.56415123e-01,-4.53765512e-01,-7.04344273e-01,
   1.80961475e-01,-1.29998639e-01,-8.32039535e-01,-1.01140559e-01,
   3.89561594e-01, 1.07391983e-01, 2.09526896e-01, 2.42697030e-01,
  -1.70427248e-01, 1.59185350e-01,-1.39579356e+00,-7.18001276e-02},
 {-1.14586115e+00, 8.80220354e-01,-2.42343992e-01,-3.20726126e-01,
   1.55466616e-01, 9.18321311e-01,-1.01367179e-02,-6.12447500e-01,
  -6.77917838e-01, 6.54139996e-01, 3.78477454e-01,-1.13409162e+00,
   2.60750502e-01, 6.92897290e-02,-1.02079302e-01,-9.13236737e-02,
   4.37455922e-01, 2.38561928e-02,-9.53757539e-02,-9.08570409e-01,
  -5.49601078e-01,-5.84525526e-01, 1.69587955e-01, 4.19151843e-01,
  -6.12829208e-01,-1.17921698e+00, 8.71206999e-01,-1.29441726e+00,
   8.25669646e-01,-4.35855210e-01, 4.61023778e-01,-7.80491412e-01,
   9.96223018e-02, 2.46178642e-01, 8.14576745e-02, 7.37905204e-02,
   2.56132007e-01,-2.77108610e-01, 1.34526536e-01,-8.95152271e-01,
  -1.42487514e+00,-1.88287795e+00, 2.65910506e-01, 1.18935285e-02,
  -1.82355523e+00,-1.35983908e+00,-1.27000943e-01, 1.55370697e-01,
  -1.20437052e-02, 1.30352885e-01, 8.14999163e-01,-3.88598263e-01,
  -1.75268501e-02,-9.89398479e-01, 2.48947352e-01,-6.78906441e-01,
   2.98830986e-01, 2.16386646e-01,-2.17168838e-01,-8.18274736e-01,
  -8.24756742e-01, 3.39488685e-01, 6.45350456e-01,-4.90296572e-01,
  -2.37646118e-01,-5.20547815e-02,-2.50206925e-02,-1.52992487e-01,
   2.06051841e-01, 5.39875686e-01,-1.77169845e-01, 1.48920119e-01,
   2.30912995e-02, 6.29363805e-02,-4.34492528e-02,-3.46484661e-01,
  -3.17910574e-02, 3.68189901e-01, 2.22458884e-01,-1.14360631e-01,
   2.45268807e-01, 7.76125817e-05,-8.56164157e-01,-1.45053267e-01,
   9.81261954e-02,-1.69672165e-02,-5.64209342e-01,-1.75216421e-01,
   1.79532811e-01,-1.13662414e-01,-9.25364971e-01,-1.48967400e-01,
   2.89274845e-02, 2.70132273e-01,-1.13392425e+00,-6.42073870e-01,
   2.42409945e-01, 3.62980276e-01,-4.10026759e-01,-3.56093454e+00,
  -6.25312179e-02, 1.36216283e+00, 6.63271606e-01, 5.05876184e-01,
  -1.65421355e+00,-1.35454252e-01, 5.01953781e-01, 4.04252764e-03,
  -1.97371423e-01, 3.65348309e-01,-1.57983816e+00, 5.46123385e-01,
  -1.45965099e+00,-1.94027752e-01,-4.73367393e-01,-4.61860560e-02,
  -6.43982664e-02, 6.24286979e-02,-2.60253608e-01, 3.36957425e-01,
  -1.93017036e-01,-4.65642601e-01, 1.17792261e+00,-8.25110495e-01,
   1.81705788e-01,-1.33279204e-01,-3.32272410e-01, 2.50067919e-01},
 { 9.34953928e-01, 1.74266145e-01,-4.42218870e-01, 5.65236509e-01,
   7.55473256e-01, 7.11980581e-01, 3.94175351e-01,-6.75564468e-01,
  -8.36845040e-01, 4.71246690e-01, 4.04977888e-01, 2.75708526e-01,
   8.47909898e-02, 7.91570663e-01, 1.93925604e-01, 1.43419802e-01,
   4.18265462e-01,-2.53111333e-01, 2.85316348e-01,-3.36843431e-01,
  -4.12759185e-02,-5.03295422e-01,-2.73771044e-02,-1.33129880e-02,
  -4.19873260e-02, 3.01591486e-01,-9.65720341e-02,-5.08464277e-01,
  -8.15272391e-01,-3.00733875e-02, 2.78001372e-02, 3.80129129e-01,
   1.19697899e-01, 2.27313921e-01,-4.26629663e-01, 2.01525018e-01,
   5.76633692e-01,-8.67466331e-01,-4.25507635e-01, 1.49394162e-02,
  -7.82314539e-01,-4.18786526e-01,-2.99023449e-01, 4.04275388e-01,
  -3.68202597e-01, 3.51062596e-01,-1.59380570e-01, 8.71103927e-02,
  -3.91628258e-02, 4.56770599e-01,-9.44300964e-02, 6.86497867e-01,
   1.31832227e-01, 2.75452316e-01, 9.75798011e-01, 3.12889427e-01,
  -3.55957031e-01, 3.76434103e-02,-2.54987955e-01,-4.65009034e-01,
   1.44660696e-01, 4.34897393e-01, 1.41235411e-01,-2.20620945e-01,
  -2.70194173e-01,-1.73606470e-01, 2.07869276e-01,-1.09719388e-01,
   8.21092874e-02,-7.20770955e-02,-1.13830066e+00,-2.77562112e-01,
   1.35007024e-01,-5.47235012e-01, 1.10540323e-01, 7.04358935e-01,
  -1.64883301e-01, 1.32834122e-01, 9.02066901e-02,-1.45523936e-01,
  -7.56025612e-01,-9.80599001e-02, 1.00983784e-01,-9.30709958e-01,
  -8.51633072e-01,-2.18929321e-01, 9.92169499e-01,-1.37521172e+00,
   6.27000704e-02,-1.19904272e-01,-6.35867774e-01, 1.70754060e-01,
   2.81947870e-02,-2.66456246e-01,-6.05041444e-01,-2.64754355e-01,
   3.47581387e-01, 5.24073124e-01, 2.29979590e-01, 3.09698194e-01,
  -1.40561193e-01, 4.06455807e-02,-3.12305164e+00, 3.79768133e-01,
  -1.95679575e-01,-7.62764886e-02,-3.57776284e-01,-1.12166435e-01,
  -3.70749116e-01, 1.34707913e-01,-5.73592961e-01, 2.44394168e-01,
  -4.95694071e-01, 4.41371858e-01,-2.42464349e-01,-4.66203332e-01,
   6.60764575e-02, 2.76570648e-01, 3.57516646e-01, 4.84823100e-02,
   1.09241366e-01, 8.14766362e-02, 7.03994572e-01,-1.38490126e-01,
   1.43129796e-01,-8.56328383e-02, 3.27033907e-01, 1.51385114e-01},
 { 1.76579580e-02,-2.27180183e-01, 2.09655926e-01,-4.23818193e-02,
  -2.58035004e-01,-1.70676023e-01,-4.61719155e-01,-1.17827857e+00,
   2.16883197e-01,-1.24112062e-01,-7.28958905e-01, 1.96600735e-01,
  -1.83314943e+00,-1.03918482e-02,-4.19802397e-01, 2.87271649e-01,
  -2.51457155e-01,-8.33386719e-01, 1.54848382e-01, 4.63470578e-01,
   6.91531673e-02, 1.93884864e-01,-2.27236390e+00, 7.22161531e-02,
   8.86239648e-01, 4.87636328e-01,-1.15535222e-01, 1.44287610e+00,
  -3.13397437e-01,-5.76636255e-01, 1.18411079e-01, 4.02478039e-01,
   1.66960314e-01,-2.39500672e-01,-3.12075406e-01, 3.39493543e-01,
   3.11361223e-01,-1.61042199e-01,-5.70602894e-01,-1.54061113e-02,
  -2.55529284e-01, 1.40014261e-01, 4.17139769e-01,-8.59129190e-01,
  -5.68655729e-02, 8.58420312e-01, 3.82060409e-01, 4.46961612e-01,
   8.02543238e-02,-2.63896137e-01,-6.40647173e-01, 8.34901392e-01,
  -1.12576044e+00, 5.01756191e-01,-3.14821690e-01, 4.91524458e-01,
  -2.70761418e+00,-5.12130797e-01,-3.04650784e-01, 5.61617315e-02,
  -8.01978260e-02,-1.85718328e-01,-1.23938635e-01, 4.93856609e-01,
  -3.16383272e-01, 4.11669105e-01, 7.21671045e-01,-3.30345184e-01,
  -9.80145395e-01, 3.74935567e-01, 3.29580277e-01, 9.64734927e-02,
  -7.95226812e-01,-4.95934755e-01, 2.13671789e-01,-2.66348869e-01,
   2.11980790e-01, 1.05925643e+00, 3.91367197e-01,-4.59477961e-01,
  -8.18466306e-01,-1.02088787e-01, 4.69220489e-01, 4.73107606e-01,
   2.38545820e-01,-6.84439540e-01,-3.38063226e-03,-5.39774835e-01,
   5.75447023e-01, 3.80375475e-01, 9.24405605e-02, 5.23479164e-01,
  -5.57139635e-01, 9.51429963e-01, 1.22790143e-01,-8.50191534e-01,
   4.01850283e-01, 1.76733226e-01,-5.33047557e-01, 2.11599320e-01,
  -1.32539347e-02, 6.01575315e-01,-1.45084232e-01,-2.31069461e-01,
   1.01831234e+00, 1.41228330e+00, 2.27802217e-01,-3.50540876e-01,
  -5.80981731e-01,-1.62963963e+00,-1.03445090e-01,-2.18940377e-01,
   1.87958837e-01, 6.44747913e-01,-1.19608685e-01, 3.03453982e-01,
   4.97234166e-01,-5.32517076e-01, 4.72454250e-01,-4.47468042e-01,
  -1.55233932e+00,-3.59265983e-01,-4.90519963e-02, 1.68692216e-03,
  -2.60588080e-01,-3.70314956e-01, 2.30850130e-01,-2.21543148e-01},
 { 2.10405409e-01, 1.40884481e-02,-3.52598935e-01, 1.22410782e-01,
  -2.86283225e-01, 9.95760113e-02,-1.12325776e+00,-5.21857691e+00,
   1.94070160e-01,-1.81389868e-01, 1.60815064e-02,-2.08235309e-01,
  -4.85695183e-01,-3.07912797e-01,-7.88805902e-01, 1.02921546e+00,
  -1.01517212e+00, 4.93191667e-02, 1.06891048e+00,-1.68612570e-01,
   1.38566613e-01, 1.22343048e-01,-4.86559600e-01, 7.40081593e-02,
  -6.01307213e-01, 3.94479781e-02, 2.86128074e-01,-2.63848662e-01,
   8.04989859e-02,-2.83105671e-01,-2.10916042e-01, 6.18156791e-01,
  -5.13552368e-01, 8.46304953e-01, 9.30239558e-02,-3.15588377e-02,
   5.29310346e-01,-4.46713120e-02,-2.35911548e-01,-3.18179578e-01,
   1.17959514e-01, 2.56840345e-02,-1.18651755e-01, 4.35370266e-01,
   2.73984939e-01,-2.24478871e-01, 1.61400020e-01, 4.22132254e-01,
  -4.27698940e-01,-2.89784074e-01,-5.33119977e-01,-2.48168036e-01,
   5.68246603e-01, 1.68293387e-01,-2.61808425e-01, 1.13563403e-01,
   7.79357195e-01, 6.64796159e-02, 5.55788159e-01,-2.03777805e-01,
   2.67800242e-02,-9.75668058e-02, 5.03498554e-01,-4.74892527e-01,
  -1.12636185e+00,-7.98209608e-01, 2.92608798e-01,-1.36682227e-01,
  -1.66895092e-02, 1.97957799e-01,-2.32838243e-01,-8.21907699e-01,
  -2.71999061e-01,-2.45687664e-01,-6.77868426e-01, 3.00860792e-01,
  -9.71105993e-01, 2.04871511e+00, 1.48244798e-01,-2.31604457e-01,
  -2.19700074e+00, 1.20634496e+00,-1.06860781e+00, 6.40702128e-01,
   6.83310330e-02,-2.40194172e-01,-1.01925813e-01, 2.70418823e-01,
   4.88984399e-02,-6.12142682e-01, 1.49456456e-01,-5.82312904e-02,
  -1.53645790e+00, 4.15289819e-01, 3.89496714e-01,-8.71706083e-02,
   2.57404417e-01, 4.28635716e-01, 2.64542997e-01, 1.44830823e-01,
  -6.77400947e-01,-3.13527659e-02,-6.16014674e-02, 5.49037814e-01,
   9.72414792e-01,-5.72280467e-01, 1.03548147e-01,-8.47494602e-01,
   5.30727506e-02,-4.02222008e-01, 1.11149818e-01, 3.85593891e-01,
  -5.76172210e-02, 6.05433527e-03, 1.26817390e-01, 2.79205203e-01,
   2.59142101e-01,-1.03260003e-01, 2.68484384e-01,-1.77968055e-01,
   4.54177469e-01,-5.32965846e-02, 5.01365997e-02, 3.82172465e-02,
  -3.33267570e-01, 1.72710791e-02,-1.35066807e-01,-1.27122736e+00},
 { 8.30467343e-02,-3.09404165e-01, 4.05282117e-02,-6.06013369e-03,
  -1.37507021e-01,-1.92351602e-02, 9.10354614e-01, 1.70443022e+00,
  -2.29124337e-01,-1.18140481e-01,-2.20131978e-01, 4.96587120e-02,
   2.53152251e-01, 2.15883449e-01,-2.28056765e+00,-4.25730419e+00,
   2.43998349e-01, 5.64024866e-01, 5.46644568e-01,-2.21591249e-01,
  -4.19451058e-01, 2.51820058e-01, 1.13343298e+00,-4.15756375e-01,
   6.68644071e-01, 2.10837230e-01, 6.90901652e-05,-1.22763611e-01,
   7.49256313e-02, 1.63098767e-01,-1.55110911e-01, 1.31214440e-01,
  -4.32391405e-01,-1.17573643e+00, 3.17405075e-01, 3.54114920e-01,
   4.18283865e-02, 1.33707270e-01, 3.83072615e-01, 2.55391032e-01,
  -3.78994435e-01,-1.12861860e+00,-3.60897452e-01, 1.34062636e+00,
  -3.37994546e-01, 1.62575558e-01,-3.92407715e-01,-5.74589670e-01,
  -2.49112248e-01,-3.31733018e-01, 2.36457363e-01, 1.26109064e-01,
   3.18978518e-01,-4.52242225e-01, 3.29206958e-02,-5.25441527e-01,
  -1.52241200e-01, 7.37776577e-01,-3.07166368e-01,-6.28852904e-01,
   1.82801172e-01,-1.12009704e+00,-1.62476569e-01,-1.64932460e-01,
  -1.85536408e+00, 2.96967357e-01, 7.02472776e-02,-1.01992786e+00,
  -4.92491990e-01,-4.39421564e-01, 3.51592362e-01,-7.44589388e-01,
  -1.22837529e-01, 8.20544064e-02,-2.00596705e-01, 5.07294238e-01,
  -6.93982840e-02,-3.31677079e+00,-5.82537115e-01, 1.48128688e-01,
  -7.19924748e-01, 1.94058046e-01,-7.60568585e-03,-8.02317619e-01,
   1.06440254e-01,-5.40626943e-01,-9.12113562e-02,-1.90095857e-01,
  -3.31790984e-01,-1.37324510e-02, 7.09110079e-03,-8.71147513e-01,
  -3.88581783e-01,-4.60063159e-01, 1.85443133e-01,-2.65487760e-01,
  -4.19170670e-02,-1.37687013e-01, 2.87469000e-01, 1.93549003e-02,
   1.41529664e-01, 6.08460456e-02, 7.88178891e-02,-4.96112287e-01,
  -1.13205090e-01,-1.80515245e-01, 2.01824401e-02,-4.53011900e-01,
   1.96573541e-01, 3.03454608e-01,-7.96510801e-02,-1.46572620e-01,
  -6.86034262e-02, 2.46070296e-01, 2.14909241e-01,-7.56555974e-01,
   3.63786250e-01, 8.28094423e-01, 1.03892788e-01, 2.83993095e-01,
  -2.80010670e-01,-6.48071766e-01, 4.24067974e-01, 1.98177636e-01,
  -2.39565158e+00,-2.76471436e-01, 1.73970371e-01, 2.91305602e-01},
 {-6.05594754e-01, 2.41698146e-01,-1.24877143e+00, 3.65584403e-01,
  -4.02568668e-01,-3.46789986e-01,-5.05567417e-02,-6.97115719e-01,
  -1.87239006e-01, 1.57280445e-01,-6.00637317e-01, 4.15984243e-02,
   5.79668403e-01, 1.23918904e-02,-5.43797851e-01,-2.01226458e-01,
   1.60090595e-01,-8.52263644e-02,-5.83953142e-01,-2.27758139e-01,
   3.57082933e-01,-2.50555545e-01,-9.94601429e-01,-2.62003332e-01,
   5.02087057e-01,-3.83980870e-01,-9.41451117e-02,-9.99864578e-01,
   4.15972620e-01, 2.58520156e-01, 3.78391981e-01,-5.73161602e-01,
   3.25556882e-02,-1.50922865e-01,-2.33474508e-01, 1.04246639e-01,
   2.19484568e-01, 8.06125104e-01,-7.12908328e-01, 7.25878179e-02,
   8.46949100e-01,-2.16794893e-01, 1.00428119e-01,-3.86803448e-01,
   3.15539241e-01, 3.83156717e-01, 8.25206488e-02,-8.42577964e-02,
  -3.43171358e-02,-1.23246217e+00,-7.00198114e-02, 6.43953979e-01,
   2.16866508e-01,-1.05293143e+00, 2.91184992e-01,-4.57363613e-02,
  -1.20213866e-01, 4.23463993e-02,-3.06760490e-01,-6.37140751e-01,
  -2.97000259e-01, 2.34616652e-01, 4.49156128e-02,-7.43368208e-01,
   1.96975768e-01, 2.01152146e-01, 2.35546306e-01,-6.15797579e-01,
   2.33736753e-01, 4.40060824e-01,-6.35364115e-01, 1.91510156e-01,
  -7.80439079e-01, 3.64318758e-01, 4.16085832e-02, 7.41270259e-02,
   1.11456305e-01, 7.05576360e-01,-1.84208751e-01, 1.82781264e-01,
   1.69504836e-01,-3.67574871e-01,-1.05855882e+00, 1.34725702e+00,
  -1.16910890e-01,-9.80223298e-01,-8.83697987e-01,-4.55280215e-01,
  -3.09739798e-01,-9.93745744e-01,-4.89768028e-01, 4.27340269e-01,
  -7.67956853e-01, 4.98625010e-01, 1.22885473e-01, 4.64798659e-01,
   5.92518747e-01,-1.35872021e-01,-1.98290586e+00,-2.87834793e-01,
   3.78862649e-01,-1.63465679e+00, 1.91515684e-01, 1.42818794e-01,
  -6.74301118e-04,-6.51020706e-02,-3.45312059e-01,-1.32554126e+00,
  -1.24545574e+00, 3.66839051e-01,-1.36756450e-01,-1.83127880e-01,
  -2.18802929e-01, 4.82116312e-01, 5.71607769e-01, 8.90623704e-02,
  -4.10630226e-01,-6.18639104e-02, 1.54097140e-01, 1.82356849e-01,
  -9.21653330e-01, 2.10709482e-01, 6.09577477e-01,-5.15153706e-01,
  -2.86396265e-01,-5.80360234e-01, 2.46097028e-01, 1.16815114e+00},
 {-9.17586163e-02, 3.99223492e-02, 4.72487748e-01,-1.09029901e+00,
   1.65356159e-01,-1.94021672e-01, 3.68858725e-01, 8.08844328e-01,
   3.99245292e-01, 9.59271938e-02, 2.92465359e-01,-1.19858968e+00,
  -1.63489270e+00, 6.11152239e-02,-3.74496818e-01,-3.25205624e-01,
  -5.79985321e-01, 4.38982159e-01, 3.41878474e-01,-4.83689070e-01,
   4.58360591e-05, 4.45930898e-01, 3.70547026e-01, 1.24277616e+00,
  -2.85158277e-01,-2.31328160e-01,-1.75920501e-02, 3.41364354e-01,
   6.13896966e-01, 3.92243892e-01,-5.85906170e-02, 5.63001573e-01,
  -1.38384712e+00,-7.45506585e-01,-5.12360334e-01, 3.19098085e-01,
   9.47444677e-01,-8.47687200e-02,-2.30654567e-01,-1.79767802e-01,
   6.08758509e-01,-1.32756352e+00,-7.92312920e-02, 7.90953577e-01,
  -1.84763044e-01, 2.75385737e-01,-7.53029466e-01,-4.78341043e-01,
  -1.15285978e-01, 2.92618692e-01,-3.62783968e-01,-1.21769786e+00,
   8.11620295e-01,-1.39098004e-01,-7.43576646e-01, 1.41319171e-01,
  -8.06336582e-01,-7.36250520e-01,-1.58166796e-01, 5.17673269e-02,
  -2.92333245e-01,-1.35061896e+00,-6.48833588e-02,-4.88304943e-01,
   2.04469174e-01, 4.66439873e-01,-3.62648129e-01,-2.94433624e-01,
  -1.39379740e+00, 5.07865660e-02, 4.49937612e-01,-2.54036260e+00,
  -8.51718336e-02, 3.59194607e-01,-1.88963935e-01, 1.32347405e-01,
   9.60374810e-03,-1.06489325e+00,-1.05131555e+00,-6.34745657e-01,
  -5.53982100e-03, 6.88341856e-02, 7.07294345e-01,-1.38253167e-01,
   2.21990660e-01,-2.71564752e-01, 4.61488254e-02, 2.97507674e-01,
  -3.40818316e-01, 6.91465735e-02, 4.91781563e-01,-3.46320450e-01,
   3.61266345e-01, 3.77461053e-02, 7.45082140e-01, 3.10134053e-01,
  -9.82881114e-02,-2.03709856e-01, 1.54008955e-01,-5.29758871e-01,
   3.49071920e-01, 5.64607978e-01, 4.68198210e-02,-7.61676073e-01,
   1.16752017e+00,-1.53661668e+00, 5.20986021e-01,-6.98282480e-01,
   1.71077028e-01, 1.18543613e+00,-4.61000562e-01,-3.04553658e-01,
  -1.33847877e-01, 9.71340016e-02,-1.23519346e-01,-2.08481532e-02,
  -3.36231291e-01,-6.69143617e-01,-1.36697087e-02,-3.80842596e-01,
  -4.43955153e-01, 6.71650767e-02, 4.64584470e-01,-1.83525598e+00,
  -2.72523642e-01,-6.28778199e-03, 8.64647478e-02, 4.06131089e-01},
 { 6.69673756e-02, 3.07594538e-02,-4.18129340e-02, 6.21401928e-02,
  -5.47382107e-04,-7.96913058e-02,-6.14184812e-02,-8.98697414e-03,
  -6.88503683e-02,-4.56518643e-02, 5.28818332e-02, 6.21345919e-03,
   2.42842175e-02,-9.25719365e-03,-6.05151542e-02, 4.50662784e-02,
  -2.92291231e-02,-2.72673927e-02,-6.13195077e-02, 1.88394655e-02,
  -7.20410869e-02, 6.49804994e-02, 4.76815477e-02, 1.60464365e-02,
   1.96643341e-02, 3.02413348e-02,-4.33186553e-02,-9.47487876e-02,
  -3.33052091e-02, 2.26490349e-02,-7.35674948e-02, 2.59335153e-03,
   4.77257669e-02, 2.78534181e-02,-1.93389846e-04,-1.13990009e-02,
   5.84718399e-03,-3.18220146e-02,-2.84381676e-02,-6.74253255e-02,
   4.05703075e-02, 3.03553361e-02, 1.57601628e-02,-2.66035963e-02,
  -7.49237463e-02,-9.87150297e-02,-3.32964025e-02,-7.09488913e-02,
  -7.85451159e-02,-3.60462070e-02,-2.89399717e-02,-3.80120985e-02,
  -9.20386985e-02, 4.42309817e-03,-8.74044374e-02,-6.70780838e-02,
  -5.14915213e-02,-4.51327302e-03, 9.13937576e-03,-2.32931525e-02,
  -2.72160508e-02,-7.55012333e-02,-4.72502373e-02,-1.60303414e-02,
  -9.52598173e-03,-1.37520418e-01,-7.28272498e-02, 5.70517927e-02,
  -1.61238257e-02,-1.63727477e-02,-2.67726257e-02,-3.89600843e-02,
  -1.42679028e-02,-9.63184610e-02,-7.89255798e-02,-9.69337448e-02,
  -7.49823600e-02,-5.37202358e-02,-5.47351129e-02, 1.71619393e-02,
  -1.16921924e-02,-5.92920519e-02,-2.23394576e-02, 1.07600186e-02,
  -3.66525203e-02,-5.09063788e-02,-2.32993513e-02,-8.11564326e-02,
  -1.78956687e-02,-9.12929028e-02,-5.69793917e-02,-7.23947436e-02,
   6.02989569e-02,-8.87874067e-02, 3.76462676e-02, 1.67546049e-02,
  -7.57783353e-02, 6.11094721e-02,-3.82280387e-02,-8.04178268e-02,
  -2.39904113e-02, 1.09244576e-02,-9.94768366e-02,-5.88859394e-02,
   2.62771156e-02,-4.62826602e-02,-7.37810275e-03,-8.97557512e-02,
  -7.31875971e-02, 4.44926396e-02,-7.46860951e-02,-4.85133417e-02,
   1.02674710e-02,-6.98364079e-02, 3.70548875e-03,-9.98569429e-02,
   3.27074639e-02, 1.69965252e-02,-1.91416349e-02,-1.23114608e-01,
  -2.61601843e-02, 2.46034935e-02,-5.88997602e-02,-6.11239932e-02,
  -1.12306908e-01,-1.44219592e-01,-2.13517826e-02, 6.09341450e-02},
 {-2.53668845e-01, 3.57567191e-01,-1.14880666e-01,-3.55963558e-01,
  -3.17917407e-01, 2.23297060e-01,-1.07838356e+00,-6.60341792e-03,
  -8.84755552e-01,-3.56053650e-01, 5.49572647e-01,-5.58190227e-01,
   7.86266804e-01,-2.95669645e-01,-3.05194587e-01, 4.37579960e-01,
   3.87668461e-01, 5.85282207e-01, 3.02872807e-01, 7.06636429e-01,
   1.43468864e-02,-1.70855910e-01,-2.17458606e+00,-6.23304725e-01,
  -7.69868717e-02, 3.26420575e-01,-5.59940264e-02,-5.18755913e-01,
   2.80228853e-01,-1.05287802e+00,-1.36163783e+00,-1.24346077e+00,
  -5.16329259e-02, 1.13876551e-01,-5.32522380e-01,-4.07898992e-01,
   4.79752570e-02,-7.23524809e-01,-6.65652156e-01, 1.91396847e-01,
   6.65449858e-01,-4.61766571e-01, 4.22233582e-01,-7.31187403e-01,
   1.33533224e-01, 1.15336655e-02, 2.41819248e-01,-6.17108881e-01,
  -4.24572468e-01,-4.25764561e-01,-5.38252771e-01, 1.94633573e-01,
  -2.08455414e-01,-1.32946849e+00,-1.06556368e+00, 1.92140299e-03,
  -1.35895991e+00,-8.71195495e-01,-4.61538583e-01, 4.38475788e-01,
  -8.54622722e-01,-3.46665651e-01, 8.03631902e-01, 9.20978248e-01,
  -1.52121797e-01, 6.80040002e-01, 1.58432022e-01, 1.48926467e-01,
  -2.60132074e-01,-2.24592626e-01,-7.88162708e-01,-4.88203056e-02,
  -3.91628891e-01, 2.77010232e-01,-2.74053246e-01, 8.29171985e-02,
   6.10659540e-01, 8.73545706e-01, 5.87136030e-01,-3.75362664e-01,
   1.58287600e-01,-1.12766945e+00, 1.44723235e-02, 9.46712717e-02,
  -3.27688716e-02,-2.74987638e-01,-1.74326628e-01,-2.55341351e-01,
   5.11960268e-01, 5.99067986e-01,-2.03462690e-02, 2.49856859e-01,
   1.43036738e-01,-5.82008600e-01, 6.90482736e-01, 2.32501060e-01,
  -8.93860236e-02, 5.18434525e-01,-6.15238488e-01, 1.61615476e-01,
  -4.11489189e-01, 9.46984142e-02, 8.69721919e-02, 3.67852241e-01,
  -4.33153510e-01,-3.40023041e-02, 4.14423585e-01,-4.11584765e-01,
  -1.81865335e-01,-1.14329278e+00, 2.36695543e-01, 2.37967968e-01,
   4.19708818e-01,-4.24370468e-01, 4.35202777e-01, 3.58296745e-02,
  -7.70004690e-01,-1.07893251e-01,-7.38981366e-01, 1.53929427e-01,
  -6.91270292e-01, 1.94434777e-01,-1.19688846e-02, 2.46582493e-01,
  -2.93368965e-01,-1.59342781e-01,-8.26687664e-02, 5.86697221e-01},
 {-1.23548460e+00,-5.70602536e-01, 8.88018385e-02,-7.86427200e-01,
  -4.10412371e-01,-4.99866754e-01,-5.95329255e-02, 6.70594335e-01,
   3.38316828e-01, 2.93831676e-02,-2.36477941e-01,-8.43718290e-01,
  -1.28144515e+00,-1.47589162e-01,-2.90099233e-01, 5.35082519e-01,
  -2.38653570e-01, 2.08650738e-01,-4.14832756e-02,-9.44487099e-03,
  -2.75200009e-01, 1.12452722e+00, 1.28947198e-01, 1.00324288e-01,
  -7.30410278e-01, 2.49086112e-01,-1.66336250e+00, 2.38381743e-01,
  -6.54245555e-01, 4.56964463e-01,-2.87941694e+00, 1.09621084e+00,
  -7.01905608e-01,-4.51543421e-01, 4.99113202e-02, 3.07752192e-01,
   1.01453565e-01,-1.95269775e+00,-3.26225042e-01,-7.35324681e-01,
  -1.31703138e+00, 1.29215300e-01, 5.20352600e-03, 3.21065694e-01,
   5.38051963e-01,-5.31913161e-01, 1.86332449e-01, 1.01794697e-01,
  -7.16645360e-01,-1.00763328e-01, 2.61284918e-01,-2.85620451e-01,
  -6.22986555e-01,-1.29546031e-01,-2.45390996e-01, 1.35139912e-01,
   1.68950871e-01,-1.09176314e+00, 3.51943702e-01, 1.74361035e-01,
   3.90280157e-01, 9.49669164e-03,-2.82220483e-01,-2.57123262e-01,
   2.78512985e-01,-4.13874358e-01,-6.05721653e-01, 3.44177514e-01,
   2.62071677e-02,-6.10028565e-01,-5.39440870e-01, 1.76141545e-01,
  -4.12894249e-01,-1.13688201e-01, 6.20326161e-01,-1.24502718e+00,
   2.58581489e-01, 9.06802043e-02,-3.24297756e-01, 5.57673573e-01,
   2.07160115e-01, 2.43828923e-01,-6.36410415e-01, 3.18967491e-01,
  -3.07160950e+00,-1.00544238e+00,-8.79026949e-01,-3.02013189e-01,
  -2.21480995e-01,-4.28060204e-01, 3.42247725e-01,-3.00184160e-01,
   7.45291263e-02,-2.13975571e-02,-1.37429452e-02,-4.31072623e-01,
  -4.58382994e-01,-3.43174428e-01,-1.07325816e+00, 6.67608500e-01,
   1.51221588e-01,-5.61453700e-01, 6.46672696e-02, 5.35830081e-01,
   1.99022502e-01,-5.34549467e-02,-1.46360576e+00,-5.50706387e-01,
   1.47115216e-01,-4.58894260e-02,-1.26564491e+00, 1.68691315e-02,
  -1.07508028e+00, 4.68107581e-01,-2.62215185e+00,-1.43086240e-01,
  -3.58302802e-01, 8.52378607e-01,-1.64461330e-01, 5.41527152e-01,
  -6.13667846e-01, 8.60988081e-01,-1.11345983e+00,-6.75887465e-02,
  -6.77835420e-02, 2.93699326e-04, 3.66356283e-01,-2.74782985e-01},
 {-5.05469263e-01, 1.17817059e-01, 1.22670837e-01, 1.32919610e-01,
  -5.00723682e-02, 1.87345117e-01,-1.07096016e-01,-1.11051118e+00,
   6.36848450e-01,-9.25988019e-01,-3.13201517e-01, 5.36847860e-02,
  -9.44998488e-02, 3.23237360e-01,-3.77798900e-02,-3.39552021e+00,
  -3.16853970e-01, 6.14064991e-01, 3.50481480e-01,-3.28351319e-01,
  -1.01872849e+00, 4.30882692e-01, 1.25386631e+00, 5.25125444e-01,
  -8.25722888e-02, 2.52924711e-01, 1.92631304e-01,-4.32303816e-01,
  -2.67376781e-01, 1.45050406e-01, 2.40296826e-01, 8.77700001e-02,
   1.13377735e-01,-2.17838347e-01, 4.33799654e-01, 1.52360618e-01,
   1.33755371e-01,-4.00314555e-02, 1.45127416e-01,-4.66672666e-02,
  -1.94100350e-01,-3.52734089e-01,-9.38585624e-02, 1.65188706e+00,
   2.04541758e-01,-3.26472163e-01,-4.75107402e-01, 1.16123748e+00,
  -8.55341196e-01,-4.64912243e-02, 2.42755696e-01,-1.34983748e-01,
   4.88769203e-01,-8.78822923e-01, 1.45683482e-01,-2.30965167e-01,
   2.00847074e-01, 1.59241214e-01,-2.15605661e-01,-6.25196397e-01,
  -8.93295854e-02,-6.06087089e-01,-1.37943065e+00,-7.77460515e-01,
  -7.08543956e-01,-5.26355147e-01, 4.18686390e-01,-1.44693613e+00,
  -5.91434419e-01,-1.05715141e-01, 2.70289451e-01,-1.23577833e+00,
  -1.41012594e-01, 3.43298197e-01, 8.85434151e-02, 3.32478344e-01,
  -2.13518254e-02,-2.38043165e+00,-1.38218510e+00,-1.23039615e+00,
   1.72003895e-01,-4.60743234e-02, 5.68308383e-02,-7.93027282e-01,
  -3.86303216e-01, 1.12399254e-02, 2.84427702e-01,-5.96676767e-01,
   9.14214849e-01,-3.67419809e-01,-2.79784292e-01,-2.81759799e-01,
  -1.07010317e+00,-6.54842973e-01,-7.41169751e-01,-1.17704773e+00,
  -9.30766687e-02,-2.34006166e-01, 9.42228129e-04,-1.45501658e-01,
   1.35659337e-01,-1.63484022e-01, 1.89116895e-01,-6.36458218e-01,
   1.41569346e-01,-4.87183630e-01, 2.53501296e-01, 5.45454502e-01,
   4.97200429e-01,-3.13451499e-01, 1.57868534e-01,-4.83897030e-01,
   1.82507679e-01,-8.16021264e-01, 8.12058300e-02,-7.79015064e-01,
   3.14705670e-01, 3.54165792e-01,-4.74635839e-01, 4.32365298e-01,
   3.17354709e-01, 6.24922693e-01,-2.35468708e-02,-1.04801819e-01,
   1.43970013e-01,-2.46227011e-01, 5.93371838e-02, 9.84205008e-02},
 {-6.93718731e-01,-4.57527727e-01,-9.00778770e-01,-1.23741579e+00,
   1.64896771e-01, 6.69297809e-03, 4.63261008e-01, 1.20167471e-01,
  -9.04636234e-02, 6.31462783e-02,-2.12694388e-02, 5.38616002e-01,
  -5.02897918e-01, 3.86690050e-02, 4.64243218e-02,-1.15064755e-01,
  -2.49025092e-01,-3.93740147e-01, 1.51257694e-01, 3.15122098e-01,
  -1.95408419e-01,-2.19683075e+00, 2.80043960e-01,-8.93143266e-02,
  -2.65146673e-01, 1.23977590e+00, 6.60583563e-03,-4.85854208e-01,
  -1.24331735e-01, 6.52269900e-01, 5.56777060e-01, 2.34150618e-01,
   1.18585289e+00,-1.49078846e-01,-1.32869828e+00,-7.86066353e-02,
   3.12579125e-01, 1.23993412e-01, 1.98541567e-01,-1.07736492e+00,
  -6.62707269e-01, 1.07950950e+00,-7.77110279e-01, 1.98574618e-01,
   8.70731175e-02, 6.02849619e-03,-4.63643998e-01,-5.26778102e-01,
  -3.85980278e-01, 6.65906304e-03, 2.51532793e-01, 1.52017370e-01,
  -2.90998101e-01, 7.37137675e-01,-9.13559020e-01, 9.02874291e-01,
  -2.50693113e-01,-3.78874213e-01, 2.17084408e-01, 2.16631535e-02,
   4.60781693e-01,-1.69832200e-01,-2.15851128e-01,-2.72014320e-01,
   4.12923992e-02,-5.33821404e-01,-1.83813483e-01,-7.68314302e-02,
   3.67762804e-01, 2.79833764e-01, 6.96811825e-02,-2.99655318e-01,
  -4.25909236e-02, 6.41629994e-01,-9.16117057e-02, 2.94951081e-01,
   5.54828048e-01, 1.32738873e-01,-1.28613979e-01, 1.78447396e-01,
   6.63778186e-02,-2.23266378e-01, 3.16836596e-01, 1.02061823e-01,
  -6.52925074e-02,-2.09359601e-01, 3.63315865e-02, 4.75774668e-02,
  -2.09184170e-01,-1.24895312e-01,-5.43685853e-02, 6.28707349e-01,
   4.31347609e-01, 1.79987907e-01,-8.88791203e-01, 5.15637040e-01,
  -3.87134552e-01, 2.74792373e-01,-2.78469920e-01, 5.65448284e-01,
   1.71889797e-01, 1.61463544e-01,-4.52641070e-01, 2.79062331e-01,
   5.30998111e-01, 1.26070052e-01,-7.62749463e-02, 6.26504958e-01,
  -3.36409025e-02,-1.39851287e-01, 1.90448031e-01, 4.50891495e-01,
   1.37188539e-01,-6.16346359e-01,-2.56397337e-01,-1.85463771e-01,
  -1.54294014e-01,-2.14930072e-01, 1.15439153e+00, 5.53040564e-01,
  -7.47158453e-02,-4.48919058e-01, 9.24250007e-01, 4.73322958e-01,
  -2.03179587e-02,-1.01476476e-01, 2.42755897e-02,-8.98191154e-01},
 {-7.21108392e-02,-7.73348752e-03, 9.88593400e-02, 1.57475606e-01,
   1.58174150e-02, 1.34298071e-01,-2.64716178e-01, 9.38594043e-01,
  -1.76010758e-01, 5.87776184e-01,-5.51333368e-01,-6.75224364e-02,
   1.69907168e-01, 1.89158060e-02,-9.25151157e+00,-1.90577447e+00,
   2.81361807e-02,-4.37011361e-01, 3.20501655e-01, 2.43018717e-01,
  -6.64032102e-02, 7.24013522e-02, 4.83403355e-01, 7.90441781e-02,
   1.44795462e-01, 2.87842155e-01,-7.86958635e-02,-9.71387550e-02,
   3.09345517e-02,-3.94795910e-02, 1.54297173e-01,-2.71172971e-02,
   9.97202471e-02,-1.85266770e-02, 1.36045888e-01, 4.66280393e-02,
  -3.83739211e-02,-1.36444017e-01, 2.42252350e-01, 5.26600964e-02,
   2.08932534e-02, 2.71040827e-01, 6.91883266e-02, 1.96635759e+00,
   4.85537834e-02, 1.80062488e-01, 9.09807086e-02, 1.39898926e-01,
   3.20164472e-01,-2.53532201e-01, 1.91814415e-02,-3.22105080e-01,
  -5.08984886e-02,-3.57473135e-01,-1.11180454e-01, 1.21115543e-01,
  -1.33889228e-01,-1.70206591e-01,-7.02863783e-02,-1.50309935e-01,
   1.98766947e-01,-1.72993988e-01, 5.76135933e-01,-1.77387133e-01,
  -1.07397044e+00, 9.86782610e-01, 3.69108289e-01,-1.09015024e+00,
  -1.25141233e-01,-7.18328729e-03, 2.65171975e-01, 3.65499109e-01,
   1.41367853e-01, 4.91434224e-02,-1.20923035e-01, 6.80523962e-02,
   1.51626885e-01,-3.12421966e+00, 4.45072502e-02, 5.51186204e-01,
  -1.61377656e+00, 1.18094432e+00,-3.12430654e-02, 4.12870765e-01,
   1.58631839e-02,-1.72010034e-01,-3.38403019e-03,-2.17631385e-01,
   4.43164408e-01, 1.69145986e-01, 1.32112075e-02, 6.88454360e-02,
  -1.06327915e+00, 1.29883453e-01,-2.09267914e-01,-8.44382644e-02,
   3.37629884e-01, 8.11690018e-02, 1.52271893e-02,-9.12334397e-02,
   2.75580529e-02,-1.99436471e-01, 1.23346880e-01, 9.42056905e-03,
   2.99006641e-01,-2.24657338e-02, 5.22195920e-02,-1.59857899e-01,
   2.76370913e-01,-7.49951452e-02, 4.35014702e-02,-1.14260137e-01,
   8.10915045e-03,-1.00730956e-01, 3.47612083e-01,-7.85024762e-02,
   2.11055279e-01, 3.27269472e-02, 7.08112195e-02, 6.47934750e-02,
   2.14584485e-01,-1.04650773e-01, 1.65119708e-01,-5.72831109e-02,
  -8.28163433e+00,-4.46159422e-01,-1.45431347e-02,-1.70695838e-02}};

const float b2[sz_hid_2] = { 3.0512497e-01,-1.4438836e-01,-1.2176694e-01,-2.4318317e-01,
 -1.0458502e-01,-3.5505258e-02,-1.8615364e-01,-3.3983931e-01,
  6.6967142e-01, 1.3571943e-01, 1.4820376e-01, 4.5300949e-01,
  4.6136901e-01, 1.4768326e-01,-2.2441059e-01, 3.7655640e-01,
  9.3970589e-02,-9.0787590e-02,-1.8303303e-01, 3.9252481e-01,
 -1.1154693e-01,-4.5968048e-02,-1.8191908e-01, 2.5284737e-01,
  1.5889731e-01, 1.5794218e-01,-9.5468462e-02, 3.9811099e-01,
 -6.9630021e-01,-1.7715502e-04,-3.7708542e-01, 3.9937121e-01};

const float w3[sz_act][sz_hid_2] = {{ 3.57146096e+00,-5.44246808e-02, 1.58314705e-02,-1.92874983e-01,
   1.22701816e-01,-2.79713571e-01, 3.72795433e-01, 7.37870514e-01,
   1.15198493e-01, 1.46413192e-01,-5.24351478e-01, 7.19041824e-01,
  -1.02614492e-01,-1.02172740e-01, 3.50614116e-02, 4.81090993e-01,
  -2.61156619e-01, 3.85602154e-02,-5.77521808e-02, 2.70411223e-02,
   1.02142412e-02, 2.94807255e-01, 7.61551917e-01,-1.58714497e+00,
   3.96897227e-01,-1.93478525e-01, 8.67730752e-02, 4.99807715e-01,
  -2.60428727e-01,-6.96601212e-01,-4.71770056e-02,-1.16096699e+00},
 {-1.19148880e-01,-4.15759057e-01, 1.52803972e-01,-6.97044909e-01,
   7.48239607e-02,-9.56296083e-03,-2.42315680e-02, 1.14373088e-01,
  -6.45588040e-01,-4.10934657e-01, 1.35294452e-01, 1.06434000e-03,
  -5.64507246e-01, 9.42838252e-01, 4.83502775e-01,-2.91537553e-01,
  -1.97373312e-02,-1.25026152e-01,-3.76341194e-01, 7.08706141e-01,
   2.68996060e-01, 5.23524471e-02, 1.38999179e-01,-2.52344012e-01,
   9.36803757e-04,-1.47030249e-01,-1.14666574e-01,-9.38884355e-03,
  -1.08961225e+00, 1.54229347e-02, 3.78416836e-01, 1.93161890e-01}};

const float b3[sz_act] = {0.04617266,0.17892155};

