const float w1[sz_hid_1][sz_obs] = {{ 5.69535717e-02,-4.76185456e-02,-4.68669796e+00,-3.87767673e+00,
  -7.55397975e-01, 1.03607941e+00, 6.10985011e-02,-1.71823990e+00,
   3.91137218e+00},
 {-3.02582644e-02,-6.44121692e-02,-4.46726680e-01, 2.12194633e+00,
   4.88195086e+00,-3.01429915e+00,-5.26366122e-02,-1.73814702e+00,
  -1.70509636e-01},
 {-2.16916036e-02, 1.43318735e-02,-1.77371514e+00,-4.12599182e+00,
  -2.75902700e+00, 2.37262774e+00,-6.40696436e-02,-2.02496573e-01,
   1.73867202e+00},
 {-9.31238988e-04, 1.20991860e-02, 2.21272349e+00,-1.56095541e+00,
   7.35947728e-01, 6.14907518e-02, 7.08412156e-02,-2.28123856e+00,
   1.37281024e+00},
 { 3.33186015e-02, 4.19456847e-02, 6.87885523e+00, 2.70968843e+00,
   8.86766851e-01,-2.02651858e+00, 9.97820795e-02,-1.53685248e+00,
   9.57329929e-01},
 {-4.13138345e-02,-4.01309542e-02, 3.90855461e-01, 1.19169724e+00,
   3.91354829e-01,-9.53199625e-01,-2.23270431e-02,-2.91887212e+00,
   5.44687843e+00},
 { 5.41763194e-02, 1.23745333e-02, 4.48648125e-01, 1.89855564e+00,
  -2.07104683e+00, 7.47819304e-01, 5.73297963e-02, 1.99554777e+00,
  -2.63537574e+00},
 { 1.23064101e+00,-3.44325972e+00,-1.27984154e+00,-2.55667046e-02,
  -2.35603601e-02,-6.33737445e-02, 7.25899363e+00, 3.51595283e-02,
   3.98898162e-02},
 { 7.56498799e-03, 1.34160426e-02, 5.33834696e-01, 4.54164600e+00,
   1.71698129e+00, 6.29550219e-01,-1.01768912e-03,-1.14328194e+01,
   6.74670562e-02},
 { 4.85735655e-01, 2.10205102e+00,-3.36523032e+00, 5.70651740e-02,
   4.13241945e-02, 4.39686216e-02, 4.59568453e+00,-6.49965554e-02,
   7.97985122e-02},
 { 2.80143881e+00,-2.85007238e+00, 3.12602925e+00,-4.68218140e-02,
   1.19894445e-02, 4.60589342e-02,-1.02781897e+01,-3.93963680e-02,
   3.98387052e-02},
 { 5.28612062e-02,-5.54046668e-02, 9.33432579e-01,-2.45737457e+00,
  -1.27816594e+00,-2.89496517e+00, 1.40778676e-01, 2.93392801e+00,
  -3.98907232e+00},
 { 1.54131474e-02, 2.10399600e-03,-8.99487674e-01,-6.32023290e-02,
   4.06135440e-01, 1.13255177e+01, 1.77604482e-02,-3.74268740e-01,
  -3.12316399e-02},
 { 7.26943486e-04, 5.69478655e-03,-1.32153600e-01, 1.51892078e+00,
  -2.01882195e+00, 1.46761906e+00,-4.72602993e-02,-8.87646770e+00,
   2.04350743e-02},
 {-2.01712903e-02, 2.14719493e-02,-3.48549694e-01,-2.58985567e+00,
  -2.08242506e-01, 4.16191518e-01,-4.90990877e-02,-1.69328165e+00,
   3.93470675e-02},
 { 1.80607457e-02, 7.80258402e-02,-2.90503883e+00, 1.56355247e-01,
  -7.83984810e-02,-3.15800714e+00,-1.17675304e-01, 5.63766193e+00,
   1.13198173e+00},
 {-4.11426401e+00, 2.69780111e+00, 4.51814556e+00, 1.19733118e-01,
   4.86949347e-02,-1.13050111e-01, 2.13983089e-01,-2.70688653e-01,
   2.28096750e-02},
 {-1.28423644e-03,-6.85078418e-03, 4.67740178e-01, 2.64943266e+00,
   4.38020515e+00,-1.38760790e-01, 1.85828120e-01,-4.61010265e+00,
   2.55952573e+00},
 {-1.21133983e-01,-1.20039895e-01,-3.26409292e+00,-9.79081616e-02,
  -3.58021426e+00, 1.55883759e-01, 2.22093716e-01,-9.02348995e-01,
   2.33126473e+00},
 {-1.44351469e-02, 2.31537595e-02, 1.70545924e+00,-3.20983887e-01,
  -9.63001132e-01,-3.21392827e-02,-1.06770929e-03,-6.72168398e+00,
  -1.61992860e+00},
 {-1.34793258e+00, 2.04804206e+00, 3.80572796e+00, 2.00105514e-02,
  -3.65293398e-02,-1.07570685e-01,-6.62543678e+00, 5.62494583e-02,
  -8.36801454e-02},
 { 3.86917520e+00, 4.92003918e+00, 4.21444511e+00,-7.74289295e-02,
  -2.43166331e-02,-6.82177618e-02,-6.58696699e+00,-5.89215457e-02,
  -3.35015580e-02},
 {-1.07008805e-02, 1.92954745e-02,-6.71975136e-01, 8.21938753e-01,
   1.14823747e+00,-6.40167713e-01, 3.48999314e-02, 7.59190893e+00,
  -1.30369973e+00},
 { 1.98831058e+00, 2.44316769e+00, 2.54075718e+00, 3.85634266e-02,
   1.78248599e-01,-5.24756499e-02,-5.53768730e+00,-5.20336665e-02,
   9.74527448e-02},
 { 8.08398366e-01,-2.59185863e+00, 1.05997591e+01, 1.38387427e-01,
   5.02861924e-02,-5.49677499e-02,-6.00009441e+00, 7.29020983e-02,
  -2.85580270e-02},
 { 1.15396328e-01,-6.05582334e-02, 7.33231258e+00,-1.73188531e+00,
   1.09720278e+00, 1.65622485e+00,-1.55633152e-01, 4.56255388e+00,
   2.53014708e+00},
 { 2.45893318e-02,-7.62621984e-02, 2.21517229e+00,-3.50447088e-01,
   2.79053545e+00, 1.98869854e-01, 2.81415079e-02, 9.68764484e-01,
   4.00208712e+00},
 { 5.03948741e-02,-3.38977575e-02,-2.13168815e-01,-1.29224777e+00,
   6.83063507e-01, 2.38418007e+00,-7.88780153e-02,-4.46167707e+00,
  -1.81729242e-03},
 { 3.74212638e-02, 6.30962923e-02,-1.47786045e+00,-1.36134768e+00,
  -4.92900908e-01,-5.57116926e-01, 3.54664735e-02,-3.92112947e+00,
   2.98479033e+00},
 { 3.04447860e-02, 4.78915051e-02,-1.73288357e+00, 3.10744596e+00,
  -1.43734801e+00,-1.23264436e-02, 5.53406179e-02, 5.46980810e+00,
  -2.82210135e+00},
 { 1.75342607e+00,-3.43647432e+00,-8.62989807e+00, 1.29740864e-01,
  -4.53273430e-02,-3.30388434e-02,-9.13363323e-02, 1.10367946e-01,
   6.97990209e-02},
 { 3.68540335e+00,-2.32939020e-01,-5.61642838e+00,-8.27816203e-02,
  -6.04263186e-01,-2.76216064e-02, 5.78307199e+00, 4.24938947e-01,
   4.97160941e-01},
 {-1.01693428e+00,-2.89164352e+00,-8.39812756e+00,-4.50800180e-01,
   1.39642492e-01, 4.05209690e-01, 6.43640327e+00,-8.26425094e-04,
  -3.03334389e-02},
 {-1.85089260e-02, 1.77600130e-01,-3.62373018e+00,-2.00540638e+00,
   1.61984801e+00, 1.21459472e+00,-2.06180979e-02, 3.44738007e+00,
  -2.87739635e+00},
 {-2.29127500e-02, 4.17349115e-03, 4.26545620e-01, 5.24452686e-01,
   1.39861786e+00,-4.50095385e-01, 2.73754597e-02, 7.98383331e+00,
   1.67799878e+00},
 { 5.94758312e-04,-2.96345744e-02, 6.39029086e-01, 2.63447666e+00,
   4.11408472e+00,-2.09535914e-03, 3.24554555e-02,-6.77825737e+00,
   3.82205751e-03},
 { 1.32266358e-01,-8.75882581e-02,-8.31030846e-01, 4.07560587e-01,
  -4.94278002e+00,-1.16639636e-01, 1.76316366e-01, 6.09885168e+00,
   4.90275919e-01},
 {-5.69407071e-04,-1.79092754e-02, 9.13800716e-01,-1.82773069e-01,
  -2.81841826e+00, 4.87528890e-02, 2.16017626e-02, 5.18187666e+00,
   3.04591972e-02},
 {-2.64653042e-02, 1.23725362e-01, 5.40617275e+00,-9.59767044e-01,
  -2.47595692e+00,-7.87989259e-01,-2.31659003e-02,-4.42996502e+00,
  -1.48480225e+00},
 {-3.28492746e-03,-2.48899758e-02, 5.48190057e-01, 6.22591925e+00,
  -2.17551780e+00, 2.48214078e+00, 5.35077741e-03,-7.06204367e+00,
   1.14674428e-02},
 { 2.34818935e+00,-1.69654369e+00,-6.64644909e+00,-6.17268562e-01,
  -5.22546172e-01,-6.22649156e-02, 4.12435007e+00,-2.80634779e-02,
  -3.94567871e+00},
 {-2.49376171e-03,-8.43059551e-03,-2.77079821e-01, 4.09302425e+00,
  -3.21375161e-01,-1.80200386e+00,-1.38577977e-02, 1.09802284e+01,
   2.83179022e-02},
 { 1.00650094e-01,-4.98337578e-03,-2.76350617e+00,-2.59268546e+00,
   5.45239113e-02,-6.35889411e-01, 2.31994707e-02,-1.15966201e-01,
  -2.89462113e+00},
 {-1.28599107e-02, 4.86906711e-03, 3.08496326e-01, 9.16515946e-01,
  -1.40890324e+00, 1.40377432e-01, 1.30149405e-02,-7.86254644e+00,
   1.48689604e+00},
 { 3.30443883e+00, 1.70794201e+00, 2.40612388e+00,-7.89614953e-03,
  -2.70011704e-02, 4.78511341e-02,-9.01523304e+00, 4.63790484e-02,
  -5.89206209e-03},
 {-2.24818140e-02, 1.90580878e-02, 3.85746503e+00, 7.45787561e-01,
  -5.50820887e-01,-8.25413704e-01, 1.30417868e-01, 4.13715744e+00,
  -4.47813702e+00},
 { 1.31434691e+00,-3.56335878e+00,-5.29238605e+00,-1.28357708e-01,
   2.82637235e-02, 1.59309685e-01, 7.07269716e+00, 2.24766418e-01,
   1.37606114e-01},
 { 6.06967993e-02,-5.67259192e-02,-1.09967442e+01,-1.03244379e-01,
  -2.68007725e-01,-1.60780340e-01, 1.78542063e-01, 8.98354352e-02,
  -3.69300306e-01},
 { 4.44111872e+00,-2.39718747e+00,-4.31118917e+00, 5.54339401e-02,
   3.32984695e-04,-8.09090361e-02, 8.15103436e+00,-3.48384790e-02,
   6.32267818e-02},
 {-1.84547174e+00,-4.27255011e+00,-2.73409319e+00,-1.09610613e-02,
  -7.18430653e-02,-4.72858958e-02, 5.34459651e-01, 5.57287522e-02,
  -3.87052335e-02},
 { 6.15148358e-02,-3.59850042e-02, 3.57448310e-01,-2.79938054e+00,
   7.35871077e-01, 2.95186090e+00, 7.22785890e-02,-1.00937438e+00,
   4.15242100e+00},
 { 1.25731677e-02, 2.51813680e-02,-6.31443083e-01,-5.87709248e-01,
  -8.49165797e-01, 7.14492619e-01,-2.52045244e-02,-7.48562098e+00,
  -3.22899550e-01},
 { 8.02873820e-02, 3.14581066e-01, 9.78276968e-01, 2.46642327e+00,
  -2.94024444e+00, 4.04083633e+00,-2.58893371e-01, 1.77128744e+00,
  -3.64708662e+00},
 { 6.52207807e-02, 3.18430364e-01,-4.42156887e+00,-3.31777453e-01,
  -3.30886036e-01, 1.25333607e-01,-2.28911668e-01,-5.84259844e+00,
   2.19883657e+00},
 {-1.38700533e+00,-2.25431252e+00,-4.35313511e+00, 1.94059703e-02,
  -5.34794852e-02,-3.07840109e-02, 4.74659204e+00, 4.62617818e-03,
   3.01635824e-02},
 {-3.70030141e+00, 1.20305501e-01,-4.16601270e-01, 3.75934765e-02,
  -2.19536778e-02,-5.28485253e-02,-1.55085886e+00,-6.13997728e-02,
  -1.26101915e-02},
 { 4.13693041e-01,-1.56725836e+00, 2.80590987e+00, 6.88864384e-04,
  -7.47429654e-02,-3.93357836e-02,-5.78059387e+00, 2.26665903e-02,
  -5.78804575e-02},
 {-1.44169424e-02, 9.40465834e-03, 3.28072235e-02, 1.23579526e+00,
  -2.31895018e+00, 1.16371739e+00,-1.69063616e-03,-7.96400976e+00,
  -1.81182567e-02},
 { 1.99793577e+00,-2.21828252e-01, 4.52966452e+00,-2.84881517e-02,
   4.58890721e-02, 1.37502164e-01, 5.46339893e+00,-1.10859007e-01,
  -2.10604087e-01},
 {-6.93247393e-02, 4.71208319e-02,-3.49907947e+00, 2.38857794e+00,
   6.59624994e-01, 3.55366349e-01,-1.32563501e-03,-9.70812440e-01,
  -2.52568293e+00},
 { 1.37046504e+00, 3.17699575e+00, 4.28941584e+00, 1.00145712e-01,
  -1.08864002e-01,-5.85058667e-02,-3.93063664e+00,-9.25019830e-02,
  -1.88164398e-01},
 { 2.19485792e-03,-8.63609544e-04, 4.19246070e-02, 3.33973551e+00,
  -4.79268342e-01, 3.80137503e-01,-2.63063004e-03,-8.76605606e+00,
   1.28156831e-02},
 {-3.15779179e-01, 4.27518087e-03,-5.50312471e+00, 5.82167864e-01,
   1.65342975e+00, 6.31355822e-01, 2.57224709e-01,-1.33654094e+00,
  -5.01340485e+00},
 { 1.32212117e-01, 5.55807389e-02, 1.68608685e+01, 3.58698778e-02,
   6.93431869e-02, 1.48023427e-01,-4.26379032e-02,-1.88486859e-01,
  -1.94250926e-01},
 {-8.05186778e-02,-2.33699363e-02,-3.38668883e-01, 4.26289350e-01,
  -1.02878201e+00, 2.07426384e-01, 1.97041724e-02, 3.60977983e+00,
   2.73686528e+00},
 { 4.24069120e-03, 2.38372367e-02, 8.55274126e-02,-2.76074719e+00,
   2.19345164e+00,-8.45616385e-02,-2.69496031e-02,-9.77142870e-01,
   1.15086026e-01},
 { 1.91440845e+00, 5.79850972e-01,-7.13134718e+00,-1.95707241e-03,
   4.67545316e-02, 2.86255479e-01,-4.99631310e+00, 2.03331470e-01,
   1.47990212e-02},
 {-2.03321433e+00,-5.60411167e+00, 6.74048615e+00, 6.02858961e-02,
  -3.65725830e-02, 7.21457079e-02, 1.48507941e+00, 7.70609602e-02,
  -3.40848640e-02},
 { 3.54662848e+00, 4.96366799e-01, 3.83743495e-01, 1.10204965e-02,
   1.90714058e-02, 1.64926071e-02, 8.71577835e+00,-3.84491906e-02,
  -4.02061045e-02},
 {-3.21992487e-02,-4.61466201e-02, 2.95297027e-01,-1.21271861e+00,
  -3.18679004e-03, 1.63627937e-01,-9.01256502e-03,-8.53128147e+00,
   6.50988892e-02},
 {-4.66274023e-02,-1.44652398e-02,-3.70867491e+00,-8.59809399e-01,
   1.88813281e+00,-1.32189274e+00, 4.13996167e-02, 2.51267219e+00,
  -3.55827498e+00},
 { 8.00148211e-03,-1.79072153e-02, 1.05866686e-01, 3.49316549e+00,
   1.36182261e+00, 2.47996882e-01, 2.62513850e-02,-8.32645321e+00,
  -1.50470594e-02},
 { 3.25561357e+00,-1.00617266e+00, 4.82955408e+00, 2.57967591e-01,
  -1.13621376e-01, 1.14980526e-01,-6.10770750e+00,-2.04004630e-01,
  -1.57463208e-01},
 { 9.35291946e-01,-2.15220594e+00, 3.16550970e+00, 1.53087936e-02,
   3.78130339e-02,-2.78386950e-01,-4.98364210e+00, 5.17768934e-02,
  -6.50984049e-02},
 { 9.99356136e-02,-4.66942899e-02,-1.93833798e-01, 4.36361969e-01,
  -5.26436758e+00,-1.11634612e+00, 9.49126296e-03, 6.32696533e+00,
   1.38554841e-01},
 {-3.52720708e-01,-4.89426047e-01, 4.00290442e+00,-8.53230879e-02,
   1.54846832e-01,-4.31643248e-01, 1.37281489e+00,-9.84253883e-02,
  -1.31707611e-02},
 { 5.04176664e+00, 8.50090265e-01,-5.74818325e+00, 6.85059503e-02,
   5.57031855e-03,-1.69731304e-02, 1.14932489e+01, 7.54445652e-03,
  -2.35739574e-02},
 { 3.68312263e+00,-5.06396389e+00,-2.31050658e+00, 1.65939350e-02,
   1.13050193e-02, 6.74772412e-02, 1.26789455e+01,-8.42070393e-03,
   3.34530808e-02},
 { 1.43342214e-02, 2.29121670e-02,-2.00278139e+00, 3.73176503e+00,
  -7.70436749e-02, 2.60776401e+00,-3.60199139e-02,-5.15962958e-01,
   2.22852547e-02},
 {-7.35828653e-02,-3.65664847e-02, 2.21553516e+00, 8.59868154e-02,
   1.92255509e+00, 2.89838277e-02, 3.99758220e-02, 1.82349443e+00,
   1.77799988e+00},
 { 2.83620620e+00,-4.05052567e+00,-4.35959786e-01, 8.83449800e-03,
  -6.56301230e-02, 1.03439651e-01, 7.67307803e-02,-8.17843713e-03,
   2.54521947e-02},
 { 4.07422427e-04,-5.36828476e-04, 2.86787480e-01, 2.06327152e+00,
   4.08860826e+00,-6.66954815e-01,-2.58096531e-02,-3.62006140e+00,
  -5.64569645e-02},
 { 4.44223309e+00,-6.59228384e-01,-4.47580051e+00,-5.08921407e-02,
  -3.39297093e-02,-3.45639139e-03, 8.93475533e+00, 5.75320646e-02,
  -3.31230164e-02},
 { 8.22079539e-01, 2.29369879e+00, 1.65962160e+00,-3.92106827e-03,
  -9.13394801e-03,-5.22297993e-02, 6.82209492e+00,-5.45240659e-03,
   4.86330055e-02},
 { 1.42027214e-02,-1.86087247e-02, 5.20580649e-01, 3.10035437e-01,
   9.90874588e-01, 5.60785353e-01, 4.28273641e-02, 7.48610592e+00,
   6.63459450e-02},
 { 5.05500520e-03,-2.31950879e-02, 1.24913536e-01,-3.05179048e+00,
  -3.76867056e+00,-3.77166271e+00,-1.12448402e-01,-3.34757656e-01,
   4.10083103e+00},
 { 2.16853046e+00,-2.81159043e+00, 2.91520000e+00,-1.46134552e-02,
  -2.93846312e-03,-2.85173319e-02,-9.75857162e+00,-1.77516148e-03,
  -2.10624058e-02},
 {-3.30990553e-02, 6.06507920e-02, 7.88285911e-01,-2.14826608e+00,
  -4.92670149e-01,-2.54519939e+00,-3.28138024e-02, 2.10096574e+00,
   3.67155170e+00},
 {-5.41387573e-02, 9.20901373e-02, 2.74883294e+00, 2.83884931e+00,
   4.70362872e-01,-2.64809704e+00,-8.06821883e-02,-4.25038964e-01,
  -3.15426445e+00},
 {-2.40627062e-02, 5.77669069e-02, 2.98633718e+00,-3.50048637e+00,
   8.87325168e-01, 3.30716109e+00,-1.37065556e-02,-5.34461379e-01,
  -3.21525121e+00},
 { 1.96765736e-03, 8.93626828e-03,-1.11165178e+00,-5.62893689e-01,
   1.16956579e-02,-5.82538486e-01,-8.78488272e-03, 1.82363367e+00,
  -3.63758922e-01},
 {-1.53589796e-03,-5.64041659e-02,-8.71437728e-01, 2.99370909e+00,
   1.46527439e-01,-7.26308346e-01, 6.28000200e-02,-3.62686610e+00,
   2.31373191e+00},
 { 2.24582502e-03,-8.10904335e-03, 2.05436110e-01, 1.47718036e+00,
   2.99324584e+00,-9.18273926e-01, 6.05911063e-03, 8.91675282e+00,
  -3.93603975e-03},
 {-2.50214338e-02, 6.29361393e-03, 6.91440880e-01,-9.50113118e-01,
   2.08632636e+00,-2.96356750e+00,-1.07140079e-01, 5.05550861e+00,
   3.43635798e-01},
 {-4.59818766e-02, 1.73054989e-02,-7.86439002e-01, 1.96541011e+00,
   2.83026004e+00,-2.22492754e-01, 6.54946789e-02,-5.97793436e+00,
  -3.50804067e+00},
 {-2.59864647e-02,-1.33148313e-01,-8.05789375e+00, 1.85182854e-03,
  -5.82918167e-01, 1.64505318e-01, 2.19868526e-01,-2.24148321e+00,
  -3.34807396e+00},
 { 4.12064493e-02, 5.36367437e-03, 6.99509904e-02,-4.00930978e-02,
   9.67208028e-01, 4.09090519e-01, 1.78576831e-03,-3.28021955e+00,
  -2.66618180e+00},
 { 9.32942436e-04,-2.60927416e-02, 1.44968405e-01, 8.29122007e-01,
  -5.10096073e+00,-9.97332692e-01, 2.63222009e-02, 1.07990913e+01,
  -2.57372912e-02},
 {-5.41207641e-02, 1.59582719e-02, 8.53595957e-02, 3.04678828e-03,
  -4.10827845e-02,-8.20587063e+00,-6.93764677e-03, 2.95964815e-02,
   1.77095495e-02},
 {-1.42867463e-02,-4.86871786e-03, 2.14564705e+01, 1.48819794e-03,
  -7.13180052e-03,-2.06082061e-01, 3.01095229e-02, 5.33055700e-03,
   3.36044608e-03},
 { 5.31268072e+00, 4.08764452e-01, 5.24373960e+00,-2.86345743e-02,
  -2.27132346e-02, 1.48125468e-02,-1.27406359e+01,-1.10527454e-02,
   2.75359284e-02},
 { 8.33011046e-03, 4.79268432e-02, 1.24624348e+00, 4.09252310e+00,
   1.10568106e+00, 1.77544534e+00,-5.04158102e-02, 2.79376793e+00,
  -2.16993999e+00},
 { 5.38550876e-03,-8.78692344e-02, 1.27990067e+00, 2.70831275e+00,
  -2.27044082e+00, 1.75546563e+00, 2.55455505e-02, 3.31860042e+00,
   4.50455284e+00},
 { 2.12887186e-03, 1.91129124e+00,-7.80078602e+00,-5.73213324e-02,
  -5.82536831e-02,-6.85760081e-02, 6.63213205e+00, 3.64682786e-02,
   8.94924030e-02},
 {-2.42553473e+00, 1.36046970e+00, 9.08907986e+00,-1.44182995e-01,
   7.79193128e-03, 3.01011294e-01,-2.49891686e+00, 1.51001811e-01,
   2.18006968e-01},
 {-1.01134312e+00, 4.14327860e+00,-2.03395844e+00, 2.24357639e-02,
   8.96971114e-03, 2.45075539e-01,-5.01299000e+00, 5.72286895e-04,
   3.50334984e-03},
 {-2.23520137e-02, 6.62207305e-02, 3.02111894e-01,-2.03843260e+00,
  -1.02744818e-01,-1.92941058e+00,-9.81779769e-02, 3.63327456e+00,
  -2.92588361e-02},
 { 1.13838322e-01, 6.54283091e-02, 1.64194000e+00, 2.47358739e-01,
  -1.35365140e+00, 5.07535517e-01, 1.46146744e-01,-1.22752821e+00,
  -4.93162298e+00},
 { 3.30826616e+00, 2.33413625e+00, 3.89432669e+00,-4.43844497e-02,
   1.33451009e-02, 4.08161059e-03,-1.97982430e+00,-6.18201569e-02,
   2.86129769e-02},
 { 2.43048533e-03, 9.90877394e-03,-2.93576756e+01,-1.22685870e-02,
   4.80675139e-03, 2.01378360e-01,-8.18223804e-02, 2.44166236e-03,
  -1.17052849e-02},
 { 1.57320146e-02, 2.79450254e-03, 3.48695779e+00, 1.23377752e+00,
   1.13452613e+00, 4.77815807e-01, 2.25658659e-02,-3.72207975e+00,
   2.28909230e+00},
 { 1.70831168e+00, 1.29408252e+00,-3.04211521e+00, 1.83125008e-02,
   2.64559239e-02, 3.15533020e-02, 5.35196543e+00,-3.25574800e-02,
   3.78416628e-02},
 {-4.42442819e-02,-7.07007246e-03,-4.34046268e+00, 1.08157754e+00,
  -1.71497214e+00,-1.24513209e+00,-4.17398512e-02, 3.81601048e+00,
   3.02527452e+00},
 { 9.36098304e-03,-4.06141840e-02,-1.11393619e+00, 2.82541871e+00,
   2.57871246e+00,-2.11429262e+00,-1.73968822e-02, 3.01356524e-01,
   2.41768789e+00},
 {-2.64366341e+00, 6.19267130e+00, 8.52035046e-01, 7.96288997e-03,
  -1.07018817e-02, 3.84080596e-02,-6.34584844e-01,-1.81224290e-02,
  -3.77740003e-02},
 { 1.73172033e+00, 9.12989795e-01,-4.21128321e+00, 1.74602903e-02,
  -5.93062444e-03, 1.16468079e-01, 4.52096558e+00, 1.15014408e-02,
   7.14351982e-02},
 { 2.60110311e-02, 6.57400023e-03,-2.48516157e-01,-2.04447579e+00,
  -3.96260905e+00, 3.34773254e+00,-4.17794548e-02,-2.04890418e+00,
   7.69757619e-03},
 { 1.65492702e+00,-2.87662292e+00,-2.28978062e+00,-2.97590718e-02,
  -1.65035874e-02, 1.57910228e-01, 5.15928984e+00, 1.32410810e-03,
   2.10487582e-02},
 { 2.63269854e+00,-1.00583696e+00,-7.35514164e+00, 1.74640074e-01,
   1.74966753e+00, 2.56411545e-03, 3.17027831e+00,-6.53747737e-01,
   3.25976515e+00},
 { 4.98011149e-02, 1.55465789e-02, 7.05227675e-03,-2.08674455e+00,
  -2.87935495e+00,-7.87469208e-01,-4.74399067e-02, 1.90978169e+00,
  -4.88446578e-02},
 {-2.44628024e+00,-4.22246122e+00,-1.68082356e+00,-4.78452221e-02,
   4.51315148e-03, 6.75669089e-02, 3.19917941e+00, 3.50964330e-02,
   1.73176173e-02},
 { 1.08162177e+00, 1.45012632e-01, 8.51316929e+00, 1.51779965e-01,
  -2.76459247e-01,-5.02610300e-03,-1.75150371e+00, 1.90110892e-01,
  -2.72747457e-01},
 { 1.92583132e+00,-5.98285496e-01,-3.14627790e+00, 1.92798376e-02,
   3.08319783e+00, 3.66538286e-01, 3.51702237e+00,-2.76134117e-03,
  -1.41321182e+00},
 {-2.13406179e-02, 5.56065030e-02,-6.18387604e+00, 3.84786439e+00,
   2.45772421e-01,-1.12766552e+00, 7.12728221e-03,-1.20427406e+00,
  -2.90213943e+00},
 { 2.91538453e+00, 2.91894436e+00,-3.33589530e+00, 3.30337435e-02,
  -1.79830790e-02,-2.65524276e-02, 1.03216991e+01, 1.77540779e-02,
   2.35718098e-02},
 { 1.86460471e+00, 2.89249539e+00,-3.52139401e+00, 1.09863915e-02,
   7.70810759e-04, 2.63075880e-03, 9.37775040e+00, 4.15333733e-02,
   3.36960680e-03},
 { 2.29864405e-03,-1.37746111e-02, 1.17282443e-01, 3.73341870e+00,
  -1.02953541e+00, 1.37699246e-01, 5.73056862e-02, 8.18990612e+00,
  -5.06970696e-02},
 { 2.92961951e-02, 6.13300577e-02,-1.13804569e+01, 1.43134687e-02,
   2.42960170e-01, 4.35791194e-01, 2.47387681e-03,-1.68954879e-01,
   1.87060356e-01}};

const float b1[sz_hid_1] = { -6.450714  , -5.8397975 , -4.7277884 , -2.1562428 , -3.7373095 ,
  -4.068965  , -1.5999738 , -1.6565679 , -4.720513  ,  1.4642218 ,
  -8.259075  , -4.807655  ,  1.2963909 , -6.3883934 , -1.0158488 ,
  -4.8483605 , -5.3048563 , -5.5673165 , -4.00494   , -6.8735394 ,
  -5.590486  , -3.0963018 , -6.4652486 , -4.78104   , -6.782917  ,
  -8.76642   , -5.759367  , -3.2294629 , -5.819029  , -3.9011233 ,
  -2.5292428 , -7.9192166 ,-10.468785  , -7.2528796 , -7.2604094 ,
  -1.8468697 , -6.895848  ,  0.45845395, -6.702094  , -5.187072  ,
  -8.872948  , -4.7064347 , -3.0586052 , -6.6214056 , -3.6094131 ,
  -2.492891  , -6.8076377 , -1.0467186 , -3.6868074 , -2.6778111 ,
  -3.9930747 , -5.5038676 , -5.782908  , -6.831755  , -3.6496885 ,
  -3.4129908 , -3.6920917 , -6.7521214 , -3.7232864 , -2.2574604 ,
  -3.1836932 , -4.531137  , -7.045367  , -1.0407943 , -1.6210198 ,
  -1.9279834 , -3.7302382 , -4.226022  , -4.137816  , -5.010485  ,
  -3.8624258 , -3.8613033 , -5.580688  ,  0.9497863 , -3.056576  ,
  -0.6185905 , -5.29685   , -1.1267786 , -3.047971  , -2.493261  ,
  -2.199629  , -1.8456178 , -5.403098  , -5.7204976 , -3.3077054 ,
  -6.1067863 , -7.289654  , -4.214347  , -2.8163638 , -3.9218354 ,
  -0.18255632, -3.4220521 , -7.196899  , -4.242336  , -3.0305521 ,
  -4.529393  , -1.5769022 ,  0.50133294, -0.80541795, -0.02955597,
  -5.1351647 , -4.2172375 , -3.7125118 , -6.365955  , -4.8519106 ,
  -4.396763  , -1.5409888 , -4.176698  ,  0.23285262,  0.07174233,
  -1.8361225 , -2.692884  , -2.0046144 , -3.7120783 , -5.7459164 ,
  -0.18970446, -4.8493514 , -3.172684  , -9.320145  , -1.5111972 ,
  -3.8161159 , -2.9249272 , -6.6873064 , -5.168758  , -8.3553915 ,
  -7.2183037 , -4.1500077 , -0.8692179 };

const float w2[sz_hid_2][sz_hid_1] = {{ 4.80721937e-03,-2.17815089e+00, 1.07764333e-01,-7.84502774e-02,
  -1.65023819e-01,-2.68733799e-02,-1.78332478e-02,-3.02976351e-02,
  -5.11977792e-01,-6.71608299e-02, 2.84769058e-01, 2.03086567e+00,
   1.56841135e+00, 9.11232054e-01, 3.37599665e-01, 3.45984268e+00,
  -1.22820519e-01,-1.00275826e+00, 3.13988468e-03,-2.19514862e-01,
  -1.39263622e-03,-3.99432480e-02,-5.42481995e+00,-1.51611894e-01,
  -4.44349414e-03, 1.93577874e-02,-3.21830034e-01,-1.49857178e-02,
  -3.22388485e-02, 2.56491769e-02, 1.74219627e-02, 4.49447215e-01,
  -5.17632663e-01,-6.14755630e-01,-3.01807404e+00,-6.06318973e-02,
  -1.08572829e+00, 2.28111222e-01,-4.69386056e-02,-2.63242340e+00,
  -3.28357607e-01,-5.55338621e+00,-2.88994834e-02,-3.40277031e-02,
   1.58502162e-02, 4.59968805e-01, 9.84013528e-02,-3.69946122e-01,
   4.27369513e-02, 3.38811427e-02, 8.09034929e-02, 6.98683085e-03,
  -7.27262080e-01,-6.65417612e-02,-2.83317752e-02, 2.78343335e-02,
  -1.12019228e-02, 1.15113993e+01,-1.81158334e-01, 2.21921825e+00,
   1.73235670e-01, 2.29881525e+00, 1.45215988e+00, 3.40154320e-02,
   7.35598087e-01, 1.10874005e-01, 1.66797712e-01,-9.43190977e-03,
   7.77467564e-02,-4.50890750e-01,-1.66492879e+00,-5.38432360e-01,
   2.67681956e-01,-3.07347029e-02, 1.18133473e+00,-6.29214048e-02,
   5.75335175e-02, 3.85474674e-02,-2.76177573e+00, 9.30667818e-01,
   1.93110798e-02,-6.87445700e-02,-3.35192569e-02,-2.24665049e-02,
  -2.49176311e+00, 9.79619566e-03,-9.17679146e-02, 5.64724147e-01,
  -9.35592771e-01, 1.98611245e-01, 2.69680166e+00,-1.74410548e-02,
  -3.31751060e+00,-4.55682182e+00,-7.19865784e-02,-3.46620567e-03,
   2.96749603e-02,-2.55511224e-01,-7.73208916e-01, 7.95688182e-02,
  -1.24029025e-01,-1.47149932e+00,-4.80604544e-02,-1.59945339e-02,
  -8.37994888e-02, 2.97482964e-02, 3.74715662e+00, 1.26677211e-02,
  -4.48486321e-02,-3.81621532e-02,-6.86683282e-02, 8.46934095e-02,
   2.86431849e-01,-5.70288897e-01,-1.15995733e-02,-8.29202682e-03,
   3.54889184e-01, 2.72168778e-02,-2.11691171e-01, 1.64846718e-01,
  -2.17378419e-02,-3.99515033e-02, 1.38408870e-01,-8.33851993e-01,
  -1.19850203e-01, 1.16359442e-02, 6.85104549e-01, 4.08717752e-01},
 {-2.38607454e+00, 2.14138532e+00, 8.61832380e-01,-2.37382436e+00,
  -2.54139900e+00,-3.43013144e+00,-2.46156335e+00,-8.31120610e-01,
   2.36275172e+00,-2.66276431e+00,-4.79357910e+00,-5.54770327e+00,
   2.50684977e-01,-2.58812714e+00, 4.96490479e+00, 1.77164376e-01,
   2.80181855e-01,-1.39733374e+00, 1.24340510e+00,-8.43176079e+00,
   1.16268063e+00, 6.62871376e-02,-4.09151745e+00, 1.91462767e+00,
  -1.54992807e+00, 6.60713136e-01, 8.21472645e+00, 1.61799908e-01,
  -8.56222510e-01,-3.12495875e+00, 1.64846933e+00,-5.33105850e+00,
   1.39567256e+00,-2.37676811e+00,-2.90895772e+00, 3.78409594e-01,
  -6.67744207e+00,-1.58629417e+00, 1.01104367e+00, 3.90015274e-01,
   2.46629620e+01,-2.13782042e-01,-2.39116168e+00, 2.31816435e+00,
  -2.82466912e+00,-8.78474295e-01,-2.28854961e+01, 5.67876637e-01,
   3.06658435e+00, 5.03845692e-01,-3.73109126e+00, 5.59475803e+00,
   1.38775909e+00,-2.76373410e+00, 1.26860589e-01, 4.25403690e+00,
  -3.29769325e+00, 2.75672746e+00,-1.01857281e+00, 3.00469637e-01,
   4.45656538e+00,-8.77269566e-01, 1.95415664e+00,-2.95211911e+00,
  -2.09988141e+00,-7.60131478e-01,-7.57696450e-01, 2.20545387e+00,
   1.33710742e+00,-5.36719036e+00,-2.52625197e-01,-1.55387029e-01,
   8.81305635e-01,-6.00792408e-01,-6.15086146e-02, 4.02597368e-01,
  -4.91687298e-01, 8.88399661e-01, 7.08248615e-01, 1.80610335e+00,
  -7.30062068e-01, 4.27553385e-01,-4.77393150e+00, 2.81717390e-01,
  -4.27796459e+00,-1.25443161e-01, 3.55620003e+00, 3.85202503e+00,
   4.47566080e+00, 2.55327225e+00, 4.20447206e+00,-3.94177580e+00,
   5.07342768e+00,-3.92804813e+00,-8.66851568e-01,-9.06080306e-01,
  -8.62170458e-01, 1.64968657e+00, 3.82221371e-01, 1.91536939e+00,
  -5.31467497e-01,-2.39216518e+00, 2.58971405e+00, 1.51613557e+00,
  -1.52715430e-01, 4.88073766e-01, 2.27112651e+00, 1.71329641e+00,
  -4.73215073e-01, 7.03093886e-01, 1.03466916e+00, 5.13489819e+00,
  -1.32639563e+00,-6.60100520e-01,-1.03577733e+00, 1.91234016e+00,
  -2.28821230e+00,-7.48774171e-01, 4.32271719e-01,-3.35012555e-01,
  -5.82622004e+00, 2.50686575e-02,-1.12333288e+01,-2.01613829e-01,
  -2.12761760e+00, 1.55817294e+00, 3.45427632e+00,-5.44512331e-01},
 {-7.74027929e-02,-4.12606373e-02,-1.60116870e-02,-4.93223369e-02,
   4.99870740e-02,-1.50810331e-01,-1.09243346e-02,-1.60034653e-02,
  -7.66402557e-02,-1.23689556e-02,-5.77130988e-02,-9.24206153e-02,
  -1.39100939e-01,-3.79109941e-02,-9.09246504e-02,-5.24645264e-04,
   4.23262268e-02, 1.55045036e-02,-4.64729965e-02,-3.85168754e-02,
  -5.66421300e-02,-1.12799540e-01,-3.85953672e-02,-1.32435516e-01,
   2.50216341e-03,-2.49837916e-02,-1.01504378e-01,-1.26269385e-01,
   7.11976411e-03,-1.10429049e-01,-1.11811705e-01,-8.42851624e-02,
  -7.61773884e-02,-2.47671939e-02,-1.61529034e-01,-8.61454085e-02,
   6.79841638e-02,-6.48925006e-02,-1.49451075e-02,-8.62079933e-02,
  -3.54707800e-02,-1.31750464e-01,-7.00716674e-02, 2.92865913e-02,
  -4.98191826e-02,-4.77021374e-02,-1.11722142e-01,-4.74791275e-03,
  -8.51503946e-03,-9.70734134e-02,-1.06486052e-01, 3.24504887e-04,
   6.56195625e-04,-3.55972648e-02,-3.95459756e-02,-3.01846545e-02,
  -4.34745587e-02,-1.21334605e-02, 1.62284039e-02,-4.52039726e-02,
  -7.47471526e-02,-4.74756956e-02,-2.37545837e-02,-8.25183187e-03,
  -6.42715096e-02,-2.08128672e-02, 3.66836414e-02,-2.09924821e-02,
  -6.30419552e-02,-5.34218624e-02,-3.41338255e-02,-6.77697584e-02,
  -9.07953456e-02,-3.71534266e-02,-6.04003808e-03,-3.51452939e-02,
  -1.21823385e-01,-8.67052525e-02,-2.32271887e-02,-3.76134440e-02,
   8.55200179e-03,-4.70247902e-02,-1.34356067e-01,-6.40133619e-02,
  -1.06621310e-01,-1.13924928e-01,-1.00273229e-01, 2.50660926e-02,
  -1.04416413e-02, 4.06972226e-03,-8.77263397e-03,-2.20684167e-02,
   4.42407019e-02, 2.68683285e-02,-5.97690530e-02,-5.38904592e-02,
  -1.55761875e-02,-9.28454027e-02,-1.40007928e-01,-1.07669957e-01,
   1.15918936e-02, 2.70871017e-02, 2.14514788e-02,-2.25686990e-02,
   5.34580648e-02,-1.37506276e-01,-1.27730086e-01,-7.71745443e-02,
   2.95939688e-02,-6.08448014e-02,-1.15331270e-01,-1.88547857e-02,
  -6.47879466e-02,-6.64518625e-02,-1.53973494e-02,-7.61943981e-02,
  -1.19879507e-01,-9.65467468e-02,-3.40661802e-03, 1.07011003e-02,
  -4.03684974e-02,-1.86601635e-02, 3.86129096e-02,-4.05405760e-02,
  -1.04547188e-01,-1.20388828e-01,-8.40789732e-03,-8.74322490e-04},
 { 1.65288305e+00,-5.13029337e+00,-2.60314989e+00, 4.78887987e+00,
  -9.10512447e-01,-5.02429199e+00, 6.21835375e+00, 5.12126148e-01,
  -3.79976988e+00, 2.35671735e+00,-6.75828838e+00,-8.68834591e+00,
   1.80981547e-01, 3.38480854e+00, 3.12346244e+00, 3.10405231e+00,
   1.72512197e+00, 2.54364777e+00, 3.10101300e-01,-1.19725943e+00,
   3.04687351e-01, 5.42310417e-01, 3.21944284e+00,-3.27795482e+00,
  -4.31897998e-01, 2.24239781e-01, 4.94200516e+00, 1.96935809e+00,
  -5.74753106e-01,-5.47593296e-01,-4.31498498e-01, 3.15909572e-02,
  -1.62242508e+00, 7.20690727e+00,-6.92940569e+00,-4.14006174e-01,
   4.94227982e+00, 8.82107690e-02,-4.30521965e+00,-3.31637168e+00,
   3.92950922e-01, 5.22506952e+00,-1.91817367e+00,-3.15455818e+00,
  -2.56011844e+00, 3.51127076e+00,-2.53757864e-01,-1.60065448e+00,
  -1.88468114e-01,-1.77837443e+00, 9.95396614e-01,-3.28394032e+00,
   2.30953026e+00, 6.59740925e-01, 1.14835930e+00,-3.78889751e+00,
   5.91199732e+00, 9.38155651e+00, 2.37736869e+00, 6.91977739e-01,
  -1.18422854e+00, 3.43866706e+00, 1.09613791e+01, 5.84921658e-01,
   1.77082372e+00, 5.57058430e+00, 1.23186931e-01, 2.07189441e-01,
  -1.98144329e+00,-3.55690098e+00,-4.89670563e+00, 6.19987059e+00,
  -1.74448776e+00,-1.89285958e+00,-3.32746100e+00, 7.86109746e-01,
  -1.75193191e+00,-1.36369598e+00, 2.62596393e+00,-1.00110555e+00,
   1.07343149e+00, 1.59988952e+00, 3.61842680e+00,-1.34813046e+00,
  -4.66869450e+00, 3.47743273e+00, 3.98596883e+00, 1.14216363e+00,
   4.23541456e-01,-6.79128218e+00,-1.01440115e+01,-4.17737913e+00,
   4.61961448e-01, 6.00848317e-01,-2.51111555e+00,-7.15159833e-01,
  -4.64995956e+00, 1.49201727e+00,-9.25182521e-01,-4.37630683e-01,
   3.67752242e+00,-4.85031509e+00,-7.92851210e+00,-8.49009097e-01,
  -2.14285538e-01,-1.60779548e+00,-8.06777668e+00,-3.59452868e+00,
   9.91287649e-01, 2.38410860e-01, 2.00971818e+00,-2.27590203e+00,
  -1.80005276e+00,-1.79551337e-02,-1.01066077e+00,-3.33970237e+00,
  -8.44091237e-01, 3.15721536e+00, 4.95942146e-01, 1.79764414e+00,
   3.30330467e+00, 3.92540723e-01, 2.69302225e+00, 2.40498364e-01,
   4.73848295e+00,-2.35713768e+00,-1.95750999e+00, 2.49909663e+00},
 {-2.76252031e+00,-8.26901138e-01,-5.54306269e+00, 9.04615879e-01,
   2.38958669e+00, 3.34186703e-01,-3.25543195e-01, 1.42374671e+00,
  -1.31182647e+00, 2.02957630e+00,-4.95629263e+00, 6.25039005e+00,
  -4.76966500e-01,-9.59901619e+00, 3.14108014e+00, 8.38892651e+00,
   2.20374584e+00, 4.63102770e+00, 1.92274883e-01,-2.46730423e+00,
   2.38274717e+00, 1.59213650e+00, 6.74730957e-01,-2.72258353e+00,
   8.63566160e-01,-5.05382681e+00,-2.74493241e+00,-1.26479948e-02,
  -2.42274451e+00,-4.59780264e+00,-8.37271586e-02, 3.31649971e+00,
  -3.19279671e+00,-6.35473728e+00,-4.74476862e+00, 4.69942182e-01,
  -7.70599067e-01, 2.12015843e+00, 1.25604010e+00,-9.18803751e-01,
   1.84037054e+00,-5.23320103e+00, 1.22230959e+00,-8.08349609e+00,
  -6.32401323e+00,-7.72184193e-01, 1.62305892e+00, 5.04085124e-01,
  -8.73988211e-01,-9.36973929e-01,-7.42292500e+00,-5.90384722e-01,
  -5.33551611e-02,-7.41520941e-01, 1.47786498e+00,-1.54275823e+00,
   2.42902207e+00, 2.51715183e+01, 2.66926861e+00,-2.39848018e+00,
  -3.41922045e+00,-1.94757760e+00,-3.91559839e-01, 5.01034200e-01,
  -1.19464171e+00,-7.38580406e-01, 8.12338591e-01, 6.52897134e-02,
  -1.95110488e+00,-4.69725430e-01, 2.40161920e+00, 3.89989018e+00,
  -3.91314602e+00,-6.42379701e-01,-9.38617170e-01, 1.58723748e+00,
  -4.07857466e+00,-1.86648703e+00, 1.35550308e+00, 5.83984256e-01,
  -3.03879231e-01, 6.37485564e-01, 5.13943338e+00,-7.81066418e-01,
  -4.16475582e+00,-1.23296652e+01, 4.01967049e+00,-1.80722160e+01,
  -8.49436569e+00,-2.82629108e+00,-3.90253711e+00, 1.56797028e+00,
   8.58025074e+00,-3.28932166e+00, 1.16333425e+00, 3.37900639e-01,
   3.07746935e+00, 2.53149056e+00, 1.04360962e+00,-1.32440972e+00,
   5.34390497e+00,-1.07604876e+01,-8.04019988e-01,-7.80551314e-01,
  -8.59377325e-01,-7.88371623e-01,-2.52924705e+00,-8.97725224e-01,
   1.25779307e+00, 8.15720260e-01,-2.03794939e-03,-7.08549380e-01,
   2.72180885e-01, 3.26380253e-01, 7.48471797e-01,-7.29470253e-01,
   4.29462194e-01, 1.85963917e+00, 3.05870444e-01,-2.93615294e+00,
   2.24383950e+00,-1.56083152e-01, 1.21342874e+00, 2.49804759e+00,
   3.92276931e+00,-3.30881572e+00, 4.80432606e+00,-3.47394681e+00},
 {-1.31399326e+01,-3.77192378e-01, 1.66329136e+01,-6.92304468e+00,
  -1.39325833e+00,-2.48796582e-01,-1.23246586e+00,-1.21591449e+00,
  -6.68045342e-01,-6.30611718e-01, 3.96809793e+00,-5.77897263e+00,
   2.39127323e-01,-1.47657614e+01,-1.19194136e+01, 1.64206183e+00,
   4.38360393e-01,-1.17362595e+00, 4.80251871e-02,-1.30400431e+00,
  -1.41632065e-01,-9.38935459e-01, 1.11242867e+01, 3.23230791e+00,
  -9.41446483e-01,-2.92986482e-01, 3.12230110e-01,-7.78379059e+00,
   6.89947307e-01, 7.72679949e+00, 2.56852120e-01, 2.88035488e+00,
   3.00205469e-01, 1.66041505e+00,-2.30441761e+01, 9.57690358e-01,
   8.92622054e-01,-3.68291092e+00,-1.03801048e+00, 4.87000942e+00,
  -1.89080071e+00,-9.37409401e+00,-2.11770225e+00,-1.57016075e+00,
   2.22122550e+00,-6.25923395e+00, 4.43692625e-01, 2.65471077e+00,
   6.21545076e-01, 2.82951564e-01,-7.98542690e+00, 2.56743889e+01,
   4.38306427e+00, 3.12031269e+00,-6.61503673e-01, 3.92838091e-01,
  -3.84459756e-02, 2.62571359e+00,-1.12890434e+00, 7.46151626e-01,
   1.87848961e+00, 2.78452444e+00,-1.44238224e+01,-9.13646221e-01,
   3.70203674e-01, 1.82565498e+01, 4.71842408e-01, 2.11215064e-01,
   6.50600016e-01,-2.77068996e+01, 3.17377448e+00,-8.19782639e+00,
   2.62970042e+00, 6.62235916e-01, 7.73740196e+00, 5.13393022e-02,
   2.70362639e+00, 1.16772580e+00, 3.16205442e-01, 1.36423826e+00,
   4.68581945e-01, 3.37440062e+00,-3.64262748e+00, 2.41454452e-01,
   6.13241084e-03, 2.76301116e-01,-3.68710041e+00,-7.77179480e+00,
  -7.78317273e-01,-4.35664386e-01,-3.78008413e+00, 6.28436625e-01,
  -1.06164360e+01,-5.97769213e+00,-2.20764232e+00, 4.96303892e+00,
  -6.25309753e+00,-5.43976641e+00,-1.53958309e+00, 9.79893088e-01,
  -3.34045577e+00,-2.41134286e+00, 5.49600720e-01, 6.05749309e-01,
   4.12625968e-01, 8.42878759e-01, 7.37781000e+00, 3.32335567e+00,
  -4.62955564e-01,-6.90215707e-01, 9.50844347e-01, 2.25325450e-01,
  -1.79000032e+00,-1.54682562e-01,-2.45905221e-01, 2.87812073e-02,
   4.54810810e+00,-1.91640770e+00,-5.19148970e+00,-1.37187529e+01,
  -1.16152513e+00,-1.47313893e+00, 7.20723331e-01, 1.91324997e+00,
  -4.25769091e+00, 2.27792501e+00, 1.13320513e+01,-1.32318461e+00},
 { 1.55204201e+00,-1.00731993e+00,-6.36655807e+00, 1.55182242e+00,
   1.01192605e+00, 3.92591929e+00, 3.86714554e+00, 7.16696382e-02,
  -6.59559011e-01,-3.67612779e-01,-2.11472440e+00, 5.67540312e+00,
  -1.02575147e+00, 1.24717629e+00, 6.09686804e+00, 1.73315549e+00,
  -9.69398141e-01, 1.86996830e+00,-6.34963560e+00, 4.62785006e+00,
   2.48350188e-01,-1.34089321e-01, 5.06402397e+00,-4.91225839e-01,
  -1.10015664e-02,-4.11922073e+00, 1.07429285e+01,-2.14701223e+00,
  -1.71501422e+00,-6.15376234e+00,-4.73320723e-01,-6.80881882e+00,
  -9.18617547e-01, 1.63509977e+00, 4.49230146e+00,-4.99902278e-01,
   4.35891485e+00,-1.46055293e+00,-1.68911588e+00, 4.01855081e-01,
   1.81261408e+00, 4.04434294e-01, 1.66096961e+00,-2.37058783e+00,
  -9.59428370e-01, 1.19873202e+00,-2.24339634e-01, 2.03487229e+00,
  -2.93060541e-01,-8.50375354e-01,-9.90761375e+00, 1.09391797e+00,
  -4.51491642e+00, 2.42418265e+00, 8.89733493e-01,-1.64258325e+00,
   8.77932131e-01, 4.54334545e+00, 1.15124536e+00,-4.83581591e+00,
   1.47472814e-01, 1.12193987e-01, 9.82981396e+00, 3.68114054e-01,
  -1.11364355e+01, 1.74863315e+00, 6.95840344e-02,-2.53882349e-01,
  -5.35682142e-01,-3.95556903e+00,-9.12327862e+00, 1.47172141e+00,
  -6.35897636e-01,-1.90914953e+00, 4.06046778e-01,-4.23851579e-01,
  -1.26961493e+00,-6.50795758e-01,-3.84051180e+00, 7.68660188e-01,
   2.77994096e-01, 1.66020584e+00, 2.80973196e+00,-1.59362948e+00,
  -2.60047150e+00,-7.20691347e+00, 2.82945013e+00, 4.76314735e+00,
   1.87344158e+00, 1.94147396e+00,-7.09630394e+00,-3.41681266e+00,
  -3.98630691e+00,-5.23682880e+00,-1.08618450e+00, 7.42681444e-01,
  -5.91517389e-01, 1.13129950e+00, 9.54458416e-01, 7.08094120e-01,
   1.50712585e+00, 1.76745653e+00,-3.06348324e+00,-1.62677467e+00,
  -3.46565515e-01,-2.34308213e-01,-4.94810867e+00,-4.04902965e-01,
  -8.50856125e-01,-5.67266464e-01,-2.81440115e+00,-3.33598793e-01,
   7.58299947e-01,-1.96348274e+00,-2.26784199e-01,-9.05895472e-01,
   1.56843519e+00, 1.15491760e+00,-5.06087542e+00, 1.16610706e+00,
   1.10159385e+00,-2.37069651e-01,-2.02537203e+00,-5.57048750e+00,
   4.23089123e+00,-2.06030321e+00,-5.82618773e-01,-2.79694080e-01},
 { 1.28500354e+00,-3.18237829e+00, 2.77751231e+00, 9.84690309e-01,
   1.01845443e+00,-1.38786829e+00,-2.69452643e+00, 1.40197515e+00,
  -1.02291906e+00,-2.81684017e+00, 1.27593660e+00,-2.10511044e-01,
  -1.11856565e-01, 5.80352008e-01, 1.84378624e-01,-1.24655545e+00,
   7.18504620e+00, 1.63880455e+00, 7.38604689e+00,-4.70373809e-01,
  -3.05115738e+01, 2.06428790e+00, 9.93391871e-01,-6.31731653e+00,
  -7.37472296e+00,-1.03544533e+00, 2.78522420e+00,-2.10466599e+00,
   7.15980959e+00,-3.01997304e-01,-4.00141144e+00, 6.97641373e+00,
  -4.67954206e+00,-1.27569330e+00,-1.95745611e+00, 9.44666505e-01,
   4.98701763e+00, 1.00684714e+00, 1.37320387e+00, 7.95346618e-01,
   3.36082864e+00, 1.07458365e+00,-2.87546778e+00,-2.92833522e-02,
   1.49538851e+00, 4.23994988e-01, 1.86062562e+00, 1.79475081e+00,
   1.95302796e+00, 5.93346581e-02,-2.59177637e+00,-6.75041080e-01,
  -2.50972700e+00,-6.77846336e+00, 8.88924539e-01,-1.28902712e+01,
   6.90934479e-01, 1.69485402e+00, 2.19514847e-01,-1.46791804e+00,
   3.43672442e+00, 8.04654181e-01, 9.11960316e+00,-1.90023983e+00,
  -2.40265203e+00, 2.49460745e+00,-2.66101837e+00,-3.50099921e+00,
  -5.83012104e+00, 4.36202735e-01, 5.36420345e+00, 8.23822916e-01,
   5.78485584e+00,-1.22514591e+01, 2.05362037e-01,-8.06785077e-02,
  -4.48660326e+00,-3.05531836e+00, 9.09507990e-01, 2.91773343e+00,
   3.59353566e+00, 1.84000158e+00, 9.31805897e+00, 4.09602255e-01,
  -6.02827333e-02, 8.13880503e-01, 1.17226839e+00, 2.20680523e+00,
  -1.72671214e-01, 2.84129238e+00, 1.84696972e-01, 2.69980222e-01,
  -2.70061314e-01, 1.10986352e+00, 7.86143363e-01,-2.63832211e+00,
  -3.08816433e+00, 5.30319035e-01, 8.29178691e-01, 3.12582874e+00,
   4.01339483e+00, 9.40281153e-01, 1.07758641e+00,-1.23558607e+01,
  -1.40795288e+01,-8.04010093e-01,-2.52240038e+00, 5.19429684e+00,
  -8.72851551e-01, 1.06970382e+00,-1.41377878e+00,-2.08977461e+00,
  -3.09835768e+00,-1.87885082e+00, 6.31500721e-01,-1.45645370e+01,
  -7.58997560e-01, 4.39844275e+00, 5.50159454e+00, 1.65137187e-01,
   9.22717857e+00, 1.68733704e+00, 3.93889236e+00,-2.07171631e+00,
  -5.96242368e-01,-1.92021389e+01,-3.52217406e-02, 1.32286903e-02},
 {-1.09291496e+01,-1.17169499e+00, 6.14705682e-01, 1.24957108e+00,
  -2.05424118e+00,-1.67473049e+01, 6.00619459e+00, 1.95814586e+00,
   1.30773067e+00, 8.89041305e-01,-7.70477581e+00,-5.05729246e+00,
  -1.01836938e-02,-8.76174942e-02, 2.20963359e+00, 1.25307238e+00,
   5.35934627e-01, 8.37473094e-01,-9.02419376e+00,-6.56502104e+00,
  -1.23928607e+00, 1.52094245e-01,-5.52948809e+00,-1.56026280e+00,
   3.16318601e-01, 3.21702290e+00, 4.52338743e+00,-7.29425278e+01,
  -7.87855721e+00,-2.31520557e+00,-1.64111659e-01, 2.27813005e+00,
  -2.50985694e+00, 6.84878588e-01, 2.42928505e+00, 3.31134677e+00,
   3.14411211e+00, 9.24471319e-01,-2.01059699e+00,-1.59643912e+00,
   1.48417950e-02,-3.13243680e-02,-2.43406773e+00, 3.53616047e+00,
  -2.30492520e+00,-8.44984412e-01, 1.07166636e+00,-2.44727850e-01,
  -5.88493466e-01,-1.28468192e+00,-1.40363955e+00,-7.37281466e+00,
  -8.76796782e-01, 1.01546116e+01, 1.16203558e+00,-1.90964580e+00,
   4.01923656e+00, 9.73951244e+00, 2.52840090e+00, 3.08512950e+00,
  -1.09791410e+00,-1.64857841e+00,-1.15430079e+01, 5.23053885e-01,
   7.55927420e+00, 4.53593940e-01,-5.26414625e-03,-6.21159226e-02,
  -2.50741887e+00,-3.84495807e+00,-3.79675746e+00, 1.04117048e+00,
  -2.65555978e+00,-2.85212064e+00,-2.64048290e+00, 1.05467725e+00,
  -2.03320384e+00,-1.98330128e+00,-2.39594841e+00,-8.44730735e-01,
   7.26838052e-01, 1.67851675e+00, 4.41504431e+00,-1.60463989e+00,
  -5.68925238e+00,-6.97303772e-01, 6.71979570e+00,-2.06728840e+00,
  -1.25563681e+00,-2.33685231e+00, 2.60271120e+00, 4.59502608e-01,
   1.20156727e+01,-5.12620354e+00,-1.42965782e+00, 6.33164287e-01,
  -1.85867608e+00,-7.57142454e-02, 1.03596687e+00,-3.26689929e-01,
   3.35059428e+00,-1.34321082e+00,-3.25913644e+00,-8.85449052e-01,
  -2.36103535e-01, 7.97592327e-02, 2.89800096e+00,-2.26461792e+00,
   9.39514816e-01, 4.53393936e-01, 1.77114022e+00,-1.13188970e+00,
   5.49033880e-02,-6.45057154e+00, 3.58700186e-01,-2.15685129e+00,
   1.62328696e+00, 2.58441949e+00, 1.44257128e+00, 1.83589494e+00,
   1.81611550e+00, 8.02132428e-01,-3.73668170e+00,-9.45953965e-01,
   6.66364384e+00,-2.67626762e+00,-3.61238658e-01, 2.38158599e-01},
 {-1.81045876e+01,-5.64614201e+00,-6.61532640e+00, 7.32195199e-01,
  -6.57378972e-01,-3.49099135e+00,-1.85072565e+00,-2.16129541e+00,
  -1.18605614e+00,-6.31142426e+00, 3.51211023e+00,-2.62453198e+00,
  -9.20021981e-02,-6.74426079e+00, 3.26799798e+00,-4.45985413e+00,
   1.75535977e-01,-2.24215579e+00,-1.39328027e+00,-1.52479970e+00,
  -3.37619334e-01,-6.82324171e-01, 3.96752119e+00, 6.50312233e+00,
   1.93236247e-01, 8.65417719e-01,-2.85632381e+01, 3.11258292e+00,
   2.80972600e-01, 1.50990987e+00, 1.91531464e-01,-1.55485773e+00,
   3.00300193e+00, 1.49157274e+00,-4.65614080e+00,-2.52226925e+00,
  -9.59206283e-01,-1.01209140e+00,-1.09752970e+01,-2.30122828e+00,
   1.84678936e+00, 3.16896796e+00,-8.55082870e-01,-1.72254264e+00,
   4.59143996e-01, 4.61757231e+00,-4.08774424e+00, 2.00156331e+00,
   1.40441203e+00, 1.61853886e+00,-2.76791496e+01,-3.42727113e+00,
  -8.01786232e+00, 1.91581535e+00, 8.98086786e-01, 1.36929679e+00,
  -3.77336001e+00, 1.76474533e+01, 1.20969617e+00,-8.48305225e+00,
   4.46239710e+00, 2.08592367e+00, 4.31590462e+00, 8.66334677e-01,
  -2.89347887e+00, 2.45039797e+00, 6.64186180e-01,-1.81811541e-01,
   5.32307327e-02,-5.83157396e+00,-4.72401714e+00, 5.52966785e+00,
   4.12170172e+00,-9.25825238e-01,-6.53675985e+00, 5.06329119e-01,
   1.63871396e+00, 1.60524321e+00, 7.62313426e-01,-3.18448329e+00,
  -8.39009047e-01,-1.64473200e+00,-4.90519667e+00, 1.29124629e+00,
  -7.35117769e+00,-1.55755243e+01,-3.22348833e+00, 7.66979218e+00,
  -6.32745790e+00,-1.99911863e-01, 9.14891529e+00,-7.83820331e-01,
   7.24504089e+00,-9.32208157e+00,-7.05781937e-01, 9.57472503e-01,
   1.02944450e+01, 3.14231920e+00, 3.99702668e-01,-2.91417062e-01,
  -3.53828478e+00,-2.54457283e+01, 4.35825062e+00,-1.94936953e-02,
   8.87958109e-02, 2.20695853e+00, 4.17853802e-01,-2.79497480e+00,
  -2.34534287e+00,-8.76523793e-01, 1.54928696e+00, 7.62720823e+00,
   4.47172070e+00,-1.15297985e+00,-1.41424227e+00, 5.22941113e+00,
  -2.56726533e-01,-3.98774177e-01,-1.33642644e-01, 7.89463699e-01,
  -4.21379852e+00,-7.16788352e-01,-3.70698762e+00,-1.65856194e+00,
  -5.55835962e+00, 2.23395014e+00,-1.55739343e+00,-3.31914574e-01},
 { 3.77874114e-02, 9.60998118e-01,-4.61905050e+00, 7.46267128e+00,
   1.04152477e+00, 1.13004518e+00, 2.16347098e+00,-2.29715228e+00,
   5.95172048e-01,-1.55607116e+00, 1.14309397e+01, 4.96744484e-01,
   5.46882331e-01, 1.67572355e+00, 6.45528173e+00, 2.76085615e+00,
   5.77017128e-01,-9.64366019e-01,-5.27103043e+00, 1.13176727e+01,
   1.39329329e-01,-1.97154450e+00,-3.99793744e+00, 6.01663685e+00,
  -3.34067512e+00,-3.12426567e+00,-1.54547329e+01,-2.15890551e+00,
  -2.11418533e+00, 2.08674932e+00,-1.14822400e+00,-1.54500637e+01,
  -8.12572575e+00,-2.46107554e+00,-5.02305460e+00, 3.17234278e-01,
  -4.43769503e+00, 6.36973083e-02, 1.98265493e+00, 1.54962146e+00,
   8.22878456e+00,-6.65976703e-01, 2.39140272e+00,-6.82622373e-01,
   2.52366471e+00, 4.84925461e+00, 6.57857120e-01, 1.26741099e+00,
   1.66070104e+00,-1.35789573e+00, 1.52297533e+00, 9.44096088e-01,
   1.78353024e+00, 2.13942334e-01,-2.79397070e-01,-8.54800522e-01,
  -1.37449503e+00,-3.18744779e+00,-1.90350723e+00, 4.18989062e-01,
   3.02117276e+00,-1.65822494e+00, 3.07116652e+00,-4.83320475e+00,
  -3.75797987e-01,-6.32825851e-01,-3.16934609e+00, 9.87233520e-01,
  -5.53760231e-02,-6.62269211e+00,-5.42725897e+00,-9.13174391e-01,
   4.33376932e+00,-2.66706556e-01,-7.32827306e-01,-1.57390070e+00,
   2.66260433e+00, 1.34389007e+00,-2.41958666e+00, 2.97724098e-01,
  -5.50391674e-01, 9.91270244e-01,-9.57606435e-01,-2.74020374e-01,
  -6.54850769e+00, 2.11555743e+00,-6.14478445e+00, 3.14309299e-01,
   1.79960334e+00, 1.68911350e+00, 7.01497984e+00, 2.54468942e+00,
   4.20898914e+00,-2.74337459e+00,-2.82542324e+00,-6.12445116e+00,
  -3.02273154e+00, 3.61783147e-01,-9.09654200e-01, 3.92380285e+00,
  -4.17348337e+00,-1.31159282e+00, 1.17219329e+00, 6.97592437e-01,
   8.29906762e-01, 1.55813122e+00, 3.12813497e+00,-5.49932623e+00,
  -6.85724676e-01,-2.62801576e+00, 1.90292072e+00, 2.33725762e+00,
  -4.40156889e+00, 4.30640745e+00,-1.60859323e+00,-1.10036552e+00,
  -6.90511107e-01, 8.08650069e-03, 1.90393150e+00,-1.34961510e+00,
  -5.71576834e-01, 1.59922099e+00,-1.76440310e+00, 5.38313031e-01,
  -1.77930951e+00, 9.50245321e-01, 4.71369416e-01,-2.51789594e+00},
 { 7.85400271e-01, 5.94984579e+00, 7.34503984e-01,-1.71859324e-01,
  -3.41867059e-01,-2.35586196e-01,-4.16424561e+00, 7.71183133e-01,
  -3.54516792e+00, 8.41744781e-01,-1.30317247e+00, 3.47645617e+00,
   6.01676643e-01, 1.19156275e+01,-3.76449561e+00, 5.83775806e+00,
  -8.99887383e-02,-9.77017701e-01, 1.73985064e-01, 3.89557779e-01,
   5.42417705e-01, 6.29955649e-01, 9.84282017e+00,-2.28799510e+00,
  -2.82103837e-01,-1.12853980e+00, 1.36031365e+00,-1.56619275e+00,
  -2.42131308e-01, 1.04652805e+01, 2.08545960e-02, 2.59466982e+00,
   1.02661645e+00, 5.94155216e+00,-1.34385242e+01,-6.93366587e-01,
   9.00474167e+00,-1.85337639e+00,-3.43895602e+00,-1.66390800e+00,
   1.13054633e+00,-8.13203335e+00,-1.63952589e+00,-9.03222084e-01,
  -2.02354026e+00,-3.53671074e+00, 3.32830638e-01,-1.21068454e+00,
  -7.87066638e-01,-1.25713736e-01,-6.49617314e-01, 3.59365582e+00,
   5.89247179e+00,-1.72550499e-01, 3.31317186e-01,-1.90135300e-01,
   9.84214425e-01,-1.09496326e+01, 1.69666576e+00, 1.23564696e+00,
  -7.27803230e-01, 6.20818853e+00,-7.23069859e+00, 5.99710286e-01,
   2.43359709e+00, 1.05223608e+00,-1.18313156e-01,-5.66315725e-02,
  -1.28874278e+00,-3.51437837e-01, 9.62239653e-02,-8.09505999e-01,
  -2.38944507e+00,-7.68285841e-02,-7.32395411e+00, 1.05305016e+00,
  -1.54324865e+00,-7.11404443e-01, 5.71847963e+00, 4.45434809e+00,
  -1.24362921e-02, 4.04943132e+00, 2.28630733e+00,-8.56606543e-01,
  -5.15560961e+00,-2.38125235e-01, 1.48514724e+00,-1.11885509e+01,
   2.31263351e+00, 1.99283528e+00, 1.05318489e+01,-1.13487978e+01,
   1.10191460e+01,-4.77881718e+00,-3.12583852e+00,-1.01005554e+00,
  -4.21679467e-01,-1.30170240e+01,-1.67580569e+00,-6.04891717e-01,
   1.89678955e+00,-1.12947054e-01,-6.74681783e-01,-4.03018862e-01,
  -3.17183346e-01,-1.69976205e-01, 4.26696777e+00, 7.39821911e-01,
   6.02654159e-01, 4.93988782e-01, 1.56134808e+00,-2.73119837e-01,
  -6.73069429e+00,-2.49000597e+00, 3.79914761e-01,-9.47084948e-02,
  -3.39884728e-01, 5.72654307e-01, 1.14436972e+00,-4.83739376e-01,
   1.11116004e+00, 8.32940757e-01, 2.17814279e+00,-4.07154530e-01,
   2.00560141e+00,-5.75353324e-01, 1.50018225e+01,-5.01760364e-01},
 {-6.61135387e+00, 7.01991510e+00, 1.72936097e-01,-1.10867262e+00,
   2.03622088e-01, 3.83467115e-02,-1.08093480e-02, 5.87910861e-02,
   1.25259960e+00, 4.31591161e-02,-2.49021173e-01, 9.46513191e-02,
   1.77647090e+00, 7.15468216e+00,-2.98074293e+00,-1.37734907e-02,
  -6.91215321e-02, 2.42759306e-02,-2.73788981e-02,-2.31665707e+01,
   1.49190249e-02, 3.61986905e-02,-3.58031273e-01,-1.03792876e-01,
   1.75760761e-01,-2.97782738e-02,-2.29833219e-02,-8.72629261e+00,
  -1.46753321e+01, 6.01643622e-02, 1.58046116e-03,-9.72552180e-01,
   3.47530603e-01, 1.07564002e-01,-4.34425175e-01, 5.70299745e-01,
   4.99925280e+00, 5.62990785e-01,-7.78266415e-02, 3.78764987e-01,
   2.12059706e-01,-8.72843683e-01,-9.95577872e-02,-8.48428845e-01,
  -9.66703743e-02,-6.76274300e-02,-1.65569633e-01,-6.15728740e-03,
  -6.06659474e-03,-1.76515821e-02, 9.50088277e-02,-2.70416145e+01,
   6.04093932e-02,-1.85799809e+01, 2.40242723e-02,-4.51458395e-02,
  -8.45553726e-03,-1.72241859e+01,-3.82353291e-02,-3.06972619e-02,
  -1.80249214e-01, 9.83744085e-01,-5.74096799e-01, 2.58005150e-02,
  -1.18409730e-02,-4.61600035e-01, 1.83719285e-02,-5.80499955e-02,
  -9.17659421e-03,-2.90140591e+01, 4.89000194e-02,-4.23046350e+00,
   7.79240504e-02,-9.03190486e-03, 2.21631527e-01,-1.76070947e-02,
  -7.80132487e-02,-5.21151051e-02, 4.15977210e-01, 7.92679861e-02,
  -1.03428327e-02, 1.46341279e-01, 1.30595341e-01, 4.08074781e-02,
   4.98074234e-01,-1.76750086e-02, 2.19935998e-01, 1.47843063e-01,
   8.95819366e-02, 6.42285943e-02, 3.26548815e-01, 3.88858020e-02,
  -1.87699473e+00, 1.07016213e-01,-2.33349879e-03, 1.70249909e-01,
   3.34803155e-03,-5.05517185e-01,-3.34455919e+00, 4.70538111e-03,
   1.16227657e-01,-7.26152286e-02,-1.36181533e-01,-4.07109521e-02,
  -4.35688123e-02,-5.33393992e-04, 2.74247199e-01,-2.52313074e-03,
   3.14697437e-02, 1.88826304e-02, 1.90167457e-01,-3.95448431e-02,
  -4.23583260e-04,-2.75661796e-02,-2.59234826e-03,-3.41005027e-02,
  -4.97577333e+00,-4.32180502e-02, 6.83673680e-01, 2.07588419e-01,
   4.37764786e-02, 2.72196382e-01, 1.04756522e+00, 7.38901421e-02,
  -1.76950127e-01,-3.58964540e-02, 4.64109719e-01,-7.92904496e-02},
 { 1.81513822e+00,-1.73904085e+00, 2.52799273e-01,-1.68213159e-01,
  -1.50397348e+00, 3.56137335e-01, 7.99235851e-02, 7.34089994e+00,
   6.87615752e-01, 2.41230607e+00,-9.29247570e+00,-2.04082161e-01,
   9.12782252e-02, 7.53492653e-01, 7.69489229e-01, 7.33680651e-02,
   1.31766272e+00, 4.54564959e-01,-1.06506445e-01, 2.34439754e+00,
   2.38896322e+00, 9.67262983e-01,-7.50334680e-01,-1.39892232e+00,
  -9.84752774e-02,-2.07417846e+00, 9.35892090e-02,-2.04958498e-01,
  -9.13092804e+00, 2.53740287e+00,-8.98630470e-02,-5.89089680e+00,
   4.46692038e+00,-1.33947334e+01, 3.68492389e+00, 2.99309373e-01,
  -3.94048905e+00, 6.42013788e-01,-3.28003496e-01, 1.64675489e-01,
   9.46715355e+00,-6.50761306e-01, 6.21152222e-01,-2.28461337e+00,
  -8.29634190e+00, 2.09651694e-01,-7.15300703e+00,-3.90711904e+00,
  -1.68975770e+00,-2.08303452e+00,-3.42712030e-02,-8.29254329e-01,
   5.40868700e-01,-4.57328415e+00, 4.06376839e+00,-2.43858719e+00,
   2.64689374e+00, 1.18807483e+00, 1.77706194e+00, 1.26329452e-01,
  -6.89710188e+00, 2.83260614e-01, 2.17327404e+00, 2.79755020e+00,
  -5.46061099e-01,-5.47322989e-01,-1.16379011e+00, 3.27114135e-01,
  -2.17984843e+00,-2.21515313e-01,-2.80080944e-01,-4.37222213e-01,
  -6.01704073e+00,-7.67534733e-01, 1.09684318e-01,-2.15447664e-01,
  -6.19977474e+00,-5.06129980e+00, 5.55081904e-01, 8.83553982e-01,
  -4.96085167e-01, 8.18953454e-01, 3.26330686e+00, 4.62521887e+00,
  -4.29876953e-01,-6.01848185e-01, 6.83233452e+00,-2.31855464e+00,
  -1.56857288e+00,-1.31817782e+00, 1.55532682e+00, 1.80193436e+00,
   4.33432519e-01, 2.96791911e-01,-6.70016289e-01,-1.69442985e-02,
   8.28704908e-02,-1.41510800e-01, 3.39612097e-01,-2.01543784e+00,
   7.10653210e+00,-1.29308760e-01,-1.50230348e+00,-6.84577131e+00,
   4.20419961e-01,-1.26166701e-01,-6.21852815e-01,-2.49675531e-02,
   4.28744364e+00, 2.95939755e+00, 7.49909759e-01,-1.83493912e+00,
  -2.95465663e-02,-3.93264554e-02,-3.08584332e+00,-2.13670945e+00,
  -5.08562505e-01, 7.80218029e+00, 1.31967144e+01,-6.08867966e-02,
   3.57875079e-01, 2.34609437e+00,-1.19687309e+01,-2.05104923e+00,
  -1.43247290e+01, 1.02999055e+00, 2.48762518e-01,-4.25836515e+00},
 {-1.46419024e+00, 3.38347292e+00, 3.68485022e+00,-1.32615805e-01,
   2.24781895e+00,-4.94122124e+00,-5.19173980e-01, 2.79578042e+00,
  -3.79225898e+00, 1.15463912e+00,-7.15732670e+00, 8.22952080e+00,
   4.72512484e-01,-1.98746729e+00, 9.87222481e+00,-3.16083372e-01,
  -5.89061499e-01, 2.14459181e+00,-6.88597059e+00,-3.98700333e+00,
  -2.02641106e+00,-4.18367565e-01,-3.38848209e+00,-1.58031785e+00,
  -1.98591933e-01,-1.70042496e+01,-1.63516164e+00,-2.37066507e+00,
  -7.51841605e-01, 2.03888750e+00,-6.37553751e-01, 1.80112064e+00,
  -2.08568025e+00,-2.21642017e+01,-1.16494834e-01, 2.54908592e-01,
  -1.13293147e+00, 1.65668809e+00,-7.23366213e+00,-8.48615527e-01,
  -5.17494082e-01,-9.23343658e-01, 4.74026823e+00, 4.11168289e+00,
  -5.71277261e-01, 2.25320935e+00, 2.35685968e+00,-1.01503098e+00,
  -9.20250654e-01,-6.54194772e-01,-3.96943641e+00,-5.41744375e+00,
  -6.28732491e+00,-2.02947545e+00, 6.56116784e-01,-1.94032013e+00,
   4.30035734e+00, 7.49606180e+00, 1.67519701e+00, 6.99054360e-01,
   8.32820237e-01, 1.49624979e+00,-1.33938348e+00,-6.96209252e-01,
  -1.50807083e+00, 4.10908890e+00, 1.41329214e-01, 8.85283649e-01,
  -2.80642414e+00,-6.43970776e+00,-2.25571384e+01, 6.03047085e+00,
  -2.25351810e+00,-3.40518284e+00,-1.07920575e+00, 8.87015089e-02,
  -2.66453409e+00,-2.20704722e+00, 2.04529166e+00, 5.30447900e-01,
   2.06926107e+00, 8.93188417e-01, 5.22324276e+00, 7.30670318e-02,
  -6.40712214e+00,-9.82768536e+00, 5.44116831e+00, 3.01403284e+00,
  -8.74804497e+00, 1.09272015e+00,-1.89582002e+00, 2.48214412e+00,
   4.70321178e+00, 2.97393036e+00,-2.64672494e+00, 4.11057377e+00,
   4.76738501e+00,-4.86303389e-01,-8.44548821e-01, 6.94110572e-01,
   2.80124092e+00,-4.55054903e+00,-7.81393349e-01,-1.47274554e+00,
   1.08981323e+00,-2.75056154e-01,-7.02841663e+00,-6.39402914e+00,
   6.66063786e-01, 1.61220789e-01, 5.57539701e-01,-1.67536128e+00,
   7.08166218e+00, 2.68466687e+00,-8.84759188e-01,-2.87415028e+00,
  -6.10683632e+00, 2.45900393e+00,-9.41708237e-02, 2.37439752e+00,
   1.27681565e+00,-1.32285833e+00, 2.11234021e+00,-3.59384584e+00,
   8.55187702e+00,-4.02750540e+00, 1.34407783e+00,-2.32341960e-02},
 { 2.04298472e+00,-3.07756209e+00, 2.04417753e+00,-1.70167470e+00,
   6.02563061e-02,-1.72435379e+00, 3.58222461e+00,-4.46692556e-01,
  -1.37601924e+00,-1.59980288e+01, 6.76447582e+00, 1.12961376e+00,
   8.00270140e-02, 1.03331220e+00,-7.19905913e-01,-1.01898849e+00,
   4.94120789e+00, 1.28708220e+00, 4.71598268e-01, 2.53261662e+00,
  -1.44240923e+01, 1.70096302e+00, 4.43272293e-01, 2.24023914e+00,
  -3.49450350e+00,-3.94596815e+00, 7.05683661e+00,-9.87294853e-01,
  -2.02631474e+00,-1.73753405e+00, 3.06605637e-01, 1.10246599e+00,
   1.02276480e+00,-1.37141490e+00,-6.13840461e-01, 1.44038796e+00,
   1.00176156e+00, 6.36854887e-01, 1.11474705e+00, 3.14539582e-01,
   3.76564598e+00, 1.90703154e-01,-1.34207952e+00,-2.22384024e+00,
   1.03694260e+00,-2.69495559e+00,-8.21226692e+00,-4.73326731e+00,
   2.21444726e+00, 5.48891163e+00, 2.11995259e-01,-1.39231813e+00,
  -6.15333557e-01, 1.29012108e+00,-2.02924843e+01, 1.43536687e+00,
   1.43624711e+00, 1.90068138e+00,-2.56325841e+00,-2.12588334e+00,
   5.11914110e+00, 1.59262133e+00, 7.41042566e+00, 1.58754754e+00,
  -8.14458668e-01, 1.55655706e+00,-4.05667543e+00,-2.31452298e+00,
  -4.30183887e+00, 1.09861255e+00, 9.60880995e-01, 3.63242775e-01,
   3.92389131e+00,-1.06964998e+01,-4.99610394e-01,-2.30284071e+00,
   2.45888972e+00,-4.93581176e-01, 9.65075195e-01, 3.95877743e+00,
  -1.25266814e+00, 1.73242569e+00, 3.20103121e+00,-1.34195042e+00,
   8.56956720e-01,-5.49165678e+00, 5.10374367e-01,-5.37601590e-01,
  -5.08682072e-01,-1.05036750e-01,-2.33831882e+00,-1.28181732e+00,
  -1.00671566e+00,-1.42642856e-01,-2.75699806e+00,-1.66818559e+00,
  -1.07025874e+00, 4.56686914e-01, 1.02293861e+00, 1.64002812e+00,
   8.47336948e-01,-6.22397661e-01,-2.40983796e+00,-3.11480165e+00,
  -6.49212837e+00, 4.59260750e+00,-5.27713597e-01, 4.82713747e+00,
  -3.96840787e+00, 2.34529829e+00,-1.43257940e+00, 7.86808610e-01,
   4.50819224e-01,-6.79633498e-01, 4.71443748e+00, 3.59704638e+00,
  -1.51461804e+00, 9.31955051e+00, 3.83781314e+00, 1.46248710e+00,
   2.88380313e+00,-2.94745684e-01,-5.58535051e+00, 1.85315561e+00,
   4.19423485e+00,-4.25053835e-01, 1.66939127e+00,-1.14549983e+00},
 { 8.61105740e-01,-5.52351102e-02, 4.60183024e-02, 3.74258727e-01,
  -4.18702126e-01, 4.89021540e-01, 1.15763061e-01,-7.49566078e-01,
  -3.65353823e-01, 6.26185119e-01,-4.57111865e-01, 1.95664704e-01,
   1.05963431e-01,-1.46002874e-01, 1.71893001e+00,-5.59858084e-02,
   9.55284119e+00, 7.32361615e-01, 1.78448096e-01, 1.00572658e+00,
  -1.04935608e+01, 5.06433308e-01,-4.49066013e-01,-3.79733920e+00,
   1.08896370e+01, 1.21632838e+00,-1.83026612e-01, 6.45320565e-02,
  -3.58868122e+00,-3.16947460e-01, 2.81087995e+00, 1.35508204e+01,
  -1.93662949e+01,-9.29993987e-01, 1.18010867e+00, 2.65215456e-01,
   5.33737577e-02, 6.51097596e-01, 7.40761638e-01, 4.68855537e-02,
  -5.23030806e+00,-1.02127083e-01, 1.34393245e-01,-5.81460774e-01,
  -1.41100063e+01,-8.86152498e-03, 1.10448934e-01,-5.32330513e-01,
  -1.21980143e+00,-8.62032950e-01, 5.79357982e-01,-4.58724827e-01,
   2.56241336e-02,-9.07799244e-01, 1.07857306e-03, 1.84939308e+01,
  -1.07755795e+01, 2.92944646e+00, 7.86523044e-01, 1.51527911e-01,
  -1.25082207e+01,-3.15851182e-01, 1.67746592e+00, 3.71095330e-01,
  -4.05172765e-01, 1.48381680e-01, 1.36458576e+00, 3.01989794e+00,
  -5.76550150e+00,-1.03711164e+00, 6.46486646e-03, 4.55424100e-01,
  -6.10961628e+00,-4.18523140e+01, 3.81056011e-01,-6.00394070e-01,
   1.56734157e+00, 1.00807667e-01, 1.20033078e-01, 3.62649530e-01,
   7.19260502e+00, 5.49730919e-02, 2.23365712e+00,-9.02152061e+00,
  -2.20920771e-01,-3.31594437e-01,-7.68131733e+00,-6.80232823e-01,
  -1.75060821e+00,-1.11204576e+00, 5.88687360e-01, 1.18670809e+00,
   5.90624928e-01, 4.19367075e-01,-9.60917100e-02, 7.50622377e-02,
   2.11046800e-01,-2.00309142e-01, 2.32740685e-01, 1.11876130e+00,
  -2.77857304e+00, 3.33827764e-01,-9.89847600e-01, 3.91369611e-01,
   6.62574530e+00, 5.43583918e+00,-5.65781474e-01,-4.93902355e-01,
  -1.57758951e+00,-2.20377725e-02,-5.01870692e-01,-3.58423233e-01,
   2.03933001e-01, 3.88518214e-01,-7.00676918e-01,-1.36725354e+00,
  -6.25226378e-01, 3.06215167e-01,-1.45269403e+01,-2.81475723e-01,
   1.33632100e+00,-1.76794815e+01, 1.51711149e+01, 5.25450647e-01,
   8.21208477e+00,-5.04191542e+00,-3.53790939e-01,-1.35883605e+00},
 {-8.25232565e-02,-2.87149418e-02,-9.09577087e-02,-6.00563139e-02,
  -1.05477452e-01, 1.74744911e-02,-6.30763918e-02,-9.48975161e-02,
  -7.56741986e-02,-6.96654022e-02,-8.56259093e-02,-3.94545086e-02,
  -4.80714180e-02,-4.86644432e-02,-9.12914574e-02,-2.61798240e-02,
  -5.70542216e-02,-6.96542487e-02,-1.45219518e-02,-6.95048273e-02,
  -4.87151109e-02,-5.91206960e-02, 8.83114804e-03, 3.74345295e-02,
   4.43663122e-03,-5.87248243e-02, 7.41122989e-03,-1.32783413e-01,
   5.48393279e-02,-7.68254623e-02,-8.90035927e-02,-1.43215179e-01,
  -8.47432688e-02, 1.08658466e-02,-5.52411713e-02,-4.78448253e-03,
   2.34178756e-03,-1.91183053e-02,-9.46663842e-02,-1.41968668e-01,
  -7.47525692e-02, 4.37573120e-02,-8.67317989e-02,-6.75712302e-02,
   1.63684716e-04,-2.18904167e-02,-2.42793076e-02,-7.06540421e-02,
  -1.03972487e-01, 2.90697664e-02,-1.08943410e-01, 2.39279643e-02,
   2.07497287e-04,-1.12265348e-04,-1.31504282e-01,-2.31477115e-02,
  -8.27246755e-02,-9.55155417e-02,-4.97850105e-02,-6.73938170e-03,
  -1.28241986e-01,-7.77498707e-02, 7.65541792e-02, 2.07300261e-02,
   4.54972908e-02,-1.48569858e-02,-1.43027380e-01,-6.15284219e-02,
  -9.10854042e-02,-3.70822251e-02,-5.18379584e-02, 1.19144665e-02,
   1.45014899e-04,-1.34426847e-01,-6.39920905e-02,-1.05433114e-01,
  -7.52986968e-02, 2.55906414e-02, 2.12532151e-02,-7.01695755e-02,
  -1.11709408e-01, 1.88057031e-02,-1.24420494e-01,-7.05002993e-02,
  -7.40464106e-02, 6.49468452e-02,-1.01928413e-01,-1.01883903e-01,
  -3.76854427e-02, 3.86552606e-03,-6.57845661e-02, 2.11509597e-02,
  -1.97409699e-05, 2.82136984e-02, 5.47349788e-02,-4.37311456e-03,
  -4.91180792e-02,-1.23817502e-02,-3.93348141e-03,-5.54329827e-02,
   4.27616090e-02,-6.94319755e-02,-1.20559923e-01,-1.42336577e-01,
  -1.22299362e-02,-1.06058009e-01,-6.51525259e-02, 9.40370001e-03,
  -8.49748962e-03, 1.67212114e-02, 2.93318066e-03,-8.00360590e-02,
  -7.45814592e-02,-6.30748644e-02,-4.53339219e-02,-1.05269598e-02,
  -1.00603916e-01, 7.19072446e-02,-9.64215249e-02,-1.43065676e-01,
   7.95412511e-02,-7.63548017e-02, 5.85094057e-02, 6.25278577e-02,
  -8.05616751e-02, 3.99634615e-02,-5.37767299e-02,-6.38575554e-02},
 { 5.72573853e+00,-2.02130680e+01,-1.55666387e+00,-5.56140125e-01,
  -2.57309008e+00, 6.55199349e-01, 7.53396869e-01,-2.55312651e-01,
   2.97889090e+00, 3.26505065e-01, 9.51098740e-01, 1.28813350e+00,
   5.43351352e-01, 3.14173698e+00,-6.04170895e+00, 1.60895622e+00,
   1.24779850e-01, 3.28847814e+00, 8.87537539e-01, 2.00579143e+00,
  -7.83814639e-02,-1.10660978e-01,-7.72012651e-01, 3.61460358e-01,
  -8.37356329e-01,-1.12755525e+00,-2.48994559e-01, 3.58526707e+00,
  -1.06904993e+01, 1.76528454e+00, 6.13739118e-02, 8.54981840e-01,
  -5.03643900e-02, 2.80173451e-01,-5.71521997e-01,-2.50322175e+00,
  -2.22653999e+01,-3.72998452e+00,-2.88853049e-02,-2.56648445e+00,
   3.29284501e+00,-1.03503265e+01,-3.29279494e+00, 3.86848664e+00,
  -6.96103880e-03, 3.53283286e-01,-2.61832029e-01,-5.25996149e-01,
  -1.04077429e-01,-9.01316293e-03, 2.83411026e-01,-1.62302971e+00,
  -7.50202799e+00, 4.15769815e+00, 1.17571339e-01, 4.04591829e-01,
  -2.25115508e-01, 5.18849277e+00,-7.53337383e-01, 2.42666745e+00,
   4.07696784e-01, 3.72169900e+00, 3.24176884e+00,-1.07612476e-01,
   4.34142649e-01,-1.22743778e-01,-4.64753481e-03, 1.07636817e-01,
   1.78725109e-01, 1.31619227e+00,-1.40282571e+00,-3.34594131e+00,
   1.19521511e+00, 4.36406106e-01, 1.84862065e+00,-1.22529991e-01,
   3.99218023e-01, 2.15618178e-01, 9.58589733e-01, 5.21419883e-01,
  -1.67695105e-01,-1.52199984e+00,-3.88941705e-01, 1.22418627e-01,
   1.90779829e+00,-6.07368088e+00,-8.62030685e-01,-1.10810733e+00,
  -1.97978151e+00, 1.32774913e+00, 5.74966860e+00,-1.06503639e+01,
  -1.51616278e+01, 8.85753334e-02,-1.24409807e+00,-2.16242576e+00,
   2.03439212e+00, 8.60348403e-01,-2.94355702e+00, 4.90030676e-01,
  -3.41712654e-01,-4.19076443e-01, 1.19633746e+00,-4.30966541e-02,
   5.30550815e-02, 2.63194650e-01, 1.20165741e+00,-1.65128720e+00,
   6.04434870e-02,-1.69925213e-01,-4.24184948e-01,-6.02159314e-02,
   1.15415192e+00, 3.61238569e-01, 7.78747723e-02,-3.44252765e-01,
   2.30469251e+00, 3.91245723e-01,-2.59007961e-01, 1.40880489e+00,
  -2.88536549e-01,-3.78207266e-01,-3.57362819e+00,-2.59264660e+00,
  -2.19938800e-01, 3.48057508e-01,-2.55497456e+00, 4.66514528e-01},
 {-2.21825433e+00, 1.63496113e+00, 5.14810205e-01,-2.79184246e+00,
  -3.31874704e+00,-2.39608669e+00,-1.01288319e+00,-6.94875538e-01,
  -2.11090183e+00,-9.45305467e-01,-9.61430490e-01,-2.50545287e+00,
   4.04056422e-02, 1.99745774e-01,-2.07845464e-01, 6.48620427e-01,
   6.74976778e+00,-3.89643741e+00, 9.37711969e-02,-7.23364019e+00,
   1.83813348e-01,-3.17286158e+00, 2.72849083e+00,-1.61845887e+00,
  -5.59972346e-01,-1.70719395e+01,-1.87758207e-01, 1.52497816e+00,
  -2.29937625e+00,-2.38654637e+00, 3.61777514e-01,-1.44084873e+01,
  -6.97680998e+00, 2.15022111e+00,-5.64921379e+00,-2.32259765e-01,
   4.74987507e+00,-3.42099756e-01,-1.83880978e+01, 2.01700881e-01,
  -1.56554985e+00, 4.97235149e-01,-9.27015424e-01, 1.41695961e-01,
  -3.35858202e+00,-1.52811241e+00, 3.06424522e+00, 1.20973516e+00,
   1.89284825e+00, 3.80966246e-01,-3.49866533e+00,-1.78644490e+00,
  -1.00931847e+00, 7.72850943e+00,-7.86695540e-01, 9.33557630e-01,
   7.35715199e+00,-1.07108068e+00,-3.61274376e+01, 2.68242061e-01,
  -8.83539581e+00, 2.48322070e-01,-1.55381799e+00,-1.03711596e+01,
  -1.48344234e-01, 5.36881804e-01, 1.83341753e+00,-2.07285926e-01,
   3.89054567e-01, 1.16599512e+00, 9.72789764e-01, 3.56490207e+00,
  -1.69942322e+01,-2.47653341e+00,-5.22664368e-01, 3.68592048e+00,
   2.51245427e+00, 1.03198886e+00, 3.72988254e-01, 1.48993719e+00,
  -7.12871599e+00,-2.10637562e-02,-3.59626675e+00, 7.09166431e+00,
  -8.27044964e-01, 1.15951622e+00, 5.73096991e+00, 2.72177958e+00,
   3.08047152e+00, 3.09723234e+00,-4.87897873e-01,-3.90993071e+00,
   9.00550902e-01,-1.17544246e+00, 1.27811944e+00, 3.74192119e-01,
  -8.79465699e-01, 5.48422456e-01,-1.75243244e-01,-9.50142980e-01,
   2.36182737e+00,-1.88510358e+00, 3.76684451e+00, 4.77253437e+00,
  -1.07371438e+00, 1.34239650e+00, 3.76352310e-01, 3.13673802e-02,
   2.85035658e+00,-4.27701771e-01,-5.58206201e-01, 2.95290089e+00,
   2.56748527e-01,-4.59773354e-02, 1.78007066e+00,-4.38725471e-01,
   1.82049721e-01,-2.73513627e+00,-1.29051065e+01, 4.29492801e-01,
  -1.48254657e+00,-1.23134556e+01, 4.16604988e-02, 1.03993773e+00,
  -2.32951450e+01, 1.01823702e+01, 8.33200872e-01, 2.20657229e+00},
 {-5.21660280e+00,-9.02517676e-01, 3.46678925e+00, 5.37559462e+00,
   8.20348203e-01,-4.56107467e-01,-1.31114924e+00, 2.09197342e-01,
  -9.19903457e-01,-8.43990371e-02, 9.01637137e-01,-1.76651418e-01,
   9.94965434e-02, 6.34140110e+00,-1.08244591e+01,-5.16273797e-01,
   1.01079956e-01, 4.82626867e+00,-1.33507061e+00, 7.50184011e+00,
  -8.90008286e-02, 5.49495080e-03, 7.28068873e-02,-1.50191531e-01,
  -4.26871091e-01, 1.40910053e+00,-1.83706321e-02, 3.72501755e+00,
   3.64459157e+00,-1.10946691e+00,-1.60130218e-01,-7.93124795e-01,
  -6.55492425e-01,-2.64456034e-01, 1.57832548e-01,-6.80764580e+00,
  -2.32312107e+00,-1.19112825e+00, 2.73063111e+00,-5.25109720e+00,
   1.91235602e+00, 1.01811752e+01, 4.40778404e-01, 5.97099924e+00,
   2.85002083e-01,-8.07175934e-01, 1.07223499e+00, 2.43556643e+00,
  -1.10884868e-01,-4.17008251e-02,-3.68174948e-02,-7.47887850e+00,
  -4.48937798e+00, 4.30274725e+00,-7.31632262e-02,-4.45803404e-01,
   3.27421367e-01,-2.79401231e+00,-1.35496199e-01,-1.89579153e+00,
  -1.42263368e-01, 5.32997179e+00,-7.45189810e+00, 2.69437172e-02,
  -2.33943388e-02, 7.39113927e-01, 2.29785562e-01, 1.38333201e-01,
   1.07437916e-01,-8.00255954e-01, 1.22547436e+00,-3.69529158e-01,
   7.37835094e-02,-2.39893168e-01,-9.77217436e-01,-3.82235467e-01,
  -2.96562374e-01,-1.07699908e-01, 2.87543440e+00, 2.42773056e-01,
   1.72628373e-01, 3.01225758e+00, 6.68346107e-01,-1.27935258e-03,
   1.81654596e+00, 5.71368337e-01,-6.05637670e-01, 8.32387388e-01,
   1.50993240e+00, 1.45428091e-01, 9.15819049e-01, 4.93594885e+00,
   7.36679888e+00, 1.72402084e+00,-1.39772439e+00, 2.02971339e+00,
   4.25756693e+00,-9.07580256e-01, 3.34321713e+00, 2.78329283e-01,
  -1.15525581e-01,-4.48703575e+00,-2.75322676e+00,-1.62298277e-01,
   2.94247735e-02,-5.94652183e-02, 1.48615733e-01,-2.12226582e+00,
  -2.34023351e-02, 5.02110980e-02,-4.13799095e+00,-1.35443404e-01,
  -1.31701982e+00,-2.37546533e-01, 2.51138899e-02, 4.91576344e-02,
   4.11327505e+00,-7.65577376e-01, 2.90924668e-01,-9.75270331e-01,
   1.70530975e-01,-1.30193442e-01, 8.19857180e-01, 9.60526913e-02,
   4.97045785e-01,-1.64614990e-01,-7.55258036e+00,-2.36553645e+00},
 {-2.46956253e+00, 3.44993687e+00,-4.19164002e-01,-9.30713940e+00,
   5.13475132e+00,-5.99731445e-01, 1.16712606e+00, 6.86121655e+00,
   9.16758299e-01, 1.67218244e+00,-6.91568947e+00, 3.45361137e+00,
  -1.15647361e-01, 1.04576421e+00, 2.70135736e+00, 1.77236807e+00,
   9.31961060e+00, 1.20931184e+00,-8.59426594e+00, 6.47768927e+00,
  -7.67820403e-02,-1.58983946e-01,-3.10426712e+00,-4.08760977e+00,
   2.94752538e-01, 2.82702136e+00,-2.29654717e+00,-4.84434038e-01,
  -8.69814205e+00, 4.02767748e-01,-9.87798274e-01, 1.19760761e+01,
   4.44925100e-01,-1.15029306e+01,-5.14506865e+00, 3.83541495e-01,
  -2.30463076e+00, 6.44550443e-01, 5.84459114e+00, 2.53808188e+00,
   1.97067916e+00,-1.14939308e+00, 4.72482109e+00,-8.48036861e+00,
  -2.52831316e+00,-3.77718657e-01,-1.14331424e-01,-2.57642460e+00,
  -2.97605634e-01,-1.30753481e+00, 5.13278151e+00,-1.25398445e+00,
   3.49833894e+00,-6.33245707e+00, 2.53743839e+00,-4.86897230e+00,
   5.05224037e+00,-4.68993336e-01, 1.68691325e+00, 4.01461124e+00,
  -3.64139438e+00,-3.95410228e+00,-3.76997018e+00,-1.16459131e+00,
   7.05033541e+00, 4.94010353e+00,-1.44629169e+00,-4.23418850e-01,
  -4.44140148e+00,-6.08688688e+00,-1.49762325e+01, 8.88559341e-01,
  -2.67581391e+00,-4.62913752e+00,-2.78146029e+00,-1.62128687e+00,
  -3.63825512e+00,-4.84918213e+00,-2.09771895e+00,-5.27119875e+00,
   1.45883393e+00,-1.87627959e+00, 6.34895802e+00,-2.93157482e+00,
  -4.57275200e+00,-6.81779087e-01, 6.02079630e+00,-6.75280988e-01,
   8.06218326e-01,-5.96692979e-01, 3.45172644e+00, 1.92688823e+00,
   3.03083301e+00,-6.79134941e+00,-4.10650194e-01, 2.13046551e+00,
   4.27405834e+00,-5.36701441e-01,-6.60347104e-01,-8.67658854e-02,
   5.53273392e+00,-1.14941573e+00,-7.17626929e-01,-6.54807234e+00,
  -6.05526030e-01, 3.18398625e-01, 1.20316041e+00,-5.62169838e+00,
   1.68448281e+00, 1.77078223e+00,-3.65548229e+00,-5.68090248e+00,
   4.01392126e+00, 1.16439080e+00,-1.04093587e+00,-3.15393472e+00,
  -8.45946431e-01, 5.87863588e+00,-6.28878653e-01, 5.20108521e-01,
   1.21125746e+00, 8.50133359e-01,-2.74709392e+00,-4.42349732e-01,
   5.37002563e+00,-1.98645058e+01, 1.78270793e+00,-2.97489119e+00},
 {-9.18797493e-01,-2.67237735e+00,-8.29074323e-01,-5.61361909e-01,
  -2.07165623e+00,-3.83931369e-01, 3.37730646e-02,-3.34347296e+00,
  -5.45352697e-01,-2.02968812e+00, 9.57120132e+00,-9.47278857e-01,
   8.58754516e-02,-7.09141374e-01, 3.80123317e-01,-7.12417483e-01,
   1.24734581e+00,-9.37400639e-01, 1.62894249e-01,-4.30406570e+00,
   1.52722085e+00,-2.78889418e+00, 4.99632263e+00,-1.87823927e+00,
  -7.99485540e+00,-2.34725742e+01,-2.99218178e-01, 2.50437587e-01,
   3.07665795e-01,-1.75667500e+00, 5.87572753e-01,-1.00159006e+01,
   1.76855431e+01,-4.16700989e-02,-5.01028204e+00,-1.22837782e-01,
   1.64831400e+00,-1.61130324e-01,-2.98983455e+00,-9.09348577e-02,
   1.48910351e+01, 2.00359210e-01,-8.38609517e-01, 4.82432461e+00,
   3.31318784e+00,-7.46131897e-01,-1.18576574e+01,-3.39278483e+00,
   1.80565727e+00,-1.03244716e-02, 5.89041896e-02, 1.20514202e+00,
  -8.77869844e-01, 1.27316475e+00,-2.54773498e+00, 1.87567747e+00,
  -3.63777697e-01,-4.22620952e-01,-2.44808221e+00,-2.57838249e-01,
   4.21207011e-01, 4.47552800e-01,-5.20840228e-01,-7.62202978e+00,
   5.04568160e-01,-3.23163830e-02, 4.14072418e+00, 1.81539690e+00,
   1.59655690e+00,-4.22393829e-01, 6.94931924e-01,-1.89229786e-01,
   7.43976116e+00, 1.93501937e+00, 1.67978093e-01,-4.59154755e-01,
   8.43291759e+00, 3.44005680e+00,-1.28271535e-01,-4.22713429e-01,
   1.62907648e+00,-3.05085540e-01,-4.20997286e+00, 9.96327281e-01,
   3.14618759e-02, 4.84798253e-01,-1.18440323e+01, 1.92603266e+00,
   2.48220280e-01, 2.62196481e-01,-2.64113545e-01,-1.41459632e+00,
   2.56488174e-01,-5.35241067e-01, 2.11667657e+00,-3.48098576e-01,
  -3.20830047e-01,-1.95556387e-01, 2.66337872e-01, 4.34407377e+00,
  -1.07095966e+01,-4.17263865e-01, 1.54831541e+00, 2.15075541e+00,
   1.63876402e+00, 3.31485057e+00, 7.55077362e-01, 9.36807618e-02,
  -1.31924617e+00, 3.62847447e+00,-1.94388556e+00, 8.58269751e-01,
   3.84086996e-01, 1.74689889e-02,-5.65766156e-01,-9.46319625e-02,
  -6.73143789e-02,-3.54830146e+00, 1.19794025e+01, 6.74994439e-02,
  -3.41711068e+00,-9.22804236e-01,-1.32993355e-01, 8.36714029e-01,
  -1.08253222e+01, 6.65872288e+00, 3.64097595e-01,-5.89401722e+00},
 { 8.10906768e-01, 1.52257526e+00, 8.28386769e-02, 1.50020874e+00,
   1.31212103e+00, 1.65546155e+00, 7.20962346e-01, 3.59545946e+00,
  -2.59217650e-01, 4.14046860e+00,-1.15293093e+01, 2.18687248e+00,
   1.45972252e-01,-1.06572866e+00, 1.86251009e+00,-7.17784325e-03,
  -1.45845830e+00, 1.19505572e+00, 3.41879338e-01, 7.70156240e+00,
   1.60986066e+00, 2.47313842e-01,-5.35812807e+00,-1.39150600e+01,
   6.32041812e-01, 5.36817312e+00,-1.46503186e+00, 1.49083883e-01,
  -2.73246002e+00, 1.34354961e+00,-3.23448211e-01, 5.62977982e+00,
  -7.36338377e+00,-8.04362488e+00, 4.69176388e+00,-4.12835240e-01,
  -2.26898098e+00,-1.24181521e+00, 6.92422152e-01, 2.33948514e-01,
   3.52983379e+00,-1.07955515e+00, 2.30319810e+00,-5.29016733e+00,
  -2.18248439e+00, 8.73741269e-01, 6.99808550e+00,-1.01561798e-02,
  -2.05337930e+00,-2.98924804e+00, 2.19848800e+00,-6.69532180e-01,
   2.06091809e+00,-1.33155756e+01, 3.36873555e+00,-6.10112143e+00,
   4.03751183e+00, 6.42143679e+00, 6.96882188e-01, 4.71505582e-01,
  -4.71975470e+00,-7.12669909e-01, 8.30021095e+00,-5.82260072e-01,
   5.03717184e-01, 2.14094520e+00,-2.14685273e+00,-8.72078657e-01,
  -1.98642647e+00,-1.79424953e+00,-1.44791651e+00, 1.43948436e+00,
  -8.66174793e+00,-1.53277767e+00,-6.17211461e-01,-4.49065953e-01,
  -5.21876287e+00,-3.34067750e+00,-1.12401962e+00, 4.71327811e-01,
   5.15766203e-01, 5.27768917e-02, 5.32541037e+00, 2.04250947e-01,
  -1.69889772e+00,-1.65412283e+00, 1.04528599e+01,-2.93902898e+00,
  -1.25154519e+00,-1.29434252e+00, 2.33282137e+00, 3.07806563e+00,
   1.67076719e+00,-8.83096874e-01,-2.38873506e+00,-1.71893215e+00,
  -4.76472259e-01, 8.84806216e-01, 8.56300443e-02, 1.73073506e+00,
   5.72012234e+00, 9.94893610e-01,-3.09577346e+00,-5.56611538e+00,
  -2.46602011e+00,-1.25770652e+00,-5.07148921e-01,-1.58253872e+00,
   2.28053451e+00, 3.12900364e-01,-1.45616412e-01,-7.22347879e+00,
  -1.19611359e+00, 8.62169206e-01, 9.56577122e-01,-3.22744298e+00,
  -2.95680851e-01, 5.74334145e+00, 5.98933458e+00, 1.05219281e+00,
   2.21840787e+00, 1.99286687e+00,-3.26697206e+00,-1.12438178e+00,
   1.22175865e+01,-5.39845848e+00, 1.48564100e+00,-1.43250394e+00},
 { 1.11184525e+00, 4.99294996e-01,-3.13937157e-01,-7.26129413e-01,
  -1.03169024e+00,-9.43949997e-01,-9.75824773e-01, 1.34287767e+01,
  -3.84478122e-01,-8.34188652e+00, 9.48847294e+00,-8.11512232e-01,
  -1.31718829e-01,-1.21423018e+00, 3.54199469e-01, 1.70853126e+00,
   5.50032407e-02,-4.82759774e-01,-1.55995741e-01,-2.41696644e+00,
   7.64586389e-01, 8.53797376e-01,-4.65747029e-01,-2.90971327e+00,
   5.29942334e-01,-7.78726721e+00, 8.56157541e-01, 8.73207748e-01,
   3.43506336e-01, 9.95878696e-01,-4.10531580e-01, 1.03646317e+01,
   3.66400528e+00,-1.95914078e+00, 1.88251406e-01,-2.25296244e-02,
  -4.02023643e-01, 1.19255745e+00,-4.51434433e-01, 8.69555920e-02,
   1.12389517e+01,-3.39196473e-01,-3.01670223e-01, 1.83226669e+00,
  -4.37344217e+00,-4.50399555e-02,-5.93151903e+00,-1.52339089e+00,
  -1.15943336e+00, 1.30441213e+00,-7.63999641e-01, 1.58205807e-01,
   4.96316850e-01, 1.87531126e+00,-2.76974297e+01,-8.07458222e-01,
  -3.07597637e+00, 9.08539772e-01, 3.95916152e+00, 2.38030292e-02,
  -8.00333261e-01, 5.04203618e-01, 3.41114807e+00,-2.85124493e+00,
  -6.95565403e-01,-5.87539792e-01,-2.77461791e+00,-8.85283291e-01,
  -4.41884327e+00,-5.98775268e-01, 7.65590847e-01, 5.23337662e-01,
  -1.48440969e+00,-1.65713882e+00, 4.11206275e-01,-1.86624610e+00,
  -4.64851665e+00,-6.46061325e+00, 7.55278409e-01, 2.49837294e-01,
  -4.47907877e+00, 6.75936997e-01, 7.46137667e+00,-1.64384041e+01,
   2.23710611e-01, 1.07065356e+00,-8.92269516e+00,-2.33367980e-01,
  -1.53872803e-01,-1.77249908e-02,-9.38973606e-01,-2.09820196e-01,
   7.59854198e-01,-2.24875972e-01, 6.27050251e-02, 3.14961940e-01,
   2.21340060e-01,-2.67271221e-01, 1.09486677e-01, 2.68044472e+00,
   4.40871382e+00,-8.13101158e-02, 4.25245523e-01,-1.07804413e+01,
  -1.35747135e+00, 9.47431564e-01,-2.21969843e-01, 1.24658275e+00,
   9.06795084e-01, 1.36921585e+00, 3.45901489e-01, 5.01492310e+00,
  -1.40869305e-01,-2.96350032e-01,-6.56844452e-02, 8.28372097e+00,
   4.10246253e-01, 2.91380572e+00, 4.27455044e+00,-5.89966893e-01,
  -2.62621498e+00,-6.46932423e-01,-7.67914867e+00,-5.66447787e-02,
   1.22102737e+01,-6.46340942e+00,-3.70369032e-02,-1.08752882e+00},
 { 4.67467934e-01,-3.93927574e+00,-7.32517242e-01,-5.04227066e+00,
  -2.09520650e+00,-3.76880813e+00,-4.65746164e+00,-1.33358204e+00,
   4.60233307e+00,-3.92823148e+00, 5.92634153e+00,-1.87710726e+00,
  -7.04600886e-02,-2.32647705e+00,-6.03311586e+00,-2.72692227e+00,
   1.48640692e-01, 1.23025978e+00, 2.69826388e+00,-8.62336731e+00,
  -1.23460874e-01,-6.18858278e-01, 2.10385776e+00, 3.68689513e+00,
  -7.13519976e-02,-2.64298105e+00,-4.02884388e+00,-3.91809273e+01,
  -5.83384991e-01,-1.46992910e+00, 2.20805228e-01,-2.08299661e+00,
   1.05228889e+00,-1.60936844e+00,-7.20540905e+00, 3.21659708e+00,
   5.53124046e+00, 3.05479002e+00,-8.62403965e+00,-1.54759514e+00,
   2.04006529e+00,-4.06859331e-02,-1.07970929e+00, 1.88788557e+00,
   1.90409362e+00, 1.92369652e+00,-2.17543173e+00, 1.96539506e-01,
   3.43507320e-01, 1.52552581e+00, 1.40422308e+00,-1.16281176e+01,
  -3.77458453e-01,-2.61382222e+00, 2.98419744e-01, 1.44782627e+00,
  -2.28703451e+00, 1.10050354e+01,-8.40862095e-01,-1.40498483e+00,
   2.76779532e+00,-4.56155539e+00, 3.48251414e+00,-5.79827070e-01,
  -3.46470881e+00, 2.05162819e-02, 7.76251376e-01,-2.74015039e-01,
   1.49066794e+00,-6.61623907e+00, 8.47371876e-01,-9.63618398e-01,
   1.94131410e+00,-4.25869197e-01, 7.12250024e-02,-4.41537708e-01,
   1.02166975e+00, 1.20546854e+00, 1.82521200e+00,-3.82411981e+00,
  -2.48093948e-01, 2.98562437e-01,-2.97622418e+00, 4.00860101e-01,
  -2.11855340e+00,-2.06677008e+00,-4.49948931e+00,-3.07805920e+01,
  -3.48651195e+00, 2.34227705e+00,-1.97231710e+00, 1.99904516e-01,
   7.17455578e+00, 9.75825191e-01, 2.58516431e+00, 8.77545476e-01,
  -1.33073940e+01, 3.91431153e-01, 2.14429736e+00, 1.05274773e+00,
  -2.76799417e+00,-1.82334840e-01, 4.23931360e+00, 5.00993967e-01,
  -1.85925707e-01, 5.97856224e-01,-1.52018344e+00, 1.23854094e+01,
  -1.34253740e+00,-6.32852435e-01, 4.29288244e+00, 3.88347006e+00,
   1.15865812e-01,-1.55753648e+00,-1.10426986e+00, 3.40428138e+00,
  -1.68951005e-01,-1.43241376e-01, 1.43884584e-01, 2.76261777e-01,
  -3.05806375e+00,-3.54909599e-02,-1.16125071e+00,-2.57875872e+00,
  -4.58467340e+00, 2.94330525e+00, 2.01509953e-01, 1.62839007e+00},
 {-1.57403667e-02, 2.06520725e-02,-3.80694084e-02, 6.10660091e-02,
  -1.75494968e-03,-1.15204804e-01,-6.06799163e-02,-2.10592151e-02,
  -9.90108997e-02,-1.28584430e-01, 4.96463403e-02,-1.12246219e-02,
   1.12586990e-02,-3.46619859e-02,-2.61740573e-02,-1.13073867e-02,
   1.32764280e-02,-4.80784662e-02,-3.12068556e-02, 5.77537983e-04,
  -1.18877344e-01, 4.22547646e-02,-1.55947991e-02,-1.52916536e-02,
   8.30972865e-02,-1.51416473e-02,-9.27836001e-02,-1.34381428e-01,
   8.63770780e-04, 5.03981151e-02,-3.69239226e-02,-3.18574160e-02,
   1.47017082e-02,-3.64948511e-02, 4.63433415e-02,-1.10031836e-01,
  -3.10024396e-02,-5.09717204e-02,-8.83770660e-02,-1.23460531e-01,
   3.28487866e-02, 2.72809863e-02,-4.88883816e-02,-1.02081504e-02,
  -8.30566734e-02,-1.80806935e-01,-6.71281293e-02,-1.63239062e-01,
  -1.41681343e-01,-6.72010928e-02,-7.88929611e-02,-1.79986935e-02,
  -9.83687192e-02, 3.12537551e-02,-1.56761840e-01,-1.17030151e-01,
  -7.54461065e-02, 2.10381020e-02,-5.71939396e-03,-6.94671571e-02,
  -9.99827520e-04,-1.11769378e-01,-3.38304192e-02,-7.44927973e-02,
  -6.52184105e-03,-1.47066772e-01,-1.04362719e-01,-3.06122620e-02,
  -1.14832176e-02,-9.85003356e-03,-3.82120647e-02,-5.81798479e-02,
  -3.86110730e-02,-1.27060562e-01,-7.98950270e-02,-8.50838944e-02,
  -1.63236916e-01,-1.11513242e-01,-6.70405254e-02,-3.98164131e-02,
  -8.85106921e-02,-5.62841147e-02,-1.09953053e-01,-2.89247688e-02,
  -6.47685155e-02, 1.53928166e-02,-7.17992932e-02,-1.37044534e-01,
  -1.05224408e-01,-1.64767995e-01,-3.09988614e-02,-3.56341526e-02,
   2.23982241e-02,-1.06131554e-01, 9.88041908e-02,-3.27008851e-02,
  -1.01297081e-01, 1.77992228e-02,-4.74047475e-02,-1.13917202e-01,
  -7.20027611e-02,-2.80283447e-02,-1.69350445e-01,-4.93764319e-02,
   1.32860318e-02,-8.42471570e-02,-9.62307006e-02,-5.66334985e-02,
  -8.07824880e-02, 2.01376043e-02,-1.32894918e-01,-7.47270212e-02,
  -2.12231185e-02,-7.76835829e-02,-4.74060141e-02,-1.71786040e-01,
   1.89548486e-03,-1.72504429e-02,-5.65918870e-02,-1.10921271e-01,
  -2.73462720e-02,-9.34957433e-03,-8.15145299e-02,-2.29017027e-02,
  -1.21409900e-01,-2.37273529e-01,-4.69806530e-02, 1.62653737e-02},
 {-6.63592339e-01,-2.02215099e+00,-2.31906846e-01,-1.31645501e+00,
  -7.82480896e-01,-1.94920957e+00,-1.99174464e-01,-4.69643497e+00,
  -1.50885805e-01,-5.11275339e+00, 1.25458660e+01,-1.20255306e-01,
   2.59485841e-01,-1.25195920e+00, 1.20263302e+00,-1.00177050e+00,
   1.41688079e-01, 3.74168086e+00, 7.25858808e-02,-5.40461540e+00,
   1.13197696e+00,-2.76281404e+00, 4.13324022e+00, 1.09376059e+01,
  -4.50153685e+00,-3.10491619e+01,-2.37106040e-01, 7.47240424e-01,
   3.11149478e+00,-2.57449841e+00, 1.38158774e+00, 8.45441246e+00,
  -1.13535376e+01, 5.80323696e+00,-6.39590168e+00,-5.37941933e-01,
  -1.67410088e+00,-1.46386519e-01,-8.98641109e+00,-6.30710945e-02,
  -2.49742246e+00,-3.08153126e-02,-5.48232913e-01, 5.79425669e+00,
   5.06861162e+00,-3.13514042e+00,-4.79647064e+01,-2.64235163e+00,
   1.31189227e+00, 1.54405940e+00,-2.24060655e+00,-2.03922915e+00,
  -1.79934227e+00, 1.34214032e+00, 6.86473191e-01, 1.79023874e+00,
  -3.97446036e+00,-3.54301751e-01, 2.26230145e+00, 6.45545006e-01,
   7.99116945e+00, 2.00050545e+00,-4.00493383e+00,-1.42280030e+00,
   8.42264220e-02, 4.74824846e-01, 4.27292109e+00, 7.18547642e-01,
  -1.27567148e+00, 6.61922872e-01, 2.08623838e+00,-5.26495744e-03,
   1.15183725e+01, 8.62594247e-01,-9.51419026e-02, 2.80710959e+00,
   7.49810791e+00, 3.01985312e+00, 9.97245073e-01, 1.21633478e-01,
  -1.35133553e+00, 1.42721307e+00,-1.04664631e+01,-8.32332671e-01,
  -2.07819045e-02,-2.54497349e-01,-1.18938951e+01, 1.84194207e+00,
   1.42269504e+00,-6.86534271e-02,-2.00225234e+00,-1.44283175e+00,
  -5.73109388e-01, 1.18451762e+00, 7.03393817e-01, 7.16691673e-01,
   2.14488715e-01, 5.91022968e-02, 1.27415270e-01,-3.82224694e-02,
  -8.96526718e+00,-1.90665972e+00, 1.88586617e+00, 9.97820914e-01,
   9.32880402e-01, 2.33189449e-01, 4.92785752e-01, 2.19019547e-01,
  -1.80093145e+00, 7.07463384e-01,-3.63594413e+00, 4.93131018e+00,
   2.00056386e+00,-2.31677008e+00,-2.53793669e+00, 2.43912101e+00,
   5.96515596e-01,-9.89352047e-01,-4.48738098e+00, 1.87008977e-01,
  -4.14841604e+00,-2.35877228e+00, 1.03380022e+01, 1.72590065e+00,
  -1.17456207e+01, 7.37436390e+00, 2.74553585e+00,-1.96638823e+00},
 {-1.15095510e+01,-9.39855516e-01, 3.81255698e+00,-2.52207160e+00,
   3.46647263e+00,-6.09338582e-01, 3.79719645e-01, 1.58683312e+00,
   2.24471974e+00, 1.08031738e+00,-2.02292132e+00, 1.33948593e+01,
  -2.25435436e-01, 5.13282299e+00,-3.38673806e+00, 9.14935970e+00,
   1.78481877e-01,-4.14935074e+01,-9.81551886e-01, 4.03885078e+00,
   1.31708169e+00, 8.81878197e-01,-1.15350876e+01,-1.46688116e+00,
   2.49199808e-01, 6.81471252e+00,-6.95151186e+00,-5.10824547e+01,
  -7.08498001e-01, 8.96816924e-02,-2.49261960e-01, 7.55950689e-01,
   7.56916553e-02, 9.95430851e+00, 1.08897057e+01, 1.17938900e+00,
   2.11443257e+00,-4.21019793e+00,-1.13020487e+01, 5.30107498e+00,
   2.61306643e+00,-1.06704350e+01,-1.50998898e+01,-5.81119955e-01,
  -3.91947484e+00, 8.14478770e-02,-2.56229669e-01,-5.99877656e-01,
  -9.13823664e-01,-2.97505796e-01,-2.54144216e+00,-3.32984581e+01,
   7.50878692e-01,-1.44692526e+01, 7.86830783e-01,-8.15916002e-01,
   7.98332810e-01, 8.70923805e+00, 1.12896645e+00, 1.73042774e+00,
  -2.97774291e+00, 4.48708630e+00,-4.07696754e-01, 6.68897927e-01,
   5.10146666e+00, 1.92973099e+01, 3.57752532e-01, 9.57580879e-02,
  -1.09624863e+00,-3.76080971e+01,-2.46078745e-01,-9.06973171e+00,
  -3.63956022e+00,-3.96811664e-01,-6.69492674e+00, 2.65109688e-01,
  -2.82733822e+00,-1.36712790e+00, 7.91177571e-01, 6.47864640e-01,
  -4.33836728e-01, 3.58194613e+00, 4.94867420e+00, 3.91640007e-01,
  -7.45934620e-02, 8.75645936e-01, 2.04124498e+00, 1.92792392e+00,
  -1.62388444e+00,-4.62591314e+00, 1.20047879e+00,-3.63140202e+00,
  -1.04609024e+02,-5.75794601e+00,-3.86766165e-01,-1.84521958e-01,
   3.09305936e-01,-6.36720896e+00,-2.36938143e+00,-1.03835201e+00,
   3.45050359e+00, 1.15251563e-01, 5.00677787e-02,-7.57884920e-01,
  -9.18645203e-01,-5.06260157e-01, 1.64392924e+00,-5.07539093e-01,
   8.42026949e-01, 7.20102966e-01, 2.31759548e+00,-5.10012329e-01,
  -1.69918311e+00,-4.37008619e+00, 1.70959339e-01,-2.82369405e-01,
  -2.13510895e+00, 1.83513892e+00, 2.08548069e-01,-4.60525894e+00,
   1.51030314e+00, 5.97884536e-01,-3.55911803e+00,-2.69916300e-02,
   3.33888221e+00,-1.69801939e+00,-5.73570156e+00,-2.24978566e+00},
 { 4.84651268e-01, 2.38932061e+00, 6.85716450e-01, 2.51911163e-01,
   5.64943492e-01, 3.71737868e-01, 3.46031822e-02, 2.50344372e+00,
   3.23500544e-01, 2.00740218e+00,-1.57904005e+00, 6.68808520e-01,
  -3.13399807e-02, 4.80395973e-01,-2.72557259e-01, 3.65957052e-01,
   2.52279568e+00, 5.51959276e-01,-1.94026500e-01, 2.60546517e+00,
  -3.58604401e-01, 2.32438231e+00,-3.17047477e+00,-9.40042686e+00,
   7.74924278e+00, 1.57689210e-02, 1.87980980e-01,-2.02388465e-01,
  -1.40100911e-01, 9.78353024e-01,-7.11679876e-01,-4.27457333e+00,
  -7.38102818e+00,-4.44852933e-02, 3.21382070e+00, 7.84546956e-02,
   5.08788061e+00,-1.07166335e-01, 1.17739940e+00, 6.05814829e-02,
   1.77542667e+01,-1.50537148e-01, 1.92389086e-01,-3.16825032e+00,
  -3.96273041e+00, 5.14930308e-01, 1.16012983e+01, 1.64854598e+00,
  -1.53978884e+00,-1.90663844e-01,-7.92689621e-02,-6.70563161e-01,
   4.21354264e-01,-9.52485204e-01, 2.15154958e+00,-1.73056734e+00,
   1.05862701e+00, 1.50693163e-01, 8.70246124e+00, 2.26364434e-01,
  -3.22417521e+00,-7.27017298e-02, 4.16572714e+00,-1.07347832e+01,
  -3.25709820e-01,-2.66219415e-02,-1.12143195e+00,-7.43467391e-01,
  -1.66265690e+00, 2.29040742e-01,-4.58455712e-01,-6.57075271e-03,
  -9.42486858e+00,-1.33976233e+00,-3.41172852e-02, 4.92352277e-01,
  -6.54641247e+00,-2.69087625e+00, 1.04599096e-01, 3.05109173e-01,
  -1.00689435e+00, 2.18288630e-01, 3.23193979e+00,-1.18461812e+00,
   5.57777099e-02,-3.85598868e-01, 7.07069683e+00,-1.13715947e+00,
  -2.67550290e-01,-1.45602509e-01,-1.68058157e-01, 1.03961718e+00,
  -3.64717782e-01, 4.00187284e-01,-1.28448725e+00, 2.77728885e-01,
   2.30566487e-01, 1.73661530e-01,-1.62148550e-01, 6.48349810e+00,
   8.24525642e+00, 2.33934358e-01,-1.09705627e+00,-1.56325138e+00,
   1.94118060e-02,-2.10593128e+00,-2.62776822e-01,-1.72743469e-01,
   1.14962959e+00,-2.86883378e+00, 1.27598202e+00,-6.79844856e-01,
  -3.17795247e-01,-8.78932998e-02, 5.19691706e-01,-2.68435985e-01,
   4.86635827e-02, 4.03290701e+00,-2.54322028e+00,-9.34850127e-02,
   2.68233466e+00, 4.49395990e+00, 1.95852375e+00,-7.02685833e-01,
   1.67465836e-01,-5.73662043e+00,-3.38070393e-01, 4.11470079e+00},
 {-8.26446354e-01, 5.12845278e+00, 2.94927025e+00, 5.75586891e+00,
  -1.55694389e+00,-2.69098115e+00, 4.01975584e+00,-2.65641046e+00,
  -4.10188019e-01,-6.21516848e+00, 7.16167974e+00,-2.08186493e+01,
   2.03523263e-02,-8.31832707e-01, 9.87656975e+00,-2.99936938e+00,
  -6.19723022e-01, 2.53518438e+00, 1.69721186e+00,-1.00860004e+01,
   3.21887046e-01,-9.51938748e-01, 2.71686172e+00, 6.98324060e+00,
   1.45197257e-01, 1.14714615e-01, 5.23842514e-01, 6.82060540e-01,
  -2.47704768e+00,-4.85993433e+00, 1.00533962e-01,-2.85152364e+00,
   3.87887073e+00,-4.88422346e+00,-7.94461071e-01, 2.17933011e+00,
   4.44962949e-01, 4.10130262e+00,-2.93744445e+00,-6.68601394e-01,
   1.47418821e+00,-4.39982557e+00,-4.55891800e+00, 4.61147022e+00,
   2.30194306e+00, 1.15455246e+00,-3.75626206e+00, 1.54026449e+00,
   4.39402789e-01, 2.75276685e+00,-2.55406904e+00,-6.66156006e+00,
   5.73089182e-01, 2.41849914e-01, 9.34606493e-02, 3.11550903e+00,
  -4.57713985e+00, 1.52500992e+01, 4.11487967e-02, 1.50439608e+00,
   4.56514549e+00, 3.80531049e+00, 8.93886566e-01,-1.29644513e+00,
   2.23318815e-01, 2.27465391e+00, 1.55903566e+00,-8.74093696e-02,
   1.33302844e+00,-4.60202885e+00, 1.15256906e+00,-1.56863940e+00,
   3.20957088e+00,-6.36275351e-01, 1.84534919e+00,-1.06605721e+00,
   2.63690758e+00, 2.10570312e+00, 1.05616617e+00, 2.18986654e+00,
  -5.45353830e-01, 1.47065449e+00,-6.33117580e+00, 1.05252421e+00,
  -5.16247463e+00, 3.21575379e+00,-5.99682951e+00, 6.06437445e+00,
   2.34133625e+00,-1.39974073e-01, 2.76210475e+00,-1.08501539e+01,
   2.80116320e+00, 3.92976999e+00, 3.95074058e+00,-4.89276171e+00,
  -8.35119724e+00,-2.39465117e-01,-1.36906311e-01, 1.35348523e+00,
  -4.65432358e+00,-1.38169789e+00,-5.18139791e+00, 1.37900484e+00,
  -3.29548061e-01, 1.21772408e+00,-1.96915185e+00,-1.36399174e+00,
  -2.07607698e+00,-8.93445849e-01, 8.01682770e-01, 5.86391020e+00,
   2.22471461e-01,-1.60411606e+01,-1.62177396e+00, 5.27367640e+00,
  -3.78444314e+00,-8.86123300e-01, 6.76032186e-01,-1.58313572e+00,
  -4.39119196e+00,-5.45645952e-01,-3.16326678e-01, 1.29181683e+00,
  -6.82015705e+00, 3.10145044e+00, 6.52068186e+00, 1.12699842e+00},
 {-3.24487519e+00,-3.77999449e+00,-2.32020593e+00, 2.45602298e+00,
  -2.35937715e+00, 2.42949560e-01, 2.05598101e-02,-4.41396922e-01,
  -3.75541353e+00,-3.11045080e-01, 1.23069227e+00,-3.06130576e+00,
  -1.55135825e-01,-1.51122561e+01, 4.07387733e+00,-5.85053253e+00,
   1.62990421e-01, 9.19398904e-01, 3.81862104e-01, 3.23116541e+00,
  -1.65067650e-02,-2.22174481e-01, 1.31400549e+00, 7.21405447e-01,
  -1.38750672e-01,-7.22726631e+00, 3.29563290e-01, 1.43242455e+00,
   1.06403303e+00,-1.69701383e-01, 6.31727800e-02, 1.80769968e+00,
  -6.10070348e-01,-9.58594322e+00,-1.21006145e+01,-1.64530110e+00,
  -3.38508129e-01, 3.72829270e+00,-3.25999522e+00,-3.73296356e+00,
  -4.91918683e-01, 7.72231674e+00,-9.02212679e-01, 1.08450019e+00,
   5.10175347e-01, 8.63199055e-01, 3.69981498e-01,-1.04412091e+00,
   2.15404704e-01,-2.81994231e-02, 1.72528803e+00,-1.16575789e+00,
  -4.77916710e-02, 1.16898072e+00, 3.59617099e-02, 1.67865783e-01,
   5.63721135e-02, 1.36102619e+01, 1.20407797e-01,-2.07460117e+00,
   6.80108547e-01,-4.62909365e+00,-4.58746052e+00, 1.06254540e-01,
  -5.57374239e-01, 3.32075953e+00, 1.04544342e-01, 9.10101756e-02,
   1.41000539e-01, 1.26713634e-01,-8.25701058e-01, 6.52433920e+00,
   1.40168023e+00, 1.04298770e-01,-9.72588444e+00,-2.92697966e-01,
   7.35595167e-01, 2.96475977e-01, 7.74824917e-01,-1.43651903e+00,
   2.27401718e-01,-6.13723636e-01,-1.34408236e+00, 2.04916924e-01,
  -9.96787667e-01,-3.27432692e-01,-9.86090302e-01,-6.81585693e+00,
   1.38154507e+00,-2.65195107e+00,-3.63305640e+00,-3.29089463e-01,
  -7.96252632e+00,-6.88133097e+00,-6.59959793e-01, 5.37924111e-01,
  -1.11368604e-01, 5.45707607e+00, 3.55758882e+00, 1.01502679e-01,
  -1.05497181e+00, 4.99573648e-01,-8.09681296e-01, 2.77934790e-01,
   1.94168717e-01, 1.78173363e-01,-5.68260307e+01,-1.92525700e-01,
  -1.46526143e-01,-2.01718315e-01,-6.44315541e-01, 3.26887369e-01,
   1.88194501e+00, 3.09300542e-01,-2.41816580e-01, 9.91929024e-02,
   3.82001013e-01,-2.22390249e-01, 8.66610110e-01, 5.63639927e+00,
  -5.58305979e-01, 1.07571647e-01,-3.32944345e+00,-4.07275379e-01,
  -1.19227159e+00, 6.08682692e-01,-8.09946632e+00, 1.60384536e+00}};

const float b2[sz_hid_2] = { -0.7669472 , -5.0908036 , -0.1340646 ,-18.317924  , -7.1851463 ,
  -0.32130605, -6.3509836 ,  4.7732315 , -6.8497458 , -6.1439447 ,
 -12.54596   , -4.8367486 , -0.6606366 , -4.451365  , -4.5763044 ,
  11.922783  ,  6.1586003 , -0.09717963, -2.3547401 ,-14.505659  ,
 -12.21683   , -6.2126026 , -1.837     , -4.719415  ,  9.506416  ,
  -6.340513  , -0.12500592,  1.3241599 ,  0.5751341 ,  0.18773168,
  -9.24422   , -3.8212957 };

const float w3[sz_act][sz_hid_2] = {{-2.89780600e-03, 9.28393453e-02, 7.00316057e-02,-4.82827239e-02,
   1.41506838e-02,-1.29102618e-02, 7.39888325e-02,-1.21580970e+00,
   9.51912906e-03,-1.62255149e-02,-1.34353146e-01, 6.15708996e-03,
  -1.91616267e-03,-9.40287039e-02, 6.09957278e-02, 1.06658292e+00,
  -1.57687396e-01,-5.92914484e-02, 7.37261784e-04, 1.53541684e-01,
   3.37274745e-03, 2.07278311e-01, 6.98892623e-02,-1.79315805e-01,
   1.32983074e-01,-6.31744857e-04, 9.75675583e-02, 2.69234091e-01,
   1.32256225e-02,-6.18897490e-02, 4.09973611e-04,-7.97599088e-04},
 {-1.16578802e-01,-1.64123042e-03, 1.13921523e-01,-2.99249798e-01,
   1.17928341e-01,-1.07508816e-01, 2.61723548e-01, 1.60925463e-03,
  -2.07523569e-01,-2.78524220e-01, 1.10654579e-02,-6.03552982e-02,
  -1.08469225e-01, 6.57714345e-03, 1.49498537e-01,-7.04046991e-03,
   2.24773787e-04,-1.36978641e-01,-6.98400736e-02,-2.28942614e-02,
   1.33069515e-01,-1.48067111e-02,-2.16396700e-04, 2.45751417e-03,
   1.02878315e-03,-1.50961906e-01,-2.25256737e-02,-7.51048559e-04,
  -8.29553902e-02,-8.56761297e-04, 1.51561275e-01, 1.38762668e-01}};

const float b3[sz_act] = {0.00692366,0.2429388 };

