const float w1[sz_hid_1][sz_obs] = {{ 1.58286374e-02, 5.17089069e-02, 2.22132996e-01,-3.53728843e+00,
  -2.36862540e+00,-8.02020967e-01,-5.07127568e-02, 1.62554955e+00,
  -7.44315907e-02},
 {-2.54577231e-02, 3.08077806e-03, 7.89440870e-01, 1.08140051e+00,
  -7.69315863e+00,-8.04336429e-01, 6.94025028e-03, 9.33520985e+00,
   3.10435947e-02},
 {-5.77360451e-01, 4.45175743e+00, 4.87243032e+00, 4.34170365e-01,
  -1.17440581e+00, 3.39579314e-01,-4.47528076e+00, 1.36302304e+00,
   8.32985938e-01},
 {-4.59220354e-03, 1.15528889e-03, 3.37689817e-01, 5.93814182e+00,
   3.19997501e+00, 9.69898224e-01,-1.20084593e-02,-1.17012892e+01,
   1.28434738e-02},
 { 1.42119639e-02, 3.48777836e-03, 1.63348961e+00,-2.50745118e-01,
   7.06228435e-01, 5.75062811e-01, 2.98104174e-02, 5.71633244e+00,
  -2.36420465e+00},
 { 1.96947336e-01, 4.22440004e-03, 1.26086369e+01, 5.05325012e-02,
  -1.25262350e-01, 1.23172343e-01,-4.31466192e-01, 1.07496701e-01,
  -9.09249038e-02},
 { 3.96395428e-03,-5.11344150e-03, 2.34242812e-01, 2.29219341e+00,
   2.80937219e+00,-2.75425106e-01, 5.66494698e-03, 9.80780220e+00,
  -9.98614281e-02},
 {-1.79414988e-01,-6.57223836e-02, 2.64928389e+00,-3.48660159e+00,
  -1.67273462e+00,-1.72124672e+00, 1.28768578e-01,-3.39663148e+00,
  -2.38173699e+00},
 { 8.19196478e-02, 1.41914571e-02, 1.43719524e-01, 2.57208395e+00,
   3.08090663e+00,-1.64098692e+00,-1.11208454e-01,-1.40289080e+00,
   1.66741610e+00},
 { 2.81744003e+00, 8.26297045e-01, 7.51476097e+00,-3.16178426e-02,
   2.65275072e-02, 1.22153603e-01,-4.17208910e+00,-2.47909315e-02,
  -4.52015586e-02},
 { 5.06601620e+00, 9.39763308e-01, 2.41797063e-02, 1.49684828e-02,
  -2.26131827e-02, 1.10895775e-01, 1.07245197e+01, 5.11831045e-02,
  -4.19541169e-03},
 {-1.05109438e-01, 2.06019040e-02,-3.61317301e+00,-3.98142552e+00,
  -1.81420958e+00,-2.71715069e+00, 1.90366223e-01, 2.15942526e+00,
   3.01757812e+00},
 { 3.84915173e-02, 3.25557892e-04, 4.21709728e+00,-3.11317182e+00,
  -1.61852419e+00, 1.45623088e+00,-9.72304046e-02,-2.01670766e+00,
  -3.44842148e+00},
 {-1.69174418e-01, 2.53685284e-02, 1.41776609e+00, 2.10190463e+00,
   3.46275258e+00,-1.09424412e+00, 4.29140389e-01,-5.17054844e+00,
  -4.26462793e+00},
 {-4.99558955e-01, 4.30353498e+00, 2.06551409e+00,-3.58645856e-01,
   4.73063737e-01,-2.76261657e-01,-5.11815357e+00,-6.17142022e-01,
  -3.18820536e-01},
 { 9.27777469e-01, 1.56950521e+00,-3.32995462e+00,-1.85746980e+00,
   1.02505708e+00, 1.85514283e+00, 4.05057812e+00, 4.31706816e-01,
  -2.22271442e+00},
 {-1.00960338e+00,-4.35591727e-01,-5.46735954e+00,-6.46787733e-02,
   5.52224927e-02,-1.08646207e-01,-5.13770342e+00,-3.12448964e-02,
  -1.08366888e-02},
 { 3.29714082e-02, 4.39540967e-02,-1.60462603e-01, 2.26086068e+00,
   6.37683868e-01,-2.69432735e+00, 9.46521088e-02,-7.12321401e-01,
  -2.51745749e+00},
 {-3.01920865e-02, 1.49307579e-01,-7.09387827e+00,-8.31834748e-02,
   2.54547167e+00,-8.07025135e-02, 1.40685216e-01,-4.57623184e-01,
  -4.72536087e+00},
 { 1.83713585e-02, 2.64430158e-02, 1.19283752e+01,-2.09986717e-02,
   1.42842671e-03,-8.86227190e-02, 9.26766470e-02, 3.01738493e-02,
   1.77822693e-03},
 {-1.72683336e-02, 5.16063068e-03,-5.47698498e-01, 2.69344258e+00,
  -2.06493473e+00, 4.99579221e-01, 1.82200689e-02,-1.00593920e+01,
  -3.03899236e-02},
 { 3.71028376e+00, 4.85602438e-01,-3.94140005e+00,-9.49253440e-02,
  -2.83144936e-02,-4.48480286e-02, 7.91690874e+00, 2.93658841e-02,
  -3.75085627e-03},
 { 2.69996256e-01, 2.69465256e+00, 6.74382448e-01, 7.63327489e-03,
  -9.66533180e-03,-6.62351027e-02,-1.52207124e+00, 1.57981496e-02,
   1.96605269e-02},
 { 1.71562344e-01,-5.49031496e-02,-2.67686806e+01, 5.64086577e-03,
   1.62984170e-02,-1.03839219e-01, 5.98938107e-01,-4.90383394e-02,
  -3.09575032e-02},
 {-1.93027675e+00,-1.52456418e-01,-2.79688764e+00,-1.29302666e-02,
   2.13856995e-02, 3.72898881e-03, 4.13389730e+00,-5.89457899e-02,
   2.80799493e-02},
 { 8.41043815e-02, 3.04389209e-01,-5.67868328e+00,-7.14790046e-01,
  -2.28419042e+00, 1.72288436e-02, 3.90864670e-01, 3.82039100e-01,
   4.93123055e+00},
 {-1.62062371e+00,-4.62090921e+00,-1.29235911e+00,-9.49151814e-03,
  -2.37185583e-02, 2.75152385e-01, 2.59016061e+00, 2.05727011e-01,
   2.51922812e-02},
 { 3.32912707e+00,-1.46595597e+00, 9.76546347e-01, 2.62208655e-03,
   2.69180294e-02,-1.77981500e-02,-9.40968132e+00,-1.05858378e-01,
  -5.13815992e-02},
 { 1.57516599e-02, 4.85271262e-03,-1.31777132e+00, 1.00468504e+00,
  -1.56057572e+00,-2.03214020e-01, 2.04755776e-02, 1.41463089e+00,
   3.40283370e+00},
 {-2.62033418e-02, 9.04480740e-03,-1.58075762e+00, 2.59670949e+00,
  -5.10497761e+00, 1.52167141e+00, 4.23528552e-02, 2.59568334e+00,
  -2.66190380e-01},
 {-1.42914020e-02, 3.25621217e-02, 1.88694835e-01,-2.10109687e+00,
   6.64261520e-01, 2.90414542e-01,-3.72840650e-03,-4.56645042e-01,
  -1.60531458e-02},
 { 1.76509702e+00,-1.98868752e+00, 7.16841454e-03, 3.25497799e-02,
   1.61300488e-02,-3.26187797e-02, 5.85466146e+00,-5.38327266e-03,
   1.76679455e-02},
 { 5.71995154e-02,-5.00538088e-02, 5.03578806e+00, 2.90036082e+00,
   2.08764124e+00, 3.98428619e-01, 6.27258420e-02,-4.58247995e+00,
   3.18652916e+00},
 {-5.96044548e-02,-2.92426124e-02,-2.34493017e+00,-1.97197378e+00,
   1.32324266e+00, 2.74321079e-01, 3.59492451e-02, 3.49704933e+00,
   3.22561860e+00},
 {-4.09067236e-02,-2.57690642e-02, 1.24976665e-01,-2.64812899e+00,
  -5.06553555e+00,-1.17619300e+00, 6.44344985e-02,-3.75764441e+00,
  -4.11514491e-02},
 { 3.66610521e-03, 1.52349414e-03,-2.44365835e+00, 1.05061281e+00,
   1.18671000e+00, 1.54200339e+00,-1.37149049e-02,-3.83659005e+00,
  -2.31634641e+00},
 {-6.30501285e-02, 1.11058429e-01,-5.23622608e+00,-2.42347383e+00,
  -1.25731122e+00, 3.91539782e-01,-6.01301305e-02,-2.96905684e+00,
   3.68264675e+00},
 { 1.97727960e-02, 9.86552332e-03, 4.43716335e+00,-1.64852810e+00,
   2.82849550e+00,-1.85851738e-01,-3.67655419e-02,-2.09357619e+00,
   9.98400673e-02},
 {-7.13834986e-02, 2.78875558e-03,-5.02572596e-01,-4.83690691e+00,
   1.22334683e+00, 1.11208177e+00,-6.64062500e-02, 1.04455046e-01,
   3.29137516e+00},
 { 3.43740702e+00,-2.65944362e+00,-2.71919918e+00, 6.67959964e-03,
  -4.97125508e-03,-6.72054365e-02, 1.07584677e+01, 1.39160883e-02,
  -2.22575646e-02},
 { 7.84374867e-03, 3.16719264e-02,-4.73616600e-01, 2.49512577e+00,
   5.56137979e-01,-2.44534397e+00, 1.97757557e-02,-1.08077419e+00,
   2.81762600e+00},
 { 1.30368245e-03,-1.52614247e-03,-4.03610826e-01, 7.74454474e-02,
  -1.34031684e-03,-7.52030468e+00,-1.35390870e-02, 1.16555594e-01,
   4.70803045e-02},
 { 8.25484753e-01,-3.16574454e+00,-4.27544403e+00,-7.67328031e-03,
  -5.91605976e-02,-1.70038432e-01, 5.80491495e+00, 2.16515251e-02,
   8.47357232e-03},
 {-1.03128999e-01,-1.29824087e-01, 9.04800987e+00,-1.08201635e+00,
   7.97473371e-01, 1.12266231e+00, 7.07242489e-02,-6.11401498e-01,
   2.69922423e+00},
 { 6.91285074e-01, 4.97871563e-02,-8.47601223e+00, 5.11494502e-02,
   1.10606737e-01, 1.99713081e-01,-4.17855173e-01,-1.79261595e-01,
  -1.08005546e-01},
 { 3.91548835e-02,-8.94374738e-04,-6.36718944e-02,-1.30166066e+00,
   5.94517410e-01,-1.18773639e+00,-4.47872989e-02, 3.56265640e+00,
  -7.98388645e-02},
 {-1.51575552e-02, 2.67276205e-02,-1.49629478e+01, 7.93108344e-03,
   1.24461006e-03,-5.14343828e-02,-5.85804954e-02,-4.92434436e-03,
  -1.25831515e-02},
 { 3.88638449e+00, 2.50598836e+00, 4.04767418e+00,-2.52158905e-04,
  -8.21891893e-03,-1.60048991e-01,-5.74176025e+00, 3.35510774e-03,
   2.07247362e-02},
 { 3.10008192e+00, 1.91337883e+00,-2.34866214e+00,-3.38283740e-02,
  -1.34149017e-02, 1.33372530e-01,-2.42459035e+00, 2.36098394e-02,
  -4.19631228e-02},
 {-4.40052414e+00,-1.42037678e+00,-9.43575144e-01,-9.87484027e-03,
   5.98681085e-02,-2.44280919e-02, 1.42722511e+00,-1.27526432e-01,
   1.23540936e-02},
 { 4.33757496e+00, 2.33629751e+00, 3.86726308e+00,-3.16824368e-03,
   3.38666961e-02, 4.58962321e-02,-1.23861837e+01,-7.43432269e-02,
   1.29690086e-02},
 {-1.11862749e-01,-5.99015206e-02,-9.45115209e-01, 4.24450970e+00,
  -5.91942906e-01, 7.58921579e-02, 1.47717893e-01,-3.33978325e-01,
  -3.59328508e+00},
 {-8.22376907e-02, 1.96817175e-01, 9.89271581e-01,-2.72336364e+00,
  -3.88767153e-01,-2.82318306e+00, 7.51260743e-02, 3.02303481e+00,
  -4.76592302e+00},
 {-7.65291452e-02, 1.41403764e-01,-4.48425913e+00, 2.57190466e+00,
   9.46086943e-01, 1.07769215e+00,-3.77773307e-02,-2.20615888e+00,
  -3.46158862e+00},
 { 1.40610775e-02,-6.63443357e-02, 3.71517569e-01,-1.05811071e+00,
   1.08975148e+00, 1.78864825e+00, 2.01627359e-01,-5.95235443e+00,
  -1.05213411e-01},
 { 4.66472916e-02, 1.12140186e-01,-1.06014216e+00, 2.79218137e-01,
   3.92844725e+00, 1.09369421e+00,-6.57377392e-02,-1.14741057e-01,
   1.57013786e+00},
 { 3.13341331e+00,-1.68595839e+00, 1.69501972e+00, 1.29063958e-02,
   6.42563915e-03, 4.17685769e-02,-9.79613876e+00,-5.86564827e-04,
   1.13686696e-02},
 { 2.26068592e+00, 2.71825504e+00, 3.26252151e+00,-6.30609170e-02,
  -2.19532009e-02, 1.58064485e-01,-5.95192480e+00,-3.67742255e-02,
   6.19387440e-02},
 { 3.02238110e-02, 9.07418504e-02,-1.48760152e+00, 1.87814951e-01,
  -6.76580787e-01,-1.48157123e-02,-8.23574290e-02, 2.88315201e+00,
   1.21177268e+00},
 { 3.49935484e+00,-2.17595148e+00,-3.60367346e+00, 1.41584456e-01,
  -4.39742245e-02, 3.78234200e-02, 6.00438118e+00, 1.95364192e-01,
  -1.66780710e-01},
 { 4.11658287e-02,-7.77651183e-03,-2.95417279e-01, 2.91988349e+00,
   3.34444284e+00, 2.15821385e+00,-3.83975804e-02, 2.27258897e+00,
  -6.33868515e-01},
 {-3.04052122e-02,-9.88388583e-02, 2.71181369e+00,-1.80552781e+00,
   7.85607576e-01,-2.65138578e+00, 1.76773474e-01, 3.90644026e+00,
   3.36345720e+00},
 {-8.02072436e-02, 3.43680941e-02,-1.36280489e+00,-2.44339752e+00,
  -1.04085279e+00,-2.50294018e+00, 5.84662594e-02,-1.26602423e+00,
   3.18366289e+00},
 {-2.41658998e+00,-1.00589144e+00, 4.51822901e+00, 4.37175147e-02,
   6.83783442e-02, 1.73845798e-01,-4.61709976e+00,-7.11349817e-03,
  -1.25432357e-01},
 { 1.57117769e-01,-4.35708230e-03,-5.55542886e-01,-1.33207464e-03,
  -3.99025416e+00,-1.40686178e+00,-5.78764640e-02, 5.34812355e+00,
   6.00494325e-01},
 {-2.62396447e-02, 6.34567887e-02, 2.75740170e+00, 2.39081216e+00,
   3.64712924e-01, 1.04534471e+00, 3.68822403e-02,-5.95143855e-01,
   2.44086909e+00},
 {-2.02865824e-02, 4.64688335e-03,-1.15215264e-01, 3.41261435e+00,
  -2.67633963e+00, 5.45530224e+00, 7.43475696e-03,-1.00031509e+01,
   2.35137101e-02},
 {-4.85398713e-03, 2.37038005e-02, 1.28596914e+00,-1.40570221e-04,
  -1.29992545e+00, 4.13702697e-01,-6.50444254e-02,-1.60766292e+00,
  -2.45290351e+00},
 { 1.22119570e+00,-6.29327059e-01, 1.92333431e+01,-2.76501719e-02,
  -1.52857397e-02, 8.22450072e-02,-3.12211299e+00, 2.21377499e-02,
   1.93034392e-02},
 { 8.52896050e-02, 7.88223594e-02, 1.06264921e-02, 5.86202145e+00,
   5.42111814e-01, 8.79473746e-01,-1.08983733e-01,-9.87928486e+00,
   2.94013806e-02},
 { 2.61240435e+00, 2.00058174e+00,-1.82631111e+00,-4.32364009e-02,
  -1.14486665e-02, 3.64653915e-02, 9.06349468e+00,-7.58064613e-02,
   1.71127431e-02},
 { 8.17475915e-02, 3.08746984e-03,-4.14467239e+00, 2.83910489e+00,
   2.77455401e+00, 2.09623265e+00, 2.35941969e-02,-4.73250914e+00,
   2.51040792e+00},
 { 1.57806590e-01, 2.74045877e-02, 6.31589031e+00,-5.04210703e-02,
   2.11015916e+00, 8.93222615e-02, 2.27744989e-02, 5.31960092e-02,
   5.15632057e+00},
 { 3.30093578e-02,-1.93376802e-02, 2.34451818e+00, 1.01226068e+00,
   5.06478429e-01, 4.11387384e-01, 9.16763917e-02,-2.73340702e+00,
   4.08376980e+00},
 { 1.57754672e+00, 9.78453696e-01,-1.83500195e+00, 1.18481934e+00,
  -8.59499693e-01, 3.17526460e-01,-3.93741584e+00, 1.62452802e-01,
   2.93811679e+00},
 {-1.31666148e+00, 2.11149907e+00, 1.10243893e+00, 4.36726026e-02,
   3.30493674e-02, 9.59527940e-02,-5.52799749e+00,-2.68741567e-02,
  -9.03012976e-03},
 { 2.79925670e-02,-2.19002366e-02, 7.50613213e-01, 2.65857005e+00,
   5.97312260e+00, 1.61619997e+00, 3.01352534e-02,-1.46943970e+01,
  -1.89381242e-02},
 { 9.54667665e-03, 1.91840697e-02,-2.33962476e-01,-2.67095510e-02,
  -2.21730452e-02, 5.24960470e+00,-1.16425753e-02,-3.07919681e-02,
   1.68691054e-02},
 {-6.92999423e-01,-1.10367739e+00, 1.52577996e+00,-1.12888813e-02,
   3.12260389e-02,-3.19804549e-02,-2.44805360e+00,-8.60439688e-02,
   2.04239553e-03},
 { 4.36164662e-02, 3.34590673e-02,-2.00630561e-01,-4.30059195e-01,
  -4.93254519e+00, 7.81368136e-01, 1.26864035e-02,-1.49503088e+00,
   1.81428730e-01},
 { 1.25815952e+00,-2.28596854e+00,-3.24468446e+00,-5.05968407e-02,
  -1.01469345e-01,-1.60210371e-01, 5.64966583e+00, 6.75128326e-02,
  -3.89985219e-02},
 { 7.14009941e-01, 2.27756798e-01, 5.52060080e+00,-2.72808641e-01,
   3.15096170e-01,-5.93494892e-01, 2.59253430e+00,-7.76463926e-01,
  -1.04919052e+00},
 { 1.01405811e-02, 1.16587684e-01,-1.73238325e+00, 7.99072906e-02,
   6.33864701e-01,-6.15880862e-02,-4.27384162e-03,-1.09499657e+00,
  -4.07230330e+00},
 { 8.57980847e-02,-3.81050929e-02,-3.30196977e+00, 1.33859539e+00,
   2.05422759e+00,-2.55713272e+00, 3.02395746e-02,-5.53141880e+00,
   2.93156004e+00},
 {-1.52389416e-02,-1.34907901e-01, 6.12397909e+00, 1.07608747e+00,
  -2.15161490e+00, 1.72900784e+00,-1.16116464e-01,-1.64049685e+00,
  -7.15113342e-01},
 { 4.80036831e+00, 4.01964092e+00, 1.66588676e+00,-1.14777880e-02,
   3.33564430e-02,-3.09261661e-02,-9.72702694e+00,-2.29543056e-02,
   2.39437576e-02},
 { 1.73650309e-01,-1.78620446e+00, 9.51525688e+00,-7.78403739e-03,
  -2.84459465e-03,-2.62067970e-02,-4.85820484e+00,-5.26969437e-04,
   2.37370674e-02},
 {-1.61943823e-01, 2.65259743e+00,-1.02610130e+01,-6.29141778e-02,
   5.32721207e-02,-2.93732017e-01, 5.28801966e+00, 1.50853813e-01,
   1.19483531e-01},
 { 7.75139999e+00,-6.38280436e-02,-3.73753810e+00,-2.31892318e-02,
   1.98485889e-02,-5.06045967e-02, 3.55809903e+00,-1.10152923e-01,
  -4.74399589e-02},
 { 1.22116232e+00, 3.97067118e+00,-2.03182554e+00,-3.88915762e-02,
   4.53106649e-02,-1.83981270e-01,-2.56857443e+00,-6.60135001e-02,
  -4.85183001e-02},
 { 1.18205126e-03, 2.28729527e-02, 2.26832539e-01, 3.49243903e+00,
  -1.87513065e+00,-1.70416698e-01, 1.54717797e-02, 7.83098316e+00,
  -1.09679617e-01},
 { 7.07730800e-02, 3.52636874e-02, 3.74876261e+00, 1.44538689e+00,
   1.62718773e-01,-1.09997958e-01,-5.84897846e-02,-1.85536325e+00,
  -2.74661326e+00},
 { 3.28060579e+00,-1.81477666e+00, 3.69029570e+00,-4.24769558e-02,
   8.69128853e-03,-1.31992519e-01,-9.51999569e+00,-4.82849702e-02,
   3.81415896e-02},
 { 1.36013702e-02, 2.38973685e-02,-1.43602550e-01, 4.35640860e+00,
   7.57685363e-01,-1.33228421e+00,-1.10409111e-02, 1.15808277e+01,
  -1.01717360e-01},
 { 1.48825618e-02,-1.40037760e-02, 5.66769280e-02,-1.63409352e+00,
  -3.43061924e-01, 9.91017580e-01,-1.79607160e-02,-2.24205852e+00,
   4.99238186e-02},
 {-3.35004425e+00,-3.06282163e+00,-6.14220047e+00, 1.04927756e-02,
   2.76565570e-02,-6.92670643e-02, 3.87297058e+00,-2.06008516e-02,
   3.71433683e-02},
 { 1.30734041e-01, 1.38652503e-01,-2.85534096e+00, 2.83183384e+00,
  -4.88869762e+00,-1.36975789e+00, 3.52495879e-01, 5.99900961e+00,
   2.48220801e+00},
 {-2.45930813e-02, 1.21538214e-01, 2.98395896e+00, 2.88347459e+00,
  -1.22042298e+00, 6.45843506e-01,-3.80755216e-02, 4.18402576e+00,
  -3.37401128e+00},
 {-4.05000634e-02,-2.89524440e-03,-8.93599272e-01,-4.76882653e-03,
   4.99908304e+00,-2.07775617e+00,-7.43150041e-02, 7.43551016e+00,
   9.15833563e-02},
 {-3.92761417e-02,-4.28333655e-02, 1.52585149e+00,-2.66663969e-01,
   1.70649660e+00, 2.12609604e-01, 9.84236300e-02, 7.44386053e+00,
   2.51208901e+00},
 { 1.45921502e-02, 7.78806722e-03, 1.33799419e-01, 1.29376411e+00,
  -1.11996627e+00, 1.42082489e+00,-2.12247716e-03, 3.96511889e+00,
  -2.09410334e+00},
 { 2.23817732e-02, 2.43944675e-02,-1.73304096e-01, 4.09502554e+00,
  -9.56264064e-02, 7.31287777e-01,-2.90050358e-02,-1.18953266e+01,
   2.91540548e-02},
 { 1.05634611e-02, 4.56398688e-02,-4.26727581e+00,-2.92589355e+00,
   3.75529170e+00,-4.39861566e-02, 1.87150221e-02,-1.60519123e+00,
   5.46853729e-02},
 {-3.97013035e-03,-2.87749022e-02, 8.00126076e-01, 4.49940395e+00,
  -1.63739645e+00, 2.22101212e+00, 3.08469161e-02,-9.74085331e+00,
   8.39719325e-02},
 { 3.72309471e-03,-1.14861652e-02,-1.11545944e+00,-4.04851764e-01,
   4.03219223e+00, 8.79427969e-01, 1.15167024e-03,-3.79362607e+00,
   1.05621651e-01},
 { 3.46435738e+00,-3.02895516e-01, 3.99624050e-01, 6.69120401e-02,
   1.22972742e-01, 2.81519026e-01,-8.05689049e+00,-2.86572240e-03,
   1.09720446e-01},
 {-1.11583121e-01, 6.87121227e-02,-1.00478220e+00, 2.40434170e+00,
  -1.31532645e+00, 3.41454601e+00, 2.43751109e-02, 2.53421831e+00,
   3.44354725e+00},
 { 1.18285954e-01,-2.32025348e-02,-8.89338195e-01,-3.06220675e+00,
   9.49615240e-01, 2.19648528e+00, 4.07744907e-02,-1.64179176e-01,
  -3.77578759e+00},
 { 3.95451635e-02,-3.29067633e-02, 7.10609293e+00,-1.19088876e+00,
   2.30861521e+00,-2.34450698e+00,-1.61394805e-01, 2.14114451e+00,
   2.96478319e+00},
 { 3.92865014e+00,-7.92330563e-01, 3.36482620e+00,-2.96510104e-03,
  -4.58085649e-02,-1.05644874e-02,-9.05934143e+00, 8.65688398e-02,
   6.50881901e-02},
 {-3.57769914e-02, 1.43843349e-02, 4.61684644e-01, 1.31374180e+00,
   3.32584929e+00, 6.35918736e-01,-1.28975313e-03,-6.76438189e+00,
  -1.37379900e-01},
 {-3.37053649e-02,-2.01772470e-02,-3.97521472e+00, 3.75392962e+00,
  -2.14510107e+00, 1.32002342e+00, 1.94231316e-01,-2.07682633e+00,
   2.01516771e+00},
 { 4.52381149e-02, 6.84149005e-03, 1.01628840e+00, 2.85825539e+00,
  -1.27704871e+00,-1.17262573e+01,-1.26045458e-02, 6.88734722e+00,
   8.71004835e-02},
 { 1.64264478e-02, 2.96964385e-02, 1.71905190e-01, 4.10292912e+00,
  -2.54906249e+00,-6.61658108e-01,-2.96758171e-02, 4.88815212e+00,
   6.92756251e-02},
 {-1.77029049e+00, 3.90805626e+00, 1.21942782e+00,-9.79344361e-04,
  -1.39004560e-02, 1.48319325e-03,-2.93656588e+00, 5.24030440e-02,
   2.74879523e-02},
 { 6.46828562e-02,-2.72130013e-01,-1.74156380e+01, 1.05871193e-01,
   4.94779646e-02, 1.42236471e-01,-1.83754653e-01,-3.59098576e-02,
  -5.45523129e-02},
 { 4.93505970e-02,-1.04257073e-02, 6.37751245e+00,-3.39256740e+00,
   1.49348474e+00, 3.72512698e-01,-1.60622727e-02, 4.23392028e-01,
   4.97479963e+00},
 { 7.64367133e-02, 1.08836498e-02,-4.72028542e+00,-3.04460883e+00,
   1.87436712e+00,-7.46450961e-01, 6.76610880e-03, 3.35591412e+00,
  -4.00586510e+00},
 {-1.06812920e-02,-1.42008094e-02, 9.64296281e-01, 5.45853424e+00,
  -2.55233073e+00,-1.14632618e+00, 2.02978146e-03, 1.23640518e+01,
  -2.36005429e-02},
 {-9.77944303e-03, 1.18494757e-01, 2.08836317e+00, 4.62992370e-01,
   1.96561754e-01, 7.92545155e-02, 1.59350540e-02,-1.44498438e-01,
  -4.60603666e+00},
 { 2.12437057e+00,-3.16433120e+00,-4.16460800e+00, 6.35056291e-03,
  -5.69898002e-02,-9.72031206e-02, 4.08124208e+00, 5.09693585e-02,
   1.60680562e-02},
 {-1.61516345e+00, 1.50263226e+00, 3.55625248e+00, 3.80274169e-02,
  -1.23663582e-01, 3.46056670e-02,-4.08807325e+00, 1.05991989e-01,
  -2.76391441e-03},
 { 2.46878099e+00, 2.28594446e+00,-2.05866981e+00, 4.51098243e-03,
  -1.15195671e-02,-1.79179087e-02, 1.00245247e+01,-1.70664309e-04,
   1.70242060e-02},
 {-2.59342289e+00, 1.29863715e+00,-7.42011499e+00, 1.80576630e-02,
  -7.62261376e-02,-4.00479227e-01,-1.82680599e-02, 4.66273017e-02,
   2.12457255e-01},
 { 5.50440811e-02,-4.65401188e-02,-9.76708698e+00,-2.68602109e+00,
  -2.86986113e-01,-1.94670153e+00, 1.54208735e-01,-1.73511237e-01,
  -3.41322064e+00},
 { 3.91081476e+00, 1.98268545e+00,-5.55486441e+00,-2.48333439e-02,
  -4.22380716e-02,-7.16033429e-02, 1.02546072e+01, 9.72089693e-02,
  -3.03411242e-02},
 {-7.87274465e-02, 1.13260522e-01, 3.51500654e+00, 4.28497171e+00,
  -4.39739406e-01,-7.06329584e-01, 1.30792350e-01, 8.06478691e+00,
  -3.22775483e+00},
 { 4.45068741e+00,-1.31654644e+00,-5.28696012e+00, 5.08418912e-03,
   2.76839528e-02, 4.20408370e-03,-2.64656258e+00, 5.26202731e-02,
  -2.45959144e-02}};

const float b1[sz_hid_1] = {-2.0188293 ,-3.5714033 ,-6.6320496 ,-5.2436733 ,-5.3294406 ,-1.7548916 ,
 -7.4797654 ,-7.9456635 ,-3.149795  ,-2.346753  ,-6.9026318 ,-5.9444613 ,
 -5.4309278 ,-6.255664  ,-6.405552  ,-7.267585  ,-4.628892  ,-2.1695402 ,
 -7.1296787 ,-0.07890086,-7.0657063 ,-5.431714  , 0.6086153 , 0.7977246 ,
 -1.6847831 ,-7.286696  ,-3.769492  ,-6.3748946 ,-0.9495975 ,-3.6611898 ,
 -0.71492887,-1.8564878 ,-4.7861853 ,-5.293573  ,-6.698241  ,-0.9211165 ,
 -6.1197395 ,-2.0334833 ,-5.799365  ,-2.7120702 ,-2.8305142 ,-0.96533376,
 -2.791673  ,-5.3488874 ,-2.0775206 ,-0.98244584,-0.00960683,-3.6547601 ,
 -2.2368941 ,-2.7667115 ,-3.665807  ,-6.40558   ,-5.9088955 ,-4.0282664 ,
 -3.8313265 ,-4.017123  ,-6.058663  ,-3.3020697 ,-0.74782866,-3.8918626 ,
 -4.9895754 ,-5.16623   ,-4.5347443 ,-4.4580026 ,-5.5551224 ,-2.198607  ,
 -5.6086526 ,-1.6832641 ,-1.8410735 ,-6.5854874 ,-6.7962523 ,-4.1487136 ,
 -6.8514614 ,-1.5115676 ,-5.9521055 ,-4.176561  ,-0.7495509 ,-0.656812  ,
 -0.06959376,-2.1913195 ,-5.40983   ,-3.4973545 ,-0.8177368 ,-4.529978  ,
 -3.9296937 ,-4.9048924 ,-4.7951818 ,-5.9988003 ,-7.988006  ,-1.4076792 ,
 -3.6343055 ,-1.3733817 ,-5.035311  ,-5.8968    ,-1.0153029 ,-6.5228896 ,
 -6.8499064 ,-4.355779  ,-7.8071294 ,-7.2195497 ,-1.571675  ,-5.7421026 ,
 -3.8299391 ,-6.7181797 ,-2.3474538 ,-6.236702  ,-3.6175957 ,-3.9678695 ,
 -7.2127194 ,-5.834396  ,-1.9216498 ,-5.5599623 ,-0.45114157,-0.8085434 ,
 -2.9310496 ,-1.4136237 ,-8.992486  ,-6.4781504 ,-3.2661593 ,-1.0512586 ,
 -0.20573701,-2.207771  ,-7.257176  ,-3.8095508 ,-5.9008636 ,-5.3050547 ,
 -8.558835  ,-3.2358665 };

const float w2[sz_hid_2][sz_hid_1] = {{-1.92425251e-01, 1.19156682e+00,-2.47232413e+00,-2.01875734e+00,
   1.08784695e+01,-1.10412657e+00,-7.63537407e-01,-7.94482827e-01,
  -3.34447354e-01,-1.86409071e-01, 1.20605558e-01,-1.76327305e+01,
  -1.89415619e-01,-4.82928371e+00, 1.13552237e+00, 2.23933434e+00,
   8.69159281e-01,-1.75419593e+00, 5.75883389e+00, 1.26421845e+00,
   3.10029125e+00,-3.13561893e+00,-1.72796094e+00,-6.67844713e-01,
  -4.55783486e-01, 1.16263497e+00,-2.08723116e+00, 3.18186581e-01,
   2.91027474e+00,-4.34583604e-01, 3.46530288e-01,-1.56598568e+00,
  -4.04779053e+00,-1.12313042e+01, 1.68414307e+00, 7.69606754e-02,
  -2.68694252e-01,-2.94791430e-01, 2.13491750e+00, 7.52056003e-01,
   4.44387007e+00,-1.78202271e+00,-1.14136755e+00, 2.49304748e+00,
   1.20947349e+00,-3.93225241e+00,-1.54732621e+00, 2.53212690e+00,
   6.52424276e-01,-2.57929295e-01,-2.43550515e+00,-1.09437180e+01,
  -3.52976227e+00,-7.81611300e+00, 4.32237893e-01,-2.16421381e-01,
  -2.24254322e+00, 2.77834892e+00, 5.07968187e+00,-1.67192781e+00,
  -2.71396923e+00,-2.04101124e+01,-2.15349426e+01,-1.11440897e+00,
   7.15845490e+00, 1.47308230e-01, 2.15056086e+00, 3.71476591e-01,
   2.36806914e-01, 1.25947218e+01,-6.89276838e+00,-7.78196990e-01,
  -2.06450615e+01,-4.54886961e+00,-3.03258276e+00, 2.58489966e+00,
  -5.56691349e-01, 1.84941873e-01, 2.26964569e+00, 1.12510026e+00,
   7.57594705e-01, 1.60249972e+00, 7.47073293e-02,-7.42286563e-01,
  -1.90156496e+00,-6.63743794e-01,-4.40636687e-02, 7.66392946e-01,
  -2.37020571e-02,-3.90449822e-01,-2.73226810e+00, 6.40291214e-01,
  -2.39813232e+00, 1.01842761e+00, 1.70004153e+00,-2.19315048e-02,
  -5.17525196e+00, 5.71275763e-02, 9.28709316e+00,-7.99846745e+00,
  -7.72382975e+00, 9.03579712e+00,-5.74160397e-01,-1.48214073e+01,
  -1.75868511e+00, 3.58883691e+00, 2.28783226e+00, 5.33338368e-01,
  -1.21853466e+01, 2.60342884e+00,-1.05049491e+00, 2.35829636e-01,
  -3.22001368e-01,-2.42292210e-01, 1.31425154e+00, 1.32004857e+00,
   8.16302586e+00, 3.42900848e+00, 4.36219692e+00,-5.69742680e-01,
   1.50340044e+00, 9.51568484e-01, 3.31082749e+00, 4.48466510e-01,
  -4.09043789e+00, 3.33389521e+00, 8.74007404e-01,-8.96211639e-02},
 {-4.70389910e-02,-1.86085626e-02, 2.09691739e+00,-9.84484330e-02,
   1.47438073e+00, 8.89083222e-02, 9.06822503e-01,-3.54985452e+00,
   1.85543656e-01, 1.75045162e-01, 1.27957487e+00, 4.23167735e-01,
  -3.84920180e-01, 8.76943111e-01, 3.07310843e+00, 1.65167975e+00,
   3.89491248e+00, 1.05082422e-01, 1.24753559e+00,-7.87205696e-01,
  -3.89333993e-01,-7.51122999e+00,-2.41245508e+00,-3.25605059e+00,
  -2.93784580e+01, 9.22948241e-01,-6.02459097e+00,-6.86916113e+00,
   6.47427022e-01,-1.77174687e-01,-2.00100616e-02,-1.02241354e+01,
  -2.45117879e+00, 2.25994039e+00,-1.87602594e-01, 7.15034425e-01,
   3.62139374e-01, 8.24956000e-02,-1.68274379e+00, 4.33837938e+00,
  -2.36520544e-01, 3.63237947e-01, 4.27270126e+00, 1.08440661e+00,
   3.96859002e+00,-3.04697156e-01, 3.71366930e+00, 9.53962266e-01,
  -1.62513828e+00,-3.05247760e+00,-9.33254623e+00, 1.11354995e+00,
  -8.84571552e-01, 1.74659777e+00,-3.97213906e-01,-2.80615449e-01,
  -2.13652039e+00, 8.35821629e+00, 9.15103972e-01,-4.47444344e+00,
  -1.96345687e-01, 1.36565459e+00, 2.98881114e-01, 8.37382972e-01,
  -4.44298327e-01, 9.53806639e-02,-1.64532393e-01,-1.02634978e+00,
   2.40871653e-01, 1.13450575e+00,-4.89672613e+00,-4.73851770e-01,
  -1.04007018e+00,-7.69960999e-01, 8.37059438e-01, 8.62386131e+00,
   9.03415680e-02, 2.71199733e-01, 1.79089761e+00, 6.52802959e-02,
  -2.22729230e+00,-2.34101340e-01, 4.19305414e-01, 3.92600030e-01,
  -1.17303622e+00,-1.20222533e+00,-4.82508898e+00,-5.25208902e+00,
   5.21834898e+00,-1.24785113e+00, 8.76277506e-01, 5.95904768e-01,
  -2.50187206e+00, 1.17213614e-01, 3.10827047e-01, 5.45960903e+00,
  -1.95681489e+00,-3.15714550e+00,-3.27177495e-01,-5.09552050e+00,
  -1.62096834e+00, 2.07201801e-02, 2.07475603e-01,-9.42458957e-02,
  -4.35270339e-01, 2.06342716e+01, 1.10420811e+00, 4.60165650e-01,
  -2.55088401e+00,-4.59735680e+00,-2.85803586e-01,-8.92285943e-01,
  -1.42972648e-01,-1.56352967e-01,-1.45159042e+00, 1.71803319e+00,
   6.81385040e+00, 2.11053178e-01,-1.21691069e-02,-2.88377464e-01,
   2.18302226e+00, 1.81540155e+00, 2.13768721e+00, 2.57004714e+00,
  -1.71918068e-02, 4.53996134e+00, 6.52524233e-01, 1.98549414e+00},
 {-9.29926857e-02, 1.25459237e-02,-2.40784548e-02,-2.76602618e-02,
   6.64461702e-02,-1.00491673e-01, 2.43990030e-02, 2.76212972e-02,
  -4.38737310e-02,-2.26482772e-03, 1.57537498e-02,-8.84638056e-02,
  -7.50161707e-02, 1.48939351e-02,-9.66263413e-02,-3.71470191e-02,
   7.28083625e-02, 1.07050873e-02,-6.83348998e-02,-2.83446889e-02,
  -9.35663581e-02,-7.14157969e-02,-9.69851986e-02,-1.01535425e-01,
  -3.02965119e-02,-6.48243353e-02,-5.64383194e-02,-1.81040853e-01,
  -1.40571520e-02,-5.71326651e-02,-8.43500867e-02,-7.38521591e-02,
  -9.63455588e-02,-5.71282394e-03,-8.71601924e-02,-7.35467896e-02,
   6.25519305e-02,-7.44111650e-03,-1.02944903e-01,-6.27446324e-02,
  -4.38724943e-02,-6.71978146e-02,-1.51196541e-02, 4.61558700e-02,
  -7.91608170e-02,-3.62171009e-02,-1.20432325e-01, 4.30054293e-04,
   1.41203951e-03,-1.08087339e-01,-5.55195063e-02,-9.51780565e-03,
  -2.87770610e-02,-1.06556304e-02, 1.31005817e-03,-2.38398444e-02,
  -4.55010869e-02,-4.52080853e-02, 5.45134023e-03,-3.54423076e-02,
  -1.19051740e-01,-5.35465442e-02,-5.98169398e-03,-3.43936868e-02,
  -1.05421022e-01, 2.08843984e-02,-2.58324705e-02,-1.14089958e-02,
  -3.94886583e-02,-5.96202537e-02, 2.93191336e-02,-4.50420007e-02,
  -6.26323223e-02,-8.77276715e-03, 1.07415405e-03,-3.13309729e-02,
  -1.03418440e-01,-1.77490246e-02,-1.68797269e-01,-6.68280199e-02,
  -1.51253294e-03,-4.22972441e-02,-1.64331540e-01,-3.85539606e-02,
  -3.21835540e-02,-1.11903302e-01,-5.90694994e-02, 1.58160813e-02,
   5.68170696e-02,-2.15395377e-03, 1.79594904e-02,-8.50473717e-03,
   6.02000356e-02, 1.48157952e-02,-5.90308830e-02,-5.43470792e-02,
   6.99914843e-02,-3.52830440e-02,-1.40440211e-01,-9.99659598e-02,
   1.33315381e-02, 7.31939971e-02, 5.90073317e-02,-8.62892158e-03,
   1.10722473e-02,-8.93166885e-02,-7.58357719e-02,-1.88160002e-01,
   4.60622832e-03,-3.39070000e-02,-8.68171230e-02,-1.49289258e-02,
  -9.01555866e-02,-8.00100267e-02,-2.89564449e-02,-5.63670062e-02,
  -6.83673173e-02,-1.02786653e-01,-3.41619998e-02, 3.62096839e-02,
   7.93101918e-03,-1.44249469e-01,-1.00409314e-02,-2.25194339e-02,
  -1.20773055e-01,-1.07169695e-01,-4.89187017e-02, 4.22274601e-03},
 {-5.08467674e-01, 3.00829482e+00, 1.36726665e+00,-4.62975454e+00,
   5.45984554e+00,-9.26668346e-01, 4.45806170e+00,-4.35690956e+01,
  -8.00436974e+00, 2.06390172e-01,-8.92509580e-01, 5.68691850e-01,
   6.25091600e+00,-4.20359564e+00, 3.96898270e-01,-3.49881363e+00,
  -9.29053351e-02,-2.74550945e-01,-1.04825840e+01,-5.39829612e-01,
   4.37083769e+00, 3.01103830e+00, 7.36023366e-01, 5.46407521e-01,
   6.18367374e-01,-9.46141148e+00, 5.68043590e-01,-4.16024590e+00,
  -9.12612900e-02,-4.37615967e+00, 9.84477222e-01, 1.04458296e+00,
   3.08578992e+00, 7.20683527e+00, 1.43997872e+00, 1.58971742e-01,
  -3.67438108e-01,-7.98439026e-01, 4.09101635e-01,-1.11798763e+00,
  -1.53003430e+00,-8.88464332e-01, 2.13130522e+00,-1.82926619e+00,
  -7.12816656e-01, 2.41640258e+00, 6.18440509e-02,-3.53451759e-01,
   3.02775115e-01,-5.89105263e-02, 1.44583476e+00,-9.94408798e+00,
  -1.23463364e+01, 1.96680617e+00, 1.78049013e-01,-9.19132948e-01,
   2.59950590e+00,-8.13974977e-01, 4.13238764e+00, 1.08711052e+00,
  -2.22685165e+01,-5.12851810e+00, 7.19687790e-02, 1.73396504e+00,
  -3.47769403e+00,-6.60634279e+00, 1.98949087e+00,-5.94019604e+00,
  -2.63472229e-01, 8.84739208e+00, 8.87791634e+00, 2.83587575e+00,
   8.72409248e+00, 8.54557082e-02, 6.35303974e-01,-1.65731776e+00,
  -1.44865766e-01, 2.04758096e+00,-2.25399137e+00, 8.80296350e-01,
  -1.60636330e+00, 1.39341211e+00,-9.16437912e+00,-5.37416518e-01,
   1.60272980e+00,-1.51735020e+00, 2.11996838e-01, 4.00564596e-02,
   1.05757093e+00, 1.26216173e-01, 7.94104624e+00,-2.74490386e-01,
   2.78583765e+00,-1.07093925e+01, 4.40552205e-01, 1.21487379e-01,
   6.43671322e+00, 7.40787888e+00,-6.25244856e+00,-3.93309951e+00,
  -3.00305629e+00, 6.42980003e+00, 1.33976197e+00,-1.21936655e+01,
  -1.29805005e+00, 1.94825161e+00,-1.67435627e+01,-8.82968485e-01,
   2.05988503e+00,-3.00456643e+00,-8.70339453e-01,-1.05140172e-01,
  -5.74209750e-01, 2.94228983e+00,-1.13016510e+00,-8.67469668e-01,
   6.23818874e+00,-2.57564664e+00,-3.16470194e+00, 5.73169374e+00,
  -1.40178919e+00,-9.50065911e-01,-7.72603416e+00,-7.32954860e-01,
   1.63154161e+00,-1.73582208e+00, 1.24312935e+01, 5.32732248e-01},
 { 4.32471800e+00, 4.09043580e-01, 3.96728611e+00, 1.29523027e+00,
  -2.25804806e+00, 8.70455861e-01, 4.02331257e+00, 5.45253992e-01,
   1.36416113e+00, 6.95430994e-01,-1.09113061e+00,-2.26877747e+01,
  -1.67057347e+00, 4.92994690e+00,-2.55778193e+00,-5.05494952e-01,
  -5.30612282e-02,-7.31450558e+00, 1.06660700e+00, 1.01723112e-01,
   2.80755711e+00, 6.40558958e+00, 1.39695990e+00, 9.68918562e-01,
   1.57122540e+00,-1.01114817e+01, 1.48511982e+00,-5.89052343e+00,
   5.93704987e+00, 1.44752562e+00, 7.89031649e+00, 2.49363756e+00,
  -1.42007465e+01,-1.29685078e+01, 8.10214207e-02, 2.75906634e+00,
  -2.61122704e+00, 1.22790742e+00,-3.62962532e+00,-4.41218281e+00,
   1.43934035e+00,-2.70537853e+00, 6.82932043e+00, 1.10954046e+00,
  -1.85548508e+00,-5.52606869e+00,-1.00321949e+00,-5.09042680e-01,
  -1.18180430e+00, 1.15817893e+00, 2.41481876e+00, 4.81208801e+00,
   7.48145008e+00,-3.96920872e+00,-3.56175661e+00,-7.76954365e+00,
   3.26869059e+00,-3.95713830e+00, 4.04709864e+00, 1.59059012e+00,
  -1.18491495e+00,-1.04756269e+01, 1.82382965e+00, 4.32085133e+00,
  -9.07232225e-01,-3.66125560e+00,-2.23100996e+00, 1.31401181e+00,
  -2.05421925e-01, 5.87224913e+00, 1.32124577e+01,-1.35337734e+00,
  -1.52302647e+01,-9.47594047e-01, 1.75188935e+00,-3.69694185e+00,
  -1.62646568e+00,-6.03647292e-01,-5.88329840e+00,-1.32718670e+00,
   3.12555075e+00, 1.46245873e+00, 7.31510878e-01, 3.37157273e+00,
  -9.07253265e+00,-1.68673801e+00, 7.26493239e-01,-6.39606059e-01,
   4.74078846e+00, 2.04683375e+00,-1.55191958e+00,-1.21780097e+00,
   8.92402554e+00,-5.24026752e-01, 4.30081129e+00,-4.58836108e-01,
  -7.04584074e+00,-3.88767099e+00, 3.07685113e+00, 1.73486412e+00,
  -3.61601257e+00,-4.72119665e+00,-2.05148053e+00, 6.20876789e-01,
   3.07540083e+00, 2.86255550e+00, 8.47640097e-01, 3.73445481e-01,
  -1.47250152e+00,-9.54463768e+00, 1.22132957e+00,-2.49312449e+00,
   7.68655419e-01,-3.65510255e-01,-1.33712411e+00,-1.55453384e-01,
  -2.23716793e+01,-4.29573488e+00, 1.38368297e+00, 1.30936456e+00,
  -3.85973382e+00,-3.67785501e+00,-1.42618484e+01, 1.43394542e+00,
   3.82173538e-01,-4.99315262e+00, 1.83876371e+00, 2.39591837e+00},
 { 3.15093815e-01, 1.56505242e-01, 3.49568295e+00, 3.74495745e-01,
   2.03654170e+00, 4.50967580e-01, 8.17341447e-01,-3.06433892e+00,
   2.29488671e-01, 1.56384456e+00,-3.84038067e+00, 1.49764872e+00,
   3.72757137e-01, 5.88406861e-01, 1.84976065e+00, 4.69686508e-01,
  -3.08244681e+00, 4.96922165e-01, 7.68855572e-01, 2.19767761e+00,
   7.45925605e-01,-3.85303450e+00,-1.47223222e+00,-2.71619368e+00,
   2.70170116e+00,-1.98221758e-01,-2.18710113e+00,-5.32532167e+00,
   4.25828069e-01,-4.02658910e-01, 1.04118443e+00,-1.65964782e+00,
  -3.40663046e-01,-4.60236013e-01,-7.76967466e-01, 5.91457248e-01,
   3.55959356e-01,-6.44037724e-02,-6.40336514e+00, 1.96139908e+00,
  -1.85134614e+00, 5.56636512e-01,-4.10502434e+00, 1.02845824e+00,
   4.10919905e+00,-1.59857202e+00, 4.46935320e+00, 7.96854258e-01,
   6.12388194e-01,-2.04386735e+00, 8.75303447e-02, 1.32022750e+00,
  -2.22344160e+00,-1.11390837e-01,-1.45402038e+00,-1.22695696e+00,
   5.65585804e+00,-2.21237683e+00, 1.48209381e+00,-1.77610135e+00,
  -4.03619587e-01, 2.73151934e-01, 8.18308234e-01, 2.14804149e+00,
  -2.94269085e+00, 2.42100999e-01,-2.32390612e-01,-8.68435323e-01,
  -1.21947873e+00, 2.25887343e-01,-2.51763725e+00, 1.84197918e-01,
   5.63998938e-01,-6.97428405e-01, 1.75026655e+00, 3.78304601e+00,
  -2.07016274e-01, 6.63844943e-01, 3.02570438e+00,-8.97395462e-02,
  -5.99095404e-01, 1.55392182e+00, 3.40603709e-01,-2.54937232e-01,
  -4.81085569e-01, 6.24738812e-01, 1.27251089e+00,-4.37486082e-01,
  -7.07813740e+00, 1.31963468e+00, 4.97781277e-01,-1.92518324e-01,
   7.73712814e-01,-3.30766112e-01, 5.79835236e-01, 7.19155967e-01,
   1.50257611e+00,-3.01418209e+00, 8.66519690e-01,-2.29780102e+00,
  -1.68622279e+00,-5.06655693e-01, 2.47689262e-01, 7.40990281e-01,
  -1.01451121e-01, 5.37802935e-01, 1.43477941e+00, 8.42103481e-01,
  -1.56822100e-01,-4.03065825e+00, 4.02764827e-01,-2.08118051e-01,
  -1.58985898e-01,-2.56917953e-01, 1.36799693e+00,-1.70177901e+00,
  -9.50153530e-01,-1.88898537e-02,-6.74849600e-02,-4.53720510e-01,
   2.97395968e+00,-1.85270538e+01, 1.06279254e+00, 3.18388486e+00,
   6.21692002e-01, 9.67783451e+00, 2.28009152e+00, 2.43094754e+00},
 {-1.08620189e-01,-6.78390041e-02, 7.79759526e-01,-2.31760636e-01,
   7.47504711e-01,-4.08642721e+00, 6.18466139e-01,-5.60493231e-01,
   2.56305002e-02, 6.28294110e-01, 5.92178535e+00, 9.00518149e-02,
   5.66114113e-02,-8.57742205e-02, 1.43329799e+00, 1.95193604e-01,
   2.25347257e+00, 3.41115028e-01,-3.04432845e+00,-3.65251422e+00,
  -4.50710177e-01,-1.33107538e+01,-1.53654230e+00, 3.90345097e+00,
  -1.43182039e+00,-5.59232831e-01,-9.29282606e-01, 2.51299858e-01,
   1.41154304e-01,-3.56556661e-02,-1.56528488e-01,-1.85436094e+00,
   1.01597957e-01, 2.34665778e-02,-5.66244237e-02,-1.75566003e-01,
  -1.55075029e-01,-3.15952599e-01,-3.57344300e-01, 2.04924440e+00,
  -3.07762057e-01, 1.27454236e-01,-1.78714752e+00,-1.57763457e+00,
   5.26117373e+00,-8.92351195e-03, 2.68958664e+00,-9.04029787e-01,
  -6.94326878e-01,-6.44524515e-01,-4.66666985e+00, 1.86509669e-01,
  -1.74070492e-01, 1.83398500e-01, 3.14558186e-02,-3.56922187e-02,
  -2.61136556e+00, 1.99797964e+00, 2.78362870e-01,-2.60324836e+00,
  -3.13282460e-02, 6.38250589e-01, 4.64033753e-01,-1.08119629e-01,
   1.33011019e+00, 3.06406558e-01, 4.75384258e-02,-6.94528073e-02,
   6.72230542e-01, 1.28597826e-01,-3.63798738e+00,-3.33616167e-01,
  -8.83704185e-01,-1.62529647e-01, 1.82981539e+00, 3.56584811e+00,
  -4.58178064e-03, 4.80879396e-02, 2.89982677e+00,-8.05659145e-02,
   1.99489939e+00,-3.39365339e+00, 1.23448065e-02, 1.16646565e-01,
   8.29028249e-01, 1.89687252e+00, 6.67831182e+00, 9.44151878e-02,
  -1.33328244e-01,-9.19111848e-01, 1.52253792e-01, 1.42593920e-01,
  -2.78307176e+00, 4.82783951e-02, 1.94491506e-01,-5.50775170e-01,
  -1.17339778e+00,-3.21517318e-01,-1.31829470e-01,-8.32557499e-01,
  -5.29902041e-01, 1.39972106e-01, 1.34990305e-01,-1.03021070e-01,
   1.08649440e-01, 8.35042477e+00, 2.49246985e-01, 2.53927916e-01,
   5.56729937e+00,-1.51397991e+00, 9.76614282e-03,-3.24924231e-01,
  -7.29204789e-02,-5.71314842e-02, 2.32978845e+00,-8.72324753e+00,
   3.81848328e-02,-2.75998145e-01, 5.73809892e-02,-2.17935648e-02,
   1.46460772e+00, 1.45234382e+00, 3.93020821e+00,-7.46645927e+00,
   1.60906374e-01, 2.64433908e+00,-1.64421415e+00, 4.92502451e-01},
 {-1.73154306e+00,-1.15131819e+00,-1.34713519e+00,-3.46165323e+00,
  -2.68305564e+00,-6.13990843e-01, 1.46369100e+00, 9.43228531e+00,
  -9.69682634e-01, 1.12586290e-01, 3.51238042e-01,-3.18653494e-01,
  -3.52982783e+00, 2.37289265e-01,-1.36661136e+00,-9.34390736e+00,
   5.07342100e-01, 1.03042531e+00,-2.12848377e+00, 9.19128001e-01,
   1.05932398e+01,-2.06949878e+00,-1.07949519e+00, 3.87857147e-02,
  -8.25763583e-01, 2.25507474e+00,-5.50515950e-01, 3.34364676e+00,
   1.42408893e-01, 4.73360837e-01, 1.64870903e-01,-1.56356132e+00,
  -3.24067044e+00,-2.04471564e+00,-2.69079089e+00,-2.47366166e+00,
  -2.17400813e+00,-2.77001190e+00,-2.89989859e-01, 1.05837786e+00,
   3.24141121e+00, 4.19922972e+00,-6.30348384e-01, 1.34881687e+00,
   1.04801905e+00, 8.16230699e-02,-9.21303868e-01, 6.37257576e-01,
  -2.64604241e-01,-1.03332534e-01,-1.87454915e+00,-4.04044837e-01,
   1.63931862e-01,-1.15388370e+00, 7.92117119e+00, 1.36830524e-01,
  -1.86640823e+00, 1.89337766e+00, 5.25166690e-01,-1.36900795e+00,
   7.92729482e-02, 1.34421086e+00,-4.68540430e+00,-3.57560396e-01,
  -1.23376024e+00,-4.81827688e+00,-1.83455741e+00, 7.77910888e-01,
   1.00669287e-01, 5.61135387e+00,-5.18137789e+00, 4.40714312e+00,
  -5.48324203e+00,-1.09709151e-01,-2.81799197e+00, 1.81763113e+00,
  -3.52708769e+00, 1.44821191e+00, 8.62185061e-01, 2.99167585e+00,
   3.39296162e-01, 3.95335257e-01,-1.01399434e+00, 9.03001785e-01,
   5.57402194e-01, 1.52730930e+00, 6.81707710e-02,-9.83099565e-02,
   1.08218598e+00,-3.43482435e-01,-4.85443020e+00, 1.09333766e+00,
  -1.01551473e+00, 5.22080183e+00,-6.96915770e+00,-2.23705858e-01,
  -5.44600439e+00, 1.23175395e+00, 3.34449363e+00, 7.89363980e-01,
  -2.14496046e-01,-7.10432482e+00,-3.95397592e+00,-2.98513031e+00,
  -5.07228947e+00,-1.90750694e+00,-3.07414770e+00,-1.00211372e+01,
   5.66399097e-01, 1.38586140e+00, 1.21140490e+01, 3.28310490e+00,
  -3.34471375e-01, 2.73143172e+00, 9.86152530e-01,-1.33800924e-01,
   1.87996578e+00,-6.70267120e-02, 3.70424223e+00, 8.65240037e-01,
   6.93659663e-01, 6.33247674e-01, 3.62039375e+00, 5.06572127e-01,
   5.26076221e+00, 1.51780617e+00,-5.97012615e+00,-7.42709339e-02},
 { 2.02943897e+00, 9.42195773e-01,-7.50009477e-01, 3.66674423e+00,
   2.10556626e+00,-8.14573348e-01,-6.17944145e+00, 1.19903243e+00,
   3.02308619e-01,-7.52610937e-02, 4.96353328e-01, 3.93836141e+00,
  -1.89540043e+01,-2.46234798e+01,-3.53796363e+00,-8.10150653e-02,
   4.02703196e-01,-4.94479132e+00,-4.30238104e+00, 2.05869484e+00,
  -6.74528837e+00,-2.68459415e+00,-1.11472952e+00,-2.21664280e-01,
  -8.23397994e-01, 4.78748083e+00,-5.41176140e-01, 5.84737492e+00,
  -1.48914695e+00,-1.64237893e+00,-1.79463732e+00,-1.76550412e+00,
   5.45277059e-01, 2.72610784e+00,-4.33325500e+01,-1.89496756e+00,
  -1.83304465e+00,-7.42941904e+00,-1.59035244e+01, 1.38509846e+00,
  -6.97615445e-01,-6.56982899e-01,-1.71220362e+00, 2.42965221e+00,
   1.36569393e+00, 7.62624964e-02,-1.15185535e+00, 1.01833248e+00,
  -2.39753813e-01,-7.75273219e-02,-2.71863389e+00, 2.83821940e+00,
  -7.87659943e-01, 1.61128788e+01,-2.11211624e+01, 3.59025039e-02,
  -3.00013542e+00, 1.10895014e+00,-9.25380409e-01,-1.99824917e+00,
  -3.08439851e-01,-2.13926792e-01,-1.60890942e+01,-1.07151830e+00,
   9.79144478e+00, 3.86290997e-01, 1.25985157e+00,-5.42615604e+00,
   3.36776465e-01,-1.28219614e+01,-7.91014767e+00,-2.30280131e-01,
  -1.21100283e+00, 1.27084076e+00,-5.32319963e-01, 2.50538254e+00,
   3.79218388e+00, 3.39045143e+00, 2.27046824e+00,-3.61309981e+00,
   1.25233507e+00, 5.17955244e-01, 1.76523924e+00, 4.41595507e+00,
  -3.23947281e-01, 2.92232013e+00,-4.82916623e-01,-5.76754034e-01,
   1.64622426e+00,-5.63507915e-01, 3.07929826e+00,-6.22654629e+00,
  -2.40543294e+00,-4.63426399e+00,-4.03946447e+00,-2.49640673e-01,
  -8.58098888e+00,-4.43233013e+00,-2.38659644e+00,-4.80042315e+00,
   8.34888816e-01, 7.47777653e+00, 2.82289577e+00, 3.65899444e+00,
  -3.62432027e+00,-5.03526068e+00, 3.54315132e-01, 6.52606249e-01,
   8.53732452e-02, 3.64302969e+00,-1.58121452e+01,-3.51101518e-01,
  -1.52291104e-01,-2.21573758e+00, 1.52494884e+00,-1.29367992e-01,
   2.33205056e+00,-1.15352809e+00,-4.40624571e+00,-1.68831861e+00,
   1.32640326e+00, 1.31001735e+00, 5.00936794e+00, 1.73093885e-01,
   1.84322059e+00, 2.44232535e+00, 8.91295242e+00,-1.54397255e-02},
 { 1.82243323e+00, 1.24816430e+00, 3.93679500e+00, 3.07062531e+00,
   1.98243427e+00, 1.72970068e+00,-8.56609643e-01, 2.09797707e+01,
  -1.48981535e+00,-2.65356064e-01,-1.79399288e+00, 1.02104402e+00,
  -1.18344860e+01,-4.23071027e-01, 4.37151611e-01, 1.15587890e+00,
  -7.62848794e-01,-8.92472386e-01,-4.24738455e+00,-1.67615664e+00,
  -1.30351458e+01, 5.52851629e+00, 1.72992384e+00, 1.29950374e-01,
   1.07775509e+00, 1.10971642e+01, 4.74056989e-01,-3.75520253e+00,
  -2.26733017e+00,-1.41203034e+00,-9.77855623e-01, 1.54715884e+00,
  -3.30852896e-01, 3.26262808e+00,-2.72974796e+01, 2.78015375e+00,
  -1.20901470e+01, 2.26021934e+00, 6.43865764e-01,-1.59691811e+00,
  -1.23005114e+01,-9.34033751e-01, 1.86368287e+00, 6.02915382e+00,
  -3.24422538e-01, 3.01577687e-01, 9.81451273e-01,-9.95943427e-01,
   1.01538941e-01, 3.74781698e-01, 3.65426779e+00, 3.70859057e-01,
  -7.69076490e+00, 9.97338295e-01,-3.10906982e+01, 3.93715858e-01,
   2.28492260e+00,-2.44394755e+00,-3.18713874e-01, 2.06865072e+00,
  -1.83908865e-01,-1.27876067e+00, 2.96339869e+00, 6.44705594e-01,
   5.85428810e+00,-4.43707645e-01, 9.79333401e-01,-7.16632724e-01,
  -3.82850587e-01,-6.51562786e+00, 8.67849255e+00,-7.22041273e+00,
  -1.18058011e-01, 1.82356358e+00,-1.91901708e+00,-3.12957835e+00,
   3.94638181e+00, 2.10511565e+00,-1.86010969e+00,-3.65839911e+00,
  -2.15978622e+00,-1.24948323e+00, 3.76881599e-01, 4.61773014e+00,
  -1.72598970e+00,-2.91609931e+00, 6.12428300e-02,-1.14611119e-01,
   3.31415534e-01, 4.33360457e-01, 2.46412501e-01,-1.55466104e+00,
   2.32927489e+00,-4.46372509e+00,-5.00742531e+00, 4.58728105e-01,
   4.16432858e-01,-1.14609027e+00,-4.12004471e+00,-1.70113933e+00,
   1.36215657e-01, 9.11070824e+00, 1.61567652e+00, 2.66710496e+00,
  -8.12393570e+00, 4.79771805e+00, 4.96946871e-01,-5.51737905e-01,
  -1.02701159e+01,-4.64953375e+00,-1.08111334e+01,-2.76258183e+00,
   2.18915701e-01,-2.32268476e+00,-2.00648904e+00,-3.83270383e-01,
   8.27053928e+00,-2.80272889e+00,-4.53895617e+00,-2.54973143e-01,
  -1.39346790e+00,-1.58135521e+00,-7.01295471e+00,-9.37392265e-02,
  -5.13932467e-01,-2.82545328e+00, 3.10454726e-01,-2.55221486e-01},
 { 1.77435018e-02,-1.29270498e-02, 4.75946039e-01, 5.09476960e-02,
  -5.40579438e-01,-5.52817297e+00,-3.92505825e-02, 3.71568054e-01,
  -3.59325670e-02, 5.25621295e-01, 2.34451628e+00,-1.99735269e-01,
   5.95298298e-02, 1.26469076e-01, 1.22588825e+00, 5.98872805e+00,
   3.38545144e-01,-2.48479292e-01,-3.01879501e+00,-9.11808252e-01,
   1.89539298e-01,-1.37220011e+01,-1.57544971e+00, 1.96008050e+00,
  -8.32505608e+00, 1.23611614e-02,-4.00173378e+00,-2.14764762e+00,
   3.99216674e-02, 1.19634196e-01, 2.02736612e-02,-8.46949339e-01,
  -1.77018031e-01, 6.49034008e-02,-4.53761220e-02,-5.41436970e-02,
   1.37256429e-01,-1.96975648e-01, 1.73971817e-01, 4.51630878e+00,
   1.50960058e-01, 1.70610830e-01,-3.29169464e+01, 2.65855217e+00,
  -9.65743363e-01, 3.76882814e-02,-1.92482388e+00,-1.66131639e+00,
   2.91620278e+00,-5.60253739e-01, 5.04777968e-01,-3.23525779e-02,
   5.05522415e-02, 1.40101716e-01,-4.89459857e-02, 1.46373436e-01,
   1.13472009e+00,-1.01739693e+00,-8.53041932e-02,-1.08947592e+01,
   2.02357411e-01,-4.17443782e-01,-2.81394899e-01, 1.00930810e+00,
  -1.70139849e-01,-1.31513566e-01, 1.85746774e-02,-1.03826411e-02,
   3.77647448e+00, 3.52376878e-01,-4.37850142e+00, 6.97013289e-02,
   1.61547616e-01, 2.54730377e-02,-9.91956830e-01, 5.16510010e-01,
   3.15100849e-02, 3.00224304e-01, 1.77360177e+00, 1.03657991e-02,
   2.24485922e+00, 1.57721055e+00,-4.20736223e-02,-2.04278126e-01,
   8.17542374e-01, 2.54289055e+00, 3.47292447e+00, 3.58607721e+00,
  -1.22754040e+01,-9.64894950e-01, 5.55700004e-01, 1.22139916e-01,
   1.56369829e+00,-1.19532689e-01,-1.24477692e-01, 2.38993530e+01,
  -5.44294715e-01,-8.03007185e-02,-1.11777790e-01, 4.44066495e-01,
   3.00987095e-01,-6.29799888e-02,-1.73918203e-01,-3.13404381e-01,
   8.20118636e-02, 1.97669888e+00,-3.65216881e-02,-1.85036317e-01,
   1.04744315e+00,-4.65650702e+00, 4.48034443e-02,-8.70121568e-02,
   3.31952795e-02,-2.46930458e-02,-5.68788052e-01,-1.51312828e+00,
   3.96040750e+00, 2.58502871e-01, 6.78316271e-03,-4.90800329e-02,
  -3.04775059e-01,-2.93260157e-01, 6.15435553e+00,-6.82294893e+00,
   9.99974012e-01, 2.31304333e-01,-4.87989262e-02, 1.61551237e+00},
 { 2.63710111e-01,-3.67991352e+00, 6.29978701e-02,-1.03934743e-01,
  -1.73654735e+00, 2.52956539e-01, 1.10739050e+01, 1.53260663e-01,
  -2.79450369e+00, 7.41350604e-03,-2.52299070e-01,-4.34451628e+00,
   1.04879789e-01,-5.24282813e-01,-1.28910035e-01,-6.13545358e-01,
  -9.70837921e-02, 1.01582535e-01, 3.30915523e+00,-1.25539064e-01,
  -5.45471311e-01, 4.58300650e-01, 9.00633857e-02,-5.67640588e-02,
   7.55721107e-02,-1.88621789e-01, 2.07654629e-02,-6.12154603e-01,
  -5.87931126e-02, 4.07574624e-01,-1.68521807e-01, 1.82520241e-01,
   4.58423853e-01, 4.33501422e-01,-2.50755876e-01, 1.56911567e-01,
   1.39575765e-01,-2.46264964e-01, 1.31996825e-01,-1.12958245e-01,
   1.52770996e-01,-1.13345098e+00, 3.17890458e-02, 5.18255293e-01,
   1.17956847e-02, 9.23226595e-01, 1.30190313e-01,-5.38318567e-02,
   6.38323128e-02,-5.59471641e-03, 1.61405355e-01, 4.55339968e-01,
   5.06570292e+00, 3.39514524e-01,-5.76541573e-02, 6.34654474e+00,
   2.23210558e-01,-8.86958390e-02,-1.17254055e+00, 2.86766946e-01,
   1.51754963e+00, 6.02471709e-01,-2.07578182e-01, 7.55738616e-02,
   5.58260393e+00,-5.87039441e-02, 4.48646259e+00,-2.86289006e-02,
  -2.54816879e-02,-2.96154881e+00, 4.66515511e-01,-6.05994642e-01,
   2.19139433e+00, 2.69717164e-03, 3.33375782e-01,-1.37875184e-01,
   1.06128860e+00, 1.44237220e+00,-1.28372118e-01, 2.99123704e-01,
  -4.29424196e-01, 2.81433403e-01,-1.17459014e-01,-6.95447773e-02,
  -3.74127865e-01,-2.25770935e-01,-4.76328097e-02,-5.33340350e-02,
  -3.11567456e-01, 7.75576755e-02,-3.08863848e-01,-1.77934930e-01,
   1.33421391e-01, 3.19487333e+00,-3.31695639e-02, 7.55515546e-02,
   6.68523788e+00,-1.05045199e+00,-5.37422800e+00,-1.22974720e+01,
   8.03501979e-02,-1.29883635e+00,-2.99588531e-01, 7.94379532e-01,
  -2.94163883e-01,-5.48592985e-01, 6.10267371e-02,-7.73328841e-02,
   1.10795724e+00, 4.81767088e-01,-3.16112846e-01, 1.11478008e-01,
   1.07931178e-02, 1.88204527e+00,-1.41946197e-01,-3.43404673e-02,
  -5.73306417e+00,-8.29993916e+00,-6.37478173e-01, 1.52063817e-01,
  -7.04653785e-02,-4.78836894e-02,-2.96010047e-01, 1.49537638e-01,
  -6.76185429e-01,-1.54264212e-01,-1.59348440e+01, 6.49194345e-02},
 { 3.24307895e+00, 3.38243580e+00,-4.97035533e-02, 2.05846930e+00,
   3.65898228e+00,-2.75772870e-01,-1.50392318e+00,-6.28091669e+00,
   1.93441957e-01,-1.81875259e-01,-7.98209608e-02,-1.27564907e+00,
  -1.16656046e+01,-8.67167473e+00,-3.01998258e+00, 3.36232662e-01,
  -4.63775963e-01,-2.56676531e+00,-4.86274242e+00, 3.93621504e-01,
  -7.75334358e+00,-2.44536376e+00,-1.20378053e+00,-3.07990938e-01,
  -2.03786993e+00,-2.48890018e+01, 9.40952957e-01, 9.21280766e+00,
  -6.73949420e-01,-2.86391199e-01, 1.59625673e+01,-2.33307672e+00,
  -6.38076067e-01, 7.91671753e+00,-2.93530674e+01, 3.56374526e+00,
  -3.92477455e+01, 1.72836363e-01,-9.98846769e-01, 2.26469469e+00,
  -1.89113879e+00, 1.53214991e+00,-1.32887828e+00, 3.06238443e-01,
   2.12742114e+00,-4.83203077e+00, 2.48685241e+00, 2.90801316e-01,
   9.40763593e-01, 4.14034545e-01,-1.16727793e+00,-2.12989640e+00,
  -1.79881763e+00,-1.91205943e+00,-4.35800896e+01,-1.68150258e+00,
  -3.96063066e+00, 1.80446541e+00,-4.40476513e+00,-2.43995488e-01,
  -4.51562405e+00,-4.47297382e+00,-2.28689218e+00,-1.66111374e+00,
   3.70421576e+00, 7.44775629e+00, 2.10936499e+00,-7.09464693e+00,
   3.03689569e-01,-1.99529874e+00,-5.03445721e+00,-7.52622545e-01,
  -5.34604645e+00, 1.03086245e+00,-4.57729053e+00, 1.07661760e+00,
   7.70840123e-02,-6.94477975e-01, 2.21278429e+00,-5.27060747e+00,
  -5.99932849e-01,-2.78961677e-02,-4.28713590e-01, 7.83849880e-02,
  -2.31431627e+00, 1.97358251e+00,-6.38662338e-01, 1.39661640e-01,
  -1.39295056e-01,-1.04474664e+00, 4.28901434e+00,-3.55903172e+00,
  -3.13105845e+00,-5.02537775e+00,-4.56088982e+01,-5.86042345e-01,
   1.13341868e+00, 1.89091742e+00, 2.30658844e-01,-1.24663019e+01,
  -2.37429070e+00, 3.16220450e+00,-1.27701342e+00, 2.11947584e+00,
   3.46664953e+00,-4.94033098e+00,-8.92749906e-01, 3.62445617e+00,
  -6.89545393e-01, 2.05516005e+00,-3.59551191e+00,-4.80464411e+00,
   2.07129568e-01,-2.30413866e+00, 1.65025675e+00,-1.48611188e+00,
  -9.52865696e+00,-5.27080059e+00,-2.63477278e+00, 3.61839867e+00,
   4.29241180e-01, 9.86621201e-01, 4.77464056e+00, 1.03292413e-01,
   2.00676370e+00, 1.48812079e+00, 3.51559687e+00,-1.06710804e+00},
 { 4.60250282e+00,-2.06920743e+00,-1.98171306e+00, 1.29040968e+00,
   6.57697499e-01,-2.38920784e+00,-4.91703653e+00,-8.32107484e-01,
   6.41345382e-01,-2.49321294e+00,-1.81719565e+00, 9.61435890e+00,
  -1.15128899e+01,-1.96900654e+00,-2.92574549e+00, 1.76313484e+00,
   3.10265601e-01, 2.36069226e+00,-5.70613575e+00, 1.38067257e+00,
  -3.74073458e+00, 1.15109876e-01,-3.63817954e+00,-3.79125333e+00,
  -2.83787107e+00,-1.16336441e+01, 2.58238602e+00, 1.14433107e+01,
  -1.98111129e+00, 3.41445565e+00, 4.75329256e+00,-1.78227401e+00,
   2.04952955e+00,-4.10490561e+00,-1.73743832e+00,-8.11942518e-01,
  -3.74220157e+00, 4.40531224e-01,-1.65394568e+00, 3.60392380e+00,
  -3.09737086e+00, 2.08552152e-01,-4.72345972e+00,-2.48365358e-01,
   2.82852864e+00,-4.65242434e+00, 2.40947270e+00, 1.27319157e+00,
  -1.58632982e+00, 1.24361289e+00,-2.50782776e+00,-6.74835324e-01,
  -5.42970419e-01,-1.85625637e+00,-1.88611019e+00, 1.10330272e+00,
  -6.35866451e+00, 6.67772913e+00,-8.27395618e-01,-8.38584006e-01,
  -5.82551098e+00,-2.59828033e+01, 2.05510449e+00,-5.08670902e+00,
  -2.70429707e+01,-5.69115639e-01,-1.79271960e+00,-2.94018865e+00,
   1.05266547e+00,-1.22790837e+00,-4.90108013e+00, 1.77929854e+00,
  -1.83173561e+01, 6.23642159e+00,-1.47660506e+00, 2.02054930e+00,
  -1.32032144e+00, 7.80984044e-01, 1.69315171e+00,-9.83102441e-01,
   3.59566522e+00,-6.96102738e-01,-8.02097034e+00,-1.50033855e+00,
   3.13939834e+00, 1.79948795e+00,-6.25625014e-01, 5.11672616e-01,
  -5.73520565e+00,-2.31581855e+00,-1.94991660e+00,-3.41814065e+00,
  -4.13745260e+00, 1.03190494e+00, 1.51523280e+00, 1.50238210e-03,
  -1.30154915e+01, 2.10558248e+00,-3.71009707e-01,-4.34771109e+00,
   9.48278189e-01,-2.04255128e+00, 1.38179445e+00, 3.37659597e+00,
   2.02329278e+00,-1.62394667e+00,-6.56717539e-01, 2.48708987e+00,
   4.30571842e+00, 2.37174511e+00, 7.76665568e-01, 2.21868396e+00,
   1.43253013e-01, 1.35924757e+00, 2.50974011e+00, 2.37464952e+00,
   9.07904685e-01,-8.69078696e-01,-9.03178275e-01, 9.89901447e+00,
  -5.20661771e-01, 4.06023026e+00, 4.87910795e+00, 3.35192728e+00,
  -4.21398973e+00, 2.35245609e+00, 5.52746010e+00, 7.20922887e-01},
 { 3.98108506e+00,-9.38725412e-01,-2.30901867e-01,-1.04089713e+00,
   1.57666072e-01,-1.11944273e-01,-7.19885683e+00, 5.62988937e-01,
   7.44244099e-01,-8.04431140e-01, 4.50899184e-01, 3.06802064e-01,
   1.05904758e+00,-2.40708038e-01,-1.52828932e+00, 4.80511189e-01,
  -3.42158049e-01, 1.28758892e-01, 4.14002657e+00, 1.17156708e+00,
   6.78919601e+00,-3.47856331e+00,-2.12853765e+00,-4.07245874e-01,
  -1.15243590e+00,-3.03953719e+00, 2.24435940e-01, 1.74806750e+00,
   2.80108955e-02, 8.92248333e-01,-1.77283669e+00,-7.82727838e-01,
  -4.98618275e-01, 2.40678072e+00, 2.54306173e+00,-1.25138402e+00,
   1.11717544e-02,-6.29584193e-01, 7.73407638e-01, 9.48489428e-01,
  -1.98431885e+00,-2.62029991e-02,-1.07502282e+00, 5.70593774e-01,
   1.94314766e+00,-2.65045929e+00, 8.15250039e-01, 3.92833978e-01,
   5.75245678e-01,-1.35281169e+00,-6.54847324e-01,-4.34483081e-01,
  -3.85336637e+00,-2.19627261e+00, 2.12120199e+00,-7.12960005e+00,
  -3.56860280e+00, 1.77813435e+00, 4.84541988e+00,-1.01030588e+00,
  -8.64700198e-01,-4.52548170e+00,-1.69450298e-01,-2.00439501e+00,
  -2.68603659e+00,-6.44810319e-01, 3.92155886e-01,-2.11970663e+00,
  -1.61768302e-01,-3.70582402e-01,-1.64298964e+00,-3.17946911e+00,
  -1.63384759e+00, 1.41210485e+00,-7.21180737e-01, 8.65841806e-01,
  -2.09896517e+00,-4.46122050e-01, 1.23320556e+00,-2.12765527e+00,
  -2.19454932e+00, 4.12607267e-02,-1.35061073e+00, 3.21416402e+00,
  -1.22696102e+00, 7.40717530e-01, 3.10242832e-01, 1.73731089e-01,
  -5.10936379e-01,-4.55835640e-01, 2.56798410e+00,-1.21623385e+00,
  -2.72652006e+00,-4.94589043e+00, 4.29060268e+00, 1.03763729e-01,
  -2.74379224e-01, 1.13456225e+00, 1.00578952e+00,-2.93623614e+00,
  -2.35236692e+00,-8.24221313e-01, 4.40492004e-01,-5.77740312e-01,
   3.64766693e+00, 9.18695986e-01,-2.64075923e+00,-3.09570372e-01,
  -2.96175456e+00, 3.29355454e+00,-2.03789353e+00, 6.15378439e-01,
   4.40781891e-01, 1.84149757e-01, 5.50551534e-01, 2.45963186e-01,
  -3.40723395e+00,-1.59629536e+01, 8.76998186e-01, 5.27814865e+00,
   8.68419528e-01, 1.84429920e+00, 9.89610791e-01, 6.58508003e-01,
  -7.40665960e+00, 2.04557109e+00, 3.01216817e+00,-1.83216274e+00},
 {-4.65852953e-02,-8.46351981e-02,-6.24702796e-02,-9.93346348e-02,
  -9.15337279e-02,-1.96006969e-02,-2.43603289e-02,-1.23166293e-01,
   8.44229385e-03, 1.56248352e-02, 6.29198626e-02, 2.00355463e-02,
  -1.04419909e-01,-5.85282631e-02,-1.21760473e-01,-8.37840233e-03,
  -5.12982300e-03,-4.00949977e-02, 3.23519297e-02,-2.28435360e-02,
  -9.99916419e-02, 2.04903223e-02,-3.99980582e-02,-2.05946919e-02,
  -8.61738771e-02,-6.35037646e-02,-1.90451778e-02, 1.57508045e-03,
   9.89204645e-03,-1.56459827e-02, 5.52879320e-03,-3.01466137e-03,
   6.28101826e-03,-8.71531144e-02, 2.19195057e-02,-9.18917507e-02,
  -5.66909611e-02, 2.74534095e-02,-1.42454216e-03,-5.84366657e-02,
  -1.22599695e-02,-9.36178863e-02,-2.93983631e-02, 1.79612674e-02,
  -5.81053225e-03,-1.22144453e-01,-1.03207834e-01,-3.19601339e-03,
  -6.71722665e-02, 3.93309677e-03, 2.50154417e-02,-3.78335565e-02,
  -6.08139820e-02,-9.67260674e-02, 2.94965599e-03, 2.35901065e-02,
  -5.41568436e-02,-1.16766520e-01,-1.20418817e-01,-1.54110556e-02,
  -4.20377031e-02,-6.73034340e-02,-9.75452885e-02,-6.99511170e-02,
   7.89205078e-03, 2.69736769e-03,-9.39196274e-02,-9.60957780e-02,
  -1.44216523e-01, 3.19403480e-03,-4.43834588e-02,-4.16723639e-02,
  -3.84874828e-02,-1.41509786e-01,-1.07280873e-01,-1.20109797e-01,
  -8.12704265e-02, 1.22507103e-03,-1.31883487e-01,-3.91510390e-02,
  -5.23362681e-02, 7.09684566e-02,-7.24957138e-02, 5.16588576e-02,
  -1.35108739e-01,-1.13527752e-01,-1.67687726e-03,-6.16656244e-02,
  -1.08691084e-03,-1.14360355e-01, 2.93152705e-02, 3.14253643e-02,
  -3.10707968e-02,-4.98202741e-02, 5.09163328e-02, 4.01557051e-02,
  -1.49624482e-01,-2.96241120e-02,-9.67408568e-02, 9.55077354e-03,
  -5.07334769e-02,-2.72689816e-02,-6.94286600e-02,-6.94935098e-02,
  -3.84690426e-02, 4.38030474e-02,-5.89978620e-02,-3.50428633e-02,
   4.90814112e-02, 2.15111244e-02,-4.05936167e-02, 1.94052607e-02,
  -1.28884306e-02, 2.66263355e-02,-2.19200160e-02,-1.02662601e-01,
  -9.66209397e-02,-1.09608797e-02,-2.08078069e-03,-1.41845971e-01,
   4.34037820e-02,-1.04146861e-01, 2.66511068e-02, 5.45700304e-02,
  -7.09206390e-04,-3.90493348e-02,-7.73413479e-03,-6.74023852e-02},
 { 4.30579297e-02, 2.68276827e-03, 5.98981333e+00, 1.18847936e-01,
  -7.17930138e-01, 1.29314566e+00,-2.31068045e-01, 4.10849512e-01,
  -7.38952830e-02,-5.71310937e-01,-3.20022845e+00,-1.40593112e-01,
   2.57253069e-02,-8.80362019e-02, 9.81996632e+00,-2.10623071e-01,
  -2.55487561e+00,-3.01320821e-01, 2.48747039e+00, 2.29084182e+00,
   3.85040939e-01, 8.55745220e+00, 1.91515505e+00,-3.22670221e+00,
   2.10786033e+00, 5.34576476e-01, 1.07280123e+00,-7.06150150e+00,
  -8.36196095e-02, 6.32910579e-02, 1.07884765e-01, 2.24714637e+00,
  -1.47691444e-02,-2.62097389e-01, 3.34225558e-02, 1.30199924e-01,
   6.06701225e-02,-1.64966077e-01, 3.02025914e-01,-2.89379001e+00,
   1.90191686e-01, 2.10104764e-01, 2.19547415e+00, 1.66700888e+00,
   1.19236991e-01, 3.21456231e-02, 8.70831680e+00, 1.44414568e+00,
   8.08342755e-01, 6.78261399e-01, 4.84257650e+00,-8.85597840e-02,
   6.38144165e-02,-2.63666928e-01,-7.75818452e-02, 5.49468584e-03,
   2.58400726e+00,-5.57167387e+00,-1.70090705e-01, 5.67279291e+00,
   1.75274581e-01,-5.63281775e-01,-3.58718842e-01,-4.44510460e-01,
  -8.70290816e-01,-1.84986845e-01,-2.30413284e-02, 2.28330307e-02,
   4.11727637e-01, 1.68174356e-01, 4.54206944e+00, 2.51952261e-01,
   9.02076542e-01, 9.07489732e-02,-2.96340376e-01,-3.65808449e+01,
   1.21449856e-02, 3.16668838e-01,-2.15946198e+00, 5.08670583e-02,
  -6.33402872e+00, 3.26221824e+00,-4.62882221e-02,-1.43464148e-01,
  -2.75834650e-01,-5.02782774e+00,-4.45606232e+00, 1.68255478e-01,
   6.54462671e+00, 1.15109265e+00,-8.08260068e-02, 2.96984171e-03,
   1.84558392e+00,-1.18366992e-02,-1.25654593e-01, 2.32147217e+00,
   9.47165906e-01, 2.60745287e-01,-2.23228093e-02, 9.38541353e-01,
   4.31653082e-01,-1.66736953e-02,-1.54793441e-01,-7.10987896e-02,
   1.64572448e-01, 4.90625858e+00,-2.44781181e-01,-2.67236292e-01,
   1.28395677e+00, 7.64297009e-01, 4.54075187e-02, 2.16807038e-01,
   4.62292694e-02, 5.04988879e-02,-2.55109501e+00,-3.32454848e+00,
  -1.35466516e+00, 3.97864103e-01,-3.74195119e-03, 1.61026530e-02,
  -1.24154639e+00,-1.68260872e+00,-8.67760181e+00,-4.97377723e-01,
   4.41257507e-01,-3.10995173e+00,-8.81521821e-01,-4.97738481e-01},
 {-7.65791237e-02,-1.13966770e-01,-4.25596461e-02,-3.70933861e-02,
  -7.44471475e-02,-7.30332499e-03,-6.65459558e-02,-1.44387826e-01,
  -3.03185992e-02,-6.66185766e-02,-6.43889010e-02,-5.46155274e-02,
  -1.15634866e-01,-3.11835557e-02,-1.27478123e-01,-4.13543433e-02,
  -8.99309963e-02,-1.16144039e-01,-8.06326121e-02,-6.28584996e-02,
   6.64080307e-02,-1.31313458e-01,-4.03182432e-02,-2.55314391e-02,
   1.16067827e-02,-8.77092928e-02,-8.43615979e-02,-8.63403305e-02,
  -4.25285660e-02,-1.72749326e-01,-1.50192231e-01,-5.06887324e-02,
  -1.13434047e-01,-4.48424816e-02,-4.83205281e-02, 1.99950114e-03,
  -4.69610514e-03,-1.55430092e-02,-8.50117591e-04,-1.08530685e-01,
  -1.39931262e-01, 1.92043297e-02,-7.63225183e-02,-5.86279444e-02,
  -2.16465201e-02,-7.83098768e-03,-2.82236394e-02,-9.05549452e-02,
  -7.56251216e-02,-9.49157923e-02,-4.07065861e-02,-2.44392548e-03,
   3.46450768e-02,-3.48765738e-02,-4.26057950e-02,-1.30099813e-02,
  -4.57028300e-02,-8.21380466e-02,-9.52065215e-02,-2.16323286e-02,
  -8.75478387e-02,-1.09084425e-02,-2.39982884e-02,-1.39160408e-02,
   6.83349231e-03,-4.29906212e-02,-9.52170044e-02,-1.94327384e-02,
  -4.20852602e-02, 5.73912114e-02,-2.52097100e-03, 4.08101417e-02,
   8.85601807e-03,-9.26882476e-02,-5.75902238e-02,-7.71179497e-02,
  -3.55616920e-02, 2.98844613e-02,-1.01624355e-01,-1.20495267e-01,
  -1.24450527e-01,-1.50546385e-02,-5.25627621e-02,-1.04441181e-01,
  -7.42100477e-02, 8.73593688e-02,-1.13203125e-02,-7.14936778e-02,
  -2.65761446e-02, 5.65426573e-02,-9.65947956e-02,-9.38861631e-03,
  -5.34574687e-02,-2.22470146e-02, 8.78200494e-03,-3.41859385e-02,
  -5.48396520e-02,-1.04834549e-02,-1.28865734e-01,-7.68029466e-02,
   5.04957652e-03,-8.91286656e-02,-4.98782322e-02,-1.32518634e-01,
  -5.18369861e-02,-7.78452531e-02,-7.00042844e-02, 6.45864829e-02,
   6.82045370e-02,-1.10517135e-02,-6.49053156e-02,-1.30399048e-01,
  -9.49978754e-02,-1.41826361e-01,-5.46557158e-02,-3.07096317e-02,
  -5.78858145e-02, 1.16929278e-01,-1.43042818e-01,-7.21593052e-02,
   1.16203623e-02,-1.01611726e-01,-7.05617107e-03,-4.65405956e-02,
  -7.41456300e-02,-1.50571289e-02,-2.40632147e-02,-3.17117572e-02},
 {-5.37273381e-03, 1.43937305e-01,-8.30798566e-01, 6.45785511e-01,
   1.48533416e+00,-5.84928513e+00, 1.73260316e-01,-1.30080633e+01,
  -3.91007751e-01,-2.36471987e+00, 1.35269582e+00, 1.50260881e-01,
   2.24973112e-01,-9.52257037e-01,-1.13929585e-01,-3.23264390e-01,
  -2.88432431e+00, 1.09843099e+00,-3.22382778e-01, 8.37387979e-01,
   7.03433454e-02, 1.59060091e-01,-4.80657965e-01,-1.75542906e-01,
  -3.05852642e+01, 9.00390983e-01, 2.58801699e+00, 3.07010055e+00,
   8.73330683e-02,-1.23231970e-01, 1.03632212e+00,-3.62902395e-02,
  -9.19644475e-01,-2.42054999e-01,-7.44677067e-01, 1.97667211e-01,
  -4.01397020e-01,-3.35243940e-01,-5.01686096e+00, 2.11366558e+00,
  -2.15014434e+00, 4.56242114e-01,-3.90474415e+00,-1.95274353e-01,
  -4.39112329e+00,-8.28071952e-01, 4.16252661e+00,-3.74875426e-01,
  -1.05794489e+00, 3.68278480e+00,-2.24109125e+00,-4.48716354e+00,
  -2.30055070e+00, 4.97001112e-01,-1.64044595e+00,-4.23446782e-02,
  -8.00383282e+00, 1.69997907e+00, 1.04739630e+00,-1.07453084e+00,
  -5.14571309e-01, 3.57199550e-01, 1.76425830e-01,-3.34758162e+00,
  -1.19821978e+00, 3.83692943e-02,-2.47164983e-02,-2.05404222e-01,
   3.28799391e+00,-5.97055256e-01,-4.42760038e+00, 3.76855612e-01,
   1.13716054e+00,-4.06749368e-01,-3.60000992e+00, 4.25242758e+00,
  -3.74117680e-02, 6.15054369e-01, 3.60615563e+00, 8.91712829e-02,
  -2.31008720e+01, 2.94798255e+00, 7.27676928e-01, 6.88615084e-01,
   1.20183662e-01, 3.75909257e+00,-1.44278377e-01,-7.31221819e+00,
   4.95471859e+00,-2.91330385e+00, 1.04594731e+00,-4.51374471e-01,
  -4.99985600e+00, 5.61574101e-01, 9.25937146e-02, 3.80645370e+00,
  -4.12131906e-01,-1.86318648e+00, 6.38350368e-01,-2.70485640e+00,
  -1.24667799e+00, 1.61442325e-01,-2.02508524e-01, 6.65279031e-01,
  -2.87211329e-01, 9.22224903e+00, 6.57050669e-01, 2.29499340e-01,
  -9.08818066e-01, 3.11884046e+00, 6.78285480e-01,-6.91913009e-01,
  -1.71093985e-01,-7.90682882e-02, 1.96467042e+00,-2.36401558e+00,
   7.91408873e+00,-1.99009702e-01, 8.33371878e-02,-5.06264746e-01,
   1.89044988e+00, 1.05906796e+00, 6.30360186e-01, 6.39811325e+00,
   2.17343748e-01,-1.92963970e+00, 1.75472453e-01,-2.25675011e+00},
 { 2.02987361e+00, 8.29188824e+00, 4.74668831e-01, 1.81007755e+00,
   2.30128074e+00, 1.30150294e+00, 9.21988678e+00,-1.96691249e-02,
   3.70739102e+00, 1.67585984e-01,-1.34294856e+00,-2.18364453e+00,
  -9.63261127e-01,-2.60570598e+00, 1.09354329e+00, 9.14648473e-01,
  -5.85849404e-01,-1.19101171e+01,-5.30801392e+00,-1.11207175e+00,
  -4.33379602e+00, 3.66712093e+00, 1.22228217e+00, 2.70215899e-01,
   8.19885075e-01, 1.96729779e+00, 1.35324240e-01,-3.24112201e+00,
  -5.44995010e-01,-9.15519047e+00, 6.95551753e-01, 9.08662677e-01,
   1.61580813e+00,-1.65115299e+01,-7.22125113e-01, 1.68788433e+00,
  -4.68734789e+00, 1.52568865e+00,-4.37890816e+00,-9.58647192e-01,
   3.40343547e+00, 4.15425968e+00, 1.64241278e+00,-1.52343011e+00,
  -7.86828816e-01,-5.90763512e+01, 5.52489936e-01,-1.07474744e+00,
  -4.38238680e-02, 2.23291636e-01, 2.18461204e+00, 5.76957655e+00,
   5.15617085e+00,-4.22004312e-02,-4.59913686e-02,-5.28316879e+00,
   2.16180372e+00,-1.10511088e+00,-2.92336941e+00, 1.55247295e+00,
  -1.80330486e+01, 5.13835812e+00, 5.73138380e+00, 8.99083197e-01,
  -4.51369572e+00, 2.56501365e+00,-1.65271676e+00, 8.27889502e-01,
  -4.40785617e-01, 3.39219713e+00, 9.29684162e+00,-9.67440784e-01,
  -1.74807727e+00,-5.21703839e-01, 2.10140154e-01,-1.97670090e+00,
  -1.06240284e+00, 2.02886915e+00,-1.72121251e+00,-1.61474204e+00,
  -1.38879931e+00, 4.00317580e-01,-4.21930462e-01,-2.62733769e+00,
  -3.44715476e+00,-1.81145322e+00, 4.53122407e-01,-1.02254319e+00,
  -4.31572020e-01, 2.30005905e-01, 1.20208015e+01,-4.80382234e-01,
   2.20273232e+00,-5.81851363e-01, 7.53944516e-02,-1.65320203e-01,
   5.52178717e+00, 1.69455588e+00,-1.03081303e+01,-3.18995991e+01,
  -3.02155781e+00,-2.30294657e+00, 1.89972842e+00, 3.02533579e+00,
  -7.04601454e-03, 3.32826352e+00,-2.53638577e+00,-3.59950483e-01,
   7.52485037e+00,-3.92493582e+00, 5.00918150e-01,-2.99224615e-01,
  -2.29159951e+00,-2.20730394e-01,-1.50992155e+00,-2.75788307e-01,
  -1.44139585e+01,-2.68252659e+01,-5.86608839e+00, 6.47700354e-02,
  -1.04035795e+00,-1.10737658e+00,-7.58328533e+00, 5.69534540e-01,
   1.75538933e+00,-1.92903006e+00, 3.89123917e+00, 9.03011486e-02},
 {-1.53541744e+00,-8.67895365e-01, 3.16394746e-01,-3.65921259e+00,
   4.50824857e-01,-7.60541439e-01, 3.80185080e+00,-1.31529779e+01,
   6.31099641e-01, 3.86548415e-02,-1.30448472e+00,-3.24700308e+00,
   3.50733846e-01, 8.45367730e-01, 2.21865439e+00,-2.01005086e-01,
  -8.66782010e-01,-1.38297176e+00,-3.50284481e+00,-1.48974967e+00,
  -6.53415728e+00, 4.22632265e+00, 1.30861521e+00, 3.14133316e-01,
   7.42245615e-01,-5.89610040e-02, 4.47677046e-01,-3.64786816e+00,
   2.47363329e+00, 5.19259926e-03, 9.64438260e-01, 1.23933923e+00,
  -9.21861410e-01,-6.29868793e+00,-1.53120327e+01,-6.66839695e+00,
  -8.51928806e+00, 3.73821950e+00,-1.53453255e+01,-1.14417017e+00,
   1.73935443e-01, 2.40982556e+00, 1.87197340e+00,-1.17796993e+00,
  -9.80160832e-01,-4.43239123e-01, 1.05185378e+00,-1.16168106e+00,
   7.96935558e-02, 2.00078934e-01, 3.04032540e+00,-8.31439590e+00,
  -8.16480443e-02,-6.34237480e+00,-4.43877983e+01,-2.42058262e-01,
   2.58368945e+00,-2.17073870e+00, 4.12912458e-01, 1.94564295e+00,
  -2.23929095e+00,-7.91781723e-01, 3.83448601e+00, 8.82320940e-01,
  -9.36930275e+00,-1.20541260e-01,-1.26172590e+00, 2.40565777e+00,
  -3.09941977e-01, 1.33713598e+01, 7.65283442e+00, 1.02963038e-01,
   1.60432827e+00,-2.17498350e+00, 9.30242062e-01,-2.63300204e+00,
  -3.90044165e+00, 1.66896558e+00,-2.21246672e+00, 3.44971323e+00,
  -1.71099591e+00,-4.09094661e-01,-1.30809045e+00, 9.02204895e+00,
   2.73383808e+00,-2.30080771e+00,-2.16617331e-01,-2.15325713e-01,
  -6.44211173e-01, 3.60563308e-01,-6.19933748e+00, 3.44689250e+00,
   2.53828502e+00, 4.26316214e+00, 2.35091591e+00, 2.64970779e-01,
  -7.82035875e+00,-5.74196911e+00, 2.82608724e+00,-1.07346764e+01,
  -1.37152743e+00,-7.29048109e+00,-4.51412821e+00,-1.85308683e+00,
   9.05264854e+00, 3.21145606e+00,-2.70855904e-01,-1.74660981e+00,
   6.01569939e+00,-3.97191191e+00,-6.24702632e-01, 2.55331486e-01,
   2.37372760e-02, 2.19040084e+00,-1.59448636e+00,-1.39704093e-01,
   2.01637483e+00, 1.59706151e+00, 4.02458477e+00, 1.31343150e+00,
  -1.36706734e+00,-1.32925332e+00,-5.90943050e+00,-1.90916151e-01,
   6.98412359e-01,-2.49436712e+00,-5.14567900e+00,-1.03488296e-01},
 {-3.51664877e+00, 1.11438399e-02,-1.58597791e+00, 1.15726389e-01,
   1.96910036e+00,-2.18951535e+00,-1.39006400e+00, 5.44860411e+00,
   9.15000916e-01,-4.30048847e+00, 2.05377007e+00,-2.70182729e+00,
  -1.04532280e+01,-1.10603857e+00, 1.79573762e+00,-2.58947992e+00,
  -1.02992105e+00, 7.07234979e-01,-2.70266552e+01,-3.04068375e+00,
  -5.27450180e+00, 1.00011215e+01,-6.43923104e-01, 3.71607542e-01,
  -4.49622303e-01,-1.40040112e+01, 1.93771732e+00, 1.07189167e+00,
   2.30189657e+00,-2.64070845e+00,-5.50647438e-01, 2.04043436e+00,
  -3.91558909e+00, 6.36183500e-01, 4.18644238e+00,-7.05782318e+00,
   6.18321037e+00,-5.07167959e+00, 2.37479973e+00,-1.64699960e+00,
   6.04877186e+00,-1.80564153e+00, 2.68883491e+00,-2.08918324e+01,
  -3.65179509e-01, 6.48140907e-01, 3.13992023e+00, 4.59631300e+00,
  -2.50110888e+00, 4.38064545e-01, 2.00308770e-01, 5.90039778e+00,
   5.40517449e-01, 1.15982218e+01, 2.40143633e+00,-7.17302024e-01,
   3.33346725e-01, 5.38378572e+00, 5.98371601e+00, 1.87303817e+00,
   2.03870106e+00, 1.91704988e+00, 3.76765490e+00, 4.20389414e+00,
   7.38482618e+00,-1.54488778e+00, 8.15406442e-01, 8.79582167e-01,
  -2.51537275e+00,-4.85164356e+00,-6.35851741e-01, 9.14837539e-01,
   9.05659199e+00,-4.96289682e+00,-2.78703403e+00,-1.53116953e+00,
   1.04476845e+00, 2.46508181e-01,-4.74825525e+00, 1.44431603e+00,
  -1.29768682e+00, 6.28359032e+00, 7.34632444e+00,-1.13207603e+00,
  -2.09200382e+00,-4.04469299e+00, 8.20602179e-01,-2.80124474e+00,
   6.06845665e+00, 1.49447191e+00,-4.67360830e+00,-2.77091122e+00,
  -2.39059553e-02, 1.09414780e+00,-1.00563502e+00, 9.87983644e-01,
  -5.39895678e+00, 1.60308450e-01,-7.55708039e-01,-2.04960728e+00,
   5.02477407e-01, 3.65801692e+00,-1.27638078e+00,-5.73605824e+00,
   1.21180069e+00,-5.33312702e+00,-5.34746504e+00,-9.78169382e-01,
   5.07352114e+00, 6.10302973e+00,-3.21532518e-01, 6.55104399e+00,
   1.14057334e-02,-1.09320724e+00, 6.08794570e-01,-1.41644323e+00,
   2.23801994e+00, 6.60102224e+00, 3.44979078e-01,-8.15430260e+00,
  -3.09558272e+00,-4.67324220e-02,-5.26043129e+00,-1.61929452e+00,
  -2.09369612e+00,-7.42540932e+00,-5.18762779e+00, 1.04713106e+00},
 { 1.01812696e+00,-1.86876225e+00,-2.11224973e-01, 1.71957934e+00,
  -3.36524987e+00, 1.44163597e+00,-1.91988361e+00, 1.95789874e+00,
   1.69057477e+00,-2.09185600e+00, 1.57153201e+00, 3.42937756e+00,
  -8.99457932e-01,-3.90972590e+00, 3.42877460e+00, 2.02738714e+00,
  -5.15042841e-01, 3.61501694e-01,-7.00372648e+00,-4.52496529e+00,
  -3.77439070e+00, 2.82122135e+00, 1.47241086e-01, 1.78589094e+00,
   1.96296453e-01,-1.05524864e+01, 8.89121890e-01,-2.23182034e+00,
   7.80219984e+00, 1.70263559e-01, 8.48131561e+00, 1.41913331e+00,
  -2.99568772e+00,-3.02220249e+00, 3.98020625e+00, 8.23307097e-01,
  -1.66577187e+01,-3.93718153e-01, 5.52162266e+00,-2.62979913e+00,
   1.07550943e+00, 7.19015718e-01, 2.23768544e+00,-1.91539168e-01,
  -7.13542998e-01,-6.17996633e-01, 7.66983509e-01, 6.21576786e+00,
  -9.19804394e-01, 1.15524483e+00, 1.76483607e+00,-1.03872001e+00,
  -3.33449662e-01, 2.23814726e+00,-3.39904308e+00,-2.94761276e+00,
   2.00060153e+00,-1.12367022e+00, 5.54653025e+00, 3.39042020e+00,
  -5.46460247e+00,-4.63453627e+00,-3.55777621e+00,-2.39803776e-01,
  -1.12393272e+00, 1.65080905e+00, 3.04454148e-01,-8.47972095e-01,
   1.03623652e+00, 1.59520447e+00,-6.51407182e-01,-9.22551215e-01,
  -6.35714102e+00,-5.94697523e+00,-1.20453358e+00,-4.58500326e-01,
  -1.74959078e-01, 1.14509165e+00,-2.70281124e+00,-2.48626804e+00,
  -2.27652764e+00,-8.73075724e-02, 7.98095655e+00,-1.73917890e+00,
  -4.57502794e+00,-3.85180950e+00, 1.79356420e+00,-5.06820977e-01,
   2.37662578e+00, 6.82805002e-01,-2.07836914e+00,-7.57906258e-01,
   1.41576362e+00, 2.08078241e+00,-2.07496452e+00, 6.10408604e-01,
  -1.38841963e+00, 5.78483880e-01,-1.08795595e+00,-9.19694805e+00,
  -2.04137540e+00,-4.67092991e+00, 3.45174885e+00, 5.00098944e+00,
   9.37668502e-01, 8.51535320e-01, 8.87762666e-01,-2.94188643e+00,
   3.14649272e+00, 1.18019372e-01, 4.43381160e-01,-4.24903536e+00,
  -1.79130927e-01, 8.67065847e-01,-1.48258030e-01,-3.03518248e+00,
   1.45459640e+00,-8.57273388e+00,-8.12771261e-01,-3.20786643e+00,
  -1.38830018e+00,-6.09844387e-01,-9.80920568e-02,-1.77278137e+00,
   4.97030318e-02,-3.22961831e+00, 1.39141095e+00,-1.19061261e-01},
 { 3.33428770e-01, 9.37836394e-02,-2.65711060e+01, 8.94013941e-02,
  -2.75484651e-01,-1.50076437e+00, 2.87228841e-02, 3.08539653e+00,
  -7.01107131e-03, 1.89932990e+00,-6.26554680e+00,-7.06878662e-01,
   9.01236758e-02,-5.83442450e+00,-7.53463030e+00,-7.72633457e+00,
  -1.58382857e+00,-7.17412913e-03,-6.10115099e+00, 3.12419271e+00,
   1.79231620e+00, 4.44594574e+00, 3.18048358e+00, 2.64944148e+00,
   3.61653161e+00,-3.14362550e+00,-7.32004493e-02,-4.43220329e+00,
   1.68042537e-02, 1.36852369e-01, 5.45600772e-01, 1.68710463e-02,
  -6.83890045e-01, 5.30525520e-02, 2.39636883e-01,-2.16713950e-01,
   1.57849923e-01,-2.56038487e-01,-1.27229571e+00,-4.32593632e+00,
  -2.89395720e-01, 1.71079040e-01, 6.04090214e+00,-2.29496646e+00,
  -8.93123269e-01, 7.83163831e-02,-4.83871847e-02, 8.56242239e-01,
   2.12391600e-01, 6.34013891e-01, 7.09490919e+00,-2.33970475e+00,
   8.28948796e-01,-1.13421285e+00,-1.51029816e-02, 3.81427884e-01,
   5.33933401e+00,-2.19869137e+00,-7.19343662e-01,-2.58020473e+00,
  -1.17482848e-01,-5.48609734e-01,-2.78588462e+00, 1.07222211e+00,
   7.53151774e-01, 1.42981648e-01, 5.63778579e-02, 8.68165046e-02,
  -1.57851911e+00, 1.37675941e-01, 2.82972127e-01, 5.23116849e-02,
   2.47932583e-01, 1.03082201e-02,-1.36932397e+00,-5.23520231e+00,
  -6.20808788e-02, 6.83405638e-01,-2.06776333e+00, 1.06073044e-01,
   9.76742554e+00, 1.23057070e+01, 3.22999239e-01, 4.50647652e-01,
  -3.99259597e-01,-9.02393341e+00, 2.11655831e+00, 8.74987245e-01,
   1.10215816e+01, 2.58455896e+00, 3.93853128e-01, 3.57488692e-02,
   2.21681547e+00, 2.05089539e-01,-7.53165722e-01,-1.04947507e+00,
  -3.97464752e+00, 1.02828979e+00, 1.03562497e-01, 5.72335958e-01,
   2.68120855e-01,-8.96380723e-01, 4.05802846e-01,-3.15967321e-01,
   3.45137149e-01, 2.83748555e+00,-1.83292449e+00,-3.37671304e+00,
  -3.84929085e+00,-6.81631804e+00, 2.64326721e-01,-7.79704452e-01,
  -2.31600851e-02, 7.63414502e-02,-4.58097410e+00,-4.16415453e+00,
   6.96669674e+00,-5.91643631e-01, 1.68039784e-01,-2.55663812e-01,
  -1.46815467e+00,-3.59151888e+00,-1.84610882e+01,-3.40234280e+00,
  -2.16890007e-01,-6.74305010e+00, 1.94602454e+00,-1.59343779e+00},
 {-1.00674406e-01, 1.41224611e+00,-6.62859774e+00, 1.51736185e-01,
  -1.16449714e+00,-7.57057220e-02, 1.15193546e+00,-2.30747744e-01,
   1.03729665e+00,-4.84809208e+00,-4.28131247e+00,-2.01156116e+00,
   2.06328988e+00,-1.56795681e+00,-8.35712147e+00, 5.09810829e+00,
  -2.53717947e+00,-2.75959063e+00,-3.26114655e+00, 1.16419339e+00,
   3.40139532e+00, 7.72572279e+00,-1.25079632e+00, 1.17876208e+00,
  -3.83177719e+01, 6.63948059e+00, 9.70378971e+00, 3.78252864e+00,
  -4.60957050e+00, 1.81706771e-01, 2.47901559e+00, 2.06101990e+00,
   5.04102111e-01, 6.16255343e-01,-1.82209933e+00,-2.41905189e+00,
   2.87237096e+00, 2.72225213e+00,-4.40832281e+00, 4.17087525e-02,
  -2.76937783e-01, 3.37918073e-01,-2.85904074e+00,-2.48171568e+00,
   1.80160952e+00,-3.43936348e+00, 3.19157696e+00, 6.02315855e+00,
  -5.54906607e+00, 1.53906555e+01,-1.25322533e+00,-5.00314379e+00,
  -8.93363893e-01, 2.45711637e+00, 6.25716627e-01, 3.91535759e+00,
  -1.47561669e+00, 9.20643330e+00, 2.77887017e-01, 2.57256150e+00,
   2.45883083e+00,-2.65868241e-03,-3.78308845e+00,-2.07119656e+01,
  -1.76113820e+00,-2.38044500e-01,-1.66235909e-01, 5.20240211e+00,
  -1.53126919e+00, 1.34174094e-01, 2.97261810e+00,-8.61418322e-02,
   2.70310068e+00,-2.48067284e+00,-3.15337992e+00,-3.56390309e+00,
  -1.59957361e+00, 1.09186351e+00, 1.79787385e+00, 1.22581720e-01,
  -1.00993748e+01, 3.22753000e+00, 2.68066734e-01, 9.22829926e-01,
   1.02776527e+00, 1.41259861e+00,-9.18014646e-01, 3.79608417e+00,
  -1.06037426e+00,-5.38435459e+00, 4.00317717e+00,-2.31643662e-01,
  -6.87382412e+00, 1.17001377e-01,-3.90715361e+00, 7.36126482e-01,
   7.82234013e-01, 8.18097353e-01, 2.32924819e+00, 1.05248320e+00,
  -2.22203040e+00, 1.40537250e+00, 1.40353155e+00, 7.78622273e-03,
   3.87780285e+00, 1.32432246e+00,-2.09348416e+00,-4.05783463e+00,
  -9.34902206e-02, 7.45526123e+00, 5.49246013e-01, 1.92578077e+00,
   4.76880848e-01, 5.80256402e-01, 1.06705599e+01,-5.21948147e+00,
   4.38283491e+00, 2.81202579e+00,-1.75170541e+00,-4.67998075e+00,
   2.62078786e+00, 5.66512680e+00,-4.79344428e-01,-4.94086599e+00,
   3.15691996e+00,-1.39688683e+00, 6.76037908e-01,-7.79164600e+00},
 {-6.86474323e-01,-2.99178928e-01, 1.07343328e+00, 3.28687263e+00,
  -6.18881559e+00, 2.25879669e+00, 2.90066004e+00,-3.08789778e+00,
  -5.07116318e+00, 1.24247730e+00,-8.57629001e-01, 1.23488724e+00,
  -1.46376133e+00, 1.24418056e+00, 3.41103697e+00, 7.00931501e+00,
   2.94483483e-01,-4.89854813e+00, 2.54450774e+00,-4.87563163e-01,
  -6.15678835e+00, 3.40068245e+00, 7.53487349e-01, 3.00397545e-01,
   2.42046976e+00, 4.00553107e-01,-9.07075346e-01,-7.74345779e+00,
  -2.95621490e+00, 2.46362686e+00, 1.44866538e+00, 9.45526183e-01,
   2.37721935e-01,-1.27833024e-01,-1.09910908e+01,-7.30439901e-01,
  -8.31545144e-02, 5.71944296e-01, 7.40527809e-01,-2.29718614e+00,
  -1.26576614e+01,-4.65455723e+00, 3.49379802e+00, 1.77858528e-02,
   1.71651438e-01,-2.47241664e+00,-1.01469588e+00,-1.29308629e+00,
   2.03987584e-01,-6.40938759e-01, 1.54751527e+00, 2.76012516e+00,
  -5.74556398e+00,-4.11182117e+00,-4.78042078e+00, 1.47341776e+00,
   8.10555518e-01,-1.98601210e+00, 3.16371322e+00,-6.32685483e-01,
  -3.43642974e+00, 1.48378909e+00,-1.76699257e+00, 3.78989339e+00,
   9.02047825e+00,-5.50788736e+00,-3.31738472e+00,-1.78738773e+00,
  -9.59618270e-01, 7.09416342e+00, 1.03475275e+01,-4.60332364e-01,
  -3.14901042e+00, 3.05368590e+00, 1.84209144e+00,-1.15926456e+00,
  -2.26868725e+00, 5.82668185e-01,-2.73723483e+00, 6.11762047e-01,
   2.46230459e+00, 3.00609708e-01, 3.43723130e+00, 1.41237639e-02,
   1.91264284e+00,-2.61581373e+00,-2.56475154e-02,-1.08340430e+00,
  -5.81601560e-01, 1.53520441e+00,-5.96117210e+00,-3.91084515e-02,
   5.91429090e+00,-7.85735473e-02, 9.94990730e+00,-5.04066467e-01,
  -3.58426952e+00, 2.43440151e+00, 3.43808651e+00, 9.17060018e-01,
  -1.84630048e+00,-6.18121672e+00,-8.87869298e-01, 5.37732553e+00,
   1.31399131e+00, 6.44396544e+00,-1.72264826e+00, 1.75436342e+00,
   1.19685459e+00,-4.29926443e+00, 5.77110195e+00,-2.01881342e-02,
  -1.14701092e+00, 2.12852526e+00,-1.74754620e+00, 4.01058048e-01,
   2.46026587e+00,-2.49643517e+00, 3.37775373e+00, 1.31229496e+00,
  -1.32927048e+00,-2.66364574e+00,-1.02745590e+01, 4.63003486e-01,
   3.30618739e-01,-1.28735065e+00, 1.52235234e+00, 9.41703558e-01},
 { 5.18863089e-02,-2.80214055e-03,-5.15132472e-02, 6.59531504e-02,
   4.70797643e-02,-1.06617734e-01,-1.12133674e-01,-8.75691250e-02,
  -7.74323195e-02,-1.12940148e-01, 7.46060535e-02,-2.86204778e-02,
   6.75810501e-03,-6.40678331e-02,-1.27930209e-01, 2.66643818e-02,
  -1.41060827e-02,-5.45254014e-02,-6.84455261e-02,-3.51820067e-02,
  -2.07776800e-01, 5.03553264e-02,-1.83817018e-02,-2.96491478e-02,
  -5.03557688e-03, 3.15594710e-02,-1.29996836e-01,-1.38246179e-01,
  -4.63082232e-02,-1.40366452e-02,-3.10647972e-02,-2.69109942e-03,
  -9.28229839e-03,-2.60463059e-02, 4.07825075e-02,-5.89946397e-02,
  -3.60571854e-02,-1.13326721e-01,-8.88477340e-02,-1.22166127e-01,
  -3.89048993e-03, 2.05600634e-02, 2.15869974e-02,-7.09366724e-02,
  -5.71531951e-02,-7.87119418e-02,-4.67849933e-02,-1.18682869e-01,
  -1.71039581e-01,-5.04080579e-02,-6.25061095e-02,-3.05420849e-02,
  -6.12200610e-02, 7.18932552e-03,-1.08772397e-01,-7.74402767e-02,
  -1.22201547e-01,-1.05902523e-01,-1.59256551e-02,-4.47247028e-02,
  -5.51395155e-02,-7.28375241e-02,-1.22879736e-01,-9.70962569e-02,
   7.46569410e-03,-1.38961077e-01,-9.13428888e-02, 1.16799260e-03,
  -6.89454423e-03,-8.89924541e-02,-2.27846410e-02,-3.02228145e-02,
  -5.77722564e-02,-1.41453311e-01,-6.98541403e-02,-1.31637141e-01,
  -1.13131784e-01,-7.83250257e-02,-5.80182225e-02, 4.26030438e-03,
  -4.46544997e-02,-4.59200628e-02,-5.37221581e-02, 1.02247801e-02,
  -7.85624981e-02,-8.14773440e-02,-8.43108073e-02,-1.42702371e-01,
   6.16131071e-03,-1.84148088e-01,-9.60491598e-02,-7.37144500e-02,
   3.34087946e-02,-1.00276195e-01, 1.36403702e-02, 1.61089581e-02,
  -1.65710345e-01, 1.76464245e-02,-6.08998537e-02,-1.10212207e-01,
  -1.02338776e-01, 1.06180180e-02,-1.02895893e-01,-5.92023395e-02,
  -1.28398284e-01,-1.16269067e-01,-1.30341174e-02,-7.91177228e-02,
  -8.26109946e-02,-9.55991389e-04,-1.09070085e-01,-5.93590923e-02,
  -2.33875886e-02,-1.29471540e-01,-2.79836114e-02,-1.40866280e-01,
   7.27799430e-04,-2.31196824e-02,-4.56574187e-03,-1.13086067e-01,
  -7.74431452e-02,-2.63369326e-02,-1.54842157e-02,-5.73421270e-02,
  -1.48855925e-01,-9.82111841e-02,-9.72939655e-02, 2.51242444e-02},
 {-1.12140417e+00, 2.94922233e-01, 9.11956692e+00, 9.77921426e-01,
   2.98624420e+00,-4.49184275e+00, 8.63559604e-01,-2.55179143e+00,
  -2.89121151e-01, 4.40045148e-01,-1.16998672e+01,-9.73961115e-01,
   6.69898987e-01, 1.22528338e+00, 1.33035016e+00,-4.00865412e+00,
   1.16489553e+00, 7.28265345e-01, 1.68883458e-01,-1.62714970e+00,
  -3.91624980e-02, 7.22279263e+00, 5.06340265e-01, 1.06468952e+00,
   3.51660562e+00,-2.49302411e+00,-1.79571366e+00,-4.28483534e+00,
   9.60933506e-01, 2.96621829e-01,-6.62176728e-01,-1.73466150e-02,
  -1.18206811e+00, 1.35189101e-01, 3.29790473e-01, 1.33341193e-01,
   1.12496114e+00,-1.36704075e+00,-1.10402989e+00,-1.91969430e+00,
  -1.89132166e+00, 3.18990588e-01, 1.99655986e+00,-4.72471428e+00,
  -4.34119850e-01,-6.78397417e-01, 1.20491064e+00, 3.29846740e+00,
   2.87694764e+00,-1.70771348e+00,-7.80496597e-01, 1.14155614e+00,
  -9.27480936e-01,-8.22138608e-01,-6.82038605e-01,-1.01673901e+00,
   2.69134617e+00, 1.26735497e+00, 3.06855822e+00,-3.52476978e+00,
   1.43187180e-01, 2.33433771e+00, 3.32729906e-01, 3.47435308e+00,
   2.06222415e+00, 1.23882830e+00, 7.31053203e-02,-4.78045225e-01,
  -3.72333574e+00, 2.10637808e-01,-1.29968424e+01,-5.86499199e-02,
   9.01278782e+00,-4.20121998e-01, 3.42107129e+00, 7.66258419e-01,
   5.62978685e-01, 4.67995435e-01, 2.90835047e+00,-1.90741360e-01,
   4.64339685e+00,-5.75332642e+00, 1.98793185e+00, 1.98324367e-01,
  -4.46237612e+00,-4.64479399e+00, 8.83404970e-01, 4.37663507e+00,
   1.94547188e+00, 1.88954973e+00,-4.45481628e-01, 6.89396977e-01,
   3.37864488e-01,-1.11902237e+00,-3.35770458e-01, 1.34803557e+00,
  -1.32564378e+00,-7.43497387e-02,-6.82823658e-01,-2.31314015e+00,
  -8.74748468e-01,-1.72595367e-01,-2.83758521e-01,-8.78707111e-01,
   5.01086056e-01,-3.53568244e+00, 7.27389097e-01, 4.47053939e-01,
  -6.46816492e+00, 2.38990760e+00,-6.09938502e-01, 3.79897773e-01,
   2.35142261e-01,-2.71157026e-01,-7.63906956e-01,-2.75278974e+00,
  -7.26873064e+00, 8.87243211e-01, 6.22424670e-02,-1.15857780e+00,
   3.46213073e-01,-3.81568217e+00, 1.25065145e+01,-1.56751657e+00,
  -4.56461877e-01,-7.85385668e-01, 2.43350410e+00, 3.17738605e+00},
 { 5.47982454e-01, 4.36264575e-01,-7.45309144e-02, 1.32331610e+00,
   4.03854132e-01,-2.36646831e-01,-1.03941119e+00,-2.13193059e+00,
  -6.99295402e-02, 1.15762763e-01, 6.66620508e-02, 1.14706181e-01,
   2.51020598e+00, 9.94022191e-03, 2.20293000e-01, 5.41814417e-02,
  -2.67510749e-02, 8.82082283e-02, 5.13930678e-01, 4.58205044e-02,
   5.48082781e+00, 9.97979417e-02, 3.66881937e-02,-1.26248486e-02,
   7.47762807e-03, 7.76601613e-01,-6.08249567e-02, 2.29080170e-01,
   1.57378917e-03,-1.90518737e-01,-3.81632715e-01, 4.84013557e-02,
   3.39822173e-01,-2.87771076e-01,-2.65361691e+01,-1.82817325e-01,
  -2.48195791e+00, 6.73613012e-01,-3.89418080e-02,-4.33694087e-02,
   9.60761160e-02, 1.46470916e+00, 1.67160500e-02, 4.58711058e-01,
  -5.18615067e-01, 1.01024255e-01, 1.27925351e-02,-5.68421893e-02,
   3.31108421e-02,-1.19693317e-02,-2.05070376e-02, 1.50590986e-01,
  -1.83807947e-02, 2.59476900e-01,-2.51342010e+01, 6.40877634e-02,
   8.24900717e-03,-8.44673514e-02, 4.13320959e-02,-7.10218474e-02,
  -5.77023439e-02, 8.12746435e-02, 5.24166059e+00, 5.74043430e-02,
  -2.64537126e-01, 1.37868091e-01,-4.30456638e+00,-1.25801787e-01,
   4.45741862e-02, 7.61086273e+00,-3.40937227e-01,-2.92218059e-01,
  -3.07066981e-02,-6.20316453e-02,-2.62841463e-01,-3.41393538e-02,
   1.63355100e+00, 3.15426207e+00,-3.71235088e-02,-4.34583485e-01,
   3.29730451e-01, 2.97035784e-01, 2.51432173e-02,-3.73350382e+00,
  -2.60086715e-01, 1.37604699e-01, 3.34679559e-02,-3.08480319e-02,
   6.26333803e-02, 7.87520409e-02, 1.40510535e+00,-4.59515117e-02,
   5.49926683e-02,-1.67241240e+00,-5.25933495e+01,-4.18918766e-02,
   2.21159959e+00,-2.42069051e-01,-1.03365278e+00, 1.96635485e-01,
  -1.59038439e-01,-6.53216124e+00, 2.33101293e-01,-2.64888263e+00,
   2.97709656e+00,-3.73569906e-01,-1.38986818e-02,-5.49193099e-02,
  -6.80345297e-01,-9.55973268e-02,-2.94814992e+00,-2.26141304e-01,
  -1.78447521e+00,-1.26507628e+00, 4.15304787e-02,-6.01825723e-03,
  -1.50839722e+00,-1.32777408e-01,-4.47961211e-01, 6.79379106e-02,
  -8.62604193e-03, 2.02660486e-02, 1.61043093e-01,-2.48907998e-01,
  -4.56576347e-01,-9.07141194e-02, 4.13626003e+00, 1.23891449e-02},
 { 2.75224853e+00, 8.95846725e-01, 3.10096407e+00, 5.97219825e-01,
  -9.40321350e+00,-3.91149330e+00, 1.35274363e+00,-7.22539246e-01,
   3.23877382e+00, 2.94705892e+00, 1.63647485e+00,-1.46721911e+00,
  -8.12715292e-01,-6.51630282e-01, 2.92770219e+00,-8.27693164e-01,
  -1.51786208e+00,-1.26303220e+00, 4.96767616e+00, 2.67191076e+00,
  -4.55578899e+00, 3.01874352e+00, 1.98714542e+00,-2.65504569e-01,
   1.93125117e+00,-1.40285254e-01, 1.93909717e+00,-1.13035860e+01,
  -1.35698378e+00,-4.06104267e-01, 2.40122819e+00, 4.10244894e+00,
   1.25145841e+00, 2.61706173e-01,-3.17998719e+00,-2.15705895e+00,
   7.80765951e-01, 2.85765111e-01,-7.02390224e-02,-3.04398942e+00,
   2.88625741e+00, 1.41974986e-01, 1.71596324e+00, 6.41520739e-01,
   3.91882277e+00,-3.76582861e-01, 2.24019456e+00,-1.37296534e+00,
   1.50344551e-01, 2.18025848e-01, 4.39230156e+00,-3.50856364e-01,
   2.94663596e+00,-5.17156661e-01,-4.85820007e+00,-1.31108356e+00,
   1.07771358e+01,-4.18166351e+00,-8.86587334e+00, 5.45608401e-01,
  -2.01354289e+00, 6.84982017e-02,-2.62005591e+00, 2.72433519e+00,
  -1.09062779e+00,-3.92861629e+00,-8.24733824e-02, 2.66047597e-01,
   4.42343414e-01, 1.01756394e+00, 3.89292693e+00,-1.70059800e+00,
  -8.88457394e+00, 2.82298970e+00, 3.69505525e+00,-4.09907866e+00,
  -2.78015770e-02, 1.59976757e+00,-3.77752876e+00,-7.16894984e-01,
   4.78553295e+00,-3.97767019e+00,-3.12925673e+00,-2.28465605e+00,
   4.76448476e-01,-3.28524232e+00, 1.94272089e+00,-1.68757558e+00,
   1.97120118e+00, 1.07244205e+00, 5.36750913e-01,-1.98186386e+00,
   3.64751148e+00,-2.55422306e+00, 2.58065414e+00, 3.37795568e+00,
   4.16652298e+00, 3.14585090e+00, 4.24396664e-01, 1.02956572e+01,
   1.52263224e+00,-3.62053782e-01, 2.68976092e+00, 2.41905236e+00,
   3.14663053e+00, 6.40861607e+00,-8.03113639e-01,-1.42576289e+00,
  -8.43662202e-01,-1.20480299e+01,-5.86922944e-01, 5.29812288e+00,
  -6.18356280e-02, 9.92267847e-01,-3.74978566e+00,-4.18519402e+00,
  -3.29263854e+00, 1.83899319e+00,-8.46154749e-01, 4.89226007e+00,
  -3.73457766e+00,-2.72154975e+00,-1.01698303e+00, 3.67004466e+00,
  -5.84183693e+00,-3.21226621e+00, 2.27407789e+00, 1.42726135e+00},
 {-1.90442383e+00, 2.46523166e+00,-2.02983308e+00, 3.52926731e+00,
  -1.79686565e+01,-9.18844283e-01,-1.15009890e+01,-5.04805386e-01,
  -9.75349236e+00,-1.56573012e-01,-6.67762086e-02, 8.32184505e+00,
  -5.26637363e+00, 1.81670940e+00, 1.03223979e+00,-2.39903378e+00,
   1.01134264e+00, 9.31919992e-01, 9.73142242e+00, 5.78146636e-01,
  -6.88972664e+00,-3.55284667e+00,-1.46515214e+00,-3.63021821e-01,
  -5.06324828e-01, 3.51353347e-01,-3.14761209e+00,-1.12961137e+00,
  -3.55889410e-01, 2.23071194e+00, 2.08917856e+00,-1.23468745e+00,
  -2.08831811e+00, 1.10086079e+01, 7.02217281e-01,-2.20511943e-01,
  -1.08821118e+00, 1.87526810e+00,-1.43138146e+00, 8.57544959e-01,
  -1.97678318e+01, 2.83614564e+00,-1.41102016e+00, 4.26956367e+00,
  -7.52784759e-02,-1.42869463e+01,-8.69691074e-01, 1.93635464e+00,
   7.09962547e-01,-3.96308899e-01,-2.40475488e+00, 1.96677804e+00,
  -1.42498648e+00, 1.13313127e+00, 6.68385401e-02, 2.15550318e-01,
  -2.14752603e+00, 3.00682521e+00, 7.18142128e+00,-2.02437639e+00,
  -8.94411087e+00,-1.98946655e+00, 1.04810381e+00,-1.02161860e+00,
  -2.72718906e+00,-6.95842695e+00,-1.99044120e+00,-1.87853068e-01,
   1.22956321e-01, 1.09904127e+01,-4.88503790e+00, 1.14702082e+00,
  -6.24399137e+00, 3.64977837e-01, 2.66854763e-01, 2.39347863e+00,
  -1.07414472e+00, 1.25684190e+00, 2.19057965e+00,-4.89877224e-01,
   1.27903891e+00, 1.49260581e+00,-5.57106614e-01, 4.88174379e-01,
  -1.84333026e+00,-1.20474152e-01, 1.33696301e-02, 4.22853619e-01,
  -3.16005617e-01,-3.19194645e-01, 3.43500900e+00, 4.19123560e-01,
  -2.36848021e+00,-1.29122276e+01, 1.64435577e+00, 1.67197585e-01,
   1.05371256e+01,-2.64272404e+00,-1.28624678e+01,-5.70888853e+00,
  -1.95843160e+00,-6.57976627e+00, 1.02236199e+00,-1.37738240e+00,
   6.79226339e-01, 4.64220047e+00,-2.45981922e+01,-1.97362480e+01,
  -1.08732672e+01, 2.50426769e+00, 1.95117247e+00,-2.27066612e+00,
  -3.86533529e-01,-1.98417711e+00, 1.30450618e+00, 2.07728297e-01,
  -6.00672245e+00,-7.19592142e+00,-2.87116027e+00, 1.45460710e-01,
   1.45546865e+00, 1.00001633e+00, 2.97259235e+00,-1.25873816e+00,
   1.26215863e+00, 3.07752657e+00, 1.02693253e+01, 1.13645360e-01},
 {-1.70801032e+00, 1.67180502e+00,-4.28730679e+00,-2.48543561e-01,
  -2.26924706e+00,-3.66034555e+00, 3.96616280e-01,-2.24450493e+00,
  -2.56884837e+00,-5.65813160e+00,-4.72163486e+00,-3.81916940e-01,
   5.72257221e-01, 1.80698431e+00,-1.88454449e+00, 2.30914474e+00,
   2.91064084e-02,-1.12326586e+00, 7.24769688e+00, 3.54379034e+00,
   1.24643981e+00, 1.54689817e+01, 2.93759537e+00, 1.54936120e-01,
  -2.64272761e+00, 9.38877106e+00, 5.46783495e+00,-1.11322665e+00,
  -3.90655786e-01,-1.67987132e+00, 2.87010241e+00, 3.98504519e+00,
   6.04142547e-01,-2.40562057e+00, 5.89846261e-02, 8.27399611e-01,
  -2.32775307e+00,-1.33211446e+00,-4.01505136e+00,-5.60404873e+00,
  -2.52992845e+00, 4.45860714e-01, 1.01775217e+01,-2.14395690e+00,
   2.39152122e+00,-1.13309300e+00,-5.19613028e-01, 5.54720449e+00,
  -2.19745541e+00, 6.31397724e+00, 5.01079988e+00,-8.97479534e+00,
  -2.29079366e+00,-1.87750924e+00,-9.49908316e-01,-7.56025255e-01,
   5.39870167e+00,-5.57757568e+00,-3.31337047e+00, 4.64391136e+00,
   2.75490260e+00,-4.35662717e-02,-1.73798060e+00, 3.27952832e-01,
  -8.39813530e-01,-1.08183467e+00, 2.88409352e-01,-4.25317621e+00,
  -9.34482217e-01, 1.79556143e+00, 2.48931236e+01,-2.14737511e+00,
  -1.32467330e+00,-1.37676919e+00,-3.09882092e+00,-3.98470306e+00,
  -6.78284347e-01, 9.62361515e-01,-1.24833660e+01, 9.15194750e-01,
   2.92034721e+00, 4.80394697e+00,-4.22916794e+00, 1.61542428e+00,
  -3.58217382e+00,-7.72843182e-01,-3.51303792e+00,-8.65909195e+00,
   1.09594288e+01,-4.32415485e+00, 2.02346730e+00,-1.74979126e+00,
   2.12032461e+00, 1.51229775e+00,-1.02229357e+00,-1.06061172e+01,
  -1.38079792e-01,-1.42373443e+00,-3.75486046e-01, 1.26298928e+00,
  -4.66969699e-01, 3.84895802e-01,-6.22786105e-01, 1.44641411e+00,
   2.10431242e+00,-3.28764606e+00,-1.37062073e+00,-2.72709823e+00,
  -1.29255399e-01, 7.90927351e-01, 6.84030831e-01, 2.85314620e-01,
   2.36698613e-01,-8.36888254e-01, 9.37629223e+00,-4.57853138e-01,
   1.45369167e+01, 5.89106321e-01,-9.96835828e-01, 2.29428983e+00,
  -4.97262001e+00,-1.27903748e+01,-2.27947617e+01, 1.85593677e+00,
  -9.60928619e-01,-1.00885334e+01,-1.06470309e-01,-5.43472147e+00}};

const float b2[sz_hid_2] = {-14.648316  ,  1.9942409 , -0.09730431,-10.610457  ,-18.568193  ,
 -14.3188095 , -3.4337027 , -7.0911555 ,  7.163808  ,  6.7784414 ,
  -9.770225  , -6.91324   , -2.046397  ,-13.359018  , -6.3390813 ,
  -0.1391562 ,  2.1997042 , -0.19939627, -1.157014  ,  7.985124  ,
  -7.376231  ,-18.007664  ,-15.50276   , -4.2589307 , -7.693825  ,
 -13.854442  , -0.12889045,-17.516912  ,  8.677872  , -8.557517  ,
   5.5282693 ,  6.0724964 };

const float w3[sz_act][sz_hid_2] = {{ 1.08317111e-03, 1.23454899e-01, 6.79271445e-02, 2.00373437e-02,
   5.23739681e-02, 1.77671850e-01, 7.83911496e-02,-1.13776363e-02,
  -7.57404510e-03, 9.23123863e-03,-1.19706959e-01, 4.26269323e-03,
  -3.04392390e-02,-2.29668811e-01, 3.13214622e-02,-1.84702985e-02,
  -9.53605697e-02, 1.10490009e-01, 1.70492083e-01,-5.53786522e-03,
   1.22869564e-02, 9.40984264e-02, 1.55366883e-01,-1.29671022e-01,
   5.47417521e-01, 1.18292114e-02, 4.23294157e-02, 1.62954524e-01,
   4.19239653e-03,-1.85876355e-01,-8.67528375e-03,-4.39442515e-01},
 {-1.06477335e-01,-4.07470483e-03, 1.09478779e-01,-9.79424641e-02,
   2.33628005e-01,-1.04032666e-03,-5.95439924e-05, 9.67498422e-02,
  -6.19040802e-02,-7.61138052e-02,-6.05918758e-05,-1.08905911e-01,
  -1.30240440e-01, 2.99606770e-02, 1.75158709e-01, 3.68104456e-03,
   2.52316589e-03,-6.50684461e-02,-6.84202556e-03, 1.28378049e-01,
   7.75666386e-02, 8.58354091e-04,-7.07828393e-03, 5.67481574e-03,
   1.19005172e-02,-1.88524500e-01,-5.21356873e-02, 1.00591350e-02,
  -1.16598792e-01, 1.89363491e-02, 1.02455243e-01,-4.97119967e-03}};

const float b3[sz_act] = {-0.01910811, 0.40118703};

