const float w1[sz_hid_1][sz_obs] = {{ 1.60471630e+00, 1.52226853e+00,-1.39114010e+00, 8.38964526e-03,
  -5.84757072e-05,-4.28513885e-02, 6.33861637e+00,-4.35593352e-03,
  -6.02452550e-03},
 { 2.22261902e-03, 5.14191203e-02,-1.01073325e+00,-7.74971187e-01,
  -3.62848997e+00, 5.43890893e-01,-4.12352048e-02, 3.25829244e+00,
   1.35529816e+00},
 {-1.56622529e+00, 4.22499955e-01, 2.31013799e+00,-3.90903391e-02,
   1.67711247e-02, 2.92126089e-02,-3.32090998e+00, 1.28054112e-01,
   6.76163062e-02},
 { 1.41364598e+00,-1.41773880e+00, 2.54978776e+00, 3.54593322e-02,
  -4.34558429e-02, 4.24385853e-02,-5.61278486e+00,-1.39148980e-01,
   5.86520076e-01},
 { 1.81870151e+00, 6.84525132e-01,-2.17820144e+00,-1.60429940e-01,
  -6.77330568e-02,-2.21741304e-01, 4.93860626e+00, 1.73511971e-02,
   1.33360100e+00},
 {-2.12410831e+00,-3.03561020e+00,-8.39715123e-01,-8.36458895e-03,
  -3.71036418e-02, 2.80193593e-02, 3.17293143e+00, 9.80650354e-03,
   8.68887547e-03},
 { 7.11493846e-03, 1.27569903e-02, 8.75452042e-01, 2.80737710e+00,
  -4.35415936e+00, 7.74109587e-02,-2.52365917e-02, 5.95247793e+00,
  -5.44985980e-02},
 {-1.03422022e+00, 6.53517067e-01,-2.41581106e+00, 2.17047501e-02,
   2.76162233e-02, 5.57453744e-02, 2.90353560e+00,-1.18317688e-02,
   3.44231091e-02},
 {-3.52609716e-02, 3.57451364e-02,-3.38496000e-01, 7.51818046e-02,
   3.67833257e+00, 9.39839303e-01,-7.68111348e-02,-2.25491929e+00,
  -5.94752967e-01},
 { 5.32168662e-03, 3.18508707e-02, 3.61627316e+00,-9.33451653e-02,
  -1.73506927e+00,-2.95717746e-01,-1.31498009e-01, 3.89483905e+00,
  -3.26712966e+00},
 {-4.51303162e-02,-1.23201355e-01, 6.30224848e+00, 1.69997048e+00,
   5.27525723e-01,-6.26485646e-01, 1.08862221e-01, 2.30627155e+00,
  -1.65833735e+00},
 {-7.21247718e-02, 1.00845993e-02, 3.32686768e+01, 2.40346771e-02,
  -9.80241410e-03, 1.05282851e-01,-3.40224169e-02,-4.78982963e-02,
  -7.39908963e-02},
 {-6.02892484e-04, 1.33680890e-03, 2.01397955e-01, 1.29271424e+00,
   4.14348507e+00, 4.75040972e-01, 3.27811274e-03,-1.04907579e+01,
  -3.99907026e-03},
 {-3.32997181e-02,-3.28170657e-02, 3.30969024e+00, 2.71313930e+00,
  -3.35220098e-01, 9.14883077e-01,-3.55581976e-02,-3.18109542e-01,
   3.18121743e+00},
 {-4.60573193e-03,-3.54864895e-02,-5.54928005e-01, 4.15646404e-01,
  -6.55712187e-01, 1.19308628e-01, 7.48032033e-02,-5.47478580e+00,
   1.62735307e+00},
 { 6.40828675e-03, 3.68905663e-02, 2.18416750e-02, 1.73484862e+00,
   2.12578034e+00, 8.55940163e-01,-5.58925383e-02, 5.80280876e+00,
  -2.88679022e-02},
 { 4.58483875e-01,-2.80788898e+00,-2.37866879e+00, 4.78001088e-02,
   1.45065757e-02,-1.58930987e-01, 4.83319998e+00,-1.52439787e-03,
   5.18796360e-03},
 { 1.79648038e-03, 3.85539532e-02,-3.56931448e+00, 2.56487155e+00,
   1.46192563e+00, 2.06771865e-01,-6.44015595e-02,-4.36659622e+00,
  -2.82819200e+00},
 { 2.34278226e+00,-1.10596669e+00, 6.47556877e+00, 6.73530437e-03,
   1.51960421e-02, 2.51875278e-02,-5.33864975e+00,-4.86983694e-02,
  -8.92616995e-03},
 {-8.27674344e-02,-4.05943431e-02,-1.79572418e-01, 1.71433973e+00,
   9.81935799e-01,-3.89873242e+00, 1.12319188e-02,-1.07337999e+00,
  -2.42673135e+00},
 { 1.86597509e-03, 9.84229967e-02,-6.82141423e-01, 3.30782938e+00,
  -6.80834651e-01, 8.51893961e-01,-3.01783960e-02, 3.64610529e+00,
  -2.20032144e+00},
 { 4.43291105e-02, 1.49157280e-02, 2.83375216e+00, 3.04847598e-01,
  -1.35008311e+00, 9.51995552e-01,-5.66887595e-02,-5.35035372e+00,
  -1.82166553e+00},
 {-1.02351801e-02, 1.05039589e-02, 6.65227026e-02, 2.76382661e+00,
   1.70077848e+00,-1.53553450e+00, 5.14849322e-03, 6.93694639e+00,
   4.28132042e-02},
 { 1.61800826e+00, 2.72429991e+00, 6.62606239e-01,-8.58656690e-03,
   4.74705696e-02,-5.88714294e-02,-3.27590084e+00,-3.32081392e-02,
   2.05711015e-02},
 { 1.82058692e-01,-1.81212080e+00, 2.32494235e+00,-1.01149052e-01,
   1.16499327e-02, 2.98040658e-01, 4.54669952e+00,-5.45423478e-04,
  -2.88353786e-02},
 { 2.28452301e+00,-2.45598078e+00,-2.66706824e-01,-1.53149525e-02,
   2.25581508e-02, 1.34171456e-01, 3.43641424e+00,-5.55306077e-02,
  -7.89607782e-03},
 { 4.35387015e-01, 9.30197537e-01,-1.05233455e+00,-5.73248386e-01,
   1.10091940e-01, 2.68918663e-01, 2.83332062e+00,-3.42328936e-01,
  -1.84049022e+00},
 {-3.51743400e-03, 3.47618721e-02, 7.91666925e-01,-1.04747742e-01,
   6.43650012e-04,-1.23467274e+01,-1.46694323e-02,-2.40632668e-01,
   2.66628079e-02},
 {-5.28810024e-01,-1.80930936e+00, 1.30048966e+00, 1.00274123e-01,
   8.34401920e-02,-2.75432348e-01,-4.39354372e+00, 1.91420153e-01,
  -5.50838351e-01},
 { 6.78697824e-01, 2.65476203e+00, 1.16926706e+00,-2.50291210e-02,
  -1.62049215e-02, 1.31072611e-01,-5.51075220e+00,-3.60651389e-02,
   3.50047983e-02},
 { 1.59016442e+00, 9.53473628e-01, 6.38035178e-01, 1.36956680e+00,
   6.71807587e-01,-6.38244808e-01,-2.84705544e+00,-1.28692281e+00,
   1.65210378e+00},
 { 1.50326180e+00, 6.03207290e-01,-7.59387136e-01, 7.64431775e-01,
  -7.85934746e-01, 1.97738588e-01, 4.50816202e+00, 1.71814620e+00,
  -1.24897540e+00},
 { 1.51731530e-02, 1.73101537e-02,-4.45425940e+00,-9.14085925e-01,
  -8.61404166e-02, 9.86991882e-01,-6.33660480e-02, 3.30092311e+00,
   3.06113291e+00},
 { 2.33991051e+00, 1.33278596e+00, 2.60852933e+00,-7.83070922e-02,
   4.44852859e-02, 1.20373428e-01,-5.11402893e+00,-3.21895242e-01,
   1.51341605e+00},
 { 1.40726706e-02,-2.42050700e-02, 6.49050251e-02,-6.78462863e-01,
  -5.28960276e+00,-4.23589200e-01,-2.89470833e-02,-1.40618980e+00,
  -7.05107823e-02},
 {-3.18468958e-02,-2.90186740e-02,-2.08149552e+00, 1.15635848e+00,
   1.20063221e+00,-7.00974882e-01, 9.36722532e-02, 2.02122402e+00,
   1.70425963e+00},
 {-3.44423838e-02, 3.63715105e-02,-5.35451055e-01, 6.50543034e-01,
   1.84448361e+00, 3.51089329e-01,-4.30432223e-02,-3.18378663e+00,
   2.52011466e+00},
 { 3.56129646e+00,-2.81176400e+00,-2.94247365e+00,-7.71972351e-03,
  -2.32936088e-02,-2.92415768e-01, 7.55853367e+00, 2.80410089e-02,
  -1.02205724e-02},
 {-1.23718418e-02, 9.83505859e-04,-2.20672101e-01, 2.50513363e+00,
   3.47258091e+00, 1.54251337e+00, 2.97413729e-02,-8.40351963e+00,
   5.49393855e-02},
 {-1.58828385e-02,-1.54317645e-02, 7.65390471e-02, 1.30975366e+00,
   3.07876825e+00, 3.39937955e-01, 3.18548596e-03,-5.71335936e+00,
   1.24579206e-01},
 {-1.75149366e-02,-1.84660424e-02, 9.34396029e-01, 3.08839059e+00,
   1.60804951e+00, 1.86594844e-01, 4.53425199e-02,-7.45290470e+00,
  -6.49380218e-03},
 {-1.22661662e+00,-1.14797223e+00, 3.95886254e+00,-4.67254072e-02,
  -1.37331942e-02, 1.44731209e-01,-4.63407278e+00, 1.11879468e-01,
  -1.63936745e-02},
 { 2.36976966e-02, 2.09849384e-02, 3.47088695e+00,-2.91486716e+00,
  -1.90400064e-01,-8.77403677e-01, 5.72289713e-03,-6.48643076e-01,
   3.36698771e+00},
 {-9.35334638e-02,-1.07778810e-01,-8.90873224e-02,-2.06850815e+00,
   9.88247216e-01, 1.72433937e+00, 1.04801565e-01,-3.83823204e+00,
   1.06892228e-01},
 { 3.10014319e+00,-1.55713066e-01,-1.26218319e+00,-9.26053501e-04,
   1.95191312e-03, 5.11765778e-02, 8.08166122e+00, 2.52903495e-02,
  -1.43670654e-02},
 {-1.81021281e-02, 1.96486190e-02, 2.34740168e-01,-1.20733356e+00,
   1.48455048e+00,-1.34378040e+00, 1.50071015e-03, 3.67401767e+00,
   2.43047718e-02},
 {-1.38465643e+00, 2.72999501e+00, 1.49042857e+00, 3.02710354e-01,
  -1.10698476e-01, 1.00258991e-01,-2.77656507e+00,-4.90627587e-01,
   2.00347877e+00},
 { 2.10786271e+00, 6.73051178e-01,-8.84226322e+00,-2.07089521e-02,
  -4.20297123e-02, 7.30296448e-02, 4.67402983e+00, 9.95791256e-02,
   1.15578333e-02},
 { 1.22590465e-02,-3.33745144e-02,-2.18045235e+00, 7.70000994e-01,
   2.48193815e-01, 6.71702266e-01, 8.91673286e-03,-2.00551105e+00,
  -3.60977411e+00},
 {-1.21732876e-02,-1.26336627e-02,-1.57282218e-01,-3.20999575e+00,
   3.56120896e+00, 1.86069918e+00, 1.27045969e-02,-1.75678599e+00,
   6.81528822e-02},
 { 3.12429909e-02,-1.79382637e-02,-1.60275511e-02, 2.06953335e+00,
  -2.92817950e+00,-1.49544835e-01,-8.10900889e-03, 6.31884384e+00,
  -7.72304386e-02},
 { 4.76246551e-02, 1.57409254e-02, 1.92060053e-01,-1.38003480e+00,
   3.61584395e-01, 1.91284227e+00, 1.71331074e-02,-1.70537853e+00,
   3.37486219e+00},
 {-1.62256276e-03, 4.73767184e-02,-3.02681953e-01, 3.49113488e+00,
  -2.43280202e-01, 1.13222671e+00, 9.99534875e-02,-7.53381443e+00,
   2.16501012e-01},
 { 2.45581174e+00,-7.69454777e-01,-1.05927801e+00,-1.21574476e-02,
   1.93902906e-02, 8.61583650e-02, 6.18631124e+00, 3.94870760e-03,
   2.76322458e-02},
 { 9.77266550e-01, 1.73268747e+00,-2.58633661e+00, 3.09610385e-02,
   3.29571217e-02, 1.41162649e-01, 6.77062273e+00,-4.78656814e-02,
  -2.13951431e-02},
 { 1.80975962e+00, 1.44680405e+00,-2.22911429e+00, 2.76791491e-02,
   1.83670968e-01, 1.46486580e-01, 5.83190441e+00,-1.85032353e-01,
   4.13551420e-01},
 { 1.41513717e+00,-1.10828340e+00,-1.47295165e+00, 4.72953111e-01,
   4.27703768e-01, 5.35970807e-01, 4.04601097e+00,-2.72049755e-01,
   1.37936080e+00},
 {-1.07447216e-02,-6.21215999e-03, 3.19229394e-01, 3.80547190e+00,
  -2.22335935e+00,-1.19625342e+00,-4.01687168e-04, 7.90622616e+00,
  -7.14098737e-02},
 { 7.70711247e-03, 1.64337102e-02, 1.17920637e+00, 4.12148595e-01,
   1.22619557e+00, 1.82623968e-01, 3.67625467e-02, 5.99304962e+00,
   1.46917021e+00},
 { 3.14598870e+00,-2.82509971e+00, 1.77449036e+00, 1.40097681e-02,
  -1.25595257e-02,-1.91139624e-01, 3.71056080e-01,-8.01242515e-02,
  -1.04195392e-02},
 { 9.52728931e-03, 7.31005892e-03,-1.31962335e+00, 1.97034729e+00,
  -7.21898556e-01, 8.47652197e-01, 8.93652886e-02, 1.48022676e+00,
  -2.88992047e+00},
 { 5.96950995e-03, 2.18530260e-02,-1.64531350e-01, 2.45061636e+00,
  -1.35614276e+00, 1.16213322e+00,-2.25899927e-02,-7.25727987e+00,
   1.72761139e-02},
 { 1.07783981e-01,-3.70508581e-02,-4.09597588e+00,-3.38288879e+00,
  -5.15663661e-02,-5.13235629e-01, 7.37663135e-02, 8.10307786e-02,
  -1.97886264e+00},
 { 3.11186743e+00, 1.26458240e+00, 2.54577827e+00, 3.46500799e-02,
   2.43081134e-02, 8.74570161e-02,-8.14828968e+00,-4.91628200e-02,
   1.59655083e-02},
 { 9.02500510e-01, 1.63253868e+00, 8.21596563e-01, 9.04088199e-01,
   5.37423611e-01,-6.52165771e-01,-3.08902240e+00,-9.73364055e-01,
   1.84260547e+00},
 { 1.03035951e-02,-1.52458542e-03,-4.08463985e-01,-1.40352464e+00,
   9.85545754e-01,-3.43052506e-01,-4.08635801e-03,-2.33934450e+00,
  -1.01832058e-02},
 { 1.77471459e+00,-6.18767381e-01, 1.32198846e+00, 3.16434950e-01,
  -7.08042011e-02, 3.33666414e-01,-5.22847986e+00, 4.04175699e-01,
  -6.74593031e-01},
 { 1.65277302e+00, 3.73713911e-01,-4.85566664e+00, 3.24921831e-02,
  -3.90076712e-02,-1.32018596e-01,-3.68196964e+00, 5.58640845e-02,
   7.24060601e-03},
 { 1.51617840e-01,-1.90183640e-01, 1.00463257e+01,-2.98784710e-02,
   1.68695394e-02, 1.58273771e-01, 1.58635646e-01, 1.19148167e-02,
   1.63797066e-01},
 { 1.09310374e-01, 4.99556065e-02, 4.54958582e+00, 3.61275792e-01,
  -1.49142325e+00,-3.08156639e-01, 1.31941125e-01, 7.34961331e-01,
  -4.60483456e+00},
 { 1.94656229e+00,-1.55271566e+00, 5.64334202e+00, 2.39083562e-02,
  -3.98731008e-02, 5.71339913e-02,-4.43184042e+00,-1.27739146e-01,
   1.46808490e-01},
 { 1.31891978e+00,-3.33691573e+00,-3.68999910e+00,-1.22775085e-01,
  -6.24974258e-02,-7.35093802e-02, 4.37595797e+00,-1.53764993e-01,
  -1.62595119e-02},
 {-5.37604928e-01, 9.50888574e-01,-9.05130982e-01, 7.21143186e-02,
  -2.60564573e-02,-9.22535285e-02, 2.44807148e+00, 1.59777641e-01,
  -9.80798066e-01},
 { 1.38538206e+00, 2.16977668e+00,-9.72913802e-01,-1.29498482e+00,
  -1.32175004e+00, 1.79129764e-01,-3.18094277e+00,-8.42003465e-01,
   1.63929820e+00},
 {-2.52820994e-03, 1.04193702e-01, 4.24764013e+00, 1.64060128e+00,
   1.64678788e+00,-1.16169798e+00,-6.37898892e-02,-3.28878617e+00,
   2.95611358e+00},
 { 2.04837537e+00,-1.25136232e+00, 1.55172586e+00,-3.75766158e-02,
  -3.54626253e-02, 1.80536106e-01,-6.54953480e+00,-3.07477848e-03,
  -5.01649193e-02},
 {-2.88100503e-02,-9.51407198e-03,-6.05445472e-04,-5.38049676e-02,
  -5.51462872e-03, 7.52262259e+00,-7.94127304e-03, 4.76775914e-02,
   3.03989928e-03},
 { 2.52548791e-02, 1.92883182e-02,-7.61165768e-02, 1.96867216e+00,
   8.31620514e-01,-7.81615555e-01,-2.43191328e-02, 7.36339152e-01,
   3.60761695e-02},
 { 1.64430693e-01,-2.11034283e-01,-1.03246708e+01, 1.24196574e-01,
   6.28391132e-02, 1.03979714e-01,-1.42081395e-01,-1.23507023e-01,
  -9.01961625e-02},
 {-3.76760326e-02,-8.28994997e-03,-3.44139767e+00, 1.72924745e+00,
  -1.98616791e+00, 1.41898468e-01,-3.48757170e-02, 4.35498953e+00,
   2.36165047e+00},
 { 1.95374945e-03,-5.55769401e-03, 2.30845976e+00, 3.44583869e-01,
  -1.93394375e+00, 3.52888882e-01, 1.81752481e-02, 2.04719663e+00,
  -2.52150488e+00},
 {-3.23243216e-02, 9.45719425e-03,-2.06534719e+00, 1.22282827e+00,
   2.75362706e+00, 8.12757969e-01,-1.62383262e-02, 1.29515481e+00,
  -1.57958269e+00},
 { 8.51891041e-01,-2.89645791e+00, 1.23614192e+00, 9.66068078e-03,
   1.92798376e-02,-1.90483760e-02,-1.11062396e+00,-3.33816651e-03,
   2.25600936e-02},
 {-3.85774858e-02, 9.81117636e-02, 6.07844353e-01,-1.91441691e+00,
  -3.07435632e+00,-2.27486706e+00,-3.11601888e-02, 2.33615950e-01,
   2.51481605e+00},
 { 3.78096581e+00, 7.50181615e-01, 1.48870230e-01, 9.86138824e-03,
  -7.58066634e-03,-1.09048918e-01,-6.94854593e+00,-4.73645516e-02,
   1.51506746e-02},
 { 1.61059778e-02, 1.97449215e-02, 1.31570542e+00,-5.87974256e-03,
   3.51629704e-01,-1.17309026e-01,-1.35904085e-02, 1.68296158e+00,
   2.29401350e+00},
 {-1.42443812e+00,-1.78680837e+00, 1.17936492e+00, 1.05184605e-02,
   3.91851505e-03,-1.71830684e-01,-7.25899041e-01,-1.06459454e-01,
   8.46364349e-03},
 { 2.67533213e-02,-1.05037335e-02,-8.95154402e-02, 6.11170411e-01,
  -2.47187471e+00, 3.49178672e-01,-2.18695682e-03,-6.76051521e+00,
  -7.26146065e-03},
 { 2.99119902e+00,-1.10595524e-01, 2.33957767e+00, 1.14451563e-02,
   2.59086788e-02, 1.05897747e-02,-7.51386261e+00,-6.82394672e-03,
   3.61006614e-03},
 { 1.57109778e-02,-1.85428164e-03,-3.97135496e+00,-2.31128764e+00,
  -1.37594318e+00, 6.54076874e-01,-4.77796607e-02,-2.92822480e+00,
   2.92873502e+00},
 {-8.46353471e-02,-5.00694923e-02, 3.45001841e+00, 2.20092431e-01,
   1.62388682e+00, 1.06710625e+00, 1.18699029e-01,-1.98321605e+00,
   3.10941172e+00},
 {-6.22401893e-01,-2.21313190e+00,-1.49948192e+00, 1.19565046e+00,
   1.55866340e-01,-5.00105500e-01, 3.22004795e+00, 6.70390353e-02,
  -1.49787116e+00},
 {-1.84188690e-02,-2.98990635e-05,-3.28033775e-01, 3.46452498e+00,
  -1.06950808e+00, 1.03001046e+00,-2.71483380e-02, 5.34020853e+00,
  -3.72753739e-02},
 {-4.72496524e-02,-2.14640880e+00,-3.13109541e+00, 2.74133086e-01,
   8.52367938e-01,-1.65192246e-01, 3.45584941e+00,-1.27721643e+00,
  -1.13174760e+00},
 { 2.24276590e+00, 3.22834277e+00, 5.87233353e+00, 2.91639697e-02,
   4.71578017e-02, 9.19075310e-02,-5.07453156e+00,-4.35670838e-02,
   6.67983666e-03},
 { 9.48285908e-02, 1.08238295e-01,-4.18351603e+00, 2.09230900e+00,
  -1.05765474e+00,-5.53201139e-01,-1.79821253e-02, 3.55559826e+00,
   3.49445081e+00},
 {-4.76053124e-03,-4.02439013e-03, 7.52724886e+00, 2.47974345e-03,
  -1.65717900e-02, 1.45787403e-01, 1.48965819e-02,-1.14183631e-02,
  -3.31970267e-02},
 { 6.85776845e-02,-1.27388984e-01,-1.96938181e+00, 1.85327446e+00,
   3.40351605e+00,-4.25523758e-01, 1.35789454e-01,-4.79478359e+00,
  -2.50258112e+00},
 {-1.33561241e-02, 3.74536109e+00, 1.44029891e+00, 2.27794766e-01,
  -1.75777957e-01, 4.37286496e-02,-2.92626715e+00, 3.01447809e-01,
  -1.92179096e+00},
 {-7.56544806e-03,-1.37626929e-02, 4.02296692e-01,-1.45447350e+00,
  -1.48215604e+00,-1.98022985e+00, 4.50810455e-02, 2.75163293e+00,
  -8.37460607e-02},
 { 1.28934014e+00, 3.35336924e+00, 2.52311563e+00,-3.46559584e-02,
  -4.88812476e-03,-8.06404874e-02,-8.50528049e+00, 2.85579097e-02,
   2.42626164e-02},
 {-5.65542579e-01, 9.63318169e-01,-1.41648877e+00,-8.01380165e-03,
  -2.87584402e-02, 1.87525433e-02, 2.96380997e+00,-6.64515793e-02,
   1.20265949e+00},
 { 1.11793244e+00,-1.00510788e+00,-1.96702409e+00,-4.62707132e-01,
  -1.42874324e+00, 1.10303059e-01, 3.43001032e+00, 2.03622198e+00,
  -2.24087811e+00},
 {-9.19537432e-03, 8.00864026e-03, 3.63753647e-01, 3.17519808e+00,
  -1.98444438e+00,-1.06131542e+00,-4.68120584e-03, 9.07342815e+00,
   6.72691874e-03},
 {-1.01874555e-02, 1.06910430e-02,-9.47836459e-01,-1.46508837e+00,
  -2.76209831e-01, 1.55539677e-01,-2.45089317e-03, 5.08175492e-01,
  -5.36958724e-02},
 { 1.31645026e-02,-6.58446625e-02, 2.27860975e+00, 1.55989468e+00,
   1.04596865e+00,-3.96323763e-02,-6.73154369e-02,-1.80665755e+00,
  -2.80180860e+00},
 { 2.04657865e+00, 1.53097129e+00, 1.51010430e+00,-1.41069256e-02,
   1.40937874e-02, 1.47147581e-01,-5.87598026e-01, 8.69433284e-02,
  -1.47555936e-02},
 {-1.21116090e+00,-9.50331688e-01,-2.81040490e-01,-3.12273782e-02,
   7.25713894e-02, 7.55528733e-02, 1.51144767e+00,-1.19651876e-01,
  -3.88309509e-02},
 { 3.31036878e+00,-1.32640576e+00, 9.38432962e-02,-1.95738226e-02,
   3.17947790e-02, 4.75302562e-02,-2.98840237e+00, 1.09319665e-01,
   4.13782336e-02},
 {-1.13320196e+00, 1.35789645e+00, 1.08066940e+00, 1.38208374e-01,
   5.72564423e-01,-1.69921190e-01,-2.65272045e+00, 1.33010447e-01,
  -2.02412581e+00},
 { 1.86860096e+00, 9.81527746e-01, 1.40746081e+00, 7.67291188e-02,
   1.17183059e-01,-2.25777522e-01,-4.54550266e+00, 7.48163313e-02,
  -1.40117419e+00},
 { 7.76916683e-01,-2.09263802e+00,-3.72991562e+00,-4.78936464e-01,
   3.29010673e-02,-3.91611665e-01, 2.91616201e+00,-4.07736331e-01,
   1.84780955e+00},
 { 1.40223718e+00,-1.70110524e+00, 2.35062337e+00,-4.08621691e-02,
   4.38614050e-04,-1.90483890e-02,-6.33604622e+00,-1.03356056e-02,
  -6.15332625e-04},
 { 1.64473379e+00, 5.94725728e-01,-2.30378890e+00, 8.36767852e-02,
  -2.32694149e-02,-8.03766400e-02, 4.84805870e+00, 3.42808872e-01,
  -1.23201001e+00},
 {-9.42689739e-03, 4.92192134e-02,-8.05185223e+00, 1.83731094e-02,
  -3.00357714e-02, 2.39609014e-02,-3.21393572e-02,-3.54908817e-02,
   2.68933829e-03},
 { 4.46899496e-02,-6.52508810e-02, 2.50069332e+00,-2.05922294e+00,
  -2.13839173e+00,-4.36583805e+00,-5.17507605e-02, 1.44661260e+00,
  -2.55326939e+00},
 { 9.51400340e-01,-7.12030292e-01, 2.60071516e+00, 2.02173686e+00,
   1.48889196e+00,-1.82679415e+00,-2.49525237e+00,-7.75347590e-01,
   2.27501202e+00},
 { 1.90941346e+00, 1.27160466e+00,-2.47981548e+00,-1.03777431e-01,
   8.47714916e-02,-1.33340731e-01, 6.09001064e+00,-1.58239990e-01,
  -2.72173673e-01},
 { 1.20607496e-03,-2.53658672e-03, 1.49156436e-01, 1.52431488e+00,
   2.20644855e+00,-8.10586095e-01,-6.60310825e-03, 7.18916512e+00,
  -1.58470534e-02},
 { 1.72841060e+00,-1.47180867e+00, 3.62095028e-01, 6.79186126e-03,
   1.18713162e-03, 4.90849167e-02,-7.06550550e+00,-5.67664253e-03,
   1.80195123e-02},
 {-5.52707277e-02,-4.16555330e-02,-2.61948133e+00,-3.34888339e+00,
  -1.37650990e+00,-1.07894230e+00, 2.70404816e-02, 2.06780314e+00,
   2.36099744e+00},
 {-7.81588852e-02, 4.59201373e-02, 4.39078808e+00, 1.33598614e+00,
   2.68030739e+00, 1.03921011e-01,-1.16748186e-02,-2.26458716e+00,
   3.49674463e+00},
 {-5.33406436e-02, 2.51312330e-02,-1.40874743e+00,-8.49847123e-02,
   1.13752556e+00,-4.53721851e-01,-4.86803055e-02, 4.04109812e+00,
  -4.42023396e-01},
 { 2.37086900e-02, 4.84440103e-02,-2.77400589e+00,-1.52960229e+00,
  -8.93280625e-01,-6.43732488e-01, 2.45941877e-02,-3.07740283e+00,
  -3.08465195e+00},
 { 1.86346956e-02, 4.96682599e-02, 1.62535930e+00, 7.50980675e-02,
   5.40151060e-01, 8.12295020e-01,-9.20161456e-02, 4.93958092e+00,
  -1.81490040e+00},
 {-5.37263632e-01,-2.42761970e+00,-1.45540214e+00, 1.06940877e+00,
   2.46159919e-02, 1.33978635e-01, 3.88336539e+00, 4.57024395e-01,
   1.81053710e+00},
 {-8.57109949e-03, 6.27225041e-02, 3.84345353e-01,-1.38179696e+00,
   3.85558516e-01,-2.40397334e+00,-8.60414058e-02, 4.99774313e+00,
   1.71763465e-01},
 { 1.88356061e-02, 1.10764191e-01,-3.53426623e+00,-1.80575991e+00,
   8.63853514e-01,-5.62277436e-01,-2.16758311e-01, 1.78898740e+00,
  -2.59993291e+00}};

const float b1[sz_hid_1] = {-4.564429  ,-4.0078607 ,-1.4627601 ,-3.931958  ,-3.1042547 ,-1.3092595 ,
 -3.4362943 ,-0.6797334 ,-1.7478366 ,-2.9136713 ,-2.3341527 , 1.5217838 ,
 -0.43961656,-2.692837  ,-4.935368  ,-5.205464  ,-1.7425411 ,-3.7838466 ,
 -2.8071318 ,-3.247465  ,-3.3608775 ,-5.4461627 ,-3.8612726 ,-1.8139664 ,
 -2.2763119 ,-2.4708855 ,-3.1388683 , 1.4310449 ,-5.17726   ,-1.081126  ,
 -3.900162  ,-4.7137575 ,-4.126159  ,-2.3744285 ,-4.587385  ,-2.2326188 ,
 -1.7180208 ,-0.6575636 ,-0.6860732 ,-1.9012434 ,-1.9297743 ,-3.6985536 ,
 -2.8406887 ,-1.9781626 ,-3.6403937 , 0.33833468,-3.943533  ,-1.8556123 ,
 -1.5133328 ,-3.198074  ,-2.3385253 ,-3.4060032 ,-4.98067   ,-3.0234046 ,
 -4.4603457 ,-4.6399007 ,-2.2644393 ,-3.2485352 ,-4.9621034 ,-3.3997843 ,
 -3.514685  ,-3.8869436 ,-3.6293645 ,-3.6741967 ,-4.4483843 , 0.21253006,
 -3.4526892 ,-1.7526609 ,-1.331234  ,-5.8408513 ,-4.9055514 ,-5.4196596 ,
 -0.51511574,-5.876229  ,-3.5054665 ,-4.7011757 ,-0.71867466, 0.5936026 ,
 -1.6317207 ,-1.7010404 ,-1.2847612 ,-3.4561293 ,-1.5946195 ,-4.8133974 ,
 -3.1998427 ,-0.990391  ,-0.919497  ,-6.0795274 ,-3.4989579 ,-5.160742  ,
 -2.2614937 ,-4.8393173 ,-3.7894418 ,-5.194446  ,-6.1185155 ,-3.9092872 ,
 -0.25386378,-5.174119  ,-4.7157755 ,-2.2052996 ,-0.48143956,-0.5528012 ,
 -4.7624726 ,-2.3758883 , 0.21221752,-2.027441  , 0.01073152,-0.7057413 ,
 -2.970161  ,-2.9577398 ,-1.7229756 ,-4.7099953 ,-4.6150584 ,-2.9685125 ,
 -0.29224658,-4.44446   ,-5.9278555 ,-4.626509  ,-5.480712  ,-4.932637  ,
 -4.399554  ,-5.8311234 ,-2.9421792 ,-4.4246144 ,-4.800018  ,-4.43367   ,
 -3.42029   ,-3.8170981 };

const float w2[sz_hid_2][sz_hid_1] = {{ 5.97030640e-01, 4.88215387e-02, 1.87434286e-01,-9.36181396e-02,
   2.13699341e+00, 1.18492937e+00, 1.59234241e-01,-5.36878288e-01,
   6.74528182e-02,-6.16660267e-02,-2.02393923e-02,-3.75303221e+00,
  -9.66779366e-02,-2.77434364e-02, 2.37114578e-01, 1.61250070e-01,
   7.50323385e-02, 1.83869172e-02,-6.72012925e-01,-8.75264853e-02,
  -9.07819122e-02, 1.37373820e-01,-2.31480263e-02, 6.21456146e+00,
   9.35018301e-01, 3.09762359e-01, 4.50022078e+00, 6.54656366e-02,
  -1.42256498e-01, 6.25318229e-01,-8.70213509e-02,-1.81887112e+01,
   1.82825588e-02,-3.34835798e-02,-4.73651364e-02, 1.23122009e-02,
  -1.09713852e-01, 6.48203135e-01, 1.14062041e-01,-1.44012105e-02,
   1.87574222e-03,-2.29805052e-01, 3.15976851e-02,-6.96322024e-02,
  -6.14915073e-01,-1.75384134e-02,-7.06853066e-03,-1.20641603e+01,
   4.67191003e-02, 3.49133126e-02, 2.46053934e-02,-5.26146265e-03,
  -3.92053270e+00, 1.15410268e+00,-1.71224079e+01,-1.23888958e+00,
   1.67700231e-01,-8.57253149e-02,-2.36404687e-01, 1.55992556e+00,
  -8.85857362e-03, 3.64495553e-02,-8.85062292e-02, 7.82670379e-01,
   2.57363766e-01, 1.20957844e-01,-6.51654750e-02, 1.19647360e+00,
   1.37134755e+00, 1.17951441e+00,-1.43950634e+01,-5.04347324e+00,
  -1.52150005e-01, 2.71668448e-03,-3.19732130e-01, 2.72383642e+00,
   3.10895522e-03,-6.92758411e-02,-4.42633033e-01,-3.31979292e-03,
  -1.85915697e-02, 8.40947703e-02, 3.82487863e-01,-2.66320258e-02,
  -2.46363115e+00, 3.13598514e-02, 5.55824339e-01, 1.48183934e-03,
  -1.65935576e+00,-9.51392055e-02, 6.08282872e-02,-7.53121138e+00,
  -1.30702603e+00,-6.65088177e-01, 7.47871399e+00, 2.23391488e-01,
   7.56214094e+00,-5.25073051e-01, 9.46017385e-01,-1.61646008e-01,
  -1.09681755e-01,-5.96981883e-01, 4.31830549e+00, 1.34388447e-01,
   4.88117561e-02, 6.10623993e-02,-4.00380611e-01,-2.16178441e+00,
  -2.13132381e-01, 1.51415318e-02,-5.12399524e-02, 4.73330402e+00,
  -2.07927918e+00,-1.50135148e+00, 5.14895535e+00, 5.22672050e-02,
  -8.80496502e-02,-6.29049253e+00,-3.66540365e-02,-3.42063117e+00,
  -3.34910750e-02, 7.67523575e+00,-7.05570951e-02,-6.97244480e-02,
   3.37157577e-01,-1.00363040e+00,-8.58517066e-02,-6.67287363e-03},
 {-1.36865723e+00, 1.05185318e+00, 6.37644005e+00,-2.32658815e+00,
   5.43069839e-01,-2.11128205e-01,-6.39640868e-01,-2.73327208e+00,
   1.17733335e+00, 8.76167536e-01, 1.16141236e+00, 4.39343512e-01,
   5.33752263e-01, 3.86685705e+00,-1.48750222e+00,-3.59914660e+00,
  -2.18485928e+00,-2.54224539e+00,-1.09936893e+00,-7.15482378e+00,
  -2.01268792e+00, 1.33176577e+00, 8.77626121e-01,-1.75981402e-01,
  -4.88531500e-01,-6.59071326e-01,-5.15431523e-01,-4.55219746e-01,
  -5.19828033e+00, 3.85648012e+00,-2.74962640e+00, 7.36888707e-01,
  -6.32837200e+00,-2.92249131e+00, 3.32944423e-01, 3.54078913e+00,
  -6.43752146e+00, 2.40853429e+00,-1.49226964e+00, 2.46907473e+00,
  -1.50357664e+00,-4.53447199e+00,-2.28915739e+00,-2.21523792e-02,
   3.91173792e+00,-1.00701892e+00, 5.54511905e-01,-8.23302940e-02,
   4.12607718e+00,-1.50346860e-01,-7.73971677e-01, 6.33788049e-01,
   1.74486160e+00,-5.01735449e+00, 8.96910763e+00,-5.14615679e+00,
   1.19125746e-01, 1.84626317e+00,-3.45740056e+00, 1.45721495e-01,
  -3.71547341e-01,-3.56415272e+00, 1.18880248e+00, 4.80027151e+00,
   4.36632442e+00, 1.38662457e+00, 1.97649270e-01,-1.47839665e+00,
  -1.66389418e+00, 2.74617457e+00, 2.30448556e+00,-2.56302476e+00,
   4.25185412e-02, 3.65946627e+00, 1.50178134e-01, 1.65672951e+01,
   1.01462674e+00,-3.34587145e+00, 9.01453614e-01, 6.77253628e+00,
  -2.39982152e+00, 1.70500910e+00, 2.10285854e+00,-6.52703428e+00,
   1.28977787e+00,-3.80029678e+00, 3.32482743e+00, 6.84988499e+00,
  -5.60806799e+00, 6.28095925e-01, 3.22309732e-01, 2.97480106e+00,
  -3.15215778e+00,-6.36446923e-02, 3.45745516e+00, 6.62784815e-01,
   6.78451657e-01, 5.59020948e+00, 1.62899721e+00,-8.37615669e-01,
  -3.13575792e+00,-1.37036216e+00, 8.25525582e-01,-4.53542948e-01,
   4.38458681e-01,-2.05285144e+00,-1.13286769e+00,-1.72028279e+00,
  -1.31297088e+00, 9.66547430e-02,-2.19893479e+00, 1.10913455e+00,
  -1.25964041e+01,-1.06123543e+00,-8.90445292e-01, 1.58519670e-02,
  -2.13735886e+01,-3.65608764e+00, 8.89781666e+00,-2.77934742e+00,
  -7.96595144e+00, 9.08002090e+00,-5.56013465e-01,-1.96861708e+00,
   3.34479380e+00,-8.95531952e-01, 1.56477201e+00, 3.09377241e+00},
 {-5.56902476e-02,-1.69512106e-03, 3.16680111e-02,-1.83528159e-02,
   8.01119134e-02,-1.15744904e-01,-3.90309654e-02,-7.28580821e-03,
  -3.66257206e-02,-3.61166149e-03,-3.90804708e-02,-1.55001402e-01,
  -9.39306244e-02,-2.53182091e-02,-6.95905611e-02,-7.14848489e-02,
   5.46740182e-02, 3.01369410e-02,-4.31925841e-02,-3.70342359e-02,
  -1.26308441e-01,-8.02652314e-02,-2.86195986e-02,-1.39921233e-01,
  -3.10366582e-02,-2.84853652e-02,-3.41268256e-02,-9.20824409e-02,
   4.08213921e-02,-5.20185083e-02,-1.28957421e-01,-1.60224482e-01,
  -1.41143724e-01,-5.30357333e-03,-8.36088955e-02,-6.69330806e-02,
   2.04823203e-02,-9.54871848e-02,-7.79637992e-02,-1.02225237e-01,
   1.07211024e-02,-1.44108996e-01,-6.96088895e-02, 3.01089399e-02,
  -7.78755248e-02, 2.66784225e-02,-1.05777375e-01,-7.03516379e-02,
  -4.28563580e-02,-6.68774247e-02,-1.12699248e-01,-7.24075455e-03,
   1.43928984e-02,-5.36767617e-02, 2.43893173e-02,-7.17746392e-02,
  -7.34692141e-02,-6.05868958e-02, 5.36763258e-02,-6.86250404e-02,
  -1.05356798e-01,-5.45466170e-02,-8.63065757e-03,-6.96660578e-02,
  -5.12116291e-02, 4.50996943e-02,-1.42930113e-02,-9.45161283e-02,
  -6.34865910e-02,-5.31404540e-02,-2.44535785e-02,-2.14695968e-02,
  -9.26867276e-02,-5.25758229e-02,-5.91143034e-03,-8.70972499e-02,
  -1.41567886e-01, 4.06112149e-03,-1.21771447e-01,-1.27087301e-02,
   3.39116864e-02,-7.08107352e-02,-1.58305109e-01,-5.27786091e-02,
  -1.51899075e-02,-9.91390646e-02,-1.00831360e-01, 9.16823372e-02,
   6.02353401e-02,-6.39717747e-03, 1.61504410e-02,-3.01167276e-02,
   4.82172742e-02, 5.36210015e-02,-2.80427076e-02,-4.39965911e-02,
   8.52270145e-03,-9.04650763e-02,-7.76933283e-02,-9.81156603e-02,
   3.28769535e-02, 5.56891225e-03, 2.08042059e-02, 4.54318933e-02,
  -2.43373830e-02,-7.26815090e-02,-1.25180185e-01,-1.23319320e-01,
  -2.02706754e-02,-6.46320730e-02,-1.18370727e-01,-1.39889587e-02,
  -1.21814702e-02,-1.14734314e-01,-7.11378157e-02,-5.22715040e-02,
  -1.01800822e-01,-1.48049533e-01, 5.01748770e-02, 2.33019050e-02,
  -1.54323755e-02,-9.30816755e-02,-3.52240838e-02,-4.08810899e-02,
  -1.29949406e-01,-1.25576660e-01,-2.07421626e-03, 4.28560562e-02},
 { 9.60931659e-01, 2.00563455e+00, 5.00250936e-01,-4.35043955e+00,
   4.46083307e+00, 2.51047313e-01, 2.48339131e-01,-1.73647031e-02,
  -7.20444620e-01, 3.87070894e-01,-5.59337318e-01,-9.65978727e-02,
   1.35243762e+00, 2.36947513e+00,-2.07718706e+00,-5.55080652e+00,
  -3.70576918e-01, 9.80389416e-01,-1.27929077e-01,-4.41112608e-01,
   4.19107616e-01, 1.97280502e+00, 2.34986234e+00, 2.05476806e-01,
  -2.25644127e-01,-2.22477987e-01,-9.94387686e-01, 9.12436470e-02,
   4.28356266e+00, 4.55455154e-01,-2.89237714e+00, 9.94978026e-02,
   4.50654650e+00,-2.57005429e+00,-6.80786896e+00,-2.50081629e-01,
  -1.67435670e+00,-7.72642419e-02, 2.68729806e+00,-1.12341309e+00,
   8.98523986e-01,-8.48323524e-01, 1.47906482e+00,-3.82705765e+01,
  -1.02459751e-01, 2.51471490e-01, 2.54488206e+00, 1.95634216e-01,
  -1.41548193e+00, 1.47932720e+01, 2.75388551e+00,-1.02688348e+00,
  -3.97858787e+00,-1.28905332e+00,-7.45755360e-02, 3.64789867e+00,
   2.75482392e+00,-4.10584092e-01,-8.47532940e+00, 6.96867928e-02,
   3.21803361e-01, 5.53137898e-01, 5.11716700e+00,-2.41634682e-01,
   3.06701946e+00, 5.34116125e+00, 2.74474549e+00,-3.60170722e-01,
  -6.03297710e-01,-8.56616914e-01, 8.17325294e-01, 1.95558345e+00,
   5.77502918e+00, 3.01926374e+00,-1.23931043e-01, 1.84845889e+00,
   1.94625139e-01,-1.87658513e+00,-1.63133538e+00,-1.35261977e+00,
  -6.07765853e-01, 5.68427444e-02, 1.63104340e-01,-6.85288906e+00,
   5.96598744e-01, 1.19740033e+00, 7.88069308e-01,-3.07262421e-01,
  -1.02518690e+00,-4.11423063e+00, 1.28086841e+00, 1.37229371e+00,
   1.81905007e+00, 2.13409781e+00, 1.84762478e+00, 2.13075414e-01,
   5.65827966e-01,-4.50269651e+00,-3.77761316e+00, 4.94206429e+00,
  -4.42659706e-01,-5.99772310e+00, 4.13531996e-02,-7.74151266e-01,
  -4.24666691e+00,-8.64722848e-01,-2.98944831e-01, 5.75084627e-01,
  -6.47694945e-01,-1.87945700e+00, 4.05214119e+00,-4.48071384e+00,
   7.75239646e-01,-4.31327915e+00, 2.73605943e+00,-4.47904015e+00,
   1.40236020e-02,-4.16380692e+00,-4.53843296e-01,-9.58210230e-01,
  -4.95088387e+00,-3.23369575e+00,-6.74983358e+00,-3.77287149e+00,
   3.20057797e+00,-2.62465620e+00,-8.97017670e+00,-8.63382149e+00},
 { 7.93410254e+00, 7.72215962e-01, 4.41116142e+00,-8.56301188e-01,
   4.95691597e-02,-1.97256339e+00,-5.64342618e-01,-2.01749039e+00,
   1.25009671e-01,-9.92519498e-01,-1.71345398e-01, 6.71828806e-01,
   1.08034223e-01,-1.82514906e-01, 2.96429372e+00,-2.98445165e-01,
  -2.75873160e+00, 1.40099919e+00, 8.23126078e-01, 9.53619897e-01,
  -1.39394760e+00,-1.06502950e+00,-7.93692172e-02,-2.04265213e+00,
  -9.20036376e-01,-1.72744215e+00,-1.38061792e-01,-3.75761464e-02,
  -1.36346197e+00, 7.19857883e+00,-1.83742762e+00,-7.21237135e+00,
  -7.36926377e-01, 2.01434687e-01,-2.02516224e-02, 2.54327878e-02,
  -4.84236866e-01, 4.49430275e+00,-1.72651827e-01, 4.32349294e-02,
  -3.26710105e-01,-2.46533370e+00,-3.02397519e-01, 3.36974710e-01,
   6.97901535e+00,-2.49635667e-01, 2.97829509e+00,-1.15077021e-02,
   2.82531708e-01, 2.49647778e-02, 4.18338060e-01,-2.10713077e+00,
   2.71349818e-01,-7.33264446e+00, 5.36451674e+00,-6.56717300e+00,
   1.04626335e-01, 1.29938468e-01,-9.69895482e-01,-2.64621401e+00,
  -1.60538161e+00, 1.76271901e-01,-4.75059360e-01, 6.38475597e-01,
   2.49940896e+00,-4.81138617e-01,-7.51435816e-01,-3.43723357e-01,
  -4.55545807e+00, 1.57947350e+00, 6.07584178e-01,-1.76374817e+01,
  -1.61415815e-01, 4.35012007e+00,-2.24298072e+00,-6.95709419e+00,
   2.10587785e-01, 2.94157505e-01,-6.75987720e-01, 1.14623755e-01,
  -4.41574395e-01, 7.31793046e-02, 2.52448320e+00, 1.09282458e+00,
  -2.98033881e+00, 4.47924435e-01, 2.28639507e+00,-5.95861137e-01,
  -3.50431705e+00, 1.82427585e-01, 3.24527919e-01, 3.34563069e-02,
   1.74113560e+00, 5.53424835e-01, 1.56304479e+00, 1.44844711e-01,
   8.04814875e-01,-1.11382174e+00,-7.97309935e-01, 3.73639643e-01,
  -5.99060106e+00,-7.60496557e-02,-2.78779411e+00,-3.12946975e-01,
   6.18235290e-01, 1.09351262e-01,-9.70140636e-01, 3.42606962e-01,
  -1.29514229e+00, 1.78936005e+00, 1.02362253e-01,-4.37446308e+00,
  -7.41185093e+00, 7.04209087e-03, 2.67582130e+00,-5.35861969e-01,
  -2.87136936e+00,-7.47324038e+00, 4.16311681e-01, 7.14258289e+00,
  -2.59380817e-01, 1.91268861e+00, 9.98950973e-02,-2.21613467e-01,
   1.09610105e+00,-3.57535660e-01, 3.84872466e-01, 2.73834229e-01},
 { 1.75815129e+00, 1.62005156e-01, 5.22641897e-01,-3.80503416e+00,
   1.13400364e+00, 5.24677098e-01,-2.19256663e+00, 1.82099724e+00,
  -1.67023349e+00,-2.56183624e+00,-5.08715153e-01, 1.97179720e-01,
   2.86191893e+00,-2.02637029e+00,-1.26170111e+00, 4.66099292e-01,
  -9.24597263e-01,-2.06592441e+00,-3.15986484e-01,-1.38491273e+00,
  -8.46160173e-01,-7.87333679e+00,-6.85465157e-01, 1.64428115e+00,
  -1.30829290e-01,-1.72280729e-01,-5.28360319e+00,-2.39470050e-01,
   4.58173084e+00, 1.08135617e+00,-3.56216359e+00,-1.60808825e+00,
  -3.38992572e+00,-3.18487334e+00, 8.89758170e-01,-4.87266588e+00,
   2.96100497e+00, 3.98285300e-01,-3.19633818e+00,-2.96730351e+00,
   2.67665029e+00,-9.71264765e-02, 5.32168245e+00,-1.46279192e+00,
   3.02563220e-01,-9.04782295e-01, 1.62409627e+00, 5.08667435e-03,
  -3.54753804e+00, 1.61124453e-01,-1.85413694e+00,-4.48335372e-02,
  -6.88598251e+00,-4.35604513e-01,-2.17979774e-01, 2.64192915e+00,
   7.72354662e-01,-3.96577865e-01, 2.72342861e-01, 1.91353142e-01,
  -6.89024878e+00, 4.12641525e+00, 8.12646210e-01, 1.49993622e+00,
   2.89264631e+00,-4.84762728e-01, 5.17350972e-01,-3.62169802e-01,
  -1.21331024e+00, 2.39178807e-01,-2.32865468e-01, 1.20499030e-01,
   2.02051258e+00, 5.89926195e+00, 4.43571478e-01, 3.77427816e+00,
   1.04922986e+00, 1.89145124e+00,-8.18969429e-01, 2.73361993e+00,
  -3.42746705e-01,-2.67191648e+00, 5.09879053e-01, 6.93047404e-01,
   5.80933452e-01,-2.37978771e-01, 4.41985279e-01,-4.20734310e+00,
  -5.66063643e-01,-2.21375537e+00,-2.38473892e+00,-8.48659396e-01,
   4.94476366e+00, 5.83616376e-01, 1.15042448e+00,-2.40399408e+00,
   1.75679338e+00, 4.51474571e+00,-2.04859996e+00,-3.83494556e-01,
  -9.49328959e-01,-4.14636230e+00, 3.42041516e+00, 2.12462258e+00,
  -3.18510246e+00, 5.24238348e+00,-3.64585251e-01,-4.17385936e-01,
  -1.07688451e+00,-1.17578006e+00, 1.18169641e+00,-3.58840168e-01,
  -2.18139082e-01,-1.23610651e+00, 3.30067110e+00, 1.05918193e+00,
  -5.04733753e+00,-1.63157809e+00,-3.40778440e-01, 4.78253607e-03,
  -3.68136024e+00,-1.44935675e+01, 3.84198403e+00, 7.56046820e+00,
  -2.18293577e-01, 1.34763941e-01, 5.28747988e+00, 1.34776258e+00},
 {-1.28923580e-01,-7.77392983e-02,-3.93342897e-02,-1.17590996e-02,
  -5.45851402e-02,-1.67129979e-01,-2.81409733e-02,-4.98536415e-03,
  -7.84534123e-03,-6.98658498e-03,-1.48349956e-01,-8.72998759e-02,
  -6.65104017e-02,-5.36793396e-02,-9.96045098e-02, 1.49674639e-02,
  -1.61275100e-02, 2.90467981e-02,-1.24876678e-01, 9.39440564e-04,
  -1.22298703e-01,-4.46728580e-02,-1.48665346e-02, 3.09745927e-04,
   7.84679782e-03,-1.75609048e-02, 2.72541009e-02,-1.17157087e-01,
  -1.63714569e-02,-3.69588286e-02,-4.61623110e-02,-9.73300561e-02,
  -2.35758685e-02,-1.13609418e-01,-8.50758925e-02, 2.28567682e-02,
  -2.75934804e-02,-3.42684500e-02,-1.24916606e-01, 2.21014731e-02,
  -1.52127132e-01,-8.16908404e-02,-1.06071308e-01,-5.06419539e-02,
   4.14926857e-02,-1.44413039e-01,-3.46912555e-02,-1.24534614e-01,
  -1.32793486e-02,-5.55455461e-02,-8.41232464e-02, 6.56923559e-03,
  -1.32062882e-01,-3.15837525e-02,-2.20352691e-02,-3.44199240e-02,
   2.82274690e-02, 4.25955839e-02,-7.00955372e-03,-9.34560522e-02,
   4.66242321e-02,-3.33602205e-02, 2.07217336e-02,-5.83624206e-02,
  -8.30774605e-02, 7.59562361e-04, 2.11946107e-02,-7.49700814e-02,
  -1.00124821e-01,-1.35261759e-01, 2.45728381e-02,-1.58975441e-02,
  -3.37153897e-02,-1.73234526e-04,-7.21590295e-02,-8.16764235e-02,
  -1.25283957e-01,-2.90011130e-02, 1.73098426e-02,-4.08188626e-02,
  -6.20795786e-02,-5.02107069e-02,-1.61617875e-01, 2.79547926e-02,
  -1.06690720e-01,-1.45643642e-02,-1.98436871e-01,-2.56379396e-02,
   3.24685946e-02,-1.33030280e-01, 4.63957377e-02, 6.24064691e-02,
  -4.28115316e-02, 5.84235303e-02,-1.16917379e-01,-8.37411582e-02,
  -1.30738597e-02,-6.18701391e-02, 6.86819083e-04,-1.40035287e-01,
  -1.55811056e-01, 3.75584029e-02, 7.46036768e-02, 5.04455902e-02,
  -1.96743407e-03,-9.51234717e-03,-5.01346365e-02,-3.25724222e-02,
   2.15914864e-02,-1.00328602e-01,-2.30018813e-02,-4.06912751e-02,
  -1.85090192e-02,-3.35475467e-02,-5.85199855e-02,-6.03132881e-02,
  -5.94104975e-02,-7.94740245e-02, 8.21507536e-03,-9.56835151e-02,
  -1.39376195e-02, 1.21631613e-02,-9.07304510e-02,-3.44960131e-02,
   4.79675382e-02,-2.86655850e-03,-7.65834004e-02, 3.65327746e-02},
 { 1.94586933e+00, 9.91532862e-01, 4.28704071e+00,-2.20852113e+00,
   4.57780838e+00, 1.64587390e+00,-5.44036567e-01,-1.48348904e+00,
   6.83483422e-01,-1.49028134e+00,-3.41266789e-03, 2.75275707e-01,
  -1.37932611e+00,-2.07963729e+00,-4.83415991e-01, 2.64787173e+00,
  -2.24710488e+00,-5.35458136e+00,-3.74926901e+00, 1.27641404e+00,
   2.00575972e+00, 1.55899668e+00, 1.19647503e+00, 1.68436205e+00,
  -1.44926858e+00, 1.64098036e+00, 1.40678167e+00, 7.48345494e-01,
   4.45526266e+00, 3.02159762e+00, 2.45793056e+00,-3.62329185e-02,
   1.30785191e+00,-9.71957088e-01,-5.75168180e+00,-6.06704903e+00,
  -1.30203307e-01, 1.77226031e+00, 2.12613583e+00, 2.14921737e+00,
  -2.17573357e+00,-7.96008635e+00,-1.25423992e+00,-2.05349135e+00,
   6.31051064e-01,-1.49620461e+00,-2.01285338e+00, 7.78792024e-01,
   8.33170891e-01, 3.98129034e+00,-1.77364755e+00, 6.91983283e-01,
   6.53812027e+00,-9.25988853e-01, 2.05517936e+00,-3.54915071e+00,
  -3.75343204e-01, 2.19531965e+00,-2.58361506e+00, 7.23532021e-01,
   4.72575998e+00,-3.65810251e+00,-6.66645241e+00, 1.73532844e+00,
  -1.70519185e+00,-5.78500867e-01, 2.73358178e+00,-5.41109848e+00,
  -1.14811444e+00, 3.30069470e+00, 4.13440561e+00,-7.37510633e+00,
   1.47310710e+00,-6.85658693e-01,-7.01222003e-01, 7.49497366e+00,
  -1.19806600e+00,-3.27642298e+00,-2.12221599e+00,-1.49421096e+00,
   3.78878450e+00,-2.04819465e+00, 5.41357338e-01, 8.00017118e-01,
   1.60059869e+00, 4.85060883e+00, 2.48856974e+00, 4.83758926e+00,
  -9.55583036e-01,-1.45158377e+01,-8.51978734e-02,-2.04165056e-01,
   1.35444903e+00,-3.77700359e-01, 2.26239777e+00, 1.88192952e+00,
   3.96793783e-01, 2.99123645e-01,-4.62683821e+00, 6.76471472e-01,
  -1.27642846e+00,-2.86489677e+00, 2.75763392e+00,-1.55453002e+00,
   9.45365143e+00,-1.85525799e+00,-3.24915886e+00,-2.89667845e+00,
   1.28410012e-01,-4.41910791e+00, 1.59710157e+00,-3.30728221e+00,
  -2.58868432e+00,-3.45648456e+00, 1.89512324e+00,-1.78500915e+00,
   6.46118999e-01,-7.65828669e-01, 4.66559172e+00,-1.30994999e+00,
   1.19064069e+00, 1.78238904e+00,-8.04330063e+00,-8.85074234e+00,
  -2.95222187e+00,-1.16735868e+01,-9.69771326e-01,-2.67692413e+01},
 {-1.11365757e+01,-1.56518853e+00,-2.52055283e+01, 1.85616955e-01,
  -9.52952147e-01,-6.77499950e-01,-7.68292010e-01, 3.10471392e+00,
  -2.06185386e-01, 6.44756973e-01, 3.65121394e-01,-9.04973447e-01,
   6.06865942e-01,-1.07855357e-01,-5.14874220e+00, 2.64505863e-01,
   4.23352861e+00,-3.65483308e+00, 1.79575229e+00,-1.24879217e+00,
   6.48477173e-04,-6.03666902e-01,-3.74948293e-01, 1.38655055e+00,
   3.53149819e+00,-1.10948801e+00, 6.99337840e-01, 8.17640349e-02,
   7.70228744e-01,-9.05398750e+00,-3.11958585e-02, 1.21364570e+00,
  -3.21368933e-01,-2.46820003e-01, 2.06610307e-01, 9.91664171e-01,
   8.94326925e-01,-4.27692747e+00,-1.80666253e-01,-2.61351585e-01,
   3.56531680e-01, 1.06717908e+00,-3.27990204e-01,-2.39838794e-01,
  -6.45311069e+00, 3.27230722e-01,-9.66957092e+00,-7.51414180e-01,
   4.38706912e-02,-2.03140348e-01, 1.31496775e+00, 1.13494086e+00,
   1.28787768e+00, 3.70448565e+00,-8.46616364e+00, 6.10402882e-01,
  -3.94920439e-01,-1.50614873e-01, 1.39347804e+00, 6.37064397e-01,
   2.49890900e+00, 2.52616942e-01,-6.89746559e-01,-8.25851440e+00,
   2.29267454e+00,-7.15995729e-01, 4.38005000e-01, 1.66462374e+00,
  -9.48895097e-01,-3.62749010e-01, 1.95232332e+00, 9.44429016e+00,
   4.92528558e-01,-2.02267122e+00, 3.13775754e+00, 3.85030174e+00,
  -1.39682457e-01, 2.87470639e-01,-4.07532883e+00, 2.33815372e-01,
   3.47812235e-01, 4.06248331e-01,-1.85906422e+00, 8.27923268e-02,
   3.44571662e+00,-1.18522370e+00,-4.47208834e+00, 7.89242685e-01,
   3.82201958e+00, 8.17650929e-02,-3.13421428e-01, 1.21685517e+00,
   9.98638690e-01, 5.37285388e-01,-6.01133728e+00,-2.69783950e+00,
   5.86206675e+00,-1.26034367e+00, 2.65878224e+00,-3.18050891e-01,
   6.98643351e+00, 1.12446380e+00, 4.37259555e-01,-7.42069960e-01,
   5.16978987e-02,-5.13553143e-01, 1.77761996e+00, 3.85439813e-01,
   6.36362076e-01,-5.51204872e+00,-5.38055062e-01, 1.61444962e+00,
  -2.89225554e+00,-2.46737942e-01, 2.70968556e+00, 1.91395748e+00,
   6.49077632e-03, 7.94225991e-01,-2.50670463e-02,-6.19658947e+00,
  -1.32874477e+00,-2.75751615e+00,-5.49510837e-01, 1.22715533e-01,
  -4.18066835e+00, 5.17695248e-01, 2.13902697e-01, 1.38101041e-01},
 { 8.90864059e-02, 4.22430009e-01, 3.16978723e-01, 6.78270149e+00,
  -6.52620077e+00, 7.23088145e-01, 1.19981337e+00,-1.77368915e+00,
   1.36281860e+00,-3.06115627e-01,-7.92974710e-01, 2.11239550e-02,
  -2.09649420e+00, 5.51250204e-02,-3.09407711e+00, 9.24201775e+00,
  -1.02365601e+00,-2.03126240e+00,-1.28462454e-02,-5.68490744e+00,
  -5.41775078e-02,-5.27708054e+00,-1.10399842e+00, 6.79293692e-01,
  -2.08255082e-01, 9.80256677e-01, 4.06790876e+00, 3.74516189e-01,
  -4.06422901e+00, 4.25735056e-01, 1.67224717e+00, 1.51563132e+00,
   1.87689573e-01, 5.24265718e+00,-1.37565489e+01,-5.02890944e-01,
   1.06980050e+00,-4.97850515e-02, 1.66633677e+00, 1.80807292e-01,
  -1.07802808e+00,-2.38846038e-02,-5.38382351e-01, 5.74236512e-01,
   1.26277459e+00, 4.81004143e+00,-4.31250715e+00,-7.37135112e-02,
   4.19150686e+00, 8.01518381e-01,-6.94055796e-01, 1.12473130e+00,
   5.21285772e+00,-2.93352515e-01,-6.21241808e-01,-3.51939988e+00,
  -2.22128487e+00, 7.96511769e-01, 4.15649384e-01, 5.18108718e-02,
  -2.72954249e+00,-1.80545151e+00,-3.13328028e-01, 7.08445460e-02,
  -6.66027689e+00, 8.24528515e-01,-3.89722943e+00,-1.57589599e-01,
   5.03892839e-01,-3.08009791e+00,-9.02234375e-01,-2.58839786e-01,
  -7.86671829e+00,-5.10032415e+00,-1.49815726e+00,-1.55578291e+00,
  -4.74310338e-01,-1.14328289e+01,-7.37745464e-01,-6.55240789e-02,
  -4.26085830e-01,-6.47499144e-01,-5.28541207e-01, 1.42484397e-01,
   1.23397064e+00,-4.53893471e+00,-6.82198167e-01,-1.90306072e+01,
  -6.46813273e-01,-4.39371377e-01, 1.12358141e+00,-8.90335655e+00,
   3.01901555e+00,-1.47690487e+00,-1.54756463e+00,-2.04041794e-01,
   3.66354346e-01, 1.73847699e+00, 3.56336951e+00, 3.98419881e+00,
  -4.56946641e-01, 7.86597300e+00, 7.61953294e-01, 1.20092049e-01,
   2.63957691e+00, 1.05913854e+00,-5.97060442e-01,-3.34191233e-01,
  -7.37959206e-01, 3.24905491e+00,-5.73256302e+00, 2.25816464e+00,
  -2.63133240e+00, 3.37352180e+00, 3.13599795e-01, 4.31062542e-02,
  -5.38501501e+00, 4.33030319e+00,-2.78784485e+01, 2.53277421e+00,
   7.03496397e-01, 5.39279795e+00,-2.43059349e+00, 1.62900496e+00,
   3.87285900e+00, 3.68119931e+00,-8.44402599e+00,-1.07313204e+00},
 {-1.05274591e+01,-4.83585805e-01,-1.19978981e+01,-4.18418378e-01,
   7.54756033e-02,-5.63432693e-01, 6.09688461e-01, 3.23041940e+00,
   4.28013027e-01,-5.41552365e-01, 5.50067663e-01,-1.06953371e+00,
  -1.65898573e+00,-2.65908694e+00,-2.67146587e+00,-3.65691519e+00,
   4.36097050e+00,-1.01320827e+00, 1.78300714e+00, 5.82353100e-02,
   4.15834457e-01,-4.90980196e+00, 1.60321787e-01, 1.99166644e+00,
   2.76811457e+00,-9.07211185e-01, 1.34694770e-01,-8.87001976e-02,
  -5.83641434e+00,-1.14787073e+01,-8.45782566e+00,-1.60891914e+00,
  -4.72423404e-01,-3.26289356e-01,-1.15254447e-01,-1.81121099e+00,
   8.08153808e-01,-3.59131980e+00,-3.25829774e-01, 5.86038947e-01,
  -2.51840204e-01,-1.51901197e+00, 9.47873354e-01, 5.92856109e-01,
  -5.78519297e+00,-8.63335967e-01, 2.52473831e+00,-7.29700387e-01,
  -9.87387955e-01, 8.72034073e-01,-3.57881933e-01, 3.64035189e-01,
  -4.06950146e-01, 3.40842104e+00,-6.63930750e+00, 5.81126451e-01,
   2.00695962e-01,-1.00591376e-01, 1.72023487e+00, 1.18487787e+00,
  -3.20708007e-01,-5.16231775e-01,-8.76664734e+00,-1.12945509e+01,
   4.84297276e+00, 2.85242033e+00, 1.99551523e-01,-1.43542096e-01,
  -6.21640205e-01,-3.31201530e+00, 1.67221177e+00, 4.21795273e+00,
   8.37664187e-01, 4.62735415e+00, 6.65983438e-01, 1.87354565e-01,
   2.62770504e-01, 4.43440139e-01,-6.82475328e-01,-2.45965862e+00,
   1.53160870e+00,-3.45760226e-01,-9.44982231e-01,-6.47064298e-03,
   3.80822349e+00, 7.37123847e-01,-3.46792817e+00,-1.80401826e+00,
   2.74170756e+00,-9.04436231e-01,-4.97784734e-01, 2.59835750e-01,
  -9.38202024e-01, 6.80227697e-01, 4.64086199e+00,-9.56869483e-01,
   5.05845976e+00,-1.47055264e+01, 8.44013691e+00, 4.95736063e-01,
   5.83394670e+00, 3.95684928e-01, 3.36078095e+00, 1.34528780e+00,
  -2.94053495e-01, 4.54564035e-01, 1.90241075e+00,-6.23220801e-01,
  -3.34704965e-01, 5.65164948e+00,-1.91870764e-01, 4.64532709e+00,
  -1.57644153e+00,-1.08749956e-01,-1.02549279e+00,-5.83232975e+00,
  -1.02184362e+01,-2.90591478e+00, 2.48002458e+00,-3.26982093e+00,
   5.79399109e-01,-1.67579234e-01, 4.50997353e-01,-8.81291687e-01,
  -5.00289023e-01, 7.13391840e-01,-6.53577089e-01,-1.35620964e+00},
 {-2.09271505e-01, 1.02347672e+00,-7.10250854e-01,-4.51958388e-01,
  -1.43241942e-01,-1.04927897e-01,-5.24636650e+00, 4.06756327e-02,
  -1.10028327e+00,-3.29360664e-01,-1.31105590e+00,-3.13783251e-02,
   1.86315067e-02, 1.01666319e+00, 5.33203006e-01,-2.57867718e+00,
   2.66149551e-01, 1.09789474e-02, 8.46886486e-02, 3.09395641e-01,
   7.90280521e-01, 2.93737555e+00,-8.18996811e+00, 1.21180639e-02,
   7.60512203e-02,-9.00385454e-02, 3.36463690e-01,-2.84345955e-01,
   1.79331744e+00,-3.99700016e-01,-4.26606512e+00,-2.84618425e+00,
   1.67549324e+00,-2.90908992e-01, 2.40753007e+00,-1.02299404e+00,
  -1.72526002e-01,-2.97605246e-01, 3.56738043e+00,-2.69229507e+00,
   1.32395470e+00, 7.26560831e-01,-1.67310441e+00,-6.55846953e-01,
  -3.08415562e-01, 5.83662462e+00, 1.56024814e-01,-4.07965705e-02,
   1.52798921e-01,-1.49925172e+00, 4.22089624e+00,-1.98176742e-01,
  -5.85000038e+00, 2.46309087e-01,-4.50724125e-01,-1.35874078e-01,
   5.49207926e-01,-4.77024555e+00,-3.21284503e-01,-1.65702775e-01,
   9.69531238e-01, 6.94983101e+00,-1.28441274e+00,-9.13906470e-02,
   8.06402087e-01,-7.95390427e-01, 5.37017941e-01,-3.78701180e-01,
   6.14213407e-01, 1.73936594e+00,-3.66756395e-02,-4.27700937e-01,
   1.28106609e-01, 4.30202198e+00,-1.54524708e+00,-2.04411173e+00,
   2.68855357e+00, 3.23274112e+00, 5.79126060e-01,-1.57095492e+00,
  -4.69590187e-01, 1.04510772e+00,-2.23291785e-01, 1.10050775e-01,
   2.62529075e-01, 9.45255458e-01,-4.46513832e-01, 6.63756227e+00,
   5.21513700e-01, 2.37060428e+00,-1.42776132e-01, 4.53641266e-01,
  -5.70517921e+00,-2.26900876e-01, 2.16915593e-01,-2.55892605e-01,
   1.11364670e-01,-4.32049227e+00,-4.22667056e-01, 1.02912033e+00,
   2.84773707e-01,-1.16597585e-01, 6.38434172e-01,-4.15487385e+00,
  -2.47087553e-01,-4.28659618e-01, 6.08144514e-02, 4.08528715e-01,
  -9.05928388e-03,-4.44025069e-01, 2.63306975e-01, 1.87480247e+00,
   1.25231314e+00,-1.85006887e-01,-5.05659461e-01, 6.26324058e-01,
  -2.86951046e+01, 1.85177767e+00,-1.95383396e+01, 2.07004681e-01,
   1.15198040e+00,-2.62352829e+01, 8.46721351e-01,-1.36064291e+00,
   3.69547272e+00,-6.70777321e-01,-5.12377548e+00,-2.01928759e+00},
 {-1.93201375e+00,-1.52307999e+00, 4.44865048e-01,-3.13256770e-01,
   2.92389083e+00, 4.31299782e+00, 2.49691799e-01,-3.06047177e+00,
  -2.57287979e-01,-1.05555332e+00, 7.06505030e-02, 1.18010414e+00,
  -3.04114252e-01, 1.28121287e-01, 4.80201626e+00,-6.51607156e-01,
   1.37769568e+00,-3.85077906e+00,-2.99588704e+00, 1.68162894e+00,
  -4.03982449e+00, 6.40213668e-01,-1.50059223e-01,-2.27021098e+00,
  -3.50228474e-02, 9.65332448e-01,-2.87349725e+00,-8.81862566e-02,
  -2.98259407e-01, 2.08699012e+00, 3.85717601e-01, 7.94663715e+00,
  -8.36156785e-01,-2.93235511e-01,-2.16667950e-01,-2.21893936e-01,
  -9.59812701e-01,-1.27247417e+00,-2.75113463e-01, 8.84657204e-01,
  -6.11785293e-01,-1.12711155e+00, 2.51096059e-02, 6.18429005e-01,
   2.07375693e+00,-3.17911416e-01,-4.98075396e-01,-3.63679528e+00,
   2.68818080e-01,-7.49135494e-01,-3.66982162e-01,-3.21696043e+00,
   2.59900904e+00,-2.72603917e+00, 1.47646689e+00, 3.79671955e+00,
  -4.50350977e-02, 5.97731173e-01,-1.46352386e+00, 5.16995478e+00,
  -6.75945473e+00,-2.91278303e-01,-5.63554347e-01, 3.92211199e+00,
   4.01261300e-01, 2.26504654e-01,-1.59738135e+00, 3.46880364e+00,
  -4.02115917e+00, 1.75448155e+00,-4.31890631e+00,-1.65504038e+00,
  -2.07196617e+00,-1.90953636e+01,-1.52190197e+00,-1.53094664e+01,
  -4.98577803e-02, 1.27076536e-01,-7.99521303e+00,-3.37528586e-01,
  -3.37879837e-01, 5.75752914e-01, 1.31907487e+00, 1.42549407e+00,
  -2.36831808e+00, 7.43964612e-01, 1.80328619e+00,-7.92500615e-01,
  -7.64385557e+00,-2.44408920e-01, 4.57309276e-01,-5.09856319e+00,
   2.42284369e+00,-5.99886000e-01, 3.58251667e+00, 5.15292823e-01,
  -5.22058606e-01, 4.63508368e+00, 4.02663127e-02, 3.84331912e-01,
  -4.23568457e-01,-3.30352664e+00,-9.16135502e+00, 1.17468350e-01,
   3.34005535e-01,-3.00457001e-01,-5.05648851e-01,-1.78803120e+01,
  -3.15690112e+00, 1.01022445e-01, 7.57737905e-02, 1.11129570e+00,
  -9.81675148e+00, 1.66733027e-01, 5.26752138e+00,-1.56728280e+00,
   3.47405732e-01, 2.24535108e+00, 4.03626651e-01,-1.72291164e+01,
  -2.29083195e-01, 1.23863029e+00, 5.37186027e-01,-6.65434778e-01,
   1.77801514e+00,-4.09993458e+00, 5.08260988e-02, 4.75061536e-02},
 { 4.73215961e+00,-1.11415052e+00,-9.90800466e-03, 1.24436176e+00,
   7.44344056e-01,-2.77282643e+00,-6.05659299e-02, 1.54191814e-02,
  -4.18015659e-01, 1.29475701e+00, 4.42633778e-01,-9.13655639e-01,
   6.64750159e-01, 1.46714285e-01,-5.94668150e+00, 2.44621024e-01,
  -1.80367935e+00,-3.15962338e+00, 1.15322661e+00,-5.86213291e-01,
   1.15060318e+00, 9.33505967e-02,-2.64742345e-01,-1.30595291e+00,
  -9.65286553e-01, 1.51674792e-01, 6.82863653e-01,-2.99889408e-02,
   2.35520387e+00,-2.78934717e-01, 9.35408652e-01,-2.47939777e+00,
  -7.82801270e-01,-5.21106422e-01,-2.48050675e-01, 6.27974793e-02,
   1.15920353e+00, 2.10644269e+00,-8.89472544e-01, 9.26335230e-02,
   3.49217534e-01, 7.54677415e-01, 1.27415024e-02,-4.48779285e-01,
   5.80089235e+00, 2.35887676e-01,-1.74361199e-01,-2.57925105e+00,
  -1.81737915e-01, 4.76722680e-02,-9.50396657e-02, 1.69753706e+00,
   2.82411158e-01,-7.53773499e+00, 3.61956167e+00,-5.23614788e+00,
   2.77009487e-01,-6.12327874e-01, 2.66079998e+00,-3.02937460e+00,
   1.04740167e+00,-1.72808141e-01,-9.50366408e-02,-2.82848930e+00,
   1.28560030e+00,-2.40589023e-01, 1.32210660e+00,-1.27223408e+00,
  -1.27129936e+00,-3.80133629e-01, 1.91125000e+00, 1.00652676e+01,
  -8.27115595e-01,-7.96003675e+00, 2.46103263e+00,-1.00439215e+01,
   3.95565748e-01, 2.95394242e-01,-3.27349377e+00,-3.38880867e-01,
   7.26814330e-01,-2.22563952e-01, 5.13645001e-02,-8.58622491e-01,
  -1.56128383e+00,-1.20109451e+00, 1.35882103e+00, 1.43368721e+00,
   6.81939983e+00,-3.46069664e-01,-1.68509677e-01, 5.07936478e+00,
  -2.37098128e-01,-6.32921076e+00,-2.72453556e+01,-3.14816117e+00,
   6.11436272e+00,-3.34653878e+00, 1.74726641e+00,-3.97194207e-01,
  -3.02987099e-01,-2.90972590e-01,-2.00445008e+00, 9.24958661e-02,
  -1.74502075e-01,-8.15612078e-01,-2.75198579e-01, 2.64619303e+00,
  -1.13305032e+00,-2.02100173e-01,-6.02231622e-01, 2.56761885e+00,
   4.81748962e+00,-3.68536592e-01, 2.56311536e+00, 1.42820740e+00,
   1.58872104e+00,-3.46694660e+00, 4.22961682e-01, 8.23153400e+00,
   3.43345851e-01,-1.19324362e+00,-5.13597369e-01, 2.26799995e-01,
  -4.22170115e+00, 2.04696715e-01,-1.59561664e-01,-3.21845293e-01},
 { 3.86531502e-02, 1.48769403e-02,-9.31266621e-02,-7.57680982e-02,
   2.53474899e-03,-9.55820158e-02,-3.18421647e-02,-9.61083397e-02,
  -2.42048390e-02,-8.58830288e-04, 1.94386356e-02, 1.46542359e-02,
  -8.15784931e-02,-2.47566290e-02,-3.54808383e-02,-3.37958559e-02,
  -7.69088641e-02, 3.23883630e-02,-5.99546246e-02,-1.11060534e-02,
   4.98505533e-02,-1.17525356e-02,-1.02490909e-01,-6.42585531e-02,
  -4.11998294e-02, 2.73325145e-02,-1.57720018e-02,-1.68597954e-03,
  -9.89376456e-02,-3.62094641e-02,-2.39241589e-03,-2.71602497e-02,
   4.14703563e-02,-4.37222831e-02,-1.38970628e-01, 1.19417002e-02,
   9.15717985e-03, 2.38175057e-02,-1.35094196e-01,-9.08199847e-02,
  -8.39223787e-02, 9.70225490e-04,-3.57749946e-02,-6.27611428e-02,
  -4.15611193e-02,-9.95836481e-02, 3.76719385e-02,-1.09645285e-01,
   9.26473178e-03,-1.25680566e-01,-5.35289384e-02,-5.67552857e-02,
   2.78682820e-02,-9.40879211e-02,-6.07552798e-03,-8.35200548e-02,
   2.20424607e-02,-4.40359395e-03,-1.02148831e-01,-1.60180088e-02,
  -6.68649897e-02,-9.89369601e-02,-6.23684637e-02, 1.48888556e-02,
   1.98066998e-02,-3.38733718e-02,-8.58182460e-02,-4.95218672e-02,
  -4.54771295e-02, 2.36829575e-02, 4.10582907e-02, 6.88628387e-03,
  -4.18497361e-02,-1.08073466e-01,-9.61328074e-02, 2.98323650e-02,
  -1.62963599e-01,-9.65573192e-02,-5.42033985e-02,-6.76873177e-02,
  -1.09772280e-01,-1.13999620e-01,-1.30336406e-02,-7.20547289e-02,
  -6.05899990e-02, 1.24640726e-02,-9.10755917e-02,-5.84591515e-02,
   2.14482006e-02,-1.22952193e-01,-8.53531212e-02,-1.30813876e-02,
  -2.59370189e-02, 4.22715023e-02,-3.41521129e-02,-4.66354713e-02,
  -1.09331764e-01, 1.07965758e-02,-1.14584900e-01,-5.06074540e-02,
  -3.97840291e-02,-5.91433533e-02, 6.51394203e-03,-7.83316121e-02,
  -1.87041610e-02,-7.61674996e-03,-2.15018950e-02,-8.21855590e-02,
  -6.06843680e-02, 6.80455705e-03,-1.36972904e-01,-2.16024835e-02,
  -5.77392802e-03, 7.05305412e-02,-6.30618930e-02,-4.63714786e-02,
  -5.94537668e-02,-9.79438201e-02, 1.19253725e-03,-1.31586730e-01,
   4.92261499e-02, 4.96422797e-02,-2.98069846e-02, 5.26685826e-02,
  -4.29487899e-02, 6.32648822e-03,-6.80809766e-02,-9.31342468e-02},
 {-3.39805149e-02,-6.79629296e-02,-8.42912868e-02,-1.14216238e-01,
  -1.06611386e-01,-8.51532742e-02,-4.54747025e-03,-1.23316616e-01,
  -2.00098921e-02,-1.84994452e-02, 5.63800484e-02,-9.32417996e-03,
  -1.31618470e-01,-4.43872102e-02,-7.68995956e-02,-4.07950021e-02,
  -3.02925874e-02,-1.34355742e-02,-1.05824498e-02,-1.41394651e-02,
  -8.84897187e-02, 3.08195725e-02,-1.66166399e-04,-5.31591289e-02,
  -1.40717044e-01,-1.18522532e-01,-1.53000029e-02,-1.72995105e-02,
   5.58455996e-02, 2.71188468e-02,-1.08830538e-03, 1.96193252e-02,
   5.03177457e-02,-3.34201120e-02, 3.17846937e-03,-9.67334658e-02,
  -6.83217198e-02,-2.40886435e-02,-4.08561453e-02,-6.12274893e-02,
  -6.05442710e-02,-9.07231197e-02, 1.23822466e-02,-3.48823778e-02,
  -3.50169465e-02,-1.31435215e-01,-9.19976681e-02,-1.31734898e-02,
  -9.59683284e-02,-1.60944853e-02,-3.22280079e-03,-5.44909164e-02,
  -9.75333676e-02,-1.29565179e-01, 2.64449827e-02,-9.09038819e-03,
  -5.57242371e-02,-1.12184726e-01,-6.31712601e-02,-5.25623076e-02,
   2.48268060e-02,-8.07343721e-02,-1.01426668e-01,-9.77194980e-02,
   3.22775133e-02,-3.78254279e-02,-1.39443681e-01,-9.25756991e-02,
  -1.78432316e-01,-1.03773931e-02,-4.85435277e-02,-1.99482664e-02,
  -4.00474966e-02,-1.15114555e-01,-1.13624938e-01,-1.00348152e-01,
  -1.11126855e-01,-6.89448277e-03,-8.41186643e-02,-3.18403170e-02,
  -2.77291555e-02, 6.26821117e-03,-4.97202612e-02, 8.30438361e-02,
  -1.46428660e-01,-9.56563875e-02,-8.69820192e-02,-1.44941404e-01,
   3.24262381e-02,-7.54702687e-02, 1.67773012e-02, 8.01622719e-02,
  -3.19214649e-02,-1.15724709e-02, 4.89845797e-02, 2.66018808e-02,
  -1.35191903e-01,-4.76535894e-02,-1.06228895e-01, 2.64717266e-02,
  -4.94748130e-02,-3.13988328e-02,-6.97629675e-02,-9.39984620e-02,
  -4.65853028e-02, 5.81473205e-03,-1.27590552e-01,-5.93335032e-02,
   5.76213328e-03, 2.14661900e-02,-8.76018777e-02, 4.83579002e-02,
  -2.81485878e-02, 4.90131695e-03,-2.18693018e-02,-1.16520971e-01,
  -5.75716645e-02,-5.98875098e-02,-1.14476238e-03,-1.23132206e-01,
   4.02787216e-02,-1.13370478e-01, 1.70839522e-02, 2.67160852e-02,
  -9.99120716e-03,-3.69740687e-02, 1.12569453e-02,-5.25272563e-02},
 {-4.83567029e-01,-8.12932327e-02,-3.22653465e-02,-5.77317953e-01,
   2.40726843e-01, 8.35381895e-02, 2.55791950e+00, 6.39255270e-02,
   3.38370824e+00, 1.25414625e-01,-1.07007885e+00,-1.74497053e-01,
  -9.92386699e-01, 7.96056032e-01,-2.18923378e+00,-4.51206360e+01,
   1.42141595e-01,-5.64340711e-01, 3.05421859e-01, 1.45092285e+00,
   2.31049323e+00, 8.41045380e+00, 2.29541779e+00, 1.88133106e-01,
   1.00300699e-01, 4.50323224e-01,-1.53936343e-02, 1.07978535e+00,
   1.09971929e+00,-3.55942245e-03, 9.85231280e-01, 1.44565672e-01,
  -1.86874971e-01,-1.72147378e-01,-1.07477341e+01,-1.87908322e-01,
   3.57896161e+00,-2.27702767e-01, 9.09713554e+00,-4.83843613e+00,
   6.80041969e-01,-9.07876790e-02, 4.18608963e-01,-9.50829220e+00,
  -3.03666741e-01, 1.12868273e+00, 1.02131747e-01,-2.16506183e-01,
   8.05779040e-01, 1.48886710e-01,-1.68107167e-01,-6.74338007e+00,
  -1.91453457e+01, 4.65636790e-01, 8.88803527e-02, 1.20780897e+00,
  -5.15185356e-01,-3.75973165e-01, 6.48232400e-01, 4.07923579e-01,
  -2.40779543e+00, 3.73339152e+00, 6.96216524e-01, 2.58252710e-01,
  -2.79795551e+00,-6.67009783e+00, 7.45564997e-01,-5.07851020e-02,
  -5.55355027e-02, 3.41091466e+00,-1.57652617e-01,-1.01355934e+00,
   1.62358120e-01,-6.98210096e+00,-1.33287692e+00,-2.41311237e-01,
  -4.76637936e+00,-5.60379124e+00, 3.70150149e-01,-1.00664067e+00,
  -8.15711677e-01,-1.07572186e+00,-3.13741922e-01, 9.56884956e+00,
  -2.31151551e-01,-1.59486800e-01, 4.73053493e-02, 1.69899807e+01,
  -2.73384392e-01, 1.67562056e+00, 3.83541942e-01, 7.54859507e-01,
  -3.71224403e+00,-1.88426709e+00,-1.21295631e+00,-5.02543688e-01,
  -1.19103990e-01,-8.69589329e+00,-3.88045979e+00, 1.73881984e+00,
   1.60058867e-02,-3.29758167e-01, 1.69904083e-01,-3.42619956e-01,
  -1.14466834e+00,-4.11695480e-01, 1.07904375e-01,-6.29865006e-02,
   7.25788251e-02,-2.22136289e-01, 2.80276924e-01, 7.51504153e-02,
   2.32303038e-01,-4.06850725e-02,-3.26324627e-02,-2.39659727e-01,
  -6.31085783e-02,-8.54425132e-01, 7.20862722e+00,-3.61742944e-01,
   6.33152187e-01,-6.57162189e-01,-1.56412888e-02, 2.62134600e+00,
   3.64000708e-01, 1.11911461e-01, 4.81246859e-01,-1.73636749e-01},
 {-3.87910509e+00, 4.95920092e-01, 1.27909231e+00,-5.30266666e+00,
   6.05283260e-01, 6.71578825e-01, 6.59610033e-02,-4.43604965e+01,
   1.31503952e+00,-2.23801017e+00,-1.13363111e+00, 1.21646333e+00,
  -7.34211728e-02,-7.01352417e-01, 3.29257011e+00,-1.32039464e+00,
  -1.78866601e+00, 1.18640780e+00,-5.87600470e+00, 3.33052605e-01,
  -1.15116870e+00,-2.52999496e+00, 4.96469587e-01, 5.00354655e-02,
  -1.57336211e+00, 1.64862394e+00,-1.14817154e+00,-1.94396973e-02,
  -3.54511404e+00,-2.16343498e+00, 2.49192417e-01,-1.38803393e-01,
  -1.36828184e+00,-3.42570901e-01, 4.12455022e-01,-3.12817305e-01,
  -9.67327893e-01, 1.12256609e-01, 9.81359243e-01,-4.58949685e-01,
  -2.82615572e-01,-2.29460382e+00,-1.08665156e+00, 2.99980760e-01,
  -3.98309970e+00,-4.92160559e-01, 7.57001817e-01,-6.33687258e-01,
   1.35968864e+00,-4.16093946e-01, 1.04396605e+00,-1.41618952e-01,
   1.82206780e-01, 6.80542946e+00, 2.86759305e+00, 1.30457771e+00,
  -6.69186115e-01, 2.38150120e-01,-2.82705569e+00, 5.68803191e-01,
  -1.65845275e+00, 3.28617901e-01, 1.73483539e+00, 1.62236500e+00,
  -1.16812535e-01,-6.28615975e-01, 3.90501738e-01,-4.88410902e+00,
  -6.31591201e-01, 9.58550155e-01, 2.74550748e+00, 2.51664996e+00,
  -1.83079472e+01, 1.37467992e+00,-1.11659563e+00, 8.13375592e-01,
  -4.38755453e-02, 6.59982324e-01,-4.41642904e+00, 8.20832312e-01,
  -1.05394506e+00,-3.88653427e-01, 2.04005271e-01, 2.28472757e+00,
   3.65907097e+00, 2.17507601e+00,-2.90706873e-01,-4.02065784e-01,
   3.68340969e-01, 1.69344223e+00,-1.92210054e+00,-9.14360523e+00,
   2.33428121e+00,-3.65855026e+00, 2.74838972e+00,-3.47386599e+00,
  -9.63817835e-01,-3.51692557e+00,-3.86608064e-01, 9.95850921e-01,
   1.14332187e+00,-2.17669544e+01,-5.70620346e+00,-9.79073107e-01,
   1.60339880e+00, 1.21827793e+00,-5.62973213e+00, 2.88914132e+00,
  -9.67278671e+00,-3.42788815e-01,-3.86589706e-01,-1.24668822e-01,
  -4.45936918e+00, 1.77920759e+00, 8.47435760e+00, 4.94574755e-01,
  -7.83180189e+00,-7.38239169e-01, 1.44176555e+00,-1.43326683e+01,
   7.78643787e-01,-1.31420457e+00, 1.40057755e+00,-2.33787870e+00,
   4.87881899e+00,-7.86915839e-01,-1.30152568e-01, 3.38931888e-01},
 {-2.40863419e+00,-5.11921358e+00,-1.01369963e+01, 2.17714876e-01,
  -1.65846980e+00,-8.98144245e-01, 3.00811601e+00, 4.74462360e-01,
  -1.89043272e+00,-1.16535115e+00,-4.25119810e-02,-2.81083941e-01,
   2.05538297e+00,-7.92604399e+00,-6.27715731e+00,-2.27056909e+00,
   3.18429923e+00,-5.71898651e+00, 1.67600358e+00, 1.83571291e+00,
   3.12362933e+00,-7.83766842e+00,-1.04111843e-01,-5.25871873e-01,
   1.40324390e+00,-7.16308773e-01, 7.46378660e-01,-6.26739502e-01,
   9.58414733e-01,-2.30386591e+00, 2.40408206e+00, 1.25817275e+00,
   3.27295685e+00,-3.17546427e-01,-1.40465963e+00,-7.30075538e-01,
  -2.50474858e+00,-2.41602492e+00,-2.08321166e+00, 7.53981209e+00,
  -2.64963126e+00, 8.89642239e+00,-3.77556205e+00,-1.79650402e+01,
  -3.28644085e+00,-2.75182438e+00,-5.62748075e-01,-9.14881825e-01,
   2.70345831e+00,-1.42015100e+00,-1.65678668e+00,-1.89805472e+00,
   8.84529972e+00, 3.77298021e+00,-4.98746109e+00, 3.38391876e+00,
   4.25664932e-01, 9.33844507e-01, 7.20864773e-01, 3.49520296e-01,
  -2.45755458e+00,-6.02216864e+00,-6.47313237e-01,-2.75751853e+00,
  -4.03324032e+00,-6.29071760e+00, 2.67590493e-01,-2.50015050e-01,
   2.26310372e+00, 2.16068164e-01,-3.47108650e+00, 3.78909516e+00,
   1.01678228e+00, 3.14925104e-01,-2.41255069e+00,-7.63209009e+00,
   7.23438203e-01, 2.36885071e+00, 5.11443913e-01,-2.89043021e+00,
   2.81827497e+00,-6.00036919e-01,-3.66965461e+00, 1.04204969e+01,
   5.55163443e-01, 7.92213154e+00,-3.84739470e+00, 3.01612616e+00,
   2.76053834e+00,-2.95075488e+00,-1.92981684e+00,-1.38668260e-02,
  -3.29057121e+00,-1.84452546e+00,-3.20029259e+00,-2.02460098e+00,
  -8.27973783e-02, 4.24884558e+00, 8.59869897e-01, 2.27534962e+00,
   2.48517251e+00,-2.34487340e-01, 6.33647382e-01, 1.88284338e-01,
  -9.09600914e-01, 3.61271530e-01,-2.64443547e-01, 1.24796784e+00,
  -7.61667848e-01,-1.75392225e-01, 7.68648803e-01, 2.10931158e+00,
   6.61615705e+00,-1.04522181e+00, 1.35018837e+00,-1.24542418e+01,
  -2.25981101e-01, 6.23245287e+00, 3.99462986e+00, 8.41838658e-01,
  -1.30391359e+00, 6.78424883e+00, 6.28112888e+00, 3.49732071e-01,
  -1.25740778e+00,-3.36636990e-01, 2.49882269e+00,-6.27674580e-01},
 {-3.98690075e-01, 1.86813533e+00, 4.89398539e-02,-3.53899747e-02,
   3.24621461e-02, 1.27797481e-02, 1.60577524e+00,-8.37954581e-02,
   6.07462674e-02,-2.41572097e-01, 8.92294496e-02,-8.80876780e-02,
  -5.32814205e-01,-4.77264822e-02,-2.95911670e-01,-1.93906963e+00,
   3.15413661e-02,-1.04312278e-01, 1.11694388e-01, 5.87740429e-02,
  -6.36711866e-02,-2.97719151e-01, 1.23953116e+00, 1.25765670e-02,
  -7.42074028e-02,-7.10857958e-02,-9.01756343e-04, 1.99193907e+00,
  -1.26072794e-01,-1.02441460e-02, 8.95170122e-02,-1.25284687e-01,
  -2.31391668e-01,-2.12887465e-03,-8.41702163e-01, 1.36297885e-02,
  -5.72317354e-02, 1.01499055e-02,-3.41677606e-01, 1.02958584e+00,
  -7.74849832e-01,-8.23597535e-02, 2.18890920e-01, 4.60483693e-02,
   1.46265840e-02,-1.00615358e+00, 4.18056883e-02,-1.12795774e-02,
   2.28126184e-04, 4.81991708e-01,-9.66062832e+00, 2.17149794e-01,
   9.22873306e+00, 5.36951385e-02, 2.20310152e-01, 9.18658525e-02,
  -5.27818277e-02, 1.11206138e+00, 1.69737618e-02,-4.44522910e-02,
   3.29937041e-02,-2.18805170e+00, 1.51690349e-01,-2.66227163e-02,
  -3.32583725e-01, 6.67316914e-01,-6.69178590e-02, 8.67422596e-02,
   4.30558026e-01, 1.22966647e+00, 9.72139895e-01,-3.01606417e-01,
   3.45313624e-02,-1.28717911e+00,-1.23698145e-01,-3.79046619e-01,
  -7.56643832e-01,-1.15398645e+00, 1.08198382e-01, 1.08659096e-01,
   3.73998322e-02,-5.20491749e-02,-5.30698560e-02,-6.68514892e-02,
   6.87508332e-03, 1.49196398e-03, 3.05516962e-02,-1.59780860e+00,
  -1.43935345e-02,-3.24371308e-01, 2.28875215e-04,-9.46319699e-02,
  -2.78516316e+00, 8.72842491e-01,-2.71829009e-01, 8.35418552e-02,
  -5.81852734e-01, 7.83867788e+00,-1.96682394e-01,-6.26665926e+00,
  -9.02244879e-04,-2.53066979e-02,-3.11371326e-01, 1.18046868e+00,
  -9.07091498e-02, 2.46401783e-02,-6.80168043e-04,-8.07859525e-02,
  -1.12853283e-02, 2.08393149e-02, 3.73250432e-02, 1.20540008e-01,
  -6.62171170e-02,-3.14259678e-02, 3.51710431e-02,-1.81650877e-01,
   5.75605854e-02, 2.89908975e-01, 1.90834212e+00, 1.14887200e-01,
  -3.80379140e-01, 1.32196712e+00, 1.72875300e-02, 1.35983989e-01,
   3.24120075e-01, 8.40083808e-02,-1.62689269e-01, 6.70134723e-02},
 { 5.29362857e-01,-1.91794574e+00,-3.31093878e-01, 6.47463799e-01,
  -5.18515229e-01,-2.27839097e-01, 1.34431922e+00, 7.93950111e-02,
  -2.60736537e+00,-5.83345652e-01, 6.92026079e-01,-8.87094624e-03,
  -7.92216587e+00,-9.44416761e-01, 4.14687681e+00,-8.31272602e+00,
   1.47153288e-01,-9.03312683e-01, 3.83820273e-02,-8.06171894e-02,
   1.05770707e-01, 3.25770116e+00, 4.45043182e+00,-3.22558731e-01,
  -6.47381600e-03,-9.65450883e-01,-3.02078933e-01, 4.65459913e-01,
  -8.42899621e-01,-1.06974617e-01, 3.30989718e-01, 1.68212485e+00,
  -1.92782736e+00, 5.37598915e-02, 1.80988979e+00, 3.96811157e-01,
   9.92126703e-01, 7.19348118e-02,-3.35690165e+00, 1.41384048e+01,
  -1.50363231e+00, 3.50000322e-01, 1.41462219e+00,-8.90125465e+00,
   3.53512429e-02,-5.69994164e+00,-3.51309240e-01,-9.31740776e-02,
  -1.59125400e+00, 2.72593689e+00,-5.64217615e+00,-1.86085224e-01,
   9.33359241e+00,-1.83662519e-01,-6.15597427e-01,-1.87949336e+00,
  -3.85752469e-01,-1.40673280e+00, 2.31771278e+00, 1.49068370e-01,
  -3.04783463e-01,-4.95665884e+00, 7.70660698e-01, 2.16148034e-01,
  -2.84744382e-01, 1.76296151e+00,-6.40773952e-01, 1.52182663e-02,
  -1.80646136e-01, 1.26942480e+00,-1.25148737e+00, 8.93836021e-01,
  -2.45840624e-01, 2.38186932e+00, 1.70275271e-02, 3.07624876e-01,
  -2.78535724e+00, 1.19648504e+00,-4.51204747e-01, 1.08844030e+00,
   1.70963097e+00, 1.07483220e+00, 2.40721807e-01,-1.56972146e+00,
   1.27948716e-01,-1.08677256e+00,-2.07390517e-01,-3.63454247e+01,
  -2.16758460e-01, 5.68176098e-02,-1.29385710e+00,-5.65993369e-01,
  -1.00742893e+01,-1.56367719e+00,-3.92653011e-02, 4.82206345e-01,
  -3.62035036e-01, 6.22169447e+00, 1.64304340e+00,-3.46494436e-01,
   2.54373550e-01, 5.87508917e-01,-4.19514596e-01, 7.15241432e+00,
   3.68758178e+00, 1.65063190e+00, 7.27348998e-02, 5.30597307e-02,
  -1.83150202e-01, 3.20748955e-01,-5.53840756e-01, 1.58694565e+00,
  -3.68459493e-01, 9.51724499e-02,-2.12687299e-01,-7.75150001e-01,
  -7.36179128e-02, 1.99925578e+00, 1.76758099e+01,-1.38945162e-01,
  -7.97407269e-01,-1.49021301e+01, 8.72676015e-01,-1.62535262e+00,
  -2.34213614e+00, 5.63630819e-01,-1.05524290e+00, 7.72629380e-01},
 { 2.09671712e+00,-1.69595946e-02, 1.17918882e+01,-4.00304385e-02,
  -5.73535077e-03,-3.23924750e-01, 1.45632729e-01,-1.00782447e-01,
   8.32233299e-03,-5.01278900e-02,-5.14447987e-02,-2.63393068e+00,
  -8.84410217e-02,-1.10407639e-03, 4.12604541e-01,-2.69231296e+00,
  -9.98515248e-01,-1.44870458e-02, 1.80308235e+00,-4.78113182e-02,
   1.31222950e-02,-1.87726095e-02, 2.01598648e-02, 4.83537525e-01,
  -2.62922496e-01, 4.03943777e+00,-3.53653878e-02, 6.36039898e-02,
   8.23917675e+00,-7.20244360e+00,-1.35238748e-02,-1.88434660e-01,
   3.65762897e-02,-3.44367921e-02, 1.90932434e-02, 5.83867840e-02,
  -1.10836543e-01, 2.25715733e+00, 7.74626210e-02,-3.76629760e-03,
   1.32908113e-03, 5.61496925e+00, 3.07118706e-02,-5.75986644e-03,
  -5.84020138e-01,-3.26799788e-02,-1.72289810e+01, 3.13154101e+00,
   3.88450734e-02, 2.07708944e-02,-2.31720973e-02,-7.85543546e-02,
  -2.25019908e+00,-2.10795784e+00, 2.41560030e+00,-2.72460043e-01,
   7.72329629e-04,-2.87634488e-02,-1.98371425e-01,-1.41343470e+01,
  -5.98760732e-02, 2.94096060e-02,-1.22229457e-01, 1.67363014e+01,
  -7.50734901e+00, 1.50565922e-01, 1.58662009e+00,-1.26369321e+00,
  -1.59967959e+00, 2.85562253e+00,-1.20143986e+00,-2.09423828e+01,
   1.01804569e-01,-2.25053859e+00,-2.09157601e-01, 9.92942810e-01,
  -1.70569681e-02,-2.90538538e-02,-7.27168274e+00,-2.57285405e-02,
  -3.62436734e-02, 1.16194464e-01, 3.86481667e+00,-7.20233247e-02,
   1.24899590e+00, 2.58192047e-02,-9.72147083e+00,-9.41983312e-02,
  -3.49592590e+00,-4.42461446e-02, 4.19555157e-02,-3.70207131e-02,
  -2.51083851e+00,-1.41292465e+00, 2.21070361e+00, 1.20327786e-01,
  -1.61842155e+01, 2.42682600e+00,-4.63118345e-01,-1.33758098e-01,
  -2.60572338e+00, 6.17963560e-02,-9.98346135e-02, 9.34892371e-02,
   1.73984356e-02, 2.06107460e-02,-1.97729290e-01,-3.64182025e-01,
   5.86154222e-01,-1.42026091e+00,-2.01448165e-02, 3.29511642e-01,
  -2.47883186e+01,-9.20571610e-02, 4.79922438e+00, 1.30880922e-01,
  -1.71586823e+00,-8.69026840e-01,-4.63731661e-02,-2.01544304e+01,
  -2.96622440e-02, 3.15732026e+00, 1.52304322e-02, 1.11347334e-02,
   1.91594690e-01,-5.92748709e-02,-8.69152546e-02, 2.45699417e-02},
 {-3.78993058e+00, 1.14561951e+00, 2.75340247e+00,-7.99506140e+00,
   2.03186941e+00, 1.91650462e+00, 5.06691575e-01,-2.34363422e+01,
   1.79876184e+00,-2.04758763e+00,-2.24086449e-01,-4.49506372e-01,
  -1.27788556e+00,-2.69484663e+00,-2.17195606e+00, 2.46409369e+00,
   2.79626060e+00,-1.36164093e+00,-1.31556740e+01,-1.72399366e+00,
  -2.09238911e+00, 1.91558108e-01, 1.91249919e+00,-1.12470162e+00,
  -1.48340237e+00, 1.70360446e+00, 1.20891500e+00, 3.84371787e-01,
   4.79954290e+00, 5.89950681e-01,-8.99952173e-01, 1.17170763e+00,
  -1.25412869e+00, 8.26649010e-01, 8.51398468e-01,-8.16727355e-02,
   4.31290567e-01,-1.82468891e+00, 5.30490935e-01,-4.37318683e-01,
   6.40721738e-01,-1.14029484e+01, 2.09173597e-02,-9.52224314e-01,
  -8.75254989e-01,-2.49906793e-01,-1.21796620e+00, 2.09719968e+00,
  -8.02700996e-01, 2.41732791e-01, 1.70256779e-01,-9.38994586e-01,
   1.37443662e+00, 2.24350095e+00, 3.17395854e+00, 1.84517837e+00,
   1.17797458e+00, 1.49273083e-01,-1.22955585e+00,-3.91594708e-01,
   8.92181575e-01, 1.74022996e+00, 5.22590280e-01,-1.30684996e+00,
   4.87748146e+00, 8.34528863e-01,-3.43873191e+00, 1.84795761e+00,
   5.41957676e-01, 4.99242115e+00, 1.13997257e+00,-6.12277651e+00,
  -4.43312025e+00, 1.20722542e+01, 1.20773755e-01,-1.08747113e+00,
  -2.76853293e-01,-2.47288167e-01,-4.19576406e+00,-3.29535097e-01,
   1.78247166e+00, 9.34040487e-01,-8.54417503e-01,-5.40517712e+00,
  -3.28444314e+00, 3.16705036e+00,-1.06998622e+00, 4.39588577e-01,
  -2.81191139e+01,-1.27626967e+00, 3.41566801e-01, 1.90580517e-01,
   1.46115851e+00,-6.12886429e+00, 1.62406483e+01, 8.57158974e-02,
   1.68955517e+00, 1.54104376e+00, 5.50527191e+00,-8.07323456e-02,
  -1.11730099e+00,-3.95621848e+00, 1.56292355e+00,-7.89204419e-01,
   1.34003890e+00,-2.63527489e+00,-7.73237514e+00, 2.60978007e+00,
   3.32173347e+00, 2.17007375e+00,-2.07588458e+00,-7.28049994e-01,
  -2.03680725e+01, 1.66789031e+00, 3.09271169e+00, 2.19296098e-01,
  -5.89008617e+00, 3.64163184e+00, 1.96400478e-01, 7.53830957e+00,
  -3.63080215e+00, 3.77271461e+00,-2.31250429e+00, 1.29177320e+00,
  -2.70840347e-01, 5.54147303e-01, 3.09477299e-01,-3.23899698e+00},
 {-2.18109083e+00,-2.27962364e-03,-1.87840443e+01,-3.12708706e-01,
  -2.20733285e-02, 2.52599746e-01, 7.56579563e-02, 3.29726040e-01,
  -2.80826166e-02, 9.20233577e-02, 5.14334328e-02, 3.31319022e+00,
  -2.27088779e-02, 3.93425226e-02,-3.37617010e-01, 1.49133444e+00,
   8.70529413e-01,-1.01857580e-01,-3.76410395e-01, 1.61144976e-02,
   1.28774401e-02, 4.06592861e-02,-1.37055609e-02, 3.34569991e-01,
   1.78179085e-01,-1.69218957e-01, 1.78368893e-02,-5.88607118e-02,
   1.31053567e+00,-5.04634714e+00, 1.92738883e-03, 3.02351415e-01,
  -8.51314962e-02,-3.08417119e-02,-8.05814750e-03,-6.07721172e-02,
   1.45133734e-02,-1.17210233e+00, 2.70936475e-03, 1.12468209e-02,
  -3.70191522e-02,-1.21385031e+01, 2.47055180e-02, 9.05038416e-03,
  -1.34215760e+00, 6.23316802e-02, 5.02066755e+00,-4.88353312e-01,
  -4.30651382e-02,-2.79374700e-03,-3.44524160e-02, 1.91773511e-02,
   2.52258778e-01, 1.59890270e+00,-1.69765258e+00, 1.16099335e-01,
  -3.52084562e-02, 7.19841346e-02, 1.79291323e-01, 6.01110280e-01,
   1.04655296e-01,-5.25358245e-02, 7.40279555e-02,-4.40748900e-01,
   1.18871603e+01, 4.09198143e-02, 3.04775387e-02,-3.81938934e-01,
  -7.41796970e+00, 5.02868816e-02, 3.57250381e+00, 9.71696758e+00,
  -7.73594133e-04, 5.20495415e+00, 1.32176757e-01,-1.25935402e+01,
   8.02637488e-02,-3.09107564e-02,-2.23139334e+00,-2.84246746e-02,
   1.52009651e-02,-7.14143142e-02,-1.24866199e+00, 5.29063046e-02,
   5.62883794e-01,-5.80253731e-03,-2.11302204e+01, 1.76134557e-01,
   2.69052291e+00, 5.83429709e-02, 3.93776707e-02, 3.05036921e-03,
   1.31627083e+00,-5.43112874e-01,-6.45044518e+00,-1.23680964e-01,
  -1.14094667e-01,-4.90594096e-03, 2.61372900e+00, 4.24341820e-02,
   1.62975085e+00, 9.39421728e-03, 3.88944782e-02, 3.60112190e-02,
  -2.09306940e-01, 6.05803030e-03, 1.15779638e-01, 3.44746083e-01,
   4.22671139e-02, 4.83759928e+00,-2.90483776e-02,-5.14074755e+00,
  -5.09154272e+00, 1.72249805e-02,-2.48609734e+00,-9.42253023e-02,
   3.46803606e-01, 8.31280708e-01,-5.41904233e-02,-1.38327112e+01,
   3.22775468e-02, 1.30479908e+00, 5.92269488e-02,-1.16293691e-02,
  -1.89052507e-01, 6.41393065e-02, 5.59483888e-03,-1.42760193e-02},
 { 8.97065997e-01, 7.77697742e-01, 3.37978745e+00,-5.61964929e-01,
   2.85680681e-01,-1.30895868e-01, 1.00879884e+00, 7.72976160e-01,
  -1.23419523e+00,-5.22898436e+00,-2.30370259e+00,-9.91095448e+00,
   5.70354521e-01, 1.61907578e+00, 3.75139356e+00,-3.64336759e-01,
   1.38424248e-01, 1.03281641e+00, 1.53052318e+00, 1.02443266e+00,
  -3.22159529e+00,-5.81421566e+00,-1.34425116e+00, 4.21039581e+00,
  -1.66658247e+00,-1.06695452e+01,-5.21066487e-01,-3.64121906e-02,
   2.37775731e+00,-4.93853521e+00,-2.56181169e+00,-2.95360470e+00,
  -1.29658520e+00, 1.24146819e+00, 3.52370948e-01, 1.20054567e+00,
  -3.23012996e+00,-1.48109818e+00, 4.49993104e-01, 4.01967406e-01,
  -8.44542623e-01, 1.27605483e-01, 1.80988884e+00,-3.06718498e-01,
   3.49799097e-01, 1.16469479e+00,-1.03779325e+01, 2.27382588e+00,
   8.53504896e-01, 1.15598786e+00,-9.73695517e-01,-3.00418329e+00,
  -9.91620868e-03, 3.39237499e+00,-2.22940040e+00, 1.59036314e+00,
   1.99700236e+00, 2.11320613e-02,-2.15564942e+00,-1.25917065e+00,
  -9.18437004e-01,-9.58607256e-01,-8.46738875e-01,-6.09193563e+00,
   6.45574284e+00,-5.05498238e-03, 8.02768394e-02, 1.38665938e+00,
   1.29714191e+00, 3.24359918e+00,-3.05071378e+00, 4.70936155e+00,
  -5.56237221e-01,-1.06872523e+00,-1.96061695e+00,-2.90940046e+00,
   3.43076020e-01,-4.38341379e-01,-1.34378529e+00, 7.07179785e-01,
  -1.67021835e+00, 1.07899225e+00,-2.47969702e-02,-1.20768034e+00,
   2.20369816e+00,-1.87705398e-01,-1.66811049e+00, 2.60233819e-01,
   2.52571011e+00, 1.56866086e+00, 1.32075143e+00, 6.63639784e-01,
   2.24283266e+00, 1.44044623e-01, 1.08269749e+01,-4.76339728e-01,
   3.12723804e+00, 9.36014175e-01, 3.27337742e+00,-1.60735726e+00,
   1.66275442e+00, 8.40576231e-01, 5.81804228e+00, 9.04697657e-01,
  -2.16535473e+00, 2.48229241e+00,-4.60789531e-01, 4.05702323e-01,
   1.95283842e+00,-1.07734108e+00,-2.20628962e-01, 3.62017322e+00,
   5.37824631e-02, 8.15253675e-01, 1.99205327e+00, 4.00525808e-01,
   6.08148932e-01,-5.58748198e+00, 1.56468526e-01, 3.40313405e-01,
   1.27741516e+00,-2.39588523e+00,-8.41264606e-01, 8.25893760e-01,
   3.14246678e+00,-1.16193867e+00, 2.78439581e-01, 1.16445696e+00},
 { 2.88773751e+00,-9.23720074e+00, 3.43671739e-01,-3.13579416e+00,
  -1.43449306e+00, 1.06997895e+00, 2.09300375e+00,-1.41349232e+00,
  -1.08143485e+00, 5.88556480e+00, 7.79672503e-01, 7.34061003e-01,
  -7.85647452e-01, 3.75539112e+00,-4.62267303e+00,-2.74949455e+00,
  -9.03113127e-01,-5.40945673e+00,-2.48543525e+00, 1.53797698e+00,
   3.97146487e+00, 1.54585004e+00, 1.13964117e+00, 1.10900998e+00,
  -1.55573654e+00,-3.55759233e-01, 2.29254186e-01,-1.39106512e-01,
   3.93678474e+00, 8.52725923e-01, 1.49698150e+00, 1.42612353e-01,
  -1.76288223e+01,-2.79993749e+00,-5.37163496e+00, 2.18810987e+00,
   2.83964920e+00, 1.73343384e+00, 1.52992040e-01,-1.89585519e+00,
   4.45605159e-01,-5.27922440e+00, 2.54841113e+00,-1.69398749e+00,
   1.45605993e+00,-1.11493081e-01, 1.16032910e+00, 2.68452668e+00,
  -1.99058735e+00, 2.10593438e+00,-3.72953224e+00,-1.28473651e+00,
   2.08356690e+00,-1.27909243e+00,-2.84899950e-01,-6.01671994e-01,
  -6.88850582e-02, 1.27676085e-01, 3.07983541e+00, 1.72416866e+00,
  -4.90988910e-01,-2.70800614e+00,-2.47834778e+00, 8.98139358e-01,
  -2.36164880e+00, 4.52528834e-01,-2.68779182e+00,-4.79734278e+00,
  -2.72534132e+00,-8.41691399e+00,-2.24062371e+00,-5.56073380e+00,
  -1.22830749e+00, 9.80908871e-01, 2.04400086e+00, 2.39063764e+00,
  -4.22055095e-01,-8.42978060e-01, 3.99363637e-01,-2.13330078e+00,
  -4.56013888e-01,-1.29299378e+00,-8.38632345e-01, 4.15004826e+00,
   4.60577309e-01,-7.92060280e+00, 2.80765152e+00,-6.50488615e-01,
   2.28716707e+00,-4.31605816e+00, 5.61809587e+00, 2.81749725e-01,
  -6.58450842e-01,-5.40207386e+00, 2.54276776e+00,-3.56018925e+00,
  -1.21529865e+00,-8.82573605e+00, 7.73418248e-01,-4.63938713e-01,
   6.00119233e-01, 1.18716669e+00,-2.93297815e+00,-2.33561695e-01,
   4.93412495e+00, 2.32108951e+00,-2.52298617e+00,-6.53470039e-01,
   7.22114027e-01, 1.32577229e+00,-3.11541724e+00,-1.46365213e+00,
   8.35532093e+00,-1.03386891e+00,-6.82298124e-01,-2.07409218e-01,
   3.61535549e+00,-5.82004428e-01,-1.17444265e+00, 8.39685977e-01,
   9.48107004e-01,-1.01835241e+01,-7.54635668e+00,-7.69557476e+00,
  -3.27308267e-01,-1.10901928e+00,-2.56976247e+00, 4.61401373e-01},
 { 1.40686436e-02, 2.83426829e-02,-7.06763566e-02, 4.31818962e-02,
   1.55548127e-02,-1.09715514e-01,-8.10613036e-02,-3.62613201e-02,
  -3.43175605e-02,-4.70413864e-02, 4.08693068e-02, 7.62264570e-03,
   3.55253220e-02,-2.49557570e-03,-1.05692774e-01, 3.67469676e-02,
  -2.26563159e-02,-8.20244849e-03,-8.77773091e-02, 7.56367110e-03,
  -8.62166807e-02, 3.28421332e-02, 4.71889935e-02,-1.47207007e-02,
   2.58894004e-02, 3.79891209e-02,-1.54572120e-02,-1.31522104e-01,
  -2.91139260e-02, 1.92495733e-02,-4.64325324e-02,-2.91167870e-02,
   1.15716096e-03, 4.01664153e-02, 3.19298804e-02,-1.82765629e-02,
   5.35720494e-03,-3.02011203e-02,-3.70301232e-02,-4.10907492e-02,
   1.70581676e-02, 1.67496111e-02, 5.49016055e-03,-4.91824150e-02,
  -7.37239048e-02,-1.19752109e-01,-6.92901239e-02,-1.12467743e-01,
  -1.10472150e-01,-8.30614865e-02,-5.45789078e-02,-3.44094783e-02,
  -8.93004313e-02, 2.32779421e-02,-1.15794033e-01,-1.94085091e-02,
  -8.51933062e-02,-3.21573764e-02,-8.73492938e-03,-4.62093949e-02,
  -2.45999545e-02,-6.06816672e-02,-4.31764908e-02,-8.10063109e-02,
  -3.68669815e-02,-1.34533465e-01,-6.91353828e-02, 4.49715108e-02,
   1.41961072e-02,-3.21354605e-02,-6.61901385e-03,-4.43006214e-03,
   5.13368705e-03,-8.39200467e-02,-5.32047451e-02,-1.19297415e-01,
  -1.09470695e-01,-4.32315245e-02,-9.41133872e-02, 2.26298217e-02,
   1.86512396e-02,-6.82003498e-02,-3.57760973e-02, 8.65863264e-03,
  -7.83398598e-02,-7.68783763e-02,-7.01511949e-02,-1.17742456e-01,
  -3.94061431e-02,-1.20085478e-01,-1.07148595e-01,-5.25649190e-02,
   2.14131158e-02,-1.39134794e-01, 6.31471127e-02,-1.39101418e-02,
  -1.19786777e-01, 7.61393681e-02,-3.24872509e-02,-1.11462854e-01,
  -4.11871448e-02, 8.61790311e-03,-1.46216199e-01,-4.24511470e-02,
  -2.75040288e-02,-9.38810781e-02,-3.33392508e-02,-7.96443447e-02,
  -7.45960623e-02,-1.49221057e-02,-1.03383884e-01,-4.01780270e-02,
   1.24922674e-02,-8.05958435e-02,-2.81445291e-02,-9.52762887e-02,
   4.50364500e-02,-2.18588905e-03,-5.41716814e-02,-1.01889856e-01,
  -2.00284030e-02, 2.32298560e-02,-8.71881768e-02,-5.68850823e-02,
  -1.25086710e-01,-1.23748250e-01, 2.72859208e-04,-3.23795062e-03},
 { 2.71521020e+00,-2.24133801e+00,-3.28589296e+00, 5.09238541e-01,
  -1.70889008e+00,-1.77322656e-01, 3.19431567e+00, 1.22326839e+00,
  -1.57473274e-02,-3.46992922e+00,-3.04581308e+00,-1.17794538e+00,
  -2.76666999e-01, 1.27306771e+00,-1.48925133e+01, 4.95911427e-02,
   2.30213904e+00, 1.08226645e+00, 1.92849088e+00,-8.73393834e-01,
  -3.36617804e+00,-3.44693375e+00, 1.94682255e-01,-4.57548499e-01,
  -1.82817757e+00, 1.32911444e+00,-1.62047714e-01,-1.94854066e-01,
   6.64451599e+00,-1.52954054e+00, 6.14528060e-01, 4.26966369e-01,
   1.37363362e+00,-1.98696911e+00,-2.03544950e+00, 3.93602228e+00,
  -3.59324384e+00,-1.09058285e+00, 4.88335848e-01,-9.31040168e-01,
  -2.80157894e-01, 2.10702372e+00,-5.45019686e-01,-4.13521481e+00,
  -1.01410568e+00, 5.43078519e-02,-3.62261581e+00,-8.63760650e-01,
   5.13573217e+00, 2.40519619e+00, 2.06485353e-02, 1.17027080e+00,
   1.73924947e+00, 2.53462243e+00,-3.70492101e+00, 2.60437250e+00,
  -6.98219657e-01,-7.42836833e-01,-3.59295821e+00,-7.81777382e-01,
   3.78765774e+00,-1.64467788e+00, 3.83219957e+00,-1.80244076e+00,
   1.08649004e+00, 3.95649767e+00,-1.19461846e+00, 1.51804253e-01,
   3.98459339e+00, 1.79345775e+00,-3.06647182e+00, 7.95332491e-01,
  -3.63911867e-01, 1.32913077e+00, 1.95199871e+00, 4.08524245e-01,
   3.50387335e-01, 9.69233692e-01,-1.08439851e+00, 9.84975398e-01,
  -4.13319921e+00,-3.26911211e+00,-1.55835438e+00, 4.90294981e+00,
   1.89994860e+00,-1.82536449e-02,-2.50570416e+00,-1.73930454e+00,
   1.10333002e+00,-7.10628319e+00,-4.87527895e+00,-6.59410059e-01,
   1.74599016e+00,-1.34030640e-01,-7.42950630e+00, 2.92016101e+00,
   2.23189354e+00,-1.94897819e+00,-2.41974306e+00,-1.56304896e+00,
   2.48113775e+00,-3.03009093e-01,-1.10639107e+00,-2.16522193e+00,
   3.48453641e+00,-6.74531102e-01, 5.76459654e-02, 1.26489377e+00,
  -1.84413683e+00,-8.90754342e-01,-1.19458461e+00, 1.77202415e+00,
   3.06837058e+00, 1.55654776e+00, 2.74704069e-01, 2.16177177e+00,
   1.90496612e+00, 1.65348840e+00,-4.25366259e+00,-1.07800925e+00,
   9.30785084e+00, 7.21234798e+00,-3.50704360e+00,-3.59693718e+00,
  -5.08822775e+00, 7.01658428e-01,-6.14816475e+00,-1.42018366e+01},
 { 5.71601391e-01, 1.55339241e+00, 6.60656989e-01,-1.99294940e-01,
   4.71264690e-01, 9.62653011e-02,-1.32710624e+00, 4.36240673e-01,
   3.44128942e+00, 9.17949259e-01,-1.19218633e-01, 3.37328799e-02,
   3.28978419e+00, 1.12319148e+00,-1.22284830e+00, 1.23819799e+01,
   1.07597522e-01, 1.22783160e+00,-1.35424092e-01,-4.58932829e+00,
  -4.86983955e-01,-4.82230568e+00,-4.33712912e+00, 8.34196091e-01,
  -2.32391506e-01, 8.16404521e-01, 5.01434468e-02,-5.66659402e-03,
  -3.07350934e-01, 3.81987482e-01,-5.46845257e-01, 1.24586535e+00,
   2.98952699e+00, 4.10019942e-02,-1.46305192e+00, 2.09652513e-01,
  -1.01902664e+00,-7.41199777e-02, 5.37744665e+00,-1.84600296e+01,
  -9.70964804e-02,-5.55071056e-01,-2.21948934e+00,-4.94036961e+00,
   1.05406240e-01, 4.33471441e+00, 2.01072663e-01, 3.09616164e-03,
   2.14866853e+00,-2.23318547e-01, 4.07451820e+00, 4.09757471e+00,
  -7.77948618e+00, 1.07722670e-01, 3.08633093e-02, 2.27570844e+00,
   1.30743176e-01, 1.65317094e+00,-2.59998345e+00, 1.33440331e-01,
  -2.92961121e-01, 2.43573356e+00,-3.40768069e-01, 1.26170680e-01,
   1.03806913e+00,-5.39546013e+00, 3.13866287e-01,-1.08920492e-01,
   1.98534708e-02,-4.40494061e+00, 1.65394228e-02,-5.15076995e-01,
   6.14891686e-02,-2.10802078e+00,-6.05618834e-01, 2.53439999e+00,
   1.87804544e+00,-2.77663445e+00, 3.97188962e-01,-1.32448518e+00,
  -2.08148074e+00,-1.90047920e+00, 9.52106938e-02, 1.72708511e+00,
   1.74909294e-01, 4.76632506e-01, 2.88010120e-01,-2.28438244e+01,
  -5.61498642e-01,-2.43301177e+00, 1.25815189e+00, 8.01339328e-01,
   6.19775200e+00, 1.31929696e+00,-1.73916548e-01,-4.08217013e-01,
   7.51085222e-01,-3.04679413e+01,-1.41140103e+00, 5.58302224e-01,
  -3.85916710e-01,-5.87518752e-01, 1.61671788e-01,-5.21597338e+00,
  -1.38020504e+00,-1.84671485e+00, 1.07260160e-01,-2.48051405e-01,
  -9.30667743e-02,-1.28463760e-01, 2.20514327e-01,-5.12295663e-01,
  -5.61386466e-01,-2.91510165e-01, 2.33252928e-01, 6.60686910e-01,
  -2.47644877e+00,-2.36909223e+00,-1.89484558e+01,-5.55535793e-01,
   1.34143460e+00, 1.77846625e-02,-3.08287084e-01,-6.99851096e-01,
   4.26880074e+00,-3.88496250e-01,-1.88593972e+00,-2.58023000e+00},
 {-8.90445232e+00,-7.78927356e-02, 5.33836894e-02, 1.03927001e-01,
   8.73282135e-01,-9.41783726e-01, 9.18297470e-02,-2.92094564e+00,
   4.46250988e-03, 5.57345822e-02, 2.26649754e-02, 2.50912213e+00,
   1.24510685e-02,-4.80621345e-02,-4.17240232e-01, 2.44723856e-01,
   3.22764301e+00,-1.02956377e-01, 1.26868987e+00, 4.07339334e-02,
   3.04405354e-02,-1.30134568e-01,-6.52995473e-03,-3.78256989e+00,
   1.10454716e-01,-5.69773912e-02, 1.65652251e+00,-5.33909723e-02,
   7.72603825e-02,-3.09433818e-01, 6.49928153e-02, 8.17072392e+00,
  -7.04468926e-03,-4.06309254e-02, 7.02940300e-02,-7.87938386e-03,
   1.01596437e-01,-3.73425812e-01,-2.43934747e-02,-4.11118492e-02,
   6.77337917e-03, 8.17076117e-02,-1.08075682e-02, 4.36362550e-02,
  -1.73218232e-02, 5.74324131e-02, 3.07441782e-02,-5.53817987e+00,
  -4.14690189e-02, 3.53684612e-02,-3.50147896e-02, 1.21030122e-01,
   5.81245422e-01, 2.16258025e+00,-8.55286026e+00, 7.20053196e+00,
   1.62044078e-01, 4.32190262e-02, 1.29355609e-01,-5.70601113e-02,
   1.50865942e-01,-1.83415525e-02, 7.33780712e-02,-7.60661066e-01,
   1.15181617e-01, 1.15700299e-03, 1.94113955e-01,-1.31807208e+00,
  -4.73682690e+00,-3.90564442e-01, 3.88054037e+00, 9.08693731e-01,
   1.29526770e+00, 6.45970345e+00, 3.50998342e-01,-1.25794954e+01,
   6.93215206e-02, 6.03891443e-04, 2.12187314e+00, 6.94865659e-02,
   3.05506047e-02,-8.61148164e-02,-1.95314839e-01, 8.94058645e-02,
   8.44876885e-01,-3.69325206e-02, 1.34957194e-01, 1.16009779e-01,
   1.39850652e+00,-1.47520751e-03,-7.22928420e-02, 1.22055292e+00,
   1.31618619e+00,-1.40819204e+00, 1.43028488e+01,-2.25031033e-01,
  -2.38674331e+00, 1.13745356e+00, 5.53070642e-02, 5.37512042e-02,
   7.18249455e-02, 1.25880492e+00, 5.45289367e-02,-7.59155909e-03,
  -1.41944081e-01,-4.91380580e-02,-1.79778366e+01, 4.70070219e+00,
   2.75226623e-01,-8.23592395e-03,-5.42899258e-02,-3.35437870e+00,
   1.25105631e+00,-3.15531635e+00,-4.43178684e-01,-5.52946329e-02,
  -7.67741026e-03, 2.13973284e+00,-1.27359154e-02, 2.54514313e+00,
  -5.46725020e-02, 3.85669500e-01, 3.20633240e-02, 8.89708400e-02,
  -3.23461533e-01,-1.33179033e+00, 6.08368330e-02, 2.11119410e-02},
 { 1.84742761e+00, 2.32070088e+00,-1.12348743e-01,-2.35539526e-01,
  -7.35699117e-01, 2.62773186e-01, 1.05792832e+00, 2.91836083e-01,
   3.66480017e+00,-2.05355361e-01, 1.92251289e+00, 2.04585075e-01,
  -5.72521389e-01,-1.27063024e+00, 2.03359127e-01, 2.46680069e+00,
   7.04572648e-02,-2.17139888e+00,-2.08603516e-01, 2.58258390e+00,
  -7.64487147e-01,-4.12918568e+00, 4.82464075e-01, 1.19050108e-01,
  -5.62544703e-01, 1.38321495e+00,-1.21017657e-02, 6.73445404e-01,
  -1.45136583e+00, 2.87579954e-01, 1.82457876e+00, 2.09323192e+00,
  -2.90473253e-02, 1.18875794e-01,-2.26194072e+00, 5.31644773e+00,
   1.11779368e+00, 2.75100693e-02,-1.14016140e+00, 2.64782500e+00,
  -3.46781611e+00,-3.81909423e-02, 1.96202362e+00,-2.83902109e-01,
   1.00596204e-01,-2.68401861e+00,-2.82876551e-01, 1.87087134e-01,
  -9.54841852e-01, 1.47760558e+00,-1.98187912e+00,-1.03663826e+00,
   7.97280121e+00, 5.31474113e-01,-1.21388304e+00, 3.38001847e-01,
  -2.27650237e+00, 5.43216133e+00,-6.41395855e+00, 1.30912662e-01,
  -8.27858210e-01,-7.85298252e+00, 3.04151940e+00, 1.81887195e-01,
  -1.30017543e+00,-1.67668402e-01,-1.86124408e+00, 1.44381344e-01,
  -1.52530968e+00,-4.01199627e+00,-7.83160806e-01, 5.95453084e-01,
  -4.33942884e-01,-2.69528294e+00,-1.05748618e+00, 4.59113932e+00,
  -1.83478251e-01,-3.03282309e+00,-1.02496135e+00, 1.72906256e+00,
   1.41635704e+00,-2.67964101e+00, 1.19470477e-01,-8.06672350e-02,
   2.50979722e-01,-5.64713812e+00, 1.71885058e-01,-7.56487560e+00,
  -3.24616641e-01,-2.59685373e+00, 7.46493340e-01,-1.83119082e+00,
  -4.08347756e-01,-5.66181302e-01, 2.31173754e-01, 2.13229966e+00,
   8.03291500e-01, 2.32694387e+00, 9.15036798e-01,-1.37805843e+01,
  -7.63779283e-02, 2.76162148e-01,-1.71334922e+00,-9.81513500e-01,
   3.46926546e+00, 6.64616585e-01,-2.20107228e-01,-2.80869633e-01,
  -3.47556233e-01, 3.22724462e-01,-3.55576098e-01,-1.05969822e+00,
  -9.46154118e-01, 1.58631876e-01, 3.69830132e-02, 6.03848875e-01,
  -7.64312804e-01,-6.48605227e-01,-9.63247585e+00,-3.07487190e-01,
   8.00547886e+00, 6.81172609e+00,-2.93888283e+00, 1.73368335e+00,
  -6.13655615e+00, 1.81608772e+00,-5.48708534e+00,-1.55355082e+01},
 { 3.49321699e+00, 1.29083574e+00,-1.98232174e+01, 2.11266565e+00,
  -2.30395034e-01,-5.11549532e-01, 1.91805863e+00,-2.08095932e+00,
   3.00475240e+00,-1.60440838e+00,-8.16334009e-01, 9.96106029e-01,
  -1.26973879e+00,-3.33534867e-01,-3.07368207e+00,-1.65724671e+00,
   6.76360178e+00, 7.47466743e-01, 1.60389197e+00,-5.26128933e-02,
  -2.58857465e+00,-1.74865544e+00, 2.35266042e+00, 4.95153755e-01,
  -2.14179158e+00, 4.31639045e-01,-3.99294329e+00, 1.51541695e-01,
   7.99393034e+00, 1.45243812e+00, 5.12752056e-01, 2.85823393e+00,
  -1.77781308e+00,-6.26155376e-01, 1.74761224e+00,-3.42500997e+00,
  -2.56960869e+00,-2.77281046e+00, 9.35988367e-01,-8.83382335e-02,
   3.05825084e-01, 1.37464166e+00, 1.27238119e+00, 7.51428723e-01,
  -3.50311112e+00,-3.19604218e-01, 1.66979361e+00,-3.84136057e+00,
  -3.35048819e+00,-1.28872553e-02,-7.49966443e-01,-1.21568573e+00,
   5.89984238e-01, 6.87274361e+00,-9.87402248e+00, 2.78434563e+00,
   2.53629589e+00, 4.71563846e-01, 1.77076244e+00,-7.74718618e+00,
  -8.64321709e-01, 1.27668214e+00,-4.27218914e-01, 1.89311504e+00,
  -3.38222075e+00, 4.12785769e-01,-5.78664482e-01,-7.88304389e-01,
  -4.71884918e+00, 4.52839422e+00, 3.13413668e+00, 3.65036535e+00,
  -1.95373285e+00, 2.50915551e+00, 7.43716776e-01, 2.65919042e+00,
   5.95293418e-02,-3.69815707e-01,-8.96121442e-01, 5.99282742e-01,
  -1.67354941e+00, 2.09270167e+00,-7.83774328e+00, 9.24277961e-01,
  -2.78716892e-01,-3.59664631e+00,-5.57765102e+00, 1.64710975e+00,
  -2.16865659e-01,-1.84280670e+00,-3.49274397e-01, 5.41916132e-01,
   2.14923835e+00,-4.70588207e+00,-5.74487734e+00,-1.42709720e+00,
  -4.11623657e-01, 4.24961090e-01,-1.83207655e+00,-5.06937921e-01,
   1.58136964e-01,-1.97927284e+00,-3.99285793e-01,-9.31633174e-01,
   2.64284086e+00,-1.41093600e+00,-4.66693163e+00, 6.26177430e-01,
  -3.26069927e+00, 5.13406563e+00,-6.09806739e-02,-3.39393079e-01,
   1.50781763e+00, 8.14540982e-01, 2.75526881e+00,-1.79229164e+00,
   1.73886907e+00, 9.39641094e+00, 1.87580967e+00,-3.72359705e+00,
  -1.36719835e+00, 3.84457445e+00,-1.46564925e+00,-1.94913244e+00,
   7.96709776e-01,-3.92969108e+00, 1.75481796e+00,-1.18034899e+00}};

const float b2[sz_hid_2] = {  5.9110723 ,-11.985039  , -0.09588767, -3.4150531 , -5.2310147 ,
  -9.79873   , -0.18797   , -8.455196  ,  1.3288274 , -7.831666  ,
   1.5702038 ,-10.842825  ,  2.98719   , -6.3968596 , -0.16234988,
  -0.162994  , -6.8221655 ,  0.8123145 , -7.486264  ,  3.372929  ,
   5.224112  , -2.0329866 ,  4.7631354 , -3.0130134 , -8.049902  ,
  -9.2978325 , -0.11949639, -7.8302054 , -2.7815976 , -5.5678153 ,
   9.346605  ,  8.053524  };

const float w3[sz_act][sz_hid_2] = {{ 8.0181763e-02, 4.3089103e-02, 7.8431882e-02,-7.3467991e-03,
   2.3609473e-01, 3.4932848e-02, 4.5929901e-02, 1.8242238e-01,
  -2.1497121e-01,-1.0435369e-03,-1.3412714e-01, 1.7637477e-03,
   1.2287120e-01,-2.3790434e-01,-2.3967177e-02,-1.2870341e-02,
  -1.9360161e-03, 2.0260958e-01,-2.0380031e-02,-2.1969867e-03,
  -9.6155808e-04, 8.7513767e-02, 6.9361424e-01,-8.9760639e-02,
   2.3981595e-01,-6.0221618e-01, 7.1356431e-02, 2.9609621e-01,
   4.1228537e-03,-1.1841450e-01,-1.7678385e-03,-5.0823039e-01},
 {-5.2742870e-04,-1.9295421e-01, 1.2926888e-01,-2.7769664e-01,
   3.3575159e-03, 8.8960573e-02,-2.5288772e-03, 1.5192823e-01,
   2.2605853e-02,-3.9724070e-01,-3.8803816e-02,-1.2270413e-01,
  -9.0082008e-03, 6.2823766e-03, 7.7851474e-02,-7.5841881e-02,
   1.2278995e-01, 4.0540067e-03,-2.1962894e-01, 9.5787011e-02,
   9.9177994e-02, 4.4270386e-03,-1.5879272e-02, 4.3195789e-05,
  -1.4796473e-02, 3.8035374e-02,-4.8343189e-02, 3.2046679e-02,
  -1.1745992e-01, 2.9099926e-03, 1.4339133e-01,-7.9509905e-03}};

const float b3[sz_act] = { 0.01295122,-0.26315767};

